GenomeStart 4278
Neuron 1 1 0.00000000 1 0.00000000 0.00000000 0.00000000 0.00000000
Neuron 2 1 0.00000000 1 0.00000000 0.00000000 0.00000000 0.00000000
Neuron 3 1 0.00000000 1 0.00000000 0.00000000 0.00000000 0.00000000
Neuron 4 1 0.00000000 1 0.00000000 0.00000000 0.00000000 0.00000000
Neuron 5 1 0.00000000 1 0.00000000 0.00000000 0.00000000 0.00000000
Neuron 6 1 0.00000000 1 0.00000000 0.00000000 0.00000000 0.00000000
Neuron 7 1 0.00000000 1 0.00000000 0.00000000 0.00000000 0.00000000
Neuron 8 1 0.00000000 1 0.00000000 0.00000000 0.00000000 0.00000000
Neuron 9 1 0.00000000 1 0.00000000 0.00000000 0.00000000 0.00000000
Neuron 10 1 0.00000000 1 0.00000000 0.00000000 0.00000000 0.00000000
Neuron 11 1 0.00000000 1 0.00000000 0.00000000 0.00000000 0.00000000
Neuron 12 1 0.00000000 1 0.00000000 0.00000000 0.00000000 0.00000000
Neuron 13 1 0.00000000 1 0.00000000 0.00000000 0.00000000 0.00000000
Neuron 14 1 0.00000000 1 0.00000000 0.00000000 0.00000000 0.00000000
Neuron 15 1 0.00000000 1 0.00000000 0.00000000 0.00000000 0.00000000
Neuron 16 1 0.00000000 1 0.00000000 0.00000000 0.00000000 0.00000000
Neuron 17 1 0.00000000 1 0.00000000 0.00000000 0.00000000 0.00000000
Neuron 18 1 0.00000000 1 0.00000000 0.00000000 0.00000000 0.00000000
Neuron 19 1 0.00000000 1 0.00000000 0.00000000 0.00000000 0.00000000
Neuron 20 1 0.00000000 1 0.00000000 0.00000000 0.00000000 0.00000000
Neuron 21 1 0.00000000 1 0.00000000 0.00000000 0.00000000 0.00000000
Neuron 22 1 0.00000000 1 0.00000000 0.00000000 0.00000000 0.00000000
Neuron 23 1 0.00000000 1 0.00000000 0.00000000 0.00000000 0.00000000
Neuron 24 1 0.00000000 1 0.00000000 0.00000000 0.00000000 0.00000000
Neuron 25 1 0.00000000 1 0.00000000 0.00000000 0.00000000 0.00000000
Neuron 26 1 0.00000000 1 0.00000000 0.00000000 0.00000000 0.00000000
Neuron 27 1 0.00000000 1 0.00000000 0.00000000 0.00000000 0.00000000
Neuron 28 1 0.00000000 1 0.00000000 0.00000000 0.00000000 0.00000000
Neuron 29 1 0.00000000 1 0.00000000 0.00000000 0.00000000 0.00000000
Neuron 30 1 0.00000000 1 0.00000000 0.00000000 0.00000000 0.00000000
Neuron 31 1 0.00000000 1 0.00000000 0.00000000 0.00000000 0.00000000
Neuron 32 1 0.00000000 1 0.00000000 0.00000000 0.00000000 0.00000000
Neuron 33 1 0.00000000 1 0.00000000 0.00000000 0.00000000 0.00000000
Neuron 34 1 0.00000000 1 0.00000000 0.00000000 0.00000000 0.00000000
Neuron 35 1 0.00000000 1 0.00000000 0.00000000 0.00000000 0.00000000
Neuron 36 1 0.00000000 1 0.00000000 0.00000000 0.00000000 0.00000000
Neuron 37 1 0.00000000 1 0.00000000 0.00000000 0.00000000 0.00000000
Neuron 38 1 0.00000000 1 0.00000000 0.00000000 0.00000000 0.00000000
Neuron 39 1 0.00000000 1 0.00000000 0.00000000 0.00000000 0.00000000
Neuron 40 1 0.00000000 1 0.00000000 0.00000000 0.00000000 0.00000000
Neuron 41 1 0.00000000 1 0.00000000 0.00000000 0.00000000 0.00000000
Neuron 42 1 0.00000000 1 0.00000000 0.00000000 0.00000000 0.00000000
Neuron 43 1 0.00000000 1 0.00000000 0.00000000 0.00000000 0.00000000
Neuron 44 1 0.00000000 1 0.00000000 0.00000000 0.00000000 0.00000000
Neuron 45 1 0.00000000 1 0.00000000 0.00000000 0.00000000 0.00000000
Neuron 46 1 0.00000000 1 0.00000000 0.00000000 0.00000000 0.00000000
Neuron 47 1 0.00000000 1 0.00000000 0.00000000 0.00000000 0.00000000
Neuron 48 1 0.00000000 1 0.00000000 0.00000000 0.00000000 0.00000000
Neuron 49 1 0.00000000 1 0.00000000 0.00000000 0.00000000 0.00000000
Neuron 50 1 0.00000000 1 0.00000000 0.00000000 0.00000000 0.00000000
Neuron 51 1 0.00000000 1 0.00000000 0.00000000 0.00000000 0.00000000
Neuron 52 1 0.00000000 1 0.00000000 0.00000000 0.00000000 0.00000000
Neuron 53 1 0.00000000 1 0.00000000 0.00000000 0.00000000 0.00000000
Neuron 54 1 0.00000000 1 0.00000000 0.00000000 0.00000000 0.00000000
Neuron 55 1 0.00000000 1 0.00000000 0.00000000 0.00000000 0.00000000
Neuron 56 1 0.00000000 1 0.00000000 0.00000000 0.00000000 0.00000000
Neuron 57 1 0.00000000 1 0.00000000 0.00000000 0.00000000 0.00000000
Neuron 58 1 0.00000000 1 0.00000000 0.00000000 0.00000000 0.00000000
Neuron 59 1 0.00000000 1 0.00000000 0.00000000 0.00000000 0.00000000
Neuron 60 1 0.00000000 1 0.00000000 0.00000000 0.00000000 0.00000000
Neuron 61 1 0.00000000 1 0.00000000 0.00000000 0.00000000 0.00000000
Neuron 62 1 0.00000000 1 0.00000000 0.00000000 0.00000000 0.00000000
Neuron 63 1 0.00000000 1 0.00000000 0.00000000 0.00000000 0.00000000
Neuron 64 1 0.00000000 1 0.00000000 0.00000000 0.00000000 0.00000000
Neuron 65 1 0.00000000 1 0.00000000 0.00000000 0.00000000 0.00000000
Neuron 66 1 0.00000000 1 0.00000000 0.00000000 0.00000000 0.00000000
Neuron 67 1 0.00000000 1 0.00000000 0.00000000 0.00000000 0.00000000
Neuron 68 1 0.00000000 1 0.00000000 0.00000000 0.00000000 0.00000000
Neuron 69 1 0.00000000 1 0.00000000 0.00000000 0.00000000 0.00000000
Neuron 70 1 0.00000000 1 0.00000000 0.00000000 0.00000000 0.00000000
Neuron 71 1 0.00000000 1 0.00000000 0.00000000 0.00000000 0.00000000
Neuron 72 1 0.00000000 1 0.00000000 0.00000000 0.00000000 0.00000000
Neuron 73 1 0.00000000 1 0.00000000 0.00000000 0.00000000 0.00000000
Neuron 74 1 0.00000000 1 0.00000000 0.00000000 0.00000000 0.00000000
Neuron 75 1 0.00000000 1 0.00000000 0.00000000 0.00000000 0.00000000
Neuron 76 1 0.00000000 1 0.00000000 0.00000000 0.00000000 0.00000000
Neuron 77 1 0.00000000 1 0.00000000 0.00000000 0.00000000 0.00000000
Neuron 78 1 0.00000000 1 0.00000000 0.00000000 0.00000000 0.00000000
Neuron 79 1 0.00000000 1 0.00000000 0.00000000 0.00000000 0.00000000
Neuron 80 1 0.00000000 1 0.00000000 0.00000000 0.00000000 0.00000000
Neuron 81 1 0.00000000 1 0.00000000 0.00000000 0.00000000 0.00000000
Neuron 82 1 0.00000000 1 0.00000000 0.00000000 0.00000000 0.00000000
Neuron 83 1 0.00000000 1 0.00000000 0.00000000 0.00000000 0.00000000
Neuron 84 1 0.00000000 1 0.00000000 0.00000000 0.00000000 0.00000000
Neuron 85 1 0.00000000 1 0.00000000 0.00000000 0.00000000 0.00000000
Neuron 86 1 0.00000000 1 0.00000000 0.00000000 0.00000000 0.00000000
Neuron 87 1 0.00000000 1 0.00000000 0.00000000 0.00000000 0.00000000
Neuron 88 1 0.00000000 1 0.00000000 0.00000000 0.00000000 0.00000000
Neuron 89 1 0.00000000 1 0.00000000 0.00000000 0.00000000 0.00000000
Neuron 90 1 0.00000000 1 0.00000000 0.00000000 0.00000000 0.00000000
Neuron 91 1 0.00000000 1 0.00000000 0.00000000 0.00000000 0.00000000
Neuron 92 1 0.00000000 1 0.00000000 0.00000000 0.00000000 0.00000000
Neuron 93 1 0.00000000 1 0.00000000 0.00000000 0.00000000 0.00000000
Neuron 94 1 0.00000000 1 0.00000000 0.00000000 0.00000000 0.00000000
Neuron 95 1 0.00000000 1 0.00000000 0.00000000 0.00000000 0.00000000
Neuron 96 1 0.00000000 1 0.00000000 0.00000000 0.00000000 0.00000000
Neuron 97 1 0.00000000 1 0.00000000 0.00000000 0.00000000 0.00000000
Neuron 98 1 0.00000000 1 0.00000000 0.00000000 0.00000000 0.00000000
Neuron 99 1 0.00000000 1 0.00000000 0.00000000 0.00000000 0.00000000
Neuron 100 1 0.00000000 1 0.00000000 0.00000000 0.00000000 0.00000000
Neuron 101 1 0.00000000 1 0.00000000 0.00000000 0.00000000 0.00000000
Neuron 102 1 0.00000000 1 0.00000000 0.00000000 0.00000000 0.00000000
Neuron 103 1 0.00000000 1 0.00000000 0.00000000 0.00000000 0.00000000
Neuron 104 1 0.00000000 1 0.00000000 0.00000000 0.00000000 0.00000000
Neuron 105 1 0.00000000 1 0.00000000 0.00000000 0.00000000 0.00000000
Neuron 106 1 0.00000000 1 0.00000000 0.00000000 0.00000000 0.00000000
Neuron 107 1 0.00000000 1 0.00000000 0.00000000 0.00000000 0.00000000
Neuron 108 1 0.00000000 1 0.00000000 0.00000000 0.00000000 0.00000000
Neuron 109 1 0.00000000 1 0.00000000 0.00000000 0.00000000 0.00000000
Neuron 110 1 0.00000000 1 0.00000000 0.00000000 0.00000000 0.00000000
Neuron 111 1 0.00000000 1 0.00000000 0.00000000 0.00000000 0.00000000
Neuron 112 1 0.00000000 1 0.00000000 0.00000000 0.00000000 0.00000000
Neuron 113 1 0.00000000 1 0.00000000 0.00000000 0.00000000 0.00000000
Neuron 114 1 0.00000000 1 0.00000000 0.00000000 0.00000000 0.00000000
Neuron 115 1 0.00000000 1 0.00000000 0.00000000 0.00000000 0.00000000
Neuron 116 1 0.00000000 1 0.00000000 0.00000000 0.00000000 0.00000000
Neuron 117 1 0.00000000 1 0.00000000 0.00000000 0.00000000 0.00000000
Neuron 118 1 0.00000000 1 0.00000000 0.00000000 0.00000000 0.00000000
Neuron 119 1 0.00000000 1 0.00000000 0.00000000 0.00000000 0.00000000
Neuron 120 1 0.00000000 1 0.00000000 0.00000000 0.00000000 0.00000000
Neuron 121 1 0.00000000 1 0.00000000 0.00000000 0.00000000 0.00000000
Neuron 122 1 0.00000000 1 0.00000000 0.00000000 0.00000000 0.00000000
Neuron 123 1 0.00000000 1 0.00000000 0.00000000 0.00000000 0.00000000
Neuron 124 1 0.00000000 1 0.00000000 0.00000000 0.00000000 0.00000000
Neuron 125 1 0.00000000 1 0.00000000 0.00000000 0.00000000 0.00000000
Neuron 126 1 0.00000000 1 0.00000000 0.00000000 0.00000000 0.00000000
Neuron 127 1 0.00000000 1 0.00000000 0.00000000 0.00000000 0.00000000
Neuron 128 1 0.00000000 1 0.00000000 0.00000000 0.00000000 0.00000000
Neuron 129 1 0.00000000 1 0.00000000 0.00000000 0.00000000 0.00000000
Neuron 130 1 0.00000000 1 0.00000000 0.00000000 0.00000000 0.00000000
Neuron 131 1 0.00000000 1 0.00000000 0.00000000 0.00000000 0.00000000
Neuron 132 1 0.00000000 1 0.00000000 0.00000000 0.00000000 0.00000000
Neuron 133 1 0.00000000 1 0.00000000 0.00000000 0.00000000 0.00000000
Neuron 134 1 0.00000000 1 0.00000000 0.00000000 0.00000000 0.00000000
Neuron 135 1 0.00000000 1 0.00000000 0.00000000 0.00000000 0.00000000
Neuron 136 1 0.00000000 1 0.00000000 0.00000000 0.00000000 0.00000000
Neuron 137 1 0.00000000 1 0.00000000 0.00000000 0.00000000 0.00000000
Neuron 138 1 0.00000000 1 0.00000000 0.00000000 0.00000000 0.00000000
Neuron 139 1 0.00000000 1 0.00000000 0.00000000 0.00000000 0.00000000
Neuron 140 1 0.00000000 1 0.00000000 0.00000000 0.00000000 0.00000000
Neuron 141 1 0.00000000 1 0.00000000 0.00000000 0.00000000 0.00000000
Neuron 142 1 0.00000000 1 0.00000000 0.00000000 0.00000000 0.00000000
Neuron 143 1 0.00000000 1 0.00000000 0.00000000 0.00000000 0.00000000
Neuron 144 1 0.00000000 1 0.00000000 0.00000000 0.00000000 0.00000000
Neuron 145 1 0.00000000 1 0.00000000 0.00000000 0.00000000 0.00000000
Neuron 146 1 0.00000000 1 0.00000000 0.00000000 0.00000000 0.00000000
Neuron 147 1 0.00000000 1 0.00000000 0.00000000 0.00000000 0.00000000
Neuron 148 1 0.00000000 1 0.00000000 0.00000000 0.00000000 0.00000000
Neuron 149 1 0.00000000 1 0.00000000 0.00000000 0.00000000 0.00000000
Neuron 150 1 0.00000000 1 0.00000000 0.00000000 0.00000000 0.00000000
Neuron 151 1 0.00000000 1 0.00000000 0.00000000 0.00000000 0.00000000
Neuron 152 1 0.00000000 1 0.00000000 0.00000000 0.00000000 0.00000000
Neuron 153 1 0.00000000 1 0.00000000 0.00000000 0.00000000 0.00000000
Neuron 154 1 0.00000000 1 0.00000000 0.00000000 0.00000000 0.00000000
Neuron 155 1 0.00000000 1 0.00000000 0.00000000 0.00000000 0.00000000
Neuron 156 1 0.00000000 1 0.00000000 0.00000000 0.00000000 0.00000000
Neuron 157 1 0.00000000 1 0.00000000 0.00000000 0.00000000 0.00000000
Neuron 158 1 0.00000000 1 0.00000000 0.00000000 0.00000000 0.00000000
Neuron 159 1 0.00000000 1 0.00000000 0.00000000 0.00000000 0.00000000
Neuron 160 1 0.00000000 1 0.00000000 0.00000000 0.00000000 0.00000000
Neuron 161 1 0.00000000 1 0.00000000 0.00000000 0.00000000 0.00000000
Neuron 162 1 0.00000000 1 0.00000000 0.00000000 0.00000000 0.00000000
Neuron 163 1 0.00000000 1 0.00000000 0.00000000 0.00000000 0.00000000
Neuron 164 1 0.00000000 1 0.00000000 0.00000000 0.00000000 0.00000000
Neuron 165 1 0.00000000 1 0.00000000 0.00000000 0.00000000 0.00000000
Neuron 166 1 0.00000000 1 0.00000000 0.00000000 0.00000000 0.00000000
Neuron 167 1 0.00000000 1 0.00000000 0.00000000 0.00000000 0.00000000
Neuron 168 1 0.00000000 1 0.00000000 0.00000000 0.00000000 0.00000000
Neuron 169 1 0.00000000 1 0.00000000 0.00000000 0.00000000 0.00000000
Neuron 170 1 0.00000000 1 0.00000000 0.00000000 0.00000000 0.00000000
Neuron 171 1 0.00000000 1 0.00000000 0.00000000 0.00000000 0.00000000
Neuron 172 1 0.00000000 1 0.00000000 0.00000000 0.00000000 0.00000000
Neuron 173 1 0.00000000 1 0.00000000 0.00000000 0.00000000 0.00000000
Neuron 174 1 0.00000000 1 0.00000000 0.00000000 0.00000000 0.00000000
Neuron 175 1 0.00000000 1 0.00000000 0.00000000 0.00000000 0.00000000
Neuron 176 1 0.00000000 1 0.00000000 0.00000000 0.00000000 0.00000000
Neuron 177 1 0.00000000 1 0.00000000 0.00000000 0.00000000 0.00000000
Neuron 178 1 0.00000000 1 0.00000000 0.00000000 0.00000000 0.00000000
Neuron 179 1 0.00000000 1 0.00000000 0.00000000 0.00000000 0.00000000
Neuron 180 1 0.00000000 1 0.00000000 0.00000000 0.00000000 0.00000000
Neuron 181 1 0.00000000 1 0.00000000 0.00000000 0.00000000 0.00000000
Neuron 182 1 0.00000000 1 0.00000000 0.00000000 0.00000000 0.00000000
Neuron 183 1 0.00000000 1 0.00000000 0.00000000 0.00000000 0.00000000
Neuron 184 1 0.00000000 1 0.00000000 0.00000000 0.00000000 0.00000000
Neuron 185 1 0.00000000 1 0.00000000 0.00000000 0.00000000 0.00000000
Neuron 186 1 0.00000000 1 0.00000000 0.00000000 0.00000000 0.00000000
Neuron 187 1 0.00000000 1 0.00000000 0.00000000 0.00000000 0.00000000
Neuron 188 1 0.00000000 1 0.00000000 0.00000000 0.00000000 0.00000000
Neuron 189 1 0.00000000 1 0.00000000 0.00000000 0.00000000 0.00000000
Neuron 190 1 0.00000000 1 0.00000000 0.00000000 0.00000000 0.00000000
Neuron 191 1 0.00000000 1 0.00000000 0.00000000 0.00000000 0.00000000
Neuron 192 1 0.00000000 1 0.00000000 0.00000000 0.00000000 0.00000000
Neuron 193 1 0.00000000 1 0.00000000 0.00000000 0.00000000 0.00000000
Neuron 194 2 0.00000000 1 0.00000000 0.00000000 0.00000000 0.00000000
Neuron 195 4 1.00000000 0 1.00000000 0.00000000 0.00000000 0.28558896
Neuron 196 4 1.00000000 1 1.00000000 0.00000000 0.00000000 0.63585167
Neuron 197 4 1.00000000 0 1.00000000 0.00000000 0.00000000 -0.49585644
Neuron 198 4 1.00000000 0 1.00000000 0.00000000 0.00000000 0.65099135
Neuron 199 4 1.00000000 0 1.00000000 0.00000000 0.00000000 0.03920268
Neuron 200 4 1.00000000 0 1.00000000 0.00000000 0.00000000 0.35102820
Neuron 201 4 1.00000000 0 1.00000000 0.00000000 0.00000000 0.01113841
Neuron 202 4 1.00000000 1 1.00000000 0.00000000 0.00000000 -0.50409404
Neuron 203 4 1.00000000 0 1.00000000 0.00000000 0.00000000 0.20192745
Neuron 204 4 1.00000000 1 1.00000000 0.00000000 0.00000000 0.46093203
Neuron 205 4 1.00000000 0 1.00000000 0.00000000 0.00000000 0.43147647
Neuron 206 4 1.00000000 0 1.00000000 0.00000000 0.00000000 -0.38453143
Neuron 207 4 1.00000000 0 1.00000000 0.00000000 0.00000000 -0.23033757
Neuron 208 4 1.00000000 0 1.00000000 0.00000000 0.00000000 -0.20077915
Neuron 209 4 1.00000000 0 1.00000000 0.00000000 0.00000000 -0.20979312
Link 1 195 1 0 0.12393047
Link 2 195 2 0 1.08958080
Link 3 195 3 0 0.66604358
Link 4 195 4 0 0.46568401
Link 5 195 5 0 -0.01065599
Link 6 195 6 0 -0.49911584
Link 7 195 7 0 0.56409645
Link 8 195 8 0 0.99915326
Link 9 195 9 0 0.81837696
Link 10 195 10 0 -0.18228943
Link 11 195 11 0 -0.04605069
Link 12 195 12 0 0.54602617
Link 13 195 13 0 0.42954404
Link 14 195 14 0 0.35882772
Link 15 195 15 0 0.72078776
Link 16 195 16 0 -0.59632798
Link 17 195 17 0 0.72987092
Link 18 195 18 0 -0.02857421
Link 19 195 19 0 0.18763131
Link 20 195 20 0 0.11161300
Link 21 195 21 0 0.55756468
Link 22 195 22 0 -0.05438645
Link 23 195 23 0 -1.02816138
Link 24 195 24 0 0.43907776
Link 25 195 25 0 0.71357512
Link 26 195 26 0 0.02722433
Link 27 195 27 0 1.15269456
Link 28 195 28 0 -0.21362522
Link 29 195 29 0 0.18950818
Link 30 195 30 0 0.05456843
Link 31 195 31 0 -0.46606680
Link 32 195 32 0 -0.19616736
Link 33 195 33 0 -0.23946033
Link 34 195 34 0 0.09698840
Link 35 195 35 0 -0.12376856
Link 36 195 36 0 -0.19242967
Link 37 195 37 0 0.38989664
Link 38 195 38 0 0.63392810
Link 39 195 39 0 0.28891839
Link 40 195 40 0 0.38877376
Link 41 195 41 0 1.11585174
Link 42 195 42 0 -0.01848961
Link 43 195 43 0 -0.35519312
Link 44 195 44 0 0.18491592
Link 45 195 45 0 0.25540449
Link 46 195 46 0 0.13906034
Link 47 195 47 0 -1.06880836
Link 48 195 48 0 -0.24576400
Link 49 195 49 0 -0.94338046
Link 50 195 50 0 0.04430009
Link 51 195 51 0 1.55415393
Link 52 195 52 0 -0.45367913
Link 53 195 53 0 0.31177543
Link 54 195 54 0 -0.37254435
Link 55 195 55 0 -0.18181336
Link 56 195 56 0 0.48769195
Link 57 195 57 0 -0.06381808
Link 58 195 58 0 -0.24371242
Link 59 195 59 0 0.31409987
Link 60 195 60 0 0.37444097
Link 61 195 61 0 0.23956801
Link 62 195 62 0 0.44136360
Link 63 195 63 0 0.44233658
Link 64 195 64 0 0.12765305
Link 65 195 65 0 -0.64176955
Link 66 195 66 0 -0.31630427
Link 67 195 67 0 0.07314407
Link 68 195 68 0 -0.22676129
Link 69 195 69 0 0.32805114
Link 70 195 70 0 -0.18098250
Link 71 195 71 0 0.06645763
Link 72 195 72 0 0.82012714
Link 73 195 73 0 0.23048412
Link 74 195 74 0 1.30593220
Link 75 195 75 0 0.74319355
Link 76 195 76 0 -0.23495318
Link 77 195 77 0 -1.84671524
Link 78 195 78 0 -0.07781384
Link 79 195 79 0 -0.39046095
Link 80 195 80 0 0.69078151
Link 81 195 81 0 -0.30472599
Link 82 195 82 0 0.16665117
Link 83 195 83 0 -0.37495973
Link 84 195 84 0 0.40359728
Link 85 195 85 0 0.65742543
Link 86 195 86 0 0.71834699
Link 87 195 87 0 0.16184046
Link 88 195 88 0 -0.35938929
Link 89 195 89 0 -0.25241486
Link 90 195 90 0 0.16327540
Link 91 195 91 0 0.24875099
Link 92 195 92 0 0.59970802
Link 93 195 93 0 -0.58715830
Link 94 195 94 0 -0.22758822
Link 95 195 95 0 0.00698393
Link 96 195 96 0 0.41902654
Link 97 195 97 0 0.10174186
Link 98 195 98 0 0.52126417
Link 99 195 99 0 -0.41064176
Link 100 195 100 0 -0.64350158
Link 101 195 101 0 0.35574635
Link 102 195 102 0 -0.63000689
Link 103 195 103 0 0.28663267
Link 104 195 104 0 -0.50359581
Link 105 195 105 0 -0.14345946
Link 106 195 106 0 0.05605643
Link 107 195 107 0 0.06282724
Link 108 195 108 0 0.63673893
Link 109 195 109 0 0.18464107
Link 110 195 110 0 0.32046326
Link 111 195 111 0 0.58257598
Link 112 195 112 0 0.51939548
Link 113 195 113 0 -0.90689923
Link 114 195 114 0 0.67351008
Link 115 195 115 0 0.61188496
Link 116 195 116 0 -0.03250811
Link 117 195 117 0 0.71112920
Link 118 195 118 0 1.29837667
Link 119 195 119 0 -0.25718472
Link 120 195 120 0 -0.07022603
Link 121 195 121 0 -0.10858826
Link 122 195 122 0 0.09122568
Link 123 195 123 0 0.16903260
Link 124 195 124 0 0.14660798
Link 125 195 125 0 -0.26321594
Link 126 195 126 0 0.88996697
Link 127 195 127 0 0.05432025
Link 128 195 128 0 0.40293897
Link 129 195 129 0 0.57958295
Link 130 195 130 0 -0.06002858
Link 131 195 131 0 -0.03429625
Link 132 195 132 0 0.48651761
Link 133 195 133 0 1.64407519
Link 134 195 134 0 -0.23442585
Link 135 195 135 0 0.56035812
Link 136 195 136 0 -0.38619678
Link 137 195 137 0 -0.69166656
Link 138 195 138 0 0.91703960
Link 139 195 139 0 -0.47006311
Link 140 195 140 0 -0.45795794
Link 141 195 141 0 -0.35982795
Link 142 195 142 0 -0.14236263
Link 143 195 143 0 -0.02285153
Link 144 195 144 0 0.33792540
Link 145 195 145 0 0.01421483
Link 146 195 146 0 0.61131715
Link 147 195 147 0 0.28595011
Link 148 195 148 0 0.28051017
Link 149 195 149 0 -0.25400232
Link 150 195 150 0 0.09012236
Link 151 195 151 0 -0.37630950
Link 152 195 152 0 0.05506692
Link 153 195 153 0 0.48563330
Link 154 195 154 0 -0.00168462
Link 155 195 155 0 0.22399370
Link 156 195 156 0 -0.12979993
Link 157 195 157 0 0.37167261
Link 158 195 158 0 0.45507895
Link 159 195 159 0 -0.28265994
Link 160 195 160 0 -0.26149986
Link 161 195 161 0 0.23598234
Link 162 195 162 0 0.01411198
Link 163 195 163 0 -0.16949918
Link 164 195 164 0 -0.36847969
Link 165 195 165 0 0.02421709
Link 166 195 166 0 0.23426834
Link 167 195 167 0 -0.25264826
Link 168 195 168 0 0.21175553
Link 169 195 169 0 -1.07918775
Link 170 195 170 0 0.49943306
Link 171 195 171 0 0.17479145
Link 172 195 172 0 0.73252154
Link 173 195 173 0 0.55606367
Link 174 195 174 0 0.16879874
Link 175 195 175 0 -0.35540595
Link 176 195 176 0 -0.13352032
Link 177 195 177 0 0.30374999
Link 178 195 178 0 0.76181499
Link 179 195 179 0 -0.23402723
Link 180 195 180 0 0.05909531
Link 181 195 181 0 -0.04875034
Link 182 195 182 0 -0.38337870
Link 183 195 183 0 0.27670392
Link 184 195 184 0 -0.15997660
Link 185 195 185 0 0.72137103
Link 186 195 186 0 0.44835950
Link 187 195 187 0 -0.28513024
Link 188 195 188 0 -0.26371569
Link 189 195 189 0 0.37088417
Link 190 195 190 0 -1.55084979
Link 191 195 191 0 1.82859148
Link 192 195 192 0 -0.15169465
Link 193 195 193 0 -0.78312850
Link 194 195 194 0 -1.45286508
Link 1 196 195 0 -0.48329955
Link 2 196 196 0 0.62939502
Link 3 196 197 0 0.26122673
Link 4 196 198 0 -0.17586845
Link 5 196 199 0 1.63486383
Link 6 196 200 0 -0.33310524
Link 7 196 201 0 -1.14013783
Link 8 196 202 0 0.26880689
Link 9 196 203 0 0.02377539
Link 10 196 204 0 0.79891947
Link 11 196 205 0 -0.68901664
Link 12 196 206 0 0.12572565
Link 13 196 207 0 -0.16665857
Link 14 196 208 0 0.19061451
Link 15 196 209 0 0.54921469
Link 16 196 210 0 -0.15451665
Link 17 196 211 0 0.14771227
Link 18 196 212 0 1.25507633
Link 19 196 213 0 -0.16466698
Link 20 196 214 0 0.35851968
Link 21 196 215 0 0.92146411
Link 22 196 216 0 -0.05745676
Link 23 196 217 0 -0.41637991
Link 24 196 218 0 0.63638538
Link 25 196 219 0 0.59815073
Link 26 196 220 0 0.03902135
Link 27 196 221 0 -0.27821009
Link 28 196 222 0 0.09750974
Link 29 196 223 0 0.19554868
Link 30 196 224 0 -1.26675727
Link 31 196 225 0 0.26777514
Link 32 196 226 0 -0.09020811
Link 33 196 227 0 -0.41453396
Link 34 196 228 0 -0.75241787
Link 35 196 229 0 -0.21445850
Link 36 196 230 0 -0.04869646
Link 37 196 231 0 0.33079312
Link 38 196 232 0 0.48458001
Link 39 196 233 0 0.41634372
Link 40 196 234 0 0.40487014
Link 41 196 235 0 -0.16780445
Link 42 196 236 0 -0.17873537
Link 43 196 237 0 0.18643006
Link 44 196 238 0 0.03969560
Link 45 196 239 0 0.38799981
Link 46 196 240 0 0.51440684
Link 47 196 241 0 -0.21059194
Link 48 196 242 0 0.67602693
Link 49 196 243 0 0.22413834
Link 50 196 244 0 0.64570645
Link 51 196 245 0 0.41270819
Link 52 196 246 0 -0.43241528
Link 53 196 247 0 -0.20338344
Link 54 196 248 0 -0.71159049
Link 55 196 249 0 -0.21551654
Link 56 196 250 0 0.24602088
Link 57 196 251 0 0.40850701
Link 58 196 252 0 0.23293832
Link 59 196 253 0 -0.35936079
Link 60 196 254 0 0.48536787
Link 61 196 255 0 -0.52683142
Link 62 196 256 0 -0.14304604
Link 63 196 257 0 0.14117643
Link 64 196 258 0 0.05758927
Link 65 196 259 0 -0.28867980
Link 66 196 260 0 -0.13487054
Link 67 196 261 0 -0.25851546
Link 68 196 262 0 1.35824017
Link 69 196 263 0 -0.13582482
Link 70 196 264 0 -1.13192200
Link 71 196 265 0 0.18067313
Link 72 196 266 0 0.02610833
Link 73 196 267 0 1.33880197
Link 74 196 268 0 0.56412149
Link 75 196 269 0 -0.38913930
Link 76 196 270 0 0.22499493
Link 77 196 271 0 0.32969789
Link 78 196 272 0 0.50904051
Link 79 196 273 0 1.18301580
Link 80 196 274 0 0.10123254
Link 81 196 275 0 0.72915518
Link 82 196 276 0 -0.06592494
Link 83 196 277 0 -0.44154801
Link 84 196 278 0 0.04692416
Link 85 196 279 0 -0.28264271
Link 86 196 280 0 -0.97047869
Link 87 196 281 0 0.42286796
Link 88 196 282 0 -1.49280218
Link 89 196 283 0 0.44999752
Link 90 196 284 0 -1.05208316
Link 91 196 285 0 0.50810145
Link 92 196 286 0 0.32225904
Link 93 196 287 0 0.01082104
Link 94 196 288 0 -0.34441496
Link 95 196 289 0 1.06061729
Link 96 196 290 0 0.15019509
Link 97 196 291 0 1.02435925
Link 98 196 292 0 -0.47318097
Link 99 196 293 0 0.93165460
Link 100 196 294 0 -0.15997271
Link 101 196 295 0 -0.77712805
Link 102 196 296 0 -0.26854638
Link 103 196 297 0 0.32611726
Link 104 196 298 0 0.71790404
Link 105 196 299 0 0.74022816
Link 106 196 300 0 0.34494778
Link 107 196 301 0 0.00103519
Link 108 196 302 0 -0.00285056
Link 109 196 303 0 -0.12037359
Link 110 196 304 0 -0.56945116
Link 111 196 305 0 0.08183896
Link 112 196 306 0 2.48754622
Link 113 196 307 0 -0.38322484
Link 114 196 308 0 -0.54611533
Link 115 196 309 0 -0.22643002
Link 116 196 310 0 -0.44941220
Link 117 196 311 0 0.21256444
Link 118 196 312 0 -0.10896060
Link 119 196 313 0 0.51573239
Link 120 196 314 0 0.39334498
Link 121 196 315 0 0.34895714
Link 122 196 316 0 0.56280867
Link 123 196 317 0 1.58196153
Link 124 196 318 0 -0.10146052
Link 125 196 319 0 1.08265899
Link 126 196 320 0 -0.02519101
Link 127 196 321 0 -0.77930658
Link 128 196 322 0 -0.00010545
Link 129 196 323 0 -0.08945110
Link 130 196 324 0 -0.04021469
Link 131 196 325 0 0.25840174
Link 132 196 326 0 0.21127348
Link 133 196 327 0 -0.22938634
Link 134 196 328 0 0.13571444
Link 135 196 329 0 0.20045866
Link 136 196 330 0 0.13227767
Link 137 196 331 0 0.09105691
Link 138 196 332 0 0.34581518
Link 139 196 333 0 0.65221057
Link 140 196 334 0 -1.30480010
Link 141 196 335 0 -0.64144765
Link 142 196 336 0 -0.27521803
Link 143 196 337 0 -0.21862518
Link 144 196 338 0 0.00873523
Link 145 196 339 0 0.35708079
Link 146 196 340 0 0.35490702
Link 147 196 341 0 0.31719131
Link 148 196 342 0 -0.44139774
Link 149 196 343 0 0.10740521
Link 150 196 344 0 0.08287666
Link 151 196 345 0 -0.28685742
Link 152 196 346 0 -0.41988825
Link 153 196 347 0 0.25895711
Link 154 196 348 0 -0.91083317
Link 155 196 349 0 0.70717266
Link 156 196 350 0 0.47552180
Link 157 196 351 0 0.45575432
Link 158 196 352 0 -0.21509475
Link 159 196 353 0 0.12073783
Link 160 196 354 0 0.15106861
Link 161 196 355 0 0.43594446
Link 162 196 356 0 1.03523790
Link 163 196 357 0 0.20073805
Link 164 196 358 0 -0.47099567
Link 165 196 359 0 0.02579236
Link 166 196 360 0 1.45057715
Link 167 196 361 0 1.20443364
Link 168 196 362 0 -0.00355912
Link 169 196 363 0 -0.04889933
Link 170 196 364 0 -0.16681981
Link 171 196 365 0 -0.87443909
Link 172 196 366 0 -0.62781699
Link 173 196 367 0 0.11175432
Link 174 196 368 0 -0.38564610
Link 175 196 369 0 0.19770255
Link 176 196 370 0 0.08908329
Link 177 196 371 0 0.36784162
Link 178 196 372 0 -0.44365940
Link 179 196 373 0 0.03356570
Link 180 196 374 0 0.61473068
Link 181 196 375 0 -0.21896471
Link 182 196 376 0 0.49379032
Link 183 196 377 0 1.08800946
Link 184 196 378 0 -0.08075280
Link 185 196 379 0 0.13188305
Link 186 196 380 0 0.06149171
Link 187 196 381 0 0.24315509
Link 188 196 382 0 -0.78667617
Link 189 196 383 0 0.03840937
Link 190 196 384 0 -0.63398321
Link 191 196 385 0 -0.27980757
Link 192 196 386 0 -0.37334363
Link 193 196 387 0 -0.35367583
Link 194 196 388 0 0.56850919
Link 1 197 389 0 -0.01401473
Link 2 197 390 0 -1.07879452
Link 3 197 391 0 -0.44277532
Link 4 197 392 0 0.88745564
Link 5 197 393 0 0.46247123
Link 6 197 394 0 0.99433581
Link 7 197 395 0 0.14819470
Link 8 197 396 0 0.15455603
Link 9 197 397 0 0.24756784
Link 10 197 398 0 0.29823503
Link 11 197 399 0 0.43149922
Link 12 197 400 0 0.45675594
Link 13 197 401 0 -0.16978624
Link 14 197 402 0 0.37307159
Link 15 197 403 0 -0.04762781
Link 16 197 404 0 -0.23456558
Link 17 197 405 0 0.25054731
Link 18 197 406 0 -0.26993164
Link 19 197 407 0 0.02602229
Link 20 197 408 0 0.19220389
Link 21 197 409 0 0.65621588
Link 22 197 410 0 -0.76163879
Link 23 197 411 0 -0.27515100
Link 24 197 412 0 0.32088029
Link 25 197 413 0 -0.63211735
Link 26 197 414 0 -0.95155798
Link 27 197 415 0 0.61151020
Link 28 197 416 0 -0.18976633
Link 29 197 417 0 -0.43032367
Link 30 197 418 0 0.01765981
Link 31 197 419 0 -0.02870708
Link 32 197 420 0 0.33823282
Link 33 197 421 0 -0.85085307
Link 34 197 422 0 0.03191882
Link 35 197 423 0 -0.16101302
Link 36 197 424 0 -0.23131641
Link 37 197 425 0 0.32922277
Link 38 197 426 0 0.31390914
Link 39 197 427 0 0.38992137
Link 40 197 428 0 0.37383562
Link 41 197 429 0 0.32724721
Link 42 197 430 0 0.44108690
Link 43 197 431 0 0.70440148
Link 44 197 432 0 -0.16720352
Link 45 197 433 0 0.08211712
Link 46 197 434 0 -0.11636855
Link 47 197 435 0 -0.24947420
Link 48 197 436 0 -0.48276903
Link 49 197 437 0 -0.25642518
Link 50 197 438 0 0.16583520
Link 51 197 439 0 0.16090166
Link 52 197 440 0 0.63856112
Link 53 197 441 0 -0.11664971
Link 54 197 442 0 0.20630564
Link 55 197 443 0 -0.10000793
Link 56 197 444 0 0.89609273
Link 57 197 445 0 -0.85021306
Link 58 197 446 0 0.34305483
Link 59 197 447 0 -0.15437350
Link 60 197 448 0 -0.80788658
Link 61 197 449 0 0.79968356
Link 62 197 450 0 -0.76685616
Link 63 197 451 0 -0.20709043
Link 64 197 452 0 -0.12711060
Link 65 197 453 0 -0.29618419
Link 66 197 454 0 1.05653778
Link 67 197 455 0 -1.80931048
Link 68 197 456 0 0.17574063
Link 69 197 457 0 -0.94876134
Link 70 197 458 0 0.56855729
Link 71 197 459 0 0.24190959
Link 72 197 460 0 -0.30122155
Link 73 197 461 0 0.92849420
Link 74 197 462 0 -0.05800259
Link 75 197 463 0 -0.30075941
Link 76 197 464 0 0.02658018
Link 77 197 465 0 0.38592440
Link 78 197 466 0 0.14937513
Link 79 197 467 0 0.16127435
Link 80 197 468 0 0.46705826
Link 81 197 469 0 0.38155387
Link 82 197 470 0 -1.64785363
Link 83 197 471 0 -0.17928359
Link 84 197 472 0 -0.13983769
Link 85 197 473 0 -0.43860030
Link 86 197 474 0 0.76246682
Link 87 197 475 0 -0.50444477
Link 88 197 476 0 0.53861878
Link 89 197 477 0 0.59059826
Link 90 197 478 0 0.69216290
Link 91 197 479 0 0.59112322
Link 92 197 480 0 -0.61303959
Link 93 197 481 0 -0.14402860
Link 94 197 482 0 0.04922796
Link 95 197 483 0 -0.06419235
Link 96 197 484 0 -0.62347257
Link 97 197 485 0 0.16571113
Link 98 197 486 0 -0.34785576
Link 99 197 487 0 -0.01054533
Link 100 197 488 0 0.22844165
Link 101 197 489 0 0.44510122
Link 102 197 490 0 0.29757375
Link 103 197 491 0 -0.25346681
Link 104 197 492 0 -0.17678194
Link 105 197 493 0 -0.51729455
Link 106 197 494 0 0.86751049
Link 107 197 495 0 0.11570760
Link 108 197 496 0 -0.22842337
Link 109 197 497 0 -0.91328880
Link 110 197 498 0 -0.21614124
Link 111 197 499 0 0.49978464
Link 112 197 500 0 -0.10077083
Link 113 197 501 0 0.56298351
Link 114 197 502 0 0.29327831
Link 115 197 503 0 -0.18826083
Link 116 197 504 0 0.68443452
Link 117 197 505 0 0.07196254
Link 118 197 506 0 0.73734337
Link 119 197 507 0 -0.49566700
Link 120 197 508 0 -0.10045363
Link 121 197 509 0 -0.18666208
Link 122 197 510 0 1.14549195
Link 123 197 511 0 -0.25833847
Link 124 197 512 0 -0.43853359
Link 125 197 513 0 1.52247323
Link 126 197 514 0 -0.40656419
Link 127 197 515 0 0.84067497
Link 128 197 516 0 0.33494678
Link 129 197 517 0 -0.55548400
Link 130 197 518 0 -0.13355858
Link 131 197 519 0 0.24017225
Link 132 197 520 0 -0.75104677
Link 133 197 521 0 -0.33054260
Link 134 197 522 0 -1.13693698
Link 135 197 523 0 0.43912183
Link 136 197 524 0 0.02574723
Link 137 197 525 0 0.25304176
Link 138 197 526 0 0.16186947
Link 139 197 527 0 0.25910021
Link 140 197 528 0 0.53566110
Link 141 197 529 0 -0.95064326
Link 142 197 530 0 0.49203132
Link 143 197 531 0 0.23791838
Link 144 197 532 0 0.36500304
Link 145 197 533 0 -0.23858572
Link 146 197 534 0 -0.56373944
Link 147 197 535 0 0.27289833
Link 148 197 536 0 -0.45966088
Link 149 197 537 0 0.97477942
Link 150 197 538 0 0.31609142
Link 151 197 539 0 -0.19821216
Link 152 197 540 0 0.29562770
Link 153 197 541 0 -0.59250828
Link 154 197 542 0 -0.27308610
Link 155 197 543 0 0.15681612
Link 156 197 544 0 -0.42411858
Link 157 197 545 0 -0.42494025
Link 158 197 546 0 0.54053782
Link 159 197 547 0 -0.37017771
Link 160 197 548 0 -0.12493894
Link 161 197 549 0 -0.23170358
Link 162 197 550 0 0.43194203
Link 163 197 551 0 0.22414692
Link 164 197 552 0 0.62835245
Link 165 197 553 0 -0.07304178
Link 166 197 554 0 0.18080610
Link 167 197 555 0 0.27217937
Link 168 197 556 0 -1.10156391
Link 169 197 557 0 0.89338218
Link 170 197 558 0 -0.48559566
Link 171 197 559 0 -0.35251061
Link 172 197 560 0 -0.36961447
Link 173 197 561 0 -0.48382266
Link 174 197 562 0 -0.39328868
Link 175 197 563 0 0.81539266
Link 176 197 564 0 0.07344836
Link 177 197 565 0 0.15192883
Link 178 197 566 0 -0.56081054
Link 179 197 567 0 -0.11083253
Link 180 197 568 0 -0.45027250
Link 181 197 569 0 -1.03060465
Link 182 197 570 0 0.13507451
Link 183 197 571 0 0.02947273
Link 184 197 572 0 -0.51671286
Link 185 197 573 0 -0.62381686
Link 186 197 574 0 -0.45091861
Link 187 197 575 0 -0.63185097
Link 188 197 576 0 -0.90755419
Link 189 197 577 0 0.77903234
Link 190 197 578 0 -1.17989961
Link 191 197 579 0 -0.34720956
Link 192 197 580 0 0.01555286
Link 193 197 581 0 -0.07130210
Link 194 197 582 0 -0.29764133
Link 1 198 583 0 0.69953399
Link 2 198 584 0 -1.31066038
Link 3 198 585 0 -0.36587060
Link 4 198 586 0 0.05168928
Link 5 198 587 0 0.03759881
Link 6 198 588 0 0.36179536
Link 7 198 589 0 -0.57890162
Link 8 198 590 0 -0.31217938
Link 9 198 591 0 -0.70825880
Link 10 198 592 0 0.35629396
Link 11 198 593 0 0.36484372
Link 12 198 594 0 -1.11857531
Link 13 198 595 0 -0.62172110
Link 14 198 596 0 0.46098581
Link 15 198 597 0 0.66127434
Link 16 198 598 0 0.20150544
Link 17 198 599 0 0.79319197
Link 18 198 600 0 -0.12566268
Link 19 198 601 0 -0.37269075
Link 20 198 602 0 0.13146698
Link 21 198 603 0 0.23142276
Link 22 198 604 0 -0.83544384
Link 23 198 605 0 0.20557723
Link 24 198 606 0 0.11464576
Link 25 198 607 0 -0.05850388
Link 26 198 608 0 0.58488546
Link 27 198 609 0 0.04296052
Link 28 198 610 0 -0.72493710
Link 29 198 611 0 -1.02189820
Link 30 198 612 0 -0.08006447
Link 31 198 613 0 0.30895162
Link 32 198 614 0 -0.79256617
Link 33 198 615 0 0.45978817
Link 34 198 616 0 -0.25014803
Link 35 198 617 0 -0.44446794
Link 36 198 618 0 0.61316241
Link 37 198 619 0 0.76746527
Link 38 198 620 0 -0.24942040
Link 39 198 621 0 0.47424263
Link 40 198 622 0 -0.46792576
Link 41 198 623 0 1.23603990
Link 42 198 624 0 -0.27850482
Link 43 198 625 0 -0.03760461
Link 44 198 626 0 0.48439901
Link 45 198 627 0 -0.09946099
Link 46 198 628 0 -0.70684415
Link 47 198 629 0 -0.01560468
Link 48 198 630 0 0.08261531
Link 49 198 631 0 -0.37168423
Link 50 198 632 0 0.09603174
Link 51 198 633 0 -0.16060508
Link 52 198 634 0 0.09553191
Link 53 198 635 0 0.97065436
Link 54 198 636 0 -0.39107687
Link 55 198 637 0 1.04509363
Link 56 198 638 0 -0.10640903
Link 57 198 639 0 0.97128739
Link 58 198 640 0 -0.50095241
Link 59 198 641 0 -0.43173328
Link 60 198 642 0 -0.06844503
Link 61 198 643 0 0.46037961
Link 62 198 644 0 -0.08398358
Link 63 198 645 0 -0.59468100
Link 64 198 646 0 -0.62069922
Link 65 198 647 0 0.67856119
Link 66 198 648 0 0.45557574
Link 67 198 649 0 0.53467658
Link 68 198 650 0 0.10576182
Link 69 198 651 0 -0.97069556
Link 70 198 652 0 -0.22338779
Link 71 198 653 0 -0.35555297
Link 72 198 654 0 -0.60761486
Link 73 198 655 0 0.60085820
Link 74 198 656 0 0.15521633
Link 75 198 657 0 -0.24425300
Link 76 198 658 0 0.44463071
Link 77 198 659 0 -0.08932921
Link 78 198 660 0 0.19555315
Link 79 198 661 0 0.58608616
Link 80 198 662 0 0.10016417
Link 81 198 663 0 -0.38086462
Link 82 198 664 0 -1.05004219
Link 83 198 665 0 -0.32208837
Link 84 198 666 0 0.24263210
Link 85 198 667 0 0.03158125
Link 86 198 668 0 -0.04349722
Link 87 198 669 0 -0.52293322
Link 88 198 670 0 1.03896059
Link 89 198 671 0 0.32980663
Link 90 198 672 0 -0.55887090
Link 91 198 673 0 0.18291742
Link 92 198 674 0 0.35214131
Link 93 198 675 0 -1.32983555
Link 94 198 676 0 -0.23601692
Link 95 198 677 0 0.21882661
Link 96 198 678 0 0.25512000
Link 97 198 679 0 -0.19999032
Link 98 198 680 0 0.07149519
Link 99 198 681 0 -0.28354273
Link 100 198 682 0 0.50678279
Link 101 198 683 0 -0.14792294
Link 102 198 684 0 -0.28251741
Link 103 198 685 0 0.01353086
Link 104 198 686 0 0.26604297
Link 105 198 687 0 0.45948840
Link 106 198 688 0 -0.20431987
Link 107 198 689 0 -0.15554414
Link 108 198 690 0 -0.38267327
Link 109 198 691 0 -0.57045041
Link 110 198 692 0 0.72971780
Link 111 198 693 0 -0.29353973
Link 112 198 694 0 -0.46372333
Link 113 198 695 0 -0.26954584
Link 114 198 696 0 0.30070012
Link 115 198 697 0 0.04037697
Link 116 198 698 0 -0.33557340
Link 117 198 699 0 -0.46451193
Link 118 198 700 0 -0.32043787
Link 119 198 701 0 -0.05620140
Link 120 198 702 0 -1.64189585
Link 121 198 703 0 0.28553766
Link 122 198 704 0 -0.66161225
Link 123 198 705 0 0.09842717
Link 124 198 706 0 0.43563221
Link 125 198 707 0 -0.62507315
Link 126 198 708 0 0.24426134
Link 127 198 709 0 -0.40983434
Link 128 198 710 0 0.77604946
Link 129 198 711 0 0.29194695
Link 130 198 712 0 0.10789581
Link 131 198 713 0 -0.37459585
Link 132 198 714 0 0.42349630
Link 133 198 715 0 -0.32153288
Link 134 198 716 0 0.66197060
Link 135 198 717 0 -0.14123548
Link 136 198 718 0 -0.15076267
Link 137 198 719 0 0.74406248
Link 138 198 720 0 0.36487554
Link 139 198 721 0 -0.22673669
Link 140 198 722 0 -0.04290350
Link 141 198 723 0 -0.66690096
Link 142 198 724 0 0.07092460
Link 143 198 725 0 0.21596900
Link 144 198 726 0 0.07682652
Link 145 198 727 0 0.40082976
Link 146 198 728 0 0.06121670
Link 147 198 729 0 -0.21457243
Link 148 198 730 0 -0.80167086
Link 149 198 731 0 0.36350285
Link 150 198 732 0 0.26878390
Link 151 198 733 0 -0.06041026
Link 152 198 734 0 0.07290134
Link 153 198 735 0 0.15498310
Link 154 198 736 0 -0.04001597
Link 155 198 737 0 0.37043337
Link 156 198 738 0 -0.05465789
Link 157 198 739 0 0.15721014
Link 158 198 740 0 0.14260282
Link 159 198 741 0 -0.26993175
Link 160 198 742 0 0.46426500
Link 161 198 743 0 0.33289706
Link 162 198 744 0 0.24834261
Link 163 198 745 0 0.99768464
Link 164 198 746 0 -0.30226490
Link 165 198 747 0 1.03883003
Link 166 198 748 0 -2.11596671
Link 167 198 749 0 0.71575680
Link 168 198 750 0 0.18474895
Link 169 198 751 0 0.19945017
Link 170 198 752 0 0.77321259
Link 171 198 753 0 0.02247223
Link 172 198 754 0 -0.16006298
Link 173 198 755 0 0.16523330
Link 174 198 756 0 0.63079634
Link 175 198 757 0 -0.48924923
Link 176 198 758 0 -0.28289112
Link 177 198 759 0 -0.23584538
Link 178 198 760 0 -0.29460552
Link 179 198 761 0 0.80431779
Link 180 198 762 0 -0.80676427
Link 181 198 763 0 0.92215478
Link 182 198 764 0 -0.88495116
Link 183 198 765 0 -0.38837611
Link 184 198 766 0 0.23289137
Link 185 198 767 0 0.65647829
Link 186 198 768 0 -0.79971200
Link 187 198 769 0 0.88578961
Link 188 198 770 0 -0.65542616
Link 189 198 771 0 0.05662204
Link 190 198 772 0 -0.09600514
Link 191 198 773 0 -0.53739434
Link 192 198 774 0 -0.25568257
Link 193 198 775 0 0.83167629
Link 194 198 776 0 -0.26345806
Link 1 199 777 0 -0.05088021
Link 2 199 778 0 -1.83809010
Link 3 199 779 0 -1.10833914
Link 4 199 780 0 -0.02500195
Link 5 199 781 0 0.38795928
Link 6 199 782 0 -0.60690243
Link 7 199 783 0 0.15510042
Link 8 199 784 0 -1.27931434
Link 9 199 785 0 0.35494837
Link 10 199 786 0 0.01494148
Link 11 199 787 0 -0.04639423
Link 12 199 788 0 -0.55864295
Link 13 199 789 0 -0.23659311
Link 14 199 790 0 0.30800986
Link 15 199 791 0 -0.33282311
Link 16 199 792 0 -0.42264150
Link 17 199 793 0 -0.51571786
Link 18 199 794 0 -0.57861790
Link 19 199 795 0 0.02376033
Link 20 199 796 0 0.10372935
Link 21 199 797 0 0.24879935
Link 22 199 798 0 -0.49823895
Link 23 199 799 0 1.66955579
Link 24 199 800 0 0.10116325
Link 25 199 801 0 0.19465067
Link 26 199 802 0 0.68750913
Link 27 199 803 0 -0.34279422
Link 28 199 804 0 -0.12919006
Link 29 199 805 0 -1.46706327
Link 30 199 806 0 0.27747908
Link 31 199 807 0 0.54668591
Link 32 199 808 0 0.17738511
Link 33 199 809 0 0.00381018
Link 34 199 810 0 0.83985911
Link 35 199 811 0 0.05982922
Link 36 199 812 0 0.22442997
Link 37 199 813 0 0.17938150
Link 38 199 814 0 -1.15553546
Link 39 199 815 0 -0.95618966
Link 40 199 816 0 -0.62219790
Link 41 199 817 0 0.22102735
Link 42 199 818 0 -0.31385001
Link 43 199 819 0 0.05250160
Link 44 199 820 0 -0.01142029
Link 45 199 821 0 0.77358423
Link 46 199 822 0 -0.03793472
Link 47 199 823 0 -0.87074619
Link 48 199 824 0 -0.24202513
Link 49 199 825 0 -0.34121340
Link 50 199 826 0 0.39989784
Link 51 199 827 0 -0.09430158
Link 52 199 828 0 -0.48664268
Link 53 199 829 0 0.45256026
Link 54 199 830 0 -0.59546422
Link 55 199 831 0 -0.16759860
Link 56 199 832 0 -0.41897643
Link 57 199 833 0 0.43353012
Link 58 199 834 0 0.49197931
Link 59 199 835 0 0.37471234
Link 60 199 836 0 -0.03664980
Link 61 199 837 0 1.17297856
Link 62 199 838 0 -0.15772933
Link 63 199 839 0 -0.22328624
Link 64 199 840 0 -0.75508981
Link 65 199 841 0 -0.03622221
Link 66 199 842 0 0.37942127
Link 67 199 843 0 0.91724091
Link 68 199 844 0 0.03775189
Link 69 199 845 0 0.82869070
Link 70 199 846 0 -0.09550309
Link 71 199 847 0 1.79966077
Link 72 199 848 0 -0.81952810
Link 73 199 849 0 0.54976349
Link 74 199 850 0 -0.45629156
Link 75 199 851 0 -0.27264898
Link 76 199 852 0 0.08255626
Link 77 199 853 0 0.17223480
Link 78 199 854 0 -1.08839393
Link 79 199 855 0 -0.36766914
Link 80 199 856 0 0.41253468
Link 81 199 857 0 0.43829731
Link 82 199 858 0 -0.45303821
Link 83 199 859 0 -1.39459772
Link 84 199 860 0 1.86818417
Link 85 199 861 0 -0.03692880
Link 86 199 862 0 -0.40901579
Link 87 199 863 0 0.38453208
Link 88 199 864 0 0.15584197
Link 89 199 865 0 0.31991910
Link 90 199 866 0 -0.58826299
Link 91 199 867 0 0.25921157
Link 92 199 868 0 0.02017486
Link 93 199 869 0 0.18499355
Link 94 199 870 0 0.56462620
Link 95 199 871 0 0.39036220
Link 96 199 872 0 0.43098405
Link 97 199 873 0 0.07451020
Link 98 199 874 0 -0.42514127
Link 99 199 875 0 -0.79792030
Link 100 199 876 0 -0.13746427
Link 101 199 877 0 -0.70187905
Link 102 199 878 0 -0.03755411
Link 103 199 879 0 -0.52843526
Link 104 199 880 0 0.14251739
Link 105 199 881 0 0.16479407
Link 106 199 882 0 0.07644934
Link 107 199 883 0 -0.41819312
Link 108 199 884 0 -0.43956848
Link 109 199 885 0 0.03276264
Link 110 199 886 0 -0.36047252
Link 111 199 887 0 0.30362258
Link 112 199 888 0 -0.34326195
Link 113 199 889 0 -0.51568484
Link 114 199 890 0 0.01066184
Link 115 199 891 0 0.33161963
Link 116 199 892 0 1.74403689
Link 117 199 893 0 -0.48220777
Link 118 199 894 0 -0.08299396
Link 119 199 895 0 0.03030624
Link 120 199 896 0 0.93459478
Link 121 199 897 0 0.27346030
Link 122 199 898 0 0.09422920
Link 123 199 899 0 -0.61426848
Link 124 199 900 0 0.89427948
Link 125 199 901 0 -0.31034811
Link 126 199 902 0 0.91559322
Link 127 199 903 0 0.02916444
Link 128 199 904 0 0.42612666
Link 129 199 905 0 -0.62976509
Link 130 199 906 0 -1.62853689
Link 131 199 907 0 -0.46747824
Link 132 199 908 0 0.22560565
Link 133 199 909 0 0.01874636
Link 134 199 910 0 -0.67491928
Link 135 199 911 0 -0.75797321
Link 136 199 912 0 -0.50976430
Link 137 199 913 0 -0.24959652
Link 138 199 914 0 0.03519178
Link 139 199 915 0 -0.25613575
Link 140 199 916 0 0.67857715
Link 141 199 917 0 0.49868819
Link 142 199 918 0 -1.11446578
Link 143 199 919 0 0.87782240
Link 144 199 920 0 0.04645895
Link 145 199 921 0 0.27964704
Link 146 199 922 0 0.12225324
Link 147 199 923 0 0.01094288
Link 148 199 924 0 0.35235632
Link 149 199 925 0 -0.32916997
Link 150 199 926 0 -0.07693501
Link 151 199 927 0 0.04847392
Link 152 199 928 0 -0.46871894
Link 153 199 929 0 -0.19519941
Link 154 199 930 0 0.40144000
Link 155 199 931 0 -0.00948841
Link 156 199 932 0 -0.22955626
Link 157 199 933 0 -0.16567959
Link 158 199 934 0 0.50730674
Link 159 199 935 0 0.14518216
Link 160 199 936 0 0.41264540
Link 161 199 937 0 0.62077815
Link 162 199 938 0 0.30010188
Link 163 199 939 0 0.01970148
Link 164 199 940 0 0.39924002
Link 165 199 941 0 0.02348393
Link 166 199 942 0 0.12391156
Link 167 199 943 0 0.46485139
Link 168 199 944 0 0.31542009
Link 169 199 945 0 -0.25571408
Link 170 199 946 0 0.07634552
Link 171 199 947 0 -0.53063940
Link 172 199 948 0 -0.41695407
Link 173 199 949 0 -0.73514667
Link 174 199 950 0 0.90881030
Link 175 199 951 0 0.31128827
Link 176 199 952 0 -0.78362980
Link 177 199 953 0 -0.26326598
Link 178 199 954 0 0.66737456
Link 179 199 955 0 0.29632951
Link 180 199 956 0 0.58057721
Link 181 199 957 0 0.71883022
Link 182 199 958 0 0.28179429
Link 183 199 959 0 -0.08135625
Link 184 199 960 0 -0.35967705
Link 185 199 961 0 -0.43850087
Link 186 199 962 0 -0.68673104
Link 187 199 963 0 -0.39089015
Link 188 199 964 0 0.03158610
Link 189 199 965 0 -0.27939698
Link 190 199 966 0 0.29162647
Link 191 199 967 0 -0.11455140
Link 192 199 968 0 -0.53621971
Link 193 199 969 0 -0.05548683
Link 194 199 970 0 -0.11588505
Link 1 200 971 0 0.41995467
Link 2 200 972 0 -0.37515593
Link 3 200 973 0 0.27711996
Link 4 200 974 0 -0.65595717
Link 5 200 975 0 0.71296472
Link 6 200 976 0 -0.33898794
Link 7 200 977 0 -0.42189429
Link 8 200 978 0 -0.49301098
Link 9 200 979 0 -0.36178495
Link 10 200 980 0 0.17042740
Link 11 200 981 0 -0.36953390
Link 12 200 982 0 0.13052815
Link 13 200 983 0 -0.60212772
Link 14 200 984 0 0.71652862
Link 15 200 985 0 -0.00597798
Link 16 200 986 0 -0.21214386
Link 17 200 987 0 -1.19753920
Link 18 200 988 0 -0.75761454
Link 19 200 989 0 0.47357017
Link 20 200 990 0 -0.95017427
Link 21 200 991 0 -0.31909204
Link 22 200 992 0 0.02838178
Link 23 200 993 0 0.38888302
Link 24 200 994 0 -0.95801303
Link 25 200 995 0 -0.59600055
Link 26 200 996 0 -0.16583114
Link 27 200 997 0 0.26447607
Link 28 200 998 0 0.09346110
Link 29 200 999 0 -1.06087141
Link 30 200 1000 0 0.45938394
Link 31 200 1001 0 0.82136687
Link 32 200 1002 0 -0.65278486
Link 33 200 1003 0 -0.73276979
Link 34 200 1004 0 0.85705582
Link 35 200 1005 0 0.56345734
Link 36 200 1006 0 -0.34496903
Link 37 200 1007 0 -1.10394246
Link 38 200 1008 0 0.43154525
Link 39 200 1009 0 0.47420248
Link 40 200 1010 0 0.29089466
Link 41 200 1011 0 -0.91533004
Link 42 200 1012 0 -0.16947392
Link 43 200 1013 0 0.53858929
Link 44 200 1014 0 0.32882959
Link 45 200 1015 0 -0.03767179
Link 46 200 1016 0 0.54374743
Link 47 200 1017 0 0.34329439
Link 48 200 1018 0 -0.09553417
Link 49 200 1019 0 -0.21650933
Link 50 200 1020 0 -0.20122932
Link 51 200 1021 0 0.59573041
Link 52 200 1022 0 0.02987223
Link 53 200 1023 0 -0.07176604
Link 54 200 1024 0 -0.32191113
Link 55 200 1025 0 -0.05966429
Link 56 200 1026 0 0.52103827
Link 57 200 1027 0 -0.21387490
Link 58 200 1028 0 -0.40709888
Link 59 200 1029 0 -0.68174314
Link 60 200 1030 0 0.29186314
Link 61 200 1031 0 0.57994164
Link 62 200 1032 0 0.96451476
Link 63 200 1033 0 -0.57163914
Link 64 200 1034 0 0.16749001
Link 65 200 1035 0 -0.33519044
Link 66 200 1036 0 0.45196733
Link 67 200 1037 0 -0.44139613
Link 68 200 1038 0 0.03697006
Link 69 200 1039 0 -0.17402029
Link 70 200 1040 0 0.91837654
Link 71 200 1041 0 -0.01362567
Link 72 200 1042 0 0.14000250
Link 73 200 1043 0 0.05201818
Link 74 200 1044 0 0.29080003
Link 75 200 1045 0 0.65833601
Link 76 200 1046 0 0.06480731
Link 77 200 1047 0 0.32054408
Link 78 200 1048 0 0.42889621
Link 79 200 1049 0 -0.58312719
Link 80 200 1050 0 0.94076226
Link 81 200 1051 0 1.19889667
Link 82 200 1052 0 -0.52617305
Link 83 200 1053 0 0.70421630
Link 84 200 1054 0 0.32228303
Link 85 200 1055 0 -0.91154515
Link 86 200 1056 0 0.41792353
Link 87 200 1057 0 0.44561593
Link 88 200 1058 0 -0.19365975
Link 89 200 1059 0 0.36042574
Link 90 200 1060 0 0.09128341
Link 91 200 1061 0 -0.53428024
Link 92 200 1062 0 -0.30471063
Link 93 200 1063 0 -0.15053312
Link 94 200 1064 0 -0.64277296
Link 95 200 1065 0 0.03927396
Link 96 200 1066 0 0.89240447
Link 97 200 1067 0 0.69151790
Link 98 200 1068 0 -0.15032972
Link 99 200 1069 0 -0.71834519
Link 100 200 1070 0 -0.17323651
Link 101 200 1071 0 0.09567170
Link 102 200 1072 0 -0.48553554
Link 103 200 1073 0 -0.19533633
Link 104 200 1074 0 0.70398327
Link 105 200 1075 0 -0.41379647
Link 106 200 1076 0 0.43274172
Link 107 200 1077 0 -0.01823693
Link 108 200 1078 0 -1.60082358
Link 109 200 1079 0 0.13446444
Link 110 200 1080 0 -0.55314792
Link 111 200 1081 0 0.24731216
Link 112 200 1082 0 0.35919211
Link 113 200 1083 0 -0.05017852
Link 114 200 1084 0 -0.12431072
Link 115 200 1085 0 -0.20702240
Link 116 200 1086 0 -0.46059223
Link 117 200 1087 0 -0.37198234
Link 118 200 1088 0 0.64683822
Link 119 200 1089 0 0.83148987
Link 120 200 1090 0 -0.46574013
Link 121 200 1091 0 -0.19858864
Link 122 200 1092 0 -0.16238352
Link 123 200 1093 0 -1.27609616
Link 124 200 1094 0 -0.50006828
Link 125 200 1095 0 -0.19112502
Link 126 200 1096 0 -0.62959393
Link 127 200 1097 0 -0.13174712
Link 128 200 1098 0 0.13624189
Link 129 200 1099 0 0.71482204
Link 130 200 1100 0 0.63736337
Link 131 200 1101 0 0.54113690
Link 132 200 1102 0 0.74070180
Link 133 200 1103 0 -0.71818649
Link 134 200 1104 0 0.22047769
Link 135 200 1105 0 0.39989446
Link 136 200 1106 0 -0.21708940
Link 137 200 1107 0 -0.70338232
Link 138 200 1108 0 0.29709053
Link 139 200 1109 0 0.75276931
Link 140 200 1110 0 -0.16829895
Link 141 200 1111 0 -0.17341276
Link 142 200 1112 0 -0.29977472
Link 143 200 1113 0 0.61875691
Link 144 200 1114 0 1.29863482
Link 145 200 1115 0 -0.77347263
Link 146 200 1116 0 0.03369457
Link 147 200 1117 0 -0.06873485
Link 148 200 1118 0 0.30580083
Link 149 200 1119 0 0.34774864
Link 150 200 1120 0 -0.61687221
Link 151 200 1121 0 0.22818801
Link 152 200 1122 0 0.92376020
Link 153 200 1123 0 0.21405709
Link 154 200 1124 0 0.89828978
Link 155 200 1125 0 0.31820199
Link 156 200 1126 0 0.15151671
Link 157 200 1127 0 0.12026341
Link 158 200 1128 0 -0.15103277
Link 159 200 1129 0 0.73179181
Link 160 200 1130 0 0.15752385
Link 161 200 1131 0 -0.58798963
Link 162 200 1132 0 -0.39047688
Link 163 200 1133 0 1.16833842
Link 164 200 1134 0 -0.00716138
Link 165 200 1135 0 0.67519744
Link 166 200 1136 0 0.05415695
Link 167 200 1137 0 -0.40137411
Link 168 200 1138 0 0.15581231
Link 169 200 1139 0 -1.28517151
Link 170 200 1140 0 -0.15189474
Link 171 200 1141 0 0.53297405
Link 172 200 1142 0 -0.19508892
Link 173 200 1143 0 0.31825992
Link 174 200 1144 0 -0.05713796
Link 175 200 1145 0 -0.04232384
Link 176 200 1146 0 -0.29205074
Link 177 200 1147 0 -0.22724610
Link 178 200 1148 0 0.19006004
Link 179 200 1149 0 0.52421651
Link 180 200 1150 0 0.40787861
Link 181 200 1151 0 -0.15354917
Link 182 200 1152 0 -0.22637487
Link 183 200 1153 0 -0.19257726
Link 184 200 1154 0 -0.10056050
Link 185 200 1155 0 -0.49720647
Link 186 200 1156 0 1.28545568
Link 187 200 1157 0 -0.15037865
Link 188 200 1158 0 -0.57284086
Link 189 200 1159 0 -0.10310351
Link 190 200 1160 0 -1.86461832
Link 191 200 1161 0 1.13393839
Link 192 200 1162 0 0.23299218
Link 193 200 1163 0 -0.39602787
Link 194 200 1164 0 0.50453650
Link 1 201 1165 0 -1.28906675
Link 2 201 1166 0 -0.01526829
Link 3 201 1167 0 -0.63206147
Link 4 201 1168 0 -0.24814596
Link 5 201 1169 0 0.22475175
Link 6 201 1170 0 0.27698956
Link 7 201 1171 0 -0.28846453
Link 8 201 1172 0 0.17570975
Link 9 201 1173 0 0.36828691
Link 10 201 1174 0 -0.63099722
Link 11 201 1175 0 -0.09024251
Link 12 201 1176 0 0.17901404
Link 13 201 1177 0 -0.19952082
Link 14 201 1178 0 -0.88686464
Link 15 201 1179 0 0.68974347
Link 16 201 1180 0 -0.86684960
Link 17 201 1181 0 0.15076474
Link 18 201 1182 0 -0.27452694
Link 19 201 1183 0 -0.12332181
Link 20 201 1184 0 -0.02664701
Link 21 201 1185 0 -0.38450502
Link 22 201 1186 0 -0.22693714
Link 23 201 1187 0 0.58284111
Link 24 201 1188 0 0.29591366
Link 25 201 1189 0 0.80027001
Link 26 201 1190 0 -1.22531941
Link 27 201 1191 0 0.31385254
Link 28 201 1192 0 0.39704834
Link 29 201 1193 0 -0.31761837
Link 30 201 1194 0 -0.04090748
Link 31 201 1195 0 0.47851972
Link 32 201 1196 0 0.83675747
Link 33 201 1197 0 0.14226770
Link 34 201 1198 0 -0.04886854
Link 35 201 1199 0 0.35863296
Link 36 201 1200 0 -0.16596865
Link 37 201 1201 0 -0.17207675
Link 38 201 1202 0 -0.05974054
Link 39 201 1203 0 -0.33714698
Link 40 201 1204 0 -1.45354580
Link 41 201 1205 0 -0.00214266
Link 42 201 1206 0 -0.29465082
Link 43 201 1207 0 0.13874888
Link 44 201 1208 0 -0.03513771
Link 45 201 1209 0 -0.33858465
Link 46 201 1210 0 0.35152130
Link 47 201 1211 0 -0.62950428
Link 48 201 1212 0 0.34852369
Link 49 201 1213 0 0.39631805
Link 50 201 1214 0 -0.52294334
Link 51 201 1215 0 0.13912821
Link 52 201 1216 0 0.75310971
Link 53 201 1217 0 0.06726855
Link 54 201 1218 0 0.78830532
Link 55 201 1219 0 -0.72713756
Link 56 201 1220 0 -0.39291633
Link 57 201 1221 0 0.01348315
Link 58 201 1222 0 -0.39548706
Link 59 201 1223 0 0.90071322
Link 60 201 1224 0 -0.26157908
Link 61 201 1225 0 0.99349348
Link 62 201 1226 0 0.12770522
Link 63 201 1227 0 0.23126958
Link 64 201 1228 0 0.06220683
Link 65 201 1229 0 0.05276181
Link 66 201 1230 0 -0.39775729
Link 67 201 1231 0 -1.14956748
Link 68 201 1232 0 -0.16241161
Link 69 201 1233 0 0.67012831
Link 70 201 1234 0 0.30447572
Link 71 201 1235 0 -0.24741997
Link 72 201 1236 0 -0.11724697
Link 73 201 1237 0 -0.52746572
Link 74 201 1238 0 -0.21862523
Link 75 201 1239 0 0.99015414
Link 76 201 1240 0 0.77970569
Link 77 201 1241 0 0.42017932
Link 78 201 1242 0 0.20489602
Link 79 201 1243 0 -0.24625652
Link 80 201 1244 0 -0.17440713
Link 81 201 1245 0 -0.10899511
Link 82 201 1246 0 -0.39899264
Link 83 201 1247 0 -0.03665287
Link 84 201 1248 0 -0.16867842
Link 85 201 1249 0 0.30339829
Link 86 201 1250 0 1.42782084
Link 87 201 1251 0 -0.30163894
Link 88 201 1252 0 -0.74621155
Link 89 201 1253 0 -0.29098181
Link 90 201 1254 0 -0.45297686
Link 91 201 1255 0 0.26638957
Link 92 201 1256 0 0.38454405
Link 93 201 1257 0 -0.06662505
Link 94 201 1258 0 -0.54531807
Link 95 201 1259 0 0.01191238
Link 96 201 1260 0 -0.60144374
Link 97 201 1261 0 -0.55328767
Link 98 201 1262 0 1.18280889
Link 99 201 1263 0 0.16731472
Link 100 201 1264 0 1.10929497
Link 101 201 1265 0 0.34900941
Link 102 201 1266 0 -0.13258135
Link 103 201 1267 0 -0.58512099
Link 104 201 1268 0 -0.15098885
Link 105 201 1269 0 0.43511358
Link 106 201 1270 0 0.90412803
Link 107 201 1271 0 -0.17781895
Link 108 201 1272 0 0.54568202
Link 109 201 1273 0 0.47213907
Link 110 201 1274 0 0.57198176
Link 111 201 1275 0 -0.43159808
Link 112 201 1276 0 -0.06200020
Link 113 201 1277 0 0.08694357
Link 114 201 1278 0 0.31802965
Link 115 201 1279 0 0.13790354
Link 116 201 1280 0 0.21814471
Link 117 201 1281 0 -1.49423898
Link 118 201 1282 0 0.60327720
Link 119 201 1283 0 0.53865722
Link 120 201 1284 0 0.37522480
Link 121 201 1285 0 -0.47247241
Link 122 201 1286 0 -0.61485068
Link 123 201 1287 0 -0.01027712
Link 124 201 1288 0 -0.35307496
Link 125 201 1289 0 -0.15716088
Link 126 201 1290 0 -0.18361665
Link 127 201 1291 0 -0.54418453
Link 128 201 1292 0 1.20967922
Link 129 201 1293 0 0.57236982
Link 130 201 1294 0 0.27400092
Link 131 201 1295 0 0.07660161
Link 132 201 1296 0 -0.25015017
Link 133 201 1297 0 0.22084791
Link 134 201 1298 0 0.06780807
Link 135 201 1299 0 0.03076600
Link 136 201 1300 0 -0.28310791
Link 137 201 1301 0 -0.82053773
Link 138 201 1302 0 -0.25517075
Link 139 201 1303 0 -0.55939224
Link 140 201 1304 0 0.03837990
Link 141 201 1305 0 -0.17966947
Link 142 201 1306 0 -0.69617601
Link 143 201 1307 0 -1.39400711
Link 144 201 1308 0 -0.04452630
Link 145 201 1309 0 0.38457206
Link 146 201 1310 0 -1.33178580
Link 147 201 1311 0 -1.04863532
Link 148 201 1312 0 -0.50940102
Link 149 201 1313 0 -0.03806433
Link 150 201 1314 0 -0.49407310
Link 151 201 1315 0 0.29027339
Link 152 201 1316 0 -0.63089865
Link 153 201 1317 0 -0.07256451
Link 154 201 1318 0 -1.00540706
Link 155 201 1319 0 -0.54391919
Link 156 201 1320 0 0.16546038
Link 157 201 1321 0 -0.52976488
Link 158 201 1322 0 0.51062476
Link 159 201 1323 0 0.00366266
Link 160 201 1324 0 -0.29477954
Link 161 201 1325 0 0.19593214
Link 162 201 1326 0 0.19371466
Link 163 201 1327 0 0.55963498
Link 164 201 1328 0 0.68460759
Link 165 201 1329 0 1.14348651
Link 166 201 1330 0 0.63638406
Link 167 201 1331 0 0.05829967
Link 168 201 1332 0 0.37238142
Link 169 201 1333 0 -0.48151553
Link 170 201 1334 0 -0.17705487
Link 171 201 1335 0 -0.49582509
Link 172 201 1336 0 -0.96620961
Link 173 201 1337 0 0.84167599
Link 174 201 1338 0 0.54758400
Link 175 201 1339 0 0.31136499
Link 176 201 1340 0 0.00892818
Link 177 201 1341 0 -0.44446342
Link 178 201 1342 0 -1.11201398
Link 179 201 1343 0 0.53502146
Link 180 201 1344 0 -0.43591232
Link 181 201 1345 0 0.17147223
Link 182 201 1346 0 1.21617346
Link 183 201 1347 0 0.16565767
Link 184 201 1348 0 0.56653417
Link 185 201 1349 0 0.68801635
Link 186 201 1350 0 1.70429769
Link 187 201 1351 0 -0.11126120
Link 188 201 1352 0 -0.01924113
Link 189 201 1353 0 -0.31196385
Link 190 201 1354 0 0.68375191
Link 191 201 1355 0 -0.55415625
Link 192 201 1356 0 0.45899465
Link 193 201 1357 0 -0.87977460
Link 194 201 1358 0 -0.94710763
Link 1 202 1359 0 -0.33074654
Link 2 202 1360 0 -0.09102136
Link 3 202 1361 0 -1.52109019
Link 4 202 1362 0 0.31601189
Link 5 202 1363 0 -0.25123241
Link 6 202 1364 0 -1.01727311
Link 7 202 1365 0 -0.79427419
Link 8 202 1366 0 -0.62738841
Link 9 202 1367 0 1.10823557
Link 10 202 1368 0 -0.87353588
Link 11 202 1369 0 0.12942158
Link 12 202 1370 0 0.09470420
Link 13 202 1371 0 -0.48752184
Link 14 202 1372 0 -0.00871002
Link 15 202 1373 0 0.11637390
Link 16 202 1374 0 0.23895668
Link 17 202 1375 0 -0.00906517
Link 18 202 1376 0 0.17693968
Link 19 202 1377 0 0.56596157
Link 20 202 1378 0 -0.30968652
Link 21 202 1379 0 0.09850886
Link 22 202 1380 0 0.23542393
Link 23 202 1381 0 -1.39688732
Link 24 202 1382 0 0.21579873
Link 25 202 1383 0 -0.26846642
Link 26 202 1384 0 0.48634743
Link 27 202 1385 0 0.30860322
Link 28 202 1386 0 0.27939092
Link 29 202 1387 0 -0.10876030
Link 30 202 1388 0 0.26708993
Link 31 202 1389 0 0.43010381
Link 32 202 1390 0 -0.37059339
Link 33 202 1391 0 -0.17181953
Link 34 202 1392 0 -0.36216851
Link 35 202 1393 0 0.31360071
Link 36 202 1394 0 -0.93024820
Link 37 202 1395 0 0.58393604
Link 38 202 1396 0 -0.08220691
Link 39 202 1397 0 -0.98028698
Link 40 202 1398 0 -0.23284286
Link 41 202 1399 0 0.23363419
Link 42 202 1400 0 -0.14594843
Link 43 202 1401 0 -0.26179992
Link 44 202 1402 0 0.02036396
Link 45 202 1403 0 -0.24763855
Link 46 202 1404 0 0.35496374
Link 47 202 1405 0 -1.02148804
Link 48 202 1406 0 0.29848386
Link 49 202 1407 0 -0.54999764
Link 50 202 1408 0 0.19403519
Link 51 202 1409 0 -0.31431044
Link 52 202 1410 0 0.13348206
Link 53 202 1411 0 -0.41744189
Link 54 202 1412 0 -0.17402262
Link 55 202 1413 0 -0.30664675
Link 56 202 1414 0 -0.21874370
Link 57 202 1415 0 0.15183574
Link 58 202 1416 0 0.05559848
Link 59 202 1417 0 -1.09121287
Link 60 202 1418 0 0.28846823
Link 61 202 1419 0 -0.13583864
Link 62 202 1420 0 0.21347945
Link 63 202 1421 0 -0.45333511
Link 64 202 1422 0 0.37009548
Link 65 202 1423 0 -1.20733505
Link 66 202 1424 0 -0.28504127
Link 67 202 1425 0 -0.17234557
Link 68 202 1426 0 -0.05719139
Link 69 202 1427 0 0.19973629
Link 70 202 1428 0 0.18040835
Link 71 202 1429 0 -1.19374165
Link 72 202 1430 0 -0.36251146
Link 73 202 1431 0 0.26187093
Link 74 202 1432 0 -0.40666632
Link 75 202 1433 0 -1.05991637
Link 76 202 1434 0 0.05601414
Link 77 202 1435 0 0.29031724
Link 78 202 1436 0 -0.61647148
Link 79 202 1437 0 0.08568695
Link 80 202 1438 0 -0.15033122
Link 81 202 1439 0 0.43359245
Link 82 202 1440 0 0.13922557
Link 83 202 1441 0 -0.10491407
Link 84 202 1442 0 -0.11414316
Link 85 202 1443 0 -0.02248085
Link 86 202 1444 0 -0.19442414
Link 87 202 1445 0 -0.16376431
Link 88 202 1446 0 0.54655762
Link 89 202 1447 0 -0.13503727
Link 90 202 1448 0 0.12804549
Link 91 202 1449 0 -0.24031016
Link 92 202 1450 0 0.16146972
Link 93 202 1451 0 0.04390556
Link 94 202 1452 0 -0.34341435
Link 95 202 1453 0 0.68128470
Link 96 202 1454 0 0.12778602
Link 97 202 1455 0 -0.44922900
Link 98 202 1456 0 1.25814822
Link 99 202 1457 0 0.16906438
Link 100 202 1458 0 -0.54919189
Link 101 202 1459 0 -1.48229037
Link 102 202 1460 0 0.02446113
Link 103 202 1461 0 0.71272656
Link 104 202 1462 0 -0.48815559
Link 105 202 1463 0 0.13184848
Link 106 202 1464 0 -0.38275402
Link 107 202 1465 0 -0.57762525
Link 108 202 1466 0 -0.20480679
Link 109 202 1467 0 1.40995063
Link 110 202 1468 0 0.15831644
Link 111 202 1469 0 0.09115373
Link 112 202 1470 0 -0.18306294
Link 113 202 1471 0 -0.65673637
Link 114 202 1472 0 -0.38008426
Link 115 202 1473 0 0.55950415
Link 116 202 1474 0 0.04957090
Link 117 202 1475 0 -0.36266013
Link 118 202 1476 0 0.00332425
Link 119 202 1477 0 -0.49662752
Link 120 202 1478 0 0.34686485
Link 121 202 1479 0 1.14651782
Link 122 202 1480 0 0.14380759
Link 123 202 1481 0 -1.61459744
Link 124 202 1482 0 0.14467745
Link 125 202 1483 0 0.25520375
Link 126 202 1484 0 0.56888220
Link 127 202 1485 0 0.03799193
Link 128 202 1486 0 0.39099667
Link 129 202 1487 0 -0.27959985
Link 130 202 1488 0 -0.08817216
Link 131 202 1489 0 0.80875637
Link 132 202 1490 0 0.47307210
Link 133 202 1491 0 -0.29339457
Link 134 202 1492 0 0.13215810
Link 135 202 1493 0 0.08935510
Link 136 202 1494 0 -0.04667185
Link 137 202 1495 0 -0.39178924
Link 138 202 1496 0 -0.57739708
Link 139 202 1497 0 -0.40830866
Link 140 202 1498 0 -0.07399320
Link 141 202 1499 0 -0.31916895
Link 142 202 1500 0 -0.77374847
Link 143 202 1501 0 -0.38747413
Link 144 202 1502 0 0.36934504
Link 145 202 1503 0 0.00509414
Link 146 202 1504 0 0.40132534
Link 147 202 1505 0 0.18018779
Link 148 202 1506 0 0.79181503
Link 149 202 1507 0 -0.36743870
Link 150 202 1508 0 -0.84710346
Link 151 202 1509 0 -0.74431211
Link 152 202 1510 0 -0.37694438
Link 153 202 1511 0 -0.06522555
Link 154 202 1512 0 0.29150166
Link 155 202 1513 0 0.82774274
Link 156 202 1514 0 -1.02962595
Link 157 202 1515 0 0.32122805
Link 158 202 1516 0 0.56215942
Link 159 202 1517 0 -1.30278402
Link 160 202 1518 0 -0.28792442
Link 161 202 1519 0 -1.91249157
Link 162 202 1520 0 -0.78596332
Link 163 202 1521 0 -0.93422785
Link 164 202 1522 0 -0.59600569
Link 165 202 1523 0 -0.37109260
Link 166 202 1524 0 -0.26594567
Link 167 202 1525 0 -0.44189705
Link 168 202 1526 0 1.17622720
Link 169 202 1527 0 -1.00621745
Link 170 202 1528 0 -0.12342618
Link 171 202 1529 0 -0.79079101
Link 172 202 1530 0 0.22961647
Link 173 202 1531 0 -0.36827409
Link 174 202 1532 0 -0.52794910
Link 175 202 1533 0 -0.35244593
Link 176 202 1534 0 1.13220234
Link 177 202 1535 0 -0.61371188
Link 178 202 1536 0 0.18323710
Link 179 202 1537 0 0.52643097
Link 180 202 1538 0 -0.54897225
Link 181 202 1539 0 0.42944802
Link 182 202 1540 0 -1.19894291
Link 183 202 1541 0 0.14283998
Link 184 202 1542 0 -0.56170961
Link 185 202 1543 0 -0.16690850
Link 186 202 1544 0 -0.51114033
Link 187 202 1545 0 -0.64794140
Link 188 202 1546 0 -0.62648854
Link 189 202 1547 0 -0.37304766
Link 190 202 1548 0 -0.35561342
Link 191 202 1549 0 0.71486853
Link 192 202 1550 0 -0.00766757
Link 193 202 1551 0 0.00308829
Link 194 202 1552 0 -0.10043017
Link 1 203 1553 0 -1.41193493
Link 2 203 1554 0 -0.41862410
Link 3 203 1555 0 -0.67601168
Link 4 203 1556 0 0.48303291
Link 5 203 1557 0 -0.25959018
Link 6 203 1558 0 0.27842342
Link 7 203 1559 0 -0.25277532
Link 8 203 1560 0 0.11847255
Link 9 203 1561 0 -0.40681053
Link 10 203 1562 0 -0.10493283
Link 11 203 1563 0 1.22824837
Link 12 203 1564 0 -0.40601922
Link 13 203 1565 0 0.42235377
Link 14 203 1566 0 -0.31148562
Link 15 203 1567 0 0.03272997
Link 16 203 1568 0 -0.00563484
Link 17 203 1569 0 0.55030529
Link 18 203 1570 0 -0.07745387
Link 19 203 1571 0 0.02742929
Link 20 203 1572 0 0.09372934
Link 21 203 1573 0 -1.45443174
Link 22 203 1574 0 0.19024767
Link 23 203 1575 0 -0.36486827
Link 24 203 1576 0 -0.14363066
Link 25 203 1577 0 -0.53479077
Link 26 203 1578 0 1.16290665
Link 27 203 1579 0 -0.27630731
Link 28 203 1580 0 0.46700763
Link 29 203 1581 0 0.00928308
Link 30 203 1582 0 -1.45338493
Link 31 203 1583 0 0.47154513
Link 32 203 1584 0 -0.41758764
Link 33 203 1585 0 0.18831239
Link 34 203 1586 0 -0.05525934
Link 35 203 1587 0 -0.92630539
Link 36 203 1588 0 0.55722957
Link 37 203 1589 0 0.25582345
Link 38 203 1590 0 -0.35010695
Link 39 203 1591 0 -0.70062604
Link 40 203 1592 0 -0.12326969
Link 41 203 1593 0 -0.28738903
Link 42 203 1594 0 -0.59723365
Link 43 203 1595 0 0.09425952
Link 44 203 1596 0 1.17395539
Link 45 203 1597 0 0.30191560
Link 46 203 1598 0 0.59456297
Link 47 203 1599 0 0.46110514
Link 48 203 1600 0 -0.12611594
Link 49 203 1601 0 0.97589443
Link 50 203 1602 0 0.28190460
Link 51 203 1603 0 0.52899680
Link 52 203 1604 0 -0.45716065
Link 53 203 1605 0 0.63406755
Link 54 203 1606 0 0.35156451
Link 55 203 1607 0 0.74595958
Link 56 203 1608 0 -0.15842226
Link 57 203 1609 0 0.88791451
Link 58 203 1610 0 0.21375258
Link 59 203 1611 0 0.08204386
Link 60 203 1612 0 -0.13756898
Link 61 203 1613 0 -0.36288107
Link 62 203 1614 0 0.91071512
Link 63 203 1615 0 0.61820437
Link 64 203 1616 0 0.25303161
Link 65 203 1617 0 1.74688401
Link 66 203 1618 0 0.04318347
Link 67 203 1619 0 0.49440449
Link 68 203 1620 0 0.18290581
Link 69 203 1621 0 0.31214376
Link 70 203 1622 0 0.21260535
Link 71 203 1623 0 -0.19457332
Link 72 203 1624 0 0.02491481
Link 73 203 1625 0 0.15373262
Link 74 203 1626 0 -0.15452858
Link 75 203 1627 0 -0.78589367
Link 76 203 1628 0 -0.11366564
Link 77 203 1629 0 -0.15836790
Link 78 203 1630 0 -0.03894920
Link 79 203 1631 0 0.25666976
Link 80 203 1632 0 -0.33059798
Link 81 203 1633 0 -0.12076575
Link 82 203 1634 0 -0.89433844
Link 83 203 1635 0 0.17875821
Link 84 203 1636 0 0.36469902
Link 85 203 1637 0 -0.26771483
Link 86 203 1638 0 -0.39235441
Link 87 203 1639 0 -0.51219710
Link 88 203 1640 0 -0.16789703
Link 89 203 1641 0 0.56337836
Link 90 203 1642 0 0.40787286
Link 91 203 1643 0 0.34239074
Link 92 203 1644 0 -0.32179744
Link 93 203 1645 0 0.02911825
Link 94 203 1646 0 -0.11907552
Link 95 203 1647 0 0.26541925
Link 96 203 1648 0 0.02846652
Link 97 203 1649 0 0.25285228
Link 98 203 1650 0 0.34588592
Link 99 203 1651 0 0.05558694
Link 100 203 1652 0 0.62691143
Link 101 203 1653 0 -0.37524966
Link 102 203 1654 0 -0.37133785
Link 103 203 1655 0 0.44951124
Link 104 203 1656 0 -1.82208027
Link 105 203 1657 0 0.20378195
Link 106 203 1658 0 -0.19494235
Link 107 203 1659 0 0.31935372
Link 108 203 1660 0 -0.50615565
Link 109 203 1661 0 -0.40132396
Link 110 203 1662 0 -0.31344763
Link 111 203 1663 0 0.26981072
Link 112 203 1664 0 0.69862826
Link 113 203 1665 0 -0.42631956
Link 114 203 1666 0 -0.49850683
Link 115 203 1667 0 0.40705366
Link 116 203 1668 0 -0.69736621
Link 117 203 1669 0 -0.17841676
Link 118 203 1670 0 -0.02297105
Link 119 203 1671 0 -0.41183519
Link 120 203 1672 0 0.03912704
Link 121 203 1673 0 0.67964626
Link 122 203 1674 0 0.05707262
Link 123 203 1675 0 -0.50803249
Link 124 203 1676 0 -0.37362042
Link 125 203 1677 0 0.64759250
Link 126 203 1678 0 1.59391784
Link 127 203 1679 0 0.34969780
Link 128 203 1680 0 -0.30433941
Link 129 203 1681 0 0.98960926
Link 130 203 1682 0 0.17616852
Link 131 203 1683 0 -0.17398357
Link 132 203 1684 0 -0.11588051
Link 133 203 1685 0 -0.02103937
Link 134 203 1686 0 -0.27727050
Link 135 203 1687 0 -0.72358610
Link 136 203 1688 0 0.59179207
Link 137 203 1689 0 -0.54468430
Link 138 203 1690 0 -2.14151686
Link 139 203 1691 0 0.27088120
Link 140 203 1692 0 0.38165959
Link 141 203 1693 0 0.17086050
Link 142 203 1694 0 0.75408958
Link 143 203 1695 0 0.18979038
Link 144 203 1696 0 0.26233614
Link 145 203 1697 0 -0.31468157
Link 146 203 1698 0 -0.21985824
Link 147 203 1699 0 -0.59177403
Link 148 203 1700 0 -0.04815906
Link 149 203 1701 0 0.90089717
Link 150 203 1702 0 0.36879035
Link 151 203 1703 0 0.38964421
Link 152 203 1704 0 0.34688061
Link 153 203 1705 0 -1.00459363
Link 154 203 1706 0 0.64591074
Link 155 203 1707 0 -0.02033981
Link 156 203 1708 0 0.42835246
Link 157 203 1709 0 -0.19009745
Link 158 203 1710 0 -0.10567991
Link 159 203 1711 0 -0.99833887
Link 160 203 1712 0 0.37288546
Link 161 203 1713 0 -0.34333703
Link 162 203 1714 0 0.74267160
Link 163 203 1715 0 0.54290943
Link 164 203 1716 0 -0.52456698
Link 165 203 1717 0 0.29839263
Link 166 203 1718 0 0.27036756
Link 167 203 1719 0 -0.06150151
Link 168 203 1720 0 -0.30409490
Link 169 203 1721 0 -0.22260416
Link 170 203 1722 0 0.96704810
Link 171 203 1723 0 -0.19776529
Link 172 203 1724 0 0.11060962
Link 173 203 1725 0 0.25554332
Link 174 203 1726 0 0.53020791
Link 175 203 1727 0 0.62592731
Link 176 203 1728 0 -0.59802823
Link 177 203 1729 0 -0.28801731
Link 178 203 1730 0 0.18315263
Link 179 203 1731 0 0.78433292
Link 180 203 1732 0 -0.26301908
Link 181 203 1733 0 0.59862276
Link 182 203 1734 0 0.14225746
Link 183 203 1735 0 0.48141591
Link 184 203 1736 0 0.08961773
Link 185 203 1737 0 -0.21987876
Link 186 203 1738 0 0.31166810
Link 187 203 1739 0 0.20870566
Link 188 203 1740 0 -0.27914582
Link 189 203 1741 0 0.24171690
Link 190 203 1742 0 -0.18578554
Link 191 203 1743 0 0.49850749
Link 192 203 1744 0 -0.47367407
Link 193 203 1745 0 -0.94176937
Link 194 203 1746 0 0.68334479
Link 1 204 1747 0 0.01543538
Link 2 204 1748 0 -2.39319722
Link 3 204 1749 0 -0.91499403
Link 4 204 1750 0 -0.40013211
Link 5 204 1751 0 -0.04572489
Link 6 204 1752 0 -0.45188844
Link 7 204 1753 0 -0.39087099
Link 8 204 1754 0 -0.84388015
Link 9 204 1755 0 -0.20607180
Link 10 204 1756 0 -1.40234314
Link 11 204 1757 0 0.63857962
Link 12 204 1758 0 -0.53841145
Link 13 204 1759 0 -0.19286640
Link 14 204 1760 0 -0.01475083
Link 15 204 1761 0 -1.90704263
Link 16 204 1762 0 -0.56357352
Link 17 204 1763 0 -0.72959077
Link 18 204 1764 0 -1.41092359
Link 19 204 1765 0 -0.87779713
Link 20 204 1766 0 0.17155758
Link 21 204 1767 0 -0.01057313
Link 22 204 1768 0 -0.43435807
Link 23 204 1769 0 0.03073098
Link 24 204 1770 0 -0.18937590
Link 25 204 1771 0 0.20751914
Link 26 204 1772 0 0.41886512
Link 27 204 1773 0 -0.52510459
Link 28 204 1774 0 0.30143454
Link 29 204 1775 0 0.12716116
Link 30 204 1776 0 -0.26339868
Link 31 204 1777 0 -1.16721314
Link 32 204 1778 0 0.28081145
Link 33 204 1779 0 -0.27031452
Link 34 204 1780 0 0.14968038
Link 35 204 1781 0 -0.43585030
Link 36 204 1782 0 -0.33322337
Link 37 204 1783 0 -0.38067938
Link 38 204 1784 0 -1.15756428
Link 39 204 1785 0 1.30903233
Link 40 204 1786 0 -0.19434217
Link 41 204 1787 0 -0.30363131
Link 42 204 1788 0 -0.33950851
Link 43 204 1789 0 0.07346846
Link 44 204 1790 0 -0.10910164
Link 45 204 1791 0 0.36841444
Link 46 204 1792 0 -0.18635351
Link 47 204 1793 0 0.70540413
Link 48 204 1794 0 -0.52990056
Link 49 204 1795 0 -0.35069966
Link 50 204 1796 0 -0.55321182
Link 51 204 1797 0 1.05461761
Link 52 204 1798 0 -0.04260918
Link 53 204 1799 0 0.35714397
Link 54 204 1800 0 0.02020224
Link 55 204 1801 0 0.37376693
Link 56 204 1802 0 0.56261518
Link 57 204 1803 0 0.23664396
Link 58 204 1804 0 0.55543091
Link 59 204 1805 0 -0.18538113
Link 60 204 1806 0 -0.44993069
Link 61 204 1807 0 -0.08360288
Link 62 204 1808 0 0.18003658
Link 63 204 1809 0 -0.06533225
Link 64 204 1810 0 0.22863015
Link 65 204 1811 0 0.10007112
Link 66 204 1812 0 -0.33181099
Link 67 204 1813 0 0.20613604
Link 68 204 1814 0 -0.35229581
Link 69 204 1815 0 0.12858953
Link 70 204 1816 0 -0.43351582
Link 71 204 1817 0 -0.70424157
Link 72 204 1818 0 0.16650324
Link 73 204 1819 0 0.50217895
Link 74 204 1820 0 -0.54696725
Link 75 204 1821 0 -0.81951051
Link 76 204 1822 0 0.80595053
Link 77 204 1823 0 -0.24324715
Link 78 204 1824 0 -1.30246504
Link 79 204 1825 0 -0.16574231
Link 80 204 1826 0 0.25665393
Link 81 204 1827 0 -0.47291789
Link 82 204 1828 0 -0.16752928
Link 83 204 1829 0 0.55836093
Link 84 204 1830 0 2.53960562
Link 85 204 1831 0 -0.32382580
Link 86 204 1832 0 -0.12088971
Link 87 204 1833 0 -0.09291450
Link 88 204 1834 0 -0.59812545
Link 89 204 1835 0 0.52020908
Link 90 204 1836 0 0.13061035
Link 91 204 1837 0 0.08036151
Link 92 204 1838 0 -0.32531961
Link 93 204 1839 0 0.40189792
Link 94 204 1840 0 0.26023780
Link 95 204 1841 0 -0.63547518
Link 96 204 1842 0 -0.14271927
Link 97 204 1843 0 0.03822029
Link 98 204 1844 0 -0.30971590
Link 99 204 1845 0 0.71783299
Link 100 204 1846 0 -0.09839810
Link 101 204 1847 0 -0.00214413
Link 102 204 1848 0 -0.47638759
Link 103 204 1849 0 0.13962879
Link 104 204 1850 0 0.08773448
Link 105 204 1851 0 -0.28618323
Link 106 204 1852 0 -0.56736867
Link 107 204 1853 0 -0.37176661
Link 108 204 1854 0 -0.57216245
Link 109 204 1855 0 -0.71720077
Link 110 204 1856 0 0.06345697
Link 111 204 1857 0 0.02727493
Link 112 204 1858 0 0.43072270
Link 113 204 1859 0 -0.40226000
Link 114 204 1860 0 -0.60855887
Link 115 204 1861 0 0.03367138
Link 116 204 1862 0 -1.03678764
Link 117 204 1863 0 -0.56015498
Link 118 204 1864 0 0.64076051
Link 119 204 1865 0 -0.15187954
Link 120 204 1866 0 -1.89548745
Link 121 204 1867 0 -1.04273115
Link 122 204 1868 0 0.68716884
Link 123 204 1869 0 -0.41903820
Link 124 204 1870 0 -0.52485623
Link 125 204 1871 0 0.48069008
Link 126 204 1872 0 0.38679329
Link 127 204 1873 0 -0.78001434
Link 128 204 1874 0 -0.04450691
Link 129 204 1875 0 0.25172569
Link 130 204 1876 0 0.10931314
Link 131 204 1877 0 -0.28901637
Link 132 204 1878 0 -0.34148034
Link 133 204 1879 0 0.09521777
Link 134 204 1880 0 -0.21817257
Link 135 204 1881 0 -0.35973092
Link 136 204 1882 0 0.16258228
Link 137 204 1883 0 -0.69362346
Link 138 204 1884 0 0.03915919
Link 139 204 1885 0 -0.10775319
Link 140 204 1886 0 0.73807918
Link 141 204 1887 0 0.02490592
Link 142 204 1888 0 0.36700908
Link 143 204 1889 0 -0.57535701
Link 144 204 1890 0 -0.00483489
Link 145 204 1891 0 0.55912918
Link 146 204 1892 0 0.01940140
Link 147 204 1893 0 0.27857373
Link 148 204 1894 0 -0.67631847
Link 149 204 1895 0 0.16161317
Link 150 204 1896 0 -0.85036758
Link 151 204 1897 0 -0.63166373
Link 152 204 1898 0 0.09943293
Link 153 204 1899 0 -0.54429653
Link 154 204 1900 0 -0.14204037
Link 155 204 1901 0 -0.12508044
Link 156 204 1902 0 0.51707808
Link 157 204 1903 0 0.52344188
Link 158 204 1904 0 -0.00538960
Link 159 204 1905 0 0.14794101
Link 160 204 1906 0 0.12869813
Link 161 204 1907 0 0.36785717
Link 162 204 1908 0 -0.48690140
Link 163 204 1909 0 0.67852015
Link 164 204 1910 0 -0.10165893
Link 165 204 1911 0 -0.43233726
Link 166 204 1912 0 0.90022278
Link 167 204 1913 0 -0.21430238
Link 168 204 1914 0 0.52088206
Link 169 204 1915 0 0.20516173
Link 170 204 1916 0 -0.79921732
Link 171 204 1917 0 -0.52851836
Link 172 204 1918 0 0.07973204
Link 173 204 1919 0 -1.42104592
Link 174 204 1920 0 0.10207990
Link 175 204 1921 0 0.18194727
Link 176 204 1922 0 -0.01978213
Link 177 204 1923 0 0.17179684
Link 178 204 1924 0 -0.58200866
Link 179 204 1925 0 -0.12194104
Link 180 204 1926 0 -0.65822836
Link 181 204 1927 0 0.21349975
Link 182 204 1928 0 0.60172721
Link 183 204 1929 0 -0.56712741
Link 184 204 1930 0 -0.05208575
Link 185 204 1931 0 -0.19923630
Link 186 204 1932 0 -0.58061696
Link 187 204 1933 0 0.73186085
Link 188 204 1934 0 0.08515016
Link 189 204 1935 0 -0.06368288
Link 190 204 1936 0 -0.13999455
Link 191 204 1937 0 -1.02178455
Link 192 204 1938 0 -1.26068729
Link 193 204 1939 0 -0.36248672
Link 194 204 1940 0 1.10268039
Link 1 205 1941 0 -0.21445453
Link 2 205 1942 0 -1.97268092
Link 3 205 1943 0 -0.73114243
Link 4 205 1944 0 0.58689908
Link 5 205 1945 0 0.23690762
Link 6 205 1946 0 -0.16424285
Link 7 205 1947 0 -0.64162324
Link 8 205 1948 0 -0.63371887
Link 9 205 1949 0 -0.39712367
Link 10 205 1950 0 0.23745624
Link 11 205 1951 0 -0.20097718
Link 12 205 1952 0 0.92820232
Link 13 205 1953 0 -0.58332236
Link 14 205 1954 0 -0.12193597
Link 15 205 1955 0 0.30305212
Link 16 205 1956 0 0.28322596
Link 17 205 1957 0 -0.42599814
Link 18 205 1958 0 0.19954540
Link 19 205 1959 0 1.03018175
Link 20 205 1960 0 -0.22050736
Link 21 205 1961 0 -0.03173433
Link 22 205 1962 0 -0.35878726
Link 23 205 1963 0 -0.13084206
Link 24 205 1964 0 -0.53181870
Link 25 205 1965 0 -0.43451011
Link 26 205 1966 0 0.22308498
Link 27 205 1967 0 -0.17521851
Link 28 205 1968 0 -0.21468723
Link 29 205 1969 0 -0.05954882
Link 30 205 1970 0 -0.28175322
Link 31 205 1971 0 -0.20068547
Link 32 205 1972 0 -0.26029423
Link 33 205 1973 0 -0.02341208
Link 34 205 1974 0 -0.30561328
Link 35 205 1975 0 0.08032061
Link 36 205 1976 0 0.01481218
Link 37 205 1977 0 0.08843203
Link 38 205 1978 0 -0.13806236
Link 39 205 1979 0 0.12743472
Link 40 205 1980 0 -0.97896262
Link 41 205 1981 0 -0.08924554
Link 42 205 1982 0 -0.29754237
Link 43 205 1983 0 0.83723684
Link 44 205 1984 0 -0.40814484
Link 45 205 1985 0 0.21672435
Link 46 205 1986 0 -0.32810898
Link 47 205 1987 0 0.04387202
Link 48 205 1988 0 -0.06239845
Link 49 205 1989 0 -0.56967557
Link 50 205 1990 0 -0.43753779
Link 51 205 1991 0 -1.36948995
Link 52 205 1992 0 -0.72215999
Link 53 205 1993 0 0.22917521
Link 54 205 1994 0 0.25659796
Link 55 205 1995 0 -0.01607767
Link 56 205 1996 0 0.16515516
Link 57 205 1997 0 -0.63418435
Link 58 205 1998 0 -1.26601935
Link 59 205 1999 0 -0.52370214
Link 60 205 2000 0 -0.87261769
Link 61 205 2001 0 -0.50238722
Link 62 205 2002 0 -0.15634308
Link 63 205 2003 0 0.16098872
Link 64 205 2004 0 0.25408423
Link 65 205 2005 0 -0.42122900
Link 66 205 2006 0 0.00665039
Link 67 205 2007 0 0.97318601
Link 68 205 2008 0 0.57095331
Link 69 205 2009 0 -0.09513709
Link 70 205 2010 0 0.00655679
Link 71 205 2011 0 -0.27793007
Link 72 205 2012 0 -0.13834480
Link 73 205 2013 0 -0.10312907
Link 74 205 2014 0 0.08940921
Link 75 205 2015 0 -0.38255247
Link 76 205 2016 0 -0.35443728
Link 77 205 2017 0 0.00898530
Link 78 205 2018 0 -0.65519408
Link 79 205 2019 0 -0.56538049
Link 80 205 2020 0 -0.67704166
Link 81 205 2021 0 -0.06105974
Link 82 205 2022 0 0.61752815
Link 83 205 2023 0 0.85671933
Link 84 205 2024 0 0.13537417
Link 85 205 2025 0 -0.08937407
Link 86 205 2026 0 -0.50993896
Link 87 205 2027 0 -0.28842818
Link 88 205 2028 0 0.39335730
Link 89 205 2029 0 0.93410887
Link 90 205 2030 0 -1.19026769
Link 91 205 2031 0 -0.34264719
Link 92 205 2032 0 -0.45185304
Link 93 205 2033 0 -0.66035016
Link 94 205 2034 0 -0.09837356
Link 95 205 2035 0 -0.38063482
Link 96 205 2036 0 0.15758524
Link 97 205 2037 0 0.02688351
Link 98 205 2038 0 0.47606623
Link 99 205 2039 0 -0.02686306
Link 100 205 2040 0 -0.12248400
Link 101 205 2041 0 -0.28977785
Link 102 205 2042 0 -0.51062983
Link 103 205 2043 0 -0.00297159
Link 104 205 2044 0 -0.93441496
Link 105 205 2045 0 0.21271778
Link 106 205 2046 0 -0.34376891
Link 107 205 2047 0 0.40353968
Link 108 205 2048 0 -0.40704209
Link 109 205 2049 0 -0.21164942
Link 110 205 2050 0 -0.86251307
Link 111 205 2051 0 -0.99836992
Link 112 205 2052 0 -0.02518217
Link 113 205 2053 0 0.04409727
Link 114 205 2054 0 -0.26567283
Link 115 205 2055 0 0.08052849
Link 116 205 2056 0 -0.37294883
Link 117 205 2057 0 0.60468144
Link 118 205 2058 0 -0.05311471
Link 119 205 2059 0 0.53319920
Link 120 205 2060 0 0.08327270
Link 121 205 2061 0 0.30666360
Link 122 205 2062 0 -0.62053269
Link 123 205 2063 0 -0.02464565
Link 124 205 2064 0 -0.38447518
Link 125 205 2065 0 0.45883198
Link 126 205 2066 0 0.48526110
Link 127 205 2067 0 0.06079984
Link 128 205 2068 0 0.42315089
Link 129 205 2069 0 0.36594510
Link 130 205 2070 0 -0.90407540
Link 131 205 2071 0 0.37116237
Link 132 205 2072 0 0.23487473
Link 133 205 2073 0 0.12243565
Link 134 205 2074 0 -0.56393203
Link 135 205 2075 0 0.16656833
Link 136 205 2076 0 -0.42913101
Link 137 205 2077 0 -0.19966492
Link 138 205 2078 0 -0.08950410
Link 139 205 2079 0 -0.01046639
Link 140 205 2080 0 -0.46391005
Link 141 205 2081 0 0.04235089
Link 142 205 2082 0 -0.01504741
Link 143 205 2083 0 -0.57247288
Link 144 205 2084 0 0.20691851
Link 145 205 2085 0 0.87650421
Link 146 205 2086 0 -0.06662587
Link 147 205 2087 0 0.04076626
Link 148 205 2088 0 0.01608284
Link 149 205 2089 0 -0.51548137
Link 150 205 2090 0 -0.10945572
Link 151 205 2091 0 0.43509663
Link 152 205 2092 0 0.01272927
Link 153 205 2093 0 -0.89967600
Link 154 205 2094 0 0.25771372
Link 155 205 2095 0 -0.44317908
Link 156 205 2096 0 -1.56192880
Link 157 205 2097 0 0.12650492
Link 158 205 2098 0 -0.38257970
Link 159 205 2099 0 -0.29554360
Link 160 205 2100 0 0.36151476
Link 161 205 2101 0 0.53770759
Link 162 205 2102 0 -0.09740834
Link 163 205 2103 0 0.34246968
Link 164 205 2104 0 0.13421733
Link 165 205 2105 0 -0.10971261
Link 166 205 2106 0 0.38693068
Link 167 205 2107 0 0.28760084
Link 168 205 2108 0 0.60726841
Link 169 205 2109 0 0.23262388
Link 170 205 2110 0 1.03349334
Link 171 205 2111 0 -0.84906885
Link 172 205 2112 0 0.02526108
Link 173 205 2113 0 0.35680833
Link 174 205 2114 0 0.41702428
Link 175 205 2115 0 0.11971983
Link 176 205 2116 0 0.09845880
Link 177 205 2117 0 -0.04640140
Link 178 205 2118 0 0.80842743
Link 179 205 2119 0 0.07056836
Link 180 205 2120 0 -1.65191276
Link 181 205 2121 0 -0.14849586
Link 182 205 2122 0 -0.44531161
Link 183 205 2123 0 0.32813591
Link 184 205 2124 0 1.26898477
Link 185 205 2125 0 -0.35216471
Link 186 205 2126 0 0.51497898
Link 187 205 2127 0 -0.39426291
Link 188 205 2128 0 0.17118577
Link 189 205 2129 0 -0.79566455
Link 190 205 2130 0 0.22402346
Link 191 205 2131 0 -0.08662175
Link 192 205 2132 0 -1.23367050
Link 193 205 2133 0 0.40959726
Link 194 205 2134 0 -0.79742998
Link 1 206 2135 0 0.47157725
Link 2 206 2136 0 0.58433478
Link 3 206 2137 0 0.14549708
Link 4 206 2138 0 -0.85219632
Link 5 206 2139 0 0.45627314
Link 6 206 2140 0 0.33161918
Link 7 206 2141 0 -0.47700698
Link 8 206 2142 0 0.70460634
Link 9 206 2143 0 -0.14939206
Link 10 206 2144 0 0.31053682
Link 11 206 2145 0 0.76410720
Link 12 206 2146 0 -0.10394320
Link 13 206 2147 0 -0.07032251
Link 14 206 2148 0 0.04572496
Link 15 206 2149 0 0.50704569
Link 16 206 2150 0 -0.08262833
Link 17 206 2151 0 -0.33420808
Link 18 206 2152 0 0.60135465
Link 19 206 2153 0 0.77456585
Link 20 206 2154 0 0.04531734
Link 21 206 2155 0 -0.32147831
Link 22 206 2156 0 1.35763895
Link 23 206 2157 0 0.12798548
Link 24 206 2158 0 0.03278381
Link 25 206 2159 0 -0.73376459
Link 26 206 2160 0 0.21560257
Link 27 206 2161 0 0.45531683
Link 28 206 2162 0 0.70072256
Link 29 206 2163 0 0.83833609
Link 30 206 2164 0 1.60427291
Link 31 206 2165 0 0.65317052
Link 32 206 2166 0 -1.20972405
Link 33 206 2167 0 0.26733599
Link 34 206 2168 0 0.16002043
Link 35 206 2169 0 -0.18667411
Link 36 206 2170 0 -0.10573138
Link 37 206 2171 0 -0.04908931
Link 38 206 2172 0 -0.16300058
Link 39 206 2173 0 0.75339757
Link 40 206 2174 0 -0.49275783
Link 41 206 2175 0 -0.99569778
Link 42 206 2176 0 0.07295237
Link 43 206 2177 0 1.06293994
Link 44 206 2178 0 -0.19387519
Link 45 206 2179 0 0.82114546
Link 46 206 2180 0 0.31933425
Link 47 206 2181 0 0.86955968
Link 48 206 2182 0 0.63222839
Link 49 206 2183 0 -0.47276776
Link 50 206 2184 0 -0.27576215
Link 51 206 2185 0 -0.15833402
Link 52 206 2186 0 -0.01734074
Link 53 206 2187 0 1.88714356
Link 54 206 2188 0 1.32618932
Link 55 206 2189 0 0.49739567
Link 56 206 2190 0 -0.56571036
Link 57 206 2191 0 -0.05820848
Link 58 206 2192 0 0.83532321
Link 59 206 2193 0 -0.32750314
Link 60 206 2194 0 -0.05433894
Link 61 206 2195 0 0.22234869
Link 62 206 2196 0 0.19956114
Link 63 206 2197 0 0.84209144
Link 64 206 2198 0 0.34297549
Link 65 206 2199 0 -0.01537812
Link 66 206 2200 0 0.90791007
Link 67 206 2201 0 -0.17098278
Link 68 206 2202 0 0.11388469
Link 69 206 2203 0 0.23280554
Link 70 206 2204 0 -0.54588562
Link 71 206 2205 0 0.24319339
Link 72 206 2206 0 -0.22515481
Link 73 206 2207 0 -0.32022462
Link 74 206 2208 0 0.04924084
Link 75 206 2209 0 0.16026027
Link 76 206 2210 0 0.26214154
Link 77 206 2211 0 0.50231654
Link 78 206 2212 0 -0.11493142
Link 79 206 2213 0 0.81502486
Link 80 206 2214 0 -0.18140428
Link 81 206 2215 0 -0.31215441
Link 82 206 2216 0 -0.39911553
Link 83 206 2217 0 3.12354308
Link 84 206 2218 0 0.10735961
Link 85 206 2219 0 -0.03721264
Link 86 206 2220 0 0.09533097
Link 87 206 2221 0 0.56031865
Link 88 206 2222 0 -0.27755612
Link 89 206 2223 0 -0.22245523
Link 90 206 2224 0 0.25701532
Link 91 206 2225 0 -0.33190842
Link 92 206 2226 0 -0.51264206
Link 93 206 2227 0 -0.05461555
Link 94 206 2228 0 -0.16447564
Link 95 206 2229 0 0.02025433
Link 96 206 2230 0 0.24169471
Link 97 206 2231 0 -0.42064710
Link 98 206 2232 0 0.44238341
Link 99 206 2233 0 0.34993337
Link 100 206 2234 0 -0.87886867
Link 101 206 2235 0 0.68866607
Link 102 206 2236 0 -0.26893786
Link 103 206 2237 0 0.64802456
Link 104 206 2238 0 -0.16485604
Link 105 206 2239 0 -0.35893882
Link 106 206 2240 0 0.55169013
Link 107 206 2241 0 0.82077594
Link 108 206 2242 0 -0.91507178
Link 109 206 2243 0 0.28024202
Link 110 206 2244 0 0.12890648
Link 111 206 2245 0 -1.22271788
Link 112 206 2246 0 -0.61561186
Link 113 206 2247 0 0.69176602
Link 114 206 2248 0 -0.40306789
Link 115 206 2249 0 -0.25711309
Link 116 206 2250 0 -0.73454505
Link 117 206 2251 0 0.95772015
Link 118 206 2252 0 -0.52254771
Link 119 206 2253 0 -0.35048516
Link 120 206 2254 0 0.85929774
Link 121 206 2255 0 -0.06958478
Link 122 206 2256 0 -0.04381859
Link 123 206 2257 0 0.72159959
Link 124 206 2258 0 0.58591409
Link 125 206 2259 0 -0.33593105
Link 126 206 2260 0 -0.32444485
Link 127 206 2261 0 -0.15688908
Link 128 206 2262 0 1.00374858
Link 129 206 2263 0 -0.46388563
Link 130 206 2264 0 0.01234208
Link 131 206 2265 0 0.02393307
Link 132 206 2266 0 -0.11101978
Link 133 206 2267 0 0.55376685
Link 134 206 2268 0 0.10669581
Link 135 206 2269 0 0.43314576
Link 136 206 2270 0 0.73819560
Link 137 206 2271 0 -0.14973615
Link 138 206 2272 0 -0.10972289
Link 139 206 2273 0 -0.21446596
Link 140 206 2274 0 0.70790294
Link 141 206 2275 0 0.00180221
Link 142 206 2276 0 1.17888309
Link 143 206 2277 0 -0.39391390
Link 144 206 2278 0 -0.46050633
Link 145 206 2279 0 0.07297735
Link 146 206 2280 0 -0.12389001
Link 147 206 2281 0 0.12492538
Link 148 206 2282 0 0.03050630
Link 149 206 2283 0 -0.63781826
Link 150 206 2284 0 -1.01335410
Link 151 206 2285 0 -0.30556215
Link 152 206 2286 0 -0.88613912
Link 153 206 2287 0 0.24762438
Link 154 206 2288 0 0.38264405
Link 155 206 2289 0 -0.06853054
Link 156 206 2290 0 -0.49237307
Link 157 206 2291 0 -0.71652111
Link 158 206 2292 0 -0.60959715
Link 159 206 2293 0 -0.20830055
Link 160 206 2294 0 0.97077434
Link 161 206 2295 0 -0.78952321
Link 162 206 2296 0 -0.16233104
Link 163 206 2297 0 -0.51514659
Link 164 206 2298 0 0.04442647
Link 165 206 2299 0 0.31802584
Link 166 206 2300 0 -0.25388728
Link 167 206 2301 0 0.38160732
Link 168 206 2302 0 0.12789997
Link 169 206 2303 0 0.55657802
Link 170 206 2304 0 0.54414325
Link 171 206 2305 0 -0.04244804
Link 172 206 2306 0 0.55592000
Link 173 206 2307 0 -0.19489755
Link 174 206 2308 0 0.64054440
Link 175 206 2309 0 0.48326194
Link 176 206 2310 0 0.32805681
Link 177 206 2311 0 1.26562531
Link 178 206 2312 0 -0.14538353
Link 179 206 2313 0 -0.77718543
Link 180 206 2314 0 -0.62764764
Link 181 206 2315 0 -0.10389819
Link 182 206 2316 0 0.84706131
Link 183 206 2317 0 0.17469270
Link 184 206 2318 0 0.22064641
Link 185 206 2319 0 0.20603852
Link 186 206 2320 0 -1.02472884
Link 187 206 2321 0 -0.07408162
Link 188 206 2322 0 -0.76194646
Link 189 206 2323 0 0.31903289
Link 190 206 2324 0 -0.40902916
Link 191 206 2325 0 -0.20843667
Link 192 206 2326 0 1.27027762
Link 193 206 2327 0 0.45523298
Link 194 206 2328 0 -0.69238161
Link 1 207 2329 0 0.30119421
Link 2 207 2330 0 -0.13494052
Link 3 207 2331 0 0.30573438
Link 4 207 2332 0 0.11981881
Link 5 207 2333 0 -0.08619229
Link 6 207 2334 0 -0.43985604
Link 7 207 2335 0 0.25797222
Link 8 207 2336 0 0.29627352
Link 9 207 2337 0 0.04724458
Link 10 207 2338 0 -0.30958952
Link 11 207 2339 0 0.06801911
Link 12 207 2340 0 0.14991213
Link 13 207 2341 0 -0.15181110
Link 14 207 2342 0 -0.09958073
Link 15 207 2343 0 0.25126808
Link 16 207 2344 0 0.03057333
Link 17 207 2345 0 -0.07075645
Link 18 207 2346 0 0.18519667
Link 19 207 2347 0 0.33218642
Link 20 207 2348 0 0.03567065
Link 21 207 2349 0 0.42276748
Link 22 207 2350 0 0.01484843
Link 23 207 2351 0 -0.20704444
Link 24 207 2352 0 -0.15034759
Link 25 207 2353 0 -0.07105679
Link 26 207 2354 0 -0.10271322
Link 27 207 2355 0 -0.21173671
Link 28 207 2356 0 0.19315539
Link 29 207 2357 0 0.24945777
Link 30 207 2358 0 0.04867097
Link 31 207 2359 0 0.41909965
Link 32 207 2360 0 0.33120809
Link 33 207 2361 0 0.10290135
Link 34 207 2362 0 -0.33536701
Link 35 207 2363 0 0.23451203
Link 36 207 2364 0 0.01105848
Link 37 207 2365 0 -0.23957571
Link 38 207 2366 0 0.47035715
Link 39 207 2367 0 0.08593234
Link 40 207 2368 0 -0.55017021
Link 41 207 2369 0 0.30775979
Link 42 207 2370 0 0.14982387
Link 43 207 2371 0 0.19458049
Link 44 207 2372 0 0.18166406
Link 45 207 2373 0 -0.17563902
Link 46 207 2374 0 0.17148700
Link 47 207 2375 0 -0.02729282
Link 48 207 2376 0 0.16876408
Link 49 207 2377 0 0.05311666
Link 50 207 2378 0 0.32291925
Link 51 207 2379 0 -0.44255612
Link 52 207 2380 0 -0.15112529
Link 53 207 2381 0 0.08844248
Link 54 207 2382 0 0.12123193
Link 55 207 2383 0 0.01094509
Link 56 207 2384 0 -0.01836105
Link 57 207 2385 0 -0.45539573
Link 58 207 2386 0 -0.04923405
Link 59 207 2387 0 -0.00821233
Link 60 207 2388 0 0.32615295
Link 61 207 2389 0 -0.02167195
Link 62 207 2390 0 0.12508247
Link 63 207 2391 0 0.64914178
Link 64 207 2392 0 0.09762385
Link 65 207 2393 0 -0.47978456
Link 66 207 2394 0 0.10509659
Link 67 207 2395 0 0.53235962
Link 68 207 2396 0 -0.04318999
Link 69 207 2397 0 -0.03165144
Link 70 207 2398 0 0.05848235
Link 71 207 2399 0 0.38036149
Link 72 207 2400 0 0.02096101
Link 73 207 2401 0 0.24513358
Link 74 207 2402 0 0.21473560
Link 75 207 2403 0 -0.23763540
Link 76 207 2404 0 0.49056211
Link 77 207 2405 0 0.15512074
Link 78 207 2406 0 0.02427798
Link 79 207 2407 0 -0.24049058
Link 80 207 2408 0 -0.25470153
Link 81 207 2409 0 0.00190495
Link 82 207 2410 0 -0.38269390
Link 83 207 2411 0 0.10932571
Link 84 207 2412 0 0.04343349
Link 85 207 2413 0 -0.07557527
Link 86 207 2414 0 -0.11023979
Link 87 207 2415 0 0.11493185
Link 88 207 2416 0 0.34475750
Link 89 207 2417 0 0.48455425
Link 90 207 2418 0 -0.09950997
Link 91 207 2419 0 -0.51993850
Link 92 207 2420 0 0.31142342
Link 93 207 2421 0 -0.29375347
Link 94 207 2422 0 0.34384028
Link 95 207 2423 0 -0.44473120
Link 96 207 2424 0 0.14719370
Link 97 207 2425 0 0.18227627
Link 98 207 2426 0 0.09979752
Link 99 207 2427 0 -0.23728532
Link 100 207 2428 0 -0.12022777
Link 101 207 2429 0 -0.09444414
Link 102 207 2430 0 -0.20654706
Link 103 207 2431 0 -0.09652931
Link 104 207 2432 0 0.29030952
Link 105 207 2433 0 0.18329323
Link 106 207 2434 0 0.19764371
Link 107 207 2435 0 -0.23055869
Link 108 207 2436 0 0.13916404
Link 109 207 2437 0 -0.12711494
Link 110 207 2438 0 -0.24160505
Link 111 207 2439 0 0.17954960
Link 112 207 2440 0 -0.22095393
Link 113 207 2441 0 0.38778003
Link 114 207 2442 0 -0.13412647
Link 115 207 2443 0 0.13856889
Link 116 207 2444 0 -0.03960187
Link 117 207 2445 0 -0.38403953
Link 118 207 2446 0 0.29931162
Link 119 207 2447 0 0.20317981
Link 120 207 2448 0 -0.04125430
Link 121 207 2449 0 0.37171996
Link 122 207 2450 0 0.43772877
Link 123 207 2451 0 0.03025651
Link 124 207 2452 0 0.13533302
Link 125 207 2453 0 -0.28315668
Link 126 207 2454 0 0.11771995
Link 127 207 2455 0 -0.36808728
Link 128 207 2456 0 0.06322757
Link 129 207 2457 0 -0.04081122
Link 130 207 2458 0 0.00979568
Link 131 207 2459 0 -0.01974807
Link 132 207 2460 0 0.26951794
Link 133 207 2461 0 0.21304014
Link 134 207 2462 0 -0.10466912
Link 135 207 2463 0 0.15971691
Link 136 207 2464 0 -0.02918443
Link 137 207 2465 0 -0.52030866
Link 138 207 2466 0 -0.45173618
Link 139 207 2467 0 0.08354938
Link 140 207 2468 0 0.28241158
Link 141 207 2469 0 0.03034339
Link 142 207 2470 0 0.01208904
Link 143 207 2471 0 -0.37558588
Link 144 207 2472 0 0.25524105
Link 145 207 2473 0 0.19195620
Link 146 207 2474 0 -0.39123404
Link 147 207 2475 0 0.41552282
Link 148 207 2476 0 0.16756793
Link 149 207 2477 0 0.12705508
Link 150 207 2478 0 -0.23716499
Link 151 207 2479 0 0.14552721
Link 152 207 2480 0 0.01378877
Link 153 207 2481 0 0.09676635
Link 154 207 2482 0 -0.41290991
Link 155 207 2483 0 -0.04612097
Link 156 207 2484 0 -0.07555456
Link 157 207 2485 0 -0.02144552
Link 158 207 2486 0 0.06116725
Link 159 207 2487 0 0.08507576
Link 160 207 2488 0 0.31011084
Link 161 207 2489 0 0.38807936
Link 162 207 2490 0 -0.27215433
Link 163 207 2491 0 0.08515643
Link 164 207 2492 0 -0.00661554
Link 165 207 2493 0 -0.22804485
Link 166 207 2494 0 0.38961163
Link 167 207 2495 0 -0.05878459
Link 168 207 2496 0 -0.08570502
Link 169 207 2497 0 0.26249592
Link 170 207 2498 0 0.06248025
Link 171 207 2499 0 0.19359141
Link 172 207 2500 0 -0.12827077
Link 173 207 2501 0 -0.11291350
Link 174 207 2502 0 0.03399843
Link 175 207 2503 0 -0.41721510
Link 176 207 2504 0 -0.18282852
Link 177 207 2505 0 0.00171803
Link 178 207 2506 0 0.06976956
Link 179 207 2507 0 0.04987337
Link 180 207 2508 0 0.38647243
Link 181 207 2509 0 -0.47746686
Link 182 207 2510 0 0.20428717
Link 183 207 2511 0 0.20834136
Link 184 207 2512 0 -0.07698189
Link 185 207 2513 0 -0.29299642
Link 186 207 2514 0 0.06725085
Link 187 207 2515 0 0.40509246
Link 188 207 2516 0 0.18150256
Link 189 207 2517 0 0.14144151
Link 190 207 2518 0 0.09287262
Link 191 207 2519 0 -0.36388718
Link 192 207 2520 0 -0.36172712
Link 193 207 2521 0 -0.32329840
Link 194 207 2522 0 0.31921163
Link 1 208 2523 0 0.57953812
Link 2 208 2524 0 -0.02292804
Link 3 208 2525 0 -0.02486661
Link 4 208 2526 0 -0.14195042
Link 5 208 2527 0 0.29839802
Link 6 208 2528 0 -0.13690634
Link 7 208 2529 0 -0.30784190
Link 8 208 2530 0 -0.27140837
Link 9 208 2531 0 0.25425671
Link 10 208 2532 0 -0.40834381
Link 11 208 2533 0 -0.30066194
Link 12 208 2534 0 0.28975558
Link 13 208 2535 0 0.36533046
Link 14 208 2536 0 -0.10138074
Link 15 208 2537 0 -0.18040534
Link 16 208 2538 0 0.00053911
Link 17 208 2539 0 -0.49697014
Link 18 208 2540 0 0.34473496
Link 19 208 2541 0 -0.08909640
Link 20 208 2542 0 0.05057857
Link 21 208 2543 0 -0.04360574
Link 22 208 2544 0 -0.10790868
Link 23 208 2545 0 -0.18182085
Link 24 208 2546 0 -0.43728422
Link 25 208 2547 0 0.05489707
Link 26 208 2548 0 0.18629470
Link 27 208 2549 0 -0.42080460
Link 28 208 2550 0 0.12627255
Link 29 208 2551 0 0.39387607
Link 30 208 2552 0 -0.27783816
Link 31 208 2553 0 -0.00626456
Link 32 208 2554 0 -0.09640943
Link 33 208 2555 0 -0.57890507
Link 34 208 2556 0 -0.27127473
Link 35 208 2557 0 0.11464380
Link 36 208 2558 0 0.03451482
Link 37 208 2559 0 -0.15389326
Link 38 208 2560 0 0.25480030
Link 39 208 2561 0 -0.12026213
Link 40 208 2562 0 -0.08900059
Link 41 208 2563 0 0.22676048
Link 42 208 2564 0 0.19718732
Link 43 208 2565 0 0.19990077
Link 44 208 2566 0 -0.26893658
Link 45 208 2567 0 -0.02002395
Link 46 208 2568 0 0.11794447
Link 47 208 2569 0 0.00651315
Link 48 208 2570 0 0.27450844
Link 49 208 2571 0 0.28758009
Link 50 208 2572 0 0.29547307
Link 51 208 2573 0 -0.21229887
Link 52 208 2574 0 0.18513019
Link 53 208 2575 0 0.25222661
Link 54 208 2576 0 0.09245037
Link 55 208 2577 0 0.22340179
Link 56 208 2578 0 0.16944161
Link 57 208 2579 0 0.06490188
Link 58 208 2580 0 -0.01274692
Link 59 208 2581 0 -0.01697241
Link 60 208 2582 0 0.04219572
Link 61 208 2583 0 -0.26081105
Link 62 208 2584 0 0.23824749
Link 63 208 2585 0 -0.36282038
Link 64 208 2586 0 -0.53757814
Link 65 208 2587 0 0.07296400
Link 66 208 2588 0 0.39395119
Link 67 208 2589 0 -0.38753563
Link 68 208 2590 0 0.03752715
Link 69 208 2591 0 -0.05898968
Link 70 208 2592 0 0.17297845
Link 71 208 2593 0 -0.18383645
Link 72 208 2594 0 -0.05597197
Link 73 208 2595 0 0.20307407
Link 74 208 2596 0 -0.11972122
Link 75 208 2597 0 -0.27469791
Link 76 208 2598 0 0.23150311
Link 77 208 2599 0 0.22443777
Link 78 208 2600 0 -0.18458052
Link 79 208 2601 0 0.01340245
Link 80 208 2602 0 0.23076618
Link 81 208 2603 0 -0.03653972
Link 82 208 2604 0 0.22512823
Link 83 208 2605 0 -0.09973871
Link 84 208 2606 0 0.25891170
Link 85 208 2607 0 -0.08534229
Link 86 208 2608 0 0.16185424
Link 87 208 2609 0 0.02187107
Link 88 208 2610 0 0.16494403
Link 89 208 2611 0 0.03217165
Link 90 208 2612 0 0.15970494
Link 91 208 2613 0 0.46211461
Link 92 208 2614 0 -0.13131998
Link 93 208 2615 0 0.01955010
Link 94 208 2616 0 0.02512364
Link 95 208 2617 0 0.12411030
Link 96 208 2618 0 0.29682042
Link 97 208 2619 0 0.48294066
Link 98 208 2620 0 -0.34801775
Link 99 208 2621 0 -0.08866988
Link 100 208 2622 0 0.33749269
Link 101 208 2623 0 -0.19868979
Link 102 208 2624 0 -0.01995181
Link 103 208 2625 0 0.08171383
Link 104 208 2626 0 0.12670434
Link 105 208 2627 0 0.08432790
Link 106 208 2628 0 0.29511265
Link 107 208 2629 0 0.14519170
Link 108 208 2630 0 0.47605689
Link 109 208 2631 0 0.51208871
Link 110 208 2632 0 -0.11983399
Link 111 208 2633 0 -0.37842874
Link 112 208 2634 0 -0.16172759
Link 113 208 2635 0 0.50220983
Link 114 208 2636 0 0.06418974
Link 115 208 2637 0 -0.26520785
Link 116 208 2638 0 -0.23590685
Link 117 208 2639 0 -0.51730788
Link 118 208 2640 0 0.40354909
Link 119 208 2641 0 -0.22724646
Link 120 208 2642 0 -0.19040735
Link 121 208 2643 0 -0.27475627
Link 122 208 2644 0 -0.38168520
Link 123 208 2645 0 -0.00874361
Link 124 208 2646 0 0.14512754
Link 125 208 2647 0 -0.52707846
Link 126 208 2648 0 -0.26727494
Link 127 208 2649 0 0.01169807
Link 128 208 2650 0 0.36742633
Link 129 208 2651 0 0.03135802
Link 130 208 2652 0 0.18114530
Link 131 208 2653 0 0.02006714
Link 132 208 2654 0 -0.13933465
Link 133 208 2655 0 0.47342519
Link 134 208 2656 0 0.17201164
Link 135 208 2657 0 0.12768564
Link 136 208 2658 0 0.28064094
Link 137 208 2659 0 0.48312410
Link 138 208 2660 0 -0.12540154
Link 139 208 2661 0 -0.44954612
Link 140 208 2662 0 0.24171207
Link 141 208 2663 0 -0.34372677
Link 142 208 2664 0 0.32231401
Link 143 208 2665 0 -0.27588350
Link 144 208 2666 0 -0.18315167
Link 145 208 2667 0 -0.03956958
Link 146 208 2668 0 -0.11412161
Link 147 208 2669 0 -0.09919219
Link 148 208 2670 0 0.13456952
Link 149 208 2671 0 -0.14593354
Link 150 208 2672 0 -0.25301086
Link 151 208 2673 0 -0.04896117
Link 152 208 2674 0 -0.25750762
Link 153 208 2675 0 0.12177611
Link 154 208 2676 0 -0.08336620
Link 155 208 2677 0 0.09876556
Link 156 208 2678 0 0.39547945
Link 157 208 2679 0 -0.35978248
Link 158 208 2680 0 0.42444144
Link 159 208 2681 0 0.00507801
Link 160 208 2682 0 -0.16202513
Link 161 208 2683 0 0.24911268
Link 162 208 2684 0 -0.38857448
Link 163 208 2685 0 0.09726067
Link 164 208 2686 0 0.08486338
Link 165 208 2687 0 -0.45396073
Link 166 208 2688 0 0.02826324
Link 167 208 2689 0 0.04052451
Link 168 208 2690 0 -0.02480604
Link 169 208 2691 0 0.53895196
Link 170 208 2692 0 -0.05914755
Link 171 208 2693 0 0.03104594
Link 172 208 2694 0 0.23525518
Link 173 208 2695 0 0.46753683
Link 174 208 2696 0 0.31233465
Link 175 208 2697 0 -0.53804457
Link 176 208 2698 0 0.59409152
Link 177 208 2699 0 0.00684697
Link 178 208 2700 0 0.02560157
Link 179 208 2701 0 -0.04467605
Link 180 208 2702 0 -0.23850180
Link 181 208 2703 0 -0.18705170
Link 182 208 2704 0 0.40778249
Link 183 208 2705 0 -0.46588205
Link 184 208 2706 0 0.08695556
Link 185 208 2707 0 0.49418906
Link 186 208 2708 0 -0.29965880
Link 187 208 2709 0 -0.37011549
Link 188 208 2710 0 0.00732377
Link 189 208 2711 0 0.32872564
Link 190 208 2712 0 -0.16605416
Link 191 208 2713 0 -0.21423542
Link 192 208 2714 0 0.41323684
Link 193 208 2715 0 -0.12785367
Link 194 208 2716 0 -0.15085358
Link 1 209 2717 0 -0.30571064
Link 2 209 2718 0 -0.14164132
Link 3 209 2719 0 -0.23945026
Link 4 209 2720 0 -0.28912910
Link 5 209 2721 0 0.40983234
Link 6 209 2722 0 0.46870938
Link 7 209 2723 0 0.35306721
Link 8 209 2724 0 0.17091003
Link 9 209 2725 0 -0.32433685
Link 10 209 2726 0 -0.42498219
Link 11 209 2727 0 -0.04944212
Link 12 209 2728 0 -0.14869231
Link 13 209 2729 0 -0.05167917
Link 14 209 2730 0 0.22614823
Link 15 209 2731 0 0.01064398
Link 16 209 2732 0 0.16907591
Link 17 209 2733 0 -0.11010549
Link 18 209 2734 0 0.21937067
Link 19 209 2735 0 0.01685312
Link 20 209 2736 0 0.01336037
Link 21 209 2737 0 -0.23087170
Link 22 209 2738 0 0.13289198
Link 23 209 2739 0 0.39338668
Link 24 209 2740 0 0.09215193
Link 25 209 2741 0 -0.21537231
Link 26 209 2742 0 -0.25778738
Link 27 209 2743 0 -0.29034362
Link 28 209 2744 0 -0.07243960
Link 29 209 2745 0 -0.05155644
Link 30 209 2746 0 -0.20530788
Link 31 209 2747 0 0.27321350
Link 32 209 2748 0 -0.13731575
Link 33 209 2749 0 0.24194024
Link 34 209 2750 0 0.25464718
Link 35 209 2751 0 0.30432594
Link 36 209 2752 0 0.06072436
Link 37 209 2753 0 -0.00509435
Link 38 209 2754 0 -0.30308939
Link 39 209 2755 0 0.04924212
Link 40 209 2756 0 -0.34412062
Link 41 209 2757 0 0.18246556
Link 42 209 2758 0 0.22971758
Link 43 209 2759 0 0.20482538
Link 44 209 2760 0 0.42252674
Link 45 209 2761 0 0.37245778
Link 46 209 2762 0 0.23848100
Link 47 209 2763 0 -0.23089232
Link 48 209 2764 0 -0.11532181
Link 49 209 2765 0 0.30367433
Link 50 209 2766 0 -0.30575210
Link 51 209 2767 0 0.08719817
Link 52 209 2768 0 0.05488477
Link 53 209 2769 0 0.25817975
Link 54 209 2770 0 -0.01155288
Link 55 209 2771 0 -0.37838502
Link 56 209 2772 0 0.19947890
Link 57 209 2773 0 -0.15586569
Link 58 209 2774 0 -0.15085121
Link 59 209 2775 0 0.10250445
Link 60 209 2776 0 0.40395288
Link 61 209 2777 0 0.18392190
Link 62 209 2778 0 0.04937172
Link 63 209 2779 0 -0.21877635
Link 64 209 2780 0 -0.10140672
Link 65 209 2781 0 0.05411097
Link 66 209 2782 0 0.37369435
Link 67 209 2783 0 0.30018799
Link 68 209 2784 0 -0.25548342
Link 69 209 2785 0 -0.17511793
Link 70 209 2786 0 -0.11035194
Link 71 209 2787 0 0.31573282
Link 72 209 2788 0 -0.26716506
Link 73 209 2789 0 0.15022326
Link 74 209 2790 0 0.13976948
Link 75 209 2791 0 -0.02384313
Link 76 209 2792 0 0.21885362
Link 77 209 2793 0 -0.10997708
Link 78 209 2794 0 0.18494250
Link 79 209 2795 0 0.14348465
Link 80 209 2796 0 0.41727494
Link 81 209 2797 0 -0.26168888
Link 82 209 2798 0 0.00296912
Link 83 209 2799 0 -0.24160399
