GenomeStart 1248
Neuron 1 1 0.00000000 1 0.00000000 0.00000000 0.00000000 0.00000000
Neuron 2 1 0.00000000 1 0.00000000 0.00000000 0.00000000 0.00000000
Neuron 3 1 0.00000000 1 0.00000000 0.00000000 0.00000000 0.00000000
Neuron 4 1 0.00000000 1 0.00000000 0.00000000 0.00000000 0.00000000
Neuron 5 1 0.00000000 1 0.00000000 0.00000000 0.00000000 0.00000000
Neuron 6 1 0.00000000 1 0.00000000 0.00000000 0.00000000 0.00000000
Neuron 7 1 0.00000000 1 0.00000000 0.00000000 0.00000000 0.00000000
Neuron 8 1 0.00000000 1 0.00000000 0.00000000 0.00000000 0.00000000
Neuron 9 1 0.00000000 1 0.00000000 0.00000000 0.00000000 0.00000000
Neuron 10 1 0.00000000 1 0.00000000 0.00000000 0.00000000 0.00000000
Neuron 11 1 0.00000000 1 0.00000000 0.00000000 0.00000000 0.00000000
Neuron 12 1 0.00000000 1 0.00000000 0.00000000 0.00000000 0.00000000
Neuron 13 1 0.00000000 1 0.00000000 0.00000000 0.00000000 0.00000000
Neuron 14 1 0.00000000 1 0.00000000 0.00000000 0.00000000 0.00000000
Neuron 15 1 0.00000000 1 0.00000000 0.00000000 0.00000000 0.00000000
Neuron 16 1 0.00000000 1 0.00000000 0.00000000 0.00000000 0.00000000
Neuron 17 1 0.00000000 1 0.00000000 0.00000000 0.00000000 0.00000000
Neuron 18 1 0.00000000 1 0.00000000 0.00000000 0.00000000 0.00000000
Neuron 19 1 0.00000000 1 0.00000000 0.00000000 0.00000000 0.00000000
Neuron 20 1 0.00000000 1 0.00000000 0.00000000 0.00000000 0.00000000
Neuron 21 1 0.00000000 1 0.00000000 0.00000000 0.00000000 0.00000000
Neuron 22 1 0.00000000 1 0.00000000 0.00000000 0.00000000 0.00000000
Neuron 23 1 0.00000000 1 0.00000000 0.00000000 0.00000000 0.00000000
Neuron 24 1 0.00000000 1 0.00000000 0.00000000 0.00000000 0.00000000
Neuron 25 1 0.00000000 1 0.00000000 0.00000000 0.00000000 0.00000000
Neuron 26 1 0.00000000 1 0.00000000 0.00000000 0.00000000 0.00000000
Neuron 27 1 0.00000000 1 0.00000000 0.00000000 0.00000000 0.00000000
Neuron 28 1 0.00000000 1 0.00000000 0.00000000 0.00000000 0.00000000
Neuron 29 1 0.00000000 1 0.00000000 0.00000000 0.00000000 0.00000000
Neuron 30 1 0.00000000 1 0.00000000 0.00000000 0.00000000 0.00000000
Neuron 31 1 0.00000000 1 0.00000000 0.00000000 0.00000000 0.00000000
Neuron 32 1 0.00000000 1 0.00000000 0.00000000 0.00000000 0.00000000
Neuron 33 1 0.00000000 1 0.00000000 0.00000000 0.00000000 0.00000000
Neuron 34 1 0.00000000 1 0.00000000 0.00000000 0.00000000 0.00000000
Neuron 35 1 0.00000000 1 0.00000000 0.00000000 0.00000000 0.00000000
Neuron 36 1 0.00000000 1 0.00000000 0.00000000 0.00000000 0.00000000
Neuron 37 1 0.00000000 1 0.00000000 0.00000000 0.00000000 0.00000000
Neuron 38 1 0.00000000 1 0.00000000 0.00000000 0.00000000 0.00000000
Neuron 39 1 0.00000000 1 0.00000000 0.00000000 0.00000000 0.00000000
Neuron 40 1 0.00000000 1 0.00000000 0.00000000 0.00000000 0.00000000
Neuron 41 1 0.00000000 1 0.00000000 0.00000000 0.00000000 0.00000000
Neuron 42 1 0.00000000 1 0.00000000 0.00000000 0.00000000 0.00000000
Neuron 43 1 0.00000000 1 0.00000000 0.00000000 0.00000000 0.00000000
Neuron 44 1 0.00000000 1 0.00000000 0.00000000 0.00000000 0.00000000
Neuron 45 1 0.00000000 1 0.00000000 0.00000000 0.00000000 0.00000000
Neuron 46 1 0.00000000 1 0.00000000 0.00000000 0.00000000 0.00000000
Neuron 47 1 0.00000000 1 0.00000000 0.00000000 0.00000000 0.00000000
Neuron 48 1 0.00000000 1 0.00000000 0.00000000 0.00000000 0.00000000
Neuron 49 1 0.00000000 1 0.00000000 0.00000000 0.00000000 0.00000000
Neuron 50 1 0.00000000 1 0.00000000 0.00000000 0.00000000 0.00000000
Neuron 51 1 0.00000000 1 0.00000000 0.00000000 0.00000000 0.00000000
Neuron 52 1 0.00000000 1 0.00000000 0.00000000 0.00000000 0.00000000
Neuron 53 1 0.00000000 1 0.00000000 0.00000000 0.00000000 0.00000000
Neuron 54 1 0.00000000 1 0.00000000 0.00000000 0.00000000 0.00000000
Neuron 55 1 0.00000000 1 0.00000000 0.00000000 0.00000000 0.00000000
Neuron 56 1 0.00000000 1 0.00000000 0.00000000 0.00000000 0.00000000
Neuron 57 1 0.00000000 1 0.00000000 0.00000000 0.00000000 0.00000000
Neuron 58 1 0.00000000 1 0.00000000 0.00000000 0.00000000 0.00000000
Neuron 59 1 0.00000000 1 0.00000000 0.00000000 0.00000000 0.00000000
Neuron 60 1 0.00000000 1 0.00000000 0.00000000 0.00000000 0.00000000
Neuron 61 1 0.00000000 1 0.00000000 0.00000000 0.00000000 0.00000000
Neuron 62 1 0.00000000 1 0.00000000 0.00000000 0.00000000 0.00000000
Neuron 63 1 0.00000000 1 0.00000000 0.00000000 0.00000000 0.00000000
Neuron 64 1 0.00000000 1 0.00000000 0.00000000 0.00000000 0.00000000
Neuron 65 1 0.00000000 1 0.00000000 0.00000000 0.00000000 0.00000000
Neuron 66 1 0.00000000 1 0.00000000 0.00000000 0.00000000 0.00000000
Neuron 67 1 0.00000000 1 0.00000000 0.00000000 0.00000000 0.00000000
Neuron 68 1 0.00000000 1 0.00000000 0.00000000 0.00000000 0.00000000
Neuron 69 1 0.00000000 1 0.00000000 0.00000000 0.00000000 0.00000000
Neuron 70 1 0.00000000 1 0.00000000 0.00000000 0.00000000 0.00000000
Neuron 71 1 0.00000000 1 0.00000000 0.00000000 0.00000000 0.00000000
Neuron 72 1 0.00000000 1 0.00000000 0.00000000 0.00000000 0.00000000
Neuron 73 1 0.00000000 1 0.00000000 0.00000000 0.00000000 0.00000000
Neuron 74 1 0.00000000 1 0.00000000 0.00000000 0.00000000 0.00000000
Neuron 75 1 0.00000000 1 0.00000000 0.00000000 0.00000000 0.00000000
Neuron 76 1 0.00000000 1 0.00000000 0.00000000 0.00000000 0.00000000
Neuron 77 1 0.00000000 1 0.00000000 0.00000000 0.00000000 0.00000000
Neuron 78 1 0.00000000 1 0.00000000 0.00000000 0.00000000 0.00000000
Neuron 79 1 0.00000000 1 0.00000000 0.00000000 0.00000000 0.00000000
Neuron 80 1 0.00000000 1 0.00000000 0.00000000 0.00000000 0.00000000
Neuron 81 1 0.00000000 1 0.00000000 0.00000000 0.00000000 0.00000000
Neuron 82 1 0.00000000 1 0.00000000 0.00000000 0.00000000 0.00000000
Neuron 83 1 0.00000000 1 0.00000000 0.00000000 0.00000000 0.00000000
Neuron 84 1 0.00000000 1 0.00000000 0.00000000 0.00000000 0.00000000
Neuron 85 1 0.00000000 1 0.00000000 0.00000000 0.00000000 0.00000000
Neuron 86 1 0.00000000 1 0.00000000 0.00000000 0.00000000 0.00000000
Neuron 87 1 0.00000000 1 0.00000000 0.00000000 0.00000000 0.00000000
Neuron 88 1 0.00000000 1 0.00000000 0.00000000 0.00000000 0.00000000
Neuron 89 1 0.00000000 1 0.00000000 0.00000000 0.00000000 0.00000000
Neuron 90 1 0.00000000 1 0.00000000 0.00000000 0.00000000 0.00000000
Neuron 91 1 0.00000000 1 0.00000000 0.00000000 0.00000000 0.00000000
Neuron 92 1 0.00000000 1 0.00000000 0.00000000 0.00000000 0.00000000
Neuron 93 1 0.00000000 1 0.00000000 0.00000000 0.00000000 0.00000000
Neuron 94 1 0.00000000 1 0.00000000 0.00000000 0.00000000 0.00000000
Neuron 95 1 0.00000000 1 0.00000000 0.00000000 0.00000000 0.00000000
Neuron 96 1 0.00000000 1 0.00000000 0.00000000 0.00000000 0.00000000
Neuron 97 1 0.00000000 1 0.00000000 0.00000000 0.00000000 0.00000000
Neuron 98 1 0.00000000 1 0.00000000 0.00000000 0.00000000 0.00000000
Neuron 99 1 0.00000000 1 0.00000000 0.00000000 0.00000000 0.00000000
Neuron 100 1 0.00000000 1 0.00000000 0.00000000 0.00000000 0.00000000
Neuron 101 1 0.00000000 1 0.00000000 0.00000000 0.00000000 0.00000000
Neuron 102 1 0.00000000 1 0.00000000 0.00000000 0.00000000 0.00000000
Neuron 103 1 0.00000000 1 0.00000000 0.00000000 0.00000000 0.00000000
Neuron 104 1 0.00000000 1 0.00000000 0.00000000 0.00000000 0.00000000
Neuron 105 1 0.00000000 1 0.00000000 0.00000000 0.00000000 0.00000000
Neuron 106 1 0.00000000 1 0.00000000 0.00000000 0.00000000 0.00000000
Neuron 107 1 0.00000000 1 0.00000000 0.00000000 0.00000000 0.00000000
Neuron 108 1 0.00000000 1 0.00000000 0.00000000 0.00000000 0.00000000
Neuron 109 1 0.00000000 1 0.00000000 0.00000000 0.00000000 0.00000000
Neuron 110 1 0.00000000 1 0.00000000 0.00000000 0.00000000 0.00000000
Neuron 111 1 0.00000000 1 0.00000000 0.00000000 0.00000000 0.00000000
Neuron 112 1 0.00000000 1 0.00000000 0.00000000 0.00000000 0.00000000
Neuron 113 1 0.00000000 1 0.00000000 0.00000000 0.00000000 0.00000000
Neuron 114 1 0.00000000 1 0.00000000 0.00000000 0.00000000 0.00000000
Neuron 115 1 0.00000000 1 0.00000000 0.00000000 0.00000000 0.00000000
Neuron 116 1 0.00000000 1 0.00000000 0.00000000 0.00000000 0.00000000
Neuron 117 1 0.00000000 1 0.00000000 0.00000000 0.00000000 0.00000000
Neuron 118 1 0.00000000 1 0.00000000 0.00000000 0.00000000 0.00000000
Neuron 119 1 0.00000000 1 0.00000000 0.00000000 0.00000000 0.00000000
Neuron 120 1 0.00000000 1 0.00000000 0.00000000 0.00000000 0.00000000
Neuron 121 1 0.00000000 1 0.00000000 0.00000000 0.00000000 0.00000000
Neuron 122 1 0.00000000 1 0.00000000 0.00000000 0.00000000 0.00000000
Neuron 123 1 0.00000000 1 0.00000000 0.00000000 0.00000000 0.00000000
Neuron 124 1 0.00000000 1 0.00000000 0.00000000 0.00000000 0.00000000
Neuron 125 1 0.00000000 1 0.00000000 0.00000000 0.00000000 0.00000000
Neuron 126 1 0.00000000 1 0.00000000 0.00000000 0.00000000 0.00000000
Neuron 127 1 0.00000000 1 0.00000000 0.00000000 0.00000000 0.00000000
Neuron 128 1 0.00000000 1 0.00000000 0.00000000 0.00000000 0.00000000
Neuron 129 1 0.00000000 1 0.00000000 0.00000000 0.00000000 0.00000000
Neuron 130 1 0.00000000 1 0.00000000 0.00000000 0.00000000 0.00000000
Neuron 131 1 0.00000000 1 0.00000000 0.00000000 0.00000000 0.00000000
Neuron 132 1 0.00000000 1 0.00000000 0.00000000 0.00000000 0.00000000
Neuron 133 1 0.00000000 1 0.00000000 0.00000000 0.00000000 0.00000000
Neuron 134 1 0.00000000 1 0.00000000 0.00000000 0.00000000 0.00000000
Neuron 135 1 0.00000000 1 0.00000000 0.00000000 0.00000000 0.00000000
Neuron 136 1 0.00000000 1 0.00000000 0.00000000 0.00000000 0.00000000
Neuron 137 1 0.00000000 1 0.00000000 0.00000000 0.00000000 0.00000000
Neuron 138 1 0.00000000 1 0.00000000 0.00000000 0.00000000 0.00000000
Neuron 139 1 0.00000000 1 0.00000000 0.00000000 0.00000000 0.00000000
Neuron 140 1 0.00000000 1 0.00000000 0.00000000 0.00000000 0.00000000
Neuron 141 1 0.00000000 1 0.00000000 0.00000000 0.00000000 0.00000000
Neuron 142 1 0.00000000 1 0.00000000 0.00000000 0.00000000 0.00000000
Neuron 143 1 0.00000000 1 0.00000000 0.00000000 0.00000000 0.00000000
Neuron 144 1 0.00000000 1 0.00000000 0.00000000 0.00000000 0.00000000
Neuron 145 1 0.00000000 1 0.00000000 0.00000000 0.00000000 0.00000000
Neuron 146 1 0.00000000 1 0.00000000 0.00000000 0.00000000 0.00000000
Neuron 147 1 0.00000000 1 0.00000000 0.00000000 0.00000000 0.00000000
Neuron 148 1 0.00000000 1 0.00000000 0.00000000 0.00000000 0.00000000
Neuron 149 1 0.00000000 1 0.00000000 0.00000000 0.00000000 0.00000000
Neuron 150 1 0.00000000 1 0.00000000 0.00000000 0.00000000 0.00000000
Neuron 151 1 0.00000000 1 0.00000000 0.00000000 0.00000000 0.00000000
Neuron 152 1 0.00000000 1 0.00000000 0.00000000 0.00000000 0.00000000
Neuron 153 1 0.00000000 1 0.00000000 0.00000000 0.00000000 0.00000000
Neuron 154 1 0.00000000 1 0.00000000 0.00000000 0.00000000 0.00000000
Neuron 155 1 0.00000000 1 0.00000000 0.00000000 0.00000000 0.00000000
Neuron 156 1 0.00000000 1 0.00000000 0.00000000 0.00000000 0.00000000
Neuron 157 1 0.00000000 1 0.00000000 0.00000000 0.00000000 0.00000000
Neuron 158 1 0.00000000 1 0.00000000 0.00000000 0.00000000 0.00000000
Neuron 159 1 0.00000000 1 0.00000000 0.00000000 0.00000000 0.00000000
Neuron 160 1 0.00000000 1 0.00000000 0.00000000 0.00000000 0.00000000
Neuron 161 1 0.00000000 1 0.00000000 0.00000000 0.00000000 0.00000000
Neuron 162 1 0.00000000 1 0.00000000 0.00000000 0.00000000 0.00000000
Neuron 163 1 0.00000000 1 0.00000000 0.00000000 0.00000000 0.00000000
Neuron 164 1 0.00000000 1 0.00000000 0.00000000 0.00000000 0.00000000
Neuron 165 1 0.00000000 1 0.00000000 0.00000000 0.00000000 0.00000000
Neuron 166 1 0.00000000 1 0.00000000 0.00000000 0.00000000 0.00000000
Neuron 167 1 0.00000000 1 0.00000000 0.00000000 0.00000000 0.00000000
Neuron 168 1 0.00000000 1 0.00000000 0.00000000 0.00000000 0.00000000
Neuron 169 1 0.00000000 1 0.00000000 0.00000000 0.00000000 0.00000000
Neuron 170 1 0.00000000 1 0.00000000 0.00000000 0.00000000 0.00000000
Neuron 171 1 0.00000000 1 0.00000000 0.00000000 0.00000000 0.00000000
Neuron 172 1 0.00000000 1 0.00000000 0.00000000 0.00000000 0.00000000
Neuron 173 1 0.00000000 1 0.00000000 0.00000000 0.00000000 0.00000000
Neuron 174 1 0.00000000 1 0.00000000 0.00000000 0.00000000 0.00000000
Neuron 175 1 0.00000000 1 0.00000000 0.00000000 0.00000000 0.00000000
Neuron 176 1 0.00000000 1 0.00000000 0.00000000 0.00000000 0.00000000
Neuron 177 1 0.00000000 1 0.00000000 0.00000000 0.00000000 0.00000000
Neuron 178 1 0.00000000 1 0.00000000 0.00000000 0.00000000 0.00000000
Neuron 179 1 0.00000000 1 0.00000000 0.00000000 0.00000000 0.00000000
Neuron 180 1 0.00000000 1 0.00000000 0.00000000 0.00000000 0.00000000
Neuron 181 1 0.00000000 1 0.00000000 0.00000000 0.00000000 0.00000000
Neuron 182 1 0.00000000 1 0.00000000 0.00000000 0.00000000 0.00000000
Neuron 183 1 0.00000000 1 0.00000000 0.00000000 0.00000000 0.00000000
Neuron 184 1 0.00000000 1 0.00000000 0.00000000 0.00000000 0.00000000
Neuron 185 1 0.00000000 1 0.00000000 0.00000000 0.00000000 0.00000000
Neuron 186 1 0.00000000 1 0.00000000 0.00000000 0.00000000 0.00000000
Neuron 187 1 0.00000000 1 0.00000000 0.00000000 0.00000000 0.00000000
Neuron 188 1 0.00000000 1 0.00000000 0.00000000 0.00000000 0.00000000
Neuron 189 1 0.00000000 1 0.00000000 0.00000000 0.00000000 0.00000000
Neuron 190 1 0.00000000 1 0.00000000 0.00000000 0.00000000 0.00000000
Neuron 191 1 0.00000000 1 0.00000000 0.00000000 0.00000000 0.00000000
Neuron 192 1 0.00000000 1 0.00000000 0.00000000 0.00000000 0.00000000
Neuron 193 1 0.00000000 1 0.00000000 0.00000000 0.00000000 0.00000000
Neuron 194 2 0.00000000 1 0.00000000 0.00000000 0.00000000 0.00000000
Neuron 195 4 1.00000000 0 1.00000000 0.00000000 0.00000000 0.28558896
Neuron 196 4 1.00000000 1 1.00000000 0.00000000 0.00000000 0.63585167
Neuron 197 4 1.00000000 0 1.00000000 0.00000000 0.00000000 -0.57789587
Neuron 198 4 1.00000000 0 1.00000000 0.00000000 0.00000000 0.65099135
Neuron 199 4 1.00000000 0 1.00000000 0.00000000 0.00000000 0.03920268
Neuron 200 4 1.00000000 0 1.00000000 0.00000000 0.00000000 0.35102820
Neuron 201 4 1.00000000 0 1.00000000 0.00000000 0.00000000 0.01113841
Neuron 202 4 1.00000000 1 1.00000000 0.00000000 0.00000000 -0.50409404
Neuron 203 4 1.00000000 0 1.00000000 0.00000000 0.00000000 0.20192745
Neuron 204 4 1.00000000 1 1.00000000 0.00000000 0.00000000 0.46093203
Neuron 205 4 1.00000000 0 1.00000000 0.00000000 0.00000000 0.43147647
Neuron 206 4 1.00000000 0 1.00000000 0.00000000 0.00000000 -0.38453143
Neuron 207 4 1.00000000 0 1.00000000 0.00000000 0.00000000 -0.23033757
Neuron 208 4 1.00000000 0 1.00000000 0.00000000 0.00000000 -0.20077915
Neuron 209 4 1.00000000 0 1.00000000 0.00000000 0.00000000 -0.20979312
Link 1 195 1 0 0.86189723
Link 2 195 2 0 -0.35721457
Link 3 195 3 0 -0.28000865
Link 4 195 4 0 0.15723258
Link 5 195 5 0 0.01920654
Link 6 195 6 0 -0.17337240
Link 7 195 7 0 -0.30804837
Link 8 195 8 0 0.43216032
Link 9 195 9 0 0.41762021
Link 10 195 10 0 -0.37870603
Link 11 195 11 0 0.04163263
Link 12 195 12 0 0.15946618
Link 13 195 13 0 -0.40273401
Link 14 195 14 0 0.20386067
Link 15 195 15 0 0.07049999
Link 16 195 16 0 -0.04009819
Link 17 195 17 0 0.33639319
Link 18 195 18 0 0.34586710
Link 19 195 19 0 0.10760403
Link 20 195 20 0 0.05604535
Link 21 195 21 0 -0.31868689
Link 22 195 22 0 0.43322890
Link 23 195 23 0 -0.15426818
Link 24 195 24 0 -0.57870287
Link 25 195 25 0 0.36148826
Link 26 195 26 0 0.18834578
Link 27 195 27 0 0.20174155
Link 28 195 28 0 -0.29605981
Link 29 195 29 0 -0.04337483
Link 30 195 30 0 -0.12286676
Link 31 195 31 0 0.08280472
Link 32 195 32 0 0.05385180
Link 33 195 33 0 -0.10712163
Link 34 195 34 0 -0.22595422
Link 35 195 35 0 0.08789664
Link 36 195 36 0 0.15217263
Link 37 195 37 0 -0.11256683
Link 38 195 38 0 0.66990161
Link 39 195 39 0 -0.50550487
Link 40 195 40 0 0.36695763
Link 41 195 41 0 0.18203110
Link 42 195 42 0 0.67234049
Link 43 195 43 0 0.07898386
Link 44 195 44 0 0.21340438
Link 45 195 45 0 0.59705397
Link 46 195 46 0 0.58917695
Link 47 195 47 0 0.25522186
Link 48 195 48 0 0.12062736
Link 49 195 49 0 -0.40380605
Link 50 195 50 0 -0.19584250
Link 51 195 51 0 0.82537997
Link 52 195 52 0 -0.05013844
Link 53 195 53 0 -0.32278498
Link 54 195 54 0 0.48030727
Link 55 195 55 0 0.19132089
Link 56 195 56 0 -0.07222290
Link 57 195 57 0 0.24698278
Link 58 195 58 0 -0.04750819
Link 59 195 59 0 0.18248223
Link 60 195 60 0 -0.12526852
Link 61 195 61 0 -0.88375105
Link 62 195 62 0 0.32827452
Link 63 195 63 0 0.02590680
Link 64 195 64 0 0.13721733
Link 65 195 65 0 -0.17577250
Link 66 195 66 0 -0.06243478
Link 67 195 67 0 -0.02942915
Link 68 195 68 0 -0.24906648
Link 69 195 69 0 -0.29369143
Link 70 195 70 0 0.39932761
Link 71 195 71 0 -0.30086819
Link 72 195 72 0 0.59819446
Link 73 195 73 0 -0.03999606
Link 74 195 74 0 -0.20222212
Link 75 195 75 0 0.31525733
Link 76 195 76 0 -0.11606734
Link 77 195 77 0 -0.48502890
Link 78 195 78 0 0.24987070
Link 79 195 79 0 -0.52621126
Link 80 195 80 0 0.28527160
Link 81 195 81 0 0.43348600
Link 82 195 82 0 -0.21616786
Link 83 195 83 0 -0.14766679
Link 84 195 84 0 0.42705702
Link 85 195 85 0 0.20552991
Link 86 195 86 0 -0.50756384
Link 87 195 87 0 0.46123075
Link 88 195 88 0 -0.57722312
Link 89 195 89 0 -0.00688192
Link 90 195 90 0 0.26187077
Link 91 195 91 0 0.25426944
Link 92 195 92 0 0.26228477
Link 93 195 93 0 0.01610994
Link 94 195 94 0 0.35594142
Link 95 195 95 0 -0.29477997
Link 96 195 96 0 -0.12220560
Link 97 195 97 0 -0.07896435
Link 98 195 98 0 -0.21409416
Link 99 195 99 0 -0.14597285
Link 100 195 100 0 -0.00895357
Link 101 195 101 0 -0.02049286
Link 102 195 102 0 0.15413390
Link 103 195 103 0 0.50901494
Link 104 195 104 0 0.28138202
Link 105 195 105 0 0.49167553
Link 106 195 106 0 -0.38241076
Link 107 195 107 0 -0.13594265
Link 108 195 108 0 0.68324745
Link 109 195 109 0 -0.01528282
Link 110 195 110 0 0.46692617
Link 111 195 111 0 -0.07154308
Link 112 195 112 0 0.40446298
Link 113 195 113 0 -0.01552515
Link 114 195 114 0 0.73168159
Link 115 195 115 0 -0.03447761
Link 116 195 116 0 0.36235366
Link 117 195 117 0 -0.30054041
Link 118 195 118 0 0.57877928
Link 119 195 119 0 0.12440101
Link 120 195 120 0 0.39170018
Link 121 195 121 0 -0.18259747
Link 122 195 122 0 -0.19161128
Link 123 195 123 0 0.46545338
Link 124 195 124 0 -0.20767234
Link 125 195 125 0 -0.11422509
Link 126 195 126 0 -0.01414678
Link 127 195 127 0 -0.29967589
Link 128 195 128 0 -0.13747933
Link 129 195 129 0 0.17761264
Link 130 195 130 0 -0.26370346
Link 131 195 131 0 -0.39553599
Link 132 195 132 0 0.19728089
Link 133 195 133 0 0.03590167
Link 134 195 134 0 -0.37660399
Link 135 195 135 0 0.48389556
Link 136 195 136 0 0.01503431
Link 137 195 137 0 0.04827065
Link 138 195 138 0 0.13320186
Link 139 195 139 0 -0.52175728
Link 140 195 140 0 0.47578093
Link 141 195 141 0 -0.74486722
Link 142 195 142 0 -0.63612180
Link 143 195 143 0 0.57715633
Link 144 195 144 0 0.27688822
Link 145 195 145 0 -0.03933843
Link 146 195 146 0 0.03257343
Link 147 195 147 0 -0.01292412
Link 148 195 148 0 0.00920262
Link 149 195 149 0 -0.19658787
Link 150 195 150 0 -0.00027473
Link 151 195 151 0 -0.35948047
Link 152 195 152 0 0.29437295
Link 153 195 153 0 -0.65040271
Link 154 195 154 0 -0.69181382
Link 155 195 155 0 0.18288690
Link 156 195 156 0 0.01273792
Link 157 195 157 0 -0.37397192
Link 158 195 158 0 0.00464684
Link 159 195 159 0 0.26876708
Link 160 195 160 0 -0.10468854
Link 161 195 161 0 0.09795167
Link 162 195 162 0 0.71660271
Link 163 195 163 0 0.36859488
Link 164 195 164 0 -0.37600771
Link 165 195 165 0 0.49835097
Link 166 195 166 0 -0.01168378
Link 167 195 167 0 -0.13568526
Link 168 195 168 0 0.47092225
Link 169 195 169 0 -0.15232104
Link 170 195 170 0 0.00964884
Link 171 195 171 0 0.05939266
Link 172 195 172 0 -0.35647784
Link 173 195 173 0 -0.13609329
Link 174 195 174 0 -0.18435989
Link 175 195 175 0 -0.90620128
Link 176 195 176 0 0.28879942
Link 177 195 177 0 -0.07681765
Link 178 195 178 0 -0.21982620
Link 179 195 179 0 0.25017950
Link 180 195 180 0 0.08873664
Link 181 195 181 0 0.23997195
Link 182 195 182 0 -0.59950822
Link 183 195 183 0 0.06152257
Link 184 195 184 0 -0.09310658
Link 185 195 185 0 -0.64263492
Link 186 195 186 0 -0.55206937
Link 187 195 187 0 -0.22826582
Link 188 195 188 0 -0.53320328
Link 189 195 189 0 0.38445805
Link 190 195 190 0 -0.57917988
Link 191 195 191 0 0.45629890
Link 192 195 192 0 -0.23249601
Link 193 195 193 0 0.69513979
Link 194 195 194 0 -0.54311698
Link 1 196 195 0 0.14652719
Link 2 196 196 0 -0.24673306
Link 3 196 197 0 -0.35982533
Link 4 196 198 0 -0.27873610
Link 5 196 199 0 -0.03653586
Link 6 196 200 0 -0.32568167
Link 7 196 201 0 -0.32046354
Link 8 196 202 0 -0.11184414
Link 9 196 203 0 0.33852016
Link 10 196 204 0 -0.41442680
Link 11 196 205 0 -0.01221595
Link 12 196 206 0 0.50244775
Link 13 196 207 0 -0.18829974
Link 14 196 208 0 -0.43299908
Link 15 196 209 0 -0.07314373
Link 16 196 210 0 0.00006545
Link 17 196 211 0 -0.18454184
Link 18 196 212 0 -0.02258089
Link 19 196 213 0 -0.27551004
Link 20 196 214 0 0.17511505
Link 21 196 215 0 0.44874284
Link 22 196 216 0 -0.48444246
Link 23 196 217 0 0.10764878
Link 24 196 218 0 0.48590936
Link 25 196 219 0 -0.08223041
Link 26 196 220 0 -0.25081710
Link 27 196 221 0 0.43315698
Link 28 196 222 0 -0.17732569
Link 29 196 223 0 0.24330704
Link 30 196 224 0 -0.08228363
Link 31 196 225 0 -0.34676436
Link 32 196 226 0 0.16576110
Link 33 196 227 0 -0.07281259
Link 34 196 228 0 0.18361661
Link 35 196 229 0 0.06327856
Link 36 196 230 0 0.53446918
Link 37 196 231 0 0.60377912
Link 38 196 232 0 0.12869929
Link 39 196 233 0 0.44108150
Link 40 196 234 0 0.00483750
Link 41 196 235 0 0.20923715
Link 42 196 236 0 0.30499380
Link 43 196 237 0 0.29456529
Link 44 196 238 0 -0.02400407
Link 45 196 239 0 -0.09404807
Link 46 196 240 0 0.08033419
Link 47 196 241 0 -0.11267370
Link 48 196 242 0 -0.16235965
Link 49 196 243 0 0.12004412
Link 50 196 244 0 -0.21909525
Link 51 196 245 0 -0.37708878
Link 52 196 246 0 0.27040230
Link 53 196 247 0 -0.82739963
Link 54 196 248 0 -0.62903488
Link 55 196 249 0 0.01696293
Link 56 196 250 0 -0.34381633
Link 57 196 251 0 -0.48002607
Link 58 196 252 0 0.15438831
Link 59 196 253 0 0.25846098
Link 60 196 254 0 -0.60242086
Link 61 196 255 0 0.34986429
Link 62 196 256 0 0.20359310
Link 63 196 257 0 -0.12329202
Link 64 196 258 0 -0.20820629
Link 65 196 259 0 -0.64366073
Link 66 196 260 0 -0.24880137
Link 67 196 261 0 0.32530731
Link 68 196 262 0 0.98590682
Link 69 196 263 0 0.02654245
Link 70 196 264 0 -0.07317568
Link 71 196 265 0 -0.07435864
Link 72 196 266 0 -0.08917116
Link 73 196 267 0 0.17235301
Link 74 196 268 0 0.15478179
Link 75 196 269 0 -0.05855967
Link 76 196 270 0 -0.04296972
Link 77 196 271 0 0.31834924
Link 78 196 272 0 -0.31736978
Link 79 196 273 0 -0.81297397
Link 80 196 274 0 -0.15293850
Link 81 196 275 0 0.17690335
Link 82 196 276 0 0.14618424
Link 83 196 277 0 -0.27671299
Link 84 196 278 0 -0.30205039
Link 85 196 279 0 0.09788164
Link 86 196 280 0 0.16854645
Link 87 196 281 0 -0.03362682
Link 88 196 282 0 0.05617434
Link 89 196 283 0 0.00371714
Link 90 196 284 0 -0.07959490
Link 91 196 285 0 0.54597080
Link 92 196 286 0 0.27475882
Link 93 196 287 0 -0.59555257
Link 94 196 288 0 -0.21438469
Link 95 196 289 0 0.50984908
Link 96 196 290 0 -0.27418512
Link 97 196 291 0 -0.20313413
Link 98 196 292 0 0.61183602
Link 99 196 293 0 -0.08782826
Link 100 196 294 0 -0.29733912
Link 101 196 295 0 -0.07559581
Link 102 196 296 0 0.20352641
Link 103 196 297 0 -0.75548103
Link 104 196 298 0 0.02220026
Link 105 196 299 0 -0.05348085
Link 106 196 300 0 -0.10344828
Link 107 196 301 0 -0.04412949
Link 108 196 302 0 -0.50909280
Link 109 196 303 0 0.30544153
Link 110 196 304 0 -0.25637985
Link 111 196 305 0 -0.24300802
Link 112 196 306 0 0.56823570
Link 113 196 307 0 0.02961197
Link 114 196 308 0 0.21723756
Link 115 196 309 0 -0.00241864
Link 116 196 310 0 -0.35042275
Link 117 196 311 0 0.35343574
Link 118 196 312 0 0.58796384
Link 119 196 313 0 -0.01591090
Link 120 196 314 0 0.22670474
Link 121 196 315 0 0.00488733
Link 122 196 316 0 0.38103905
Link 123 196 317 0 0.17993156
Link 124 196 318 0 0.38261743
Link 125 196 319 0 -0.29798625
Link 126 196 320 0 -0.07118025
Link 127 196 321 0 0.42912372
Link 128 196 322 0 -0.14235664
Link 129 196 323 0 -0.20198868
Link 130 196 324 0 -0.06166192
Link 131 196 325 0 -0.06391036
Link 132 196 326 0 -0.38113892
Link 133 196 327 0 -0.38457503
Link 134 196 328 0 -0.29199490
Link 135 196 329 0 -0.44497858
Link 136 196 330 0 -0.22757806
Link 137 196 331 0 0.53657414
Link 138 196 332 0 -0.31096056
Link 139 196 333 0 0.28923953
Link 140 196 334 0 0.61916332
Link 141 196 335 0 0.00157237
Link 142 196 336 0 -0.38217807
Link 143 196 337 0 0.34931557
Link 144 196 338 0 -0.13228286
Link 145 196 339 0 0.57310197
Link 146 196 340 0 -0.11171077
Link 147 196 341 0 0.18599541
Link 148 196 342 0 -0.35820697
Link 149 196 343 0 0.30271004
Link 150 196 344 0 0.11911605
Link 151 196 345 0 0.71055068
Link 152 196 346 0 0.30142588
Link 153 196 347 0 0.08152238
Link 154 196 348 0 -0.31227848
Link 155 196 349 0 0.50383036
Link 156 196 350 0 0.16163860
Link 157 196 351 0 -0.00786323
Link 158 196 352 0 -0.06031857
Link 159 196 353 0 0.22991640
Link 160 196 354 0 -0.53278175
Link 161 196 355 0 0.05028056
Link 162 196 356 0 0.08403166
Link 163 196 357 0 0.11538573
Link 164 196 358 0 -0.11243344
Link 165 196 359 0 0.21331754
Link 166 196 360 0 0.49294634
Link 167 196 361 0 0.50811613
Link 168 196 362 0 0.20594717
Link 169 196 363 0 -0.09297179
Link 170 196 364 0 -0.82656195
Link 171 196 365 0 -0.07453640
Link 172 196 366 0 0.02770231
Link 173 196 367 0 0.16502742
Link 174 196 368 0 -0.46144494
Link 175 196 369 0 -0.60199517
Link 176 196 370 0 -0.25021015
Link 177 196 371 0 0.52972797
Link 178 196 372 0 -0.73484785
Link 179 196 373 0 -0.15098543
Link 180 196 374 0 -0.10245272
Link 181 196 375 0 -0.07058336
Link 182 196 376 0 0.12504595
Link 183 196 377 0 0.08421906
Link 184 196 378 0 -0.06197506
Link 185 196 379 0 -0.13321462
Link 186 196 380 0 -0.00607774
Link 187 196 381 0 -0.18237958
Link 188 196 382 0 -0.23104556
Link 189 196 383 0 0.14691132
Link 190 196 384 0 0.29792815
Link 191 196 385 0 -0.20965172
Link 192 196 386 0 -0.19044446
Link 193 196 387 0 0.16950150
Link 194 196 388 0 0.04585429
Link 1 197 389 0 0.19543984
Link 2 197 390 0 -0.16592548
Link 3 197 391 0 0.11898945
Link 4 197 392 0 -0.47687936
Link 5 197 393 0 0.01218682
Link 6 197 394 0 0.04285036
Link 7 197 395 0 0.06131385
Link 8 197 396 0 0.01314867
Link 9 197 397 0 0.01792580
Link 10 197 398 0 0.03795310
Link 11 197 399 0 -0.19598183
Link 12 197 400 0 0.17704349
Link 13 197 401 0 -0.64904995
Link 14 197 402 0 0.27235335
Link 15 197 403 0 -0.85273487
Link 16 197 404 0 -0.30157744
Link 17 197 405 0 -0.67853786
Link 18 197 406 0 0.06772435
Link 19 197 407 0 0.60124978
Link 20 197 408 0 -0.23948268
Link 21 197 409 0 0.41012047
Link 22 197 410 0 -0.32963315
Link 23 197 411 0 0.02140323
Link 24 197 412 0 -0.25065685
Link 25 197 413 0 0.02001794
Link 26 197 414 0 -0.01276819
Link 27 197 415 0 0.23319567
Link 28 197 416 0 -0.18737391
Link 29 197 417 0 -0.27984778
Link 30 197 418 0 -0.34713625
Link 31 197 419 0 -0.17795180
Link 32 197 420 0 -0.23992195
Link 33 197 421 0 0.32009159
Link 34 197 422 0 -0.31524853
Link 35 197 423 0 0.35698990
Link 36 197 424 0 0.33920335
Link 37 197 425 0 -0.40133262
Link 38 197 426 0 -0.02581873
Link 39 197 427 0 -0.53311005
Link 40 197 428 0 -0.14066879
Link 41 197 429 0 -0.04842688
Link 42 197 430 0 -0.10399398
Link 43 197 431 0 0.11396924
Link 44 197 432 0 -0.07006945
Link 45 197 433 0 -0.02214814
Link 46 197 434 0 0.08257271
Link 47 197 435 0 0.06401408
Link 48 197 436 0 -0.01162321
Link 49 197 437 0 0.52192266
Link 50 197 438 0 -0.49709210
Link 51 197 439 0 0.16266923
Link 52 197 440 0 -0.30112159
Link 53 197 441 0 -0.34972108
Link 54 197 442 0 -0.52237909
Link 55 197 443 0 -0.06493875
Link 56 197 444 0 -0.39219645
Link 57 197 445 0 -0.27326737
Link 58 197 446 0 0.23246916
Link 59 197 447 0 0.00914552
Link 60 197 448 0 0.10147570
Link 61 197 449 0 0.35420116
Link 62 197 450 0 0.35702612
Link 63 197 451 0 0.03134111
Link 64 197 452 0 0.10503238
Link 65 197 453 0 -0.29864637
Link 66 197 454 0 0.42405079
Link 67 197 455 0 -0.25757993
Link 68 197 456 0 -0.02377655
Link 69 197 457 0 -0.27237356
Link 70 197 458 0 -0.03328995
Link 71 197 459 0 0.18862627
Link 72 197 460 0 -0.41418485
Link 73 197 461 0 -0.44039550
Link 74 197 462 0 -0.02161943
Link 75 197 463 0 -0.00116831
Link 76 197 464 0 -0.64248838
Link 77 197 465 0 0.39087321
Link 78 197 466 0 -0.01441645
Link 79 197 467 0 -0.28955255
Link 80 197 468 0 -0.31561815
Link 81 197 469 0 -0.12417164
Link 82 197 470 0 0.04657597
Link 83 197 471 0 -0.01878024
Link 84 197 472 0 0.06280800
Link 85 197 473 0 0.15532913
Link 86 197 474 0 0.25773271
Link 87 197 475 0 -0.49049831
Link 88 197 476 0 0.27878497
Link 89 197 477 0 -0.27359211
Link 90 197 478 0 0.17723782
Link 91 197 479 0 -0.04446310
Link 92 197 480 0 0.32191049
Link 93 197 481 0 0.18986015
Link 94 197 482 0 -0.15657418
Link 95 197 483 0 0.22648184
Link 96 197 484 0 0.30046997
Link 97 197 485 0 0.22688564
Link 98 197 486 0 -0.48894080
Link 99 197 487 0 0.82230770
Link 100 197 488 0 0.40437999
Link 101 197 489 0 0.45231417
Link 102 197 490 0 -0.27132340
Link 103 197 491 0 -0.49000935
Link 104 197 492 0 -0.81575043
Link 105 197 493 0 0.21782460
Link 106 197 494 0 -0.07947132
Link 107 197 495 0 -0.28072133
Link 108 197 496 0 0.19063360
Link 109 197 497 0 0.11636459
Link 110 197 498 0 0.44940129
Link 111 197 499 0 0.12986800
Link 112 197 500 0 0.01914844
Link 113 197 501 0 0.24667447
Link 114 197 502 0 0.29949592
Link 115 197 503 0 -0.84504576
Link 116 197 504 0 0.02851641
Link 117 197 505 0 0.01050359
Link 118 197 506 0 0.00084758
Link 119 197 507 0 -0.27945806
Link 120 197 508 0 -0.35579072
Link 121 197 509 0 0.01117910
Link 122 197 510 0 0.38089615
Link 123 197 511 0 0.18139158
Link 124 197 512 0 0.09289027
Link 125 197 513 0 0.38547901
Link 126 197 514 0 0.44660075
Link 127 197 515 0 0.17562071
Link 128 197 516 0 0.36135206
Link 129 197 517 0 -0.06233857
Link 130 197 518 0 0.02500408
Link 131 197 519 0 -0.05742911
Link 132 197 520 0 -0.18892139
Link 133 197 521 0 0.38394477
Link 134 197 522 0 0.39560794
Link 135 197 523 0 -0.15058510
Link 136 197 524 0 -0.26147705
Link 137 197 525 0 -0.23066597
Link 138 197 526 0 0.35615313
Link 139 197 527 0 0.29633278
Link 140 197 528 0 0.08052183
Link 141 197 529 0 -0.74636873
Link 142 197 530 0 0.01714822
Link 143 197 531 0 0.22664693
Link 144 197 532 0 -0.44902471
Link 145 197 533 0 -0.44890663
Link 146 197 534 0 0.43429207
Link 147 197 535 0 0.03407334
Link 148 197 536 0 -0.63998762
Link 149 197 537 0 -0.22166737
Link 150 197 538 0 -0.07522433
Link 151 197 539 0 -0.12946936
Link 152 197 540 0 -0.06771624
Link 153 197 541 0 0.06299288
Link 154 197 542 0 0.05996087
Link 155 197 543 0 0.34043859
Link 156 197 544 0 0.27154622
Link 157 197 545 0 -0.40237239
Link 158 197 546 0 0.16977794
Link 159 197 547 0 0.02858884
Link 160 197 548 0 0.10501831
Link 161 197 549 0 0.48072817
Link 162 197 550 0 0.07075642
Link 163 197 551 0 0.18032177
Link 164 197 552 0 0.49520059
Link 165 197 553 0 0.21488732
Link 166 197 554 0 -1.40584318
Link 167 197 555 0 -0.03465113
Link 168 197 556 0 0.18017884
Link 169 197 557 0 -0.58415795
Link 170 197 558 0 -0.15020119
Link 171 197 559 0 0.26299722
Link 172 197 560 0 0.40871163
Link 173 197 561 0 0.00426193
Link 174 197 562 0 0.08567764
Link 175 197 563 0 0.77908261
Link 176 197 564 0 0.06211128
Link 177 197 565 0 -0.19375504
Link 178 197 566 0 -0.09871434
Link 179 197 567 0 -0.70591176
Link 180 197 568 0 -0.24721996
Link 181 197 569 0 0.22958662
Link 182 197 570 0 -0.48740968
Link 183 197 571 0 -0.43657829
Link 184 197 572 0 0.52636566
Link 185 197 573 0 -0.29483073
Link 186 197 574 0 -0.37663852
Link 187 197 575 0 -0.01349965
Link 188 197 576 0 0.74756385
Link 189 197 577 0 0.09782704
Link 190 197 578 0 -0.11842199
Link 191 197 579 0 -0.13041947
Link 192 197 580 0 -0.32688562
Link 193 197 581 0 -0.18841286
Link 194 197 582 0 -0.75753775
Link 1 198 583 0 -0.76474848
Link 2 198 584 0 -0.17203457
Link 3 198 585 0 -0.61226789
Link 4 198 586 0 0.60437848
Link 5 198 587 0 1.00928041
Link 6 198 588 0 -0.94232562
Link 7 198 589 0 -0.49189978
Link 8 198 590 0 0.82442054
Link 9 198 591 0 -0.05380182
Link 10 198 592 0 0.30775649
Link 11 198 593 0 -0.50311467
Link 12 198 594 0 0.17732098
Link 13 198 595 0 -0.04060210
Link 14 198 596 0 0.57662695
Link 15 198 597 0 -0.56092551
Link 16 198 598 0 0.04768624
Link 17 198 599 0 -0.43966485
Link 18 198 600 0 -0.08078985
Link 19 198 601 0 0.03508019
Link 20 198 602 0 0.32436331
Link 21 198 603 0 0.13194365
Link 22 198 604 0 0.21762873
Link 23 198 605 0 -0.15173820
Link 24 198 606 0 -0.30220952
Link 25 198 607 0 -0.82848841
Link 26 198 608 0 -0.59444262
Link 27 198 609 0 -0.10241252
Link 28 198 610 0 -0.14257784
Link 29 198 611 0 0.24261814
Link 30 198 612 0 -0.05059131
Link 31 198 613 0 -0.19829443
Link 32 198 614 0 0.10448173
Link 33 198 615 0 0.16991666
Link 34 198 616 0 -0.12478677
Link 35 198 617 0 -0.25913289
Link 36 198 618 0 -0.49202088
Link 37 198 619 0 -0.11486655
Link 38 198 620 0 0.04151958
Link 39 198 621 0 -0.73519700
Link 40 198 622 0 0.08665614
Link 41 198 623 0 -0.12570534
Link 42 198 624 0 -0.28545245
Link 43 198 625 0 0.36231654
Link 44 198 626 0 0.34001955
Link 45 198 627 0 -0.37139917
Link 46 198 628 0 0.13616176
Link 47 198 629 0 0.09972183
Link 48 198 630 0 -0.39069855
Link 49 198 631 0 -0.36671775
Link 50 198 632 0 0.06981322
Link 51 198 633 0 0.26586981
Link 52 198 634 0 0.44292806
Link 53 198 635 0 0.75894911
Link 54 198 636 0 -0.40403913
Link 55 198 637 0 -0.17814045
Link 56 198 638 0 0.47787132
Link 57 198 639 0 -0.29462691
Link 58 198 640 0 0.26044332
Link 59 198 641 0 0.14996397
Link 60 198 642 0 0.01227972
Link 61 198 643 0 -0.75694070
Link 62 198 644 0 0.40600495
Link 63 198 645 0 -0.66962906
Link 64 198 646 0 -0.25025774
Link 65 198 647 0 0.13814022
Link 66 198 648 0 -0.27475381
Link 67 198 649 0 -0.16775880
Link 68 198 650 0 0.47878245
Link 69 198 651 0 0.02506810
Link 70 198 652 0 -0.13162077
Link 71 198 653 0 -0.26857784
Link 72 198 654 0 -0.23406235
Link 73 198 655 0 0.02643634
Link 74 198 656 0 0.68572932
Link 75 198 657 0 -0.54050785
Link 76 198 658 0 0.06348846
Link 77 198 659 0 -0.44600670
Link 78 198 660 0 -0.08877281
Link 79 198 661 0 -0.71230048
Link 80 198 662 0 0.20618906
Link 81 198 663 0 -0.12123843
Link 82 198 664 0 -0.01016545
Link 83 198 665 0 0.55828588
Link 84 198 666 0 0.18667107
Link 85 198 667 0 0.15945134
Link 86 198 668 0 -0.35399963
Link 87 198 669 0 0.14688942
Link 88 198 670 0 -0.43261764
Link 89 198 671 0 0.31300050
Link 90 198 672 0 -0.10411562
Link 91 198 673 0 -0.05197784
Link 92 198 674 0 -0.10619635
Link 93 198 675 0 0.10911689
Link 94 198 676 0 -0.02746851
Link 95 198 677 0 -0.51343209
Link 96 198 678 0 0.16271834
Link 97 198 679 0 -0.12758636
Link 98 198 680 0 0.11322671
Link 99 198 681 0 -0.12749012
Link 100 198 682 0 0.49726734
Link 101 198 683 0 -0.33750842
Link 102 198 684 0 -0.01216264
Link 103 198 685 0 0.09401607
Link 104 198 686 0 0.28684303
Link 105 198 687 0 0.48896507
Link 106 198 688 0 0.53290634
Link 107 198 689 0 0.03556269
Link 108 198 690 0 -0.55722438
Link 109 198 691 0 -0.71599643
Link 110 198 692 0 -0.26723470
Link 111 198 693 0 0.05199827
Link 112 198 694 0 -0.37615247
Link 113 198 695 0 0.58088688
Link 114 198 696 0 -0.37688220
Link 115 198 697 0 -0.41912966
Link 116 198 698 0 -0.11643242
Link 117 198 699 0 0.36323149
Link 118 198 700 0 0.12724220
Link 119 198 701 0 0.07867951
Link 120 198 702 0 -0.24575054
Link 121 198 703 0 0.17515642
Link 122 198 704 0 0.41174277
Link 123 198 705 0 0.27189403
Link 124 198 706 0 -0.15162399
Link 125 198 707 0 0.07013268
Link 126 198 708 0 0.50377700
Link 127 198 709 0 0.14928041
Link 128 198 710 0 0.36414012
Link 129 198 711 0 -0.13426277
Link 130 198 712 0 -0.20470267
Link 131 198 713 0 0.27408611
Link 132 198 714 0 0.05403468
Link 133 198 715 0 0.13980269
Link 134 198 716 0 -0.57303396
Link 135 198 717 0 0.56776745
Link 136 198 718 0 0.54664292
Link 137 198 719 0 -0.05215453
Link 138 198 720 0 0.43630649
Link 139 198 721 0 -0.04245890
Link 140 198 722 0 0.15938627
Link 141 198 723 0 -0.52549974
Link 142 198 724 0 0.07484647
Link 143 198 725 0 0.68169571
Link 144 198 726 0 0.03249274
Link 145 198 727 0 1.13599005
Link 146 198 728 0 0.28759505
Link 147 198 729 0 -0.08362212
Link 148 198 730 0 -0.36900023
Link 149 198 731 0 0.91746577
Link 150 198 732 0 -0.34498231
Link 151 198 733 0 0.99944964
Link 152 198 734 0 0.55394040
Link 153 198 735 0 0.21640322
Link 154 198 736 0 -0.21722180
Link 155 198 737 0 -0.44503708
Link 156 198 738 0 -0.07653804
Link 157 198 739 0 -0.01740997
Link 158 198 740 0 0.74770186
Link 159 198 741 0 0.39572191
Link 160 198 742 0 0.01208634
Link 161 198 743 0 -0.52618476
Link 162 198 744 0 -0.17512527
Link 163 198 745 0 0.04771032
Link 164 198 746 0 0.48713208
Link 165 198 747 0 -0.15725838
Link 166 198 748 0 0.03473530
Link 167 198 749 0 0.15167222
Link 168 198 750 0 -0.38837380
Link 169 198 751 0 0.36774879
Link 170 198 752 0 -0.86613895
Link 171 198 753 0 -0.01935763
Link 172 198 754 0 -0.11720474
Link 173 198 755 0 0.21429758
Link 174 198 756 0 0.20259662
Link 175 198 757 0 -0.67687636
Link 176 198 758 0 -0.76234395
Link 177 198 759 0 -0.01828950
Link 178 198 760 0 -0.41865886
Link 179 198 761 0 0.29042573
Link 180 198 762 0 0.07594564
Link 181 198 763 0 -0.11434349
Link 182 198 764 0 -0.07649791
Link 183 198 765 0 0.05605040
Link 184 198 766 0 -0.27857390
Link 185 198 767 0 -0.21955511
Link 186 198 768 0 0.15290094
Link 187 198 769 0 -0.08359976
Link 188 198 770 0 -0.46274732
Link 189 198 771 0 -0.03500193
Link 190 198 772 0 0.48451774
Link 191 198 773 0 0.41817370
Link 192 198 774 0 -0.39016047
Link 193 198 775 0 -0.19816082
Link 194 198 776 0 0.23833711
Link 1 199 777 0 -0.16262919
Link 2 199 778 0 0.35447492
Link 3 199 779 0 0.44461734
Link 4 199 780 0 -0.62402591
Link 5 199 781 0 -0.01138676
Link 6 199 782 0 -0.11531827
Link 7 199 783 0 0.00231244
Link 8 199 784 0 0.24422938
Link 9 199 785 0 -0.42601867
Link 10 199 786 0 -0.07341863
Link 11 199 787 0 0.33237850
Link 12 199 788 0 0.15276637
Link 13 199 789 0 0.22633143
Link 14 199 790 0 -0.07366245
Link 15 199 791 0 -0.14797625
Link 16 199 792 0 -0.49575908
Link 17 199 793 0 0.16727978
Link 18 199 794 0 0.26566944
Link 19 199 795 0 0.20753322
Link 20 199 796 0 -0.19897810
Link 21 199 797 0 0.29643121
Link 22 199 798 0 -0.55547261
Link 23 199 799 0 -0.13340028
Link 24 199 800 0 0.44598671
Link 25 199 801 0 0.43116088
Link 26 199 802 0 0.41922709
Link 27 199 803 0 -0.19249408
Link 28 199 804 0 -0.30668040
Link 29 199 805 0 -0.03851357
Link 30 199 806 0 -0.33440127
Link 31 199 807 0 0.00694922
Link 32 199 808 0 -1.08356166
Link 33 199 809 0 -0.25249669
Link 34 199 810 0 0.39907445
Link 35 199 811 0 -0.36045657
Link 36 199 812 0 -0.00990053
Link 37 199 813 0 0.65258449
Link 38 199 814 0 -0.23040397
Link 39 199 815 0 -0.05483672
Link 40 199 816 0 -0.29389879
Link 41 199 817 0 -1.27924437
Link 42 199 818 0 -0.11103482
Link 43 199 819 0 -0.09839265
Link 44 199 820 0 -0.08912224
Link 45 199 821 0 -0.36448724
Link 46 199 822 0 -0.13696970
Link 47 199 823 0 0.33320934
Link 48 199 824 0 -0.39153898
Link 49 199 825 0 0.21090325
Link 50 199 826 0 -0.62372115
Link 51 199 827 0 0.46490501
Link 52 199 828 0 -0.24500545
Link 53 199 829 0 -0.65574574
Link 54 199 830 0 -0.71988232
Link 55 199 831 0 -0.04851400
Link 56 199 832 0 0.05402671
Link 57 199 833 0 -0.12798782
Link 58 199 834 0 0.26571654
Link 59 199 835 0 0.28120151
Link 60 199 836 0 -0.06499741
Link 61 199 837 0 -0.58339197
Link 62 199 838 0 0.07806415
Link 63 199 839 0 -0.01310941
Link 64 199 840 0 0.14056137
Link 65 199 841 0 -0.30724260
Link 66 199 842 0 -0.46021032
Link 67 199 843 0 -0.40938810
Link 68 199 844 0 0.20064764
Link 69 199 845 0 0.75791371
Link 70 199 846 0 0.31217107
Link 71 199 847 0 -1.27506182
Link 72 199 848 0 0.73553550
Link 73 199 849 0 0.11722840
Link 74 199 850 0 -0.70968064
Link 75 199 851 0 0.22814073
Link 76 199 852 0 -0.03904761
Link 77 199 853 0 -0.10912181
Link 78 199 854 0 -0.11474733
Link 79 199 855 0 0.47539980
Link 80 199 856 0 0.43094552
Link 81 199 857 0 0.06841795
Link 82 199 858 0 0.49471816
Link 83 199 859 0 -0.35061760
Link 84 199 860 0 0.19266456
Link 85 199 861 0 -0.33511720
Link 86 199 862 0 -0.58478564
Link 87 199 863 0 0.10442348
Link 88 199 864 0 0.16585490
Link 89 199 865 0 -0.05018175
Link 90 199 866 0 0.10542277
Link 91 199 867 0 0.31632161
Link 92 199 868 0 -0.44954038
Link 93 199 869 0 0.06892335
Link 94 199 870 0 -0.39555811
Link 95 199 871 0 0.12098202
Link 96 199 872 0 -0.06924367
Link 97 199 873 0 -0.21193963
Link 98 199 874 0 -0.35337815
Link 99 199 875 0 0.03771326
Link 100 199 876 0 -0.17361276
Link 101 199 877 0 0.22545115
Link 102 199 878 0 0.40223446
Link 103 199 879 0 -0.07056736
Link 104 199 880 0 0.51053661
Link 105 199 881 0 0.72221130
Link 106 199 882 0 0.08123704
Link 107 199 883 0 -0.10387549
Link 108 199 884 0 0.35597772
Link 109 199 885 0 0.60827167
Link 110 199 886 0 0.54233675
Link 111 199 887 0 0.03698890
Link 112 199 888 0 0.19150164
Link 113 199 889 0 -0.51091677
Link 114 199 890 0 -1.06285684
Link 115 199 891 0 -0.05652211
Link 116 199 892 0 -0.32123460
Link 117 199 893 0 -0.22421662
Link 118 199 894 0 -0.10335603
Link 119 199 895 0 -0.17372415
Link 120 199 896 0 0.27021576
Link 121 199 897 0 0.20166731
Link 122 199 898 0 0.15753209
Link 123 199 899 0 -0.13660959
Link 124 199 900 0 0.83150412
Link 125 199 901 0 -0.26813513
Link 126 199 902 0 0.15224502
Link 127 199 903 0 0.05933276
Link 128 199 904 0 0.96906079
Link 129 199 905 0 0.63445436
Link 130 199 906 0 -0.44955118
Link 131 199 907 0 -0.34863943
Link 132 199 908 0 -0.11319083
Link 133 199 909 0 -1.04975707
Link 134 199 910 0 0.31975755
Link 135 199 911 0 0.16439399
Link 136 199 912 0 -0.19336489
Link 137 199 913 0 -0.53278112
Link 138 199 914 0 -0.25728725
Link 139 199 915 0 -0.39848247
Link 140 199 916 0 -0.60737246
Link 141 199 917 0 1.00245436
Link 142 199 918 0 0.23991980
Link 143 199 919 0 0.21750342
Link 144 199 920 0 -0.03058404
Link 145 199 921 0 -0.12178082
Link 146 199 922 0 0.30055293
Link 147 199 923 0 -0.10313049
Link 148 199 924 0 -0.45633652
Link 149 199 925 0 0.72274860
Link 150 199 926 0 0.03927536
Link 151 199 927 0 -0.40575012
Link 152 199 928 0 0.08417918
Link 153 199 929 0 -0.01310402
Link 154 199 930 0 0.83252517
Link 155 199 931 0 -0.16216590
Link 156 199 932 0 -0.10590046
Link 157 199 933 0 0.73992102
Link 158 199 934 0 -0.31969772
Link 159 199 935 0 -0.35023659
Link 160 199 936 0 -0.09078504
Link 161 199 937 0 0.51214448
Link 162 199 938 0 0.46092874
Link 163 199 939 0 0.03306344
Link 164 199 940 0 -0.11096473
Link 165 199 941 0 -0.19758254
Link 166 199 942 0 -0.07079910
Link 167 199 943 0 0.40757532
Link 168 199 944 0 0.84383279
Link 169 199 945 0 0.13954288
Link 170 199 946 0 0.65985786
Link 171 199 947 0 -0.62927328
Link 172 199 948 0 -0.84659880
Link 173 199 949 0 -0.45786930
Link 174 199 950 0 -0.21497668
Link 175 199 951 0 0.00280142
Link 176 199 952 0 -0.39096506
Link 177 199 953 0 0.24540103
Link 178 199 954 0 0.79550829
Link 179 199 955 0 0.04024551
Link 180 199 956 0 -0.66892006
Link 181 199 957 0 0.33143792
Link 182 199 958 0 0.45721429
Link 183 199 959 0 -0.28666681
Link 184 199 960 0 -0.32477932
Link 185 199 961 0 -0.45425019
Link 186 199 962 0 -0.11290655
Link 187 199 963 0 -0.31942204
Link 188 199 964 0 -0.01289814
Link 189 199 965 0 0.57603915
Link 190 199 966 0 -0.72443131
Link 191 199 967 0 0.22337169
Link 192 199 968 0 -1.14301580
Link 193 199 969 0 -0.66750174
Link 194 199 970 0 0.51830861
Link 1 200 971 0 -0.13834737
Link 2 200 972 0 -0.35176541
Link 3 200 973 0 -0.49457716
Link 4 200 974 0 0.02062056
Link 5 200 975 0 0.45578331
Link 6 200 976 0 -0.97214261
Link 7 200 977 0 -0.07541956
Link 8 200 978 0 -0.19585328
Link 9 200 979 0 -0.03700037
Link 10 200 980 0 0.41461971
Link 11 200 981 0 -0.25187413
Link 12 200 982 0 -0.50608475
Link 13 200 983 0 -0.14729780
Link 14 200 984 0 0.27473798
Link 15 200 985 0 0.31352054
Link 16 200 986 0 0.80236631
Link 17 200 987 0 0.34845582
Link 18 200 988 0 0.19315289
Link 19 200 989 0 0.65726193
Link 20 200 990 0 -0.88657127
Link 21 200 991 0 0.77662943
Link 22 200 992 0 0.22740438
Link 23 200 993 0 0.50546275
Link 24 200 994 0 0.60141915
Link 25 200 995 0 -0.42818347
Link 26 200 996 0 0.05861283
Link 27 200 997 0 -0.50064738
Link 28 200 998 0 0.13939199
Link 29 200 999 0 0.28354211
Link 30 200 1000 0 -0.60361288
Link 31 200 1001 0 0.83220164
Link 32 200 1002 0 0.26743946
Link 33 200 1003 0 0.32965274
Link 34 200 1004 0 0.20073630
Link 35 200 1005 0 -0.11680033
Link 36 200 1006 0 0.05256214
Link 37 200 1007 0 0.13287473
Link 38 200 1008 0 0.70774995
Link 39 200 1009 0 0.03089649
Link 40 200 1010 0 0.18909034
Link 41 200 1011 0 -0.76218443
Link 42 200 1012 0 -0.35244080
Link 43 200 1013 0 -0.21943831
Link 44 200 1014 0 -0.03325935
Link 45 200 1015 0 0.18401426
Link 46 200 1016 0 -0.07158223
Link 47 200 1017 0 0.07284430
Link 48 200 1018 0 -0.53814018
Link 49 200 1019 0 0.06282294
Link 50 200 1020 0 -0.03410366
Link 51 200 1021 0 0.81067844
Link 52 200 1022 0 0.49537460
Link 53 200 1023 0 0.13492050
Link 54 200 1024 0 -0.33052003
Link 55 200 1025 0 -0.54056875
Link 56 200 1026 0 -0.33670375
Link 57 200 1027 0 0.14103265
Link 58 200 1028 0 -0.27525118
Link 59 200 1029 0 -0.37879051
Link 60 200 1030 0 0.07639459
Link 61 200 1031 0 0.02541592
Link 62 200 1032 0 -0.08668782
Link 63 200 1033 0 0.06251763
Link 64 200 1034 0 -0.13609786
Link 65 200 1035 0 0.01089282
Link 66 200 1036 0 0.06739949
Link 67 200 1037 0 0.14175787
Link 68 200 1038 0 -0.19193173
Link 69 200 1039 0 -0.79760554
Link 70 200 1040 0 -0.51569029
Link 71 200 1041 0 0.71216863
Link 72 200 1042 0 -0.11713680
Link 73 200 1043 0 -0.21410388
Link 74 200 1044 0 -0.19859335
Link 75 200 1045 0 0.01612064
Link 76 200 1046 0 0.02723060
Link 77 200 1047 0 0.29937176
Link 78 200 1048 0 -0.02300259
Link 79 200 1049 0 0.11273574
Link 80 200 1050 0 -0.49708954
Link 81 200 1051 0 0.35423135
Link 82 200 1052 0 0.20299468
Link 83 200 1053 0 -0.41083193
Link 84 200 1054 0 0.43997690
Link 85 200 1055 0 -0.16844100
Link 86 200 1056 0 0.25735795
Link 87 200 1057 0 0.59861778
Link 88 200 1058 0 0.14685775
Link 89 200 1059 0 -0.04055384
Link 90 200 1060 0 1.09816542
Link 91 200 1061 0 -0.25959365
Link 92 200 1062 0 -0.43287779
Link 93 200 1063 0 0.27613883
Link 94 200 1064 0 0.30155442
Link 95 200 1065 0 -0.21509723
Link 96 200 1066 0 -0.17662343
Link 97 200 1067 0 -0.19659163
Link 98 200 1068 0 -0.42774504
Link 99 200 1069 0 0.78033605
Link 100 200 1070 0 -0.17452230
Link 101 200 1071 0 -0.70468618
Link 102 200 1072 0 0.36847472
Link 103 200 1073 0 0.00465685
Link 104 200 1074 0 -0.22974880
Link 105 200 1075 0 -0.14338538
Link 106 200 1076 0 0.67590178
Link 107 200 1077 0 -0.31276970
Link 108 200 1078 0 0.59257458
Link 109 200 1079 0 -0.34030480
Link 110 200 1080 0 0.10495217
Link 111 200 1081 0 0.51785846
Link 112 200 1082 0 -0.11858901
Link 113 200 1083 0 0.16742920
Link 114 200 1084 0 0.01968664
Link 115 200 1085 0 0.16113043
Link 116 200 1086 0 0.00959423
Link 117 200 1087 0 0.16221750
Link 118 200 1088 0 -0.06203152
Link 119 200 1089 0 0.71830021
Link 120 200 1090 0 0.11198447
Link 121 200 1091 0 0.24396244
Link 122 200 1092 0 0.01203273
Link 123 200 1093 0 -0.94234245
Link 124 200 1094 0 -0.26858282
Link 125 200 1095 0 0.14889766
Link 126 200 1096 0 0.17864224
Link 127 200 1097 0 0.26564540
Link 128 200 1098 0 0.02062937
Link 129 200 1099 0 -0.02127480
Link 130 200 1100 0 -1.32520821
Link 131 200 1101 0 0.04867823
Link 132 200 1102 0 0.00005550
Link 133 200 1103 0 -0.19390341
Link 134 200 1104 0 0.35147831
Link 135 200 1105 0 0.15450307
Link 136 200 1106 0 0.14110495
Link 137 200 1107 0 -0.16316769
Link 138 200 1108 0 -0.39592209
Link 139 200 1109 0 -0.37065290
Link 140 200 1110 0 0.24610553
Link 141 200 1111 0 -0.20425598
Link 142 200 1112 0 -0.24361495
Link 143 200 1113 0 0.40139658
Link 144 200 1114 0 0.46035300
Link 145 200 1115 0 -0.43031649
Link 146 200 1116 0 -0.35542533
Link 147 200 1117 0 0.83367568
Link 148 200 1118 0 0.06167940
Link 149 200 1119 0 0.10191615
Link 150 200 1120 0 0.11894471
Link 151 200 1121 0 -0.17986319
Link 152 200 1122 0 0.09764660
Link 153 200 1123 0 -0.21835750
Link 154 200 1124 0 0.26638025
Link 155 200 1125 0 -0.17100057
Link 156 200 1126 0 0.15930571
Link 157 200 1127 0 0.53018890
Link 158 200 1128 0 -0.32772730
Link 159 200 1129 0 -0.17305723
Link 160 200 1130 0 -0.27414143
Link 161 200 1131 0 0.67222413
Link 162 200 1132 0 0.34619305
Link 163 200 1133 0 0.52240353
Link 164 200 1134 0 -0.57818496
Link 165 200 1135 0 0.22155752
Link 166 200 1136 0 -0.13009247
Link 167 200 1137 0 0.20352449
Link 168 200 1138 0 -0.38118078
Link 169 200 1139 0 0.04442271
Link 170 200 1140 0 -0.65097567
Link 171 200 1141 0 0.00483011
Link 172 200 1142 0 -0.96711038
Link 173 200 1143 0 0.08410605
Link 174 200 1144 0 0.57656090
Link 175 200 1145 0 -0.09112888
Link 176 200 1146 0 0.51328622
Link 177 200 1147 0 -0.30698276
Link 178 200 1148 0 0.30245089
Link 179 200 1149 0 -0.02005654
Link 180 200 1150 0 0.00199467
Link 181 200 1151 0 -0.49700816
Link 182 200 1152 0 -0.07435197
Link 183 200 1153 0 -0.55087783
Link 184 200 1154 0 -0.16131831
Link 185 200 1155 0 0.33705128
Link 186 200 1156 0 0.87150241
Link 187 200 1157 0 0.34087208
Link 188 200 1158 0 -0.07273693
Link 189 200 1159 0 -0.12435191
Link 190 200 1160 0 -0.76318681
Link 191 200 1161 0 0.98604316
Link 192 200 1162 0 -0.24127035
Link 193 200 1163 0 -0.43867324
Link 194 200 1164 0 -0.20100044
Link 1 201 1165 0 -0.22233842
Link 2 201 1166 0 -0.28447749
Link 3 201 1167 0 0.38180006
Link 4 201 1168 0 0.72730380
Link 5 201 1169 0 0.34387015
Link 6 201 1170 0 -0.49758827
Link 7 201 1171 0 0.44009491
Link 8 201 1172 0 -0.34748009
Link 9 201 1173 0 -0.34598753
Link 10 201 1174 0 -0.15424977
Link 11 201 1175 0 -0.79130892
Link 12 201 1176 0 0.48128944
Link 13 201 1177 0 0.27702203
Link 14 201 1178 0 -0.11862803
Link 15 201 1179 0 0.02109045
Link 16 201 1180 0 0.25681528
Link 17 201 1181 0 0.37466041
Link 18 201 1182 0 -0.44152851
Link 19 201 1183 0 0.21634643
Link 20 201 1184 0 0.15214136
Link 21 201 1185 0 0.34118036
Link 22 201 1186 0 -0.20465873
Link 23 201 1187 0 0.13809977
Link 24 201 1188 0 0.28364727
Link 25 201 1189 0 0.47086158
Link 26 201 1190 0 -0.28082098
Link 27 201 1191 0 1.24781960
Link 28 201 1192 0 -0.42928535
Link 29 201 1193 0 0.39348532
Link 30 201 1194 0 0.04637652
Link 31 201 1195 0 0.03502828
Link 32 201 1196 0 0.07861294
Link 33 201 1197 0 0.62063034
Link 34 201 1198 0 -0.38538080
Link 35 201 1199 0 0.21689897
Link 36 201 1200 0 0.02801975
Link 37 201 1201 0 0.12440757
Link 38 201 1202 0 -0.27370371
Link 39 201 1203 0 0.11814245
Link 40 201 1204 0 0.02088217
Link 41 201 1205 0 -0.44037425
Link 42 201 1206 0 -0.59411460
Link 43 201 1207 0 -0.07197852
Link 44 201 1208 0 0.31493477
Link 45 201 1209 0 0.16980469
Link 46 201 1210 0 -0.28377744
Link 47 201 1211 0 -0.16425875
Link 48 201 1212 0 0.09606962
Link 49 201 1213 0 -0.45118328
Link 50 201 1214 0 0.09552214
Link 51 201 1215 0 0.17926648
Link 52 201 1216 0 0.12046468
Link 53 201 1217 0 0.07013223
Link 54 201 1218 0 0.60540831
Link 55 201 1219 0 -0.06077106
Link 56 201 1220 0 0.05897451
Link 57 201 1221 0 -0.26581351
Link 58 201 1222 0 0.25434596
Link 59 201 1223 0 -0.36341980
Link 60 201 1224 0 -0.21619475
Link 61 201 1225 0 -0.16617156
Link 62 201 1226 0 0.04558473
Link 63 201 1227 0 0.24465844
Link 64 201 1228 0 0.48967191
Link 65 201 1229 0 0.01654319
Link 66 201 1230 0 0.03273593
Link 67 201 1231 0 -0.46956845
Link 68 201 1232 0 -0.27590517
Link 69 201 1233 0 0.48919578
Link 70 201 1234 0 0.11677552
Link 71 201 1235 0 -0.16888353
Link 72 201 1236 0 0.04107365
Link 73 201 1237 0 0.54094721
Link 74 201 1238 0 0.01806721
Link 75 201 1239 0 0.59702596
Link 76 201 1240 0 0.04459590
Link 77 201 1241 0 0.56426261
Link 78 201 1242 0 -0.46848192
Link 79 201 1243 0 -0.51192480
Link 80 201 1244 0 0.46382967
Link 81 201 1245 0 -0.06917463
Link 82 201 1246 0 -0.02709335
Link 83 201 1247 0 -0.41273601
Link 84 201 1248 0 0.19309868
Link 85 201 1249 0 0.10448438
Link 86 201 1250 0 -0.22385809
Link 87 201 1251 0 0.03374598
Link 88 201 1252 0 0.18374155
Link 89 201 1253 0 -0.06274288
Link 90 201 1254 0 0.05817972
Link 91 201 1255 0 0.36825922
Link 92 201 1256 0 -0.55601136
Link 93 201 1257 0 -0.03029191
Link 94 201 1258 0 -0.32253466
Link 95 201 1259 0 -0.07247842
Link 96 201 1260 0 -0.07586964
Link 97 201 1261 0 -0.41463751
Link 98 201 1262 0 0.19098856
Link 99 201 1263 0 0.56123577
Link 100 201 1264 0 0.17104798
Link 101 201 1265 0 0.29078846
Link 102 201 1266 0 0.17072245
Link 103 201 1267 0 0.10295284
Link 104 201 1268 0 -0.17222069
Link 105 201 1269 0 0.71984322
Link 106 201 1270 0 0.73198792
Link 107 201 1271 0 -0.39668618
Link 108 201 1272 0 -0.51561021
Link 109 201 1273 0 0.13645254
Link 110 201 1274 0 0.03348758
Link 111 201 1275 0 -0.32198699
Link 112 201 1276 0 -0.55258333
Link 113 201 1277 0 -0.12625810
Link 114 201 1278 0 0.01587654
Link 115 201 1279 0 0.22303110
Link 116 201 1280 0 -0.77882403
Link 117 201 1281 0 -0.71079038
Link 118 201 1282 0 -0.87998823
Link 119 201 1283 0 -0.27697811
Link 120 201 1284 0 0.00293640
Link 121 201 1285 0 -0.07623693
Link 122 201 1286 0 -0.08830834
Link 123 201 1287 0 -0.17871147
Link 124 201 1288 0 0.01803830
Link 125 201 1289 0 0.33517964
Link 126 201 1290 0 0.15641738
Link 127 201 1291 0 -0.19327817
Link 128 201 1292 0 0.39045490
Link 129 201 1293 0 0.12736248
Link 130 201 1294 0 -0.45934019
Link 131 201 1295 0 -0.26644332
Link 132 201 1296 0 0.11088761
Link 133 201 1297 0 0.10954426
Link 134 201 1298 0 0.21135285
Link 135 201 1299 0 -0.53390273
Link 136 201 1300 0 -0.93682333
Link 137 201 1301 0 -0.65805390
Link 138 201 1302 0 -0.33631804
Link 139 201 1303 0 -0.09403539
Link 140 201 1304 0 -0.28581098
Link 141 201 1305 0 -0.23044828
Link 142 201 1306 0 0.07165671
Link 143 201 1307 0 0.10096884
Link 144 201 1308 0 0.01856755
Link 145 201 1309 0 0.39273552
Link 146 201 1310 0 0.28201621
Link 147 201 1311 0 -0.62695246
Link 148 201 1312 0 0.63213568
Link 149 201 1313 0 -0.19176053
Link 150 201 1314 0 -0.41392143
Link 151 201 1315 0 0.03775362
Link 152 201 1316 0 -0.68305789
Link 153 201 1317 0 -0.20607202
Link 154 201 1318 0 -0.20731995
Link 155 201 1319 0 0.36451573
Link 156 201 1320 0 -0.86341582
Link 157 201 1321 0 -0.37505622
Link 158 201 1322 0 -0.62667755
Link 159 201 1323 0 -0.73414150
Link 160 201 1324 0 -0.60676914
Link 161 201 1325 0 0.07324358
Link 162 201 1326 0 -0.18174489
Link 163 201 1327 0 -0.49493766
Link 164 201 1328 0 -0.22510257
Link 165 201 1329 0 -1.53331378
Link 166 201 1330 0 0.49356731
Link 167 201 1331 0 0.02341928
Link 168 201 1332 0 0.40608484
Link 169 201 1333 0 -0.78423658
Link 170 201 1334 0 -0.00392111
Link 171 201 1335 0 -0.00971318
Link 172 201 1336 0 0.17779900
Link 173 201 1337 0 0.22038706
Link 174 201 1338 0 -0.23519919
Link 175 201 1339 0 -0.07067109
Link 176 201 1340 0 -0.23525628
Link 177 201 1341 0 0.52328457
Link 178 201 1342 0 0.50368456
Link 179 201 1343 0 0.26099959
Link 180 201 1344 0 0.11284591
Link 181 201 1345 0 -0.05547204
Link 182 201 1346 0 0.42894396
Link 183 201 1347 0 0.52087035
Link 184 201 1348 0 -0.36652631
Link 185 201 1349 0 1.05725370
Link 186 201 1350 0 0.48145143
Link 187 201 1351 0 -0.28836550
Link 188 201 1352 0 -0.37998759
Link 189 201 1353 0 0.05350098
Link 190 201 1354 0 -0.34634686
Link 191 201 1355 0 0.05323091
Link 192 201 1356 0 -0.20452766
Link 193 201 1357 0 -0.12647392
Link 194 201 1358 0 -0.17612603
Link 1 202 1359 0 -0.30954677
Link 2 202 1360 0 0.29181011
Link 3 202 1361 0 -0.09052818
Link 4 202 1362 0 -0.02388069
Link 5 202 1363 0 -1.03453487
Link 6 202 1364 0 0.00421981
Link 7 202 1365 0 0.23396845
Link 8 202 1366 0 -0.34099504
Link 9 202 1367 0 0.32929271
Link 10 202 1368 0 0.13283830
Link 11 202 1369 0 -0.19389102
Link 12 202 1370 0 0.00370757
Link 13 202 1371 0 0.02633408
Link 14 202 1372 0 0.20717447
Link 15 202 1373 0 -0.23200491
Link 16 202 1374 0 -0.01889749
Link 17 202 1375 0 -0.16980099
Link 18 202 1376 0 -0.54638857
Link 19 202 1377 0 0.37894978
Link 20 202 1378 0 0.72678583
Link 21 202 1379 0 -0.31703960
Link 22 202 1380 0 -0.14288713
Link 23 202 1381 0 0.19090244
Link 24 202 1382 0 -0.24407788
Link 25 202 1383 0 -0.70677859
Link 26 202 1384 0 0.48257725
Link 27 202 1385 0 -0.36686912
Link 28 202 1386 0 0.41867672
Link 29 202 1387 0 -0.24754229
Link 30 202 1388 0 0.34620837
Link 31 202 1389 0 0.36375265
Link 32 202 1390 0 0.01158855
Link 33 202 1391 0 0.42621659
Link 34 202 1392 0 -0.14163267
Link 35 202 1393 0 -0.09333063
Link 36 202 1394 0 -0.44522514
Link 37 202 1395 0 0.24937172
Link 38 202 1396 0 -0.22648474
Link 39 202 1397 0 0.25306655
Link 40 202 1398 0 0.01850022
Link 41 202 1399 0 0.58165799
Link 42 202 1400 0 0.18909340
Link 43 202 1401 0 -0.06524368
Link 44 202 1402 0 -0.33990676
Link 45 202 1403 0 0.16895688
Link 46 202 1404 0 0.09624294
Link 47 202 1405 0 0.20124161
Link 48 202 1406 0 -0.13826916
Link 49 202 1407 0 -0.04049132
Link 50 202 1408 0 -0.26626797
Link 51 202 1409 0 -0.00903055
Link 52 202 1410 0 0.20744638
Link 53 202 1411 0 0.31819547
Link 54 202 1412 0 -0.13134299
Link 55 202 1413 0 0.17404522
Link 56 202 1414 0 -0.31815153
Link 57 202 1415 0 0.02919140
Link 58 202 1416 0 -0.07894627
Link 59 202 1417 0 0.16951472
Link 60 202 1418 0 -0.88120863
Link 61 202 1419 0 -0.26896768
Link 62 202 1420 0 -0.05576037
Link 63 202 1421 0 0.31494014
Link 64 202 1422 0 0.09090303
Link 65 202 1423 0 -0.02254975
Link 66 202 1424 0 -0.56722663
Link 67 202 1425 0 0.35079723
Link 68 202 1426 0 0.56815687
Link 69 202 1427 0 0.43943696
Link 70 202 1428 0 0.69073437
Link 71 202 1429 0 -0.47013758
Link 72 202 1430 0 -0.18408274
Link 73 202 1431 0 0.40537132
Link 74 202 1432 0 -0.03057677
Link 75 202 1433 0 -0.11624163
Link 76 202 1434 0 -0.27697741
Link 77 202 1435 0 0.20810419
Link 78 202 1436 0 -0.54329467
Link 79 202 1437 0 0.21176739
Link 80 202 1438 0 -0.22402228
Link 81 202 1439 0 -0.20453155
Link 82 202 1440 0 -0.19968123
Link 83 202 1441 0 0.40501624
Link 84 202 1442 0 -0.00634856
Link 85 202 1443 0 -0.54242388
Link 86 202 1444 0 -0.90189557
Link 87 202 1445 0 -0.56744163
Link 88 202 1446 0 -0.40360409
Link 89 202 1447 0 0.26416492
Link 90 202 1448 0 -0.75854503
Link 91 202 1449 0 0.24256105
Link 92 202 1450 0 0.28922829
Link 93 202 1451 0 -0.61001301
Link 94 202 1452 0 -0.29476544
Link 95 202 1453 0 0.12929557
Link 96 202 1454 0 0.06586273
Link 97 202 1455 0 -0.89317071
Link 98 202 1456 0 -0.04647358
Link 99 202 1457 0 0.08900223
Link 100 202 1458 0 -0.35669870
Link 101 202 1459 0 0.10567247
Link 102 202 1460 0 -0.56077292
Link 103 202 1461 0 0.03096498
Link 104 202 1462 0 -0.28185675
Link 105 202 1463 0 0.53026033
Link 106 202 1464 0 -0.03679162
Link 107 202 1465 0 -0.47132831
Link 108 202 1466 0 -0.10046419
Link 109 202 1467 0 0.36451321
Link 110 202 1468 0 -0.59540610
Link 111 202 1469 0 -0.17792454
Link 112 202 1470 0 0.23187516
Link 113 202 1471 0 0.10650056
Link 114 202 1472 0 0.17786142
Link 115 202 1473 0 0.46333819
Link 116 202 1474 0 0.04504536
Link 117 202 1475 0 -0.18998111
Link 118 202 1476 0 0.13937993
Link 119 202 1477 0 -0.28813530
Link 120 202 1478 0 -0.47635831
Link 121 202 1479 0 -0.25320186
Link 122 202 1480 0 -0.21866517
Link 123 202 1481 0 -0.23234205
Link 124 202 1482 0 0.48885229
Link 125 202 1483 0 0.26578918
Link 126 202 1484 0 -0.14722721
Link 127 202 1485 0 0.11977585
Link 128 202 1486 0 0.08964805
Link 129 202 1487 0 -0.40199510
Link 130 202 1488 0 -0.47643648
Link 131 202 1489 0 0.14078540
Link 132 202 1490 0 -1.11760565
Link 133 202 1491 0 0.10473198
Link 134 202 1492 0 -0.27371375
Link 135 202 1493 0 -0.80851618
Link 136 202 1494 0 -0.13325852
Link 137 202 1495 0 0.20607879
Link 138 202 1496 0 -0.27264755
Link 139 202 1497 0 -0.01442936
Link 140 202 1498 0 -0.56682150
Link 141 202 1499 0 -0.33546372
Link 142 202 1500 0 -0.03025663
Link 143 202 1501 0 0.15837705
Link 144 202 1502 0 -0.24326304
Link 145 202 1503 0 -0.74078133
Link 146 202 1504 0 0.07158631
Link 147 202 1505 0 -0.29831817
Link 148 202 1506 0 -0.75657837
Link 149 202 1507 0 -0.86032359
Link 150 202 1508 0 0.06867913
Link 151 202 1509 0 0.38421032
Link 152 202 1510 0 0.04732472
Link 153 202 1511 0 -0.46960453
Link 154 202 1512 0 -0.22804155
Link 155 202 1513 0 0.22627813
Link 156 202 1514 0 0.06943410
Link 157 202 1515 0 0.13767722
Link 158 202 1516 0 -0.00278704
Link 159 202 1517 0 0.45691881
Link 160 202 1518 0 -0.09480184
Link 161 202 1519 0 -0.50814688
Link 162 202 1520 0 -0.22166772
Link 163 202 1521 0 0.25164834
Link 164 202 1522 0 0.07330765
Link 165 202 1523 0 0.02591131
Link 166 202 1524 0 -0.04389186
Link 167 202 1525 0 0.52995827
Link 168 202 1526 0 -0.08761169
Link 169 202 1527 0 0.53386643
Link 170 202 1528 0 0.17180044
Link 171 202 1529 0 -0.21691592
Link 172 202 1530 0 -0.23642643
Link 173 202 1531 0 -0.03560060
Link 174 202 1532 0 -0.45684044
Link 175 202 1533 0 -0.17022522
Link 176 202 1534 0 0.24693556
Link 177 202 1535 0 -0.02942429
Link 178 202 1536 0 -0.16839266
Link 179 202 1537 0 1.14183285
Link 180 202 1538 0 -0.73743879
Link 181 202 1539 0 -0.48273996
Link 182 202 1540 0 0.00667074
Link 183 202 1541 0 -0.54108747
Link 184 202 1542 0 0.72828585
Link 185 202 1543 0 -0.28247493
Link 186 202 1544 0 -0.38101688
Link 187 202 1545 0 0.04995044
Link 188 202 1546 0 -0.22305659
Link 189 202 1547 0 -0.33932696
Link 190 202 1548 0 -0.30833687
Link 191 202 1549 0 -0.32611749
Link 192 202 1550 0 -0.35023916
Link 193 202 1551 0 -0.05221553
Link 194 202 1552 0 0.02916377
Link 1 203 1553 0 -0.05780638
Link 2 203 1554 0 -0.02488854
Link 3 203 1555 0 0.03686377
Link 4 203 1556 0 0.16558942
Link 5 203 1557 0 0.02611985
Link 6 203 1558 0 0.51922632
Link 7 203 1559 0 0.10245839
Link 8 203 1560 0 0.09243426
Link 9 203 1561 0 -0.37042171
Link 10 203 1562 0 0.32179946
Link 11 203 1563 0 0.00399800
Link 12 203 1564 0 -0.13110678
Link 13 203 1565 0 0.58986168
Link 14 203 1566 0 -0.39176684
Link 15 203 1567 0 -0.41077870
Link 16 203 1568 0 -0.32321918
Link 17 203 1569 0 0.01685836
Link 18 203 1570 0 0.54399690
Link 19 203 1571 0 -0.47675531
Link 20 203 1572 0 0.05988742
Link 21 203 1573 0 0.10710093
Link 22 203 1574 0 0.52342694
Link 23 203 1575 0 -0.32830531
Link 24 203 1576 0 0.02974290
Link 25 203 1577 0 0.15046555
Link 26 203 1578 0 -0.21652293
Link 27 203 1579 0 -0.62873512
Link 28 203 1580 0 -0.91878753
Link 29 203 1581 0 0.04366610
Link 30 203 1582 0 0.40184599
Link 31 203 1583 0 -0.04503871
Link 32 203 1584 0 0.70451161
Link 33 203 1585 0 0.64144387
Link 34 203 1586 0 -0.20067322
Link 35 203 1587 0 0.76845385
Link 36 203 1588 0 0.44161114
Link 37 203 1589 0 0.54252453
Link 38 203 1590 0 -0.01389779
Link 39 203 1591 0 0.29176698
Link 40 203 1592 0 -0.56727342
Link 41 203 1593 0 0.09818494
Link 42 203 1594 0 0.24378648
Link 43 203 1595 0 0.06354064
Link 44 203 1596 0 -0.35800380
Link 45 203 1597 0 0.14385307
Link 46 203 1598 0 -0.20015612
Link 47 203 1599 0 -0.88290627
Link 48 203 1600 0 0.44938424
Link 49 203 1601 0 -0.04586484
Link 50 203 1602 0 0.17212593
Link 51 203 1603 0 0.20303777
Link 52 203 1604 0 -0.11287921
Link 53 203 1605 0 0.66467853
Link 54 203 1606 0 -0.64582986
Link 55 203 1607 0 0.08817088
Link 56 203 1608 0 0.19926575
Link 57 203 1609 0 -0.15233278
Link 58 203 1610 0 -0.35240260
Link 59 203 1611 0 0.09278455
Link 60 203 1612 0 -0.22016043
Link 61 203 1613 0 0.55590025
Link 62 203 1614 0 0.08080230
Link 63 203 1615 0 0.05513616
Link 64 203 1616 0 -0.30195535
Link 65 203 1617 0 0.23759042
Link 66 203 1618 0 0.04080271
Link 67 203 1619 0 -0.22429678
Link 68 203 1620 0 -0.14330265
Link 69 203 1621 0 -0.48868470
Link 70 203 1622 0 -0.33988265
Link 71 203 1623 0 0.12339457
Link 72 203 1624 0 0.13891126
Link 73 203 1625 0 0.40081830
Link 74 203 1626 0 -0.14819365
Link 75 203 1627 0 -0.24923854
Link 76 203 1628 0 0.04171303
Link 77 203 1629 0 -0.03893511
Link 78 203 1630 0 -0.24453273
Link 79 203 1631 0 -0.16402373
Link 80 203 1632 0 -1.27397876
Link 81 203 1633 0 0.22793682
Link 82 203 1634 0 -0.23198657
Link 83 203 1635 0 -0.13355849
Link 84 203 1636 0 0.59275010
Link 85 203 1637 0 0.08808369
Link 86 203 1638 0 -0.20059610
Link 87 203 1639 0 0.01065374
Link 88 203 1640 0 -0.38361726
Link 89 203 1641 0 -0.04750209
Link 90 203 1642 0 0.41218689
Link 91 203 1643 0 0.64396799
Link 92 203 1644 0 -0.13317375
Link 93 203 1645 0 -0.78668701
Link 94 203 1646 0 0.32469605
Link 95 203 1647 0 0.31795394
Link 96 203 1648 0 0.05355098
Link 97 203 1649 0 -0.40924194
Link 98 203 1650 0 -0.26433000
Link 99 203 1651 0 -0.37143788
Link 100 203 1652 0 -0.08561204
Link 101 203 1653 0 0.23020683
Link 102 203 1654 0 -0.16967693
Link 103 203 1655 0 0.14301855
Link 104 203 1656 0 0.75060759
Link 105 203 1657 0 0.09002840
Link 106 203 1658 0 -0.08116513
Link 107 203 1659 0 -0.33786355
Link 108 203 1660 0 -0.34855913
Link 109 203 1661 0 0.16400824
Link 110 203 1662 0 -0.03123218
Link 111 203 1663 0 -0.25086944
Link 112 203 1664 0 -0.35448116
Link 113 203 1665 0 0.84424381
Link 114 203 1666 0 0.41086003
Link 115 203 1667 0 -0.65282995
Link 116 203 1668 0 -0.23768130
Link 117 203 1669 0 0.72488342
Link 118 203 1670 0 0.27555715
Link 119 203 1671 0 -0.35413424
Link 120 203 1672 0 0.30066649
Link 121 203 1673 0 0.46804680
Link 122 203 1674 0 0.11027321
Link 123 203 1675 0 0.35879597
Link 124 203 1676 0 0.29791034
Link 125 203 1677 0 0.38208270
Link 126 203 1678 0 -0.64278646
Link 127 203 1679 0 0.17768619
Link 128 203 1680 0 -0.17858643
Link 129 203 1681 0 0.58282892
Link 130 203 1682 0 0.00567212
Link 131 203 1683 0 0.19200817
Link 132 203 1684 0 -0.83935065
Link 133 203 1685 0 -0.04725203
Link 134 203 1686 0 -0.29043529
Link 135 203 1687 0 -0.37704005
Link 136 203 1688 0 -0.38027103
Link 137 203 1689 0 -0.19434148
Link 138 203 1690 0 -0.57799791
Link 139 203 1691 0 -0.40213947
Link 140 203 1692 0 -0.00181111
Link 141 203 1693 0 0.17405895
Link 142 203 1694 0 0.36883508
Link 143 203 1695 0 0.33443667
Link 144 203 1696 0 0.57522379
Link 145 203 1697 0 -0.01257588
Link 146 203 1698 0 0.14470736
Link 147 203 1699 0 -0.21175304
Link 148 203 1700 0 0.01449738
Link 149 203 1701 0 -0.48331614
Link 150 203 1702 0 -0.09870345
Link 151 203 1703 0 0.39209044
Link 152 203 1704 0 0.28804493
Link 153 203 1705 0 -0.04509511
Link 154 203 1706 0 0.32392590
Link 155 203 1707 0 -0.44877433
Link 156 203 1708 0 0.13216905
Link 157 203 1709 0 0.39771737
Link 158 203 1710 0 -0.68891353
Link 159 203 1711 0 -0.01835693
Link 160 203 1712 0 0.35114796
Link 161 203 1713 0 0.29898781
Link 162 203 1714 0 0.18031876
Link 163 203 1715 0 -0.29890434
Link 164 203 1716 0 1.01525456
Link 165 203 1717 0 0.24164253
Link 166 203 1718 0 0.17725224
Link 167 203 1719 0 -0.06473475
Link 168 203 1720 0 0.20724723
Link 169 203 1721 0 0.15018470
Link 170 203 1722 0 0.15770885
Link 171 203 1723 0 -0.19094785
Link 172 203 1724 0 0.39280569
Link 173 203 1725 0 -0.07508927
Link 174 203 1726 0 -0.51417232
Link 175 203 1727 0 0.89181606
Link 176 203 1728 0 0.15163417
Link 177 203 1729 0 -0.14533974
Link 178 203 1730 0 -0.03495321
Link 179 203 1731 0 0.12273233
Link 180 203 1732 0 -0.01530065
Link 181 203 1733 0 0.44432242
Link 182 203 1734 0 0.05159260
Link 183 203 1735 0 -0.13688878
Link 184 203 1736 0 -0.24683057
Link 185 203 1737 0 -0.02400862
Link 186 203 1738 0 0.25549649
Link 187 203 1739 0 0.34233211
Link 188 203 1740 0 0.86025948
Link 189 203 1741 0 0.06417929
Link 190 203 1742 0 0.36570412
Link 191 203 1743 0 0.42434148
Link 192 203 1744 0 -0.56789589
Link 193 203 1745 0 0.10941158
Link 194 203 1746 0 0.12704762
Link 1 204 1747 0 -0.43422223
Link 2 204 1748 0 -0.57765079
Link 3 204 1749 0 -0.10863793
Link 4 204 1750 0 -1.21125367
Link 5 204 1751 0 -0.46134544
Link 6 204 1752 0 0.39072535
Link 7 204 1753 0 -0.13198354
Link 8 204 1754 0 -0.18729128
Link 9 204 1755 0 -0.04367402
Link 10 204 1756 0 0.28302838
Link 11 204 1757 0 0.38078435
Link 12 204 1758 0 -0.48599849
Link 13 204 1759 0 -0.10035752
Link 14 204 1760 0 -0.10808668
Link 15 204 1761 0 -0.87760117
Link 16 204 1762 0 -0.39008898
Link 17 204 1763 0 -0.16066895
Link 18 204 1764 0 -0.16417673
Link 19 204 1765 0 -0.72515777
Link 20 204 1766 0 -0.24481320
Link 21 204 1767 0 -0.01733656
Link 22 204 1768 0 0.12542311
Link 23 204 1769 0 -0.49141135
Link 24 204 1770 0 -0.30370610
Link 25 204 1771 0 0.48133829
Link 26 204 1772 0 0.08542502
Link 27 204 1773 0 -0.12385841
Link 28 204 1774 0 0.75078553
Link 29 204 1775 0 0.39980413
Link 30 204 1776 0 -0.14376274
Link 31 204 1777 0 0.45085018
Link 32 204 1778 0 -0.12550137
Link 33 204 1779 0 0.45158394
Link 34 204 1780 0 -0.21248719
Link 35 204 1781 0 -0.53932716
Link 36 204 1782 0 0.61275860
Link 37 204 1783 0 0.27538002
Link 38 204 1784 0 0.02295493
Link 39 204 1785 0 0.15946734
Link 40 204 1786 0 -0.62958569
Link 41 204 1787 0 -0.34557831
Link 42 204 1788 0 -0.23162629
Link 43 204 1789 0 0.23116577
Link 44 204 1790 0 -0.39132184
Link 45 204 1791 0 -0.14106324
Link 46 204 1792 0 -0.13040683
Link 47 204 1793 0 0.18062205
Link 48 204 1794 0 0.10078568
Link 49 204 1795 0 -0.20767257
Link 50 204 1796 0 -0.74913017
Link 51 204 1797 0 0.35972024
Link 52 204 1798 0 0.64222808
Link 53 204 1799 0 0.61333907
Link 54 204 1800 0 0.23921909
Link 55 204 1801 0 -0.06085723
Link 56 204 1802 0 0.29874516
Link 57 204 1803 0 -0.13284450
Link 58 204 1804 0 -0.62595828
Link 59 204 1805 0 0.15080538
Link 60 204 1806 0 -0.86805691
Link 61 204 1807 0 0.06486598
Link 62 204 1808 0 0.32499278
Link 63 204 1809 0 -0.07588562
Link 64 204 1810 0 0.03957817
Link 65 204 1811 0 0.18088339
Link 66 204 1812 0 0.06977586
Link 67 204 1813 0 -0.10792464
Link 68 204 1814 0 0.46163341
Link 69 204 1815 0 -0.43466372
Link 70 204 1816 0 -0.07583920
Link 71 204 1817 0 -0.01011493
Link 72 204 1818 0 -0.35031574
Link 73 204 1819 0 -0.48058151
Link 74 204 1820 0 -0.01133317
Link 75 204 1821 0 0.69108106
Link 76 204 1822 0 0.03984524
Link 77 204 1823 0 0.22245600
Link 78 204 1824 0 0.13927912
Link 79 204 1825 0 0.34908317
Link 80 204 1826 0 -0.38888310
Link 81 204 1827 0 0.37509954
Link 82 204 1828 0 0.09527416
Link 83 204 1829 0 -0.00723653
Link 84 204 1830 0 0.79196423
Link 85 204 1831 0 -0.44019830
Link 86 204 1832 0 0.26211864
Link 87 204 1833 0 0.31898284
Link 88 204 1834 0 -0.92766060
Link 89 204 1835 0 0.01854197
Link 90 204 1836 0 0.15632187
Link 91 204 1837 0 0.22358795
Link 92 204 1838 0 -0.63079658
Link 93 204 1839 0 -0.23855959
Link 94 204 1840 0 0.14409380
Link 95 204 1841 0 -0.14881928
Link 96 204 1842 0 -0.44431213
Link 97 204 1843 0 -0.07209045
Link 98 204 1844 0 0.14881075
Link 99 204 1845 0 0.34251249
Link 100 204 1846 0 0.02052871
Link 101 204 1847 0 0.30526460
Link 102 204 1848 0 -0.00155529
Link 103 204 1849 0 0.05363605
Link 104 204 1850 0 -0.23117603
Link 105 204 1851 0 0.00095100
Link 106 204 1852 0 0.19472435
Link 107 204 1853 0 -0.07967637
Link 108 204 1854 0 0.51225007
Link 109 204 1855 0 0.03319913
Link 110 204 1856 0 0.03841227
Link 111 204 1857 0 -0.03969310
Link 112 204 1858 0 0.35018020
Link 113 204 1859 0 -0.22350608
Link 114 204 1860 0 0.31898962
Link 115 204 1861 0 -0.70827136
Link 116 204 1862 0 -0.22360818
Link 117 204 1863 0 0.31790868
Link 118 204 1864 0 0.19628462
Link 119 204 1865 0 -0.57703985
Link 120 204 1866 0 -0.73169043
Link 121 204 1867 0 -0.22989586
Link 122 204 1868 0 -0.10700811
Link 123 204 1869 0 -0.15617856
Link 124 204 1870 0 0.04474332
Link 125 204 1871 0 0.08587017
Link 126 204 1872 0 0.08818650
Link 127 204 1873 0 -0.24102491
Link 128 204 1874 0 -0.18262521
Link 129 204 1875 0 0.35989558
Link 130 204 1876 0 0.30994941
Link 131 204 1877 0 0.22869786
Link 132 204 1878 0 -0.07575871
Link 133 204 1879 0 -0.46362717
Link 134 204 1880 0 0.55925602
Link 135 204 1881 0 0.23595740
Link 136 204 1882 0 0.72013710
Link 137 204 1883 0 -0.52356436
Link 138 204 1884 0 -0.25669212
Link 139 204 1885 0 -0.83254002
Link 140 204 1886 0 -0.33383546
Link 141 204 1887 0 -0.01270090
Link 142 204 1888 0 -0.42989718
Link 143 204 1889 0 0.34898540
Link 144 204 1890 0 0.14966178
Link 145 204 1891 0 -0.18026527
Link 146 204 1892 0 -0.01202155
Link 147 204 1893 0 0.12819267
Link 148 204 1894 0 0.11864355
Link 149 204 1895 0 0.16516393
Link 150 204 1896 0 -0.56403417
Link 151 204 1897 0 -0.32799496
Link 152 204 1898 0 0.22499031
Link 153 204 1899 0 -0.32965682
Link 154 204 1900 0 1.07862975
Link 155 204 1901 0 0.57872986
Link 156 204 1902 0 -0.05859042
Link 157 204 1903 0 0.12755054
Link 158 204 1904 0 -0.17633029
Link 159 204 1905 0 -0.06719928
Link 160 204 1906 0 -0.09462614
Link 161 204 1907 0 -0.18717505
Link 162 204 1908 0 -0.04682134
Link 163 204 1909 0 -0.43254458
Link 164 204 1910 0 -0.34760031
Link 165 204 1911 0 -0.32169750
Link 166 204 1912 0 0.67015437
Link 167 204 1913 0 0.07836521
Link 168 204 1914 0 0.20838247
Link 169 204 1915 0 0.28926541
Link 170 204 1916 0 -1.08197374
Link 171 204 1917 0 -0.31709753
Link 172 204 1918 0 -0.57725736
Link 173 204 1919 0 0.18108115
Link 174 204 1920 0 -0.35591731
Link 175 204 1921 0 -0.08751177
Link 176 204 1922 0 -0.02222263
Link 177 204 1923 0 0.07910028
Link 178 204 1924 0 -0.15968877
Link 179 204 1925 0 -0.67187053
Link 180 204 1926 0 -0.29327110
Link 181 204 1927 0 -0.12800280
Link 182 204 1928 0 -0.25419677
Link 183 204 1929 0 0.47993008
Link 184 204 1930 0 -0.05180332
Link 185 204 1931 0 0.15590806
Link 186 204 1932 0 0.12260251
Link 187 204 1933 0 0.09926461
Link 188 204 1934 0 -0.34739540
Link 189 204 1935 0 0.29283680
Link 190 204 1936 0 -0.45664409
Link 191 204 1937 0 -0.44807004
Link 192 204 1938 0 -0.15960822
Link 193 204 1939 0 -0.30672560
Link 194 204 1940 0 -0.12631154
Link 1 205 1941 0 -0.15732924
Link 2 205 1942 0 -0.69785987
Link 3 205 1943 0 0.04183517
Link 4 205 1944 0 0.51756497
Link 5 205 1945 0 -0.05178748
Link 6 205 1946 0 -0.29995153
Link 7 205 1947 0 -0.01805782
Link 8 205 1948 0 -0.33064296
Link 9 205 1949 0 -0.11071564
Link 10 205 1950 0 0.23680869
Link 11 205 1951 0 -0.15359606
Link 12 205 1952 0 0.07319273
Link 13 205 1953 0 0.07325661
Link 14 205 1954 0 0.33647591
Link 15 205 1955 0 -0.19423422
Link 16 205 1956 0 0.23039035
Link 17 205 1957 0 0.04203454
Link 18 205 1958 0 -0.62772534
Link 19 205 1959 0 0.45648155
Link 20 205 1960 0 -0.45216122
Link 21 205 1961 0 0.19660532
Link 22 205 1962 0 -0.02820739
Link 23 205 1963 0 -0.37528404
Link 24 205 1964 0 0.06690209
Link 25 205 1965 0 -0.10531434
Link 26 205 1966 0 0.42066462
Link 27 205 1967 0 -0.23697689
Link 28 205 1968 0 -0.11908846
Link 29 205 1969 0 0.43578262
Link 30 205 1970 0 0.18111039
Link 31 205 1971 0 0.38954489
Link 32 205 1972 0 -0.28106480
Link 33 205 1973 0 0.03920421
Link 34 205 1974 0 0.58108771
Link 35 205 1975 0 -0.43933255
Link 36 205 1976 0 -0.38440860
Link 37 205 1977 0 -0.05089982
Link 38 205 1978 0 -0.24187020
Link 39 205 1979 0 -0.59148497
Link 40 205 1980 0 -0.00384079
Link 41 205 1981 0 -0.86629137
Link 42 205 1982 0 0.30167578
Link 43 205 1983 0 -0.07976933
Link 44 205 1984 0 -0.45751526
Link 45 205 1985 0 -0.09751815
Link 46 205 1986 0 0.34574015
Link 47 205 1987 0 0.01911659
Link 48 205 1988 0 0.27037853
Link 49 205 1989 0 0.10946058
Link 50 205 1990 0 0.23151720
Link 51 205 1991 0 -0.86793086
Link 52 205 1992 0 0.57886335
Link 53 205 1993 0 -0.38163403
Link 54 205 1994 0 0.19191367
Link 55 205 1995 0 -0.11673382
Link 56 205 1996 0 -0.41016552
Link 57 205 1997 0 0.16275340
Link 58 205 1998 0 0.12963257
Link 59 205 1999 0 -0.13203259
Link 60 205 2000 0 0.00244927
Link 61 205 2001 0 -0.33204029
Link 62 205 2002 0 0.43309522
Link 63 205 2003 0 -0.35506333
Link 64 205 2004 0 0.26020108
Link 65 205 2005 0 0.05345215
Link 66 205 2006 0 -0.08593854
Link 67 205 2007 0 -0.19449239
Link 68 205 2008 0 -0.64139954
Link 69 205 2009 0 0.20438274
Link 70 205 2010 0 0.16952114
Link 71 205 2011 0 -0.05907814
Link 72 205 2012 0 -0.03499141
Link 73 205 2013 0 0.18440985
Link 74 205 2014 0 -0.33520068
Link 75 205 2015 0 -0.11009448
Link 76 205 2016 0 0.01971416
Link 77 205 2017 0 0.30968769
Link 78 205 2018 0 0.57062224
Link 79 205 2019 0 0.68784954
Link 80 205 2020 0 0.08825639
Link 81 205 2021 0 0.22269516
Link 82 205 2022 0 0.64628387
Link 83 205 2023 0 0.22841510
Link 84 205 2024 0 0.07226256
Link 85 205 2025 0 0.25243808
Link 86 205 2026 0 -0.49946875
Link 87 205 2027 0 -0.06952749
Link 88 205 2028 0 -0.06715305
Link 89 205 2029 0 -0.85485888
Link 90 205 2030 0 -0.37272255
Link 91 205 2031 0 0.05837515
Link 92 205 2032 0 0.05048963
Link 93 205 2033 0 -0.08428036
Link 94 205 2034 0 -0.05591400
Link 95 205 2035 0 -0.04639879
Link 96 205 2036 0 -0.52322281
Link 97 205 2037 0 0.03207054
Link 98 205 2038 0 -0.42194300
Link 99 205 2039 0 0.50996427
Link 100 205 2040 0 -0.20822744
Link 101 205 2041 0 -0.13608237
Link 102 205 2042 0 -0.55629957
Link 103 205 2043 0 0.16902065
Link 104 205 2044 0 0.16891240
Link 105 205 2045 0 0.15812289
Link 106 205 2046 0 -0.13578721
Link 107 205 2047 0 0.71957610
Link 108 205 2048 0 -0.60241258
Link 109 205 2049 0 0.08942488
Link 110 205 2050 0 -0.22763034
Link 111 205 2051 0 -0.72835915
Link 112 205 2052 0 -0.44575665
Link 113 205 2053 0 -0.65853691
Link 114 205 2054 0 -0.02919532
Link 115 205 2055 0 -0.12884666
Link 116 205 2056 0 0.31050134
Link 117 205 2057 0 -0.14477689
Link 118 205 2058 0 0.12278251
Link 119 205 2059 0 -0.01209701
Link 120 205 2060 0 -0.37374701
Link 121 205 2061 0 -0.61369180
Link 122 205 2062 0 -0.12275566
Link 123 205 2063 0 0.02792235
Link 124 205 2064 0 0.97825935
Link 125 205 2065 0 0.44545541
Link 126 205 2066 0 -0.06582023
Link 127 205 2067 0 -0.09929604
Link 128 205 2068 0 0.15359147
Link 129 205 2069 0 0.41884406
Link 130 205 2070 0 -0.22258571
Link 131 205 2071 0 -0.31498205
Link 132 205 2072 0 0.02455568
Link 133 205 2073 0 0.49150098
Link 134 205 2074 0 0.78379093
Link 135 205 2075 0 -0.33231480
Link 136 205 2076 0 -0.54143473
Link 137 205 2077 0 -0.03188616
Link 138 205 2078 0 -0.03411471
Link 139 205 2079 0 -0.32742728
Link 140 205 2080 0 -0.18620351
Link 141 205 2081 0 0.15754537
Link 142 205 2082 0 -0.93580426
Link 143 205 2083 0 0.05725902
Link 144 205 2084 0 0.24085937
Link 145 205 2085 0 -0.49164905
Link 146 205 2086 0 0.23122934
Link 147 205 2087 0 0.44342540
Link 148 205 2088 0 -0.36254826
Link 149 205 2089 0 -0.34338790
Link 150 205 2090 0 -0.44092469
Link 151 205 2091 0 -0.01555549
Link 152 205 2092 0 0.31429343
Link 153 205 2093 0 -0.15746656
Link 154 205 2094 0 -0.25869722
Link 155 205 2095 0 -0.94246418
Link 156 205 2096 0 -0.94683142
Link 157 205 2097 0 0.30866751
Link 158 205 2098 0 0.47246551
Link 159 205 2099 0 -0.45464571
Link 160 205 2100 0 0.58138125
Link 161 205 2101 0 -0.07293534
Link 162 205 2102 0 -0.29162268
Link 163 205 2103 0 -0.33153108
Link 164 205 2104 0 0.12535415
Link 165 205 2105 0 -0.03222659
Link 166 205 2106 0 -0.42455121
Link 167 205 2107 0 -0.20267544
Link 168 205 2108 0 -0.60065319
Link 169 205 2109 0 0.46551040
Link 170 205 2110 0 0.16253181
Link 171 205 2111 0 -0.09905477
Link 172 205 2112 0 -0.27002615
Link 173 205 2113 0 -0.27290200
Link 174 205 2114 0 -0.24105560
Link 175 205 2115 0 0.22755786
Link 176 205 2116 0 -0.13953327
Link 177 205 2117 0 0.19993677
Link 178 205 2118 0 -0.63308944
Link 179 205 2119 0 0.19541662
Link 180 205 2120 0 -0.70583679
Link 181 205 2121 0 0.36516683
Link 182 205 2122 0 0.23870422
Link 183 205 2123 0 0.12050185
Link 184 205 2124 0 0.02873596
Link 185 205 2125 0 -0.03778368
Link 186 205 2126 0 0.34524928
Link 187 205 2127 0 -0.22410809
Link 188 205 2128 0 0.33768350
Link 189 205 2129 0 0.01443592
Link 190 205 2130 0 -0.11135185
Link 191 205 2131 0 -0.39496031
Link 192 205 2132 0 -0.42476968
Link 193 205 2133 0 0.21441151
Link 194 205 2134 0 -0.31648287
Link 1 206 2135 0 0.19315747
Link 2 206 2136 0 0.27075279
Link 3 206 2137 0 -0.55710282
Link 4 206 2138 0 -0.09808329
Link 5 206 2139 0 -0.31287757
Link 6 206 2140 0 0.22412716
Link 7 206 2141 0 -0.06750633
Link 8 206 2142 0 -0.09099658
Link 9 206 2143 0 -0.06160221
Link 10 206 2144 0 -0.22566557
Link 11 206 2145 0 0.13061129
Link 12 206 2146 0 -0.14185497
Link 13 206 2147 0 0.02288006
Link 14 206 2148 0 0.20970907
Link 15 206 2149 0 0.40752092
Link 16 206 2150 0 0.12893929
Link 17 206 2151 0 0.27263816
Link 18 206 2152 0 0.68013438
Link 19 206 2153 0 0.35767174
Link 20 206 2154 0 0.43849126
Link 21 206 2155 0 -0.00994015
Link 22 206 2156 0 0.41445466
Link 23 206 2157 0 0.46702907
Link 24 206 2158 0 -0.41977774
Link 25 206 2159 0 0.16693954
Link 26 206 2160 0 0.24204995
Link 27 206 2161 0 0.20672521
Link 28 206 2162 0 0.40531598
Link 29 206 2163 0 0.30200895
Link 30 206 2164 0 0.20895207
Link 31 206 2165 0 0.13240051
Link 32 206 2166 0 0.11668540
Link 33 206 2167 0 0.45051727
Link 34 206 2168 0 1.06762380
Link 35 206 2169 0 -0.19522934
Link 36 206 2170 0 -0.25270899
Link 37 206 2171 0 -0.16981490
Link 38 206 2172 0 0.52916322
Link 39 206 2173 0 -0.08153285
Link 40 206 2174 0 -0.19669849
Link 41 206 2175 0 -0.17948456
Link 42 206 2176 0 -0.53100979
Link 43 206 2177 0 -0.11847338
Link 44 206 2178 0 -0.14851057
Link 45 206 2179 0 0.40374437
Link 46 206 2180 0 0.31175134
Link 47 206 2181 0 -0.45081058
Link 48 206 2182 0 -0.52082570
Link 49 206 2183 0 -0.18164162
Link 50 206 2184 0 0.06591829
Link 51 206 2185 0 -0.35552155
Link 52 206 2186 0 0.43936798
Link 53 206 2187 0 0.12028476
Link 54 206 2188 0 -0.12686176
Link 55 206 2189 0 0.20058148
Link 56 206 2190 0 0.68677740
Link 57 206 2191 0 0.00906370
Link 58 206 2192 0 0.19712218
Link 59 206 2193 0 0.45446561
Link 60 206 2194 0 -0.10259520
Link 61 206 2195 0 -0.18067366
Link 62 206 2196 0 -0.06708533
Link 63 206 2197 0 -0.21812092
Link 64 206 2198 0 -0.00492498
Link 65 206 2199 0 -0.09282544
Link 66 206 2200 0 0.00362536
Link 67 206 2201 0 -0.62048716
Link 68 206 2202 0 -0.21475586
Link 69 206 2203 0 -0.06597485
Link 70 206 2204 0 -0.09598894
Link 71 206 2205 0 -0.61589722
Link 72 206 2206 0 0.32577855
Link 73 206 2207 0 -0.26247869
Link 74 206 2208 0 0.37222208
Link 75 206 2209 0 0.02521457
Link 76 206 2210 0 -0.59388878
Link 77 206 2211 0 -0.22445771
Link 78 206 2212 0 -0.27499738
Link 79 206 2213 0 -0.54154978
Link 80 206 2214 0 -0.76981225
Link 81 206 2215 0 0.02293202
Link 82 206 2216 0 -0.46868218
Link 83 206 2217 0 0.16128140
Link 84 206 2218 0 0.40347640
Link 85 206 2219 0 0.07479684
Link 86 206 2220 0 -0.12474666
Link 87 206 2221 0 -0.05815193
Link 88 206 2222 0 0.74606350
Link 89 206 2223 0 -0.03445514
Link 90 206 2224 0 -0.40619309
Link 91 206 2225 0 -0.03383559
Link 92 206 2226 0 -0.30697956
Link 93 206 2227 0 0.02297610
Link 94 206 2228 0 -0.08153481
Link 95 206 2229 0 -0.74367574
Link 96 206 2230 0 -0.06918455
Link 97 206 2231 0 -0.63120323
Link 98 206 2232 0 0.47947545
Link 99 206 2233 0 0.16768843
Link 100 206 2234 0 0.26232533
Link 101 206 2235 0 0.20087123
Link 102 206 2236 0 -0.40442742
Link 103 206 2237 0 1.03309493
Link 104 206 2238 0 -0.32617041
Link 105 206 2239 0 -0.14073461
Link 106 206 2240 0 0.39323232
Link 107 206 2241 0 -0.08924378
Link 108 206 2242 0 -0.08080959
Link 109 206 2243 0 0.34429390
Link 110 206 2244 0 -0.36756671
Link 111 206 2245 0 -0.35902823
Link 112 206 2246 0 -0.31714603
Link 113 206 2247 0 0.19987011
Link 114 206 2248 0 -0.10494453
Link 115 206 2249 0 0.11400132
Link 116 206 2250 0 -0.17231565
Link 117 206 2251 0 -1.16637184
Link 118 206 2252 0 0.49084919
Link 119 206 2253 0 0.53277486
Link 120 206 2254 0 -0.24943205
Link 121 206 2255 0 0.56389281
Link 122 206 2256 0 -0.20040298
Link 123 206 2257 0 0.60153430
Link 124 206 2258 0 -0.35187170
Link 125 206 2259 0 -0.17211616
Link 126 206 2260 0 -0.43139120
Link 127 206 2261 0 0.27296622
Link 128 206 2262 0 0.16266581
Link 129 206 2263 0 -0.29028308
Link 130 206 2264 0 -0.17852837
Link 131 206 2265 0 0.73974011
Link 132 206 2266 0 -0.36319476
Link 133 206 2267 0 0.23395393
Link 134 206 2268 0 0.54988325
Link 135 206 2269 0 0.89604488
Link 136 206 2270 0 0.45018634
Link 137 206 2271 0 0.37975436
Link 138 206 2272 0 -0.53522535
Link 139 206 2273 0 0.91737536
Link 140 206 2274 0 -0.82932861
Link 141 206 2275 0 0.09259157
Link 142 206 2276 0 0.82888099
Link 143 206 2277 0 0.55622281
Link 144 206 2278 0 -0.14996507
Link 145 206 2279 0 -0.68425521
Link 146 206 2280 0 0.07207568
Link 147 206 2281 0 -0.01040090
Link 148 206 2282 0 -0.26994850
Link 149 206 2283 0 -0.06952453
Link 150 206 2284 0 -0.04094718
Link 151 206 2285 0 0.34138083
Link 152 206 2286 0 0.12223850
Link 153 206 2287 0 -0.35973040
Link 154 206 2288 0 -0.01144911
Link 155 206 2289 0 0.32824061
Link 156 206 2290 0 0.44302652
Link 157 206 2291 0 -0.27593733
Link 158 206 2292 0 -0.33474077
Link 159 206 2293 0 0.06210029
Link 160 206 2294 0 -0.22766574
Link 161 206 2295 0 -0.24007970
Link 162 206 2296 0 -0.04388072
Link 163 206 2297 0 0.17583370
Link 164 206 2298 0 -0.21318510
Link 165 206 2299 0 0.52390163
Link 166 206 2300 0 -0.80501738
Link 167 206 2301 0 0.40700589
Link 168 206 2302 0 -0.23406558
Link 169 206 2303 0 -0.29210119
Link 170 206 2304 0 0.15758261
Link 171 206 2305 0 -0.05519654
Link 172 206 2306 0 0.28645219
Link 173 206 2307 0 0.18079749
Link 174 206 2308 0 -0.03414920
Link 175 206 2309 0 0.05093182
Link 176 206 2310 0 0.03249343
Link 177 206 2311 0 0.03601462
Link 178 206 2312 0 -0.00120259
Link 179 206 2313 0 0.40548986
Link 180 206 2314 0 0.53978193
Link 181 206 2315 0 -0.33043943
Link 182 206 2316 0 -0.22365430
Link 183 206 2317 0 -0.07855340
Link 184 206 2318 0 -0.30146504
Link 185 206 2319 0 0.10502070
Link 186 206 2320 0 -0.15460218
Link 187 206 2321 0 0.10406629
Link 188 206 2322 0 0.02360233
Link 189 206 2323 0 0.11912870
Link 190 206 2324 0 -0.34830491
Link 191 206 2325 0 -0.32086182
Link 192 206 2326 0 0.49382252
Link 193 206 2327 0 -0.56694269
Link 194 206 2328 0 -0.17012256
Link 1 207 2329 0 -0.06343073
Link 2 207 2330 0 -0.05089146
Link 3 207 2331 0 0.62929318
Link 4 207 2332 0 -0.65789074
Link 5 207 2333 0 0.24611665
Link 6 207 2334 0 0.43264352
Link 7 207 2335 0 0.34222985
Link 8 207 2336 0 0.74122853
Link 9 207 2337 0 -0.07407460
Link 10 207 2338 0 -0.06577100
Link 11 207 2339 0 -0.18822463
Link 12 207 2340 0 -0.23531220
Link 13 207 2341 0 -0.21717130
Link 14 207 2342 0 -0.04607109
Link 15 207 2343 0 0.24451779
Link 16 207 2344 0 0.25111510
Link 17 207 2345 0 -0.44899473
Link 18 207 2346 0 -0.49003599
Link 19 207 2347 0 0.20410450
Link 20 207 2348 0 -0.59053176
Link 21 207 2349 0 -0.19041094
Link 22 207 2350 0 -0.15407225
Link 23 207 2351 0 0.04553094
Link 24 207 2352 0 -0.31246731
Link 25 207 2353 0 0.37524961
Link 26 207 2354 0 0.22451421
Link 27 207 2355 0 -0.13156354
Link 28 207 2356 0 0.06714731
Link 29 207 2357 0 0.55405200
Link 30 207 2358 0 0.78537653
Link 31 207 2359 0 0.34699712
Link 32 207 2360 0 0.07773883
Link 33 207 2361 0 0.05348980
Link 34 207 2362 0 -0.27205715
Link 35 207 2363 0 0.53439485
Link 36 207 2364 0 -0.32988632
Link 37 207 2365 0 -0.67347358
Link 38 207 2366 0 0.17920644
Link 39 207 2367 0 -0.44792592
Link 40 207 2368 0 0.19323539
Link 41 207 2369 0 0.23515309
Link 42 207 2370 0 0.27237753
Link 43 207 2371 0 -0.17726488
Link 44 207 2372 0 -0.10017399
Link 45 207 2373 0 -0.29741451
Link 46 207 2374 0 -0.12374380
Link 47 207 2375 0 -0.47234129
Link 48 207 2376 0 0.06213324
Link 49 207 2377 0 0.02850869
Link 50 207 2378 0 0.02919792
Link 51 207 2379 0 0.38066308
Link 52 207 2380 0 -0.20061227
Link 53 207 2381 0 0.31815297
Link 54 207 2382 0 0.03575908
Link 55 207 2383 0 -0.35628894
Link 56 207 2384 0 0.33568482
Link 57 207 2385 0 0.34465394
Link 58 207 2386 0 0.25365897
Link 59 207 2387 0 -0.08836703
Link 60 207 2388 0 0.66501919
Link 61 207 2389 0 -0.10249991
Link 62 207 2390 0 -0.22987545
Link 63 207 2391 0 0.11177413
Link 64 207 2392 0 0.42692260
Link 65 207 2393 0 -0.14408327
Link 66 207 2394 0 0.13874901
Link 67 207 2395 0 -0.83641806
Link 68 207 2396 0 -0.02375200
Link 69 207 2397 0 -0.26130659
Link 70 207 2398 0 -0.22942391
Link 71 207 2399 0 -0.14121603
Link 72 207 2400 0 0.16090309
Link 73 207 2401 0 0.15892890
Link 74 207 2402 0 0.36855775
Link 75 207 2403 0 -0.04481031
Link 76 207 2404 0 0.28816544
Link 77 207 2405 0 -0.07258513
Link 78 207 2406 0 0.59384604
Link 79 207 2407 0 0.10667205
Link 80 207 2408 0 -0.25370360
Link 81 207 2409 0 -0.09819325
Link 82 207 2410 0 -0.31387244
Link 83 207 2411 0 -0.02147835
Link 84 207 2412 0 -0.07732034
Link 85 207 2413 0 -0.27728475
Link 86 207 2414 0 0.02110075
Link 87 207 2415 0 0.52291589
Link 88 207 2416 0 -0.04015435
Link 89 207 2417 0 0.84082523
Link 90 207 2418 0 -0.39632440
Link 91 207 2419 0 -0.09775115
Link 92 207 2420 0 0.19290788
Link 93 207 2421 0 -0.65144206
Link 94 207 2422 0 -0.10325508
Link 95 207 2423 0 0.63021450
Link 96 207 2424 0 -0.06767102
Link 97 207 2425 0 0.15071898
Link 98 207 2426 0 0.14991205
Link 99 207 2427 0 -0.15092501
Link 100 207 2428 0 -0.68601695
Link 101 207 2429 0 -0.48818515
Link 102 207 2430 0 0.14285406
Link 103 207 2431 0 -0.66006358
Link 104 207 2432 0 0.23779867
Link 105 207 2433 0 -0.45487976
Link 106 207 2434 0 0.15599743
Link 107 207 2435 0 -0.19366999
Link 108 207 2436 0 -0.07102470
Link 109 207 2437 0 0.69674370
Link 110 207 2438 0 0.04916879
Link 111 207 2439 0 -0.03216348
Link 112 207 2440 0 -0.14403435
Link 113 207 2441 0 -0.11184078
Link 114 207 2442 0 0.44965366
Link 115 207 2443 0 -0.24933306
Link 116 207 2444 0 0.22725041
Link 117 207 2445 0 -0.01956068
Link 118 207 2446 0 -0.06010679
Link 119 207 2447 0 -0.13040384
Link 120 207 2448 0 0.01048242
Link 121 207 2449 0 0.21588850
Link 122 207 2450 0 -0.37973148
Link 123 207 2451 0 -0.24813441
Link 124 207 2452 0 -0.08768376
Link 125 207 2453 0 -0.22856597
Link 126 207 2454 0 0.17910118
Link 127 207 2455 0 0.09684117
Link 128 207 2456 0 0.01557520
Link 129 207 2457 0 -0.01974421
Link 130 207 2458 0 0.32732928
Link 131 207 2459 0 -0.04233503
Link 132 207 2460 0 0.91404152
Link 133 207 2461 0 0.04964533
Link 134 207 2462 0 -0.12704115
Link 135 207 2463 0 -0.32557812
Link 136 207 2464 0 -0.79871442
Link 137 207 2465 0 0.48276201
Link 138 207 2466 0 0.04419869
Link 139 207 2467 0 0.19041025
Link 140 207 2468 0 0.41240718
Link 141 207 2469 0 -0.50445848
Link 142 207 2470 0 -0.07693738
Link 143 207 2471 0 0.10969236
Link 144 207 2472 0 0.07757303
Link 145 207 2473 0 0.09230874
Link 146 207 2474 0 1.15700736
Link 147 207 2475 0 -0.07364764
Link 148 207 2476 0 -0.24525212
Link 149 207 2477 0 -0.03099181
Link 150 207 2478 0 -0.23203810
Link 151 207 2479 0 -0.07610608
Link 152 207 2480 0 -0.16220063
Link 153 207 2481 0 0.18456683
Link 154 207 2482 0 -0.28307302
Link 155 207 2483 0 -0.20839418
Link 156 207 2484 0 -0.09019203
Link 157 207 2485 0 -0.36604135
Link 158 207 2486 0 0.28321027
Link 159 207 2487 0 -0.33843417
Link 160 207 2488 0 -0.17240127
Link 161 207 2489 0 0.69094517
Link 162 207 2490 0 0.19326726
Link 163 207 2491 0 0.10692236
Link 164 207 2492 0 0.16971713
Link 165 207 2493 0 -0.18244775
Link 166 207 2494 0 -0.12665926
Link 167 207 2495 0 0.03014187
Link 168 207 2496 0 0.29289534
Link 169 207 2497 0 0.54436828
Link 170 207 2498 0 -0.30693302
Link 171 207 2499 0 -0.01087889
Link 172 207 2500 0 0.27002329
Link 173 207 2501 0 -0.05321594
Link 174 207 2502 0 -0.61681555
Link 175 207 2503 0 -0.24291424
Link 176 207 2504 0 0.48540141
Link 177 207 2505 0 -0.18960115
Link 178 207 2506 0 -0.31814125
Link 179 207 2507 0 -0.42711501
Link 180 207 2508 0 -0.05370019
Link 181 207 2509 0 0.14031578
Link 182 207 2510 0 0.46678051
Link 183 207 2511 0 0.39632049
Link 184 207 2512 0 0.60270165
Link 185 207 2513 0 0.05634726
Link 186 207 2514 0 0.33330085
Link 187 207 2515 0 0.18041370
Link 188 207 2516 0 -0.10917993
Link 189 207 2517 0 -0.05837352
Link 190 207 2518 0 -0.07421706
Link 191 207 2519 0 -0.15841665
Link 192 207 2520 0 0.12313591
Link 193 207 2521 0 0.20094741
Link 194 207 2522 0 0.20318879
Link 1 208 2523 0 -0.28837760
Link 2 208 2524 0 0.75719062
Link 3 208 2525 0 0.26996626
Link 4 208 2526 0 0.19715545
Link 5 208 2527 0 -0.11537570
Link 6 208 2528 0 0.31968540
Link 7 208 2529 0 0.51172031
Link 8 208 2530 0 0.24240138
Link 9 208 2531 0 0.23864631
Link 10 208 2532 0 0.02601180
Link 11 208 2533 0 -0.30296796
Link 12 208 2534 0 0.27303972
Link 13 208 2535 0 -0.31170956
Link 14 208 2536 0 -0.08431353
Link 15 208 2537 0 -0.03262770
Link 16 208 2538 0 0.19370560
Link 17 208 2539 0 -0.17648067
Link 18 208 2540 0 -0.48685889
Link 19 208 2541 0 0.31897534
Link 20 208 2542 0 0.20974757
Link 21 208 2543 0 0.08715219
Link 22 208 2544 0 -0.17981858
Link 23 208 2545 0 0.08655178
Link 24 208 2546 0 0.00108569
Link 25 208 2547 0 0.49459633
Link 26 208 2548 0 -0.23667232
Link 27 208 2549 0 -0.10621728
Link 28 208 2550 0 -0.04170357
Link 29 208 2551 0 -0.35724453
Link 30 208 2552 0 0.35382804
Link 31 208 2553 0 -0.46799172
Link 32 208 2554 0 0.30871802
Link 33 208 2555 0 0.51849372
Link 34 208 2556 0 -0.14980978
Link 35 208 2557 0 -0.14254746
Link 36 208 2558 0 -0.10000493
Link 37 208 2559 0 -0.10918396
Link 38 208 2560 0 0.41292037
Link 39 208 2561 0 0.24489501
Link 40 208 2562 0 -0.11137387
Link 41 208 2563 0 0.38382707
Link 42 208 2564 0 0.07672481
Link 43 208 2565 0 0.48011557
Link 44 208 2566 0 0.54575656
Link 45 208 2567 0 0.46403983
Link 46 208 2568 0 -0.04252935
Link 47 208 2569 0 0.02143194
Link 48 208 2570 0 -0.00227521
Link 49 208 2571 0 0.34389521
Link 50 208 2572 0 0.08933366
Link 51 208 2573 0 0.05263895
Link 52 208 2574 0 0.18033541
Link 53 208 2575 0 -0.02286660
Link 54 208 2576 0 -0.08444219
Link 55 208 2577 0 0.17046641
Link 56 208 2578 0 0.46804448
Link 57 208 2579 0 0.17575693
Link 58 208 2580 0 -0.42858058
Link 59 208 2581 0 0.17201994
Link 60 208 2582 0 0.07067832
Link 61 208 2583 0 -0.17904286
Link 62 208 2584 0 0.30622715
Link 63 208 2585 0 -0.13896961
Link 64 208 2586 0 0.05971752
Link 65 208 2587 0 0.17413309
Link 66 208 2588 0 0.05910730
Link 67 208 2589 0 0.08600939
Link 68 208 2590 0 0.25719076
Link 69 208 2591 0 0.14475490
Link 70 208 2592 0 0.00579389
Link 71 208 2593 0 0.11696169
Link 72 208 2594 0 -0.17803579
Link 73 208 2595 0 0.17355185
Link 74 208 2596 0 0.24462710
Link 75 208 2597 0 -0.30619081
Link 76 208 2598 0 0.15499544
Link 77 208 2599 0 0.03023790
Link 78 208 2600 0 -0.17242154
Link 79 208 2601 0 0.02723814
Link 80 208 2602 0 0.29637729
Link 81 208 2603 0 0.06658611
Link 82 208 2604 0 -0.65848584
Link 83 208 2605 0 -0.12890799
Link 84 208 2606 0 0.14934324
Link 85 208 2607 0 -0.29819196
Link 86 208 2608 0 -0.19089973
Link 87 208 2609 0 0.55149796
Link 88 208 2610 0 -0.32078645
Link 89 208 2611 0 -0.15022392
Link 90 208 2612 0 -0.02633170
Link 91 208 2613 0 0.71220738
Link 92 208 2614 0 0.06549226
Link 93 208 2615 0 -0.33947589
Link 94 208 2616 0 0.06511900
Link 95 208 2617 0 0.09948493
Link 96 208 2618 0 -0.47326821
Link 97 208 2619 0 0.06179068
Link 98 208 2620 0 -0.07812284
Link 99 208 2621 0 0.04900353
Link 100 208 2622 0 0.18027758
Link 101 208 2623 0 -0.24682559
Link 102 208 2624 0 -0.01934345
Link 103 208 2625 0 -0.76292629
Link 104 208 2626 0 0.38581605
Link 105 208 2627 0 0.15650100
Link 106 208 2628 0 -0.30138195
Link 107 208 2629 0 -0.31685807
Link 108 208 2630 0 0.24986097
Link 109 208 2631 0 0.05571330
Link 110 208 2632 0 -0.18375722
Link 111 208 2633 0 0.84169746
Link 112 208 2634 0 -0.05614764
Link 113 208 2635 0 -0.27251683
Link 114 208 2636 0 0.25074907
Link 115 208 2637 0 0.44442441
Link 116 208 2638 0 -0.62198096
Link 117 208 2639 0 -0.64673285
Link 118 208 2640 0 0.34483905
Link 119 208 2641 0 -0.24705037
Link 120 208 2642 0 -0.00865158
Link 121 208 2643 0 0.71368805
Link 122 208 2644 0 -0.11153232
Link 123 208 2645 0 0.22789567
Link 124 208 2646 0 -0.09102628
Link 125 208 2647 0 -0.08870491
Link 126 208 2648 0 0.22588152
Link 127 208 2649 0 -0.10674113
Link 128 208 2650 0 0.41987339
Link 129 208 2651 0 0.18208023
Link 130 208 2652 0 -0.16279916
Link 131 208 2653 0 -0.39942187
Link 132 208 2654 0 -0.33036981
Link 133 208 2655 0 -0.44154172
Link 134 208 2656 0 0.12543749
Link 135 208 2657 0 -0.29033257
Link 136 208 2658 0 -0.40259032
Link 137 208 2659 0 0.65654172
Link 138 208 2660 0 -0.46061864
Link 139 208 2661 0 -0.80580092
Link 140 208 2662 0 -0.37823083
Link 141 208 2663 0 -0.33148649
Link 142 208 2664 0 0.09366758
Link 143 208 2665 0 0.39658923
Link 144 208 2666 0 0.75114484
Link 145 208 2667 0 0.66162652
Link 146 208 2668 0 0.23642082
Link 147 208 2669 0 -0.46120833
Link 148 208 2670 0 -0.07502314
Link 149 208 2671 0 -0.13586320
Link 150 208 2672 0 -0.36077829
Link 151 208 2673 0 0.42347661
Link 152 208 2674 0 -0.11927215
Link 153 208 2675 0 0.22590332
Link 154 208 2676 0 0.07919799
Link 155 208 2677 0 0.16866015
Link 156 208 2678 0 -0.07535508
Link 157 208 2679 0 0.01733428
Link 158 208 2680 0 0.48939038
Link 159 208 2681 0 0.31152310
Link 160 208 2682 0 0.29872438
Link 161 208 2683 0 0.28819506
Link 162 208 2684 0 0.49042047
Link 163 208 2685 0 0.08014879
Link 164 208 2686 0 0.45775408
Link 165 208 2687 0 -0.36039481
Link 166 208 2688 0 0.57233225
Link 167 208 2689 0 -0.03823149
Link 168 208 2690 0 0.24499096
Link 169 208 2691 0 0.68540858
Link 170 208 2692 0 -0.00643503
Link 171 208 2693 0 0.16397645
Link 172 208 2694 0 0.05008547
Link 173 208 2695 0 0.12893159
Link 174 208 2696 0 0.56222229
Link 175 208 2697 0 0.32002485
Link 176 208 2698 0 0.25781997
Link 177 208 2699 0 0.04842264
Link 178 208 2700 0 0.19570089
Link 179 208 2701 0 -0.28816740
Link 180 208 2702 0 -0.09092147
Link 181 208 2703 0 0.23938240
Link 182 208 2704 0 0.13530139
Link 183 208 2705 0 -0.04350599
Link 184 208 2706 0 0.55599759
Link 185 208 2707 0 -0.05828275
Link 186 208 2708 0 -0.07815244
Link 187 208 2709 0 0.15962479
Link 188 208 2710 0 -0.22996742
Link 189 208 2711 0 0.15006579
Link 190 208 2712 0 -0.76161353
Link 191 208 2713 0 0.06698531
Link 192 208 2714 0 -0.30979102
Link 193 208 2715 0 -0.20081199
Link 194 208 2716 0 0.43816559
Link 1 209 2717 0 -0.12679415
Link 2 209 2718 0 0.12659774
Link 3 209 2719 0 -0.17095469
Link 4 209 2720 0 0.37719905
Link 5 209 2721 0 -0.51824036
Link 6 209 2722 0 0.42815776
Link 7 209 2723 0 0.71307448
Link 8 209 2724 0 -0.28176076
Link 9 209 2725 0 -0.40539233
Link 10 209 2726 0 0.01179155
Link 11 209 2727 0 -0.17980637
Link 12 209 2728 0 -0.90799405
Link 13 209 2729 0 0.09169147
Link 14 209 2730 0 0.57272254
Link 15 209 2731 0 0.21207185
Link 16 209 2732 0 0.11334927
Link 17 209 2733 0 0.40075858
Link 18 209 2734 0 0.04185894
Link 19 209 2735 0 -0.61107892
Link 20 209 2736 0 0.23770981
Link 21 209 2737 0 0.11231891
Link 22 209 2738 0 -0.06756827
Link 23 209 2739 0 0.09616855
Link 24 209 2740 0 0.14877245
Link 25 209 2741 0 -0.23873286
Link 26 209 2742 0 -0.17670667
Link 27 209 2743 0 -0.15878272
Link 28 209 2744 0 -0.44251668
Link 29 209 2745 0 -0.17700650
Link 30 209 2746 0 -0.06173357
Link 31 209 2747 0 -0.40180092
Link 32 209 2748 0 -0.11128355
Link 33 209 2749 0 -0.14200335
Link 34 209 2750 0 -0.06401563
Link 35 209 2751 0 -0.28223736
Link 36 209 2752 0 -0.41696969
Link 37 209 2753 0 -0.17831657
Link 38 209 2754 0 0.31304192
Link 39 209 2755 0 -0.30838213
Link 40 209 2756 0 -0.09160184
Link 41 209 2757 0 -0.84540023
Link 42 209 2758 0 -0.18582845
Link 43 209 2759 0 0.61647693
Link 44 209 2760 0 -0.35205639
Link 45 209 2761 0 0.12710325
Link 46 209 2762 0 -0.02445724
Link 47 209 2763 0 0.04027078
Link 48 209 2764 0 0.09683690
Link 49 209 2765 0 0.09783112
Link 50 209 2766 0 -0.10786578
Link 51 209 2767 0 0.46559290
Link 52 209 2768 0 -0.12520855
Link 53 209 2769 0 0.31485359
Link 54 209 2770 0 -0.52407999
Link 55 209 2771 0 0.22629938
Link 56 209 2772 0 0.04303760
Link 57 209 2773 0 -0.07594618
Link 58 209 2774 0 0.16855744
Link 59 209 2775 0 -0.02915885
Link 60 209 2776 0 0.51925509
Link 61 209 2777 0 -0.69910722
Link 62 209 2778 0 -0.19995921
Link 63 209 2779 0 0.40610626
Link 64 209 2780 0 -0.39469165
Link 65 209 2781 0 0.36103143
Link 66 209 2782 0 0.06843329
Link 67 209 2783 0 0.04337561
Link 68 209 2784 0 -0.03866574
Link 69 209 2785 0 -0.25617948
Link 70 209 2786 0 -0.18254765
Link 71 209 2787 0 0.17288368
Link 72 209 2788 0 -0.04681565
Link 73 209 2789 0 0.34892607
Link 74 209 2790 0 0.21669566
Link 75 209 2791 0 -0.18780161
Link 76 209 2792 0 0.21447850
Link 77 209 2793 0 0.78247969
Link 78 209 2794 0 0.28883356
Link 79 209 2795 0 0.26362104
Link 80 209 2796 0 0.35677678
Link 81 209 2797 0 -0.24303102
Link 82 209 2798 0 0.24197606
