GenomeStart 5551
Neuron 1 1 0.00000000 1 0.00000000 0.00000000 0.00000000 0.00000000
Neuron 2 1 0.00000000 1 0.00000000 0.00000000 0.00000000 0.00000000
Neuron 3 1 0.00000000 1 0.00000000 0.00000000 0.00000000 0.00000000
Neuron 4 1 0.00000000 1 0.00000000 0.00000000 0.00000000 0.00000000
Neuron 5 1 0.00000000 1 0.00000000 0.00000000 0.00000000 0.00000000
Neuron 6 1 0.00000000 1 0.00000000 0.00000000 0.00000000 0.00000000
Neuron 7 1 0.00000000 1 0.00000000 0.00000000 0.00000000 0.00000000
Neuron 8 1 0.00000000 1 0.00000000 0.00000000 0.00000000 0.00000000
Neuron 9 1 0.00000000 1 0.00000000 0.00000000 0.00000000 0.00000000
Neuron 10 1 0.00000000 1 0.00000000 0.00000000 0.00000000 0.00000000
Neuron 11 1 0.00000000 1 0.00000000 0.00000000 0.00000000 0.00000000
Neuron 12 1 0.00000000 1 0.00000000 0.00000000 0.00000000 0.00000000
Neuron 13 1 0.00000000 1 0.00000000 0.00000000 0.00000000 0.00000000
Neuron 14 1 0.00000000 1 0.00000000 0.00000000 0.00000000 0.00000000
Neuron 15 1 0.00000000 1 0.00000000 0.00000000 0.00000000 0.00000000
Neuron 16 1 0.00000000 1 0.00000000 0.00000000 0.00000000 0.00000000
Neuron 17 1 0.00000000 1 0.00000000 0.00000000 0.00000000 0.00000000
Neuron 18 1 0.00000000 1 0.00000000 0.00000000 0.00000000 0.00000000
Neuron 19 1 0.00000000 1 0.00000000 0.00000000 0.00000000 0.00000000
Neuron 20 1 0.00000000 1 0.00000000 0.00000000 0.00000000 0.00000000
Neuron 21 1 0.00000000 1 0.00000000 0.00000000 0.00000000 0.00000000
Neuron 22 1 0.00000000 1 0.00000000 0.00000000 0.00000000 0.00000000
Neuron 23 1 0.00000000 1 0.00000000 0.00000000 0.00000000 0.00000000
Neuron 24 1 0.00000000 1 0.00000000 0.00000000 0.00000000 0.00000000
Neuron 25 1 0.00000000 1 0.00000000 0.00000000 0.00000000 0.00000000
Neuron 26 1 0.00000000 1 0.00000000 0.00000000 0.00000000 0.00000000
Neuron 27 1 0.00000000 1 0.00000000 0.00000000 0.00000000 0.00000000
Neuron 28 1 0.00000000 1 0.00000000 0.00000000 0.00000000 0.00000000
Neuron 29 1 0.00000000 1 0.00000000 0.00000000 0.00000000 0.00000000
Neuron 30 1 0.00000000 1 0.00000000 0.00000000 0.00000000 0.00000000
Neuron 31 1 0.00000000 1 0.00000000 0.00000000 0.00000000 0.00000000
Neuron 32 1 0.00000000 1 0.00000000 0.00000000 0.00000000 0.00000000
Neuron 33 1 0.00000000 1 0.00000000 0.00000000 0.00000000 0.00000000
Neuron 34 1 0.00000000 1 0.00000000 0.00000000 0.00000000 0.00000000
Neuron 35 1 0.00000000 1 0.00000000 0.00000000 0.00000000 0.00000000
Neuron 36 1 0.00000000 1 0.00000000 0.00000000 0.00000000 0.00000000
Neuron 37 1 0.00000000 1 0.00000000 0.00000000 0.00000000 0.00000000
Neuron 38 1 0.00000000 1 0.00000000 0.00000000 0.00000000 0.00000000
Neuron 39 1 0.00000000 1 0.00000000 0.00000000 0.00000000 0.00000000
Neuron 40 1 0.00000000 1 0.00000000 0.00000000 0.00000000 0.00000000
Neuron 41 1 0.00000000 1 0.00000000 0.00000000 0.00000000 0.00000000
Neuron 42 1 0.00000000 1 0.00000000 0.00000000 0.00000000 0.00000000
Neuron 43 1 0.00000000 1 0.00000000 0.00000000 0.00000000 0.00000000
Neuron 44 1 0.00000000 1 0.00000000 0.00000000 0.00000000 0.00000000
Neuron 45 1 0.00000000 1 0.00000000 0.00000000 0.00000000 0.00000000
Neuron 46 1 0.00000000 1 0.00000000 0.00000000 0.00000000 0.00000000
Neuron 47 1 0.00000000 1 0.00000000 0.00000000 0.00000000 0.00000000
Neuron 48 1 0.00000000 1 0.00000000 0.00000000 0.00000000 0.00000000
Neuron 49 1 0.00000000 1 0.00000000 0.00000000 0.00000000 0.00000000
Neuron 50 1 0.00000000 1 0.00000000 0.00000000 0.00000000 0.00000000
Neuron 51 1 0.00000000 1 0.00000000 0.00000000 0.00000000 0.00000000
Neuron 52 1 0.00000000 1 0.00000000 0.00000000 0.00000000 0.00000000
Neuron 53 1 0.00000000 1 0.00000000 0.00000000 0.00000000 0.00000000
Neuron 54 1 0.00000000 1 0.00000000 0.00000000 0.00000000 0.00000000
Neuron 55 1 0.00000000 1 0.00000000 0.00000000 0.00000000 0.00000000
Neuron 56 1 0.00000000 1 0.00000000 0.00000000 0.00000000 0.00000000
Neuron 57 1 0.00000000 1 0.00000000 0.00000000 0.00000000 0.00000000
Neuron 58 1 0.00000000 1 0.00000000 0.00000000 0.00000000 0.00000000
Neuron 59 1 0.00000000 1 0.00000000 0.00000000 0.00000000 0.00000000
Neuron 60 1 0.00000000 1 0.00000000 0.00000000 0.00000000 0.00000000
Neuron 61 1 0.00000000 1 0.00000000 0.00000000 0.00000000 0.00000000
Neuron 62 1 0.00000000 1 0.00000000 0.00000000 0.00000000 0.00000000
Neuron 63 1 0.00000000 1 0.00000000 0.00000000 0.00000000 0.00000000
Neuron 64 1 0.00000000 1 0.00000000 0.00000000 0.00000000 0.00000000
Neuron 65 1 0.00000000 1 0.00000000 0.00000000 0.00000000 0.00000000
Neuron 66 1 0.00000000 1 0.00000000 0.00000000 0.00000000 0.00000000
Neuron 67 1 0.00000000 1 0.00000000 0.00000000 0.00000000 0.00000000
Neuron 68 1 0.00000000 1 0.00000000 0.00000000 0.00000000 0.00000000
Neuron 69 1 0.00000000 1 0.00000000 0.00000000 0.00000000 0.00000000
Neuron 70 1 0.00000000 1 0.00000000 0.00000000 0.00000000 0.00000000
Neuron 71 1 0.00000000 1 0.00000000 0.00000000 0.00000000 0.00000000
Neuron 72 1 0.00000000 1 0.00000000 0.00000000 0.00000000 0.00000000
Neuron 73 1 0.00000000 1 0.00000000 0.00000000 0.00000000 0.00000000
Neuron 74 1 0.00000000 1 0.00000000 0.00000000 0.00000000 0.00000000
Neuron 75 1 0.00000000 1 0.00000000 0.00000000 0.00000000 0.00000000
Neuron 76 1 0.00000000 1 0.00000000 0.00000000 0.00000000 0.00000000
Neuron 77 1 0.00000000 1 0.00000000 0.00000000 0.00000000 0.00000000
Neuron 78 1 0.00000000 1 0.00000000 0.00000000 0.00000000 0.00000000
Neuron 79 1 0.00000000 1 0.00000000 0.00000000 0.00000000 0.00000000
Neuron 80 1 0.00000000 1 0.00000000 0.00000000 0.00000000 0.00000000
Neuron 81 1 0.00000000 1 0.00000000 0.00000000 0.00000000 0.00000000
Neuron 82 1 0.00000000 1 0.00000000 0.00000000 0.00000000 0.00000000
Neuron 83 1 0.00000000 1 0.00000000 0.00000000 0.00000000 0.00000000
Neuron 84 1 0.00000000 1 0.00000000 0.00000000 0.00000000 0.00000000
Neuron 85 1 0.00000000 1 0.00000000 0.00000000 0.00000000 0.00000000
Neuron 86 1 0.00000000 1 0.00000000 0.00000000 0.00000000 0.00000000
Neuron 87 1 0.00000000 1 0.00000000 0.00000000 0.00000000 0.00000000
Neuron 88 1 0.00000000 1 0.00000000 0.00000000 0.00000000 0.00000000
Neuron 89 1 0.00000000 1 0.00000000 0.00000000 0.00000000 0.00000000
Neuron 90 1 0.00000000 1 0.00000000 0.00000000 0.00000000 0.00000000
Neuron 91 1 0.00000000 1 0.00000000 0.00000000 0.00000000 0.00000000
Neuron 92 1 0.00000000 1 0.00000000 0.00000000 0.00000000 0.00000000
Neuron 93 1 0.00000000 1 0.00000000 0.00000000 0.00000000 0.00000000
Neuron 94 1 0.00000000 1 0.00000000 0.00000000 0.00000000 0.00000000
Neuron 95 1 0.00000000 1 0.00000000 0.00000000 0.00000000 0.00000000
Neuron 96 1 0.00000000 1 0.00000000 0.00000000 0.00000000 0.00000000
Neuron 97 1 0.00000000 1 0.00000000 0.00000000 0.00000000 0.00000000
Neuron 98 1 0.00000000 1 0.00000000 0.00000000 0.00000000 0.00000000
Neuron 99 1 0.00000000 1 0.00000000 0.00000000 0.00000000 0.00000000
Neuron 100 1 0.00000000 1 0.00000000 0.00000000 0.00000000 0.00000000
Neuron 101 1 0.00000000 1 0.00000000 0.00000000 0.00000000 0.00000000
Neuron 102 1 0.00000000 1 0.00000000 0.00000000 0.00000000 0.00000000
Neuron 103 1 0.00000000 1 0.00000000 0.00000000 0.00000000 0.00000000
Neuron 104 1 0.00000000 1 0.00000000 0.00000000 0.00000000 0.00000000
Neuron 105 1 0.00000000 1 0.00000000 0.00000000 0.00000000 0.00000000
Neuron 106 1 0.00000000 1 0.00000000 0.00000000 0.00000000 0.00000000
Neuron 107 1 0.00000000 1 0.00000000 0.00000000 0.00000000 0.00000000
Neuron 108 1 0.00000000 1 0.00000000 0.00000000 0.00000000 0.00000000
Neuron 109 1 0.00000000 1 0.00000000 0.00000000 0.00000000 0.00000000
Neuron 110 1 0.00000000 1 0.00000000 0.00000000 0.00000000 0.00000000
Neuron 111 1 0.00000000 1 0.00000000 0.00000000 0.00000000 0.00000000
Neuron 112 1 0.00000000 1 0.00000000 0.00000000 0.00000000 0.00000000
Neuron 113 1 0.00000000 1 0.00000000 0.00000000 0.00000000 0.00000000
Neuron 114 1 0.00000000 1 0.00000000 0.00000000 0.00000000 0.00000000
Neuron 115 1 0.00000000 1 0.00000000 0.00000000 0.00000000 0.00000000
Neuron 116 1 0.00000000 1 0.00000000 0.00000000 0.00000000 0.00000000
Neuron 117 1 0.00000000 1 0.00000000 0.00000000 0.00000000 0.00000000
Neuron 118 1 0.00000000 1 0.00000000 0.00000000 0.00000000 0.00000000
Neuron 119 1 0.00000000 1 0.00000000 0.00000000 0.00000000 0.00000000
Neuron 120 1 0.00000000 1 0.00000000 0.00000000 0.00000000 0.00000000
Neuron 121 1 0.00000000 1 0.00000000 0.00000000 0.00000000 0.00000000
Neuron 122 1 0.00000000 1 0.00000000 0.00000000 0.00000000 0.00000000
Neuron 123 1 0.00000000 1 0.00000000 0.00000000 0.00000000 0.00000000
Neuron 124 1 0.00000000 1 0.00000000 0.00000000 0.00000000 0.00000000
Neuron 125 1 0.00000000 1 0.00000000 0.00000000 0.00000000 0.00000000
Neuron 126 1 0.00000000 1 0.00000000 0.00000000 0.00000000 0.00000000
Neuron 127 1 0.00000000 1 0.00000000 0.00000000 0.00000000 0.00000000
Neuron 128 1 0.00000000 1 0.00000000 0.00000000 0.00000000 0.00000000
Neuron 129 1 0.00000000 1 0.00000000 0.00000000 0.00000000 0.00000000
Neuron 130 1 0.00000000 1 0.00000000 0.00000000 0.00000000 0.00000000
Neuron 131 1 0.00000000 1 0.00000000 0.00000000 0.00000000 0.00000000
Neuron 132 1 0.00000000 1 0.00000000 0.00000000 0.00000000 0.00000000
Neuron 133 1 0.00000000 1 0.00000000 0.00000000 0.00000000 0.00000000
Neuron 134 1 0.00000000 1 0.00000000 0.00000000 0.00000000 0.00000000
Neuron 135 1 0.00000000 1 0.00000000 0.00000000 0.00000000 0.00000000
Neuron 136 1 0.00000000 1 0.00000000 0.00000000 0.00000000 0.00000000
Neuron 137 1 0.00000000 1 0.00000000 0.00000000 0.00000000 0.00000000
Neuron 138 1 0.00000000 1 0.00000000 0.00000000 0.00000000 0.00000000
Neuron 139 1 0.00000000 1 0.00000000 0.00000000 0.00000000 0.00000000
Neuron 140 1 0.00000000 1 0.00000000 0.00000000 0.00000000 0.00000000
Neuron 141 1 0.00000000 1 0.00000000 0.00000000 0.00000000 0.00000000
Neuron 142 1 0.00000000 1 0.00000000 0.00000000 0.00000000 0.00000000
Neuron 143 1 0.00000000 1 0.00000000 0.00000000 0.00000000 0.00000000
Neuron 144 1 0.00000000 1 0.00000000 0.00000000 0.00000000 0.00000000
Neuron 145 1 0.00000000 1 0.00000000 0.00000000 0.00000000 0.00000000
Neuron 146 1 0.00000000 1 0.00000000 0.00000000 0.00000000 0.00000000
Neuron 147 1 0.00000000 1 0.00000000 0.00000000 0.00000000 0.00000000
Neuron 148 1 0.00000000 1 0.00000000 0.00000000 0.00000000 0.00000000
Neuron 149 1 0.00000000 1 0.00000000 0.00000000 0.00000000 0.00000000
Neuron 150 1 0.00000000 1 0.00000000 0.00000000 0.00000000 0.00000000
Neuron 151 1 0.00000000 1 0.00000000 0.00000000 0.00000000 0.00000000
Neuron 152 1 0.00000000 1 0.00000000 0.00000000 0.00000000 0.00000000
Neuron 153 1 0.00000000 1 0.00000000 0.00000000 0.00000000 0.00000000
Neuron 154 1 0.00000000 1 0.00000000 0.00000000 0.00000000 0.00000000
Neuron 155 1 0.00000000 1 0.00000000 0.00000000 0.00000000 0.00000000
Neuron 156 1 0.00000000 1 0.00000000 0.00000000 0.00000000 0.00000000
Neuron 157 1 0.00000000 1 0.00000000 0.00000000 0.00000000 0.00000000
Neuron 158 1 0.00000000 1 0.00000000 0.00000000 0.00000000 0.00000000
Neuron 159 1 0.00000000 1 0.00000000 0.00000000 0.00000000 0.00000000
Neuron 160 1 0.00000000 1 0.00000000 0.00000000 0.00000000 0.00000000
Neuron 161 1 0.00000000 1 0.00000000 0.00000000 0.00000000 0.00000000
Neuron 162 1 0.00000000 1 0.00000000 0.00000000 0.00000000 0.00000000
Neuron 163 1 0.00000000 1 0.00000000 0.00000000 0.00000000 0.00000000
Neuron 164 1 0.00000000 1 0.00000000 0.00000000 0.00000000 0.00000000
Neuron 165 1 0.00000000 1 0.00000000 0.00000000 0.00000000 0.00000000
Neuron 166 1 0.00000000 1 0.00000000 0.00000000 0.00000000 0.00000000
Neuron 167 1 0.00000000 1 0.00000000 0.00000000 0.00000000 0.00000000
Neuron 168 1 0.00000000 1 0.00000000 0.00000000 0.00000000 0.00000000
Neuron 169 1 0.00000000 1 0.00000000 0.00000000 0.00000000 0.00000000
Neuron 170 1 0.00000000 1 0.00000000 0.00000000 0.00000000 0.00000000
Neuron 171 1 0.00000000 1 0.00000000 0.00000000 0.00000000 0.00000000
Neuron 172 1 0.00000000 1 0.00000000 0.00000000 0.00000000 0.00000000
Neuron 173 1 0.00000000 1 0.00000000 0.00000000 0.00000000 0.00000000
Neuron 174 1 0.00000000 1 0.00000000 0.00000000 0.00000000 0.00000000
Neuron 175 1 0.00000000 1 0.00000000 0.00000000 0.00000000 0.00000000
Neuron 176 1 0.00000000 1 0.00000000 0.00000000 0.00000000 0.00000000
Neuron 177 1 0.00000000 1 0.00000000 0.00000000 0.00000000 0.00000000
Neuron 178 1 0.00000000 1 0.00000000 0.00000000 0.00000000 0.00000000
Neuron 179 1 0.00000000 1 0.00000000 0.00000000 0.00000000 0.00000000
Neuron 180 1 0.00000000 1 0.00000000 0.00000000 0.00000000 0.00000000
Neuron 181 1 0.00000000 1 0.00000000 0.00000000 0.00000000 0.00000000
Neuron 182 1 0.00000000 1 0.00000000 0.00000000 0.00000000 0.00000000
Neuron 183 1 0.00000000 1 0.00000000 0.00000000 0.00000000 0.00000000
Neuron 184 1 0.00000000 1 0.00000000 0.00000000 0.00000000 0.00000000
Neuron 185 1 0.00000000 1 0.00000000 0.00000000 0.00000000 0.00000000
Neuron 186 1 0.00000000 1 0.00000000 0.00000000 0.00000000 0.00000000
Neuron 187 1 0.00000000 1 0.00000000 0.00000000 0.00000000 0.00000000
Neuron 188 1 0.00000000 1 0.00000000 0.00000000 0.00000000 0.00000000
Neuron 189 1 0.00000000 1 0.00000000 0.00000000 0.00000000 0.00000000
Neuron 190 1 0.00000000 1 0.00000000 0.00000000 0.00000000 0.00000000
Neuron 191 1 0.00000000 1 0.00000000 0.00000000 0.00000000 0.00000000
Neuron 192 1 0.00000000 1 0.00000000 0.00000000 0.00000000 0.00000000
Neuron 193 1 0.00000000 1 0.00000000 0.00000000 0.00000000 0.00000000
Neuron 194 2 0.00000000 1 0.00000000 0.00000000 0.00000000 0.00000000
Neuron 195 4 1.00000000 0 1.00000000 0.00000000 0.00000000 0.28558896
Neuron 196 4 1.00000000 1 1.00000000 0.00000000 0.00000000 0.63585167
Neuron 197 4 1.00000000 0 1.00000000 0.00000000 0.00000000 -0.49585644
Neuron 198 4 1.00000000 0 1.00000000 0.00000000 0.00000000 0.65099135
Neuron 199 4 1.00000000 0 1.00000000 0.00000000 0.00000000 0.03920268
Neuron 200 4 1.00000000 0 1.00000000 0.00000000 0.00000000 0.35102820
Neuron 201 4 1.00000000 0 1.00000000 0.00000000 0.00000000 0.01113841
Neuron 202 4 1.00000000 1 1.00000000 0.00000000 0.00000000 -0.50409404
Neuron 203 4 1.00000000 0 1.00000000 0.00000000 0.00000000 0.20192745
Neuron 204 4 1.00000000 1 1.00000000 0.00000000 0.00000000 0.46093203
Neuron 205 4 1.00000000 0 1.00000000 0.00000000 0.00000000 0.43147647
Neuron 206 4 1.00000000 0 1.00000000 0.00000000 0.00000000 -0.38453143
Neuron 207 4 1.00000000 0 1.00000000 0.00000000 0.00000000 -0.23033757
Neuron 208 4 1.00000000 0 1.00000000 0.00000000 0.00000000 -0.20077915
Neuron 209 4 1.00000000 0 1.00000000 0.00000000 0.00000000 -0.20979312
Neuron 225 3 0.50000000 1 1.00000000 0.00000000 0.00000000 0.00000000
Link 1 195 1 0 -0.33083673
Link 2 195 2 0 0.17669338
Link 3 195 3 0 2.51606837
Link 4 195 4 0 0.49239248
Link 5 195 5 0 0.51417489
Link 6 195 6 0 -0.56092354
Link 7 195 7 0 0.22091054
Link 8 195 8 0 -0.07943654
Link 9 195 9 0 1.24980402
Link 10 195 10 0 -0.12422737
Link 11 195 11 0 0.10613780
Link 12 195 12 0 -0.74082782
Link 13 195 13 0 -0.36800854
Link 14 195 14 0 -0.58341463
Link 15 195 15 0 0.30248191
Link 16 195 16 0 0.33147782
Link 17 195 17 0 0.94486442
Link 18 195 18 0 -0.04459838
Link 19 195 19 0 0.23698535
Link 20 195 20 0 0.46091651
Link 21 195 21 0 0.50202357
Link 22 195 22 0 -0.13110132
Link 23 195 23 0 -0.75323588
Link 24 195 24 0 -0.56495608
Link 25 195 25 0 -0.17411103
Link 26 195 26 0 -0.33913865
Link 27 195 27 0 -0.83783590
Link 28 195 28 0 -0.01373246
Link 29 195 29 0 -0.00100754
Link 30 195 30 0 0.69558479
Link 31 195 31 0 -0.11735380
Link 32 195 32 0 -0.43914043
Link 33 195 33 0 1.18163941
Link 34 195 34 0 -0.01078365
Link 35 195 35 0 -0.40158945
Link 36 195 36 0 -0.75523052
Link 37 195 37 0 -0.03330021
Link 38 195 38 0 0.51921562
Link 39 195 39 0 0.06105045
Link 40 195 40 0 -0.10547380
Link 41 195 41 0 1.02072209
Link 42 195 42 0 0.24411194
Link 43 195 43 0 0.35580415
Link 44 195 44 0 -0.16149949
Link 45 195 45 0 0.69005368
Link 46 195 46 0 0.72426005
Link 47 195 47 0 -0.16958911
Link 48 195 48 0 0.93274151
Link 49 195 49 0 -0.73552459
Link 50 195 50 0 -0.25006314
Link 51 195 51 0 1.71377800
Link 52 195 52 0 -0.69900013
Link 53 195 53 0 -1.04632640
Link 54 195 54 0 -2.46202263
Link 55 195 55 0 -0.96874620
Link 56 195 56 0 -0.06828351
Link 57 195 57 0 0.31571507
Link 58 195 58 0 -0.10961565
Link 59 195 59 0 0.30623098
Link 60 195 60 0 -0.12020274
Link 61 195 61 0 0.09233501
Link 62 195 62 0 -0.17340510
Link 63 195 63 0 0.36367890
Link 64 195 64 0 -1.57314999
Link 65 195 65 0 -0.60929730
Link 66 195 66 0 -0.25194769
Link 67 195 67 0 -0.95978520
Link 68 195 68 0 0.03415454
Link 69 195 69 0 0.06768784
Link 70 195 70 0 0.72179351
Link 71 195 71 0 0.01125136
Link 72 195 72 0 -0.02416201
Link 73 195 73 0 -0.28200402
Link 74 195 74 0 1.86162896
Link 75 195 75 0 0.38927675
Link 76 195 76 0 -0.41715839
Link 77 195 77 0 -0.34647053
Link 78 195 78 0 0.56728326
Link 79 195 79 0 -0.41157133
Link 80 195 80 0 1.43523534
Link 81 195 81 0 -0.43112642
Link 82 195 82 0 0.32014461
Link 83 195 83 0 0.49330883
Link 84 195 84 0 0.99474751
Link 85 195 85 0 0.69697758
Link 86 195 86 0 -0.63069430
Link 87 195 87 0 0.10525395
Link 88 195 88 0 -1.13498757
Link 89 195 89 0 0.09360974
Link 90 195 90 0 0.18910223
Link 91 195 91 0 0.40605564
Link 92 195 92 0 0.91451571
Link 93 195 93 0 -0.29363621
Link 94 195 94 0 -0.20526652
Link 95 195 95 0 -0.24865055
Link 96 195 96 0 -0.25526758
Link 97 195 97 0 -0.07600485
Link 98 195 98 0 0.20982079
Link 99 195 99 0 -0.24074936
Link 100 195 100 0 -0.06130980
Link 101 195 101 0 0.48039300
Link 102 195 102 0 -0.25517171
Link 103 195 103 0 0.08204636
Link 104 195 104 0 -0.92596954
Link 105 195 105 0 1.09815148
Link 106 195 106 0 0.81033228
Link 107 195 107 0 -0.20521888
Link 108 195 108 0 0.77216923
Link 109 195 109 0 -0.30325379
Link 110 195 110 0 -0.39743465
Link 111 195 111 0 -0.19778293
Link 112 195 112 0 0.54338705
Link 113 195 113 0 -0.40970886
Link 114 195 114 0 1.40488627
Link 115 195 115 0 0.88656030
Link 116 195 116 0 0.36029982
Link 117 195 117 0 -0.21183323
Link 118 195 118 0 1.06536884
Link 119 195 119 0 1.13917226
Link 120 195 120 0 0.37726692
Link 121 195 121 0 -0.26317361
Link 122 195 122 0 0.38312870
Link 123 195 123 0 0.21901446
Link 124 195 124 0 -0.87153355
Link 125 195 125 0 0.20456764
Link 126 195 126 0 -0.25370650
Link 127 195 127 0 -0.13426298
Link 128 195 128 0 -1.04598688
Link 129 195 129 0 0.20572416
Link 130 195 130 0 0.15990588
Link 131 195 131 0 0.33013988
Link 132 195 132 0 1.20011102
Link 133 195 133 0 -0.27653166
Link 134 195 134 0 0.34203312
Link 135 195 135 0 -0.51600130
Link 136 195 136 0 0.07618701
Link 137 195 137 0 -0.27599143
Link 138 195 138 0 0.07639866
Link 139 195 139 0 0.46200390
Link 140 195 140 0 0.41619921
Link 141 195 141 0 -0.49801269
Link 142 195 142 0 0.39516628
Link 143 195 143 0 -0.42301032
Link 144 195 144 0 -0.56615569
Link 145 195 145 0 0.05215143
Link 146 195 146 0 0.35130688
Link 147 195 147 0 0.35348010
Link 148 195 148 0 0.44168702
Link 149 195 149 0 -0.12148114
Link 150 195 150 0 0.23752827
Link 151 195 151 0 -0.28190600
Link 152 195 152 0 -0.05913796
Link 153 195 153 0 0.87292631
Link 154 195 154 0 -0.13731160
Link 155 195 155 0 0.28612811
Link 156 195 156 0 0.75450013
Link 157 195 157 0 0.29464516
Link 158 195 158 0 0.89222908
Link 159 195 159 0 0.33262158
Link 160 195 160 0 -0.48822642
Link 161 195 161 0 0.00553715
Link 162 195 162 0 -0.84671129
Link 163 195 163 0 1.22039873
Link 164 195 164 0 0.06495017
Link 165 195 165 0 0.15109369
Link 166 195 166 0 0.93790430
Link 167 195 167 0 0.11772365
Link 168 195 168 0 0.01040767
Link 169 195 169 0 0.54989107
Link 170 195 170 0 0.07520089
Link 171 195 171 0 0.30033279
Link 172 195 172 0 1.02072106
Link 173 195 173 0 0.59235032
Link 174 195 174 0 0.23607235
Link 175 195 175 0 0.01194626
Link 176 195 176 0 -0.09180257
Link 177 195 177 0 0.26797276
Link 178 195 178 0 0.25965555
Link 179 195 179 0 -0.22732651
Link 180 195 180 0 0.14976365
Link 181 195 181 0 -0.79462854
Link 182 195 182 0 -0.42915282
Link 183 195 183 0 -0.42942115
Link 184 195 184 0 0.25121041
Link 185 195 185 0 0.80008158
Link 186 195 186 0 0.21115177
Link 187 195 187 0 -0.57320996
Link 188 195 188 0 -0.31666542
Link 189 195 189 0 -0.44064339
Link 190 195 190 0 -0.07452104
Link 191 195 191 0 0.79943596
Link 192 195 192 0 -0.46319052
Link 193 195 193 0 -0.76299517
Link 194 195 194 0 -0.37638148
Link 1 196 195 0 0.02454703
Link 2 196 196 0 0.35857023
Link 3 196 197 0 0.60042897
Link 4 196 198 0 0.42819137
Link 5 196 199 0 0.76548130
Link 6 196 200 0 0.40105531
Link 7 196 201 0 -1.73776926
Link 8 196 202 0 0.95912881
Link 9 196 203 0 -0.13226712
Link 10 196 204 0 0.20677688
Link 11 196 205 0 0.09858556
Link 12 196 206 0 0.50554259
Link 13 196 207 0 -0.24973062
Link 14 196 208 0 -0.25092859
Link 15 196 209 0 0.46030950
Link 16 196 210 0 -0.83111449
Link 17 196 211 0 -0.33884162
Link 18 196 212 0 0.27089009
Link 19 196 213 0 -0.49364756
Link 20 196 214 0 -0.65090231
Link 21 196 215 0 -0.04356422
Link 22 196 216 0 0.51546380
Link 23 196 217 0 -0.37436948
Link 24 196 218 0 0.28696462
Link 25 196 219 0 0.48128250
Link 26 196 220 0 0.58027684
Link 27 196 221 0 0.45250660
Link 28 196 222 0 -0.19776553
Link 29 196 223 0 -0.33576730
Link 30 196 224 0 -0.99704344
Link 31 196 225 0 -0.08614290
Link 32 196 226 0 0.06682028
Link 33 196 227 0 0.21618268
Link 34 196 228 0 -1.35260688
Link 35 196 229 0 -0.22343248
Link 36 196 230 0 0.17676113
Link 37 196 231 0 0.62771694
Link 38 196 232 0 0.13878275
Link 39 196 233 0 0.26440675
Link 40 196 234 0 0.16785054
Link 41 196 235 0 -0.32130467
Link 42 196 236 0 0.60915339
Link 43 196 237 0 -0.50271122
Link 44 196 238 0 -0.04653917
Link 45 196 239 0 1.24429739
Link 46 196 240 0 -0.25432632
Link 47 196 241 0 -0.49024065
Link 48 196 242 0 0.68574142
Link 49 196 243 0 0.89733818
Link 50 196 244 0 -0.41522567
Link 51 196 245 0 -0.77506288
Link 52 196 246 0 -0.22183887
Link 53 196 247 0 0.01925496
Link 54 196 248 0 -0.89081820
Link 55 196 249 0 -1.19571211
Link 56 196 250 0 0.93197580
Link 57 196 251 0 0.53238805
Link 58 196 252 0 0.15287360
Link 59 196 253 0 -0.19157286
Link 60 196 254 0 0.06934979
Link 61 196 255 0 -0.75779188
Link 62 196 256 0 0.88413464
Link 63 196 257 0 -0.10079914
Link 64 196 258 0 0.53438042
Link 65 196 259 0 -0.36455591
Link 66 196 260 0 -0.05787434
Link 67 196 261 0 0.13828394
Link 68 196 262 0 0.44354961
Link 69 196 263 0 0.63973159
Link 70 196 264 0 -0.66468415
Link 71 196 265 0 0.19201033
Link 72 196 266 0 0.16126292
Link 73 196 267 0 -0.74409121
Link 74 196 268 0 0.95499943
Link 75 196 269 0 0.07877293
Link 76 196 270 0 0.33008875
Link 77 196 271 0 -0.09674699
Link 78 196 272 0 -0.59123920
Link 79 196 273 0 1.23941731
Link 80 196 274 0 0.17700279
Link 81 196 275 0 0.52993230
Link 82 196 276 0 0.37460574
Link 83 196 277 0 -0.60971746
Link 84 196 278 0 -0.44985699
Link 85 196 279 0 0.15120768
Link 86 196 280 0 0.26516405
Link 87 196 281 0 0.10989977
Link 88 196 282 0 -1.48233998
Link 89 196 283 0 -0.33872746
Link 90 196 284 0 0.55408952
Link 91 196 285 0 -0.15488916
Link 92 196 286 0 0.53073963
Link 93 196 287 0 0.27790620
Link 94 196 288 0 -0.42137760
Link 95 196 289 0 0.81042405
Link 96 196 290 0 -0.38984117
Link 97 196 291 0 0.10507028
Link 98 196 292 0 1.17451131
Link 99 196 293 0 -0.83471174
Link 100 196 294 0 -1.41821790
Link 101 196 295 0 0.54209423
Link 102 196 296 0 -0.66170376
Link 103 196 297 0 -0.15446952
Link 104 196 298 0 0.35762212
Link 105 196 299 0 -0.19680689
Link 106 196 300 0 0.07548462
Link 107 196 301 0 0.80274722
Link 108 196 302 0 -0.22463604
Link 109 196 303 0 -0.56771513
Link 110 196 304 0 -0.13093793
Link 111 196 305 0 0.47545905
Link 112 196 306 0 1.83658717
Link 113 196 307 0 -0.41079719
Link 114 196 308 0 -1.21550827
Link 115 196 309 0 0.63040877
Link 116 196 310 0 0.58279297
Link 117 196 311 0 0.31204202
Link 118 196 312 0 1.60053046
Link 119 196 313 0 1.02635712
Link 120 196 314 0 -0.18878516
Link 121 196 315 0 -1.04472125
Link 122 196 316 0 -0.18296140
Link 123 196 317 0 1.01232072
Link 124 196 318 0 -0.45512762
Link 125 196 319 0 1.04164300
Link 126 196 320 0 -0.22710662
Link 127 196 321 0 1.29867334
Link 128 196 322 0 -0.70574394
Link 129 196 323 0 0.01821141
Link 130 196 324 0 0.73032543
Link 131 196 325 0 0.09654815
Link 132 196 326 0 0.55350111
Link 133 196 327 0 0.12783926
Link 134 196 328 0 0.61964961
Link 135 196 329 0 -0.07906592
Link 136 196 330 0 -0.23650417
Link 137 196 331 0 -0.42947980
Link 138 196 332 0 0.31156370
Link 139 196 333 0 1.15228325
Link 140 196 334 0 -1.74737801
Link 141 196 335 0 -0.39623492
Link 142 196 336 0 -0.09366634
Link 143 196 337 0 0.89889454
Link 144 196 338 0 0.50848350
Link 145 196 339 0 0.69099352
Link 146 196 340 0 0.50396661
Link 147 196 341 0 -0.23708744
Link 148 196 342 0 -0.73458963
Link 149 196 343 0 0.04520114
Link 150 196 344 0 0.17301515
Link 151 196 345 0 -0.28759097
Link 152 196 346 0 0.46445285
Link 153 196 347 0 0.27151812
Link 154 196 348 0 0.52461201
Link 155 196 349 0 0.96245621
Link 156 196 350 0 0.80686950
Link 157 196 351 0 0.66681046
Link 158 196 352 0 -0.29482437
Link 159 196 353 0 -0.62448390
Link 160 196 354 0 -0.42733141
Link 161 196 355 0 0.67864332
Link 162 196 356 0 0.48904439
Link 163 196 357 0 -0.17450084
Link 164 196 358 0 1.13595187
Link 165 196 359 0 0.41942766
Link 166 196 360 0 -0.01786168
Link 167 196 361 0 0.22562995
Link 168 196 362 0 -0.28738424
Link 169 196 363 0 -0.06149945
Link 170 196 364 0 -0.57485487
Link 171 196 365 0 -0.38480092
Link 172 196 366 0 0.40799937
Link 173 196 367 0 1.37297143
Link 174 196 368 0 -0.87173209
Link 175 196 369 0 -0.74575699
Link 176 196 370 0 -0.91711449
Link 177 196 371 0 -0.17476140
Link 178 196 372 0 -0.06649930
Link 179 196 373 0 -1.37413124
Link 180 196 374 0 0.46775633
Link 181 196 375 0 0.67410551
Link 182 196 376 0 1.37931656
Link 183 196 377 0 -0.17830284
Link 184 196 378 0 1.12612324
Link 185 196 379 0 -0.04063794
Link 186 196 380 0 -0.37573940
Link 187 196 381 0 -0.42157595
Link 188 196 382 0 0.30579476
Link 189 196 383 0 0.08990157
Link 190 196 384 0 -0.43585647
Link 191 196 385 0 -0.28407214
Link 192 196 386 0 0.48662191
Link 193 196 387 0 -0.62625232
Link 194 196 388 0 -0.06770706
Link 1 197 389 0 -0.52194417
Link 2 197 390 0 -0.38812720
Link 3 197 391 0 -0.70798614
Link 4 197 392 0 0.45239865
Link 5 197 393 0 -0.42579893
Link 6 197 394 0 0.88565551
Link 7 197 395 0 -0.04437417
Link 8 197 396 0 -0.48155068
Link 9 197 397 0 0.70293878
Link 10 197 398 0 0.54727101
Link 11 197 399 0 0.42409755
Link 12 197 400 0 0.55015685
Link 13 197 401 0 -1.62967197
Link 14 197 402 0 -0.02386086
Link 15 197 403 0 -0.20385256
Link 16 197 404 0 0.08457547
Link 17 197 405 0 -0.07968991
Link 18 197 406 0 -0.44412374
Link 19 197 407 0 0.39453115
Link 20 197 408 0 0.56274928
Link 21 197 409 0 1.72316308
Link 22 197 410 0 -0.71149007
Link 23 197 411 0 0.02039507
Link 24 197 412 0 0.27926418
Link 25 197 413 0 0.54339304
Link 26 197 414 0 0.18748973
Link 27 197 415 0 -0.17795886
Link 28 197 416 0 0.21189413
Link 29 197 417 0 -0.32747483
Link 30 197 418 0 0.28131127
Link 31 197 419 0 -0.11040041
Link 32 197 420 0 0.77247099
Link 33 197 421 0 -0.65855546
Link 34 197 422 0 0.30832769
Link 35 197 423 0 -0.31209769
Link 36 197 424 0 0.01148575
Link 37 197 425 0 -0.23368559
Link 38 197 426 0 0.02730522
Link 39 197 427 0 0.84079141
Link 40 197 428 0 0.34801872
Link 41 197 429 0 -0.26449972
Link 42 197 430 0 -0.40510401
Link 43 197 431 0 0.32854552
Link 44 197 432 0 -0.00204586
Link 45 197 433 0 0.14324062
Link 46 197 434 0 0.04849987
Link 47 197 435 0 -0.02632564
Link 48 197 436 0 -0.10461625
Link 49 197 437 0 -0.28600697
Link 50 197 438 0 0.23262757
Link 51 197 439 0 -0.68691737
Link 52 197 440 0 -0.13821569
Link 53 197 441 0 -0.57609792
Link 54 197 442 0 0.69610570
Link 55 197 443 0 -0.37918219
Link 56 197 444 0 0.95822539
Link 57 197 445 0 0.89973172
Link 58 197 446 0 -0.08040963
Link 59 197 447 0 0.16021743
Link 60 197 448 0 -0.24152952
Link 61 197 449 0 1.18491289
Link 62 197 450 0 -0.98925310
Link 63 197 451 0 -0.42522778
Link 64 197 452 0 -0.43086177
Link 65 197 453 0 0.14397374
Link 66 197 454 0 -0.16918917
Link 67 197 455 0 -0.53952114
Link 68 197 456 0 -1.02501611
Link 69 197 457 0 0.34559991
Link 70 197 458 0 0.76227064
Link 71 197 459 0 -0.03222925
Link 72 197 460 0 -0.10494705
Link 73 197 461 0 0.96099429
Link 74 197 462 0 0.48871588
Link 75 197 463 0 0.26728082
Link 76 197 464 0 -0.37484975
Link 77 197 465 0 1.02544487
Link 78 197 466 0 0.00145077
Link 79 197 467 0 -0.23962361
Link 80 197 468 0 0.66125501
Link 81 197 469 0 0.80371644
Link 82 197 470 0 -1.57589473
Link 83 197 471 0 -0.46245880
Link 84 197 472 0 -0.40324496
Link 85 197 473 0 -0.00116761
Link 86 197 474 0 0.02620836
Link 87 197 475 0 -0.44731549
Link 88 197 476 0 0.12766840
Link 89 197 477 0 -0.18330445
Link 90 197 478 0 0.20047635
Link 91 197 479 0 0.38620205
Link 92 197 480 0 -0.26461886
Link 93 197 481 0 -0.15800649
Link 94 197 482 0 -0.14393326
Link 95 197 483 0 0.03353907
Link 96 197 484 0 0.31477709
Link 97 197 485 0 0.01964761
Link 98 197 486 0 -0.29366297
Link 99 197 487 0 -1.05731449
Link 100 197 488 0 0.11879968
Link 101 197 489 0 -0.03442551
Link 102 197 490 0 -0.07736179
Link 103 197 491 0 0.58218091
Link 104 197 492 0 0.03349545
Link 105 197 493 0 -0.10490032
Link 106 197 494 0 0.29387095
Link 107 197 495 0 0.09302108
Link 108 197 496 0 -2.17198020
Link 109 197 497 0 -0.06700915
Link 110 197 498 0 -0.82280182
Link 111 197 499 0 0.53609549
Link 112 197 500 0 0.10829841
Link 113 197 501 0 0.32608509
Link 114 197 502 0 -0.99268008
Link 115 197 503 0 -0.33957044
Link 116 197 504 0 -0.17463663
Link 117 197 505 0 0.38553545
Link 118 197 506 0 0.04409912
Link 119 197 507 0 -0.78961449
Link 120 197 508 0 -0.05908214
Link 121 197 509 0 -0.91601276
Link 122 197 510 0 1.24281926
Link 123 197 511 0 -0.17146156
Link 124 197 512 0 0.07001837
Link 125 197 513 0 1.44598013
Link 126 197 514 0 -0.50921107
Link 127 197 515 0 1.05141024
Link 128 197 516 0 0.41236173
Link 129 197 517 0 -0.50120259
Link 130 197 518 0 0.24795168
Link 131 197 519 0 0.25234014
Link 132 197 520 0 -1.82399528
Link 133 197 521 0 -0.63610764
Link 134 197 522 0 -0.89167769
Link 135 197 523 0 0.41248958
Link 136 197 524 0 -0.32648188
Link 137 197 525 0 0.28338373
Link 138 197 526 0 0.66238275
Link 139 197 527 0 -0.52223466
Link 140 197 528 0 0.31877232
Link 141 197 529 0 -0.78404573
Link 142 197 530 0 0.13374355
Link 143 197 531 0 0.49341659
Link 144 197 532 0 1.15979828
Link 145 197 533 0 -0.45864330
Link 146 197 534 0 -0.74196854
Link 147 197 535 0 -0.10482961
Link 148 197 536 0 -0.54453402
Link 149 197 537 0 0.15533382
Link 150 197 538 0 0.42580492
Link 151 197 539 0 1.52501136
Link 152 197 540 0 0.57056538
Link 153 197 541 0 0.02456222
Link 154 197 542 0 -0.02446588
Link 155 197 543 0 0.16048952
Link 156 197 544 0 -0.20202389
Link 157 197 545 0 0.05648884
Link 158 197 546 0 0.13006801
Link 159 197 547 0 -1.30670691
Link 160 197 548 0 1.17994256
Link 161 197 549 0 0.50864017
Link 162 197 550 0 0.37657311
Link 163 197 551 0 -0.24928032
Link 164 197 552 0 0.36815590
Link 165 197 553 0 -0.14488098
Link 166 197 554 0 0.33288138
Link 167 197 555 0 0.72473573
Link 168 197 556 0 -0.31926983
Link 169 197 557 0 0.03366868
Link 170 197 558 0 -1.15294604
Link 171 197 559 0 0.01955503
Link 172 197 560 0 -0.50457098
Link 173 197 561 0 -0.61565545
Link 174 197 562 0 -0.34507928
Link 175 197 563 0 1.11465697
Link 176 197 564 0 0.74594513
Link 177 197 565 0 0.50227088
Link 178 197 566 0 0.02770405
Link 179 197 567 0 0.76388283
Link 180 197 568 0 0.02236855
Link 181 197 569 0 -1.11590587
Link 182 197 570 0 -0.18510505
Link 183 197 571 0 -0.21679765
Link 184 197 572 0 -0.46793617
Link 185 197 573 0 -0.55829760
Link 186 197 574 0 -0.15382344
Link 187 197 575 0 -0.75711692
Link 188 197 576 0 -0.04980100
Link 189 197 577 0 -0.06974303
Link 190 197 578 0 -0.51117185
Link 191 197 579 0 -0.23404028
Link 192 197 580 0 0.15666376
Link 193 197 581 0 -0.58137521
Link 194 197 582 0 0.36651425
Link 1 198 583 0 -0.37860182
Link 2 198 584 0 -0.82352008
Link 3 198 585 0 -0.18240915
Link 4 198 586 0 0.19179533
Link 5 198 587 0 -0.32642850
Link 6 198 588 0 -0.13330105
Link 7 198 589 0 -0.38526530
Link 8 198 590 0 -1.76666347
Link 9 198 591 0 -0.39550883
Link 10 198 592 0 -0.13497810
Link 11 198 593 0 -0.34521941
Link 12 198 594 0 0.12117560
Link 13 198 595 0 -0.14785902
Link 14 198 596 0 0.12026819
Link 15 198 597 0 0.49149225
Link 16 198 598 0 0.31579177
Link 17 198 599 0 1.31094069
Link 18 198 600 0 -0.04754298
Link 19 198 601 0 0.07108659
Link 20 198 602 0 0.03250870
Link 21 198 603 0 -0.31195091
Link 22 198 604 0 -0.82091867
Link 23 198 605 0 -0.06203270
Link 24 198 606 0 -0.44335793
Link 25 198 607 0 0.40807048
Link 26 198 608 0 -0.05696764
Link 27 198 609 0 0.02028698
Link 28 198 610 0 0.01166197
Link 29 198 611 0 -1.49339618
Link 30 198 612 0 -0.12965825
Link 31 198 613 0 1.71728412
Link 32 198 614 0 -1.23545654
Link 33 198 615 0 -0.72392660
Link 34 198 616 0 -0.95911549
Link 35 198 617 0 -0.54201995
Link 36 198 618 0 0.61168483
Link 37 198 619 0 -0.12458989
Link 38 198 620 0 -0.02249339
Link 39 198 621 0 0.33570037
Link 40 198 622 0 -0.26407088
Link 41 198 623 0 -0.06059414
Link 42 198 624 0 -0.33248311
Link 43 198 625 0 0.13441859
Link 44 198 626 0 0.16887790
Link 45 198 627 0 0.24004148
Link 46 198 628 0 -1.23254698
Link 47 198 629 0 0.62318550
Link 48 198 630 0 0.10701481
Link 49 198 631 0 -0.50796288
Link 50 198 632 0 0.10860258
Link 51 198 633 0 -0.21366250
Link 52 198 634 0 -0.24078084
Link 53 198 635 0 1.25081730
Link 54 198 636 0 -0.24198655
Link 55 198 637 0 -0.16635470
Link 56 198 638 0 -0.27181818
Link 57 198 639 0 -0.31224662
Link 58 198 640 0 -0.32034892
Link 59 198 641 0 -1.41284192
Link 60 198 642 0 -0.75595439
Link 61 198 643 0 0.57900935
Link 62 198 644 0 -0.60072750
Link 63 198 645 0 -0.39435671
Link 64 198 646 0 0.50473635
Link 65 198 647 0 1.16503400
Link 66 198 648 0 0.38557414
Link 67 198 649 0 0.79457700
Link 68 198 650 0 -0.30345029
Link 69 198 651 0 -0.14485308
Link 70 198 652 0 0.41088785
Link 71 198 653 0 0.08889988
Link 72 198 654 0 -0.69728270
Link 73 198 655 0 0.38138075
Link 74 198 656 0 0.49272884
Link 75 198 657 0 1.58245114
Link 76 198 658 0 -0.19445054
Link 77 198 659 0 0.46282860
Link 78 198 660 0 0.08442501
Link 79 198 661 0 0.08548250
Link 80 198 662 0 0.13319337
Link 81 198 663 0 -0.40507452
Link 82 198 664 0 -0.29862650
Link 83 198 665 0 -1.20854056
Link 84 198 666 0 0.04800449
Link 85 198 667 0 0.56594481
Link 86 198 668 0 -0.53537631
Link 87 198 669 0 -0.55053756
Link 88 198 670 0 1.41541246
Link 89 198 671 0 0.74452796
Link 90 198 672 0 -0.66291164
Link 91 198 673 0 0.15006669
Link 92 198 674 0 -0.08924113
Link 93 198 675 0 -0.87197542
Link 94 198 676 0 -0.06643130
Link 95 198 677 0 0.32838451
Link 96 198 678 0 0.48002879
Link 97 198 679 0 -0.18956148
Link 98 198 680 0 0.13819515
Link 99 198 681 0 -0.18960369
Link 100 198 682 0 0.23115044
Link 101 198 683 0 -0.19595284
Link 102 198 684 0 -0.12057916
Link 103 198 685 0 0.58565979
Link 104 198 686 0 -0.08002284
Link 105 198 687 0 -0.22381052
Link 106 198 688 0 0.16743419
Link 107 198 689 0 -0.06169808
Link 108 198 690 0 -0.28221808
Link 109 198 691 0 -0.26797508
Link 110 198 692 0 0.95493887
Link 111 198 693 0 0.03629889
Link 112 198 694 0 -0.21167826
Link 113 198 695 0 -1.13337429
Link 114 198 696 0 2.54321990
Link 115 198 697 0 0.11606897
Link 116 198 698 0 -0.35378312
Link 117 198 699 0 -0.73285452
Link 118 198 700 0 -0.57944674
Link 119 198 701 0 -0.89947033
Link 120 198 702 0 -0.84013007
Link 121 198 703 0 1.07162724
Link 122 198 704 0 -0.56226127
Link 123 198 705 0 -1.59065798
Link 124 198 706 0 0.50570551
Link 125 198 707 0 -0.04274853
Link 126 198 708 0 1.15502092
Link 127 198 709 0 -0.15812574
Link 128 198 710 0 0.66185319
Link 129 198 711 0 0.55523276
Link 130 198 712 0 -0.14426146
Link 131 198 713 0 -0.83699647
Link 132 198 714 0 -0.07715175
Link 133 198 715 0 0.56695667
Link 134 198 716 0 0.51311843
Link 135 198 717 0 -0.35330151
Link 136 198 718 0 0.94438593
Link 137 198 719 0 0.55960209
Link 138 198 720 0 -0.02177710
Link 139 198 721 0 -0.13572373
Link 140 198 722 0 0.35469379
Link 141 198 723 0 0.14691052
Link 142 198 724 0 0.07449486
Link 143 198 725 0 0.92215689
Link 144 198 726 0 -0.18113051
Link 145 198 727 0 0.87443606
Link 146 198 728 0 -0.16388047
Link 147 198 729 0 -0.52886717
Link 148 198 730 0 -0.40894016
Link 149 198 731 0 0.70173251
Link 150 198 732 0 -0.64904924
Link 151 198 733 0 0.49206219
Link 152 198 734 0 0.45975935
Link 153 198 735 0 0.14680855
Link 154 198 736 0 0.34739319
Link 155 198 737 0 -0.11493822
Link 156 198 738 0 0.30071338
Link 157 198 739 0 0.28111348
Link 158 198 740 0 1.23334638
Link 159 198 741 0 -1.68974748
Link 160 198 742 0 0.47853760
Link 161 198 743 0 -0.56903678
Link 162 198 744 0 -1.89641046
Link 163 198 745 0 0.00695381
Link 164 198 746 0 -0.51136133
Link 165 198 747 0 0.20244374
Link 166 198 748 0 -0.97088621
Link 167 198 749 0 1.52359862
Link 168 198 750 0 -0.22138000
Link 169 198 751 0 0.24179160
Link 170 198 752 0 0.95471521
Link 171 198 753 0 -0.07214145
Link 172 198 754 0 -1.30696968
Link 173 198 755 0 0.49000446
Link 174 198 756 0 0.68421840
Link 175 198 757 0 -0.13894427
Link 176 198 758 0 0.03438922
Link 177 198 759 0 -0.01857753
Link 178 198 760 0 -0.02280505
Link 179 198 761 0 0.34479349
Link 180 198 762 0 -0.75986067
Link 181 198 763 0 1.20276377
Link 182 198 764 0 -0.50964368
Link 183 198 765 0 -0.31687027
Link 184 198 766 0 -0.13917246
Link 185 198 767 0 0.46764795
Link 186 198 768 0 -0.03164318
Link 187 198 769 0 0.87114143
Link 188 198 770 0 -1.19851268
Link 189 198 771 0 0.17997361
Link 190 198 772 0 -0.10189498
Link 191 198 773 0 0.45098510
Link 192 198 774 0 -0.30718152
Link 193 198 775 0 1.01784141
Link 194 198 776 0 -0.88006093
Link 1 199 777 0 0.25188747
Link 2 199 778 0 -1.22237029
Link 3 199 779 0 -1.35907627
Link 4 199 780 0 -0.00062166
Link 5 199 781 0 -0.04898675
Link 6 199 782 0 -0.25817395
Link 7 199 783 0 0.76623512
Link 8 199 784 0 -0.55127925
Link 9 199 785 0 0.93524825
Link 10 199 786 0 -0.26615733
Link 11 199 787 0 -0.33734635
Link 12 199 788 0 -0.48048593
Link 13 199 789 0 -0.93060231
Link 14 199 790 0 -0.46533723
Link 15 199 791 0 -0.21775325
Link 16 199 792 0 -0.07558014
Link 17 199 793 0 0.47184487
Link 18 199 794 0 -2.29415078
Link 19 199 795 0 0.15062701
Link 20 199 796 0 -0.48459218
Link 21 199 797 0 0.30596360
Link 22 199 798 0 -0.85987262
Link 23 199 799 0 2.74514998
Link 24 199 800 0 0.08602309
Link 25 199 801 0 -1.12159902
Link 26 199 802 0 -0.04043270
Link 27 199 803 0 0.19694368
Link 28 199 804 0 -0.26291489
Link 29 199 805 0 -1.57669803
Link 30 199 806 0 -0.09835515
Link 31 199 807 0 -0.25851944
Link 32 199 808 0 -0.14626263
Link 33 199 809 0 -0.04570804
Link 34 199 810 0 1.29107626
Link 35 199 811 0 1.34318284
Link 36 199 812 0 0.04271547
Link 37 199 813 0 -0.19730079
Link 38 199 814 0 -0.30029441
Link 39 199 815 0 -0.81603796
Link 40 199 816 0 -0.43921056
Link 41 199 817 0 -0.43310138
Link 42 199 818 0 0.04145022
Link 43 199 819 0 0.66650765
Link 45 199 821 0 0.93964129
Link 46 199 822 0 -0.36705150
Link 47 199 823 0 -0.90359348
Link 48 199 824 0 -0.22162354
Link 49 199 825 0 0.02030195
Link 50 199 826 0 -0.02833247
Link 51 199 827 0 1.25034610
Link 52 199 828 0 -0.62231872
Link 53 199 829 0 0.30083673
Link 54 199 830 0 -0.88514648
Link 55 199 831 0 0.50515588
Link 56 199 832 0 -0.54438411
Link 57 199 833 0 0.08306057
Link 58 199 834 0 0.70723006
Link 59 199 835 0 -0.50423671
Link 60 199 836 0 0.42618229
Link 61 199 837 0 0.85372699
Link 62 199 838 0 0.34191172
Link 63 199 839 0 -0.00402595
Link 64 199 840 0 0.71479580
Link 65 199 841 0 -0.92409589
Link 66 199 842 0 -0.14626064
Link 67 199 843 0 1.00366892
Link 68 199 844 0 -0.43527660
Link 69 199 845 0 0.23094961
Link 70 199 846 0 0.36749192
Link 71 199 847 0 -0.11737287
Link 72 199 848 0 -0.66601773
Link 73 199 849 0 0.13433510
Link 74 199 850 0 -0.11020231
Link 75 199 851 0 0.67842509
Link 76 199 852 0 1.36882975
Link 77 199 853 0 0.48707061
Link 78 199 854 0 0.05640063
Link 79 199 855 0 -0.27409402
Link 80 199 856 0 -0.03886621
Link 81 199 857 0 0.36426227
Link 82 199 858 0 -0.42249232
Link 83 199 859 0 0.39409801
Link 84 199 860 0 -0.41711892
Link 85 199 861 0 -0.04004175
Link 86 199 862 0 0.03636814
Link 87 199 863 0 0.23749912
Link 88 199 864 0 -0.09444704
Link 89 199 865 0 0.58817363
Link 90 199 866 0 0.65594415
Link 91 199 867 0 0.17956135
Link 92 199 868 0 -0.20183232
Link 93 199 869 0 0.23441439
Link 94 199 870 0 0.24633730
Link 95 199 871 0 1.75727660
Link 96 199 872 0 -0.91925251
Link 97 199 873 0 0.22494482
Link 98 199 874 0 -0.41269169
Link 99 199 875 0 -0.66202472
Link 100 199 876 0 0.46732829
Link 101 199 877 0 -0.72262839
Link 102 199 878 0 0.22680440
Link 103 199 879 0 -0.68656623
Link 104 199 880 0 -0.70552194
Link 105 199 881 0 0.19341960
Link 106 199 882 0 0.87795235
Link 107 199 883 0 -0.17630738
Link 108 199 884 0 0.89435587
Link 109 199 885 0 -0.21308466
Link 110 199 886 0 -0.26587053
Link 111 199 887 0 0.19206440
Link 112 199 888 0 -0.35461099
Link 113 199 889 0 -0.18795335
Link 114 199 890 0 0.92935306
Link 115 199 891 0 0.42895702
Link 116 199 892 0 -0.35845204
Link 117 199 893 0 -0.37350100
Link 118 199 894 0 0.11799902
Link 119 199 895 0 0.03995454
Link 120 199 896 0 0.36780596
Link 121 199 897 0 -0.71103934
Link 122 199 898 0 -0.30767053
Link 123 199 899 0 -0.27207821
Link 124 199 900 0 -1.03048429
Link 125 199 901 0 -0.47929315
Link 126 199 902 0 2.28471521
Link 127 199 903 0 -0.22346564
Link 128 199 904 0 -0.43019218
Link 129 199 905 0 -0.16954138
Link 130 199 906 0 -1.37869256
Link 131 199 907 0 -1.19817244
Link 132 199 908 0 -0.02810433
Link 133 199 909 0 0.38959506
Link 134 199 910 0 -0.66594457
Link 135 199 911 0 -0.03894467
Link 136 199 912 0 0.11566213
Link 137 199 913 0 -0.63265676
Link 138 199 914 0 -0.07938686
Link 139 199 915 0 0.62307773
Link 140 199 916 0 0.68749942
Link 141 199 917 0 0.40181012
Link 142 199 918 0 -1.70421233
Link 143 199 919 0 1.34510532
Link 144 199 920 0 -0.90301717
Link 145 199 921 0 0.46206535
Link 146 199 922 0 -0.38806285
Link 147 199 923 0 -1.08328228
Link 148 199 924 0 -0.32781478
Link 149 199 925 0 0.06875443
Link 150 199 926 0 0.12069114
Link 151 199 927 0 0.20550687
Link 152 199 928 0 -0.89950518
Link 153 199 929 0 -0.13182011
Link 154 199 930 0 -0.33380119
Link 155 199 931 0 0.71593051
Link 156 199 932 0 -0.49895121
Link 157 199 933 0 -0.14765489
Link 158 199 934 0 0.02923605
Link 159 199 935 0 -0.70591044
Link 160 199 936 0 -0.07456257
Link 161 199 937 0 0.83968267
Link 162 199 938 0 0.28817637
Link 163 199 939 0 0.27752445
Link 164 199 940 0 0.08520629
Link 165 199 941 0 -0.13667220
Link 166 199 942 0 0.00461459
Link 167 199 943 0 0.12883321
Link 168 199 944 0 -0.24637443
Link 169 199 945 0 0.09021861
Link 170 199 946 0 0.18829587
Link 171 199 947 0 0.32624350
Link 172 199 948 0 -1.35728584
Link 173 199 949 0 -0.78978420
Link 174 199 950 0 0.23540536
Link 175 199 951 0 -1.06860818
Link 176 199 952 0 -0.47835916
Link 177 199 953 0 0.04101242
Link 178 199 954 0 0.07388373
Link 179 199 955 0 0.12121982
Link 180 199 956 0 -0.27864239
Link 181 199 957 0 0.01391590
Link 182 199 958 0 0.26763386
Link 183 199 959 0 -0.01786044
Link 184 199 960 0 -0.33644784
Link 185 199 961 0 0.05939944
Link 186 199 962 0 -0.40951382
Link 187 199 963 0 -0.15387781
Link 188 199 964 0 -0.38137074
Link 189 199 965 0 -0.29515845
Link 190 199 966 0 -0.54265102
Link 191 199 967 0 0.31553003
Link 192 199 968 0 0.12553286
Link 193 199 969 0 0.08485012
Link 194 199 970 0 -0.32629968
Link 1 200 971 0 0.66533175
Link 2 200 972 0 0.11646276
Link 3 200 973 0 -0.27579838
Link 4 200 974 0 -0.26479423
Link 5 200 975 0 -0.19275993
Link 6 200 976 0 -0.70858490
Link 7 200 977 0 -0.00349412
Link 8 200 978 0 -1.14930123
Link 9 200 979 0 0.18832233
Link 10 200 980 0 -0.37945565
Link 11 200 981 0 0.56735935
Link 12 200 982 0 -0.17409353
Link 13 200 983 0 0.24715217
Link 14 200 984 0 0.03828922
Link 15 200 985 0 0.11478469
Link 16 200 986 0 0.55655631
Link 17 200 987 0 0.06734050
Link 18 200 988 0 -0.98785830
Link 19 200 989 0 0.36716614
Link 20 200 990 0 -0.59597452
Link 21 200 991 0 0.00016331
Link 22 200 992 0 -0.03054423
Link 23 200 993 0 0.42470235
Link 24 200 994 0 -1.17819876
Link 25 200 995 0 -0.33972459
Link 26 200 996 0 -0.49891231
Link 27 200 997 0 0.69693181
Link 28 200 998 0 0.18146936
Link 29 200 999 0 -0.04451256
Link 30 200 1000 0 0.09141927
Link 31 200 1001 0 0.38558540
Link 32 200 1002 0 -0.58211437
Link 33 200 1003 0 0.05852237
Link 34 200 1004 0 0.21244955
Link 35 200 1005 0 0.29601992
Link 36 200 1006 0 -0.49659349
Link 37 200 1007 0 0.28094326
Link 38 200 1008 0 1.33120165
Link 39 200 1009 0 0.43555002
Link 40 200 1010 0 0.15894731
Link 41 200 1011 0 -0.62664543
Link 42 200 1012 0 -0.28783434
Link 43 200 1013 0 0.03708696
Link 44 200 1014 0 0.02335797
Link 45 200 1015 0 -1.01300393
Link 46 200 1016 0 0.55182161
Link 47 200 1017 0 0.19965187
Link 48 200 1018 0 -0.54890681
Link 49 200 1019 0 0.10256781
Link 50 200 1020 0 0.34108905
Link 51 200 1021 0 -0.00407285
Link 52 200 1022 0 0.28834029
Link 53 200 1023 0 0.24957951
Link 54 200 1024 0 -0.71002998
Link 55 200 1025 0 0.16193606
Link 56 200 1026 0 0.25098670
Link 57 200 1027 0 -0.03640945
Link 58 200 1028 0 0.25299070
Link 59 200 1029 0 -0.76624771
Link 60 200 1030 0 0.22274627
Link 61 200 1031 0 0.46494807
Link 62 200 1032 0 -0.05902877
Link 63 200 1033 0 -0.27775353
Link 64 200 1034 0 0.52087289
Link 65 200 1035 0 -0.53213465
Link 66 200 1036 0 -0.04436157
Link 67 200 1037 0 0.36274298
Link 68 200 1038 0 0.10959176
Link 69 200 1039 0 -0.31274431
Link 70 200 1040 0 -0.14368503
Link 71 200 1041 0 0.25084517
Link 72 200 1042 0 0.41153250
Link 73 200 1043 0 0.08656400
Link 74 200 1044 0 -0.20270748
Link 75 200 1045 0 0.56281038
Link 76 200 1046 0 -0.84788114
Link 77 200 1047 0 0.35386597
Link 78 200 1048 0 0.18058192
Link 79 200 1049 0 0.41527109
Link 80 200 1050 0 0.29353281
Link 81 200 1051 0 0.04790940
Link 82 200 1052 0 -0.80860522
Link 83 200 1053 0 -0.96843986
Link 84 200 1054 0 0.28837342
Link 85 200 1055 0 -0.73979078
Link 86 200 1056 0 0.16116851
Link 87 200 1057 0 -0.10263824
Link 88 200 1058 0 -0.24089498
Link 89 200 1059 0 1.37384172
Link 90 200 1060 0 0.02876350
Link 91 200 1061 0 -0.18135837
Link 92 200 1062 0 0.16142909
Link 93 200 1063 0 0.59585491
Link 94 200 1064 0 -0.11129283
Link 95 200 1065 0 0.18075988
Link 96 200 1066 0 0.97522435
Link 97 200 1067 0 0.52284560
Link 98 200 1068 0 0.27221272
Link 99 200 1069 0 -0.37011189
Link 100 200 1070 0 -0.09434454
Link 101 200 1071 0 0.33962402
Link 102 200 1072 0 -0.20346543
Link 103 200 1073 0 0.30835895
Link 104 200 1074 0 0.07502722
Link 105 200 1075 0 0.32189007
Link 106 200 1076 0 0.20564983
Link 107 200 1077 0 -0.53781540
Link 108 200 1078 0 -1.43855808
Link 109 200 1079 0 0.01347596
Link 110 200 1080 0 -0.70636604
Link 111 200 1081 0 0.03432959
Link 112 200 1082 0 1.58177474
Link 113 200 1083 0 1.60871395
Link 114 200 1084 0 -0.27603461
Link 115 200 1085 0 -0.02938195
Link 116 200 1086 0 -0.04136349
Link 117 200 1087 0 -0.52196271
Link 118 200 1088 0 1.71910304
Link 119 200 1089 0 0.58980547
Link 120 200 1090 0 0.58016363
Link 121 200 1091 0 -0.21592227
Link 122 200 1092 0 -0.20467906
Link 123 200 1093 0 0.06321326
Link 124 200 1094 0 -0.29632582
Link 125 200 1095 0 -0.86276166
Link 126 200 1096 0 -0.61364504
Link 127 200 1097 0 0.81130547
Link 128 200 1098 0 -0.16549836
Link 129 200 1099 0 0.04228566
Link 130 200 1100 0 -0.26522801
Link 131 200 1101 0 -0.18220454
Link 132 200 1102 0 0.72729116
Link 133 200 1103 0 -0.38099452
Link 134 200 1104 0 -0.13012998
Link 135 200 1105 0 0.62569563
Link 136 200 1106 0 -0.23640764
Link 137 200 1107 0 -1.81043047
Link 138 200 1108 0 0.49224757
Link 139 200 1109 0 0.75539847
Link 140 200 1110 0 0.17269664
Link 141 200 1111 0 0.32518961
Link 142 200 1112 0 -0.26893256
Link 143 200 1113 0 1.16644983
Link 144 200 1114 0 -0.37904499
Link 145 200 1115 0 -0.11508498
Link 146 200 1116 0 0.70561104
Link 147 200 1117 0 -1.78632988
Link 148 200 1118 0 -0.06196842
Link 149 200 1119 0 -0.39357302
Link 150 200 1120 0 -0.13767462
Link 151 200 1121 0 -0.91136738
Link 152 200 1122 0 0.84520804
Link 153 200 1123 0 0.29500938
Link 154 200 1124 0 0.44115570
Link 155 200 1125 0 1.32173684
Link 156 200 1126 0 0.46113399
Link 157 200 1127 0 -0.02848755
Link 158 200 1128 0 0.14900261
Link 159 200 1129 0 0.15168052
Link 160 200 1130 0 0.23392539
Link 161 200 1131 0 1.71641157
Link 162 200 1132 0 0.85630390
Link 163 200 1133 0 0.69582130
Link 164 200 1134 0 -0.59249028
Link 165 200 1135 0 -0.04478305
Link 166 200 1136 0 -0.18921697
Link 167 200 1137 0 -0.32910407
Link 168 200 1138 0 -0.65137049
Link 169 200 1139 0 0.09718997
Link 170 200 1140 0 0.21958143
Link 171 200 1141 0 -0.04274930
Link 172 200 1142 0 0.16919760
Link 173 200 1143 0 0.61993744
Link 174 200 1144 0 0.86570241
Link 175 200 1145 0 0.10941025
Link 176 200 1146 0 0.44400985
Link 177 200 1147 0 -0.67140641
Link 178 200 1148 0 -0.47034275
Link 179 200 1149 0 -0.38911839
Link 180 200 1150 0 -0.32621455
Link 181 200 1151 0 -0.88679580
Link 182 200 1152 0 0.27975443
Link 183 200 1153 0 -0.61608348
Link 184 200 1154 0 0.61304018
Link 185 200 1155 0 0.07504141
Link 186 200 1156 0 0.85926187
Link 187 200 1157 0 0.16963856
Link 188 200 1158 0 -0.24567337
Link 189 200 1159 0 -0.76044035
Link 190 200 1160 0 -1.11245826
Link 191 200 1161 0 2.16844707
Link 192 200 1162 0 -0.60757765
Link 193 200 1163 0 0.32310508
Link 194 200 1164 0 0.05473039
Link 1 201 1165 0 -0.47647063
Link 2 201 1166 0 -0.52773098
Link 3 201 1167 0 -0.92056151
Link 4 201 1168 0 -0.51197881
Link 5 201 1169 0 0.72164269
Link 6 201 1170 0 -0.27716492
Link 7 201 1171 0 -0.44231515
Link 8 201 1172 0 0.47743911
Link 9 201 1173 0 -0.09303659
Link 10 201 1174 0 -0.18055255
Link 11 201 1175 0 -0.67332261
Link 12 201 1176 0 -0.83337310
Link 13 201 1177 0 0.33498149
Link 14 201 1178 0 -0.55391548
Link 15 201 1179 0 0.10828892
Link 16 201 1180 0 0.57790091
Link 17 201 1181 0 -0.76159269
Link 18 201 1182 0 -0.27016872
Link 19 201 1183 0 -0.09447435
Link 20 201 1184 0 -0.39053437
Link 21 201 1185 0 0.06924097
Link 22 201 1186 0 0.35926810
Link 23 201 1187 0 0.24716834
Link 24 201 1188 0 0.13566173
Link 25 201 1189 0 -0.32749128
Link 26 201 1190 0 -0.49003322
Link 27 201 1191 0 -0.33161656
Link 28 201 1192 0 -0.20135068
Link 29 201 1193 0 0.04478741
Link 30 201 1194 0 0.55457282
Link 31 201 1195 0 0.40730650
Link 32 201 1196 0 0.55797284
Link 33 201 1197 0 0.01804201
Link 34 201 1198 0 0.29445844
Link 35 201 1199 0 1.03086066
Link 36 201 1200 0 0.04996807
Link 37 201 1201 0 -0.12313871
Link 38 201 1202 0 0.40076056
Link 39 201 1203 0 0.07642800
Link 40 201 1204 0 -1.62197464
Link 41 201 1205 0 -0.81111809
Link 42 201 1206 0 0.29594550
Link 43 201 1207 0 0.02353078
Link 44 201 1208 0 0.21401554
Link 45 201 1209 0 0.07887634
Link 46 201 1210 0 0.91652168
Link 47 201 1211 0 -0.14605457
Link 48 201 1212 0 0.57474856
Link 49 201 1213 0 0.53655854
Link 50 201 1214 0 -0.36011845
Link 51 201 1215 0 -0.19983960
Link 52 201 1216 0 0.02566973
Link 53 201 1217 0 -0.15632643
Link 54 201 1218 0 0.76021214
Link 55 201 1219 0 0.17787090
Link 56 201 1220 0 -0.48096289
Link 57 201 1221 0 1.10999725
Link 58 201 1222 0 -0.61704899
Link 59 201 1223 0 1.76718321
Link 60 201 1224 0 0.06619796
Link 61 201 1225 0 -0.29115369
Link 62 201 1226 0 0.01874045
Link 63 201 1227 0 1.74523952
Link 64 201 1228 0 0.02824243
Link 65 201 1229 0 0.59496047
Link 66 201 1230 0 -0.22664200
Link 67 201 1231 0 -0.39848070
Link 68 201 1232 0 -0.19733571
Link 69 201 1233 0 -0.37242667
Link 70 201 1234 0 1.52270668
Link 71 201 1235 0 -1.00485627
Link 72 201 1236 0 -0.48640738
Link 73 201 1237 0 0.16112798
Link 74 201 1238 0 0.12452358
Link 75 201 1239 0 0.22815824
Link 76 201 1240 0 0.09886471
Link 77 201 1241 0 -0.34030113
Link 78 201 1242 0 -0.22423066
Link 79 201 1243 0 -0.23893297
Link 80 201 1244 0 -0.01458161
Link 81 201 1245 0 -0.65344722
Link 82 201 1246 0 -0.04138668
Link 83 201 1247 0 0.71010247
Link 84 201 1248 0 0.14512839
Link 85 201 1249 0 -0.09050157
Link 86 201 1250 0 -0.43502190
Link 87 201 1251 0 -1.10295908
Link 88 201 1252 0 -0.72852116
Link 89 201 1253 0 0.06322448
Link 90 201 1254 0 -0.21749984
Link 91 201 1255 0 0.56316295
Link 92 201 1256 0 0.20618496
Link 93 201 1257 0 -0.27379349
Link 94 201 1258 0 -1.09447744
Link 95 201 1259 0 -0.07790913
Link 96 201 1260 0 -0.07628204
Link 97 201 1261 0 0.02086537
Link 98 201 1262 0 2.82239225
Link 99 201 1263 0 0.19361256
Link 100 201 1264 0 0.21848142
Link 101 201 1265 0 -0.67596838
Link 102 201 1266 0 -0.20198628
Link 103 201 1267 0 -0.03564355
Link 104 201 1268 0 -0.80672264
Link 105 201 1269 0 -0.58535313
Link 106 201 1270 0 0.21427670
Link 107 201 1271 0 0.69265598
Link 108 201 1272 0 -0.28166171
Link 109 201 1273 0 0.43856452
Link 110 201 1274 0 0.08082373
Link 111 201 1275 0 -1.04437678
Link 112 201 1276 0 -0.25222789
Link 113 201 1277 0 0.08711508
Link 114 201 1278 0 -0.54828378
Link 115 201 1279 0 0.90864994
Link 116 201 1280 0 -0.12894776
Link 117 201 1281 0 -1.15654989
Link 118 201 1282 0 0.23020483
Link 119 201 1283 0 0.91806566
Link 120 201 1284 0 0.31539341
Link 121 201 1285 0 -0.40006505
Link 122 201 1286 0 -0.71131260
Link 123 201 1287 0 -0.24636088
Link 124 201 1288 0 -0.49837695
Link 125 201 1289 0 0.26670776
Link 126 201 1290 0 0.06387246
Link 127 201 1291 0 0.04179922
Link 128 201 1292 0 0.33551149
Link 129 201 1293 0 0.30109782
Link 130 201 1294 0 2.01038174
Link 131 201 1295 0 -0.94790421
Link 132 201 1296 0 -0.35266751
Link 133 201 1297 0 1.33386924
Link 134 201 1298 0 0.08338958
Link 135 201 1299 0 0.42679619
Link 136 201 1300 0 0.37453025
Link 137 201 1301 0 -0.27787657
Link 138 201 1302 0 0.45670224
Link 139 201 1303 0 0.50799289
Link 140 201 1304 0 -0.45054903
Link 141 201 1305 0 -0.11614261
Link 142 201 1306 0 -0.38980166
Link 143 201 1307 0 -0.53915923
Link 144 201 1308 0 1.55995195
Link 145 201 1309 0 0.39378640
Link 146 201 1310 0 -0.93924536
Link 147 201 1311 0 0.15657474
Link 148 201 1312 0 0.04277372
Link 149 201 1313 0 -0.12810884
Link 150 201 1314 0 -0.92560000
Link 151 201 1315 0 0.32494919
Link 152 201 1316 0 -0.37639746
Link 153 201 1317 0 0.09148323
Link 154 201 1318 0 -0.90618818
Link 155 201 1319 0 -0.28325237
Link 156 201 1320 0 0.32520453
Link 157 201 1321 0 -0.63694116
Link 158 201 1322 0 -0.60446182
Link 159 201 1323 0 -0.75705891
Link 160 201 1324 0 0.31436372
Link 161 201 1325 0 0.55529773
Link 162 201 1326 0 -0.52207382
Link 163 201 1327 0 0.31372044
Link 164 201 1328 0 0.19012749
Link 165 201 1329 0 1.10933599
Link 166 201 1330 0 -0.78891217
Link 167 201 1331 0 -0.15846662
Link 168 201 1332 0 0.79646249
Link 169 201 1333 0 0.18104903
Link 170 201 1334 0 0.05131733
Link 171 201 1335 0 -0.21763550
Link 172 201 1336 0 -0.61411847
Link 173 201 1337 0 -0.29824859
Link 174 201 1338 0 0.18229884
Link 175 201 1339 0 -0.62908806
Link 176 201 1340 0 -0.84193241
Link 177 201 1341 0 -0.63199904
Link 178 201 1342 0 -0.34351948
Link 179 201 1343 0 0.47886308
Link 180 201 1344 0 -0.00378463
Link 181 201 1345 0 0.17808646
Link 182 201 1346 0 1.55956429
Link 183 201 1347 0 0.42636781
Link 184 201 1348 0 0.35937623
Link 185 201 1349 0 1.07023462
Link 186 201 1350 0 -0.36699344
Link 187 201 1351 0 -0.42926165
Link 188 201 1352 0 -1.18539891
Link 189 201 1353 0 -0.72806882
Link 190 201 1354 0 0.73726299
Link 191 201 1355 0 -1.03557501
Link 192 201 1356 0 1.32237030
Link 193 201 1357 0 -0.66024201
Link 194 201 1358 0 -0.60212301
Link 1 202 1359 0 0.16275361
Link 2 202 1360 0 -1.25580609
Link 3 202 1361 0 -1.78074279
Link 4 202 1362 0 1.06483345
Link 5 202 1363 0 -0.10105645
Link 6 202 1364 0 0.21730417
Link 7 202 1365 0 -0.51243186
Link 8 202 1366 0 -0.32763401
Link 9 202 1367 0 0.39707731
Link 10 202 1368 0 -0.39790614
Link 11 202 1369 0 -0.00111912
Link 12 202 1370 0 0.00055650
Link 13 202 1371 0 -1.59980339
Link 14 202 1372 0 0.48752626
Link 15 202 1373 0 -0.99063401
Link 16 202 1374 0 0.26645650
Link 17 202 1375 0 -0.43414557
Link 18 202 1376 0 0.63819931
Link 19 202 1377 0 -0.33000962
Link 20 202 1378 0 0.63526472
Link 21 202 1379 0 0.02450180
Link 22 202 1380 0 0.28655193
Link 23 202 1381 0 -0.61995541
Link 24 202 1382 0 -0.31405984
Link 25 202 1383 0 0.25426749
Link 26 202 1384 0 0.16055646
Link 27 202 1385 0 -0.40101814
Link 28 202 1386 0 -0.03569140
Link 29 202 1387 0 0.06945050
Link 30 202 1388 0 0.38188714
Link 31 202 1389 0 0.55486204
Link 32 202 1390 0 -0.41306611
Link 33 202 1391 0 0.41943302
Link 34 202 1392 0 0.03579769
Link 35 202 1393 0 -0.22486712
Link 36 202 1394 0 -0.84234186
Link 37 202 1395 0 0.80353574
Link 38 202 1396 0 -0.14022221
Link 39 202 1397 0 -0.03730283
Link 40 202 1398 0 -0.17571309
Link 41 202 1399 0 -0.18523325
Link 42 202 1400 0 -1.69102009
Link 43 202 1401 0 -0.65821995
Link 44 202 1402 0 -0.48714168
Link 45 202 1403 0 0.06141800
Link 46 202 1404 0 0.15948930
Link 47 202 1405 0 -0.47171719
Link 48 202 1406 0 -1.09291985
Link 49 202 1407 0 0.06617959
Link 50 202 1408 0 -0.01731777
Link 51 202 1409 0 0.09678137
Link 52 202 1410 0 0.04122786
Link 53 202 1411 0 -0.32082701
Link 54 202 1412 0 0.00673595
Link 55 202 1413 0 -0.30468650
Link 56 202 1414 0 -0.11710798
Link 57 202 1415 0 0.08323939
Link 58 202 1416 0 -0.76661304
Link 59 202 1417 0 -0.14531826
Link 60 202 1418 0 0.68396136
Link 61 202 1419 0 -1.32821701
Link 62 202 1420 0 0.63270464
Link 63 202 1421 0 -0.09838926
Link 64 202 1422 0 0.58556570
Link 65 202 1423 0 -0.98154848
Link 66 202 1424 0 -0.41949705
Link 67 202 1425 0 0.26285305
Link 68 202 1426 0 0.31182881
Link 69 202 1427 0 -0.20828148
Link 70 202 1428 0 -0.21858857
Link 71 202 1429 0 -0.57550121
Link 72 202 1430 0 1.01280806
Link 73 202 1431 0 0.68362173
Link 74 202 1432 0 -0.76083265
Link 75 202 1433 0 -0.68165643
Link 76 202 1434 0 0.06574745
Link 77 202 1435 0 -0.12996873
Link 78 202 1436 0 0.43855388
Link 79 202 1437 0 -0.83185323
Link 80 202 1438 0 -0.07276771
Link 81 202 1439 0 0.16099525
Link 82 202 1440 0 -0.73644212
Link 83 202 1441 0 0.03309088
Link 84 202 1442 0 -0.04858382
Link 85 202 1443 0 -0.02916432
Link 86 202 1444 0 -0.85614291
Link 87 202 1445 0 -1.23206519
Link 88 202 1446 0 0.82711131
Link 89 202 1447 0 -0.20313056
Link 90 202 1448 0 -0.29827161
Link 91 202 1449 0 -0.88843970
Link 92 202 1450 0 0.59353381
Link 93 202 1451 0 0.09424279
Link 94 202 1452 0 -0.22909132
Link 95 202 1453 0 0.13628194
Link 96 202 1454 0 0.20820278
Link 97 202 1455 0 -1.01846250
Link 98 202 1456 0 0.20653843
Link 99 202 1457 0 -0.37291411
Link 100 202 1458 0 -0.03258064
Link 101 202 1459 0 -1.28178216
Link 102 202 1460 0 -0.17364265
Link 103 202 1461 0 0.46113058
Link 104 202 1462 0 -0.84346098
Link 105 202 1463 0 -0.40848312
Link 106 202 1464 0 -0.57650886
Link 107 202 1465 0 0.05188102
Link 108 202 1466 0 0.24271601
Link 109 202 1467 0 0.69659154
Link 110 202 1468 0 1.31396961
Link 111 202 1469 0 0.30075352
Link 112 202 1470 0 -0.10880694
Link 113 202 1471 0 0.27448387
Link 114 202 1472 0 -0.70816584
Link 115 202 1473 0 0.31813751
Link 116 202 1474 0 -0.28765699
Link 117 202 1475 0 -0.28647661
Link 118 202 1476 0 0.49391367
Link 119 202 1477 0 -0.47656971
Link 120 202 1478 0 0.98925200
Link 121 202 1479 0 0.16791534
Link 122 202 1480 0 -0.21976729
Link 123 202 1481 0 -0.10118926
Link 124 202 1482 0 -0.73832534
Link 125 202 1483 0 -0.37646425
Link 126 202 1484 0 0.16349832
Link 127 202 1485 0 -0.26149615
Link 128 202 1486 0 0.05852862
Link 129 202 1487 0 -0.14389390
Link 130 202 1488 0 -0.64297222
Link 131 202 1489 0 -0.49908680
Link 132 202 1490 0 -0.10088509
Link 133 202 1491 0 0.18627953
Link 134 202 1492 0 -0.26299741
Link 135 202 1493 0 -0.62355697
Link 136 202 1494 0 0.21565751
Link 137 202 1495 0 -0.18582220
Link 138 202 1496 0 -0.23273536
Link 139 202 1497 0 0.39180381
Link 140 202 1498 0 -0.99581371
Link 141 202 1499 0 -0.91077734
Link 142 202 1500 0 0.22030750
Link 143 202 1501 0 -0.12605028
Link 144 202 1502 0 0.09303192
Link 145 202 1503 0 -0.43124194
Link 146 202 1504 0 0.99131191
Link 147 202 1505 0 0.17165200
Link 148 202 1506 0 0.66761841
Link 149 202 1507 0 -0.09233626
Link 150 202 1508 0 -0.01409015
Link 151 202 1509 0 -1.25008310
Link 152 202 1510 0 -1.67071009
Link 153 202 1511 0 0.27298016
Link 154 202 1512 0 0.44844579
Link 155 202 1513 0 -0.17828079
Link 156 202 1514 0 -0.01962623
Link 157 202 1515 0 0.08135562
Link 158 202 1516 0 -0.71053614
Link 159 202 1517 0 -1.54334923
Link 160 202 1518 0 -0.06499630
Link 161 202 1519 0 -0.84464169
Link 162 202 1520 0 -0.15608975
Link 163 202 1521 0 0.36820560
Link 164 202 1522 0 1.40182113
Link 165 202 1523 0 -0.21047870
Link 166 202 1524 0 -0.47071628
Link 167 202 1525 0 -0.25438723
Link 168 202 1526 0 -0.39892990
Link 169 202 1527 0 -0.99021611
Link 170 202 1528 0 -0.31369468
Link 171 202 1529 0 0.74366386
Link 172 202 1530 0 -1.34318264
Link 173 202 1531 0 0.05412843
Link 174 202 1532 0 -1.47305572
Link 175 202 1533 0 -0.24836106
Link 176 202 1534 0 0.86175904
Link 177 202 1535 0 -0.80565186
Link 178 202 1536 0 -0.27336367
Link 179 202 1537 0 0.22070115
Link 180 202 1538 0 -0.00139302
Link 181 202 1539 0 -0.27483331
Link 182 202 1540 0 0.29528421
Link 183 202 1541 0 0.77356802
Link 184 202 1542 0 0.27332424
Link 185 202 1543 0 0.22403320
Link 186 202 1544 0 -0.54821777
Link 187 202 1545 0 -0.71703118
Link 188 202 1546 0 -0.84317555
Link 189 202 1547 0 -1.16079305
Link 190 202 1548 0 -0.37626559
Link 191 202 1549 0 0.57356837
Link 192 202 1550 0 -0.65291771
Link 193 202 1551 0 1.38492192
Link 194 202 1552 0 -0.47297111
Link 1 203 1553 0 -2.10664271
Link 2 203 1554 0 -0.18799498
Link 3 203 1555 0 -0.33164345
Link 4 203 1556 0 0.96075331
Link 5 203 1557 0 -0.75869194
Link 6 203 1558 0 -0.28032125
Link 7 203 1559 0 -0.20399693
Link 8 203 1560 0 0.04337152
Link 9 203 1561 0 -0.08261280
Link 10 203 1562 0 0.04174456
Link 11 203 1563 0 1.41381638
Link 12 203 1564 0 -1.15507386
Link 13 203 1565 0 0.91580232
Link 14 203 1566 0 0.50005802
Link 15 203 1567 0 0.17536895
Link 16 203 1568 0 0.11173827
Link 17 203 1569 0 1.15166305
Link 18 203 1570 0 -0.07230298
Link 19 203 1571 0 0.32280092
Link 20 203 1572 0 0.13489703
Link 21 203 1573 0 -0.53964654
Link 22 203 1574 0 0.22495312
Link 23 203 1575 0 -0.52146129
Link 24 203 1576 0 -0.47651403
Link 25 203 1577 0 -0.39997933
Link 26 203 1578 0 -0.30567301
Link 27 203 1579 0 -0.16753660
Link 28 203 1580 0 0.44310712
Link 29 203 1581 0 -0.37292960
Link 30 203 1582 0 -1.77732488
Link 31 203 1583 0 1.18014350
Link 32 203 1584 0 -0.76689047
Link 33 203 1585 0 0.12927645
Link 34 203 1586 0 0.52324903
Link 35 203 1587 0 -0.34898577
Link 36 203 1588 0 0.03632273
Link 37 203 1589 0 0.75441520
Link 38 203 1590 0 0.40531203
Link 39 203 1591 0 0.01197146
Link 40 203 1592 0 -0.19736182
Link 41 203 1593 0 0.29634578
Link 42 203 1594 0 -0.33527254
Link 43 203 1595 0 0.06294286
Link 44 203 1596 0 0.29772330
Link 45 203 1597 0 0.41439179
Link 46 203 1598 0 0.38097469
Link 47 203 1599 0 0.09202899
Link 48 203 1600 0 -0.69529533
Link 49 203 1601 0 1.32354448
Link 50 203 1602 0 -0.44586572
Link 51 203 1603 0 1.38682665
Link 52 203 1604 0 -0.01241064
Link 53 203 1605 0 1.56899517
Link 54 203 1606 0 0.74782939
Link 55 203 1607 0 1.04358011
Link 56 203 1608 0 0.04937724
Link 57 203 1609 0 0.99446484
Link 58 203 1610 0 -0.62055036
Link 59 203 1611 0 -0.28936975
Link 60 203 1612 0 1.83567665
Link 61 203 1613 0 -0.86952800
Link 62 203 1614 0 0.58582770
Link 63 203 1615 0 -0.02251179
Link 64 203 1616 0 -0.58607302
Link 65 203 1617 0 0.56920627
Link 66 203 1618 0 0.49982843
Link 67 203 1619 0 -0.28755146
Link 68 203 1620 0 -0.21519647
Link 69 203 1621 0 -0.26103935
Link 70 203 1622 0 -0.26297424
Link 71 203 1623 0 -0.33893143
Link 72 203 1624 0 -0.06882809
Link 73 203 1625 0 0.04408957
Link 74 203 1626 0 -0.35252272
Link 75 203 1627 0 -1.13682429
Link 76 203 1628 0 -0.83778037
Link 77 203 1629 0 0.57031409
Link 78 203 1630 0 0.34585145
Link 79 203 1631 0 -0.80122988
Link 80 203 1632 0 -0.45313323
Link 81 203 1633 0 0.12967259
Link 82 203 1634 0 0.06129301
Link 83 203 1635 0 0.07951643
Link 84 203 1636 0 0.74639572
Link 85 203 1637 0 0.06081304
Link 86 203 1638 0 -0.14258251
Link 87 203 1639 0 0.04617240
Link 88 203 1640 0 -1.01400806
Link 89 203 1641 0 -0.04779907
Link 90 203 1642 0 -0.58056439
Link 91 203 1643 0 -0.21000310
Link 92 203 1644 0 -0.09569373
Link 93 203 1645 0 -0.46468124
Link 94 203 1646 0 -0.07140030
Link 95 203 1647 0 0.33785219
Link 96 203 1648 0 -0.14167020
Link 97 203 1649 0 -0.14558786
Link 98 203 1650 0 0.66405532
Link 99 203 1651 0 0.48548062
Link 100 203 1652 0 0.21798180
Link 101 203 1653 0 0.13624102
Link 102 203 1654 0 -0.45068795
Link 103 203 1655 0 -0.72840401
Link 104 203 1656 0 -1.14739935
Link 105 203 1657 0 0.19245800
Link 106 203 1658 0 0.50771385
Link 107 203 1659 0 0.62137749
Link 108 203 1660 0 -0.75294136
Link 109 203 1661 0 0.02074950
Link 110 203 1662 0 -0.01927751
Link 111 203 1663 0 -0.11923972
Link 112 203 1664 0 0.33431021
Link 113 203 1665 0 0.15729018
Link 114 203 1666 0 -0.25496895
Link 115 203 1667 0 -0.02761898
Link 116 203 1668 0 -0.39208420
Link 117 203 1669 0 -0.05980493
Link 118 203 1670 0 -0.04551692
Link 119 203 1671 0 -0.83088510
Link 120 203 1672 0 -0.41391664
Link 121 203 1673 0 1.74123596
Link 122 203 1674 0 0.25715709
Link 123 203 1675 0 0.01685302
Link 124 203 1676 0 -0.27175704
Link 125 203 1677 0 0.41939494
Link 126 203 1678 0 0.50202326
Link 127 203 1679 0 0.56013711
Link 128 203 1680 0 -0.64575692
Link 129 203 1681 0 0.53060181
Link 130 203 1682 0 -0.95980051
Link 131 203 1683 0 -1.58284339
Link 132 203 1684 0 -0.71836329
Link 133 203 1685 0 0.47168996
Link 134 203 1686 0 -0.22759283
Link 135 203 1687 0 -0.35668550
Link 136 203 1688 0 0.27439383
Link 137 203 1689 0 0.23580949
Link 138 203 1690 0 -0.97060279
Link 139 203 1691 0 0.78648622
Link 140 203 1692 0 0.20769157
Link 141 203 1693 0 -0.29070203
Link 142 203 1694 0 0.56785318
Link 143 203 1695 0 0.71567364
Link 144 203 1696 0 -0.86306403
Link 145 203 1697 0 0.40434167
Link 146 203 1698 0 0.49147213
Link 147 203 1699 0 0.28014269
Link 148 203 1700 0 -0.47115217
Link 149 203 1701 0 1.08408468
Link 150 203 1702 0 -0.26610238
Link 151 203 1703 0 -0.07828572
Link 152 203 1704 0 -0.17457799
Link 153 203 1705 0 -0.78144199
Link 154 203 1706 0 0.52232212
Link 155 203 1707 0 -0.39502898
Link 156 203 1708 0 0.90566139
Link 157 203 1709 0 0.14808106
Link 158 203 1710 0 -2.38706662
Link 159 203 1711 0 -0.73406125
Link 160 203 1712 0 -0.39777581
Link 161 203 1713 0 -0.08152116
Link 162 203 1714 0 0.89172918
Link 163 203 1715 0 0.38419932
Link 164 203 1716 0 -0.38559354
Link 165 203 1717 0 -1.08877554
Link 166 203 1718 0 0.72998964
Link 167 203 1719 0 -0.60991477
Link 168 203 1720 0 -0.28441647
Link 169 203 1721 0 -0.04799084
Link 170 203 1722 0 2.00288879
Link 171 203 1723 0 -1.02216081
Link 172 203 1724 0 0.06510197
Link 173 203 1725 0 0.43942825
Link 174 203 1726 0 -1.00048915
Link 175 203 1727 0 0.29215188
Link 176 203 1728 0 -0.35698576
Link 177 203 1729 0 -0.16364016
Link 178 203 1730 0 0.32845805
Link 179 203 1731 0 1.72158837
Link 180 203 1732 0 -0.26324345
Link 181 203 1733 0 0.88375201
Link 182 203 1734 0 -0.41596774
Link 183 203 1735 0 0.81393346
Link 184 203 1736 0 0.34427895
Link 185 203 1737 0 -0.14227542
Link 186 203 1738 0 -0.54235235
Link 187 203 1739 0 1.52060755
Link 188 203 1740 0 0.07490373
Link 189 203 1741 0 0.04623909
Link 190 203 1742 0 -0.65669952
Link 191 203 1743 0 0.14213844
Link 192 203 1744 0 -0.69269386
Link 193 203 1745 0 -0.27466439
Link 194 203 1746 0 0.28545888
Link 1 204 1747 0 0.28267577
Link 2 204 1748 0 -2.17640114
Link 3 204 1749 0 -0.99826790
Link 4 204 1750 0 -0.15372336
Link 5 204 1751 0 -0.44650212
Link 6 204 1752 0 1.05503672
Link 7 204 1753 0 0.71109687
Link 8 204 1754 0 -0.78930161
Link 9 204 1755 0 -0.22696917
Link 10 204 1756 0 -0.48138452
Link 11 204 1757 0 -0.12610542
Link 12 204 1758 0 -0.23692458
Link 13 204 1759 0 0.13855071
Link 14 204 1760 0 -0.08082095
Link 15 204 1761 0 -0.37818862
Link 16 204 1762 0 -0.49978553
Link 17 204 1763 0 -0.66407333
Link 18 204 1764 0 -0.74211943
Link 19 204 1765 0 -1.17661013
Link 20 204 1766 0 0.30111451
Link 21 204 1767 0 0.08139386
Link 22 204 1768 0 -0.34871254
Link 23 204 1769 0 -0.37672396
Link 24 204 1770 0 0.56988585
Link 25 204 1771 0 -0.66741300
Link 26 204 1772 0 0.57119006
Link 27 204 1773 0 -0.14768086
Link 28 204 1774 0 0.63042957
Link 29 204 1775 0 -0.26993842
Link 30 204 1776 0 0.06711073
Link 31 204 1777 0 -0.38127766
Link 32 204 1778 0 0.40055548
Link 33 204 1779 0 0.39903733
Link 34 204 1780 0 0.28821920
Link 35 204 1781 0 0.12576175
Link 36 204 1782 0 -0.83178294
Link 37 204 1783 0 -0.45197083
Link 38 204 1784 0 0.35026637
Link 39 204 1785 0 0.60604605
Link 40 204 1786 0 -0.24694846
Link 41 204 1787 0 -2.01882673
Link 42 204 1788 0 -0.21288786
Link 43 204 1789 0 -0.03807294
Link 44 204 1790 0 0.04026494
Link 45 204 1791 0 1.48207281
Link 46 204 1792 0 -0.53501312
Link 47 204 1793 0 0.55643456
Link 48 204 1794 0 -0.09982226
Link 49 204 1795 0 0.27815456
Link 50 204 1796 0 -0.10156574
Link 51 204 1797 0 0.98721834
Link 52 204 1798 0 0.22842723
Link 53 204 1799 0 -0.15601338
Link 54 204 1800 0 -0.17832542
Link 55 204 1801 0 0.48396941
Link 56 204 1802 0 1.82464114
Link 57 204 1803 0 1.51974930
Link 58 204 1804 0 -0.05657979
Link 59 204 1805 0 -0.51923118
Link 60 204 1806 0 -0.49382099
Link 61 204 1807 0 -0.14210855
Link 62 204 1808 0 -0.43480433
Link 63 204 1809 0 0.06469169
Link 64 204 1810 0 0.93701014
Link 65 204 1811 0 1.91652498
Link 66 204 1812 0 0.18698583
Link 67 204 1813 0 -0.50199091
Link 68 204 1814 0 -1.74488050
Link 69 204 1815 0 1.00265796
Link 70 204 1816 0 -0.21817168
Link 71 204 1817 0 -0.50973431
Link 72 204 1818 0 -1.43271357
Link 73 204 1819 0 -0.25308340
Link 74 204 1820 0 0.80817734
Link 75 204 1821 0 -0.57576845
Link 76 204 1822 0 0.18907686
Link 77 204 1823 0 -0.12381891
Link 78 204 1824 0 -0.47663805
Link 79 204 1825 0 -0.75426373
Link 80 204 1826 0 -0.09027481
Link 81 204 1827 0 -0.36351964
Link 82 204 1828 0 0.44872167
Link 83 204 1829 0 0.40659688
Link 84 204 1830 0 0.95612730
Link 85 204 1831 0 1.27735272
Link 86 204 1832 0 -0.17800997
Link 87 204 1833 0 -0.50066951
Link 88 204 1834 0 -0.81401601
Link 89 204 1835 0 -1.13171931
Link 90 204 1836 0 0.38808011
Link 91 204 1837 0 -0.90823752
Link 92 204 1838 0 -0.37827965
Link 93 204 1839 0 0.04927694
Link 94 204 1840 0 0.79908179
Link 95 204 1841 0 -0.49259860
Link 96 204 1842 0 -0.41985366
Link 97 204 1843 0 0.28407582
Link 98 204 1844 0 -0.73747095
Link 99 204 1845 0 -1.43972974
Link 100 204 1846 0 -1.50057428
Link 101 204 1847 0 -0.36706062
Link 102 204 1848 0 -0.53663855
Link 103 204 1849 0 -0.29416074
Link 104 204 1850 0 -0.36634336
Link 105 204 1851 0 -0.01048420
Link 106 204 1852 0 -0.19572595
Link 107 204 1853 0 0.48773277
Link 108 204 1854 0 -1.02087876
Link 109 204 1855 0 -0.14989535
Link 110 204 1856 0 0.48695551
Link 111 204 1857 0 -0.28065530
Link 112 204 1858 0 0.58357645
Link 113 204 1859 0 -0.63555048
Link 114 204 1860 0 -0.48978109
Link 115 204 1861 0 0.10671420
Link 116 204 1862 0 -1.01715902
Link 117 204 1863 0 -0.37007708
Link 118 204 1864 0 -0.23738414
Link 119 204 1865 0 0.10580089
Link 120 204 1866 0 -0.27202615
Link 121 204 1867 0 0.38818795
Link 122 204 1868 0 0.09736279
Link 123 204 1869 0 0.33911143
Link 124 204 1870 0 -0.76573092
Link 125 204 1871 0 -0.25972199
Link 126 204 1872 0 -0.23605911
Link 127 204 1873 0 -0.74754086
Link 128 204 1874 0 0.60451451
Link 129 204 1875 0 -0.09979983
Link 130 204 1876 0 0.16135266
Link 131 204 1877 0 0.00574652
Link 132 204 1878 0 0.37194600
Link 133 204 1879 0 0.76686435
Link 134 204 1880 0 -0.05504480
Link 135 204 1881 0 -0.33864385
Link 136 204 1882 0 -0.33574960
Link 137 204 1883 0 0.16075254
Link 138 204 1884 0 0.36464603
Link 139 204 1885 0 -0.05093677
Link 140 204 1886 0 -0.45971393
Link 141 204 1887 0 -0.38557828
Link 142 204 1888 0 0.75301966
Link 143 204 1889 0 0.50630420
Link 144 204 1890 0 2.00243106
Link 145 204 1891 0 1.41980015
Link 146 204 1892 0 -0.23714062
Link 147 204 1893 0 -0.30678132
Link 148 204 1894 0 -0.16129280
Link 149 204 1895 0 -0.44611492
Link 150 204 1896 0 -1.01540352
Link 151 204 1897 0 -0.76674005
Link 152 204 1898 0 0.33568480
Link 153 204 1899 0 -1.00090098
Link 154 204 1900 0 -0.27511379
Link 155 204 1901 0 0.19023697
Link 156 204 1902 0 0.18192873
Link 157 204 1903 0 0.55969632
Link 158 204 1904 0 -0.23452782
Link 159 204 1905 0 -0.29224744
Link 160 204 1906 0 0.64682119
Link 161 204 1907 0 0.49345306
Link 162 204 1908 0 -0.09722664
Link 163 204 1909 0 0.04633634
Link 164 204 1910 0 -0.20625728
Link 165 204 1911 0 0.49763464
Link 166 204 1912 0 0.14046248
Link 167 204 1913 0 -0.32940925
Link 168 204 1914 0 -0.08130345
Link 169 204 1915 0 -0.42776501
Link 170 204 1916 0 0.09091285
Link 171 204 1917 0 -1.24277555
Link 172 204 1918 0 0.11624409
Link 173 204 1919 0 -0.56861674
Link 174 204 1920 0 -1.16804623
Link 175 204 1921 0 -0.03011517
Link 176 204 1922 0 -0.33461632
Link 177 204 1923 0 -0.24903411
Link 178 204 1924 0 -1.09637276
Link 179 204 1925 0 -0.07929228
Link 180 204 1926 0 0.22016116
Link 181 204 1927 0 0.28285190
Link 182 204 1928 0 0.49344298
Link 183 204 1929 0 -0.06183456
Link 184 204 1930 0 0.35543870
Link 185 204 1931 0 -0.09648437
Link 186 204 1932 0 -0.19251942
Link 187 204 1933 0 0.52452769
Link 188 204 1934 0 -0.27880773
Link 189 204 1935 0 -0.18793658
Link 190 204 1936 0 -0.22514674
Link 191 204 1937 0 -0.36904656
Link 192 204 1938 0 -1.10795995
Link 193 204 1939 0 0.20297048
Link 194 204 1940 0 0.67379046
Link 1 205 1941 0 0.45702829
Link 2 205 1942 0 -1.90823234
Link 3 205 1943 0 0.33894006
Link 4 205 1944 0 0.09349119
Link 5 205 1945 0 -0.17221845
Link 6 205 1946 0 -0.53267196
Link 7 205 1947 0 0.91889890
Link 8 205 1948 0 -0.73530399
Link 9 205 1949 0 -2.07025423
Link 10 205 1950 0 0.34278219
Link 11 205 1951 0 -0.28156157
Link 12 205 1952 0 -0.35407663
Link 13 205 1953 0 -0.29727813
Link 14 205 1954 0 0.24725773
Link 15 205 1955 0 1.29860521
Link 16 205 1956 0 -0.10228308
Link 17 205 1957 0 0.13781060
Link 18 205 1958 0 -0.38453775
Link 19 205 1959 0 -0.08893301
Link 20 205 1960 0 0.31275513
Link 21 205 1961 0 -1.86738003
Link 22 205 1962 0 0.13857498
Link 23 205 1963 0 -0.47921760
Link 24 205 1964 0 -0.18578144
Link 25 205 1965 0 -0.11043699
Link 26 205 1966 0 -0.09466818
Link 27 205 1967 0 -0.36925715
Link 28 205 1968 0 -0.58321049
Link 29 205 1969 0 0.42072596
Link 30 205 1970 0 0.07770671
Link 31 205 1971 0 -0.09354619
Link 32 205 1972 0 -0.31220590
Link 33 205 1973 0 0.58737570
Link 34 205 1974 0 -0.06393744
Link 35 205 1975 0 -0.32327642
Link 36 205 1976 0 -0.10246228
Link 37 205 1977 0 -0.09884370
Link 38 205 1978 0 0.22455520
Link 39 205 1979 0 -0.12936122
Link 40 205 1980 0 -0.50727686
Link 41 205 1981 0 0.26128853
Link 42 205 1982 0 -0.17417390
Link 43 205 1983 0 0.12655634
Link 44 205 1984 0 -0.06245631
Link 45 205 1985 0 0.63914836
Link 46 205 1986 0 -0.47887381
Link 47 205 1987 0 0.67460185
Link 48 205 1988 0 -0.50719258
Link 49 205 1989 0 -0.04441743
Link 50 205 1990 0 -0.15343934
Link 51 205 1991 0 0.06056776
Link 52 205 1992 0 -2.56403298
Link 53 205 1993 0 0.45894267
Link 54 205 1994 0 -0.15715172
Link 55 205 1995 0 0.43693419
Link 56 205 1996 0 -0.41185906
Link 57 205 1997 0 0.35459412
Link 58 205 1998 0 -1.25106789
Link 59 205 1999 0 -1.62837491
Link 60 205 2000 0 -1.23183576
Link 61 205 2001 0 -0.05689343
Link 62 205 2002 0 -0.17112647
Link 63 205 2003 0 0.37271067
Link 64 205 2004 0 -0.40439770
Link 65 205 2005 0 -0.25484054
Link 66 205 2006 0 -0.21141146
Link 67 205 2007 0 0.50756334
Link 68 205 2008 0 0.09034803
Link 69 205 2009 0 0.17418867
Link 70 205 2010 0 -1.54358235
Link 71 205 2011 0 -0.10681634
Link 72 205 2012 0 0.00352991
Link 73 205 2013 0 -0.85288465
Link 74 205 2014 0 0.34894466
Link 75 205 2015 0 -1.31287571
Link 76 205 2016 0 0.09470733
Link 77 205 2017 0 -0.06774645
Link 78 205 2018 0 -1.04863537
Link 79 205 2019 0 -0.73840211
Link 80 205 2020 0 -0.05953098
Link 81 205 2021 0 -0.25498195
Link 82 205 2022 0 0.89300641
Link 83 205 2023 0 -0.60044903
Link 84 205 2024 0 0.05791654
Link 85 205 2025 0 -0.21273589
Link 86 205 2026 0 -0.52059668
Link 87 205 2027 0 -0.22549086
Link 88 205 2028 0 -0.16036108
Link 89 205 2029 0 0.48407170
Link 90 205 2030 0 -1.31681922
Link 91 205 2031 0 -0.03655910
Link 92 205 2032 0 -0.99686433
Link 93 205 2033 0 -0.86924698
Link 94 205 2034 0 1.34463427
Link 95 205 2035 0 -0.43896337
Link 96 205 2036 0 0.20237187
Link 97 205 2037 0 -0.18597323
Link 98 205 2038 0 -0.22287873
Link 99 205 2039 0 -0.93762131
Link 100 205 2040 0 -0.27339743
Link 101 205 2041 0 -0.63579177
Link 102 205 2042 0 0.08310643
Link 103 205 2043 0 -0.19597751
Link 104 205 2044 0 -0.89549217
Link 105 205 2045 0 -0.36886445
Link 106 205 2046 0 1.72714999
Link 107 205 2047 0 -0.09711177
Link 108 205 2048 0 -0.27008769
Link 109 205 2049 0 0.45268718
Link 110 205 2050 0 -1.26404482
Link 111 205 2051 0 -0.78501465
Link 112 205 2052 0 -0.11335383
Link 113 205 2053 0 -0.70991524
Link 114 205 2054 0 1.43813365
Link 115 205 2055 0 -0.80847305
Link 116 205 2056 0 0.45884752
Link 117 205 2057 0 0.31711581
Link 118 205 2058 0 0.49513292
Link 119 205 2059 0 0.71311979
Link 120 205 2060 0 -0.07836850
Link 121 205 2061 0 -1.35928618
Link 122 205 2062 0 -0.35025569
Link 123 205 2063 0 -0.03890156
Link 124 205 2064 0 -0.68702043
Link 125 205 2065 0 0.31424765
Link 126 205 2066 0 0.22473884
Link 127 205 2067 0 0.17594735
Link 128 205 2068 0 0.82135484
Link 129 205 2069 0 0.84222131
Link 130 205 2070 0 -0.17784500
Link 131 205 2071 0 -0.07357472
Link 132 205 2072 0 0.09185814
Link 133 205 2073 0 -0.03961859
Link 134 205 2074 0 0.37104876
Link 135 205 2075 0 0.46549875
Link 136 205 2076 0 0.43646111
Link 137 205 2077 0 0.76526693
Link 138 205 2078 0 -0.00987623
Link 139 205 2079 0 -0.23392298
Link 140 205 2080 0 0.19920623
Link 141 205 2081 0 0.42362775
Link 142 205 2082 0 -0.42000528
Link 143 205 2083 0 0.27959915
Link 144 205 2084 0 0.62718695
Link 145 205 2085 0 0.09975389
Link 146 205 2086 0 -0.01586423
Link 147 205 2087 0 0.83809461
Link 148 205 2088 0 -0.44296648
Link 149 205 2089 0 -0.01404859
Link 150 205 2090 0 -0.03995559
Link 151 205 2091 0 -0.50849310
Link 152 205 2092 0 0.18842920
Link 153 205 2093 0 -0.02443410
Link 154 205 2094 0 0.04487510
Link 155 205 2095 0 -0.18187111
Link 156 205 2096 0 0.71091159
Link 157 205 2097 0 0.21722723
Link 158 205 2098 0 -0.27821329
Link 159 205 2099 0 -0.51085366
Link 160 205 2100 0 0.57929775
Link 161 205 2101 0 0.13061518
Link 162 205 2102 0 -0.47188758
Link 163 205 2103 0 0.90065854
Link 164 205 2104 0 0.19383329
Link 165 205 2105 0 0.86735417
Link 166 205 2106 0 0.12535271
Link 167 205 2107 0 0.08770945
Link 168 205 2108 0 -0.77862685
Link 169 205 2109 0 0.36135398
Link 170 205 2110 0 0.66376201
Link 171 205 2111 0 -0.52144366
Link 172 205 2112 0 0.46825451
Link 173 205 2113 0 -0.25717598
Link 174 205 2114 0 0.10975763
Link 175 205 2115 0 -0.07715828
Link 176 205 2116 0 0.12283439
Link 177 205 2117 0 -0.52594986
Link 178 205 2118 0 1.15105356
Link 179 205 2119 0 0.02183027
Link 180 205 2120 0 -0.17498568
Link 181 205 2121 0 -0.04630531
Link 182 205 2122 0 0.68024566
Link 183 205 2123 0 -0.80603879
Link 184 205 2124 0 0.15347809
Link 185 205 2125 0 0.23416498
Link 186 205 2126 0 0.21676502
Link 187 205 2127 0 -0.32145822
Link 188 205 2128 0 1.55151226
Link 189 205 2129 0 -1.52201823
Link 190 205 2130 0 0.88977976
Link 191 205 2131 0 -0.47428148
Link 192 205 2132 0 -1.12753513
Link 193 205 2133 0 0.29354930
Link 194 205 2134 0 -0.73627096
Link 1 206 2135 0 -0.22234394
Link 2 206 2136 0 1.38932111
Link 3 206 2137 0 -0.37682732
Link 4 206 2138 0 -0.85753137
Link 5 206 2139 0 0.23783570
Link 6 206 2140 0 0.66100036
Link 7 206 2141 0 -0.00878632
Link 8 206 2142 0 1.94002914
Link 9 206 2143 0 0.29188467
Link 10 206 2144 0 0.08364415
Link 11 206 2145 0 0.26729482
Link 12 206 2146 0 0.72570281
Link 13 206 2147 0 -0.12797582
Link 14 206 2148 0 -0.41134781
Link 15 206 2149 0 0.17263067
Link 16 206 2150 0 -1.10344960
Link 17 206 2151 0 -0.86024601
Link 18 206 2152 0 0.27698696
Link 19 206 2153 0 1.16123624
Link 20 206 2154 0 -0.42064227
Link 21 206 2155 0 0.18242730
Link 22 206 2156 0 0.74593599
Link 23 206 2157 0 0.45584133
Link 24 206 2158 0 0.77418271
Link 25 206 2159 0 -0.47027562
Link 26 206 2160 0 0.29934415
Link 27 206 2161 0 -0.11018751
Link 28 206 2162 0 0.95507699
Link 29 206 2163 0 0.00426210
Link 30 206 2164 0 -0.11842922
Link 31 206 2165 0 0.59663831
Link 32 206 2166 0 -0.96761037
Link 33 206 2167 0 0.75891069
Link 34 206 2168 0 0.33248722
Link 35 206 2169 0 0.34680198
Link 36 206 2170 0 -0.08364659
Link 37 206 2171 0 -0.18910997
Link 38 206 2172 0 -0.04449772
Link 39 206 2173 0 0.28097066
Link 40 206 2174 0 0.16110266
Link 41 206 2175 0 0.27807999
Link 42 206 2176 0 -0.11299850
Link 43 206 2177 0 1.91370208
Link 44 206 2178 0 -0.15603554
Link 45 206 2179 0 -0.20067281
Link 46 206 2180 0 0.27808580
Link 47 206 2181 0 0.16886959
Link 48 206 2182 0 -0.07246495
Link 49 206 2183 0 -0.33503175
Link 50 206 2184 0 0.28922955
Link 51 206 2185 0 0.04680488
Link 52 206 2186 0 0.13453758
Link 53 206 2187 0 -0.77390501
Link 54 206 2188 0 0.76308596
Link 55 206 2189 0 -0.17345469
Link 56 206 2190 0 -0.05202917
Link 57 206 2191 0 0.11739450
Link 58 206 2192 0 0.65047680
Link 59 206 2193 0 0.20705263
Link 60 206 2194 0 0.62484274
Link 61 206 2195 0 -0.37933083
Link 62 206 2196 0 -0.53787236
Link 63 206 2197 0 0.29632039
Link 64 206 2198 0 0.27591430
Link 65 206 2199 0 -0.17046240
Link 66 206 2200 0 0.26237154
Link 67 206 2201 0 0.53642277
Link 68 206 2202 0 0.52244649
Link 69 206 2203 0 0.61483372
Link 70 206 2204 0 -0.16734839
Link 71 206 2205 0 0.44901472
Link 72 206 2206 0 -0.35343064
Link 73 206 2207 0 0.24742982
Link 74 206 2208 0 -0.47063898
Link 75 206 2209 0 -0.04923757
Link 76 206 2210 0 0.31283474
Link 77 206 2211 0 0.36415707
Link 78 206 2212 0 -0.00706822
Link 79 206 2213 0 0.78309630
Link 80 206 2214 0 -0.18220369
Link 81 206 2215 0 -0.00590800
Link 82 206 2216 0 -0.54530318
Link 83 206 2217 0 2.96917598
Link 84 206 2218 0 -0.05077129
Link 85 206 2219 0 0.07914608
Link 86 206 2220 0 0.28413712
Link 87 206 2221 0 0.49699794
Link 88 206 2222 0 -0.09832407
Link 89 206 2223 0 -0.42674347
Link 90 206 2224 0 -0.04085308
Link 91 206 2225 0 0.16303000
Link 92 206 2226 0 -0.61294547
Link 93 206 2227 0 1.01026995
Link 94 206 2228 0 -0.67431583
Link 95 206 2229 0 0.41767468
Link 96 206 2230 0 0.50568099
Link 97 206 2231 0 0.55434887
Link 98 206 2232 0 1.16311443
Link 99 206 2233 0 0.45603318
Link 100 206 2234 0 -0.09263062
Link 101 206 2235 0 0.00776051
Link 102 206 2236 0 0.33164615
Link 103 206 2237 0 0.03848175
Link 104 206 2238 0 0.38922065
Link 105 206 2239 0 0.09612729
Link 106 206 2240 0 -0.83503012
Link 107 206 2241 0 0.07548720
Link 108 206 2242 0 -0.51868416
Link 109 206 2243 0 0.20344020
Link 110 206 2244 0 0.26833553
Link 111 206 2245 0 -0.61152427
Link 112 206 2246 0 -0.22350953
Link 113 206 2247 0 0.00553632
Link 114 206 2248 0 0.35302579
Link 115 206 2249 0 -0.08584269
Link 116 206 2250 0 -0.16091852
Link 117 206 2251 0 0.75841162
Link 118 206 2252 0 0.17808285
Link 119 206 2253 0 -0.04130048
Link 120 206 2254 0 0.20747063
Link 121 206 2255 0 -0.35924711
Link 122 206 2256 0 -0.09497428
Link 123 206 2257 0 0.49713577
Link 124 206 2258 0 0.16858844
Link 125 206 2259 0 0.49217722
Link 126 206 2260 0 -0.07320092
Link 127 206 2261 0 0.49483887
Link 128 206 2262 0 1.39599577
Link 129 206 2263 0 0.23166997
Link 130 206 2264 0 0.64587424
Link 131 206 2265 0 0.46063289
Link 132 206 2266 0 0.29433442
Link 133 206 2267 0 0.22570202
Link 134 206 2268 0 0.39981386
Link 135 206 2269 0 0.33197742
Link 136 206 2270 0 0.11295654
Link 137 206 2271 0 0.18170901
Link 138 206 2272 0 -0.71832922
Link 139 206 2273 0 0.55635411
Link 140 206 2274 0 -0.04350724
Link 141 206 2275 0 -0.30032926
Link 142 206 2276 0 1.17813721
Link 143 206 2277 0 -0.42906320
Link 144 206 2278 0 -0.36302421
Link 145 206 2279 0 0.00538932
Link 146 206 2280 0 0.27090594
Link 147 206 2281 0 0.05309945
Link 148 206 2282 0 1.37164714
Link 149 206 2283 0 -1.04214642
Link 150 206 2284 0 1.46563764
Link 151 206 2285 0 -0.33502197
Link 152 206 2286 0 -0.50494664
Link 153 206 2287 0 0.03182300
Link 154 206 2288 0 -0.26429520
Link 155 206 2289 0 -0.28325881
Link 156 206 2290 0 -0.29608726
Link 157 206 2291 0 -0.77260788
Link 158 206 2292 0 -0.74720773
Link 159 206 2293 0 0.49102044
Link 160 206 2294 0 0.29386824
Link 161 206 2295 0 0.37873637
Link 162 206 2296 0 -1.53749100
Link 163 206 2297 0 0.05368317
Link 164 206 2298 0 1.03292329
Link 165 206 2299 0 0.42655195
Link 166 206 2300 0 0.40423208
Link 167 206 2301 0 0.31191744
Link 168 206 2302 0 0.07538768
Link 169 206 2303 0 2.35372268
Link 170 206 2304 0 0.16459705
Link 171 206 2305 0 -0.31818511
Link 172 206 2306 0 0.03559306
Link 173 206 2307 0 0.30673729
Link 174 206 2308 0 0.23336148
Link 175 206 2309 0 0.18622565
Link 176 206 2310 0 -0.16787857
Link 177 206 2311 0 0.91876724
Link 178 206 2312 0 -0.48840891
Link 179 206 2313 0 -0.17524157
Link 180 206 2314 0 -0.41313791
Link 181 206 2315 0 -0.13344240
Link 182 206 2316 0 -1.14735729
Link 183 206 2317 0 -0.80134530
Link 184 206 2318 0 -0.05620281
Link 185 206 2319 0 -0.02490313
Link 186 206 2320 0 -0.12094125
Link 187 206 2321 0 -0.14943915
Link 188 206 2322 0 -0.01328873
Link 189 206 2323 0 0.12034291
Link 190 206 2324 0 0.98781125
Link 191 206 2325 0 0.52239047
Link 192 206 2326 0 0.24771681
Link 193 206 2327 0 0.82405863
Link 194 206 2328 0 -0.49460761
Link 1 207 2329 0 -0.38764107
Link 2 207 2330 0 0.00261856
Link 3 207 2331 0 0.45499371
Link 4 207 2332 0 -0.31887189
Link 5 207 2333 0 0.31763604
Link 6 207 2334 0 0.31743676
Link 7 207 2335 0 -0.21295362
Link 8 207 2336 0 0.42462768
Link 9 207 2337 0 0.09458594
Link 10 207 2338 0 -0.27589549
Link 11 207 2339 0 0.50733381
Link 12 207 2340 0 -0.06358615
Link 13 207 2341 0 0.56816925
Link 14 207 2342 0 0.12575641
Link 15 207 2343 0 0.30485101
Link 16 207 2344 0 0.11095137
Link 17 207 2345 0 -0.19247498
Link 18 207 2346 0 0.10370562
Link 19 207 2347 0 -0.18867860
Link 20 207 2348 0 -0.22541925
Link 21 207 2349 0 0.03067955
Link 22 207 2350 0 -0.14197515
Link 23 207 2351 0 -0.16781260
Link 24 207 2352 0 -0.10751247
Link 25 207 2353 0 -0.14373281
Link 26 207 2354 0 -0.18787233
Link 27 207 2355 0 0.46045737
Link 28 207 2356 0 -0.02746018
Link 29 207 2357 0 0.20895905
Link 30 207 2358 0 0.33753915
Link 31 207 2359 0 -0.36622225
Link 32 207 2360 0 0.20596145
Link 33 207 2361 0 -0.20879659
Link 34 207 2362 0 -0.38552462
Link 35 207 2363 0 0.33961242
Link 36 207 2364 0 0.32440642
Link 37 207 2365 0 -0.00005615
Link 38 207 2366 0 0.20423151
Link 39 207 2367 0 -0.54043487
Link 40 207 2368 0 -0.22108720
Link 41 207 2369 0 -0.33079690
Link 42 207 2370 0 -0.10158148
Link 43 207 2371 0 0.09592192
Link 44 207 2372 0 -0.40683011
Link 45 207 2373 0 0.57717491
Link 46 207 2374 0 -0.15178044
Link 47 207 2375 0 0.05653445
Link 48 207 2376 0 0.12448721
Link 49 207 2377 0 -0.19839428
Link 50 207 2378 0 0.12406698
Link 51 207 2379 0 0.01340215
Link 52 207 2380 0 -0.38001573
Link 53 207 2381 0 -0.09295488
Link 54 207 2382 0 0.08702515
Link 55 207 2383 0 0.07952798
Link 56 207 2384 0 -0.09913991
Link 57 207 2385 0 0.34192046
Link 58 207 2386 0 0.41273699
Link 59 207 2387 0 0.65990406
Link 60 207 2388 0 0.27675373
Link 61 207 2389 0 0.37661462
Link 62 207 2390 0 0.07512930
Link 63 207 2391 0 0.71599345
Link 64 207 2392 0 -0.14599576
Link 65 207 2393 0 0.00169876
Link 66 207 2394 0 -0.41498388
Link 67 207 2395 0 -0.25030314
Link 68 207 2396 0 0.37790451
Link 69 207 2397 0 -0.00797015
Link 70 207 2398 0 0.02294801
Link 71 207 2399 0 -0.33873984
Link 72 207 2400 0 -0.03785290
Link 73 207 2401 0 -0.25239457
Link 74 207 2402 0 0.31097092
Link 75 207 2403 0 -0.41143610
Link 76 207 2404 0 0.04632026
Link 77 207 2405 0 0.00713949
Link 78 207 2406 0 -0.00342322
Link 79 207 2407 0 0.32239371
Link 80 207 2408 0 -0.48704357
Link 81 207 2409 0 0.42596044
Link 82 207 2410 0 -0.17035259
Link 83 207 2411 0 0.61533535
Link 84 207 2412 0 0.21913189
Link 85 207 2413 0 0.33168578
Link 86 207 2414 0 -0.18116461
Link 87 207 2415 0 0.57669139
Link 88 207 2416 0 0.06169627
Link 89 207 2417 0 0.03948244
Link 90 207 2418 0 -0.14419716
Link 91 207 2419 0 -0.31759209
Link 92 207 2420 0 -0.15821695
Link 93 207 2421 0 0.25376928
Link 94 207 2422 0 0.58725751
Link 95 207 2423 0 -0.07888975
Link 96 207 2424 0 0.21326600
Link 97 207 2425 0 0.04903825
Link 98 207 2426 0 0.13799182
Link 99 207 2427 0 0.03138894
Link 100 207 2428 0 0.41365336
Link 101 207 2429 0 0.32972379
Link 102 207 2430 0 0.17036173
Link 103 207 2431 0 0.31926721
Link 104 207 2432 0 -0.17443743
Link 105 207 2433 0 -0.15194706
Link 106 207 2434 0 0.26051111
Link 107 207 2435 0 0.08144802
Link 108 207 2436 0 0.05966022
Link 109 207 2437 0 -0.67614888
Link 110 207 2438 0 -0.22871793
Link 111 207 2439 0 -0.22581972
Link 112 207 2440 0 -0.03347337
Link 113 207 2441 0 0.11640770
Link 114 207 2442 0 -0.31311332
Link 115 207 2443 0 -0.09425307
Link 116 207 2444 0 -0.53732369
Link 117 207 2445 0 -0.46010707
Link 118 207 2446 0 0.14895255
Link 119 207 2447 0 0.17139577
Link 120 207 2448 0 -0.26062482
Link 121 207 2449 0 0.03904428
Link 122 207 2450 0 0.02628053
Link 123 207 2451 0 0.00670039
Link 124 207 2452 0 0.19315195
Link 125 207 2453 0 -0.07293782
Link 126 207 2454 0 0.48446194
Link 127 207 2455 0 0.37025422
Link 128 207 2456 0 0.46705377
Link 129 207 2457 0 -0.12043156
Link 130 207 2458 0 0.03823958
Link 131 207 2459 0 -0.00539517
Link 132 207 2460 0 0.22854936
Link 133 207 2461 0 -0.26630388
Link 134 207 2462 0 -0.40432690
Link 135 207 2463 0 -0.02729093
Link 136 207 2464 0 -0.34931697
Link 137 207 2465 0 0.11110465
Link 138 207 2466 0 -0.33306935
Link 139 207 2467 0 -0.21722799
Link 140 207 2468 0 -0.33598750
Link 141 207 2469 0 -0.30234747
Link 142 207 2470 0 -0.45685225
Link 143 207 2471 0 -0.23867098
Link 144 207 2472 0 0.13859673
Link 145 207 2473 0 0.49891934
Link 146 207 2474 0 -0.23424131
Link 147 207 2475 0 -0.62748854
Link 148 207 2476 0 -0.08885330
Link 149 207 2477 0 0.13222866
Link 150 207 2478 0 0.21530036
Link 151 207 2479 0 -0.58923425
Link 152 207 2480 0 -0.45631228
Link 153 207 2481 0 0.00771316
Link 154 207 2482 0 -0.18005789
Link 155 207 2483 0 -0.35138974
Link 156 207 2484 0 -0.05730067
Link 157 207 2485 0 -0.01097354
Link 158 207 2486 0 -0.14693151
Link 159 207 2487 0 0.37938841
Link 160 207 2488 0 -0.17157828
Link 161 207 2489 0 0.08888929
Link 162 207 2490 0 0.08306743
Link 163 207 2491 0 -0.15706211
Link 164 207 2492 0 -0.25906747
Link 165 207 2493 0 0.25901208
Link 166 207 2494 0 -0.13628458
Link 167 207 2495 0 -0.09847587
Link 168 207 2496 0 0.49603343
Link 169 207 2497 0 0.04097441
Link 170 207 2498 0 -0.08831034
Link 171 207 2499 0 -0.26294512
Link 172 207 2500 0 -0.38238755
Link 173 207 2501 0 0.22374015
Link 174 207 2502 0 0.17609804
Link 175 207 2503 0 0.28019794
Link 176 207 2504 0 -0.05875919
Link 177 207 2505 0 0.07511908
Link 178 207 2506 0 0.12045055
Link 179 207 2507 0 -0.12348260
Link 180 207 2508 0 0.83898868
Link 181 207 2509 0 -0.56330187
Link 182 207 2510 0 0.01154203
Link 183 207 2511 0 -0.00587409
Link 184 207 2512 0 -0.09223869
Link 185 207 2513 0 -0.29857386
Link 186 207 2514 0 0.11314145
Link 187 207 2515 0 0.36352299
Link 188 207 2516 0 -0.22241421
Link 189 207 2517 0 0.02190253
Link 190 207 2518 0 -0.26573722
Link 191 207 2519 0 -0.31545035
Link 192 207 2520 0 0.28247148
Link 193 207 2521 0 -0.01385261
Link 194 207 2522 0 -0.13401197
Link 1 208 2523 0 0.34524543
Link 2 208 2524 0 -0.03120473
Link 3 208 2525 0 -0.18459741
Link 4 208 2526 0 -0.20252234
Link 5 208 2527 0 -0.17523439
Link 6 208 2528 0 0.07416826
Link 7 208 2529 0 0.25397174
Link 8 208 2530 0 0.31476984
Link 9 208 2531 0 0.37028974
Link 10 208 2532 0 0.42073903
Link 11 208 2533 0 -0.07162074
Link 12 208 2534 0 0.72682626
Link 13 208 2535 0 -0.05846017
Link 14 208 2536 0 -0.01526379
Link 15 208 2537 0 -0.29526305
Link 16 208 2538 0 -0.09634084
Link 17 208 2539 0 -0.18868947
Link 18 208 2540 0 0.12125971
Link 19 208 2541 0 -0.13598471
Link 20 208 2542 0 -0.29613013
Link 21 208 2543 0 -0.05292503
Link 22 208 2544 0 -0.22673242
Link 23 208 2545 0 -0.50907746
Link 24 208 2546 0 -0.27147120
Link 25 208 2547 0 -0.08860211
Link 26 208 2548 0 -0.13791239
Link 27 208 2549 0 -0.06591658
Link 28 208 2550 0 -0.88441788
Link 29 208 2551 0 -0.14155624
Link 30 208 2552 0 -0.40153018
Link 31 208 2553 0 0.31499011
Link 32 208 2554 0 -0.10503437
Link 33 208 2555 0 0.22045211
Link 34 208 2556 0 -0.12499667
Link 35 208 2557 0 0.34240967
Link 36 208 2558 0 -0.00036788
Link 37 208 2559 0 -0.20408508
Link 38 208 2560 0 -0.07355941
Link 39 208 2561 0 -0.39425104
Link 40 208 2562 0 0.45996126
Link 41 208 2563 0 -0.40960015
Link 42 208 2564 0 0.10221770
Link 43 208 2565 0 0.25418422
Link 44 208 2566 0 0.28407663
Link 45 208 2567 0 -0.18498535
Link 46 208 2568 0 -0.03968144
Link 47 208 2569 0 -0.24495633
Link 48 208 2570 0 0.05784058
Link 49 208 2571 0 0.18195952
Link 50 208 2572 0 -0.20780337
Link 51 208 2573 0 0.12606333
Link 52 208 2574 0 0.14859303
Link 53 208 2575 0 0.06462301
Link 54 208 2576 0 0.09718388
Link 55 208 2577 0 -0.53598182
Link 56 208 2578 0 -0.03554132
Link 57 208 2579 0 0.51656005
Link 58 208 2580 0 -0.08664789
Link 59 208 2581 0 -0.12939421
Link 60 208 2582 0 -0.08251729
Link 61 208 2583 0 0.35045717
Link 62 208 2584 0 0.03300287
Link 63 208 2585 0 -0.15627260
Link 64 208 2586 0 0.12330225
Link 65 208 2587 0 0.20300243
Link 66 208 2588 0 0.06605770
Link 67 208 2589 0 -0.25970490
Link 68 208 2590 0 0.07650979
Link 69 208 2591 0 0.30405137
Link 70 208 2592 0 0.11874768
Link 71 208 2593 0 -0.29316915
Link 72 208 2594 0 0.17332685
Link 73 208 2595 0 -0.21355549
Link 74 208 2596 0 -0.30526229
Link 75 208 2597 0 0.07687431
Link 76 208 2598 0 0.06971954
Link 77 208 2599 0 0.01359617
Link 78 208 2600 0 -0.35695295
Link 79 208 2601 0 -0.32350722
Link 80 208 2602 0 0.00040400
Link 81 208 2603 0 -0.18679319
Link 82 208 2604 0 0.29376978
Link 83 208 2605 0 0.58126585
Link 84 208 2606 0 -0.62452823
Link 85 208 2607 0 0.54677984
Link 86 208 2608 0 0.18653717
Link 87 208 2609 0 -0.60456950
Link 88 208 2610 0 0.16470952
Link 89 208 2611 0 0.19875327
Link 90 208 2612 0 -0.19619085
Link 91 208 2613 0 0.00637777
Link 92 208 2614 0 0.19922540
Link 93 208 2615 0 0.03667075
Link 94 208 2616 0 -0.26618221
Link 95 208 2617 0 0.11314446
Link 96 208 2618 0 -0.47505200
Link 97 208 2619 0 0.43093465
Link 98 208 2620 0 0.22899127
Link 99 208 2621 0 -0.29393082
Link 100 208 2622 0 -0.40660793
Link 101 208 2623 0 -0.12464435
Link 102 208 2624 0 0.01447510
Link 103 208 2625 0 -0.01102919
Link 104 208 2626 0 0.24022760
Link 105 208 2627 0 0.08777873
Link 106 208 2628 0 -0.00750297
Link 107 208 2629 0 -0.39618969
Link 108 208 2630 0 0.08433892
Link 109 208 2631 0 0.13600893
Link 110 208 2632 0 -0.67930234
Link 111 208 2633 0 -0.53343144
Link 112 208 2634 0 -0.02981845
Link 113 208 2635 0 -0.25622832
Link 114 208 2636 0 -0.21317471
Link 115 208 2637 0 0.39665260
Link 116 208 2638 0 0.20042421
Link 117 208 2639 0 -0.02582195
Link 118 208 2640 0 0.14512853
Link 119 208 2641 0 0.19842152
Link 120 208 2642 0 -0.19705611
Link 121 208 2643 0 0.05670296
Link 122 208 2644 0 0.75648444
Link 123 208 2645 0 0.14389010
Link 124 208 2646 0 0.09844521
Link 125 208 2647 0 0.17980640
Link 126 208 2648 0 0.05850080
Link 127 208 2649 0 -0.26555069
Link 128 208 2650 0 -0.08985122
Link 129 208 2651 0 0.01477926
Link 130 208 2652 0 -0.19304003
Link 131 208 2653 0 -0.14398325
Link 132 208 2654 0 0.41743263
Link 133 208 2655 0 0.20652141
Link 134 208 2656 0 -0.24620697
Link 135 208 2657 0 -0.56042438
Link 136 208 2658 0 -0.04734416
Link 137 208 2659 0 0.41272189
Link 138 208 2660 0 -0.04692526
Link 139 208 2661 0 -0.07366949
Link 140 208 2662 0 0.04512371
Link 141 208 2663 0 -0.35094544
Link 142 208 2664 0 0.63087971
Link 143 208 2665 0 -0.14091699
Link 144 208 2666 0 0.12200985
Link 145 208 2667 0 0.38219774
Link 146 208 2668 0 -0.03203846
Link 147 208 2669 0 0.36189255
Link 148 208 2670 0 0.02615606
Link 149 208 2671 0 -0.40963069
Link 150 208 2672 0 -0.03740920
Link 151 208 2673 0 0.17438535
Link 152 208 2674 0 -0.19245803
Link 153 208 2675 0 0.31961312
Link 154 208 2676 0 0.11891005
Link 155 208 2677 0 -0.05263320
Link 156 208 2678 0 -0.01370413
Link 157 208 2679 0 -0.18846351
Link 158 208 2680 0 -0.03616328
Link 159 208 2681 0 -0.06867015
Link 160 208 2682 0 0.54659210
Link 161 208 2683 0 -0.17387489
Link 162 208 2684 0 -0.23967321
Link 163 208 2685 0 -0.28550632
Link 164 208 2686 0 0.08227685
Link 165 208 2687 0 0.62479105
Link 166 208 2688 0 0.05249258
Link 167 208 2689 0 -0.26024784
Link 168 208 2690 0 -0.39107402
Link 169 208 2691 0 -0.14079259
Link 170 208 2692 0 -0.36757992
Link 171 208 2693 0 0.67889070
Link 172 208 2694 0 0.35195945
Link 173 208 2695 0 -0.21977379
Link 174 208 2696 0 0.04244601
Link 175 208 2697 0 -0.50120063
Link 176 208 2698 0 -0.04811091
Link 177 208 2699 0 -0.31634318
Link 178 208 2700 0 0.21281402
Link 179 208 2701 0 0.41640621
Link 180 208 2702 0 -0.29932539
Link 181 208 2703 0 0.17675265
Link 182 208 2704 0 0.04548529
Link 183 208 2705 0 -0.29137177
Link 184 208 2706 0 0.79865781
Link 185 208 2707 0 -0.03352715
Link 186 208 2708 0 -0.10449659
Link 187 208 2709 0 -0.02314913
Link 188 208 2710 0 -0.13014845
Link 189 208 2711 0 0.19763338
Link 190 208 2712 0 0.49886305
Link 191 208 2713 0 0.12466825
Link 192 208 2714 0 0.10873235
Link 193 208 2715 0 0.09774251
Link 194 208 2716 0 -0.44060592
Link 1 209 2717 0 -0.06316338
Link 2 209 2718 0 0.07568052
Link 3 209 2719 0 -0.50143550
Link 4 209 2720 0 -0.78188774
Link 5 209 2721 0 -0.06406085
Link 6 209 2722 0 -0.76033357
Link 7 209 2723 0 -0.17153299
Link 8 209 2724 0 -0.29085944
Link 9 209 2725 0 0.27575272
Link 10 209 2726 0 0.69343691
Link 11 209 2727 0 0.45152334
Link 12 209 2728 0 0.15155136
Link 13 209 2729 0 0.06147707
Link 14 209 2730 0 -0.85817470
Link 15 209 2731 0 -0.01117777
Link 16 209 2732 0 -0.65178363
Link 17 209 2733 0 0.17621942
Link 18 209 2734 0 0.62327137
Link 19 209 2735 0 0.29645805
Link 20 209 2736 0 -0.38111842
Link 21 209 2737 0 0.42761216
Link 22 209 2738 0 0.19404372
Link 23 209 2739 0 -0.10506315
Link 24 209 2740 0 -0.21091672
Link 25 209 2741 0 -0.05921470
Link 26 209 2742 0 0.53043832
Link 27 209 2743 0 0.27727287
Link 28 209 2744 0 -0.03755662
Link 29 209 2745 0 -0.19428363
Link 30 209 2746 0 0.01943278
Link 31 209 2747 0 0.33937096
Link 32 209 2748 0 0.42006309
Link 33 209 2749 0 0.24122500
Link 34 209 2750 0 -0.78091751
Link 35 209 2751 0 -0.32171200
Link 36 209 2752 0 -0.23200106
Link 37 209 2753 0 -0.29972586
Link 38 209 2754 0 0.04303260
Link 39 209 2755 0 0.02358161
Link 40 209 2756 0 0.18117449
Link 41 209 2757 0 -0.02464985
Link 42 209 2758 0 -0.33583033
Link 43 209 2759 0 -0.13891864
Link 44 209 2760 0 0.08784085
Link 45 209 2761 0 -0.13255661
Link 46 209 2762 0 -0.15870993
Link 47 209 2763 0 0.42760431
Link 48 209 2764 0 -0.05685077
Link 49 209 2765 0 0.32051071
Link 50 209 2766 0 0.05857915
Link 51 209 2767 0 0.57950812
Link 52 209 2768 0 -0.43972343
Link 53 209 2769 0 -0.30449338
Link 54 209 2770 0 0.16238507
Link 55 209 2771 0 0.05635948
Link 56 209 2772 0 -0.45119229
Link 57 209 2773 0 0.28176136
Link 58 209 2774 0 -0.12843458
Link 59 209 2775 0 0.15742683
Link 60 209 2776 0 -0.39570612
Link 61 209 2777 0 0.01935738
Link 62 209 2778 0 -0.31338572
Link 63 209 2779 0 -0.38814668
Link 64 209 2780 0 -0.16054318
Link 65 209 2781 0 -0.16856813
Link 66 209 2782 0 0.18190217
Link 67 209 2783 0 0.10079096
Link 68 209 2784 0 0.46099894
Link 69 209 2785 0 -0.07341874
Link 70 209 2786 0 -0.09122714
Link 71 209 2787 0 0.28369193
Link 72 209 2788 0 -0.65943098
Link 73 209 2789 0 -0.21610324
Link 74 209 2790 0 -0.01699265
Link 75 209 2791 0 -0.03058448
Link 76 209 2792 0 0.23432263
Link 77 209 2793 0 -0.06681261
Link 78 209 2794 0 -0.51533019
Link 79 209 2795 0 0.82355611
Link 80 209 2796 0 0.57327290
