GenomeStart 3215
Neuron 1 1 0.00000000 1 0.00000000 0.00000000 0.00000000 0.00000000
Neuron 2 1 0.00000000 1 0.00000000 0.00000000 0.00000000 0.00000000
Neuron 3 1 0.00000000 1 0.00000000 0.00000000 0.00000000 0.00000000
Neuron 4 1 0.00000000 1 0.00000000 0.00000000 0.00000000 0.00000000
Neuron 5 1 0.00000000 1 0.00000000 0.00000000 0.00000000 0.00000000
Neuron 6 1 0.00000000 1 0.00000000 0.00000000 0.00000000 0.00000000
Neuron 7 1 0.00000000 1 0.00000000 0.00000000 0.00000000 0.00000000
Neuron 8 1 0.00000000 1 0.00000000 0.00000000 0.00000000 0.00000000
Neuron 9 1 0.00000000 1 0.00000000 0.00000000 0.00000000 0.00000000
Neuron 10 1 0.00000000 1 0.00000000 0.00000000 0.00000000 0.00000000
Neuron 11 1 0.00000000 1 0.00000000 0.00000000 0.00000000 0.00000000
Neuron 12 1 0.00000000 1 0.00000000 0.00000000 0.00000000 0.00000000
Neuron 13 1 0.00000000 1 0.00000000 0.00000000 0.00000000 0.00000000
Neuron 14 1 0.00000000 1 0.00000000 0.00000000 0.00000000 0.00000000
Neuron 15 1 0.00000000 1 0.00000000 0.00000000 0.00000000 0.00000000
Neuron 16 1 0.00000000 1 0.00000000 0.00000000 0.00000000 0.00000000
Neuron 17 1 0.00000000 1 0.00000000 0.00000000 0.00000000 0.00000000
Neuron 18 1 0.00000000 1 0.00000000 0.00000000 0.00000000 0.00000000
Neuron 19 1 0.00000000 1 0.00000000 0.00000000 0.00000000 0.00000000
Neuron 20 1 0.00000000 1 0.00000000 0.00000000 0.00000000 0.00000000
Neuron 21 1 0.00000000 1 0.00000000 0.00000000 0.00000000 0.00000000
Neuron 22 1 0.00000000 1 0.00000000 0.00000000 0.00000000 0.00000000
Neuron 23 1 0.00000000 1 0.00000000 0.00000000 0.00000000 0.00000000
Neuron 24 1 0.00000000 1 0.00000000 0.00000000 0.00000000 0.00000000
Neuron 25 1 0.00000000 1 0.00000000 0.00000000 0.00000000 0.00000000
Neuron 26 1 0.00000000 1 0.00000000 0.00000000 0.00000000 0.00000000
Neuron 27 1 0.00000000 1 0.00000000 0.00000000 0.00000000 0.00000000
Neuron 28 1 0.00000000 1 0.00000000 0.00000000 0.00000000 0.00000000
Neuron 29 1 0.00000000 1 0.00000000 0.00000000 0.00000000 0.00000000
Neuron 30 1 0.00000000 1 0.00000000 0.00000000 0.00000000 0.00000000
Neuron 31 1 0.00000000 1 0.00000000 0.00000000 0.00000000 0.00000000
Neuron 32 1 0.00000000 1 0.00000000 0.00000000 0.00000000 0.00000000
Neuron 33 1 0.00000000 1 0.00000000 0.00000000 0.00000000 0.00000000
Neuron 34 1 0.00000000 1 0.00000000 0.00000000 0.00000000 0.00000000
Neuron 35 1 0.00000000 1 0.00000000 0.00000000 0.00000000 0.00000000
Neuron 36 1 0.00000000 1 0.00000000 0.00000000 0.00000000 0.00000000
Neuron 37 1 0.00000000 1 0.00000000 0.00000000 0.00000000 0.00000000
Neuron 38 1 0.00000000 1 0.00000000 0.00000000 0.00000000 0.00000000
Neuron 39 1 0.00000000 1 0.00000000 0.00000000 0.00000000 0.00000000
Neuron 40 1 0.00000000 1 0.00000000 0.00000000 0.00000000 0.00000000
Neuron 41 1 0.00000000 1 0.00000000 0.00000000 0.00000000 0.00000000
Neuron 42 1 0.00000000 1 0.00000000 0.00000000 0.00000000 0.00000000
Neuron 43 1 0.00000000 1 0.00000000 0.00000000 0.00000000 0.00000000
Neuron 44 1 0.00000000 1 0.00000000 0.00000000 0.00000000 0.00000000
Neuron 45 1 0.00000000 1 0.00000000 0.00000000 0.00000000 0.00000000
Neuron 46 1 0.00000000 1 0.00000000 0.00000000 0.00000000 0.00000000
Neuron 47 1 0.00000000 1 0.00000000 0.00000000 0.00000000 0.00000000
Neuron 48 1 0.00000000 1 0.00000000 0.00000000 0.00000000 0.00000000
Neuron 49 1 0.00000000 1 0.00000000 0.00000000 0.00000000 0.00000000
Neuron 50 1 0.00000000 1 0.00000000 0.00000000 0.00000000 0.00000000
Neuron 51 1 0.00000000 1 0.00000000 0.00000000 0.00000000 0.00000000
Neuron 52 1 0.00000000 1 0.00000000 0.00000000 0.00000000 0.00000000
Neuron 53 1 0.00000000 1 0.00000000 0.00000000 0.00000000 0.00000000
Neuron 54 1 0.00000000 1 0.00000000 0.00000000 0.00000000 0.00000000
Neuron 55 1 0.00000000 1 0.00000000 0.00000000 0.00000000 0.00000000
Neuron 56 1 0.00000000 1 0.00000000 0.00000000 0.00000000 0.00000000
Neuron 57 1 0.00000000 1 0.00000000 0.00000000 0.00000000 0.00000000
Neuron 58 1 0.00000000 1 0.00000000 0.00000000 0.00000000 0.00000000
Neuron 59 1 0.00000000 1 0.00000000 0.00000000 0.00000000 0.00000000
Neuron 60 1 0.00000000 1 0.00000000 0.00000000 0.00000000 0.00000000
Neuron 61 1 0.00000000 1 0.00000000 0.00000000 0.00000000 0.00000000
Neuron 62 1 0.00000000 1 0.00000000 0.00000000 0.00000000 0.00000000
Neuron 63 1 0.00000000 1 0.00000000 0.00000000 0.00000000 0.00000000
Neuron 64 1 0.00000000 1 0.00000000 0.00000000 0.00000000 0.00000000
Neuron 65 1 0.00000000 1 0.00000000 0.00000000 0.00000000 0.00000000
Neuron 66 1 0.00000000 1 0.00000000 0.00000000 0.00000000 0.00000000
Neuron 67 1 0.00000000 1 0.00000000 0.00000000 0.00000000 0.00000000
Neuron 68 1 0.00000000 1 0.00000000 0.00000000 0.00000000 0.00000000
Neuron 69 1 0.00000000 1 0.00000000 0.00000000 0.00000000 0.00000000
Neuron 70 1 0.00000000 1 0.00000000 0.00000000 0.00000000 0.00000000
Neuron 71 1 0.00000000 1 0.00000000 0.00000000 0.00000000 0.00000000
Neuron 72 1 0.00000000 1 0.00000000 0.00000000 0.00000000 0.00000000
Neuron 73 1 0.00000000 1 0.00000000 0.00000000 0.00000000 0.00000000
Neuron 74 1 0.00000000 1 0.00000000 0.00000000 0.00000000 0.00000000
Neuron 75 1 0.00000000 1 0.00000000 0.00000000 0.00000000 0.00000000
Neuron 76 1 0.00000000 1 0.00000000 0.00000000 0.00000000 0.00000000
Neuron 77 1 0.00000000 1 0.00000000 0.00000000 0.00000000 0.00000000
Neuron 78 1 0.00000000 1 0.00000000 0.00000000 0.00000000 0.00000000
Neuron 79 1 0.00000000 1 0.00000000 0.00000000 0.00000000 0.00000000
Neuron 80 1 0.00000000 1 0.00000000 0.00000000 0.00000000 0.00000000
Neuron 81 1 0.00000000 1 0.00000000 0.00000000 0.00000000 0.00000000
Neuron 82 1 0.00000000 1 0.00000000 0.00000000 0.00000000 0.00000000
Neuron 83 1 0.00000000 1 0.00000000 0.00000000 0.00000000 0.00000000
Neuron 84 1 0.00000000 1 0.00000000 0.00000000 0.00000000 0.00000000
Neuron 85 1 0.00000000 1 0.00000000 0.00000000 0.00000000 0.00000000
Neuron 86 1 0.00000000 1 0.00000000 0.00000000 0.00000000 0.00000000
Neuron 87 1 0.00000000 1 0.00000000 0.00000000 0.00000000 0.00000000
Neuron 88 1 0.00000000 1 0.00000000 0.00000000 0.00000000 0.00000000
Neuron 89 1 0.00000000 1 0.00000000 0.00000000 0.00000000 0.00000000
Neuron 90 1 0.00000000 1 0.00000000 0.00000000 0.00000000 0.00000000
Neuron 91 1 0.00000000 1 0.00000000 0.00000000 0.00000000 0.00000000
Neuron 92 1 0.00000000 1 0.00000000 0.00000000 0.00000000 0.00000000
Neuron 93 1 0.00000000 1 0.00000000 0.00000000 0.00000000 0.00000000
Neuron 94 1 0.00000000 1 0.00000000 0.00000000 0.00000000 0.00000000
Neuron 95 1 0.00000000 1 0.00000000 0.00000000 0.00000000 0.00000000
Neuron 96 1 0.00000000 1 0.00000000 0.00000000 0.00000000 0.00000000
Neuron 97 1 0.00000000 1 0.00000000 0.00000000 0.00000000 0.00000000
Neuron 98 1 0.00000000 1 0.00000000 0.00000000 0.00000000 0.00000000
Neuron 99 1 0.00000000 1 0.00000000 0.00000000 0.00000000 0.00000000
Neuron 100 1 0.00000000 1 0.00000000 0.00000000 0.00000000 0.00000000
Neuron 101 1 0.00000000 1 0.00000000 0.00000000 0.00000000 0.00000000
Neuron 102 1 0.00000000 1 0.00000000 0.00000000 0.00000000 0.00000000
Neuron 103 1 0.00000000 1 0.00000000 0.00000000 0.00000000 0.00000000
Neuron 104 1 0.00000000 1 0.00000000 0.00000000 0.00000000 0.00000000
Neuron 105 1 0.00000000 1 0.00000000 0.00000000 0.00000000 0.00000000
Neuron 106 1 0.00000000 1 0.00000000 0.00000000 0.00000000 0.00000000
Neuron 107 1 0.00000000 1 0.00000000 0.00000000 0.00000000 0.00000000
Neuron 108 1 0.00000000 1 0.00000000 0.00000000 0.00000000 0.00000000
Neuron 109 1 0.00000000 1 0.00000000 0.00000000 0.00000000 0.00000000
Neuron 110 1 0.00000000 1 0.00000000 0.00000000 0.00000000 0.00000000
Neuron 111 1 0.00000000 1 0.00000000 0.00000000 0.00000000 0.00000000
Neuron 112 1 0.00000000 1 0.00000000 0.00000000 0.00000000 0.00000000
Neuron 113 1 0.00000000 1 0.00000000 0.00000000 0.00000000 0.00000000
Neuron 114 1 0.00000000 1 0.00000000 0.00000000 0.00000000 0.00000000
Neuron 115 1 0.00000000 1 0.00000000 0.00000000 0.00000000 0.00000000
Neuron 116 1 0.00000000 1 0.00000000 0.00000000 0.00000000 0.00000000
Neuron 117 1 0.00000000 1 0.00000000 0.00000000 0.00000000 0.00000000
Neuron 118 1 0.00000000 1 0.00000000 0.00000000 0.00000000 0.00000000
Neuron 119 1 0.00000000 1 0.00000000 0.00000000 0.00000000 0.00000000
Neuron 120 1 0.00000000 1 0.00000000 0.00000000 0.00000000 0.00000000
Neuron 121 1 0.00000000 1 0.00000000 0.00000000 0.00000000 0.00000000
Neuron 122 1 0.00000000 1 0.00000000 0.00000000 0.00000000 0.00000000
Neuron 123 1 0.00000000 1 0.00000000 0.00000000 0.00000000 0.00000000
Neuron 124 1 0.00000000 1 0.00000000 0.00000000 0.00000000 0.00000000
Neuron 125 1 0.00000000 1 0.00000000 0.00000000 0.00000000 0.00000000
Neuron 126 1 0.00000000 1 0.00000000 0.00000000 0.00000000 0.00000000
Neuron 127 1 0.00000000 1 0.00000000 0.00000000 0.00000000 0.00000000
Neuron 128 1 0.00000000 1 0.00000000 0.00000000 0.00000000 0.00000000
Neuron 129 1 0.00000000 1 0.00000000 0.00000000 0.00000000 0.00000000
Neuron 130 1 0.00000000 1 0.00000000 0.00000000 0.00000000 0.00000000
Neuron 131 1 0.00000000 1 0.00000000 0.00000000 0.00000000 0.00000000
Neuron 132 1 0.00000000 1 0.00000000 0.00000000 0.00000000 0.00000000
Neuron 133 1 0.00000000 1 0.00000000 0.00000000 0.00000000 0.00000000
Neuron 134 1 0.00000000 1 0.00000000 0.00000000 0.00000000 0.00000000
Neuron 135 1 0.00000000 1 0.00000000 0.00000000 0.00000000 0.00000000
Neuron 136 1 0.00000000 1 0.00000000 0.00000000 0.00000000 0.00000000
Neuron 137 1 0.00000000 1 0.00000000 0.00000000 0.00000000 0.00000000
Neuron 138 1 0.00000000 1 0.00000000 0.00000000 0.00000000 0.00000000
Neuron 139 1 0.00000000 1 0.00000000 0.00000000 0.00000000 0.00000000
Neuron 140 1 0.00000000 1 0.00000000 0.00000000 0.00000000 0.00000000
Neuron 141 1 0.00000000 1 0.00000000 0.00000000 0.00000000 0.00000000
Neuron 142 1 0.00000000 1 0.00000000 0.00000000 0.00000000 0.00000000
Neuron 143 1 0.00000000 1 0.00000000 0.00000000 0.00000000 0.00000000
Neuron 144 1 0.00000000 1 0.00000000 0.00000000 0.00000000 0.00000000
Neuron 145 1 0.00000000 1 0.00000000 0.00000000 0.00000000 0.00000000
Neuron 146 1 0.00000000 1 0.00000000 0.00000000 0.00000000 0.00000000
Neuron 147 1 0.00000000 1 0.00000000 0.00000000 0.00000000 0.00000000
Neuron 148 1 0.00000000 1 0.00000000 0.00000000 0.00000000 0.00000000
Neuron 149 1 0.00000000 1 0.00000000 0.00000000 0.00000000 0.00000000
Neuron 150 1 0.00000000 1 0.00000000 0.00000000 0.00000000 0.00000000
Neuron 151 1 0.00000000 1 0.00000000 0.00000000 0.00000000 0.00000000
Neuron 152 1 0.00000000 1 0.00000000 0.00000000 0.00000000 0.00000000
Neuron 153 1 0.00000000 1 0.00000000 0.00000000 0.00000000 0.00000000
Neuron 154 1 0.00000000 1 0.00000000 0.00000000 0.00000000 0.00000000
Neuron 155 1 0.00000000 1 0.00000000 0.00000000 0.00000000 0.00000000
Neuron 156 1 0.00000000 1 0.00000000 0.00000000 0.00000000 0.00000000
Neuron 157 1 0.00000000 1 0.00000000 0.00000000 0.00000000 0.00000000
Neuron 158 1 0.00000000 1 0.00000000 0.00000000 0.00000000 0.00000000
Neuron 159 1 0.00000000 1 0.00000000 0.00000000 0.00000000 0.00000000
Neuron 160 1 0.00000000 1 0.00000000 0.00000000 0.00000000 0.00000000
Neuron 161 1 0.00000000 1 0.00000000 0.00000000 0.00000000 0.00000000
Neuron 162 1 0.00000000 1 0.00000000 0.00000000 0.00000000 0.00000000
Neuron 163 1 0.00000000 1 0.00000000 0.00000000 0.00000000 0.00000000
Neuron 164 1 0.00000000 1 0.00000000 0.00000000 0.00000000 0.00000000
Neuron 165 1 0.00000000 1 0.00000000 0.00000000 0.00000000 0.00000000
Neuron 166 1 0.00000000 1 0.00000000 0.00000000 0.00000000 0.00000000
Neuron 167 1 0.00000000 1 0.00000000 0.00000000 0.00000000 0.00000000
Neuron 168 1 0.00000000 1 0.00000000 0.00000000 0.00000000 0.00000000
Neuron 169 1 0.00000000 1 0.00000000 0.00000000 0.00000000 0.00000000
Neuron 170 1 0.00000000 1 0.00000000 0.00000000 0.00000000 0.00000000
Neuron 171 1 0.00000000 1 0.00000000 0.00000000 0.00000000 0.00000000
Neuron 172 1 0.00000000 1 0.00000000 0.00000000 0.00000000 0.00000000
Neuron 173 1 0.00000000 1 0.00000000 0.00000000 0.00000000 0.00000000
Neuron 174 1 0.00000000 1 0.00000000 0.00000000 0.00000000 0.00000000
Neuron 175 1 0.00000000 1 0.00000000 0.00000000 0.00000000 0.00000000
Neuron 176 1 0.00000000 1 0.00000000 0.00000000 0.00000000 0.00000000
Neuron 177 1 0.00000000 1 0.00000000 0.00000000 0.00000000 0.00000000
Neuron 178 1 0.00000000 1 0.00000000 0.00000000 0.00000000 0.00000000
Neuron 179 1 0.00000000 1 0.00000000 0.00000000 0.00000000 0.00000000
Neuron 180 1 0.00000000 1 0.00000000 0.00000000 0.00000000 0.00000000
Neuron 181 1 0.00000000 1 0.00000000 0.00000000 0.00000000 0.00000000
Neuron 182 1 0.00000000 1 0.00000000 0.00000000 0.00000000 0.00000000
Neuron 183 1 0.00000000 1 0.00000000 0.00000000 0.00000000 0.00000000
Neuron 184 1 0.00000000 1 0.00000000 0.00000000 0.00000000 0.00000000
Neuron 185 1 0.00000000 1 0.00000000 0.00000000 0.00000000 0.00000000
Neuron 186 1 0.00000000 1 0.00000000 0.00000000 0.00000000 0.00000000
Neuron 187 1 0.00000000 1 0.00000000 0.00000000 0.00000000 0.00000000
Neuron 188 1 0.00000000 1 0.00000000 0.00000000 0.00000000 0.00000000
Neuron 189 1 0.00000000 1 0.00000000 0.00000000 0.00000000 0.00000000
Neuron 190 1 0.00000000 1 0.00000000 0.00000000 0.00000000 0.00000000
Neuron 191 1 0.00000000 1 0.00000000 0.00000000 0.00000000 0.00000000
Neuron 192 1 0.00000000 1 0.00000000 0.00000000 0.00000000 0.00000000
Neuron 193 1 0.00000000 1 0.00000000 0.00000000 0.00000000 0.00000000
Neuron 194 2 0.00000000 1 0.00000000 0.00000000 0.00000000 0.00000000
Neuron 195 4 1.00000000 0 1.00000000 0.00000000 0.00000000 0.28558896
Neuron 196 4 1.00000000 1 1.00000000 0.00000000 0.00000000 0.63585167
Neuron 197 4 1.00000000 0 1.00000000 0.00000000 0.00000000 -0.49585644
Neuron 198 4 1.00000000 0 1.00000000 0.00000000 0.00000000 0.65099135
Neuron 199 4 1.00000000 0 1.00000000 0.00000000 0.00000000 0.03920268
Neuron 200 4 1.00000000 0 1.00000000 0.00000000 0.00000000 0.35102820
Neuron 201 4 1.00000000 0 1.00000000 0.00000000 0.00000000 0.01113841
Neuron 202 4 1.00000000 1 1.00000000 0.00000000 0.00000000 -0.50409404
Neuron 203 4 1.00000000 0 1.00000000 0.00000000 0.00000000 0.20192745
Neuron 204 4 1.00000000 1 1.00000000 0.00000000 0.00000000 0.46093203
Neuron 205 4 1.00000000 0 1.00000000 0.00000000 0.00000000 0.43147647
Neuron 206 4 1.00000000 0 1.00000000 0.00000000 0.00000000 -0.38453143
Neuron 207 4 1.00000000 0 1.00000000 0.00000000 0.00000000 -0.23033757
Neuron 208 4 1.00000000 0 1.00000000 0.00000000 0.00000000 -0.20077915
Neuron 209 4 1.00000000 0 1.00000000 0.00000000 0.00000000 -0.20979312
Link 1 195 1 0 0.50770968
Link 2 195 2 0 0.20150385
Link 3 195 3 0 -0.58598884
Link 4 195 4 0 0.43492609
Link 5 195 5 0 -0.01758255
Link 6 195 6 0 -0.89780400
Link 7 195 7 0 0.25912111
Link 8 195 8 0 0.44215507
Link 9 195 9 0 0.23932981
Link 10 195 10 0 -0.43978290
Link 11 195 11 0 0.01960904
Link 12 195 12 0 0.78331903
Link 13 195 13 0 0.35555235
Link 14 195 14 0 0.51906460
Link 15 195 15 0 1.00639531
Link 16 195 16 0 -0.23805384
Link 17 195 17 0 0.22438123
Link 18 195 18 0 0.84833060
Link 19 195 19 0 -0.51482417
Link 20 195 20 0 -0.20367097
Link 21 195 21 0 0.56370949
Link 22 195 22 0 0.41867515
Link 23 195 23 0 -0.98183379
Link 24 195 24 0 0.04092756
Link 25 195 25 0 0.95417101
Link 26 195 26 0 -0.25637912
Link 27 195 27 0 0.36176172
Link 28 195 28 0 -0.02296354
Link 29 195 29 0 1.00869678
Link 30 195 30 0 -0.68043478
Link 31 195 31 0 -1.25841366
Link 32 195 32 0 -0.92399813
Link 33 195 33 0 -0.23037660
Link 34 195 34 0 -0.24280910
Link 35 195 35 0 0.52053266
Link 36 195 36 0 -0.15461974
Link 37 195 37 0 0.46783902
Link 38 195 38 0 0.25004787
Link 39 195 39 0 0.07545010
Link 40 195 40 0 0.54555742
Link 41 195 41 0 0.99906252
Link 42 195 42 0 0.54268468
Link 43 195 43 0 -0.40549745
Link 44 195 44 0 -0.24261456
Link 45 195 45 0 0.09198386
Link 46 195 46 0 -0.01566107
Link 47 195 47 0 -0.13112682
Link 48 195 48 0 0.29753715
Link 49 195 49 0 -0.55716265
Link 50 195 50 0 -0.37645058
Link 51 195 51 0 1.00538541
Link 52 195 52 0 0.37800914
Link 53 195 53 0 -0.27748605
Link 54 195 54 0 -0.18484159
Link 55 195 55 0 0.25866330
Link 56 195 56 0 0.00929975
Link 57 195 57 0 0.75465497
Link 58 195 58 0 -0.72982904
Link 59 195 59 0 -0.10819065
Link 60 195 60 0 0.09129393
Link 61 195 61 0 -0.14347051
Link 62 195 62 0 0.41552369
Link 63 195 63 0 -0.70949821
Link 64 195 64 0 0.08819326
Link 65 195 65 0 -0.94801507
Link 66 195 66 0 -0.48713921
Link 67 195 67 0 -0.18103381
Link 68 195 68 0 0.40380927
Link 69 195 69 0 -0.57274627
Link 70 195 70 0 -0.38143994
Link 71 195 71 0 0.58119417
Link 72 195 72 0 0.24037800
Link 73 195 73 0 0.14455367
Link 74 195 74 0 -0.40441147
Link 75 195 75 0 0.32686225
Link 76 195 76 0 0.50998602
Link 77 195 77 0 0.44804681
Link 78 195 78 0 0.00535273
Link 79 195 79 0 0.13066779
Link 80 195 80 0 0.64409876
Link 81 195 81 0 0.48078988
Link 82 195 82 0 -0.37438317
Link 83 195 83 0 0.04910796
Link 84 195 84 0 1.80553321
Link 85 195 85 0 1.35658674
Link 86 195 86 0 0.00475434
Link 87 195 87 0 -0.32494512
Link 88 195 88 0 0.20255076
Link 89 195 89 0 0.17857883
Link 90 195 90 0 -0.06459194
Link 91 195 91 0 -0.92574174
Link 92 195 92 0 0.37260117
Link 93 195 93 0 0.30343120
Link 94 195 94 0 -0.12545721
Link 95 195 95 0 0.49106923
Link 96 195 96 0 0.07893258
Link 97 195 97 0 -0.61959126
Link 98 195 98 0 0.16127270
Link 99 195 99 0 0.11772603
Link 100 195 100 0 -0.95727991
Link 101 195 101 0 0.52136354
Link 102 195 102 0 -0.69762088
Link 103 195 103 0 0.27513956
Link 104 195 104 0 -0.35675838
Link 105 195 105 0 0.21102257
Link 106 195 106 0 0.07443835
Link 107 195 107 0 -0.75742447
Link 108 195 108 0 0.32809898
Link 109 195 109 0 -0.08178029
Link 110 195 110 0 0.12557819
Link 111 195 111 0 1.25475490
Link 112 195 112 0 -0.07816878
Link 113 195 113 0 -0.57585666
Link 114 195 114 0 0.84513398
Link 115 195 115 0 0.29061792
Link 116 195 116 0 0.04165885
Link 117 195 117 0 0.57851905
Link 118 195 118 0 0.78097905
Link 119 195 119 0 -0.30473056
Link 120 195 120 0 -0.05468208
Link 121 195 121 0 -0.28454577
Link 122 195 122 0 0.73248852
Link 123 195 123 0 0.15151040
Link 124 195 124 0 -0.13016020
Link 125 195 125 0 -0.46790775
Link 126 195 126 0 0.08563464
Link 127 195 127 0 -0.00202958
Link 128 195 128 0 0.00738325
Link 129 195 129 0 -1.06805585
Link 130 195 130 0 0.23695246
Link 131 195 131 0 0.14998197
Link 132 195 132 0 0.46117906
Link 133 195 133 0 0.08949256
Link 134 195 134 0 0.20758325
Link 135 195 135 0 0.52719732
Link 136 195 136 0 0.13283175
Link 137 195 137 0 -0.08761105
Link 138 195 138 0 -0.07699021
Link 139 195 139 0 -0.71531379
Link 140 195 140 0 0.54742465
Link 141 195 141 0 0.29864453
Link 142 195 142 0 -0.11217626
Link 143 195 143 0 -0.52076256
Link 144 195 144 0 -0.01533922
Link 145 195 145 0 0.05730795
Link 146 195 146 0 0.14225950
Link 147 195 147 0 0.46810208
Link 148 195 148 0 0.60100363
Link 149 195 149 0 0.29751414
Link 150 195 150 0 0.36215544
Link 151 195 151 0 0.30031513
Link 152 195 152 0 -0.81286942
Link 153 195 153 0 0.30526000
Link 154 195 154 0 -0.28427932
Link 155 195 155 0 0.23077511
Link 156 195 156 0 -0.75801560
Link 157 195 157 0 0.06055038
Link 158 195 158 0 -0.16729719
Link 159 195 159 0 -0.94589784
Link 160 195 160 0 -1.01641229
Link 161 195 161 0 0.62357950
Link 162 195 162 0 2.24755182
Link 163 195 163 0 0.12363477
Link 164 195 164 0 0.24607250
Link 165 195 165 0 0.27259976
Link 166 195 166 0 0.43116082
Link 167 195 167 0 0.23578293
Link 168 195 168 0 -0.15390912
Link 169 195 169 0 -0.47720889
Link 170 195 170 0 0.95106462
Link 171 195 171 0 0.41990538
Link 172 195 172 0 -0.64374969
Link 173 195 173 0 0.75776262
Link 174 195 174 0 0.74175353
Link 175 195 175 0 -0.29600122
Link 176 195 176 0 0.16859170
Link 177 195 177 0 -0.42864117
Link 178 195 178 0 -0.52296908
Link 179 195 179 0 0.16907378
Link 180 195 180 0 -0.62728054
Link 181 195 181 0 0.66258207
Link 182 195 182 0 -0.23717413
Link 183 195 183 0 0.37625019
Link 184 195 184 0 0.02412340
Link 185 195 185 0 0.07220933
Link 186 195 186 0 -0.13388234
Link 187 195 187 0 -0.45378978
Link 188 195 188 0 -0.06014130
Link 189 195 189 0 1.04948586
Link 190 195 190 0 -1.78473838
Link 191 195 191 0 1.81659334
Link 192 195 192 0 -0.28570298
Link 193 195 193 0 -0.08400268
Link 194 195 194 0 -0.99054262
Link 1 196 195 0 1.68125670
Link 2 196 196 0 0.04506544
Link 3 196 197 0 -0.48126478
Link 4 196 198 0 -0.50618419
Link 5 196 199 0 0.07796994
Link 6 196 200 0 -0.75731186
Link 7 196 201 0 -0.76504209
Link 8 196 202 0 0.29058879
Link 9 196 203 0 0.62556207
Link 10 196 204 0 0.24961603
Link 11 196 205 0 0.49303515
Link 12 196 206 0 0.00501776
Link 13 196 207 0 -0.21204689
Link 14 196 208 0 0.07712445
Link 15 196 209 0 0.10910589
Link 16 196 210 0 -0.16570265
Link 17 196 211 0 -0.24744462
Link 18 196 212 0 -0.60446362
Link 19 196 213 0 0.65087914
Link 20 196 214 0 -0.12816535
Link 21 196 215 0 0.72320057
Link 22 196 216 0 -0.51421809
Link 23 196 217 0 0.61569123
Link 24 196 218 0 0.53775149
Link 25 196 219 0 -0.09525188
Link 26 196 220 0 0.07259224
Link 27 196 221 0 0.54196416
Link 28 196 222 0 -0.15550371
Link 29 196 223 0 0.19023642
Link 30 196 224 0 -0.76797948
Link 31 196 225 0 -0.23566065
Link 32 196 226 0 -0.32773922
Link 33 196 227 0 -0.46786387
Link 34 196 228 0 -0.84942855
Link 35 196 229 0 0.03671497
Link 36 196 230 0 0.78481673
Link 37 196 231 0 -0.29454908
Link 38 196 232 0 0.05091927
Link 39 196 233 0 -0.20051576
Link 40 196 234 0 -0.30256644
Link 41 196 235 0 0.87499592
Link 42 196 236 0 0.29822380
Link 43 196 237 0 -0.54856281
Link 44 196 238 0 0.01520511
Link 45 196 239 0 -0.17883994
Link 46 196 240 0 -1.47415503
Link 47 196 241 0 -0.31122939
Link 48 196 242 0 0.69481954
Link 49 196 243 0 0.60645370
Link 50 196 244 0 0.81669833
Link 51 196 245 0 -0.68120451
Link 52 196 246 0 -0.37133153
Link 53 196 247 0 0.06884966
Link 54 196 248 0 -0.97552914
Link 55 196 249 0 0.07795864
Link 56 196 250 0 0.22028539
Link 57 196 251 0 0.42682827
Link 58 196 252 0 0.59439911
Link 59 196 253 0 0.08026684
Link 60 196 254 0 0.44551686
Link 61 196 255 0 -0.39116667
Link 62 196 256 0 0.16458666
Link 63 196 257 0 0.30772911
Link 64 196 258 0 -0.03525558
Link 65 196 259 0 -0.60759791
Link 66 196 260 0 0.29515833
Link 67 196 261 0 0.04717805
Link 68 196 262 0 0.53962096
Link 69 196 263 0 0.30444494
Link 70 196 264 0 -0.72408843
Link 71 196 265 0 0.38463215
Link 72 196 266 0 -0.19406436
Link 73 196 267 0 0.82121713
Link 74 196 268 0 1.52781809
Link 75 196 269 0 -0.12449267
Link 76 196 270 0 -0.11336843
Link 77 196 271 0 -0.30265278
Link 78 196 272 0 2.08279653
Link 79 196 273 0 1.61159142
Link 80 196 274 0 -0.16610959
Link 81 196 275 0 -0.07341968
Link 82 196 276 0 0.11391934
Link 83 196 277 0 -0.03360640
Link 84 196 278 0 -0.07661508
Link 85 196 279 0 0.71761846
Link 86 196 280 0 -0.32369690
Link 87 196 281 0 1.43461929
Link 88 196 282 0 0.25656849
Link 89 196 283 0 -0.40781125
Link 90 196 284 0 -1.18920920
Link 91 196 285 0 0.73514004
Link 92 196 286 0 0.22077620
Link 93 196 287 0 0.78856351
Link 94 196 288 0 -0.25884999
Link 95 196 289 0 -0.00324080
Link 96 196 290 0 -0.31494528
Link 97 196 291 0 1.69912321
Link 98 196 292 0 -0.23987675
Link 99 196 293 0 0.68716992
Link 100 196 294 0 0.00906210
Link 101 196 295 0 -0.20508679
Link 102 196 296 0 0.42385406
Link 103 196 297 0 -1.37936509
Link 104 196 298 0 -0.39594163
Link 105 196 299 0 0.82644218
Link 106 196 300 0 0.22518464
Link 107 196 301 0 -0.48792237
Link 108 196 302 0 -0.53231672
Link 109 196 303 0 0.13520405
Link 110 196 304 0 -0.24673131
Link 111 196 305 0 0.61879283
Link 112 196 306 0 0.90367255
Link 113 196 307 0 0.54774048
Link 114 196 308 0 -0.65333688
Link 115 196 309 0 -0.53585166
Link 116 196 310 0 -0.58123568
Link 117 196 311 0 0.40877813
Link 118 196 312 0 0.20478673
Link 119 196 313 0 -0.35382594
Link 120 196 314 0 -0.02248984
Link 121 196 315 0 0.21228376
Link 122 196 316 0 0.07276268
Link 123 196 317 0 1.70779049
Link 124 196 318 0 -0.30495450
Link 125 196 319 0 0.87910190
Link 126 196 320 0 0.72921519
Link 127 196 321 0 -0.34496984
Link 128 196 322 0 0.37306851
Link 129 196 323 0 -0.87748716
Link 130 196 324 0 -0.74912246
Link 131 196 325 0 0.57835775
Link 132 196 326 0 0.38119849
Link 133 196 327 0 -0.22702975
Link 134 196 328 0 0.34032530
Link 135 196 329 0 -0.68307185
Link 136 196 330 0 -0.00258148
Link 137 196 331 0 -0.08278827
Link 138 196 332 0 0.07637585
Link 139 196 333 0 -0.84739170
Link 140 196 334 0 -0.49974438
Link 141 196 335 0 -0.79763640
Link 142 196 336 0 0.02732202
Link 143 196 337 0 -0.05205751
Link 144 196 338 0 0.09025719
Link 145 196 339 0 -0.41569462
Link 146 196 340 0 -0.08458882
Link 147 196 341 0 0.01477488
Link 148 196 342 0 -0.04894701
Link 149 196 343 0 -0.40395251
Link 150 196 344 0 0.11066747
Link 151 196 345 0 0.26008975
Link 152 196 346 0 -0.10430596
Link 153 196 347 0 -0.94214417
Link 154 196 348 0 -0.69417252
Link 155 196 349 0 0.28094052
Link 156 196 350 0 -0.25602344
Link 157 196 351 0 -0.01188860
Link 158 196 352 0 -0.07105072
Link 159 196 353 0 0.45338936
Link 160 196 354 0 -0.11633549
Link 161 196 355 0 -0.08891742
Link 162 196 356 0 -0.00546370
Link 163 196 357 0 -0.16795295
Link 164 196 358 0 -0.16771123
Link 165 196 359 0 0.99852448
Link 166 196 360 0 -0.46314999
Link 167 196 361 0 0.47269891
Link 168 196 362 0 -0.25299400
Link 169 196 363 0 0.19666845
Link 170 196 364 0 -0.26356860
Link 171 196 365 0 -0.21207770
Link 172 196 366 0 -0.91595571
Link 173 196 367 0 0.80023481
Link 174 196 368 0 -0.05365128
Link 175 196 369 0 -0.50248831
Link 176 196 370 0 0.15177502
Link 177 196 371 0 -0.39509984
Link 178 196 372 0 -0.44412397
Link 179 196 373 0 -0.03712843
Link 180 196 374 0 0.51638431
Link 181 196 375 0 -0.05525677
Link 182 196 376 0 0.40630707
Link 183 196 377 0 -0.31902329
Link 184 196 378 0 -0.17804887
Link 185 196 379 0 0.15859015
Link 186 196 380 0 -0.01696357
Link 187 196 381 0 -0.89490732
Link 188 196 382 0 -0.19435965
Link 189 196 383 0 -0.66847564
Link 190 196 384 0 -0.35566233
Link 191 196 385 0 0.07928618
Link 192 196 386 0 0.21642560
Link 193 196 387 0 -0.14525871
Link 194 196 388 0 -0.25777823
Link 1 197 389 0 0.46792536
Link 2 197 390 0 -0.93787427
Link 3 197 391 0 -0.39704350
Link 4 197 392 0 0.78380808
Link 5 197 393 0 -0.15211241
Link 6 197 394 0 0.06173787
Link 7 197 395 0 -0.73302238
Link 8 197 396 0 0.02413922
Link 9 197 397 0 0.42424061
Link 10 197 398 0 0.12408596
Link 11 197 399 0 0.21899766
Link 12 197 400 0 0.39317997
Link 13 197 401 0 -0.87159978
Link 14 197 402 0 -0.67968125
Link 15 197 403 0 0.45015925
Link 16 197 404 0 -2.38085408
Link 17 197 405 0 -0.14576983
Link 18 197 406 0 -0.37712039
Link 19 197 407 0 0.62917861
Link 20 197 408 0 -0.37585932
Link 21 197 409 0 -0.01771571
Link 22 197 410 0 -0.43539829
Link 23 197 411 0 0.05794377
Link 24 197 412 0 0.10105719
Link 25 197 413 0 0.00568496
Link 26 197 414 0 -0.45512438
Link 27 197 415 0 0.59871984
Link 28 197 416 0 -0.40747616
Link 29 197 417 0 -0.27710583
Link 30 197 418 0 -0.37426208
Link 31 197 419 0 -0.42040319
Link 32 197 420 0 0.33719429
Link 33 197 421 0 -1.09492894
Link 34 197 422 0 0.42451065
Link 35 197 423 0 -0.42901870
Link 36 197 424 0 0.42186787
Link 37 197 425 0 0.54541390
Link 38 197 426 0 -0.24433203
Link 39 197 427 0 -0.43370774
Link 40 197 428 0 -0.20643632
Link 41 197 429 0 -0.26142313
Link 42 197 430 0 0.62991822
Link 43 197 431 0 0.52628968
Link 44 197 432 0 0.16024817
Link 45 197 433 0 0.09879329
Link 46 197 434 0 0.11072809
Link 47 197 435 0 0.03463327
Link 48 197 436 0 0.14278224
Link 49 197 437 0 -0.85401880
Link 50 197 438 0 0.43495139
Link 51 197 439 0 0.72240848
Link 52 197 440 0 -0.52377691
Link 53 197 441 0 -0.51216532
Link 54 197 442 0 0.64907262
Link 55 197 443 0 0.59375997
Link 56 197 444 0 -0.36704489
Link 57 197 445 0 0.08426472
Link 58 197 446 0 -0.16994538
Link 59 197 447 0 0.01110795
Link 60 197 448 0 -0.03230427
Link 61 197 449 0 1.14021002
Link 62 197 450 0 0.17085899
Link 63 197 451 0 0.27012566
Link 64 197 452 0 0.08276612
Link 65 197 453 0 -0.55436525
Link 66 197 454 0 1.32290190
Link 67 197 455 0 -1.43660402
Link 68 197 456 0 -0.36658166
Link 69 197 457 0 -0.55881164
Link 70 197 458 0 0.20572980
Link 71 197 459 0 0.77893705
Link 72 197 460 0 -0.22966751
Link 73 197 461 0 0.48475263
Link 74 197 462 0 0.64574524
Link 75 197 463 0 -0.69540890
Link 76 197 464 0 0.26105212
Link 77 197 465 0 -0.22830746
Link 78 197 466 0 -0.33470270
Link 79 197 467 0 0.25181675
Link 80 197 468 0 0.05132700
Link 81 197 469 0 -0.51396659
Link 82 197 470 0 -1.45953511
Link 83 197 471 0 0.10992249
Link 84 197 472 0 0.80097326
Link 85 197 473 0 -0.88151003
Link 86 197 474 0 -0.51176755
Link 87 197 475 0 -0.82158292
Link 88 197 476 0 -0.34966448
Link 89 197 477 0 0.26656298
Link 90 197 478 0 -0.12924915
Link 91 197 479 0 0.74462142
Link 92 197 480 0 0.21238947
Link 93 197 481 0 0.08460982
Link 94 197 482 0 -0.29367810
Link 95 197 483 0 2.47312936
Link 96 197 484 0 -0.37294235
Link 97 197 485 0 0.38737071
Link 98 197 486 0 -0.86755960
Link 99 197 487 0 0.10553499
Link 100 197 488 0 0.38881900
Link 101 197 489 0 -0.20681810
Link 102 197 490 0 0.76443174
Link 103 197 491 0 -0.43317635
Link 104 197 492 0 -0.23757782
Link 105 197 493 0 -0.57976245
Link 106 197 494 0 0.00086757
Link 107 197 495 0 0.02994471
Link 108 197 496 0 0.08773269
Link 109 197 497 0 -0.80031599
Link 110 197 498 0 -0.58240705
Link 111 197 499 0 0.22388996
Link 112 197 500 0 0.14505480
Link 113 197 501 0 0.56400211
Link 114 197 502 0 -0.21162588
Link 115 197 503 0 0.47663618
Link 116 197 504 0 1.70375416
Link 117 197 505 0 1.05822466
Link 118 197 506 0 0.48252871
Link 119 197 507 0 -0.61955555
Link 120 197 508 0 0.22986349
Link 121 197 509 0 -0.26058306
Link 122 197 510 0 1.18770896
Link 123 197 511 0 0.71181413
Link 124 197 512 0 -0.02487119
Link 125 197 513 0 -0.58053897
Link 126 197 514 0 0.26500572
Link 127 197 515 0 0.49688629
Link 128 197 516 0 0.26560864
Link 129 197 517 0 0.86498733
Link 130 197 518 0 0.13464729
Link 131 197 519 0 -0.08155488
Link 132 197 520 0 -0.14605482
Link 133 197 521 0 -1.28192177
Link 134 197 522 0 -0.12846904
Link 135 197 523 0 0.45682765
Link 136 197 524 0 0.31576499
Link 137 197 525 0 0.27814185
Link 138 197 526 0 -0.03546140
Link 139 197 527 0 -0.30067360
Link 140 197 528 0 0.35600725
Link 141 197 529 0 -1.42783111
Link 142 197 530 0 0.34173575
Link 143 197 531 0 -0.48790200
Link 144 197 532 0 -0.06276358
Link 145 197 533 0 -0.14672383
Link 146 197 534 0 -0.51669484
Link 147 197 535 0 0.34134221
Link 148 197 536 0 -0.56080854
Link 149 197 537 0 -0.21576604
Link 150 197 538 0 -0.18636797
Link 151 197 539 0 -0.62910287
Link 152 197 540 0 -0.17155805
Link 153 197 541 0 0.34551304
Link 154 197 542 0 0.13597021
Link 155 197 543 0 0.36173349
Link 156 197 544 0 -0.05216892
Link 157 197 545 0 -0.22422292
Link 158 197 546 0 0.12523064
Link 159 197 547 0 -0.72432333
Link 160 197 548 0 -0.27114049
Link 161 197 549 0 0.57235071
Link 162 197 550 0 -0.17149073
Link 163 197 551 0 -0.31620316
Link 164 197 552 0 0.48885339
Link 165 197 553 0 0.12955299
Link 166 197 554 0 0.51218562
Link 167 197 555 0 -1.25718683
Link 168 197 556 0 -1.25661898
Link 169 197 557 0 0.14912200
Link 170 197 558 0 0.53947601
Link 171 197 559 0 0.72053779
Link 172 197 560 0 -0.23196168
Link 173 197 561 0 -0.31325450
Link 174 197 562 0 -1.32426157
Link 175 197 563 0 1.25306259
Link 176 197 564 0 -0.13346652
Link 177 197 565 0 0.65730983
Link 178 197 566 0 0.18959632
Link 179 197 567 0 -0.46483398
Link 180 197 568 0 0.46846749
Link 181 197 569 0 -0.24157814
Link 182 197 570 0 -0.12717534
Link 183 197 571 0 -0.95058498
Link 184 197 572 0 0.25440576
Link 185 197 573 0 -0.28998228
Link 186 197 574 0 0.37314953
Link 187 197 575 0 -1.46022940
Link 188 197 576 0 -0.05674063
Link 189 197 577 0 0.37125196
Link 190 197 578 0 -1.56016828
Link 191 197 579 0 0.33106544
Link 192 197 580 0 -0.35389416
Link 193 197 581 0 -0.12519761
Link 194 197 582 0 -0.33494676
Link 1 198 583 0 0.00895083
Link 2 198 584 0 -0.77873044
Link 3 198 585 0 -0.46781477
Link 4 198 586 0 -0.50333553
Link 5 198 587 0 -0.35827177
Link 6 198 588 0 -0.21471068
Link 7 198 589 0 0.39617338
Link 8 198 590 0 0.05189356
Link 9 198 591 0 -0.20191447
Link 10 198 592 0 0.44657127
Link 11 198 593 0 0.46128906
Link 12 198 594 0 -0.60886265
Link 13 198 595 0 -0.41696445
Link 14 198 596 0 0.80607674
Link 15 198 597 0 0.70446644
Link 16 198 598 0 0.16557172
Link 17 198 599 0 0.25732333
Link 18 198 600 0 -0.07571840
Link 19 198 601 0 -0.30447165
Link 20 198 602 0 0.18401158
Link 21 198 603 0 -0.01515496
Link 22 198 604 0 0.16288240
Link 23 198 605 0 0.60544077
Link 24 198 606 0 -0.12122335
Link 25 198 607 0 -0.77003014
Link 26 198 608 0 0.02045056
Link 27 198 609 0 0.22017258
Link 28 198 610 0 -0.00924432
Link 29 198 611 0 0.14077522
Link 30 198 612 0 -0.06157954
Link 31 198 613 0 0.53609721
Link 32 198 614 0 -0.17708041
Link 33 198 615 0 1.07172831
Link 34 198 616 0 -0.35926223
Link 35 198 617 0 -0.39239699
Link 36 198 618 0 0.84508381
Link 37 198 619 0 0.18708624
Link 38 198 620 0 -1.33665568
Link 39 198 621 0 1.09463441
Link 40 198 622 0 -0.09012712
Link 41 198 623 0 -0.13666967
Link 42 198 624 0 -0.01426585
Link 43 198 625 0 -0.18438761
Link 44 198 626 0 0.09107916
Link 45 198 627 0 0.01416543
Link 46 198 628 0 -0.87793093
Link 47 198 629 0 -0.41202973
Link 48 198 630 0 -0.31299139
Link 49 198 631 0 -0.60465286
Link 50 198 632 0 0.15994014
Link 51 198 633 0 0.29726061
Link 52 198 634 0 -0.64420897
Link 53 198 635 0 0.46744287
Link 54 198 636 0 -0.54553495
Link 55 198 637 0 0.03228153
Link 56 198 638 0 -0.20808273
Link 57 198 639 0 1.41070189
Link 58 198 640 0 -0.18900190
Link 59 198 641 0 0.00363543
Link 60 198 642 0 0.08001061
Link 61 198 643 0 0.25120388
Link 62 198 644 0 -0.62747371
Link 63 198 645 0 -0.59817625
Link 64 198 646 0 0.09545712
Link 65 198 647 0 0.97305408
Link 66 198 648 0 0.35006078
Link 67 198 649 0 0.33227694
Link 68 198 650 0 -0.09781870
Link 69 198 651 0 -0.66205435
Link 70 198 652 0 0.15541231
Link 71 198 653 0 0.15199595
Link 72 198 654 0 -0.54325456
Link 73 198 655 0 0.10547895
Link 74 198 656 0 -0.39401367
Link 75 198 657 0 -0.16103970
Link 76 198 658 0 1.24843749
Link 77 198 659 0 -0.56561498
Link 78 198 660 0 0.12691487
Link 79 198 661 0 0.85837689
Link 80 198 662 0 0.92965723
Link 81 198 663 0 0.32003063
Link 82 198 664 0 0.19256475
Link 83 198 665 0 0.06474125
Link 84 198 666 0 -0.01258677
Link 85 198 667 0 -0.68203879
Link 86 198 668 0 0.21586770
Link 87 198 669 0 0.65244748
Link 88 198 670 0 0.36004797
Link 89 198 671 0 -0.09192415
Link 90 198 672 0 1.46125412
Link 91 198 673 0 0.59478782
Link 92 198 674 0 0.33329780
Link 93 198 675 0 -1.07576963
Link 94 198 676 0 -0.75122098
Link 95 198 677 0 -0.82313836
Link 96 198 678 0 -0.46905531
Link 97 198 679 0 -0.63732528
Link 98 198 680 0 0.26215528
Link 99 198 681 0 -0.56846341
Link 100 198 682 0 0.39032687
Link 101 198 683 0 0.36039273
Link 102 198 684 0 -0.19512626
Link 103 198 685 0 -0.36118417
Link 104 198 686 0 0.32878392
Link 105 198 687 0 0.07088930
Link 106 198 688 0 -0.37436699
Link 107 198 689 0 -0.40171893
Link 108 198 690 0 -0.56153106
Link 109 198 691 0 -0.30146176
Link 110 198 692 0 0.70069240
Link 111 198 693 0 0.25164250
Link 112 198 694 0 0.06569519
Link 113 198 695 0 -0.68373217
Link 114 198 696 0 0.16279118
Link 115 198 697 0 -0.41854200
Link 116 198 698 0 -0.36115866
Link 117 198 699 0 -0.07104996
Link 118 198 700 0 -0.10147781
Link 119 198 701 0 0.42612662
Link 120 198 702 0 0.47131587
Link 121 198 703 0 -1.08677303
Link 122 198 704 0 -0.81375436
Link 123 198 705 0 0.24607625
Link 124 198 706 0 0.96776127
Link 125 198 707 0 -1.62231606
Link 126 198 708 0 0.41756335
Link 127 198 709 0 0.22571043
Link 128 198 710 0 0.78316754
Link 129 198 711 0 -0.15996896
Link 130 198 712 0 0.39467482
Link 131 198 713 0 -0.31727731
Link 132 198 714 0 -0.00506504
Link 133 198 715 0 -0.53422289
Link 134 198 716 0 0.27261668
Link 135 198 717 0 -0.75037238
Link 136 198 718 0 0.19494402
Link 137 198 719 0 -0.49788026
Link 138 198 720 0 0.32121117
Link 139 198 721 0 0.21498326
Link 140 198 722 0 -0.59890118
Link 141 198 723 0 -0.67401437
Link 142 198 724 0 -0.35568750
Link 143 198 725 0 0.64026757
Link 144 198 726 0 0.29872146
Link 145 198 727 0 0.23643908
Link 146 198 728 0 0.00160124
Link 147 198 729 0 0.01010586
Link 148 198 730 0 -0.84257851
Link 149 198 731 0 -0.46646425
Link 150 198 732 0 0.66586177
Link 151 198 733 0 0.33711295
Link 152 198 734 0 0.91208188
Link 153 198 735 0 0.38718882
Link 154 198 736 0 0.44151490
Link 155 198 737 0 0.45468954
Link 156 198 738 0 -0.86876746
Link 157 198 739 0 0.22210713
Link 158 198 740 0 0.66614410
Link 159 198 741 0 0.23163624
Link 160 198 742 0 -0.22228552
Link 161 198 743 0 0.47315087
Link 162 198 744 0 0.44822019
Link 163 198 745 0 -0.42707652
Link 164 198 746 0 0.22154741
Link 165 198 747 0 0.62878589
Link 166 198 748 0 -1.60970753
Link 167 198 749 0 0.36612457
Link 168 198 750 0 0.35766038
Link 169 198 751 0 0.27655325
Link 170 198 752 0 0.00739180
Link 171 198 753 0 0.37122567
Link 172 198 754 0 -0.37283077
Link 173 198 755 0 -0.39546483
Link 174 198 756 0 0.35873597
Link 175 198 757 0 -0.74319367
Link 176 198 758 0 0.58455845
Link 177 198 759 0 -0.21659290
Link 178 198 760 0 0.24150643
Link 179 198 761 0 0.04325605
Link 180 198 762 0 -1.54456840
Link 181 198 763 0 1.01672919
Link 182 198 764 0 -0.38829264
Link 183 198 765 0 -0.41962081
Link 184 198 766 0 0.48809372
Link 185 198 767 0 1.19013348
Link 186 198 768 0 -0.47863462
Link 187 198 769 0 0.18223541
Link 188 198 770 0 -0.74268726
Link 189 198 771 0 0.42034731
Link 190 198 772 0 -1.06302136
Link 191 198 773 0 -0.98804860
Link 192 198 774 0 -0.51628629
Link 193 198 775 0 0.66887899
Link 194 198 776 0 0.20002447
Link 1 199 777 0 0.20954603
Link 2 199 778 0 -0.87352074
Link 3 199 779 0 -0.80662373
Link 4 199 780 0 0.05587523
Link 5 199 781 0 0.82100632
Link 6 199 782 0 -0.70307658
Link 7 199 783 0 0.59763108
Link 8 199 784 0 -0.28952717
Link 9 199 785 0 -0.30840079
Link 10 199 786 0 -0.37483489
Link 11 199 787 0 -0.30706021
Link 12 199 788 0 -0.20902003
Link 13 199 789 0 -0.29950483
Link 14 199 790 0 -0.32653447
Link 15 199 791 0 -0.01861857
Link 16 199 792 0 -0.87881294
Link 17 199 793 0 -0.01752255
Link 18 199 794 0 -0.27823126
Link 19 199 795 0 0.07307224
Link 20 199 796 0 -0.14956107
Link 21 199 797 0 0.04883773
Link 22 199 798 0 -1.63897423
Link 23 199 799 0 0.31587069
Link 24 199 800 0 0.30944665
Link 25 199 801 0 -0.63969782
Link 26 199 802 0 -0.62545673
Link 27 199 803 0 -0.16746191
Link 28 199 804 0 0.14738692
Link 29 199 805 0 -0.09720459
Link 30 199 806 0 0.24845784
Link 31 199 807 0 0.30514297
Link 32 199 808 0 0.34467757
Link 33 199 809 0 -0.09562783
Link 34 199 810 0 1.15335753
Link 35 199 811 0 -0.05326009
Link 36 199 812 0 0.76324709
Link 37 199 813 0 0.29680809
Link 38 199 814 0 -0.37399027
Link 39 199 815 0 -0.43042545
Link 40 199 816 0 -0.34501600
Link 41 199 817 0 0.30705368
Link 42 199 818 0 -0.22131273
Link 43 199 819 0 -0.10709191
Link 44 199 820 0 -0.51148098
Link 45 199 821 0 0.82535495
Link 46 199 822 0 -0.26640112
Link 47 199 823 0 -0.13674913
Link 48 199 824 0 0.26290765
Link 49 199 825 0 -0.00420593
Link 50 199 826 0 -0.46032457
Link 51 199 827 0 0.02327144
Link 52 199 828 0 -0.66789964
Link 53 199 829 0 0.49427042
Link 54 199 830 0 -0.19667101
Link 55 199 831 0 -0.91998152
Link 56 199 832 0 -0.36843805
Link 57 199 833 0 0.34852357
Link 58 199 834 0 0.33233818
Link 59 199 835 0 0.00276834
Link 60 199 836 0 0.36956084
Link 61 199 837 0 0.21575992
Link 62 199 838 0 -0.14116090
Link 63 199 839 0 0.28072747
Link 64 199 840 0 -0.56413995
Link 65 199 841 0 0.15769417
Link 66 199 842 0 -0.56545534
Link 67 199 843 0 0.26587691
Link 68 199 844 0 -0.08337362
Link 69 199 845 0 0.14679339
Link 70 199 846 0 -0.41428165
Link 71 199 847 0 0.06155182
Link 72 199 848 0 -0.24212976
Link 73 199 849 0 0.96443746
Link 74 199 850 0 -0.31214485
Link 75 199 851 0 -1.09114269
Link 76 199 852 0 0.31371400
Link 77 199 853 0 0.17586426
Link 78 199 854 0 -0.30107892
Link 79 199 855 0 0.03167638
Link 80 199 856 0 0.57249684
Link 81 199 857 0 0.14503101
Link 82 199 858 0 -0.48699290
Link 83 199 859 0 -1.04855549
Link 84 199 860 0 0.04176643
Link 85 199 861 0 -1.34559378
Link 86 199 862 0 0.06818408
Link 87 199 863 0 0.35469336
Link 88 199 864 0 0.00633887
Link 89 199 865 0 1.12843932
Link 90 199 866 0 -0.49222516
Link 91 199 867 0 0.01572415
Link 92 199 868 0 -0.15302681
Link 93 199 869 0 0.23212000
Link 94 199 870 0 0.12276319
Link 95 199 871 0 0.24147895
Link 96 199 872 0 0.44008810
Link 97 199 873 0 0.53398165
Link 98 199 874 0 -0.70922095
Link 99 199 875 0 -0.59892147
Link 100 199 876 0 0.01239829
Link 101 199 877 0 -0.75652225
Link 102 199 878 0 0.12548891
Link 103 199 879 0 -1.02124760
Link 104 199 880 0 0.11744670
Link 105 199 881 0 0.23230365
Link 106 199 882 0 -0.39149591
Link 107 199 883 0 -0.98529293
Link 108 199 884 0 0.71626594
Link 109 199 885 0 0.61546539
Link 110 199 886 0 0.01721452
Link 111 199 887 0 0.23723462
Link 112 199 888 0 0.16422445
Link 113 199 889 0 -0.95776361
Link 114 199 890 0 -0.31250422
Link 115 199 891 0 -0.66379483
Link 116 199 892 0 0.48476927
Link 117 199 893 0 0.17140573
Link 118 199 894 0 -0.82353746
Link 119 199 895 0 -0.03466538
Link 120 199 896 0 1.02782083
Link 121 199 897 0 0.72554266
Link 122 199 898 0 0.37065079
Link 123 199 899 0 0.15908146
Link 124 199 900 0 0.22581518
Link 125 199 901 0 0.04406116
Link 126 199 902 0 1.41463664
Link 127 199 903 0 -0.17734388
Link 128 199 904 0 -0.29630776
Link 129 199 905 0 -0.23990021
Link 130 199 906 0 -0.80329917
Link 131 199 907 0 -0.97304754
Link 132 199 908 0 -0.34050659
Link 133 199 909 0 -0.14989686
Link 134 199 910 0 -0.08043158
Link 135 199 911 0 -0.73890487
Link 136 199 912 0 -0.25347489
Link 137 199 913 0 -0.08312083
Link 138 199 914 0 0.12959878
Link 139 199 915 0 -0.10611088
Link 140 199 916 0 0.01585938
Link 141 199 917 0 -0.04953729
Link 142 199 918 0 0.09431515
Link 143 199 919 0 -0.18305527
Link 144 199 920 0 0.11639931
Link 145 199 921 0 -0.26640881
Link 146 199 922 0 0.48406683
Link 147 199 923 0 -0.58958729
Link 148 199 924 0 -0.56675836
Link 149 199 925 0 0.24981841
Link 150 199 926 0 0.32757696
Link 151 199 927 0 -0.20156386
Link 152 199 928 0 1.37241228
Link 153 199 929 0 -0.13028874
Link 154 199 930 0 -0.10041441
Link 155 199 931 0 0.21470737
Link 156 199 932 0 -1.04987517
Link 157 199 933 0 -0.36155333
Link 158 199 934 0 0.28027218
Link 159 199 935 0 0.65140977
Link 160 199 936 0 0.53729986
Link 161 199 937 0 0.48591008
Link 162 199 938 0 0.25396553
Link 163 199 939 0 0.99428171
Link 164 199 940 0 -0.01132987
Link 165 199 941 0 -0.22012229
Link 166 199 942 0 0.08662353
Link 167 199 943 0 0.09920461
Link 168 199 944 0 0.09049528
Link 169 199 945 0 0.33361193
Link 170 199 946 0 0.23583112
Link 171 199 947 0 -0.09965873
Link 172 199 948 0 -0.33623024
Link 173 199 949 0 -1.88068268
Link 174 199 950 0 0.30430032
Link 175 199 951 0 -0.06278556
Link 176 199 952 0 -1.64039878
Link 177 199 953 0 -0.35251715
Link 178 199 954 0 0.54558406
Link 179 199 955 0 0.28052754
Link 180 199 956 0 0.03040240
Link 181 199 957 0 1.00076816
Link 182 199 958 0 0.08322107
Link 183 199 959 0 0.76007532
Link 184 199 960 0 -0.34594516
Link 185 199 961 0 0.06950292
Link 186 199 962 0 -0.51077378
Link 187 199 963 0 0.28302828
Link 188 199 964 0 -0.54510221
Link 189 199 965 0 -0.41455201
Link 190 199 966 0 0.02368751
Link 191 199 967 0 0.90150656
Link 192 199 968 0 -1.13039733
Link 193 199 969 0 -0.09014924
Link 194 199 970 0 -0.20195067
Link 1 200 971 0 0.29592878
Link 2 200 972 0 -0.17941250
Link 3 200 973 0 0.32293105
Link 4 200 974 0 -0.34890891
Link 5 200 975 0 0.42481469
Link 6 200 976 0 -0.32056015
Link 7 200 977 0 -0.07763998
Link 8 200 978 0 0.24251515
Link 9 200 979 0 -1.06199468
Link 10 200 980 0 0.23253432
Link 11 200 981 0 -0.14665605
Link 12 200 982 0 0.32456843
Link 13 200 983 0 -0.14959840
Link 14 200 984 0 1.03180270
Link 15 200 985 0 -1.05401643
Link 16 200 986 0 -0.38996098
Link 17 200 987 0 0.46211245
Link 18 200 988 0 -0.16756821
Link 19 200 989 0 0.22161430
Link 20 200 990 0 -0.87594136
Link 21 200 991 0 -0.18624688
Link 22 200 992 0 0.72621361
Link 23 200 993 0 -0.35211433
Link 24 200 994 0 0.01618396
Link 25 200 995 0 -0.86798531
Link 26 200 996 0 -0.04759128
Link 27 200 997 0 -0.55042233
Link 28 200 998 0 -0.39951599
Link 29 200 999 0 -0.23612113
Link 30 200 1000 0 -0.50719360
Link 31 200 1001 0 0.39909014
Link 32 200 1002 0 -1.10828348
Link 33 200 1003 0 -2.51819637
Link 34 200 1004 0 0.14478948
Link 35 200 1005 0 0.37494922
Link 36 200 1006 0 0.16046592
Link 37 200 1007 0 -0.32234083
Link 38 200 1008 0 0.29437176
Link 39 200 1009 0 0.44152216
Link 40 200 1010 0 0.08530969
Link 41 200 1011 0 0.07919046
Link 42 200 1012 0 -0.02968217
Link 43 200 1013 0 0.92883412
Link 44 200 1014 0 0.02292488
Link 45 200 1015 0 -0.73601470
Link 46 200 1016 0 0.11260289
Link 47 200 1017 0 1.01013695
Link 48 200 1018 0 0.11126587
Link 49 200 1019 0 0.53983486
Link 50 200 1020 0 0.12563385
Link 51 200 1021 0 0.53872564
Link 52 200 1022 0 -0.04806292
Link 53 200 1023 0 0.06688771
Link 54 200 1024 0 -0.13259645
Link 55 200 1025 0 -0.28031905
Link 56 200 1026 0 0.70493163
Link 57 200 1027 0 0.32225045
Link 58 200 1028 0 1.01752255
Link 59 200 1029 0 -0.50100593
Link 60 200 1030 0 -0.60219408
Link 61 200 1031 0 0.95482482
Link 62 200 1032 0 0.21771991
Link 63 200 1033 0 -0.50649853
Link 64 200 1034 0 0.18606559
Link 65 200 1035 0 -0.28535946
Link 66 200 1036 0 0.22597367
Link 67 200 1037 0 0.53269528
Link 68 200 1038 0 0.82493657
Link 69 200 1039 0 -0.86734186
Link 70 200 1040 0 0.23100578
Link 71 200 1041 0 -0.91226580
Link 72 200 1042 0 0.02456875
Link 73 200 1043 0 -0.47052518
Link 74 200 1044 0 -0.31864891
Link 75 200 1045 0 1.07827472
Link 76 200 1046 0 -0.64031743
Link 77 200 1047 0 -0.19819206
Link 78 200 1048 0 -0.07300717
Link 79 200 1049 0 0.38966906
Link 80 200 1050 0 0.15659493
Link 81 200 1051 0 0.20105911
Link 82 200 1052 0 0.34248774
Link 83 200 1053 0 0.32093494
Link 84 200 1054 0 0.44282757
Link 85 200 1055 0 -0.25916359
Link 86 200 1056 0 0.43528705
Link 87 200 1057 0 0.03952501
Link 88 200 1058 0 -0.09390955
Link 89 200 1059 0 0.28331049
Link 90 200 1060 0 -0.39843234
Link 91 200 1061 0 -0.41289700
Link 92 200 1062 0 0.18011020
Link 93 200 1063 0 -0.23107310
Link 94 200 1064 0 -0.41608387
Link 95 200 1065 0 -0.14292716
Link 96 200 1066 0 0.43367794
Link 97 200 1067 0 -0.06677424
Link 98 200 1068 0 -0.07130012
Link 99 200 1069 0 0.15326653
Link 100 200 1070 0 -0.46192630
Link 101 200 1071 0 0.42791335
Link 102 200 1072 0 0.93422983
Link 103 200 1073 0 0.42587869
Link 104 200 1074 0 -0.05893675
Link 105 200 1075 0 0.18179290
Link 106 200 1076 0 0.81802602
Link 107 200 1077 0 0.15351508
Link 108 200 1078 0 -1.80494179
Link 109 200 1079 0 0.55684267
Link 110 200 1080 0 -0.18623995
Link 111 200 1081 0 0.27507557
Link 112 200 1082 0 0.18497602
Link 113 200 1083 0 0.18683192
Link 114 200 1084 0 -0.37414650
Link 115 200 1085 0 -0.66975563
Link 116 200 1086 0 0.11746680
Link 117 200 1087 0 -0.87559278
Link 118 200 1088 0 0.92702650
Link 119 200 1089 0 1.31924689
Link 120 200 1090 0 1.09038441
Link 121 200 1091 0 -0.67701841
Link 122 200 1092 0 0.21422019
Link 123 200 1093 0 -0.19777991
Link 124 200 1094 0 -0.23638899
Link 125 200 1095 0 -0.16616231
Link 126 200 1096 0 -0.68944919
Link 127 200 1097 0 0.45013669
Link 128 200 1098 0 0.35254773
Link 129 200 1099 0 0.71403663
Link 130 200 1100 0 0.23316277
Link 131 200 1101 0 0.19857117
Link 132 200 1102 0 -0.11093252
Link 133 200 1103 0 -0.24128682
Link 134 200 1104 0 0.98559830
Link 135 200 1105 0 -0.60823441
Link 136 200 1106 0 -0.29756409
Link 137 200 1107 0 -0.21468853
Link 138 200 1108 0 -0.11344751
Link 139 200 1109 0 0.81412223
Link 140 200 1110 0 0.57095515
Link 141 200 1111 0 -0.86405479
Link 142 200 1112 0 -0.57224522
Link 143 200 1113 0 0.17122778
Link 144 200 1114 0 0.47652772
Link 145 200 1115 0 -0.57892388
Link 146 200 1116 0 0.23204548
Link 147 200 1117 0 -0.26531991
Link 148 200 1118 0 -0.19774751
Link 149 200 1119 0 -0.16311014
Link 150 200 1120 0 -0.43923291
Link 151 200 1121 0 0.39977036
Link 152 200 1122 0 1.10186264
Link 153 200 1123 0 -0.48340673
Link 154 200 1124 0 0.82428830
Link 155 200 1125 0 1.21019088
Link 156 200 1126 0 0.19387897
Link 157 200 1127 0 0.35937121
Link 158 200 1128 0 -0.64855209
Link 159 200 1129 0 0.46629930
Link 160 200 1130 0 0.44959749
Link 161 200 1131 0 -0.05278783
Link 162 200 1132 0 -0.21082644
Link 163 200 1133 0 -0.10056508
Link 164 200 1134 0 -0.15138416
Link 165 200 1135 0 -0.01087062
Link 166 200 1136 0 0.17572844
Link 167 200 1137 0 0.03462089
Link 168 200 1138 0 0.27324643
Link 169 200 1139 0 -0.74916500
Link 170 200 1140 0 0.15235490
Link 171 200 1141 0 -0.98558411
Link 172 200 1142 0 -0.73925550
Link 173 200 1143 0 0.07980303
Link 174 200 1144 0 -0.15020641
Link 175 200 1145 0 -0.12606266
Link 176 200 1146 0 0.03827979
Link 177 200 1147 0 -0.45763034
Link 178 200 1148 0 0.33846561
Link 179 200 1149 0 0.11154144
Link 180 200 1150 0 0.70379207
Link 181 200 1151 0 0.09220396
Link 182 200 1152 0 0.17066855
Link 183 200 1153 0 -0.39198395
Link 184 200 1154 0 -0.04881103
Link 185 200 1155 0 0.14079286
Link 186 200 1156 0 0.22873410
Link 187 200 1157 0 -0.57492006
Link 188 200 1158 0 -0.04090668
Link 189 200 1159 0 -0.23383630
Link 190 200 1160 0 0.44958557
Link 191 200 1161 0 1.60612185
Link 192 200 1162 0 -0.34164147
Link 193 200 1163 0 0.70480397
Link 194 200 1164 0 0.37134143
Link 1 201 1165 0 -0.19112568
Link 2 201 1166 0 0.28975130
Link 3 201 1167 0 -0.64793747
Link 4 201 1168 0 -0.78416811
Link 5 201 1169 0 -0.16514012
Link 6 201 1170 0 -0.10088794
Link 7 201 1171 0 -0.16436079
Link 8 201 1172 0 -0.17672601
Link 9 201 1173 0 0.34150267
Link 10 201 1174 0 -0.47393980
Link 11 201 1175 0 0.11593319
Link 12 201 1176 0 0.37832377
Link 13 201 1177 0 0.92604788
Link 14 201 1178 0 -1.22972045
Link 15 201 1179 0 0.62550766
Link 16 201 1180 0 0.52294805
Link 17 201 1181 0 0.54852676
Link 18 201 1182 0 -0.67704848
Link 19 201 1183 0 -0.43567558
Link 20 201 1184 0 -0.87208379
Link 21 201 1185 0 0.10510130
Link 22 201 1186 0 0.12935280
Link 23 201 1187 0 0.11909122
Link 24 201 1188 0 0.36554171
Link 25 201 1189 0 1.07449889
Link 26 201 1190 0 0.70704632
Link 27 201 1191 0 0.62942972
Link 28 201 1192 0 0.46059378
Link 29 201 1193 0 0.09799497
Link 30 201 1194 0 -0.22052982
Link 31 201 1195 0 -0.30425839
Link 32 201 1196 0 0.57248383
Link 33 201 1197 0 0.16858669
Link 34 201 1198 0 0.09804995
Link 35 201 1199 0 0.69322233
Link 36 201 1200 0 0.57922032
Link 37 201 1201 0 0.00684986
Link 38 201 1202 0 -0.06252741
Link 39 201 1203 0 -1.11501925
Link 40 201 1204 0 -1.21411062
Link 41 201 1205 0 -0.17317956
Link 42 201 1206 0 0.42848139
Link 43 201 1207 0 -1.04602022
Link 44 201 1208 0 -0.00891872
Link 45 201 1209 0 -0.09208358
Link 46 201 1210 0 0.33219164
Link 47 201 1211 0 -0.11725984
Link 48 201 1212 0 0.63542723
Link 49 201 1213 0 -0.78836725
Link 50 201 1214 0 -0.09594712
Link 51 201 1215 0 0.27484537
Link 52 201 1216 0 0.65078644
Link 53 201 1217 0 0.04601509
Link 54 201 1218 0 1.27459072
Link 55 201 1219 0 -0.37173099
Link 56 201 1220 0 0.12430860
Link 57 201 1221 0 0.05133419
Link 58 201 1222 0 -0.96265478
Link 59 201 1223 0 0.77528765
Link 60 201 1224 0 -0.43117610
Link 61 201 1225 0 0.48265047
Link 62 201 1226 0 -0.22687266
Link 63 201 1227 0 0.73871000
Link 64 201 1228 0 0.55900789
Link 65 201 1229 0 0.30665962
Link 66 201 1230 0 -0.50989570
Link 67 201 1231 0 -1.33319642
Link 68 201 1232 0 -0.00274097
Link 69 201 1233 0 -0.23286464
Link 70 201 1234 0 0.00687117
Link 71 201 1235 0 -0.80210241
Link 72 201 1236 0 -0.64295695
Link 73 201 1237 0 -0.61059838
Link 74 201 1238 0 0.04479931
Link 75 201 1239 0 0.48574099
Link 76 201 1240 0 0.41544162
Link 77 201 1241 0 0.41239434
Link 78 201 1242 0 0.84018725
Link 79 201 1243 0 1.02450761
Link 80 201 1244 0 1.02677562
Link 81 201 1245 0 0.93249424
Link 82 201 1246 0 1.50000930
Link 83 201 1247 0 -0.02706747
Link 84 201 1248 0 -0.59792828
Link 85 201 1249 0 0.21513922
Link 86 201 1250 0 0.42724441
Link 87 201 1251 0 -1.06101759
Link 88 201 1252 0 -0.51077966
Link 89 201 1253 0 0.02731877
Link 90 201 1254 0 -0.31241925
Link 91 201 1255 0 0.11750217
Link 92 201 1256 0 0.07489707
Link 93 201 1257 0 0.08209689
Link 94 201 1258 0 0.00167158
Link 95 201 1259 0 0.01104501
Link 96 201 1260 0 -0.56200184
Link 97 201 1261 0 0.17478151
Link 98 201 1262 0 0.56300749
Link 99 201 1263 0 0.09270198
Link 100 201 1264 0 0.51842859
Link 101 201 1265 0 0.19924028
Link 102 201 1266 0 0.52536829
Link 103 201 1267 0 -0.44895117
Link 104 201 1268 0 -0.38418309
Link 105 201 1269 0 0.41479330
Link 106 201 1270 0 0.71221083
Link 107 201 1271 0 1.01290672
Link 108 201 1272 0 0.83197578
Link 109 201 1273 0 0.14412297
Link 110 201 1274 0 -0.12324388
Link 111 201 1275 0 -0.38906877
Link 112 201 1276 0 -0.34873248
Link 113 201 1277 0 -0.41186256
Link 114 201 1278 0 0.49527257
Link 115 201 1279 0 -0.95579544
Link 116 201 1280 0 -0.29648694
Link 117 201 1281 0 -1.08759898
Link 118 201 1282 0 0.62228564
Link 119 201 1283 0 0.11996481
Link 120 201 1284 0 0.84391842
Link 121 201 1285 0 0.99499834
Link 122 201 1286 0 -0.07470494
Link 123 201 1287 0 0.11752056
Link 124 201 1288 0 -0.83017530
Link 125 201 1289 0 0.22761603
Link 126 201 1290 0 -0.38530585
Link 127 201 1291 0 -0.37976489
Link 128 201 1292 0 -0.13809835
Link 129 201 1293 0 -0.28847061
Link 130 201 1294 0 0.46997973
Link 131 201 1295 0 -0.64705986
Link 132 201 1296 0 0.15499331
Link 133 201 1297 0 -0.24975858
Link 134 201 1298 0 0.32836002
Link 135 201 1299 0 -0.27595367
Link 136 201 1300 0 -0.24158414
Link 137 201 1301 0 -0.68265557
Link 138 201 1302 0 -0.09951819
Link 139 201 1303 0 -0.32600562
Link 140 201 1304 0 -0.23680451
Link 141 201 1305 0 0.00355411
Link 142 201 1306 0 -0.26015408
Link 143 201 1307 0 -0.33174658
Link 144 201 1308 0 -0.19591991
Link 145 201 1309 0 -0.05332001
Link 146 201 1310 0 -0.85173802
Link 147 201 1311 0 -0.91320318
Link 148 201 1312 0 -0.05000021
Link 149 201 1313 0 0.23200835
Link 150 201 1314 0 -0.44121961
Link 151 201 1315 0 0.12802679
Link 152 201 1316 0 -0.10884736
Link 153 201 1317 0 -1.06319438
Link 154 201 1318 0 -0.93847253
Link 155 201 1319 0 -0.48897354
Link 156 201 1320 0 0.95294922
Link 157 201 1321 0 0.13708502
Link 158 201 1322 0 -0.23250683
Link 159 201 1323 0 -0.02425958
Link 160 201 1324 0 0.43754213
Link 161 201 1325 0 0.49006775
Link 162 201 1326 0 0.05496286
Link 163 201 1327 0 -0.08127327
Link 164 201 1328 0 -0.02063051
Link 165 201 1329 0 0.36442856
Link 166 201 1330 0 0.88699458
Link 167 201 1331 0 1.65839975
Link 168 201 1332 0 0.48263337
Link 169 201 1333 0 -0.45709153
Link 170 201 1334 0 -0.08071542
Link 171 201 1335 0 0.28799527
Link 172 201 1336 0 -0.10394143
Link 173 201 1337 0 0.15221922
Link 174 201 1338 0 0.60476926
Link 175 201 1339 0 0.64446939
Link 176 201 1340 0 0.15126268
Link 177 201 1341 0 -0.40844626
Link 178 201 1342 0 -0.48306933
Link 179 201 1343 0 0.31801412
Link 180 201 1344 0 -0.14316098
Link 181 201 1345 0 0.23033809
Link 182 201 1346 0 0.90631865
Link 183 201 1347 0 0.20885581
Link 184 201 1348 0 0.33640244
Link 185 201 1349 0 0.47427879
Link 186 201 1350 0 -0.12093302
Link 187 201 1351 0 -0.44299227
Link 188 201 1352 0 -0.05923435
Link 189 201 1353 0 -0.52253342
Link 190 201 1354 0 0.66579715
Link 191 201 1355 0 0.37790299
Link 192 201 1356 0 -0.10851902
Link 193 201 1357 0 -0.31312641
Link 194 201 1358 0 -0.68908313
Link 1 202 1359 0 -0.19855970
Link 2 202 1360 0 0.16580020
Link 3 202 1361 0 0.04910280
Link 4 202 1362 0 0.50121447
Link 5 202 1363 0 -0.25440128
Link 6 202 1364 0 -0.47584287
Link 7 202 1365 0 -0.59049530
Link 8 202 1366 0 -1.52444406
Link 9 202 1367 0 0.63613690
Link 10 202 1368 0 0.43167879
Link 11 202 1369 0 0.22454803
Link 12 202 1370 0 -0.26119546
Link 13 202 1371 0 0.04038367
Link 14 202 1372 0 0.75269120
Link 15 202 1373 0 -0.89495428
Link 16 202 1374 0 -0.34564579
Link 17 202 1375 0 0.27475527
Link 18 202 1376 0 0.31713612
Link 19 202 1377 0 0.02940676
Link 20 202 1378 0 -0.03111998
Link 21 202 1379 0 0.19769193
Link 22 202 1380 0 -0.20929959
Link 23 202 1381 0 -0.55674138
Link 24 202 1382 0 0.42495884
Link 25 202 1383 0 0.06851344
Link 26 202 1384 0 0.85402673
Link 27 202 1385 0 0.19459830
Link 28 202 1386 0 0.32833175
Link 29 202 1387 0 0.04872799
Link 30 202 1388 0 0.47397727
Link 31 202 1389 0 0.79951148
Link 32 202 1390 0 0.35525550
Link 33 202 1391 0 -1.08875601
Link 34 202 1392 0 -1.30607098
Link 35 202 1393 0 -0.90837506
Link 36 202 1394 0 0.01609007
Link 37 202 1395 0 0.13849723
Link 38 202 1396 0 -0.27039837
Link 39 202 1397 0 -0.04550584
Link 40 202 1398 0 -0.32309736
Link 41 202 1399 0 0.03883026
Link 42 202 1400 0 0.04297442
Link 43 202 1401 0 -0.71311403
Link 44 202 1402 0 0.42799430
Link 45 202 1403 0 -0.12337030
Link 46 202 1404 0 0.28584466
Link 47 202 1405 0 -0.20734403
Link 48 202 1406 0 0.63865215
Link 49 202 1407 0 -0.04458109
Link 50 202 1408 0 -0.60328983
Link 51 202 1409 0 0.00300236
Link 52 202 1410 0 -0.55026152
Link 53 202 1411 0 -0.67337867
Link 54 202 1412 0 -0.17639970
Link 55 202 1413 0 -0.02866429
Link 56 202 1414 0 -0.14131071
Link 57 202 1415 0 -0.16040040
Link 58 202 1416 0 -0.37412501
Link 59 202 1417 0 -0.95315099
Link 60 202 1418 0 0.41407584
Link 61 202 1419 0 0.32333947
Link 62 202 1420 0 -0.49282805
Link 63 202 1421 0 -1.63883348
Link 64 202 1422 0 0.31850811
Link 65 202 1423 0 -1.44589090
Link 66 202 1424 0 -0.19952364
Link 67 202 1425 0 0.50870006
Link 68 202 1426 0 0.32878293
Link 69 202 1427 0 0.09504496
Link 70 202 1428 0 -0.03833143
Link 71 202 1429 0 -0.27078126
Link 72 202 1430 0 -0.71821195
Link 73 202 1431 0 0.25745244
Link 74 202 1432 0 0.08283085
Link 75 202 1433 0 -0.79921614
Link 76 202 1434 0 -0.58539331
Link 77 202 1435 0 -0.59149036
Link 78 202 1436 0 -0.15984727
Link 79 202 1437 0 0.01267917
Link 80 202 1438 0 -0.01159217
Link 81 202 1439 0 0.06521318
Link 82 202 1440 0 0.55393489
Link 83 202 1441 0 0.99439935
Link 84 202 1442 0 0.47582698
Link 85 202 1443 0 -0.24248282
Link 86 202 1444 0 -0.52670831
Link 87 202 1445 0 0.41753231
Link 88 202 1446 0 0.78747004
Link 89 202 1447 0 0.12227258
Link 90 202 1448 0 -2.10694568
Link 91 202 1449 0 -1.16148495
Link 92 202 1450 0 0.39463418
Link 93 202 1451 0 0.41744920
Link 94 202 1452 0 -1.28353219
Link 95 202 1453 0 0.30403710
Link 96 202 1454 0 0.27184999
Link 97 202 1455 0 -1.92332835
Link 98 202 1456 0 1.59153656
Link 99 202 1457 0 -1.30830987
Link 100 202 1458 0 0.09172400
Link 101 202 1459 0 -0.51109566
Link 102 202 1460 0 -0.52389357
Link 103 202 1461 0 0.78163058
Link 104 202 1462 0 -0.61421245
Link 105 202 1463 0 -0.03617580
Link 106 202 1464 0 -0.44883835
Link 107 202 1465 0 -0.80275336
Link 108 202 1466 0 -0.11692723
Link 109 202 1467 0 1.04118723
Link 110 202 1468 0 0.06784111
Link 111 202 1469 0 -0.02070067
Link 112 202 1470 0 -0.09334289
Link 113 202 1471 0 0.14304699
Link 114 202 1472 0 -0.00276511
Link 115 202 1473 0 0.90334646
Link 116 202 1474 0 -0.89211224
Link 117 202 1475 0 0.49212619
Link 118 202 1476 0 0.08599736
Link 119 202 1477 0 -0.73379085
Link 120 202 1478 0 0.82010359
Link 121 202 1479 0 -0.06356376
Link 122 202 1480 0 -0.03146694
Link 123 202 1481 0 -0.71871669
Link 124 202 1482 0 -0.26500108
Link 125 202 1483 0 0.32355226
Link 126 202 1484 0 -0.33962137
Link 127 202 1485 0 -0.38007986
Link 128 202 1486 0 0.29813803
Link 129 202 1487 0 -0.16574783
Link 130 202 1488 0 -1.63069479
Link 131 202 1489 0 -0.37487631
Link 132 202 1490 0 -0.51747406
Link 133 202 1491 0 0.81967976
Link 134 202 1492 0 0.04690302
Link 135 202 1493 0 0.30571525
Link 136 202 1494 0 -0.91266953
Link 137 202 1495 0 0.05081075
Link 138 202 1496 0 -0.09763108
Link 139 202 1497 0 -0.26432589
Link 140 202 1498 0 0.09688055
Link 141 202 1499 0 -0.15844240
Link 142 202 1500 0 -1.03206968
Link 143 202 1501 0 -0.14410573
Link 144 202 1502 0 -0.25105952
Link 145 202 1503 0 -0.45519593
Link 146 202 1504 0 0.44453333
Link 147 202 1505 0 0.36040181
Link 148 202 1506 0 0.01721158
Link 149 202 1507 0 -0.24413194
Link 150 202 1508 0 -0.52793781
Link 151 202 1509 0 -0.88648602
Link 152 202 1510 0 -0.76295191
Link 153 202 1511 0 0.74907832
Link 154 202 1512 0 -0.39400080
Link 155 202 1513 0 0.48131064
Link 156 202 1514 0 -0.32223299
Link 157 202 1515 0 0.14160038
Link 158 202 1516 0 0.44313737
Link 159 202 1517 0 -0.74259480
Link 160 202 1518 0 0.48514235
Link 161 202 1519 0 -1.68289113
Link 162 202 1520 0 -0.23705197
Link 163 202 1521 0 -0.64650316
Link 164 202 1522 0 0.08268408
Link 165 202 1523 0 -0.76532850
Link 166 202 1524 0 0.81338365
Link 167 202 1525 0 -0.60017712
Link 168 202 1526 0 0.37196217
Link 169 202 1527 0 -1.31308738
Link 170 202 1528 0 0.21980079
Link 171 202 1529 0 -0.18609006
Link 172 202 1530 0 0.84269939
Link 173 202 1531 0 0.18506150
Link 174 202 1532 0 -0.39546905
Link 175 202 1533 0 -0.77959251
Link 176 202 1534 0 0.07371359
Link 177 202 1535 0 -0.68506076
Link 178 202 1536 0 -0.24304591
Link 179 202 1537 0 -0.11453067
Link 180 202 1538 0 0.01265511
Link 181 202 1539 0 -0.62437970
Link 182 202 1540 0 -0.57196155
Link 183 202 1541 0 0.18696093
Link 184 202 1542 0 -0.02696962
Link 185 202 1543 0 -0.50986554
Link 186 202 1544 0 -0.45991739
Link 187 202 1545 0 -0.11132192
Link 188 202 1546 0 -0.01984764
Link 189 202 1547 0 -1.03900632
Link 190 202 1548 0 -0.10828126
Link 191 202 1549 0 0.31053710
Link 192 202 1550 0 -0.55521808
Link 193 202 1551 0 0.04821087
Link 194 202 1552 0 -0.50072297
Link 1 203 1553 0 -1.72342395
Link 2 203 1554 0 0.05341176
Link 3 203 1555 0 -0.18729044
Link 4 203 1556 0 0.59719891
Link 5 203 1557 0 -0.35232720
Link 6 203 1558 0 0.31666321
Link 7 203 1559 0 0.65158122
Link 8 203 1560 0 -0.27686817
Link 9 203 1561 0 -0.09517699
Link 10 203 1562 0 0.76507023
Link 11 203 1563 0 2.02615225
Link 12 203 1564 0 -0.54890031
Link 13 203 1565 0 -0.09440526
Link 14 203 1566 0 -0.96622215
Link 15 203 1567 0 0.18423426
Link 16 203 1568 0 0.53420995
Link 17 203 1569 0 0.37320519
Link 18 203 1570 0 -0.28972794
Link 19 203 1571 0 0.08837981
Link 20 203 1572 0 -0.07482394
Link 21 203 1573 0 -0.36155391
Link 22 203 1574 0 1.41946404
Link 23 203 1575 0 0.79189039
Link 24 203 1576 0 0.03544869
Link 25 203 1577 0 0.47660468
Link 26 203 1578 0 0.14454000
Link 27 203 1579 0 -0.57879015
Link 28 203 1580 0 0.55856976
Link 29 203 1581 0 -0.39062097
Link 30 203 1582 0 -0.01729596
Link 31 203 1583 0 1.30038607
Link 32 203 1584 0 -0.20899413
Link 33 203 1585 0 -0.18383518
Link 34 203 1586 0 -0.13408533
Link 35 203 1587 0 -0.05629818
Link 36 203 1588 0 0.17216932
Link 37 203 1589 0 0.38861415
Link 38 203 1590 0 0.76429653
Link 39 203 1591 0 -0.52998727
Link 40 203 1592 0 0.83664523
Link 41 203 1593 0 0.96952705
Link 42 203 1594 0 -0.41989693
Link 43 203 1595 0 -0.11467547
Link 44 203 1596 0 0.87675666
Link 45 203 1597 0 0.74061675
Link 46 203 1598 0 0.35668769
Link 47 203 1599 0 0.62561939
Link 48 203 1600 0 0.80851216
Link 49 203 1601 0 0.46306642
Link 50 203 1602 0 -0.50347758
Link 51 203 1603 0 -0.56593685
Link 52 203 1604 0 0.10510876
Link 53 203 1605 0 0.74436477
Link 54 203 1606 0 0.08604352
Link 55 203 1607 0 0.98480070
Link 56 203 1608 0 -0.52805102
Link 57 203 1609 0 0.92625464
Link 58 203 1610 0 -0.23932717
Link 59 203 1611 0 0.68177942
Link 60 203 1612 0 -0.35207520
Link 61 203 1613 0 -0.28776902
Link 62 203 1614 0 0.67778110
Link 63 203 1615 0 0.03082841
Link 64 203 1616 0 0.42958117
Link 65 203 1617 0 0.55076880
Link 66 203 1618 0 -0.29895280
Link 67 203 1619 0 -0.43048352
Link 68 203 1620 0 0.55733959
Link 69 203 1621 0 0.20500588
Link 70 203 1622 0 -0.06046951
Link 71 203 1623 0 -0.37160647
Link 72 203 1624 0 -0.23756390
Link 73 203 1625 0 -0.36218439
Link 74 203 1626 0 0.56489313
Link 75 203 1627 0 -0.33270609
Link 76 203 1628 0 -0.38129614
Link 77 203 1629 0 -0.59135557
Link 78 203 1630 0 -0.06443933
Link 79 203 1631 0 -0.19636679
Link 80 203 1632 0 -0.27535600
Link 81 203 1633 0 0.05270503
Link 82 203 1634 0 -0.24224821
Link 83 203 1635 0 -0.21569302
Link 84 203 1636 0 -0.16827345
Link 85 203 1637 0 -0.56735391
Link 86 203 1638 0 -0.32109741
Link 87 203 1639 0 -0.60404404
Link 88 203 1640 0 -0.79985064
Link 89 203 1641 0 -0.87037392
Link 90 203 1642 0 0.15044792
Link 91 203 1643 0 -0.13054211
Link 92 203 1644 0 0.28585600
Link 93 203 1645 0 0.07159824
Link 94 203 1646 0 -0.78998519
Link 95 203 1647 0 -0.12098408
Link 96 203 1648 0 0.08323126
Link 97 203 1649 0 -0.19270105
Link 98 203 1650 0 0.47256190
Link 99 203 1651 0 0.28575857
Link 100 203 1652 0 0.36081025
Link 101 203 1653 0 -0.38588677
Link 102 203 1654 0 0.47719431
Link 103 203 1655 0 0.36700498
Link 104 203 1656 0 0.23965671
Link 105 203 1657 0 0.22707604
Link 106 203 1658 0 0.73955024
Link 107 203 1659 0 -0.23970768
Link 108 203 1660 0 0.18544024
Link 109 203 1661 0 -0.49069161
Link 110 203 1662 0 -0.61506221
Link 111 203 1663 0 -0.30245802
Link 112 203 1664 0 -0.72014156
Link 113 203 1665 0 0.03724285
Link 114 203 1666 0 0.34762680
Link 115 203 1667 0 0.31974131
Link 116 203 1668 0 -0.58923058
Link 117 203 1669 0 -0.30079326
Link 118 203 1670 0 -0.11756082
Link 119 203 1671 0 0.16297809
Link 120 203 1672 0 0.36157419
Link 121 203 1673 0 0.68676641
Link 122 203 1674 0 0.24601993
Link 123 203 1675 0 -0.29523281
Link 124 203 1676 0 0.15659982
Link 125 203 1677 0 2.14491071
Link 126 203 1678 0 1.06207254
Link 127 203 1679 0 0.74223977
Link 128 203 1680 0 -0.18352533
Link 129 203 1681 0 0.29114231
Link 130 203 1682 0 0.83732412
Link 131 203 1683 0 0.16498199
Link 132 203 1684 0 -0.13340226
Link 133 203 1685 0 0.40143142
Link 134 203 1686 0 -0.00208160
Link 135 203 1687 0 -0.35642503
Link 136 203 1688 0 0.36029580
Link 137 203 1689 0 -0.34232364
Link 138 203 1690 0 -0.88910523
Link 139 203 1691 0 -0.39359269
Link 140 203 1692 0 0.85186859
Link 141 203 1693 0 -0.02761267
Link 142 203 1694 0 0.20432059
Link 143 203 1695 0 -0.00675181
Link 144 203 1696 0 -0.53231638
Link 145 203 1697 0 -1.07482318
Link 146 203 1698 0 -0.24709613
Link 147 203 1699 0 0.60356460
Link 148 203 1700 0 -0.69345301
Link 149 203 1701 0 0.29234741
Link 150 203 1702 0 0.25399886
Link 151 203 1703 0 0.15322130
Link 152 203 1704 0 -0.07343802
Link 153 203 1705 0 -0.38561977
Link 154 203 1706 0 0.70386559
Link 155 203 1707 0 -0.30394512
Link 156 203 1708 0 0.31641148
Link 157 203 1709 0 0.04471817
Link 158 203 1710 0 0.36194675
Link 159 203 1711 0 -0.33554902
Link 160 203 1712 0 -0.29238922
Link 161 203 1713 0 -0.23299555
Link 162 203 1714 0 0.04519403
Link 163 203 1715 0 0.04250224
Link 164 203 1716 0 -0.44917135
Link 165 203 1717 0 0.16397328
Link 166 203 1718 0 0.18537804
Link 167 203 1719 0 -0.46840727
Link 168 203 1720 0 0.59002016
Link 169 203 1721 0 1.45638488
Link 170 203 1722 0 0.90737300
Link 171 203 1723 0 0.17213537
Link 172 203 1724 0 -0.15762532
Link 173 203 1725 0 1.19451847
Link 174 203 1726 0 -0.23772313
Link 175 203 1727 0 0.22887004
Link 176 203 1728 0 -0.39297558
Link 177 203 1729 0 -0.37292328
Link 178 203 1730 0 0.37616415
Link 179 203 1731 0 0.32421785
Link 180 203 1732 0 0.21333758
Link 181 203 1733 0 0.41318284
Link 182 203 1734 0 -0.30801942
Link 183 203 1735 0 0.73289225
Link 184 203 1736 0 0.77029409
Link 185 203 1737 0 -0.02234178
Link 186 203 1738 0 -0.14214352
Link 187 203 1739 0 -0.32693380
Link 188 203 1740 0 0.29451598
Link 189 203 1741 0 0.34765825
Link 190 203 1742 0 0.17438062
Link 191 203 1743 0 -0.61997022
Link 192 203 1744 0 -0.65983264
Link 193 203 1745 0 -0.75222073
Link 194 203 1746 0 -0.07100349
Link 1 204 1747 0 -0.28358842
Link 2 204 1748 0 -1.26273960
Link 3 204 1749 0 -1.12585231
Link 4 204 1750 0 -0.43733090
Link 5 204 1751 0 0.31136034
Link 6 204 1752 0 -0.30725959
Link 7 204 1753 0 0.51072238
Link 8 204 1754 0 -0.94551734
Link 9 204 1755 0 -0.31851012
Link 10 204 1756 0 0.04059296
Link 11 204 1757 0 0.60297207
Link 12 204 1758 0 -0.78701576
Link 13 204 1759 0 -0.34254316
Link 14 204 1760 0 0.21570163
Link 15 204 1761 0 -1.09546680
Link 16 204 1762 0 0.14908098
Link 17 204 1763 0 -0.62527120
Link 18 204 1764 0 -1.07612846
Link 19 204 1765 0 -0.85686623
Link 20 204 1766 0 0.58500697
Link 21 204 1767 0 0.60304698
Link 22 204 1768 0 -0.41656834
Link 23 204 1769 0 -0.49225270
Link 24 204 1770 0 -0.03566693
Link 25 204 1771 0 -0.15361120
Link 26 204 1772 0 0.28934870
Link 27 204 1773 0 -0.56231819
Link 28 204 1774 0 0.74418870
Link 29 204 1775 0 0.39737005
Link 30 204 1776 0 0.46807303
Link 31 204 1777 0 -0.76372565
Link 32 204 1778 0 -0.23862431
Link 33 204 1779 0 -0.44743489
Link 34 204 1780 0 0.44884462
Link 35 204 1781 0 0.24485085
Link 36 204 1782 0 0.15147533
Link 37 204 1783 0 -0.11042285
Link 38 204 1784 0 0.12720699
Link 39 204 1785 0 0.36259146
Link 40 204 1786 0 -1.05605660
Link 41 204 1787 0 0.33155740
Link 42 204 1788 0 -0.01278318
Link 43 204 1789 0 -0.14871008
Link 44 204 1790 0 -0.12002034
Link 45 204 1791 0 1.37247013
Link 46 204 1792 0 -0.16811347
Link 47 204 1793 0 -0.15023581
Link 48 204 1794 0 0.08106855
Link 49 204 1795 0 0.40679887
Link 50 204 1796 0 -0.36803385
Link 51 204 1797 0 0.73021624
Link 52 204 1798 0 -0.15404515
Link 53 204 1799 0 1.14670016
Link 54 204 1800 0 0.55459825
Link 55 204 1801 0 0.31650229
Link 56 204 1802 0 0.46436879
Link 57 204 1803 0 0.00296616
Link 58 204 1804 0 0.52415906
Link 59 204 1805 0 -1.30795761
Link 60 204 1806 0 -0.17680007
Link 61 204 1807 0 -0.43024492
Link 62 204 1808 0 0.71153098
Link 63 204 1809 0 0.02454460
Link 64 204 1810 0 0.51182225
Link 65 204 1811 0 1.24387763
Link 66 204 1812 0 0.24273333
Link 67 204 1813 0 -0.62965870
Link 68 204 1814 0 0.01545507
Link 69 204 1815 0 0.37809712
Link 70 204 1816 0 -0.73851659
Link 71 204 1817 0 -0.18835221
Link 72 204 1818 0 -0.36532646
Link 73 204 1819 0 -1.91036630
Link 74 204 1820 0 -0.83807168
Link 75 204 1821 0 0.31254198
Link 76 204 1822 0 0.78256012
Link 77 204 1823 0 -0.44099302
Link 78 204 1824 0 -0.66382426
Link 79 204 1825 0 -0.02594517
Link 80 204 1826 0 -0.35397400
Link 81 204 1827 0 -0.44041612
Link 82 204 1828 0 -0.17451571
Link 83 204 1829 0 -0.16464133
Link 84 204 1830 0 0.62530725
Link 85 204 1831 0 -0.24038438
Link 86 204 1832 0 -0.26807464
Link 87 204 1833 0 0.47483112
Link 88 204 1834 0 0.31186370
Link 89 204 1835 0 -0.49907502
Link 90 204 1836 0 0.35440746
Link 91 204 1837 0 0.11962454
Link 92 204 1838 0 0.19470551
Link 93 204 1839 0 1.00789779
Link 94 204 1840 0 0.50322828
Link 95 204 1841 0 -0.78399613
Link 96 204 1842 0 -0.21013894
Link 97 204 1843 0 0.14921208
Link 98 204 1844 0 -0.26640324
Link 99 204 1845 0 -0.49696706
Link 100 204 1846 0 -0.31187986
Link 101 204 1847 0 0.27231600
Link 102 204 1848 0 -0.97865813
Link 103 204 1849 0 -0.19364691
Link 104 204 1850 0 0.17478616
Link 105 204 1851 0 -0.05908016
Link 106 204 1852 0 -0.85625346
Link 107 204 1853 0 -0.28357794
Link 108 204 1854 0 -0.68573939
Link 109 204 1855 0 -0.07519501
Link 110 204 1856 0 0.45253386
Link 111 204 1857 0 0.07622664
Link 112 204 1858 0 0.46308983
Link 113 204 1859 0 0.31836214
Link 114 204 1860 0 -0.48476371
Link 115 204 1861 0 0.18226242
Link 116 204 1862 0 0.11367820
Link 117 204 1863 0 0.35687810
Link 118 204 1864 0 -1.26744506
Link 119 204 1865 0 0.18847643
Link 120 204 1866 0 -0.85954590
Link 121 204 1867 0 -0.55686215
Link 122 204 1868 0 -0.03649769
Link 123 204 1869 0 -0.64806769
Link 124 204 1870 0 -1.12965351
Link 125 204 1871 0 0.05389246
Link 126 204 1872 0 -0.36888189
Link 127 204 1873 0 -0.97251839
Link 128 204 1874 0 0.66310959
Link 129 204 1875 0 -0.00488171
Link 130 204 1876 0 -0.28064026
Link 131 204 1877 0 -0.19264289
Link 132 204 1878 0 0.45918796
Link 133 204 1879 0 -0.07042273
Link 134 204 1880 0 -0.16118029
Link 135 204 1881 0 -0.78325869
Link 136 204 1882 0 -0.91998870
Link 137 204 1883 0 -0.61764420
Link 138 204 1884 0 -0.31078475
Link 139 204 1885 0 -0.15888409
Link 140 204 1886 0 0.96086624
Link 141 204 1887 0 0.40298020
Link 142 204 1888 0 -0.39759508
Link 143 204 1889 0 -0.59876265
Link 144 204 1890 0 0.46135753
Link 145 204 1891 0 1.43358695
Link 146 204 1892 0 -0.33849061
Link 147 204 1893 0 -0.16861740
Link 148 204 1894 0 -0.13360990
Link 149 204 1895 0 -0.16907009
Link 150 204 1896 0 0.12606048
Link 151 204 1897 0 -0.39074884
Link 152 204 1898 0 -0.33817003
Link 153 204 1899 0 -0.09303365
Link 154 204 1900 0 0.12366008
Link 155 204 1901 0 0.31510682
Link 156 204 1902 0 0.13717952
Link 157 204 1903 0 0.68787054
Link 158 204 1904 0 -0.46443762
Link 159 204 1905 0 0.19873440
Link 160 204 1906 0 0.10839993
Link 161 204 1907 0 0.06582533
Link 162 204 1908 0 0.06463086
Link 163 204 1909 0 0.35475817
Link 164 204 1910 0 -0.54712022
Link 165 204 1911 0 -0.48143497
Link 166 204 1912 0 0.22833269
Link 167 204 1913 0 -0.24189662
Link 168 204 1914 0 0.26878947
Link 169 204 1915 0 0.09744036
Link 170 204 1916 0 -0.60395209
Link 171 204 1917 0 0.19950439
Link 172 204 1918 0 0.66662924
Link 173 204 1919 0 0.18378075
Link 174 204 1920 0 0.61329351
Link 175 204 1921 0 -0.52958564
Link 176 204 1922 0 -0.11612166
Link 177 204 1923 0 0.38999768
Link 178 204 1924 0 -0.67656645
Link 179 204 1925 0 -1.38926545
Link 180 204 1926 0 -0.42187528
Link 181 204 1927 0 -0.09263648
Link 182 204 1928 0 -0.12685364
Link 183 204 1929 0 0.11324406
Link 184 204 1930 0 -0.41390797
Link 185 204 1931 0 -0.27546403
Link 186 204 1932 0 -0.12550005
Link 187 204 1933 0 0.18964620
Link 188 204 1934 0 0.95114044
Link 189 204 1935 0 0.38182038
Link 190 204 1936 0 -0.02025328
Link 191 204 1937 0 -0.95004469
Link 192 204 1938 0 0.12493757
Link 193 204 1939 0 0.38576467
Link 194 204 1940 0 0.54848622
Link 1 205 1941 0 -0.01192989
Link 2 205 1942 0 -1.96382013
Link 3 205 1943 0 0.35689949
Link 4 205 1944 0 0.50220527
Link 5 205 1945 0 0.17067924
Link 6 205 1946 0 1.28194259
Link 7 205 1947 0 -0.26317828
Link 8 205 1948 0 -0.54383491
Link 9 205 1949 0 -0.25358341
Link 10 205 1950 0 -0.17328999
Link 11 205 1951 0 -0.30929860
Link 12 205 1952 0 1.01903185
Link 13 205 1953 0 -1.01320227
Link 14 205 1954 0 -0.16914113
Link 15 205 1955 0 0.23954554
Link 16 205 1956 0 -0.13848893
Link 17 205 1957 0 -0.30533322
Link 18 205 1958 0 0.23954973
Link 19 205 1959 0 0.47925678
Link 20 205 1960 0 -0.27926148
Link 21 205 1961 0 0.47253713
Link 22 205 1962 0 -0.16461950
Link 23 205 1963 0 -0.30478185
Link 24 205 1964 0 0.29150095
Link 25 205 1965 0 0.16268360
Link 26 205 1966 0 -0.39460833
Link 27 205 1967 0 -0.56458183
Link 28 205 1968 0 -0.59081745
Link 29 205 1969 0 0.06859133
Link 30 205 1970 0 0.48100205
Link 31 205 1971 0 -0.09657098
Link 32 205 1972 0 -0.38556823
Link 33 205 1973 0 -0.21150415
Link 34 205 1974 0 -0.25660610
Link 35 205 1975 0 -0.06634971
Link 36 205 1976 0 0.10170754
Link 37 205 1977 0 -1.12857775
Link 38 205 1978 0 0.62862195
Link 39 205 1979 0 -0.04118179
Link 40 205 1980 0 -0.69956101
Link 41 205 1981 0 -0.24451396
Link 42 205 1982 0 -0.65403655
Link 43 205 1983 0 0.22887558
Link 44 205 1984 0 -0.42627886
Link 45 205 1985 0 -0.31725770
Link 46 205 1986 0 0.21264430
Link 47 205 1987 0 0.23690068
Link 48 205 1988 0 -0.11922026
Link 49 205 1989 0 -0.24220832
Link 50 205 1990 0 -0.17788795
Link 51 205 1991 0 -0.12346889
Link 52 205 1992 0 -0.56076408
Link 53 205 1993 0 -0.28103978
Link 54 205 1994 0 0.81339235
Link 55 205 1995 0 -0.02321963
Link 56 205 1996 0 0.18659985
Link 57 205 1997 0 0.51292112
Link 58 205 1998 0 -1.32503736
Link 59 205 1999 0 -0.38504383
Link 60 205 2000 0 -0.87399191
Link 61 205 2001 0 -0.58160555
Link 62 205 2002 0 -0.57931103
Link 63 205 2003 0 -0.02739858
Link 64 205 2004 0 0.24564733
Link 65 205 2005 0 -0.41630367
Link 66 205 2006 0 -0.08080087
Link 67 205 2007 0 0.22391198
Link 68 205 2008 0 -0.38411362
Link 69 205 2009 0 0.15879767
Link 70 205 2010 0 -0.40228258
Link 71 205 2011 0 -0.22350436
Link 72 205 2012 0 0.28573678
Link 73 205 2013 0 0.06085916
Link 74 205 2014 0 0.73609485
Link 75 205 2015 0 -0.70895311
Link 76 205 2016 0 0.17856718
Link 77 205 2017 0 0.96945139
Link 78 205 2018 0 -1.07711429
Link 79 205 2019 0 0.06620093
Link 80 205 2020 0 -1.33905625
Link 81 205 2021 0 -0.12093025
Link 82 205 2022 0 0.67548960
Link 83 205 2023 0 -0.26299153
Link 84 205 2024 0 -0.05214041
Link 85 205 2025 0 -0.34072203
Link 86 205 2026 0 0.08223861
Link 87 205 2027 0 0.12738308
Link 88 205 2028 0 -0.08367862
Link 89 205 2029 0 0.17536913
Link 90 205 2030 0 -1.80754604
Link 91 205 2031 0 -0.58708219
Link 92 205 2032 0 -0.45003680
Link 93 205 2033 0 -0.46138420
Link 94 205 2034 0 1.04559613
Link 95 205 2035 0 0.00686338
Link 96 205 2036 0 0.27626334
Link 97 205 2037 0 -0.23783290
Link 98 205 2038 0 -0.10607003
Link 99 205 2039 0 0.04747751
Link 100 205 2040 0 0.22534618
Link 101 205 2041 0 0.18044662
Link 102 205 2042 0 -1.63077317
Link 103 205 2043 0 0.05992890
Link 104 205 2044 0 -0.68487659
Link 105 205 2045 0 0.16807702
Link 106 205 2046 0 -0.57823063
Link 107 205 2047 0 0.82340748
Link 108 205 2048 0 -0.64767663
Link 109 205 2049 0 0.23758666
Link 110 205 2050 0 -0.50966070
Link 111 205 2051 0 -0.34607728
Link 112 205 2052 0 0.73548919
Link 113 205 2053 0 0.36964856
Link 114 205 2054 0 -0.26770359
Link 115 205 2055 0 -0.97024498
Link 116 205 2056 0 -0.55035052
Link 117 205 2057 0 1.13147390
Link 118 205 2058 0 0.29861522
Link 119 205 2059 0 0.11460118
Link 120 205 2060 0 0.43713986
Link 121 205 2061 0 -0.29340397
Link 122 205 2062 0 0.17371101
Link 123 205 2063 0 0.18978517
Link 124 205 2064 0 -0.23075161
Link 125 205 2065 0 -0.04999133
Link 126 205 2066 0 1.09002510
Link 127 205 2067 0 -0.35689385
Link 128 205 2068 0 0.16551627
Link 129 205 2069 0 1.41243896
Link 130 205 2070 0 -0.68661952
Link 131 205 2071 0 0.17479909
Link 132 205 2072 0 -0.37201356
Link 133 205 2073 0 0.17135029
Link 134 205 2074 0 -1.15204065
Link 135 205 2075 0 -0.30740382
Link 136 205 2076 0 -0.79071895
Link 137 205 2077 0 0.80076483
Link 138 205 2078 0 0.25546882
Link 139 205 2079 0 0.07419830
Link 140 205 2080 0 0.02657767
Link 141 205 2081 0 0.05839520
Link 142 205 2082 0 -0.58831315
Link 143 205 2083 0 -0.11750885
Link 144 205 2084 0 0.62693731
Link 145 205 2085 0 0.27472234
Link 146 205 2086 0 -0.17634766
Link 147 205 2087 0 -0.06734135
Link 148 205 2088 0 -0.04443187
Link 149 205 2089 0 0.38352567
Link 150 205 2090 0 -0.64604650
Link 151 205 2091 0 0.18235822
Link 152 205 2092 0 -0.43626787
Link 153 205 2093 0 -0.63371360
Link 154 205 2094 0 -0.00884793
Link 155 205 2095 0 -1.14641137
Link 156 205 2096 0 -1.58071741
Link 157 205 2097 0 -0.40546663
Link 158 205 2098 0 0.06920749
Link 159 205 2099 0 1.09123042
Link 160 205 2100 0 -0.41185132
Link 161 205 2101 0 -0.44949280
Link 162 205 2102 0 0.04651493
Link 163 205 2103 0 1.07246822
Link 164 205 2104 0 -0.08043242
Link 165 205 2105 0 0.24324529
Link 166 205 2106 0 -0.33256176
Link 167 205 2107 0 0.69268524
Link 168 205 2108 0 0.61769846
Link 169 205 2109 0 -0.00396194
Link 170 205 2110 0 -0.10779411
Link 171 205 2111 0 -0.34945284
Link 172 205 2112 0 0.71626260
Link 173 205 2113 0 0.30544018
Link 174 205 2114 0 -0.40173696
Link 175 205 2115 0 0.28049762
Link 176 205 2116 0 -0.30118930
Link 177 205 2117 0 -0.77607385
Link 178 205 2118 0 0.36694369
Link 179 205 2119 0 0.13472601
Link 180 205 2120 0 -0.76194621
Link 181 205 2121 0 -0.33209729
Link 182 205 2122 0 -0.16939286
Link 183 205 2123 0 0.04098626
Link 184 205 2124 0 0.39597704
Link 185 205 2125 0 -0.70594591
Link 186 205 2126 0 -0.14809782
Link 187 205 2127 0 -0.09257576
Link 188 205 2128 0 1.34976448
Link 189 205 2129 0 -0.27860428
Link 190 205 2130 0 0.20793771
Link 191 205 2131 0 0.13157931
Link 192 205 2132 0 -0.47475972
Link 193 205 2133 0 0.31826367
Link 194 205 2134 0 0.87067887
Link 1 206 2135 0 0.57702112
Link 2 206 2136 0 0.69305570
Link 3 206 2137 0 -0.61442558
Link 4 206 2138 0 -1.38937307
Link 5 206 2139 0 -0.10993817
Link 6 206 2140 0 0.07074171
Link 7 206 2141 0 -0.08920344
Link 8 206 2142 0 0.02234448
Link 9 206 2143 0 -0.62805750
Link 10 206 2144 0 0.24100136
Link 11 206 2145 0 0.43355412
Link 12 206 2146 0 0.01512713
Link 13 206 2147 0 0.02161486
Link 14 206 2148 0 -0.28387838
Link 15 206 2149 0 0.22029132
Link 16 206 2150 0 -1.15492946
Link 17 206 2151 0 -0.19657161
Link 18 206 2152 0 0.15889391
Link 19 206 2153 0 1.19407622
Link 20 206 2154 0 0.31196427
Link 21 206 2155 0 0.21534839
Link 22 206 2156 0 -0.04930609
Link 23 206 2157 0 0.11397023
Link 24 206 2158 0 0.45233951
Link 25 206 2159 0 -0.55198111
Link 26 206 2160 0 -0.33934301
Link 27 206 2161 0 0.07073114
Link 28 206 2162 0 0.51554850
Link 29 206 2163 0 0.64306719
Link 30 206 2164 0 0.12867336
Link 31 206 2165 0 0.52816090
Link 32 206 2166 0 -0.00803708
Link 33 206 2167 0 -0.29579817
Link 34 206 2168 0 0.10583719
Link 35 206 2169 0 -0.56329073
Link 36 206 2170 0 0.00850573
Link 37 206 2171 0 -0.70880069
Link 38 206 2172 0 -0.88323759
Link 39 206 2173 0 0.42687664
Link 40 206 2174 0 0.41009164
Link 41 206 2175 0 0.02991760
Link 42 206 2176 0 -0.24107598
Link 43 206 2177 0 0.93331688
Link 44 206 2178 0 0.01891500
Link 45 206 2179 0 -0.22870248
Link 46 206 2180 0 -0.35694773
Link 47 206 2181 0 0.04773864
Link 48 206 2182 0 -0.83897105
Link 49 206 2183 0 -0.21849897
Link 50 206 2184 0 -0.06652086
Link 51 206 2185 0 -0.22848636
Link 52 206 2186 0 -0.69463393
Link 53 206 2187 0 0.51315248
Link 54 206 2188 0 0.13997279
Link 55 206 2189 0 0.16889237
Link 56 206 2190 0 -0.15704328
Link 57 206 2191 0 -0.03451786
Link 58 206 2192 0 0.72787815
Link 59 206 2193 0 -0.68802589
Link 60 206 2194 0 -0.01233716
Link 61 206 2195 0 0.48916100
Link 62 206 2196 0 -0.55687202
Link 63 206 2197 0 0.45689517
Link 64 206 2198 0 0.58420202
Link 65 206 2199 0 0.24378434
Link 66 206 2200 0 1.65454978
Link 67 206 2201 0 0.05949046
Link 68 206 2202 0 1.04673434
Link 69 206 2203 0 -0.25937372
Link 70 206 2204 0 -0.68549851
Link 71 206 2205 0 0.28707609
Link 72 206 2206 0 -0.02887429
Link 73 206 2207 0 0.05364286
Link 74 206 2208 0 0.30924525
Link 75 206 2209 0 -0.96103045
Link 76 206 2210 0 0.38460664
Link 77 206 2211 0 -0.19566620
Link 78 206 2212 0 -0.49388388
Link 79 206 2213 0 0.30770412
Link 80 206 2214 0 -0.28025000
Link 81 206 2215 0 -0.33622210
Link 82 206 2216 0 -1.26383297
Link 83 206 2217 0 0.50520135
Link 84 206 2218 0 -0.40881031
Link 85 206 2219 0 -0.35915747
Link 86 206 2220 0 -0.55504427
Link 87 206 2221 0 0.20941746
Link 88 206 2222 0 -0.15711681
Link 89 206 2223 0 -1.09640131
Link 90 206 2224 0 -0.24319125
Link 91 206 2225 0 -0.07694164
Link 92 206 2226 0 -0.10550092
Link 93 206 2227 0 -0.42634534
Link 94 206 2228 0 -0.74298982
Link 95 206 2229 0 0.15537205
Link 96 206 2230 0 0.05535428
Link 97 206 2231 0 0.77510033
Link 98 206 2232 0 0.12352744
Link 99 206 2233 0 0.55048212
Link 100 206 2234 0 0.56465681
Link 101 206 2235 0 -0.17483549
Link 102 206 2236 0 0.31832510
Link 103 206 2237 0 0.29105708
Link 104 206 2238 0 -0.84089716
Link 105 206 2239 0 0.11999188
Link 106 206 2240 0 0.13203406
Link 107 206 2241 0 0.18317815
Link 108 206 2242 0 -0.48035430
Link 109 206 2243 0 -0.41865238
Link 110 206 2244 0 -0.26254717
Link 111 206 2245 0 -0.93800921
Link 112 206 2246 0 0.25613078
Link 113 206 2247 0 -0.06880460
Link 114 206 2248 0 0.03882548
Link 115 206 2249 0 -0.79450581
Link 116 206 2250 0 -0.20583743
Link 117 206 2251 0 1.22087098
Link 118 206 2252 0 -0.51544725
Link 119 206 2253 0 -0.12757231
Link 120 206 2254 0 0.52078501
Link 121 206 2255 0 -1.40556203
Link 122 206 2256 0 -0.31199512
Link 123 206 2257 0 1.19964827
Link 124 206 2258 0 -0.00130440
Link 125 206 2259 0 -0.11085858
Link 126 206 2260 0 0.00702160
Link 127 206 2261 0 0.19501431
Link 128 206 2262 0 0.43005065
Link 129 206 2263 0 0.26239253
Link 130 206 2264 0 0.39472288
Link 131 206 2265 0 -0.34180821
Link 132 206 2266 0 -0.14226647
Link 133 206 2267 0 0.19422150
Link 134 206 2268 0 0.06520464
Link 135 206 2269 0 0.85722494
Link 136 206 2270 0 -0.46448149
Link 137 206 2271 0 0.05268072
Link 138 206 2272 0 -0.03384535
Link 139 206 2273 0 0.12200162
Link 140 206 2274 0 -0.36448077
Link 141 206 2275 0 -1.16143891
Link 142 206 2276 0 1.90551190
Link 143 206 2277 0 -0.42647339
Link 144 206 2278 0 -0.11911819
Link 145 206 2279 0 0.31608994
Link 146 206 2280 0 -0.29753651
Link 147 206 2281 0 -0.05012271
Link 148 206 2282 0 1.09728470
Link 149 206 2283 0 -1.46399127
Link 150 206 2284 0 -0.43071332
Link 151 206 2285 0 -0.52069223
Link 152 206 2286 0 -0.13766307
Link 153 206 2287 0 0.46466485
Link 154 206 2288 0 -0.18920383
Link 155 206 2289 0 0.66562686
Link 156 206 2290 0 0.34696890
Link 157 206 2291 0 -0.00192568
Link 158 206 2292 0 -0.50892132
Link 159 206 2293 0 0.40982044
Link 160 206 2294 0 0.77352700
Link 161 206 2295 0 -0.01825916
Link 162 206 2296 0 -0.33712696
Link 163 206 2297 0 0.10334315
Link 164 206 2298 0 0.20551431
Link 165 206 2299 0 0.45799961
Link 166 206 2300 0 -0.45126802
Link 167 206 2301 0 -0.16874199
Link 168 206 2302 0 0.24909982
Link 169 206 2303 0 1.69079921
Link 170 206 2304 0 1.15491318
Link 171 206 2305 0 0.14794406
Link 172 206 2306 0 0.86016963
Link 173 206 2307 0 -0.34332798
Link 174 206 2308 0 0.87669387
Link 175 206 2309 0 0.70136278
Link 176 206 2310 0 0.04034398
Link 177 206 2311 0 0.25185963
Link 178 206 2312 0 0.26475261
Link 179 206 2313 0 -1.39358719
Link 180 206 2314 0 -0.37604591
Link 181 206 2315 0 -0.03849968
Link 182 206 2316 0 -0.07266809
Link 183 206 2317 0 -0.44337136
Link 184 206 2318 0 0.21784896
Link 185 206 2319 0 0.43057747
Link 186 206 2320 0 -0.36402938
Link 187 206 2321 0 -0.62762512
Link 188 206 2322 0 0.15884716
Link 189 206 2323 0 -0.00167876
Link 190 206 2324 0 -0.00025527
Link 191 206 2325 0 -0.32244830
Link 192 206 2326 0 0.76624716
Link 193 206 2327 0 1.09014678
Link 194 206 2328 0 -0.90206117
Link 1 207 2329 0 -0.24702279
Link 2 207 2330 0 0.74768714
Link 3 207 2331 0 -0.12563684
Link 4 207 2332 0 -0.28642838
Link 5 207 2333 0 -0.34083067
Link 6 207 2334 0 0.53804942
Link 7 207 2335 0 0.33697487
Link 8 207 2336 0 0.07570139
Link 9 207 2337 0 -0.17688762
Link 10 207 2338 0 0.08606625
Link 11 207 2339 0 -0.22704813
Link 12 207 2340 0 -0.38190828
Link 13 207 2341 0 -0.41667972
Link 14 207 2342 0 0.33975605
Link 15 207 2343 0 -0.24418327
Link 16 207 2344 0 0.20211623
Link 17 207 2345 0 0.07318310
Link 18 207 2346 0 0.28878301
Link 19 207 2347 0 -0.25637584
Link 20 207 2348 0 0.02423778
Link 21 207 2349 0 0.30718980
Link 22 207 2350 0 0.08259872
Link 23 207 2351 0 -0.19724284
Link 24 207 2352 0 0.15663946
Link 25 207 2353 0 -0.31193820
Link 26 207 2354 0 -0.19265595
Link 27 207 2355 0 -0.09147135
Link 28 207 2356 0 -0.02284734
Link 29 207 2357 0 0.34444446
Link 30 207 2358 0 0.14631095
Link 31 207 2359 0 0.34422889
Link 32 207 2360 0 -0.01935464
Link 33 207 2361 0 -0.07562092
Link 34 207 2362 0 0.07487620
Link 35 207 2363 0 0.33571514
Link 36 207 2364 0 -0.38551981
Link 37 207 2365 0 0.25469385
Link 38 207 2366 0 0.39860922
Link 39 207 2367 0 -0.18335054
Link 40 207 2368 0 -0.39964699
Link 41 207 2369 0 0.40099356
Link 42 207 2370 0 0.21297208
Link 43 207 2371 0 -0.20408100
Link 44 207 2372 0 0.08991752
Link 45 207 2373 0 0.19680404
Link 46 207 2374 0 0.09630338
Link 47 207 2375 0 -0.54820828
Link 48 207 2376 0 -0.14749585
Link 49 207 2377 0 -0.41277630
Link 50 207 2378 0 -0.16641728
Link 51 207 2379 0 -0.36693315
Link 52 207 2380 0 0.13707313
Link 53 207 2381 0 -0.04799057
Link 54 207 2382 0 0.08891374
Link 55 207 2383 0 0.12350975
Link 56 207 2384 0 0.30264618
Link 57 207 2385 0 0.43366707
Link 58 207 2386 0 -0.18491006
Link 59 207 2387 0 -0.07593254
Link 60 207 2388 0 0.35368878
Link 61 207 2389 0 0.00433072
Link 62 207 2390 0 -0.00228321
Link 63 207 2391 0 -0.31830368
Link 64 207 2392 0 0.32374480
Link 65 207 2393 0 -0.03282205
Link 66 207 2394 0 -0.05228910
Link 67 207 2395 0 -0.12017615
Link 68 207 2396 0 -0.01637571
Link 69 207 2397 0 -0.02956739
Link 70 207 2398 0 -0.63101285
Link 71 207 2399 0 -0.11802358
Link 72 207 2400 0 0.18372169
Link 73 207 2401 0 -0.25153129
Link 74 207 2402 0 -0.01616979
Link 75 207 2403 0 -0.02150847
Link 76 207 2404 0 -0.09304291
Link 77 207 2405 0 -0.19369833
Link 78 207 2406 0 0.06230175
Link 79 207 2407 0 0.14473832
Link 80 207 2408 0 0.42449064
Link 81 207 2409 0 0.72850840
Link 82 207 2410 0 0.06146095
Link 83 207 2411 0 -0.01082098
Link 84 207 2412 0 0.17739921
Link 85 207 2413 0 -0.28273181
Link 86 207 2414 0 0.01655846
Link 87 207 2415 0 0.06855396
Link 88 207 2416 0 -0.19307523
Link 89 207 2417 0 0.03332024
Link 90 207 2418 0 0.14479075
Link 91 207 2419 0 0.13554572
Link 92 207 2420 0 -0.60364342
Link 93 207 2421 0 0.61418020
Link 94 207 2422 0 0.24692830
Link 95 207 2423 0 -0.12062334
Link 96 207 2424 0 -0.13085826
Link 97 207 2425 0 0.06761244
Link 98 207 2426 0 -0.17840597
Link 99 207 2427 0 -0.30127989
Link 100 207 2428 0 -0.60643699
Link 101 207 2429 0 0.26246218
Link 102 207 2430 0 0.35232831
Link 103 207 2431 0 0.27765319
Link 104 207 2432 0 -0.22629272
Link 105 207 2433 0 -0.08239862
Link 106 207 2434 0 -0.46273987
Link 107 207 2435 0 0.10464423
Link 108 207 2436 0 -0.13506714
Link 109 207 2437 0 0.20624268
Link 110 207 2438 0 -0.14274978
Link 111 207 2439 0 -0.24747819
Link 112 207 2440 0 0.16251235
Link 113 207 2441 0 -0.19863273
Link 114 207 2442 0 -0.27049200
Link 115 207 2443 0 -0.15170223
Link 116 207 2444 0 -0.10881471
Link 117 207 2445 0 0.01191981
Link 118 207 2446 0 -0.47316226
Link 119 207 2447 0 0.07226185
Link 120 207 2448 0 -0.24131863
Link 121 207 2449 0 0.04589647
Link 122 207 2450 0 -0.16610228
Link 123 207 2451 0 0.01904170
Link 124 207 2452 0 -0.25268432
Link 125 207 2453 0 -0.52252348
Link 126 207 2454 0 -0.63206564
Link 127 207 2455 0 0.13081419
Link 128 207 2456 0 0.83372848
Link 129 207 2457 0 0.34782641
Link 130 207 2458 0 -0.19926406
Link 131 207 2459 0 -0.80878288
Link 132 207 2460 0 -0.03380000
Link 133 207 2461 0 -0.44762367
Link 134 207 2462 0 -0.27260071
Link 135 207 2463 0 0.44431584
Link 136 207 2464 0 0.08270830
Link 137 207 2465 0 0.49304720
Link 138 207 2466 0 0.30245140
Link 139 207 2467 0 -0.07212406
Link 140 207 2468 0 0.07556352
Link 141 207 2469 0 0.75544884
Link 142 207 2470 0 0.36332794
Link 143 207 2471 0 -0.17289601
Link 144 207 2472 0 0.29232653
Link 145 207 2473 0 -0.30458400
Link 146 207 2474 0 0.17185382
Link 147 207 2475 0 0.25537589
Link 148 207 2476 0 0.18637690
Link 149 207 2477 0 -0.46625714
Link 150 207 2478 0 0.30570418
Link 151 207 2479 0 0.17306832
Link 152 207 2480 0 -0.14161947
Link 153 207 2481 0 -0.20946477
Link 154 207 2482 0 -0.30569923
Link 155 207 2483 0 0.14705894
Link 156 207 2484 0 0.01626423
Link 157 207 2485 0 -0.33014900
Link 158 207 2486 0 0.23863343
Link 159 207 2487 0 0.41711320
Link 160 207 2488 0 0.22416903
Link 161 207 2489 0 -0.33359170
Link 162 207 2490 0 0.51589728
Link 163 207 2491 0 0.07256766
Link 164 207 2492 0 0.03523924
Link 165 207 2493 0 -0.25083651
Link 166 207 2494 0 0.02618067
Link 167 207 2495 0 -0.19310435
Link 168 207 2496 0 -0.27051872
Link 169 207 2497 0 0.04499153
Link 170 207 2498 0 0.18281345
Link 171 207 2499 0 0.21851056
Link 172 207 2500 0 -0.09246831
Link 173 207 2501 0 0.07106462
Link 174 207 2502 0 -0.20760194
Link 175 207 2503 0 -0.09714030
Link 176 207 2504 0 -0.35689718
Link 177 207 2505 0 -0.00936897
Link 178 207 2506 0 -0.11257434
Link 179 207 2507 0 -0.41680489
Link 180 207 2508 0 -0.16985052
Link 181 207 2509 0 0.57515890
Link 182 207 2510 0 -0.12085313
Link 183 207 2511 0 -0.56908982
Link 184 207 2512 0 0.52098405
Link 185 207 2513 0 -0.53660748
Link 186 207 2514 0 -0.14413780
Link 187 207 2515 0 0.43081488
Link 188 207 2516 0 -0.14189843
Link 189 207 2517 0 -0.09713075
Link 190 207 2518 0 -0.06088869
Link 191 207 2519 0 0.05913051
Link 192 207 2520 0 0.50864075
Link 193 207 2521 0 0.28148626
Link 194 207 2522 0 0.19294591
Link 1 208 2523 0 0.36402187
Link 2 208 2524 0 0.54387763
Link 3 208 2525 0 -0.12807153
Link 4 208 2526 0 -0.32371499
Link 5 208 2527 0 0.39888746
Link 6 208 2528 0 -0.25500579
Link 7 208 2529 0 0.04334530
Link 8 208 2530 0 0.17153215
Link 9 208 2531 0 -0.00181312
Link 10 208 2532 0 0.01528571
Link 11 208 2533 0 0.41974448
Link 12 208 2534 0 0.11442290
Link 13 208 2535 0 0.00064253
Link 14 208 2536 0 -0.14517171
Link 15 208 2537 0 0.27861197
Link 16 208 2538 0 -0.24109415
Link 17 208 2539 0 0.32836391
Link 18 208 2540 0 -0.17772375
Link 19 208 2541 0 0.18818362
Link 20 208 2542 0 0.13161230
Link 21 208 2543 0 0.21422819
Link 22 208 2544 0 -0.58937339
Link 23 208 2545 0 0.21853706
Link 24 208 2546 0 -0.07309287
Link 25 208 2547 0 0.27446081
Link 26 208 2548 0 -0.12764886
Link 27 208 2549 0 0.32116652
Link 28 208 2550 0 0.09524010
Link 29 208 2551 0 -0.26284570
Link 30 208 2552 0 0.08397213
Link 31 208 2553 0 -0.51539578
Link 32 208 2554 0 0.48547196
Link 33 208 2555 0 0.10876082
Link 34 208 2556 0 0.42821374
Link 35 208 2557 0 -0.21640204
Link 36 208 2558 0 0.28714409
Link 37 208 2559 0 -0.33300760
Link 38 208 2560 0 0.23593983
Link 39 208 2561 0 -0.08831575
Link 40 208 2562 0 -0.18484000
Link 41 208 2563 0 0.16297575
Link 42 208 2564 0 0.12417199
Link 43 208 2565 0 -0.18971419
Link 44 208 2566 0 -0.39278084
Link 45 208 2567 0 0.00921468
Link 46 208 2568 0 0.50954273
Link 47 208 2569 0 0.20238553
Link 48 208 2570 0 -0.29846932
Link 49 208 2571 0 -0.17074557
Link 50 208 2572 0 0.16556565
Link 51 208 2573 0 -0.15792337
Link 52 208 2574 0 -0.42698443
Link 53 208 2575 0 0.14963151
Link 54 208 2576 0 -0.20953849
Link 55 208 2577 0 -0.07758729
Link 56 208 2578 0 0.31994590
Link 57 208 2579 0 -0.37938510
Link 58 208 2580 0 0.38252311
Link 59 208 2581 0 -0.29908936
Link 60 208 2582 0 -0.08085493
Link 61 208 2583 0 0.12119853
Link 62 208 2584 0 0.31707065
Link 63 208 2585 0 0.49223338
Link 64 208 2586 0 -0.35153510
Link 65 208 2587 0 -0.62855538
Link 66 208 2588 0 -0.21269515
Link 67 208 2589 0 -0.26432177
Link 68 208 2590 0 -0.08868175
Link 69 208 2591 0 0.19742984
Link 70 208 2592 0 0.19377808
Link 71 208 2593 0 0.18776187
Link 72 208 2594 0 -0.28406884
Link 73 208 2595 0 -0.07376617
Link 74 208 2596 0 -0.33270794
Link 75 208 2597 0 0.27640882
Link 76 208 2598 0 0.15939730
Link 77 208 2599 0 0.62207530
Link 78 208 2600 0 0.02224445
Link 79 208 2601 0 0.09518709
Link 80 208 2602 0 -0.36359399
Link 81 208 2603 0 0.05430510
Link 82 208 2604 0 -0.19210995
Link 83 208 2605 0 -0.39303054
Link 84 208 2606 0 0.00667769
Link 85 208 2607 0 -0.38289660
Link 86 208 2608 0 -0.51644716
Link 87 208 2609 0 -0.07402808
Link 88 208 2610 0 0.56497553
Link 89 208 2611 0 -0.10755303
Link 90 208 2612 0 0.42647467
Link 91 208 2613 0 0.06364489
Link 92 208 2614 0 0.00261876
Link 93 208 2615 0 0.13990338
Link 94 208 2616 0 -0.25344537
Link 95 208 2617 0 -0.32273565
Link 96 208 2618 0 0.36881388
Link 97 208 2619 0 0.67561936
Link 98 208 2620 0 -0.05325723
Link 99 208 2621 0 -0.65207130
Link 100 208 2622 0 0.29441956
Link 101 208 2623 0 0.53379698
Link 102 208 2624 0 -0.12540035
Link 103 208 2625 0 0.25324053
Link 104 208 2626 0 -0.19712092
Link 105 208 2627 0 -0.01291759
Link 106 208 2628 0 0.08225935
Link 107 208 2629 0 0.14458149
Link 108 208 2630 0 -0.39419876
Link 109 208 2631 0 -0.47693019
Link 110 208 2632 0 0.20131256
Link 111 208 2633 0 0.34259703
Link 112 208 2634 0 -0.23308596
Link 113 208 2635 0 -0.52180490
Link 114 208 2636 0 -0.43019278
Link 115 208 2637 0 0.05042667
Link 116 208 2638 0 0.05808369
Link 117 208 2639 0 0.13479765
Link 118 208 2640 0 0.13023124
Link 119 208 2641 0 0.16264953
Link 120 208 2642 0 0.66027615
Link 121 208 2643 0 0.44734666
Link 122 208 2644 0 0.32503478
Link 123 208 2645 0 -0.19401240
Link 124 208 2646 0 -0.37907534
Link 125 208 2647 0 -0.34598507
Link 126 208 2648 0 0.13597546
Link 127 208 2649 0 -0.08820301
Link 128 208 2650 0 0.26823229
Link 129 208 2651 0 -0.77770807
Link 130 208 2652 0 -0.00122528
Link 131 208 2653 0 0.15027109
Link 132 208 2654 0 0.11966878
Link 133 208 2655 0 0.04751241
Link 134 208 2656 0 0.18704249
Link 135 208 2657 0 0.07608216
Link 136 208 2658 0 0.27831374
Link 137 208 2659 0 0.38966911
Link 138 208 2660 0 -0.19210207
Link 139 208 2661 0 -0.18322098
Link 140 208 2662 0 0.28624565
Link 141 208 2663 0 0.31109784
Link 142 208 2664 0 -0.42090033
Link 143 208 2665 0 0.16606651
Link 144 208 2666 0 0.33552970
Link 145 208 2667 0 -0.05502507
Link 146 208 2668 0 -0.07469289
Link 147 208 2669 0 0.70252192
Link 148 208 2670 0 -0.24400689
Link 149 208 2671 0 0.17837614
Link 150 208 2672 0 -0.04212412
Link 151 208 2673 0 0.06364831
Link 152 208 2674 0 -0.24127128
Link 153 208 2675 0 0.14650135
Link 154 208 2676 0 0.04260811
Link 155 208 2677 0 -0.41349842
Link 156 208 2678 0 0.09972057
Link 157 208 2679 0 0.28076433
Link 158 208 2680 0 0.71862576
Link 159 208 2681 0 0.07566488
Link 160 208 2682 0 -0.00670389
Link 161 208 2683 0 0.03232669
Link 162 208 2684 0 -0.15050922
Link 163 208 2685 0 -0.27103052
Link 164 208 2686 0 -0.05583717
Link 165 208 2687 0 0.00417964
Link 166 208 2688 0 -0.07136680
Link 167 208 2689 0 -0.01229470
Link 168 208 2690 0 -0.34912961
Link 169 208 2691 0 -0.47198700
Link 170 208 2692 0 -0.36607447
Link 171 208 2693 0 -0.50377086
Link 172 208 2694 0 0.42731231
Link 173 208 2695 0 -0.07224321
Link 174 208 2696 0 -0.33682154
Link 175 208 2697 0 0.03644497
Link 176 208 2698 0 0.09507090
Link 177 208 2699 0 0.13183751
Link 178 208 2700 0 -0.26816952
Link 179 208 2701 0 -0.07038855
Link 180 208 2702 0 -0.13359056
Link 181 208 2703 0 0.58141445
Link 182 208 2704 0 0.28831684
Link 183 208 2705 0 0.08719896
Link 184 208 2706 0 0.66913737
Link 185 208 2707 0 -0.58642071
Link 186 208 2708 0 0.07612617
Link 187 208 2709 0 0.12885911
Link 188 208 2710 0 -0.34133301
Link 189 208 2711 0 -0.53110799
Link 190 208 2712 0 0.03421218
Link 191 208 2713 0 0.01243593
Link 192 208 2714 0 0.35928193
Link 193 208 2715 0 -0.34593498
Link 194 208 2716 0 0.14059632
Link 1 209 2717 0 0.37976194
Link 2 209 2718 0 0.11000935
Link 3 209 2719 0 -0.12360912
Link 4 209 2720 0 -0.34672746
Link 5 209 2721 0 -0.07209187
Link 6 209 2722 0 -0.00966551
Link 7 209 2723 0 -0.05762819
Link 8 209 2724 0 0.25713811
Link 9 209 2725 0 -0.57328055
Link 10 209 2726 0 -0.47635662
Link 11 209 2727 0 0.08439488
Link 12 209 2728 0 0.01398582
Link 13 209 2729 0 0.14701567
Link 14 209 2730 0 -0.03378006
Link 15 209 2731 0 0.11821733
Link 16 209 2732 0 0.18596836
Link 17 209 2733 0 0.00044809
Link 18 209 2734 0 0.25101578
Link 19 209 2735 0 -0.20738236
Link 20 209 2736 0 -0.36214798
Link 21 209 2737 0 0.27338766
Link 22 209 2738 0 -0.05655155
Link 23 209 2739 0 -0.17066010
Link 24 209 2740 0 -0.61164517
Link 25 209 2741 0 -0.22173531
Link 26 209 2742 0 0.15885993
Link 27 209 2743 0 -0.15007219
Link 28 209 2744 0 0.43537922
Link 29 209 2745 0 -0.16465125
Link 30 209 2746 0 0.25116754
Link 31 209 2747 0 0.03507677
Link 32 209 2748 0 0.07186372
Link 33 209 2749 0 -0.01773222
Link 34 209 2750 0 -0.72198169
Link 35 209 2751 0 0.50745737
Link 36 209 2752 0 0.00799332
Link 37 209 2753 0 0.11128961
Link 38 209 2754 0 -0.04233103
Link 39 209 2755 0 -0.21630524
Link 40 209 2756 0 -0.45225504
Link 41 209 2757 0 0.02984450
Link 42 209 2758 0 -0.50512749
Link 43 209 2759 0 -0.06466924
Link 44 209 2760 0 0.35311525
Link 45 209 2761 0 -0.25621478
Link 46 209 2762 0 -0.33084521
Link 47 209 2763 0 -0.33305028
Link 48 209 2764 0 0.24910254
Link 49 209 2765 0 -0.47443607
Link 50 209 2766 0 0.00301379
Link 51 209 2767 0 -0.00436737
Link 52 209 2768 0 0.27024828
Link 53 209 2769 0 -0.23574840
Link 54 209 2770 0 0.55254021
Link 55 209 2771 0 -0.00224652
Link 56 209 2772 0 -0.13449420
Link 57 209 2773 0 -0.84854908
Link 58 209 2774 0 -0.44201167
Link 59 209 2775 0 0.12628839
Link 60 209 2776 0 0.10166409
Link 61 209 2777 0 -0.22945331
Link 62 209 2778 0 0.16443627
Link 63 209 2779 0 0.51238101
Link 64 209 2780 0 -0.39875986
Link 65 209 2781 0 -0.07534122
Link 66 209 2782 0 -0.43126806
Link 67 209 2783 0 -0.25256823
Link 68 209 2784 0 -0.28001082
Link 69 209 2785 0 0.00380800
Link 70 209 2786 0 0.30419400
Link 71 209 2787 0 -0.11272505
Link 72 209 2788 0 0.16462118
Link 73 209 2789 0 0.24603309
Link 74 209 2790 0 0.13204722
Link 75 209 2791 0 0.31813614
Link 76 209 2792 0 0.18923216
Link 77 209 2793 0 0.01530601
Link 78 209 2794 0 0.22068310
Link 79 209 2795 0 0.12716549
Link 80 209 2796 0 0.00547557
Link 81 209 2797 0 -0.05061744
Link 82 209 2798 0 -0.08615000
Link 83 209 2799 0 0.50719993
