GenomeStart 459
Neuron 1 1 0.00000000 1 0.00000000 0.00000000 0.00000000 0.00000000
Neuron 2 1 0.00000000 1 0.00000000 0.00000000 0.00000000 0.00000000
Neuron 3 1 0.00000000 1 0.00000000 0.00000000 0.00000000 0.00000000
Neuron 4 1 0.00000000 1 0.00000000 0.00000000 0.00000000 0.00000000
Neuron 5 1 0.00000000 1 0.00000000 0.00000000 0.00000000 0.00000000
Neuron 6 1 0.00000000 1 0.00000000 0.00000000 0.00000000 0.00000000
Neuron 7 1 0.00000000 1 0.00000000 0.00000000 0.00000000 0.00000000
Neuron 8 1 0.00000000 1 0.00000000 0.00000000 0.00000000 0.00000000
Neuron 9 1 0.00000000 1 0.00000000 0.00000000 0.00000000 0.00000000
Neuron 10 1 0.00000000 1 0.00000000 0.00000000 0.00000000 0.00000000
Neuron 11 1 0.00000000 1 0.00000000 0.00000000 0.00000000 0.00000000
Neuron 12 1 0.00000000 1 0.00000000 0.00000000 0.00000000 0.00000000
Neuron 13 1 0.00000000 1 0.00000000 0.00000000 0.00000000 0.00000000
Neuron 14 1 0.00000000 1 0.00000000 0.00000000 0.00000000 0.00000000
Neuron 15 1 0.00000000 1 0.00000000 0.00000000 0.00000000 0.00000000
Neuron 16 1 0.00000000 1 0.00000000 0.00000000 0.00000000 0.00000000
Neuron 17 1 0.00000000 1 0.00000000 0.00000000 0.00000000 0.00000000
Neuron 18 1 0.00000000 1 0.00000000 0.00000000 0.00000000 0.00000000
Neuron 19 1 0.00000000 1 0.00000000 0.00000000 0.00000000 0.00000000
Neuron 20 1 0.00000000 1 0.00000000 0.00000000 0.00000000 0.00000000
Neuron 21 1 0.00000000 1 0.00000000 0.00000000 0.00000000 0.00000000
Neuron 22 1 0.00000000 1 0.00000000 0.00000000 0.00000000 0.00000000
Neuron 23 1 0.00000000 1 0.00000000 0.00000000 0.00000000 0.00000000
Neuron 24 1 0.00000000 1 0.00000000 0.00000000 0.00000000 0.00000000
Neuron 25 1 0.00000000 1 0.00000000 0.00000000 0.00000000 0.00000000
Neuron 26 1 0.00000000 1 0.00000000 0.00000000 0.00000000 0.00000000
Neuron 27 1 0.00000000 1 0.00000000 0.00000000 0.00000000 0.00000000
Neuron 28 1 0.00000000 1 0.00000000 0.00000000 0.00000000 0.00000000
Neuron 29 1 0.00000000 1 0.00000000 0.00000000 0.00000000 0.00000000
Neuron 30 1 0.00000000 1 0.00000000 0.00000000 0.00000000 0.00000000
Neuron 31 1 0.00000000 1 0.00000000 0.00000000 0.00000000 0.00000000
Neuron 32 1 0.00000000 1 0.00000000 0.00000000 0.00000000 0.00000000
Neuron 33 1 0.00000000 1 0.00000000 0.00000000 0.00000000 0.00000000
Neuron 34 1 0.00000000 1 0.00000000 0.00000000 0.00000000 0.00000000
Neuron 35 1 0.00000000 1 0.00000000 0.00000000 0.00000000 0.00000000
Neuron 36 1 0.00000000 1 0.00000000 0.00000000 0.00000000 0.00000000
Neuron 37 1 0.00000000 1 0.00000000 0.00000000 0.00000000 0.00000000
Neuron 38 1 0.00000000 1 0.00000000 0.00000000 0.00000000 0.00000000
Neuron 39 1 0.00000000 1 0.00000000 0.00000000 0.00000000 0.00000000
Neuron 40 1 0.00000000 1 0.00000000 0.00000000 0.00000000 0.00000000
Neuron 41 1 0.00000000 1 0.00000000 0.00000000 0.00000000 0.00000000
Neuron 42 1 0.00000000 1 0.00000000 0.00000000 0.00000000 0.00000000
Neuron 43 1 0.00000000 1 0.00000000 0.00000000 0.00000000 0.00000000
Neuron 44 1 0.00000000 1 0.00000000 0.00000000 0.00000000 0.00000000
Neuron 45 1 0.00000000 1 0.00000000 0.00000000 0.00000000 0.00000000
Neuron 46 1 0.00000000 1 0.00000000 0.00000000 0.00000000 0.00000000
Neuron 47 1 0.00000000 1 0.00000000 0.00000000 0.00000000 0.00000000
Neuron 48 1 0.00000000 1 0.00000000 0.00000000 0.00000000 0.00000000
Neuron 49 1 0.00000000 1 0.00000000 0.00000000 0.00000000 0.00000000
Neuron 50 1 0.00000000 1 0.00000000 0.00000000 0.00000000 0.00000000
Neuron 51 1 0.00000000 1 0.00000000 0.00000000 0.00000000 0.00000000
Neuron 52 1 0.00000000 1 0.00000000 0.00000000 0.00000000 0.00000000
Neuron 53 1 0.00000000 1 0.00000000 0.00000000 0.00000000 0.00000000
Neuron 54 1 0.00000000 1 0.00000000 0.00000000 0.00000000 0.00000000
Neuron 55 1 0.00000000 1 0.00000000 0.00000000 0.00000000 0.00000000
Neuron 56 1 0.00000000 1 0.00000000 0.00000000 0.00000000 0.00000000
Neuron 57 1 0.00000000 1 0.00000000 0.00000000 0.00000000 0.00000000
Neuron 58 1 0.00000000 1 0.00000000 0.00000000 0.00000000 0.00000000
Neuron 59 1 0.00000000 1 0.00000000 0.00000000 0.00000000 0.00000000
Neuron 60 1 0.00000000 1 0.00000000 0.00000000 0.00000000 0.00000000
Neuron 61 1 0.00000000 1 0.00000000 0.00000000 0.00000000 0.00000000
Neuron 62 1 0.00000000 1 0.00000000 0.00000000 0.00000000 0.00000000
Neuron 63 1 0.00000000 1 0.00000000 0.00000000 0.00000000 0.00000000
Neuron 64 1 0.00000000 1 0.00000000 0.00000000 0.00000000 0.00000000
Neuron 65 1 0.00000000 1 0.00000000 0.00000000 0.00000000 0.00000000
Neuron 66 1 0.00000000 1 0.00000000 0.00000000 0.00000000 0.00000000
Neuron 67 1 0.00000000 1 0.00000000 0.00000000 0.00000000 0.00000000
Neuron 68 1 0.00000000 1 0.00000000 0.00000000 0.00000000 0.00000000
Neuron 69 1 0.00000000 1 0.00000000 0.00000000 0.00000000 0.00000000
Neuron 70 1 0.00000000 1 0.00000000 0.00000000 0.00000000 0.00000000
Neuron 71 1 0.00000000 1 0.00000000 0.00000000 0.00000000 0.00000000
Neuron 72 1 0.00000000 1 0.00000000 0.00000000 0.00000000 0.00000000
Neuron 73 1 0.00000000 1 0.00000000 0.00000000 0.00000000 0.00000000
Neuron 74 1 0.00000000 1 0.00000000 0.00000000 0.00000000 0.00000000
Neuron 75 1 0.00000000 1 0.00000000 0.00000000 0.00000000 0.00000000
Neuron 76 1 0.00000000 1 0.00000000 0.00000000 0.00000000 0.00000000
Neuron 77 1 0.00000000 1 0.00000000 0.00000000 0.00000000 0.00000000
Neuron 78 1 0.00000000 1 0.00000000 0.00000000 0.00000000 0.00000000
Neuron 79 1 0.00000000 1 0.00000000 0.00000000 0.00000000 0.00000000
Neuron 80 1 0.00000000 1 0.00000000 0.00000000 0.00000000 0.00000000
Neuron 81 1 0.00000000 1 0.00000000 0.00000000 0.00000000 0.00000000
Neuron 82 1 0.00000000 1 0.00000000 0.00000000 0.00000000 0.00000000
Neuron 83 1 0.00000000 1 0.00000000 0.00000000 0.00000000 0.00000000
Neuron 84 1 0.00000000 1 0.00000000 0.00000000 0.00000000 0.00000000
Neuron 85 1 0.00000000 1 0.00000000 0.00000000 0.00000000 0.00000000
Neuron 86 1 0.00000000 1 0.00000000 0.00000000 0.00000000 0.00000000
Neuron 87 1 0.00000000 1 0.00000000 0.00000000 0.00000000 0.00000000
Neuron 88 1 0.00000000 1 0.00000000 0.00000000 0.00000000 0.00000000
Neuron 89 1 0.00000000 1 0.00000000 0.00000000 0.00000000 0.00000000
Neuron 90 1 0.00000000 1 0.00000000 0.00000000 0.00000000 0.00000000
Neuron 91 1 0.00000000 1 0.00000000 0.00000000 0.00000000 0.00000000
Neuron 92 1 0.00000000 1 0.00000000 0.00000000 0.00000000 0.00000000
Neuron 93 1 0.00000000 1 0.00000000 0.00000000 0.00000000 0.00000000
Neuron 94 1 0.00000000 1 0.00000000 0.00000000 0.00000000 0.00000000
Neuron 95 1 0.00000000 1 0.00000000 0.00000000 0.00000000 0.00000000
Neuron 96 1 0.00000000 1 0.00000000 0.00000000 0.00000000 0.00000000
Neuron 97 1 0.00000000 1 0.00000000 0.00000000 0.00000000 0.00000000
Neuron 98 1 0.00000000 1 0.00000000 0.00000000 0.00000000 0.00000000
Neuron 99 1 0.00000000 1 0.00000000 0.00000000 0.00000000 0.00000000
Neuron 100 1 0.00000000 1 0.00000000 0.00000000 0.00000000 0.00000000
Neuron 101 1 0.00000000 1 0.00000000 0.00000000 0.00000000 0.00000000
Neuron 102 1 0.00000000 1 0.00000000 0.00000000 0.00000000 0.00000000
Neuron 103 1 0.00000000 1 0.00000000 0.00000000 0.00000000 0.00000000
Neuron 104 1 0.00000000 1 0.00000000 0.00000000 0.00000000 0.00000000
Neuron 105 1 0.00000000 1 0.00000000 0.00000000 0.00000000 0.00000000
Neuron 106 1 0.00000000 1 0.00000000 0.00000000 0.00000000 0.00000000
Neuron 107 1 0.00000000 1 0.00000000 0.00000000 0.00000000 0.00000000
Neuron 108 1 0.00000000 1 0.00000000 0.00000000 0.00000000 0.00000000
Neuron 109 1 0.00000000 1 0.00000000 0.00000000 0.00000000 0.00000000
Neuron 110 1 0.00000000 1 0.00000000 0.00000000 0.00000000 0.00000000
Neuron 111 1 0.00000000 1 0.00000000 0.00000000 0.00000000 0.00000000
Neuron 112 1 0.00000000 1 0.00000000 0.00000000 0.00000000 0.00000000
Neuron 113 1 0.00000000 1 0.00000000 0.00000000 0.00000000 0.00000000
Neuron 114 1 0.00000000 1 0.00000000 0.00000000 0.00000000 0.00000000
Neuron 115 1 0.00000000 1 0.00000000 0.00000000 0.00000000 0.00000000
Neuron 116 1 0.00000000 1 0.00000000 0.00000000 0.00000000 0.00000000
Neuron 117 1 0.00000000 1 0.00000000 0.00000000 0.00000000 0.00000000
Neuron 118 1 0.00000000 1 0.00000000 0.00000000 0.00000000 0.00000000
Neuron 119 1 0.00000000 1 0.00000000 0.00000000 0.00000000 0.00000000
Neuron 120 1 0.00000000 1 0.00000000 0.00000000 0.00000000 0.00000000
Neuron 121 1 0.00000000 1 0.00000000 0.00000000 0.00000000 0.00000000
Neuron 122 1 0.00000000 1 0.00000000 0.00000000 0.00000000 0.00000000
Neuron 123 1 0.00000000 1 0.00000000 0.00000000 0.00000000 0.00000000
Neuron 124 1 0.00000000 1 0.00000000 0.00000000 0.00000000 0.00000000
Neuron 125 1 0.00000000 1 0.00000000 0.00000000 0.00000000 0.00000000
Neuron 126 1 0.00000000 1 0.00000000 0.00000000 0.00000000 0.00000000
Neuron 127 1 0.00000000 1 0.00000000 0.00000000 0.00000000 0.00000000
Neuron 128 1 0.00000000 1 0.00000000 0.00000000 0.00000000 0.00000000
Neuron 129 1 0.00000000 1 0.00000000 0.00000000 0.00000000 0.00000000
Neuron 130 1 0.00000000 1 0.00000000 0.00000000 0.00000000 0.00000000
Neuron 131 1 0.00000000 1 0.00000000 0.00000000 0.00000000 0.00000000
Neuron 132 1 0.00000000 1 0.00000000 0.00000000 0.00000000 0.00000000
Neuron 133 1 0.00000000 1 0.00000000 0.00000000 0.00000000 0.00000000
Neuron 134 1 0.00000000 1 0.00000000 0.00000000 0.00000000 0.00000000
Neuron 135 1 0.00000000 1 0.00000000 0.00000000 0.00000000 0.00000000
Neuron 136 1 0.00000000 1 0.00000000 0.00000000 0.00000000 0.00000000
Neuron 137 1 0.00000000 1 0.00000000 0.00000000 0.00000000 0.00000000
Neuron 138 1 0.00000000 1 0.00000000 0.00000000 0.00000000 0.00000000
Neuron 139 1 0.00000000 1 0.00000000 0.00000000 0.00000000 0.00000000
Neuron 140 1 0.00000000 1 0.00000000 0.00000000 0.00000000 0.00000000
Neuron 141 1 0.00000000 1 0.00000000 0.00000000 0.00000000 0.00000000
Neuron 142 1 0.00000000 1 0.00000000 0.00000000 0.00000000 0.00000000
Neuron 143 1 0.00000000 1 0.00000000 0.00000000 0.00000000 0.00000000
Neuron 144 1 0.00000000 1 0.00000000 0.00000000 0.00000000 0.00000000
Neuron 145 1 0.00000000 1 0.00000000 0.00000000 0.00000000 0.00000000
Neuron 146 1 0.00000000 1 0.00000000 0.00000000 0.00000000 0.00000000
Neuron 147 1 0.00000000 1 0.00000000 0.00000000 0.00000000 0.00000000
Neuron 148 1 0.00000000 1 0.00000000 0.00000000 0.00000000 0.00000000
Neuron 149 1 0.00000000 1 0.00000000 0.00000000 0.00000000 0.00000000
Neuron 150 1 0.00000000 1 0.00000000 0.00000000 0.00000000 0.00000000
Neuron 151 1 0.00000000 1 0.00000000 0.00000000 0.00000000 0.00000000
Neuron 152 1 0.00000000 1 0.00000000 0.00000000 0.00000000 0.00000000
Neuron 153 1 0.00000000 1 0.00000000 0.00000000 0.00000000 0.00000000
Neuron 154 1 0.00000000 1 0.00000000 0.00000000 0.00000000 0.00000000
Neuron 155 1 0.00000000 1 0.00000000 0.00000000 0.00000000 0.00000000
Neuron 156 1 0.00000000 1 0.00000000 0.00000000 0.00000000 0.00000000
Neuron 157 1 0.00000000 1 0.00000000 0.00000000 0.00000000 0.00000000
Neuron 158 1 0.00000000 1 0.00000000 0.00000000 0.00000000 0.00000000
Neuron 159 1 0.00000000 1 0.00000000 0.00000000 0.00000000 0.00000000
Neuron 160 1 0.00000000 1 0.00000000 0.00000000 0.00000000 0.00000000
Neuron 161 1 0.00000000 1 0.00000000 0.00000000 0.00000000 0.00000000
Neuron 162 1 0.00000000 1 0.00000000 0.00000000 0.00000000 0.00000000
Neuron 163 1 0.00000000 1 0.00000000 0.00000000 0.00000000 0.00000000
Neuron 164 1 0.00000000 1 0.00000000 0.00000000 0.00000000 0.00000000
Neuron 165 1 0.00000000 1 0.00000000 0.00000000 0.00000000 0.00000000
Neuron 166 1 0.00000000 1 0.00000000 0.00000000 0.00000000 0.00000000
Neuron 167 1 0.00000000 1 0.00000000 0.00000000 0.00000000 0.00000000
Neuron 168 1 0.00000000 1 0.00000000 0.00000000 0.00000000 0.00000000
Neuron 169 1 0.00000000 1 0.00000000 0.00000000 0.00000000 0.00000000
Neuron 170 1 0.00000000 1 0.00000000 0.00000000 0.00000000 0.00000000
Neuron 171 1 0.00000000 1 0.00000000 0.00000000 0.00000000 0.00000000
Neuron 172 1 0.00000000 1 0.00000000 0.00000000 0.00000000 0.00000000
Neuron 173 1 0.00000000 1 0.00000000 0.00000000 0.00000000 0.00000000
Neuron 174 1 0.00000000 1 0.00000000 0.00000000 0.00000000 0.00000000
Neuron 175 1 0.00000000 1 0.00000000 0.00000000 0.00000000 0.00000000
Neuron 176 1 0.00000000 1 0.00000000 0.00000000 0.00000000 0.00000000
Neuron 177 1 0.00000000 1 0.00000000 0.00000000 0.00000000 0.00000000
Neuron 178 1 0.00000000 1 0.00000000 0.00000000 0.00000000 0.00000000
Neuron 179 1 0.00000000 1 0.00000000 0.00000000 0.00000000 0.00000000
Neuron 180 1 0.00000000 1 0.00000000 0.00000000 0.00000000 0.00000000
Neuron 181 1 0.00000000 1 0.00000000 0.00000000 0.00000000 0.00000000
Neuron 182 1 0.00000000 1 0.00000000 0.00000000 0.00000000 0.00000000
Neuron 183 1 0.00000000 1 0.00000000 0.00000000 0.00000000 0.00000000
Neuron 184 1 0.00000000 1 0.00000000 0.00000000 0.00000000 0.00000000
Neuron 185 1 0.00000000 1 0.00000000 0.00000000 0.00000000 0.00000000
Neuron 186 1 0.00000000 1 0.00000000 0.00000000 0.00000000 0.00000000
Neuron 187 1 0.00000000 1 0.00000000 0.00000000 0.00000000 0.00000000
Neuron 188 1 0.00000000 1 0.00000000 0.00000000 0.00000000 0.00000000
Neuron 189 1 0.00000000 1 0.00000000 0.00000000 0.00000000 0.00000000
Neuron 190 1 0.00000000 1 0.00000000 0.00000000 0.00000000 0.00000000
Neuron 191 1 0.00000000 1 0.00000000 0.00000000 0.00000000 0.00000000
Neuron 192 1 0.00000000 1 0.00000000 0.00000000 0.00000000 0.00000000
Neuron 193 1 0.00000000 1 0.00000000 0.00000000 0.00000000 0.00000000
Neuron 194 2 0.00000000 1 0.00000000 0.00000000 0.00000000 0.00000000
Neuron 195 4 1.00000000 0 1.00000000 0.00000000 0.00000000 0.26706160
Neuron 196 4 1.00000000 0 1.00000000 0.00000000 0.00000000 0.31909171
Neuron 197 4 1.00000000 0 1.00000000 0.00000000 0.00000000 -0.49585644
Neuron 198 4 1.00000000 0 1.00000000 0.00000000 0.00000000 0.57911422
Neuron 199 4 1.00000000 0 1.00000000 0.00000000 0.00000000 0.04876421
Neuron 200 4 1.00000000 0 1.00000000 0.00000000 0.00000000 0.81645235
Neuron 201 4 1.00000000 0 1.00000000 0.00000000 0.00000000 0.44903767
Neuron 202 4 1.00000000 0 1.00000000 0.00000000 0.00000000 -0.10291888
Neuron 203 4 1.00000000 0 1.00000000 0.00000000 0.00000000 0.53990705
Neuron 204 4 1.00000000 0 1.00000000 0.00000000 0.00000000 -0.25742446
Neuron 205 4 1.00000000 0 1.00000000 0.00000000 0.00000000 -0.77895201
Neuron 206 4 1.00000000 0 1.00000000 0.00000000 0.00000000 0.28674316
Neuron 207 4 1.00000000 0 1.00000000 0.00000000 0.00000000 -0.06703877
Neuron 208 4 1.00000000 0 1.00000000 0.00000000 0.00000000 -0.20077915
Neuron 209 4 1.00000000 0 1.00000000 0.00000000 0.00000000 0.36139887
Link 1 195 1 0 0.35751470
Link 2 195 2 0 -0.39482262
Link 3 195 3 0 -0.22304193
Link 4 195 4 0 0.31660385
Link 5 195 5 0 0.34394160
Link 6 195 6 0 -0.31958374
Link 7 195 7 0 0.53334117
Link 8 195 8 0 0.13579803
Link 9 195 9 0 0.51536489
Link 10 195 10 0 -0.79344437
Link 11 195 11 0 -0.04118548
Link 12 195 12 0 0.06880919
Link 13 195 13 0 -0.06307788
Link 14 195 14 0 0.56700447
Link 15 195 15 0 0.80564220
Link 16 195 16 0 0.23209719
Link 17 195 17 0 0.24519898
Link 18 195 18 0 0.75992960
Link 19 195 19 0 -0.23894016
Link 20 195 20 0 -0.20157012
Link 21 195 21 0 0.22494035
Link 22 195 22 0 -0.79122133
Link 23 195 23 0 -0.15525284
Link 24 195 24 0 0.22950024
Link 25 195 25 0 0.01923366
Link 26 195 26 0 0.16574672
Link 27 195 27 0 -0.10752359
Link 28 195 28 0 -0.12027952
Link 29 195 29 0 0.28245149
Link 30 195 30 0 0.15009317
Link 31 195 31 0 -0.07435624
Link 32 195 32 0 -0.18278074
Link 33 195 33 0 0.11485390
Link 34 195 34 0 0.21543060
Link 35 195 35 0 0.51873766
Link 36 195 36 0 0.17122661
Link 37 195 37 0 0.10725718
Link 38 195 38 0 0.07296066
Link 39 195 39 0 -0.24981714
Link 40 195 40 0 0.05137147
Link 41 195 41 0 0.38156444
Link 42 195 42 0 -0.20759050
Link 43 195 43 0 -0.14891772
Link 44 195 44 0 -0.22697549
Link 45 195 45 0 0.45886013
Link 46 195 46 0 0.45590011
Link 47 195 47 0 -0.12386718
Link 48 195 48 0 0.62461101
Link 49 195 49 0 0.04053152
Link 50 195 50 0 -0.03659306
Link 51 195 51 0 0.28385378
Link 52 195 52 0 0.06629555
Link 53 195 53 0 -0.32278498
Link 54 195 54 0 0.12573775
Link 55 195 55 0 -0.12987590
Link 56 195 56 0 -0.12116588
Link 57 195 57 0 0.10615532
Link 58 195 58 0 -0.09065541
Link 59 195 59 0 0.04384141
Link 60 195 60 0 -0.62468837
Link 61 195 61 0 0.30672519
Link 62 195 62 0 -0.01717757
Link 63 195 63 0 -0.20804388
Link 64 195 64 0 0.05079659
Link 65 195 65 0 -0.30135095
Link 66 195 66 0 0.58118677
Link 67 195 67 0 -0.28018363
Link 68 195 68 0 -0.07938046
Link 69 195 69 0 0.00819398
Link 70 195 70 0 0.31812374
Link 71 195 71 0 0.04514317
Link 72 195 72 0 0.40473080
Link 73 195 73 0 0.08483085
Link 74 195 74 0 0.18597716
Link 75 195 75 0 -0.14807310
Link 76 195 76 0 -0.39676630
Link 77 195 77 0 -0.58327612
Link 78 195 78 0 0.06397940
Link 79 195 79 0 0.09635552
Link 80 195 80 0 0.24587836
Link 81 195 81 0 -0.08456411
Link 82 195 82 0 -0.36871557
Link 83 195 83 0 0.41472675
Link 84 195 84 0 0.10635737
Link 85 195 85 0 0.54934426
Link 86 195 86 0 -0.47062254
Link 87 195 87 0 0.03815704
Link 88 195 88 0 0.84405736
Link 89 195 89 0 0.12938637
Link 90 195 90 0 0.31768068
Link 91 195 91 0 0.14850829
Link 92 195 92 0 0.04654936
Link 93 195 93 0 0.06516813
Link 94 195 94 0 -0.64993298
Link 95 195 95 0 -0.53301071
Link 96 195 96 0 0.34852139
Link 97 195 97 0 0.01162064
Link 98 195 98 0 -0.13011145
Link 99 195 99 0 0.51008225
Link 100 195 100 0 -0.32795441
Link 101 195 101 0 -0.02331436
Link 102 195 102 0 0.20923753
Link 103 195 103 0 0.28623564
Link 104 195 104 0 0.05228921
Link 105 195 105 0 0.63668655
Link 106 195 106 0 -0.32663497
Link 107 195 107 0 -0.05022658
Link 108 195 108 0 0.68324745
Link 109 195 109 0 -0.38936512
Link 110 195 110 0 -0.32126971
Link 111 195 111 0 0.43474348
Link 112 195 112 0 -0.56292455
Link 113 195 113 0 0.22325473
Link 114 195 114 0 0.39522773
Link 115 195 115 0 0.21888014
Link 116 195 116 0 0.44448445
Link 117 195 117 0 -0.09382687
Link 118 195 118 0 0.31388675
Link 119 195 119 0 0.12440101
Link 120 195 120 0 -0.29528406
Link 121 195 121 0 0.28499474
Link 122 195 122 0 0.66497596
Link 123 195 123 0 0.58358456
Link 124 195 124 0 -0.06990534
Link 125 195 125 0 -0.23451632
Link 126 195 126 0 0.35092182
Link 127 195 127 0 -0.35117270
Link 128 195 128 0 -0.41355600
Link 129 195 129 0 0.21280123
Link 130 195 130 0 0.22206021
Link 131 195 131 0 -0.14478352
Link 132 195 132 0 0.37071092
Link 133 195 133 0 -0.05150265
Link 134 195 134 0 0.69032440
Link 135 195 135 0 -0.43209356
Link 136 195 136 0 0.15719026
Link 137 195 137 0 0.10534502
Link 138 195 138 0 -0.02178511
Link 139 195 139 0 0.01286343
Link 140 195 140 0 -0.13055641
Link 141 195 141 0 0.01458865
Link 142 195 142 0 -0.23986277
Link 143 195 143 0 0.16236580
Link 144 195 144 0 0.33774046
Link 145 195 145 0 -0.59628432
Link 146 195 146 0 0.47408032
Link 147 195 147 0 -0.29258748
Link 148 195 148 0 0.10598711
Link 149 195 149 0 0.31891111
Link 150 195 150 0 0.21418177
Link 151 195 151 0 -0.23628516
Link 152 195 152 0 0.13077406
Link 153 195 153 0 0.33674977
Link 154 195 154 0 0.02699265
Link 155 195 155 0 0.18288690
Link 156 195 156 0 0.30566449
Link 157 195 157 0 -0.13592854
Link 158 195 158 0 -0.21038359
Link 159 195 159 0 -0.36712455
Link 160 195 160 0 0.33260657
Link 161 195 161 0 0.34109808
Link 162 195 162 0 -0.61137837
Link 163 195 163 0 -0.06661828
Link 164 195 164 0 -0.14525599
Link 165 195 165 0 0.57880051
Link 166 195 166 0 0.04899421
Link 167 195 167 0 0.00879841
Link 168 195 168 0 0.35419942
Link 169 195 169 0 -0.30456791
Link 170 195 170 0 -0.76080060
Link 171 195 171 0 0.10848804
Link 172 195 172 0 -0.05692768
Link 173 195 173 0 -0.08272311
Link 174 195 174 0 -0.32062472
Link 175 195 175 0 -0.33786989
Link 176 195 176 0 -0.16702860
Link 177 195 177 0 0.18045638
Link 178 195 178 0 0.06301612
Link 179 195 179 0 -0.17483507
Link 180 195 180 0 0.07831095
Link 181 195 181 0 0.30182449
Link 182 195 182 0 0.17126515
Link 183 195 183 0 -0.45505086
Link 184 195 184 0 0.25940759
Link 185 195 185 0 -0.53976933
Link 186 195 186 0 -0.01961904
Link 187 195 187 0 -0.93874917
Link 188 195 188 0 -0.12343275
Link 189 195 189 0 -0.26688765
Link 190 195 190 0 0.54442329
Link 191 195 191 0 0.78657475
Link 192 195 192 0 0.05665248
Link 193 195 193 0 -0.02006723
Link 194 195 194 0 -0.07492549
Link 1 196 195 0 -0.10710960
Link 2 196 196 0 0.53434329
Link 3 196 197 0 0.08772473
Link 4 196 198 0 -0.55415884
Link 5 196 199 0 -0.06193917
Link 6 196 200 0 -0.24871048
Link 7 196 201 0 0.02974689
Link 8 196 202 0 -0.06626733
Link 9 196 203 0 0.33852016
Link 10 196 204 0 -0.04404231
Link 11 196 205 0 0.00140718
Link 12 196 206 0 0.64904521
Link 13 196 207 0 -0.28971852
Link 14 196 208 0 -0.07915160
Link 15 196 209 0 -0.52603401
Link 16 196 210 0 0.11212412
Link 17 196 211 0 -0.35537464
Link 18 196 212 0 -0.55617936
Link 19 196 213 0 0.05437697
Link 20 196 214 0 -0.03500385
Link 21 196 215 0 0.24826931
Link 22 196 216 0 -0.13984131
Link 23 196 217 0 -0.62519372
Link 24 196 218 0 -0.36620975
Link 25 196 219 0 -0.14720594
Link 26 196 220 0 -0.24119245
Link 27 196 221 0 -0.03305723
Link 28 196 222 0 -0.14619013
Link 29 196 223 0 0.41772660
Link 30 196 224 0 -0.03757056
Link 31 196 225 0 -0.32191629
Link 32 196 226 0 0.09205779
Link 33 196 227 0 0.92664572
Link 34 196 228 0 -0.18192722
Link 35 196 229 0 0.21430826
Link 36 196 230 0 -0.25972870
Link 37 196 231 0 -0.15542765
Link 38 196 232 0 0.01959998
Link 39 196 233 0 0.08240281
Link 40 196 234 0 0.13931055
Link 41 196 235 0 0.11105662
Link 42 196 236 0 -0.12840474
Link 43 196 237 0 -0.64621198
Link 44 196 238 0 -0.23954355
Link 45 196 239 0 0.03976828
Link 46 196 240 0 -0.56325524
Link 47 196 241 0 -0.49286976
Link 48 196 242 0 0.42503478
Link 49 196 243 0 -0.56465591
Link 50 196 244 0 0.06887886
Link 51 196 245 0 -0.69937959
Link 52 196 246 0 -0.06310599
Link 53 196 247 0 -0.11414204
Link 54 196 248 0 -0.62903488
Link 55 196 249 0 -0.10482837
Link 56 196 250 0 0.32649121
Link 57 196 251 0 -0.00650713
Link 58 196 252 0 0.00602370
Link 59 196 253 0 -0.11227525
Link 60 196 254 0 0.57278271
Link 61 196 255 0 -0.65083759
Link 62 196 256 0 0.39914977
Link 63 196 257 0 -0.31483644
Link 64 196 258 0 0.19724314
Link 65 196 259 0 -0.14313665
Link 66 196 260 0 0.11282579
Link 67 196 261 0 -0.02495620
Link 68 196 262 0 0.02277022
Link 69 196 263 0 0.20695381
Link 70 196 264 0 0.41350588
Link 71 196 265 0 -0.21213270
Link 72 196 266 0 -0.31287675
Link 73 196 267 0 -0.02028242
Link 74 196 268 0 0.65893239
Link 75 196 269 0 0.31598050
Link 76 196 270 0 -0.26308726
Link 77 196 271 0 0.34998666
Link 78 196 272 0 0.24903959
Link 79 196 273 0 0.74631825
Link 80 196 274 0 0.32577174
Link 81 196 275 0 0.14769710
Link 82 196 276 0 0.22381198
Link 83 196 277 0 -0.20342824
Link 84 196 278 0 0.34740348
Link 85 196 279 0 0.28017022
Link 86 196 280 0 0.20603821
Link 87 196 281 0 -0.00128399
Link 88 196 282 0 0.59001693
Link 89 196 283 0 0.22135239
Link 90 196 284 0 0.51852751
Link 91 196 285 0 0.44331079
Link 92 196 286 0 0.86465526
Link 93 196 287 0 -0.41887939
Link 94 196 288 0 0.05133971
Link 95 196 289 0 -0.06852276
Link 96 196 290 0 0.14939993
Link 97 196 291 0 -0.01028583
Link 98 196 292 0 0.54459458
Link 99 196 293 0 -0.70690776
Link 100 196 294 0 -0.23879929
Link 101 196 295 0 -0.25501307
Link 102 196 296 0 0.46582664
Link 103 196 297 0 -0.20671995
Link 104 196 298 0 -0.16378263
Link 105 196 299 0 0.00990602
Link 106 196 300 0 -0.26362962
Link 107 196 301 0 -0.28169885
Link 108 196 302 0 -0.38933650
Link 109 196 303 0 0.65078836
Link 110 196 304 0 -0.36385182
Link 111 196 305 0 0.07020480
Link 112 196 306 0 0.21093607
Link 113 196 307 0 0.07287225
Link 114 196 308 0 0.03765929
Link 115 196 309 0 0.42127124
Link 116 196 310 0 -0.14745563
Link 117 196 311 0 -0.25728299
Link 118 196 312 0 -0.10157986
Link 119 196 313 0 -0.34199169
Link 120 196 314 0 -0.21022967
Link 121 196 315 0 0.34253627
Link 122 196 316 0 0.72005394
Link 123 196 317 0 0.24515727
Link 124 196 318 0 0.15450499
Link 125 196 319 0 -0.09900765
Link 126 196 320 0 -0.36218512
Link 127 196 321 0 0.52193447
Link 128 196 322 0 -0.32814147
Link 129 196 323 0 -0.32847476
Link 130 196 324 0 -0.42334757
Link 131 196 325 0 0.10224562
Link 132 196 326 0 0.13687853
Link 133 196 327 0 -0.30629825
Link 134 196 328 0 -0.29199490
Link 135 196 329 0 0.10482592
Link 136 196 330 0 -0.14888738
Link 137 196 331 0 -0.45031362
Link 138 196 332 0 0.08272834
Link 139 196 333 0 -0.29956454
Link 140 196 334 0 -0.47604139
Link 141 196 335 0 -0.37961926
Link 142 196 336 0 -0.82040731
Link 143 196 337 0 0.42250327
Link 144 196 338 0 0.71106217
Link 145 196 339 0 -0.12062308
Link 146 196 340 0 -0.08809006
Link 147 196 341 0 0.14194149
Link 148 196 342 0 -0.22449185
Link 149 196 343 0 -0.03726827
Link 150 196 344 0 0.13493974
Link 151 196 345 0 -0.04699619
Link 152 196 346 0 -0.21465886
Link 153 196 347 0 0.38365326
Link 154 196 348 0 0.10659248
Link 155 196 349 0 0.13977537
Link 156 196 350 0 0.25702602
Link 157 196 351 0 0.20207075
Link 158 196 352 0 -0.44026667
Link 159 196 353 0 0.17242189
Link 160 196 354 0 0.11261454
Link 161 196 355 0 -0.64937747
Link 162 196 356 0 0.25680718
Link 163 196 357 0 0.07306894
Link 164 196 358 0 -0.35963315
Link 165 196 359 0 0.27881685
Link 166 196 360 0 -0.02741195
Link 167 196 361 0 0.34847940
Link 168 196 362 0 0.58996629
Link 169 196 363 0 0.27042155
Link 170 196 364 0 -0.29862825
Link 171 196 365 0 -0.32358690
Link 172 196 366 0 -0.08101031
Link 173 196 367 0 0.32771129
Link 174 196 368 0 -0.23456472
Link 175 196 369 0 0.05204129
Link 176 196 370 0 0.40305371
Link 177 196 371 0 0.07413838
Link 178 196 372 0 0.02692404
Link 179 196 373 0 -0.12033857
Link 180 196 374 0 0.32453907
Link 181 196 375 0 0.13659086
Link 182 196 376 0 -0.09612257
Link 183 196 377 0 0.16809102
Link 184 196 378 0 -0.25040621
Link 185 196 379 0 -0.37717406
Link 186 196 380 0 0.51938344
Link 187 196 381 0 -0.37474729
Link 188 196 382 0 -0.16035854
Link 189 196 383 0 0.08422992
Link 190 196 384 0 0.96483634
Link 191 196 385 0 -0.20965172
Link 192 196 386 0 -0.00703567
Link 193 196 387 0 0.58488833
Link 194 196 388 0 -0.26286077
Link 1 197 389 0 0.46023195
Link 2 197 390 0 0.11140720
Link 3 197 391 0 -0.52481976
Link 4 197 392 0 0.00095247
Link 5 197 393 0 0.19870331
Link 6 197 394 0 -0.06218944
Link 7 197 395 0 -0.54456273
Link 8 197 396 0 -0.23748870
Link 9 197 397 0 0.46607912
Link 10 197 398 0 -0.14650061
Link 11 197 399 0 -0.42024076
Link 12 197 400 0 0.17704349
Link 13 197 401 0 -0.40425440
Link 14 197 402 0 0.39098987
Link 15 197 403 0 -0.14636037
Link 16 197 404 0 -0.28662759
Link 17 197 405 0 -0.67853786
Link 18 197 406 0 -0.05170197
Link 19 197 407 0 -0.27007137
Link 20 197 408 0 0.11694956
Link 21 197 409 0 0.22879692
Link 22 197 410 0 0.05481349
Link 23 197 411 0 0.17440654
Link 24 197 412 0 -0.30237251
Link 25 197 413 0 -0.45323468
Link 26 197 414 0 0.32963066
Link 27 197 415 0 0.16746181
Link 28 197 416 0 -0.07824189
Link 29 197 417 0 0.00228960
Link 30 197 418 0 0.32813911
Link 31 197 419 0 -0.61765503
Link 32 197 420 0 -0.39426860
Link 33 197 421 0 -0.30764092
Link 34 197 422 0 -0.17184992
Link 35 197 423 0 -0.10568444
Link 36 197 424 0 0.33920335
Link 37 197 425 0 0.05755641
Link 38 197 426 0 0.45647737
Link 39 197 427 0 0.12659319
Link 40 197 428 0 0.52731449
Link 41 197 429 0 -0.11540558
Link 42 197 430 0 0.19316344
Link 43 197 431 0 -0.00926377
Link 44 197 432 0 -0.20232391
Link 45 197 433 0 0.10795002
Link 46 197 434 0 -0.81585173
Link 47 197 435 0 0.49503795
Link 48 197 436 0 0.57166645
Link 49 197 437 0 0.80289525
Link 50 197 438 0 -0.31156384
Link 51 197 439 0 0.17032044
Link 52 197 440 0 -0.31700886
Link 53 197 441 0 0.47336400
Link 54 197 442 0 -0.30065218
Link 55 197 443 0 -0.90195691
Link 56 197 444 0 -0.39364842
Link 57 197 445 0 0.16367518
Link 58 197 446 0 -0.07500040
Link 59 197 447 0 -0.26959502
Link 60 197 448 0 0.13504422
Link 61 197 449 0 0.13409953
Link 62 197 450 0 0.36968864
Link 63 197 451 0 0.26557275
Link 64 197 452 0 0.19960525
Link 65 197 453 0 -0.36494664
Link 66 197 454 0 -0.33513842
Link 67 197 455 0 0.14437279
Link 68 197 456 0 0.34416076
Link 69 197 457 0 -0.84020329
Link 70 197 458 0 0.59149950
Link 71 197 459 0 0.45899160
Link 72 197 460 0 -0.22974238
Link 73 197 461 0 -0.19741429
Link 74 197 462 0 0.09718749
Link 75 197 463 0 -0.01307559
Link 76 197 464 0 -0.52233177
Link 77 197 465 0 -0.18887366
Link 78 197 466 0 -0.01441645
Link 79 197 467 0 0.19853911
Link 80 197 468 0 0.47274217
Link 81 197 469 0 -0.14021035
Link 82 197 470 0 -0.27566078
Link 83 197 471 0 -0.12311720
Link 84 197 472 0 0.13932399
Link 85 197 473 0 -0.34720020
Link 86 197 474 0 -0.03388742
Link 87 197 475 0 0.93056453
Link 88 197 476 0 0.54555828
Link 89 197 477 0 -0.18015839
Link 90 197 478 0 0.11291675
Link 91 197 479 0 0.56199673
Link 92 197 480 0 -0.25086145
Link 93 197 481 0 -0.19333709
Link 94 197 482 0 -0.01160436
Link 95 197 483 0 -0.06130486
Link 96 197 484 0 -0.25886877
Link 97 197 485 0 -0.24459511
Link 98 197 486 0 -0.50183722
Link 99 197 487 0 0.23563670
Link 100 197 488 0 0.30363125
Link 101 197 489 0 0.19371399
Link 102 197 490 0 -0.27132340
Link 103 197 491 0 0.07496720
Link 104 197 492 0 -0.40187103
Link 105 197 493 0 0.02708905
Link 106 197 494 0 -0.23392968
Link 107 197 495 0 0.49131744
Link 108 197 496 0 0.86161785
Link 109 197 497 0 -0.32310966
Link 110 197 498 0 -0.06012843
Link 111 197 499 0 -0.01015484
Link 112 197 500 0 -0.08950768
Link 113 197 501 0 -0.22654509
Link 114 197 502 0 -0.10799335
Link 115 197 503 0 -0.23528675
Link 116 197 504 0 -0.34536445
Link 117 197 505 0 -0.20969621
Link 118 197 506 0 0.54251097
Link 119 197 507 0 0.43933852
Link 120 197 508 0 -0.41261470
Link 121 197 509 0 0.04404811
Link 122 197 510 0 0.14836926
Link 123 197 511 0 -0.29160093
Link 124 197 512 0 0.06728354
Link 125 197 513 0 -0.31579181
Link 126 197 514 0 0.03443387
Link 127 197 515 0 -0.10507786
Link 128 197 516 0 0.13511077
Link 129 197 517 0 0.13641986
Link 130 197 518 0 0.08343207
Link 131 197 519 0 0.08500701
Link 132 197 520 0 0.25670887
Link 133 197 521 0 -0.05555873
Link 134 197 522 0 0.35306995
Link 135 197 523 0 -0.11707305
Link 136 197 524 0 -0.40852719
Link 137 197 525 0 0.27878396
Link 138 197 526 0 0.26815859
Link 139 197 527 0 0.28811642
Link 140 197 528 0 0.44331434
Link 141 197 529 0 -0.57311134
Link 142 197 530 0 0.10175300
Link 143 197 531 0 0.02285547
Link 144 197 532 0 -0.32917783
Link 145 197 533 0 0.05745962
Link 146 197 534 0 -0.38119001
Link 147 197 535 0 -0.39694253
Link 148 197 536 0 0.14524390
Link 149 197 537 0 -0.00770575
Link 150 197 538 0 0.67188080
Link 151 197 539 0 0.58455963
Link 152 197 540 0 -0.05794912
Link 153 197 541 0 -0.28286752
Link 154 197 542 0 0.06387892
Link 155 197 543 0 -0.11562932
Link 156 197 544 0 -0.03839410
Link 157 197 545 0 -0.02870201
Link 158 197 546 0 0.16977794
Link 159 197 547 0 0.09255968
Link 160 197 548 0 -0.11692689
Link 161 197 549 0 0.70717699
Link 162 197 550 0 0.07075642
Link 163 197 551 0 -0.15104929
Link 164 197 552 0 -0.01710959
Link 165 197 553 0 0.39940153
Link 166 197 554 0 -0.37651594
Link 167 197 555 0 -0.29856961
Link 168 197 556 0 0.45029633
Link 169 197 557 0 0.07676154
Link 170 197 558 0 -0.45073297
Link 171 197 559 0 0.12449727
Link 172 197 560 0 0.61900614
Link 173 197 561 0 -0.14324145
Link 174 197 562 0 -0.03716702
Link 175 197 563 0 0.54651059
Link 176 197 564 0 0.03432121
Link 177 197 565 0 0.26339390
Link 178 197 566 0 0.55448731
Link 179 197 567 0 0.29818640
Link 180 197 568 0 -0.17447394
Link 181 197 569 0 -0.00635830
Link 182 197 570 0 -0.61265930
Link 183 197 571 0 0.15814969
Link 184 197 572 0 0.52636566
Link 185 197 573 0 0.33366515
Link 186 197 574 0 -0.37368861
Link 187 197 575 0 0.04605775
Link 188 197 576 0 0.25320690
Link 189 197 577 0 0.54301548
Link 190 197 578 0 -0.63567164
Link 191 197 579 0 0.10710049
Link 192 197 580 0 -0.27313861
Link 193 197 581 0 0.20943367
Link 194 197 582 0 -0.86336872
Link 1 198 583 0 -0.33362601
Link 2 198 584 0 0.01987631
Link 3 198 585 0 -0.40417403
Link 4 198 586 0 -0.15096562
Link 5 198 587 0 0.13264049
Link 6 198 588 0 -0.18304213
Link 7 198 589 0 -0.05701175
Link 8 198 590 0 -0.44384880
Link 9 198 591 0 -0.04408400
Link 10 198 592 0 0.32913599
Link 11 198 593 0 -0.20699685
Link 12 198 594 0 0.05291214
Link 13 198 595 0 -0.07741944
Link 14 198 596 0 0.87593057
Link 15 198 597 0 -0.00306221
Link 16 198 598 0 0.19715981
Link 17 198 599 0 -0.85220692
Link 18 198 600 0 0.49228314
Link 19 198 601 0 -0.46322280
Link 20 198 602 0 -0.05056413
Link 21 198 603 0 0.19907144
Link 22 198 604 0 -0.07047568
Link 23 198 605 0 -0.37262563
Link 24 198 606 0 0.13241642
Link 25 198 607 0 -0.07683884
Link 26 198 608 0 -0.55780017
Link 27 198 609 0 -0.55040368
Link 28 198 610 0 -0.53783967
Link 29 198 611 0 0.02639128
Link 30 198 612 0 0.17856371
Link 31 198 613 0 -0.02947782
Link 32 198 614 0 -0.07511549
Link 33 198 615 0 0.20853813
Link 34 198 616 0 -0.46881231
Link 35 198 617 0 -0.25913289
Link 36 198 618 0 -0.02094073
Link 37 198 619 0 0.05718434
Link 38 198 620 0 0.00980202
Link 39 198 621 0 -0.20482436
Link 40 198 622 0 -0.12340781
Link 41 198 623 0 -0.56533205
Link 42 198 624 0 -0.45577919
Link 43 198 625 0 0.47169688
Link 44 198 626 0 0.80930411
Link 45 198 627 0 -0.12651936
Link 46 198 628 0 -0.14337548
Link 47 198 629 0 0.40589636
Link 48 198 630 0 -0.27253471
Link 49 198 631 0 -0.39626812
Link 50 198 632 0 -0.01464436
Link 51 198 633 0 -0.04971393
Link 52 198 634 0 0.12206443
Link 53 198 635 0 0.16031028
Link 54 198 636 0 -0.05093159
Link 55 198 637 0 0.25546296
Link 56 198 638 0 0.24273111
Link 57 198 639 0 0.03764248
Link 58 198 640 0 0.05414976
Link 59 198 641 0 0.00472575
Link 60 198 642 0 -0.15922288
Link 61 198 643 0 -0.81375175
Link 62 198 644 0 0.30595434
Link 63 198 645 0 -0.49265241
Link 64 198 646 0 -0.48757520
Link 65 198 647 0 0.16284355
Link 66 198 648 0 -0.29742895
Link 67 198 649 0 0.04497993
Link 68 198 650 0 0.32441591
Link 69 198 651 0 0.28023096
Link 70 198 652 0 -0.35752821
Link 71 198 653 0 -0.36915407
Link 72 198 654 0 -0.23406235
Link 73 198 655 0 0.47926635
Link 74 198 656 0 -0.19712026
Link 75 198 657 0 -0.14705028
Link 76 198 658 0 0.27943298
Link 77 198 659 0 -0.10659663
Link 78 198 660 0 0.20713773
Link 79 198 661 0 -0.27626039
Link 80 198 662 0 -0.11928798
Link 81 198 663 0 -0.18825616
Link 82 198 664 0 -0.59004155
Link 83 198 665 0 -0.05090377
Link 84 198 666 0 -0.15820889
Link 85 198 667 0 0.21568766
Link 86 198 668 0 -0.39924567
Link 87 198 669 0 0.29102682
Link 88 198 670 0 0.08212643
Link 89 198 671 0 -0.56298976
Link 90 198 672 0 -0.30682068
Link 91 198 673 0 0.22533629
Link 92 198 674 0 -0.30744784
Link 93 198 675 0 -0.11473939
Link 94 198 676 0 -0.34427007
Link 95 198 677 0 -0.26447166
Link 96 198 678 0 0.73540785
Link 97 198 679 0 -0.41532581
Link 98 198 680 0 -0.13648545
Link 99 198 681 0 0.09995604
Link 100 198 682 0 0.09814465
Link 101 198 683 0 -0.07482482
Link 102 198 684 0 -0.10033453
Link 103 198 685 0 0.29701434
Link 104 198 686 0 -0.03997202
Link 105 198 687 0 0.23492689
Link 106 198 688 0 0.04434706
Link 107 198 689 0 -0.18752410
Link 108 198 690 0 -0.30196234
Link 109 198 691 0 -0.80850308
Link 110 198 692 0 -0.51980049
Link 111 198 693 0 0.00080673
Link 112 198 694 0 -0.08837407
Link 113 198 695 0 0.18803381
Link 114 198 696 0 0.08957682
Link 115 198 697 0 -0.39035722
Link 116 198 698 0 -0.09484181
Link 117 198 699 0 -0.18733128
Link 118 198 700 0 0.82029460
Link 119 198 701 0 -0.10533927
Link 120 198 702 0 0.32309071
Link 121 198 703 0 -0.41451329
Link 122 198 704 0 -0.34641979
Link 123 198 705 0 0.14793569
Link 124 198 706 0 -0.36830480
Link 125 198 707 0 0.41573907
Link 126 198 708 0 -0.62694486
Link 127 198 709 0 -0.48870740
Link 128 198 710 0 0.06009620
Link 129 198 711 0 -0.38943471
Link 130 198 712 0 0.00475562
Link 131 198 713 0 -0.20502896
Link 132 198 714 0 -0.27443842
Link 133 198 715 0 0.31134025
Link 134 198 716 0 0.38042561
Link 135 198 717 0 -0.23523396
Link 136 198 718 0 0.43301693
Link 137 198 719 0 0.09888073
Link 138 198 720 0 0.43630649
Link 139 198 721 0 0.12351723
Link 140 198 722 0 -0.06222956
Link 141 198 723 0 0.42930293
Link 142 198 724 0 0.31526218
Link 143 198 725 0 -0.27028596
Link 144 198 726 0 -0.11646287
Link 145 198 727 0 0.30015628
Link 146 198 728 0 0.15227918
Link 147 198 729 0 -0.19893426
Link 148 198 730 0 -0.05766235
Link 149 198 731 0 -0.25980268
Link 150 198 732 0 -0.17427924
Link 151 198 733 0 0.02087163
Link 152 198 734 0 0.40857630
Link 153 198 735 0 0.21103310
Link 154 198 736 0 -0.05712319
Link 155 198 737 0 -0.66501086
Link 156 198 738 0 -0.13580501
Link 157 198 739 0 0.16834274
Link 158 198 740 0 0.14532049
Link 159 198 741 0 -0.14112168
Link 160 198 742 0 -0.37998054
Link 161 198 743 0 -0.26257101
Link 162 198 744 0 0.75190696
Link 163 198 745 0 0.14539736
Link 164 198 746 0 0.54526837
Link 165 198 747 0 -0.24045477
Link 166 198 748 0 0.03473530
Link 167 198 749 0 0.03876696
Link 168 198 750 0 -0.29186918
Link 169 198 751 0 0.69791193
Link 170 198 752 0 0.08086911
Link 171 198 753 0 0.06737693
Link 172 198 754 0 -0.13151445
Link 173 198 755 0 0.09904686
Link 174 198 756 0 0.16811747
Link 175 198 757 0 -0.51855924
Link 176 198 758 0 0.29682184
Link 177 198 759 0 -0.20107593
Link 178 198 760 0 -0.25577228
Link 179 198 761 0 -0.05715794
Link 180 198 762 0 0.06054065
Link 181 198 763 0 -0.22071039
Link 182 198 764 0 0.19429479
Link 183 198 765 0 -0.53813661
Link 184 198 766 0 -0.01470385
Link 185 198 767 0 -0.12551177
Link 186 198 768 0 -0.03585035
Link 187 198 769 0 0.09987846
Link 188 198 770 0 0.08512334
Link 189 198 771 0 -0.04116788
Link 190 198 772 0 -0.30200424
Link 191 198 773 0 0.25837838
Link 192 198 774 0 -0.16165907
Link 193 198 775 0 0.04598954
Link 194 198 776 0 0.18995470
Link 1 199 777 0 -0.22859698
Link 2 199 778 0 0.12934202
Link 3 199 779 0 -0.36177819
Link 4 199 780 0 -0.26124751
Link 5 199 781 0 -0.52860763
Link 6 199 782 0 -0.30159344
Link 7 199 783 0 -0.05652619
Link 8 199 784 0 -0.04271797
Link 9 199 785 0 -0.12903718
Link 10 199 786 0 -0.61072061
Link 11 199 787 0 -0.22476902
Link 12 199 788 0 0.20954017
Link 13 199 789 0 -0.06344927
Link 14 199 790 0 0.05346803
Link 15 199 791 0 0.03262778
Link 16 199 792 0 0.33104081
Link 17 199 793 0 0.25290881
Link 18 199 794 0 0.11686351
Link 19 199 795 0 0.17267979
Link 20 199 796 0 -0.45278299
Link 21 199 797 0 0.31490618
Link 22 199 798 0 0.11789956
Link 23 199 799 0 -0.44472324
Link 24 199 800 0 -0.21615262
Link 25 199 801 0 0.56278030
Link 26 199 802 0 0.21860576
Link 27 199 803 0 0.16977108
Link 28 199 804 0 -0.17588167
Link 29 199 805 0 -0.48615292
Link 30 199 806 0 0.01101256
Link 31 199 807 0 0.58673320
Link 32 199 808 0 0.09320957
Link 33 199 809 0 -0.19434081
Link 34 199 810 0 -0.14616613
Link 35 199 811 0 -0.15495905
Link 36 199 812 0 -0.00990053
Link 37 199 813 0 0.30578725
Link 38 199 814 0 -0.40975579
Link 39 199 815 0 -0.34569540
Link 40 199 816 0 0.24519084
Link 41 199 817 0 -0.30608753
Link 42 199 818 0 -0.07529437
Link 43 199 819 0 0.20196896
Link 44 199 820 0 0.06434258
Link 45 199 821 0 -0.16254074
Link 46 199 822 0 -0.27350092
Link 47 199 823 0 0.08066143
Link 48 199 824 0 -0.12986580
Link 49 199 825 0 -0.46415515
Link 50 199 826 0 -0.18723377
Link 51 199 827 0 0.68527101
Link 52 199 828 0 0.15952759
Link 53 199 829 0 0.17895425
Link 54 199 830 0 -0.41410766
Link 55 199 831 0 -0.06856330
Link 56 199 832 0 0.32262034
Link 57 199 833 0 -0.36851496
Link 58 199 834 0 -0.36965068
Link 59 199 835 0 0.12736286
Link 60 199 836 0 -0.05245899
Link 61 199 837 0 0.19401401
Link 62 199 838 0 0.21386857
Link 63 199 839 0 0.03381764
Link 64 199 840 0 -0.02684478
Link 65 199 841 0 0.15065024
Link 66 199 842 0 -0.43435114
Link 67 199 843 0 0.93266829
Link 68 199 844 0 0.45081897
Link 69 199 845 0 0.13764744
Link 70 199 846 0 0.36121556
Link 71 199 847 0 0.13748443
Link 72 199 848 0 0.24125047
Link 73 199 849 0 -0.34845505
Link 74 199 850 0 0.20010967
Link 75 199 851 0 0.27775397
Link 76 199 852 0 -0.24546170
Link 77 199 853 0 -0.00044113
Link 78 199 854 0 -0.06236146
Link 79 199 855 0 -0.10459991
Link 80 199 856 0 0.20037041
Link 81 199 857 0 -0.09809388
Link 82 199 858 0 0.17013368
Link 83 199 859 0 -0.06191118
Link 84 199 860 0 -0.19501866
Link 85 199 861 0 0.41976327
Link 86 199 862 0 -0.08164078
Link 87 199 863 0 0.20600888
Link 88 199 864 0 0.03909906
Link 89 199 865 0 0.07629211
Link 90 199 866 0 0.14827928
Link 91 199 867 0 -0.14095357
Link 92 199 868 0 -0.29367732
Link 93 199 869 0 0.23674491
Link 94 199 870 0 -0.70156832
Link 95 199 871 0 0.04314400
Link 96 199 872 0 -0.05845359
Link 97 199 873 0 -0.05433355
Link 98 199 874 0 -0.16989720
Link 99 199 875 0 0.32725577
Link 100 199 876 0 0.04373814
Link 101 199 877 0 0.22545115
Link 102 199 878 0 0.01800913
Link 103 199 879 0 -0.16973330
Link 104 199 880 0 0.42940479
Link 105 199 881 0 0.72221130
Link 106 199 882 0 0.45109787
Link 107 199 883 0 0.16236408
Link 108 199 884 0 0.20222844
Link 109 199 885 0 0.60827167
Link 110 199 886 0 -0.03210586
Link 111 199 887 0 0.02061144
Link 112 199 888 0 0.02527822
Link 113 199 889 0 -0.33901235
Link 114 199 890 0 0.17316538
Link 115 199 891 0 0.27567270
Link 116 199 892 0 0.14386730
Link 117 199 893 0 0.71851676
Link 118 199 894 0 0.33960454
Link 119 199 895 0 -0.22889930
Link 120 199 896 0 0.17491968
Link 121 199 897 0 0.23406474
Link 122 199 898 0 0.03371721
Link 123 199 899 0 -0.21308582
Link 124 199 900 0 -0.41926330
Link 125 199 901 0 -0.02852759
Link 126 199 902 0 -0.12355328
Link 127 199 903 0 -0.52212153
Link 128 199 904 0 0.67678313
Link 129 199 905 0 0.00643036
Link 130 199 906 0 -0.28472991
Link 131 199 907 0 -0.37103285
Link 132 199 908 0 0.22641495
Link 133 199 909 0 -0.65143463
Link 134 199 910 0 -0.25744728
Link 135 199 911 0 -0.58545437
Link 136 199 912 0 0.29272511
Link 137 199 913 0 -0.53278112
Link 138 199 914 0 -0.79458129
Link 139 199 915 0 0.22089956
Link 140 199 916 0 -0.33141632
Link 141 199 917 0 -0.14405158
Link 142 199 918 0 0.09845685
Link 143 199 919 0 -0.48049187
Link 144 199 920 0 0.68770123
Link 145 199 921 0 0.49093238
Link 146 199 922 0 0.45105002
Link 147 199 923 0 0.00573587
Link 148 199 924 0 0.00115446
Link 149 199 925 0 0.75453062
Link 150 199 926 0 0.10267983
Link 151 199 927 0 -0.06593965
Link 152 199 928 0 0.18174842
Link 153 199 929 0 -0.01310402
Link 154 199 930 0 0.11428685
Link 155 199 931 0 -0.89861712
Link 156 199 932 0 -0.16105068
Link 157 199 933 0 -0.21577755
Link 158 199 934 0 -0.30106549
Link 159 199 935 0 0.20568293
Link 160 199 936 0 -0.10048546
Link 161 199 937 0 -0.17956042
Link 162 199 938 0 0.22679369
Link 163 199 939 0 0.23485656
Link 164 199 940 0 -0.15631529
Link 165 199 941 0 -0.09865048
Link 166 199 942 0 0.03415117
Link 167 199 943 0 0.12185901
Link 168 199 944 0 0.22962696
Link 169 199 945 0 -0.25177069
Link 170 199 946 0 0.01774615
Link 171 199 947 0 -0.47354647
Link 172 199 948 0 -0.64573254
Link 173 199 949 0 0.32794266
Link 174 199 950 0 -0.08945202
Link 175 199 951 0 -0.15140108
Link 176 199 952 0 -0.17867528
Link 177 199 953 0 -0.08315394
Link 178 199 954 0 -0.33272631
Link 179 199 955 0 0.24174474
Link 180 199 956 0 -0.13525572
Link 181 199 957 0 0.04069483
Link 182 199 958 0 -0.33806069
Link 183 199 959 0 -0.04971038
Link 184 199 960 0 -0.11885754
Link 185 199 961 0 0.01348501
Link 186 199 962 0 0.30572620
Link 187 199 963 0 0.20816625
Link 188 199 964 0 -0.09189147
Link 189 199 965 0 -0.51127744
Link 190 199 966 0 -0.21240649
Link 191 199 967 0 0.13133610
Link 192 199 968 0 -0.15672720
Link 193 199 969 0 0.51183180
Link 194 199 970 0 0.46196641
Link 1 200 971 0 -0.24974157
Link 2 200 972 0 0.24311900
Link 3 200 973 0 -0.53465100
Link 4 200 974 0 0.47684446
Link 5 200 975 0 -0.12807706
Link 6 200 976 0 -0.17203505
Link 7 200 977 0 0.16208566
Link 8 200 978 0 0.14995233
Link 9 200 979 0 0.08652991
Link 10 200 980 0 0.19261296
Link 11 200 981 0 0.11488772
Link 12 200 982 0 0.02085695
Link 13 200 983 0 -0.01236554
Link 14 200 984 0 0.27473798
Link 15 200 985 0 -0.17732402
Link 16 200 986 0 0.14774330
Link 17 200 987 0 0.06857461
Link 18 200 988 0 -0.05378483
Link 19 200 989 0 0.26687610
Link 20 200 990 0 -0.51720327
Link 21 200 991 0 0.77662943
Link 22 200 992 0 -0.31086716
Link 23 200 993 0 0.10684234
Link 24 200 994 0 0.65744697
Link 25 200 995 0 0.28881202
Link 26 200 996 0 -0.23435039
Link 27 200 997 0 0.20704613
Link 28 200 998 0 0.17806847
Link 29 200 999 0 0.38696828
Link 30 200 1000 0 -0.22660760
Link 31 200 1001 0 -0.08102569
Link 32 200 1002 0 0.39609072
Link 33 200 1003 0 -0.19068470
Link 34 200 1004 0 -0.21936878
Link 35 200 1005 0 -0.28547660
Link 36 200 1006 0 0.18826608
Link 37 200 1007 0 -0.18939617
Link 38 200 1008 0 0.69637492
Link 39 200 1009 0 0.05821750
Link 40 200 1010 0 0.58400714
Link 41 200 1011 0 -0.45864827
Link 42 200 1012 0 0.19621300
Link 43 200 1013 0 -0.42625312
Link 44 200 1014 0 -0.43238136
Link 45 200 1015 0 -0.17128660
Link 46 200 1016 0 0.20469957
Link 47 200 1017 0 0.10325555
Link 48 200 1018 0 -0.01591232
Link 49 200 1019 0 0.00435644
Link 50 200 1020 0 -0.05195851
Link 51 200 1021 0 0.63354091
Link 52 200 1022 0 -0.14834369
Link 53 200 1023 0 -0.05806639
Link 54 200 1024 0 0.08112508
Link 55 200 1025 0 -0.32652549
Link 56 200 1026 0 -0.61131697
Link 57 200 1027 0 -0.26989702
Link 58 200 1028 0 -0.37936702
Link 59 200 1029 0 -0.02975439
Link 60 200 1030 0 -0.23543499
Link 61 200 1031 0 0.12911402
Link 62 200 1032 0 0.12619502
Link 63 200 1033 0 0.60389921
Link 64 200 1034 0 -0.19170972
Link 65 200 1035 0 -0.28780238
Link 66 200 1036 0 0.00819927
Link 67 200 1037 0 -0.06937468
Link 68 200 1038 0 0.17170460
Link 69 200 1039 0 0.02143925
Link 70 200 1040 0 -0.46580921
Link 71 200 1041 0 0.10230501
Link 72 200 1042 0 0.15570072
Link 73 200 1043 0 -0.10911285
Link 74 200 1044 0 -0.57608207
Link 75 200 1045 0 0.36014034
Link 76 200 1046 0 0.17024045
Link 77 200 1047 0 0.47201707
Link 78 200 1048 0 0.17775698
Link 79 200 1049 0 -0.19136945
Link 80 200 1050 0 0.41677121
Link 81 200 1051 0 -0.12374865
Link 82 200 1052 0 0.30239305
Link 83 200 1053 0 -0.09640940
Link 84 200 1054 0 -0.05929504
Link 85 200 1055 0 0.10269844
Link 86 200 1056 0 -0.08477490
Link 87 200 1057 0 0.37600686
Link 88 200 1058 0 -0.08916071
Link 89 200 1059 0 -0.01074014
Link 90 200 1060 0 0.17237903
Link 91 200 1061 0 -0.04149510
Link 92 200 1062 0 -0.32261542
Link 93 200 1063 0 -0.16096149
Link 94 200 1064 0 0.12656807
Link 95 200 1065 0 0.05576975
Link 96 200 1066 0 -0.73327202
Link 97 200 1067 0 -0.23229488
Link 98 200 1068 0 -0.48773228
Link 99 200 1069 0 0.40169416
Link 100 200 1070 0 0.05072256
Link 101 200 1071 0 -0.07010667
Link 102 200 1072 0 0.27191172
Link 103 200 1073 0 0.08668176
Link 104 200 1074 0 -0.20796461
Link 105 200 1075 0 -0.03099668
Link 106 200 1076 0 -0.20661013
Link 107 200 1077 0 -0.09430536
Link 108 200 1078 0 -0.27549517
Link 109 200 1079 0 -0.76033808
Link 110 200 1080 0 -0.34888575
Link 111 200 1081 0 0.81906757
Link 112 200 1082 0 -0.11548620
Link 113 200 1083 0 -0.19869122
Link 114 200 1084 0 -0.18553068
Link 115 200 1085 0 -0.40878024
Link 116 200 1086 0 -0.12977459
Link 117 200 1087 0 -0.08369786
Link 118 200 1088 0 -0.06203152
Link 119 200 1089 0 0.39937569
Link 120 200 1090 0 -0.63176669
Link 121 200 1091 0 -0.18954352
Link 122 200 1092 0 -0.12044122
Link 123 200 1093 0 -0.23165670
Link 124 200 1094 0 0.55722735
Link 125 200 1095 0 0.09398540
Link 126 200 1096 0 0.16674511
Link 127 200 1097 0 0.06570060
Link 128 200 1098 0 -0.06379543
Link 129 200 1099 0 0.21027056
Link 130 200 1100 0 -0.17927511
Link 131 200 1101 0 -0.02685978
Link 132 200 1102 0 0.07803911
Link 133 200 1103 0 0.01229029
Link 134 200 1104 0 -0.37281288
Link 135 200 1105 0 0.12394300
Link 136 200 1106 0 0.40116592
Link 137 200 1107 0 0.00319069
Link 138 200 1108 0 0.27776172
Link 139 200 1109 0 -0.46781096
Link 140 200 1110 0 0.12689886
Link 141 200 1111 0 0.06541122
Link 142 200 1112 0 -0.05506035
Link 143 200 1113 0 -0.32271179
Link 144 200 1114 0 0.41172201
Link 145 200 1115 0 -0.34065555
Link 146 200 1116 0 0.04471768
Link 147 200 1117 0 0.46441547
Link 148 200 1118 0 0.40375454
Link 149 200 1119 0 0.18386140
Link 150 200 1120 0 0.19605805
Link 151 200 1121 0 0.08654367
Link 152 200 1122 0 -0.65182372
Link 153 200 1123 0 -0.07415052
Link 154 200 1124 0 0.18070555
Link 155 200 1125 0 -0.07790731
Link 156 200 1126 0 -0.28342246
Link 157 200 1127 0 0.54135267
Link 158 200 1128 0 0.38513929
Link 159 200 1129 0 -0.30402897
Link 160 200 1130 0 0.07764343
Link 161 200 1131 0 0.00004032
Link 162 200 1132 0 0.06879520
Link 163 200 1133 0 -0.24101070
Link 164 200 1134 0 0.10437458
Link 165 200 1135 0 -0.37759503
Link 166 200 1136 0 -0.18444341
Link 167 200 1137 0 0.14279146
Link 168 200 1138 0 -0.13045271
Link 169 200 1139 0 -0.20757617
Link 170 200 1140 0 -0.19127195
Link 171 200 1141 0 -0.01008117
Link 172 200 1142 0 -0.09194282
Link 173 200 1143 0 -0.25214554
Link 174 200 1144 0 -0.78301672
Link 175 200 1145 0 -0.61766474
Link 176 200 1146 0 0.64205048
Link 177 200 1147 0 0.12373906
Link 178 200 1148 0 0.36936191
Link 179 200 1149 0 -0.13370582
Link 180 200 1150 0 0.13512891
Link 181 200 1151 0 0.57405105
Link 182 200 1152 0 -0.07435197
Link 183 200 1153 0 -0.32648943
Link 184 200 1154 0 -0.20315539
Link 185 200 1155 0 0.00466116
Link 186 200 1156 0 0.16252193
Link 187 200 1157 0 0.33635304
Link 188 200 1158 0 -0.05629351
Link 189 200 1159 0 -0.29662225
Link 190 200 1160 0 0.56313369
Link 191 200 1161 0 -0.19334381
Link 192 200 1162 0 -0.42412105
Link 193 200 1163 0 0.06244459
Link 194 200 1164 0 -0.32556218
Link 1 201 1165 0 -0.46877148
Link 2 201 1166 0 0.34611589
Link 3 201 1167 0 -0.45698696
Link 4 201 1168 0 -0.06005006
Link 5 201 1169 0 0.14546574
Link 6 201 1170 0 0.25890530
Link 7 201 1171 0 0.49198341
Link 8 201 1172 0 -0.38366290
Link 9 201 1173 0 0.43184554
Link 10 201 1174 0 -0.21468652
Link 11 201 1175 0 -0.06999988
Link 12 201 1176 0 0.17404794
Link 13 201 1177 0 0.93828327
Link 14 201 1178 0 -0.08881654
Link 15 201 1179 0 0.00020862
Link 16 201 1180 0 0.28398890
Link 17 201 1181 0 -0.07281646
Link 18 201 1182 0 -0.00956807
Link 19 201 1183 0 0.06855687
Link 20 201 1184 0 -0.20365147
Link 21 201 1185 0 0.03207286
Link 22 201 1186 0 -0.30661726
Link 23 201 1187 0 -0.09105571
Link 24 201 1188 0 0.15875292
Link 25 201 1189 0 -0.09412331
Link 26 201 1190 0 -0.39216013
Link 27 201 1191 0 0.36863009
Link 28 201 1192 0 0.33749293
Link 29 201 1193 0 -0.14783718
Link 30 201 1194 0 -0.62096484
Link 31 201 1195 0 -0.75477137
Link 32 201 1196 0 0.10665826
Link 33 201 1197 0 0.13511358
Link 34 201 1198 0 -0.32020248
Link 35 201 1199 0 -0.18113880
Link 36 201 1200 0 -0.00755585
Link 37 201 1201 0 -0.24175963
Link 38 201 1202 0 -0.27370371
Link 39 201 1203 0 -0.04434544
Link 40 201 1204 0 -0.02494744
Link 41 201 1205 0 -0.67813596
Link 42 201 1206 0 -0.34238261
Link 43 201 1207 0 -0.05814782
Link 44 201 1208 0 -0.25181148
Link 45 201 1209 0 -0.21392580
Link 46 201 1210 0 0.48327341
Link 47 201 1211 0 -0.00896770
Link 48 201 1212 0 0.33567860
Link 49 201 1213 0 -0.40079288
Link 50 201 1214 0 0.22806599
Link 51 201 1215 0 0.10715234
Link 52 201 1216 0 -0.60005506
Link 53 201 1217 0 -0.28881106
Link 54 201 1218 0 -0.01252698
Link 55 201 1219 0 -0.38728783
Link 56 201 1220 0 -0.24499210
Link 57 201 1221 0 -0.19195410
Link 58 201 1222 0 -0.61623532
Link 59 201 1223 0 -0.75555449
Link 60 201 1224 0 -0.08665807
Link 61 201 1225 0 -0.38427439
Link 62 201 1226 0 0.04836337
Link 63 201 1227 0 0.24465844
Link 64 201 1228 0 0.67850239
Link 65 201 1229 0 0.47711387
Link 66 201 1230 0 0.11008119
Link 67 201 1231 0 0.00296792
Link 68 201 1232 0 -0.19865312
Link 69 201 1233 0 0.53204332
Link 70 201 1234 0 -0.14217008
Link 71 201 1235 0 -0.00954520
Link 72 201 1236 0 0.29156581
Link 73 201 1237 0 0.90737798
Link 74 201 1238 0 -0.28172782
Link 75 201 1239 0 0.10905134
Link 76 201 1240 0 0.03283826
Link 77 201 1241 0 -0.12999428
Link 78 201 1242 0 0.04495069
Link 79 201 1243 0 -0.15340414
Link 80 201 1244 0 -0.29678639
Link 81 201 1245 0 -0.01534765
Link 82 201 1246 0 -0.23292778
Link 83 201 1247 0 0.04746421
Link 84 201 1248 0 -0.20164473
Link 85 201 1249 0 0.23141345
Link 86 201 1250 0 -0.16570051
Link 87 201 1251 0 0.41479194
Link 88 201 1252 0 -0.32681560
Link 89 201 1253 0 0.00407615
Link 90 201 1254 0 -0.14866952
Link 91 201 1255 0 0.04788771
Link 92 201 1256 0 -0.35116098
Link 93 201 1257 0 0.41815075
Link 94 201 1258 0 -0.01058857
Link 95 201 1259 0 -0.50022355
Link 96 201 1260 0 -0.05326530
Link 97 201 1261 0 0.01522141
Link 98 201 1262 0 0.30548156
Link 99 201 1263 0 0.19464384
Link 100 201 1264 0 -0.24501408
Link 101 201 1265 0 0.29697283
Link 102 201 1266 0 0.30860256
Link 103 201 1267 0 0.10295284
Link 104 201 1268 0 0.00944050
Link 105 201 1269 0 0.27835836
Link 106 201 1270 0 -0.02256657
Link 107 201 1271 0 0.24130636
Link 108 201 1272 0 -0.35797377
Link 109 201 1273 0 -0.06431405
Link 110 201 1274 0 -0.29241969
Link 111 201 1275 0 0.13165247
Link 112 201 1276 0 -0.24904113
Link 113 201 1277 0 -0.11683824
Link 114 201 1278 0 -0.01408277
Link 115 201 1279 0 0.67941354
Link 116 201 1280 0 -0.08370265
Link 117 201 1281 0 -0.26769730
Link 118 201 1282 0 -0.31416628
Link 119 201 1283 0 -0.28553970
Link 120 201 1284 0 -0.55114687
Link 121 201 1285 0 0.80571115
Link 122 201 1286 0 -0.14615033
Link 123 201 1287 0 -0.00536248
Link 124 201 1288 0 -0.37069647
Link 125 201 1289 0 -0.22886860
Link 126 201 1290 0 0.01974166
Link 127 201 1291 0 -0.21164733
Link 128 201 1292 0 -0.09384284
Link 129 201 1293 0 0.34545319
Link 130 201 1294 0 -0.15247779
Link 131 201 1295 0 -0.18826799
Link 132 201 1296 0 -0.02216301
Link 133 201 1297 0 -0.15035843
Link 134 201 1298 0 0.18562702
Link 135 201 1299 0 0.28390434
Link 136 201 1300 0 0.38498981
Link 137 201 1301 0 -0.18956402
Link 138 201 1302 0 -0.00548382
Link 139 201 1303 0 0.22304359
Link 140 201 1304 0 -0.58493291
Link 141 201 1305 0 -0.71515092
Link 142 201 1306 0 -0.60057453
Link 143 201 1307 0 -0.21614931
Link 144 201 1308 0 -0.15504043
Link 145 201 1309 0 -0.02393038
Link 146 201 1310 0 0.85835658
Link 147 201 1311 0 0.02052728
Link 148 201 1312 0 -0.16146882
Link 149 201 1313 0 -0.26218549
Link 150 201 1314 0 0.07612565
Link 151 201 1315 0 0.36723876
Link 152 201 1316 0 0.15326087
Link 153 201 1317 0 0.77213789
Link 154 201 1318 0 -0.43409670
Link 155 201 1319 0 0.25413215
Link 156 201 1320 0 -0.42592693
Link 157 201 1321 0 -0.22093575
Link 158 201 1322 0 -0.43649349
Link 159 201 1323 0 0.65687220
Link 160 201 1324 0 0.50250041
Link 161 201 1325 0 -0.04998150
Link 162 201 1326 0 0.03718306
Link 163 201 1327 0 -0.26167244
Link 164 201 1328 0 -0.12866844
Link 165 201 1329 0 -0.73872335
Link 166 201 1330 0 -0.18845566
Link 167 201 1331 0 -0.25535945
Link 168 201 1332 0 -0.00632393
Link 169 201 1333 0 -0.27880498
Link 170 201 1334 0 0.18814353
Link 171 201 1335 0 0.08632576
Link 172 201 1336 0 0.53400354
Link 173 201 1337 0 0.65199707
Link 174 201 1338 0 0.33514002
Link 175 201 1339 0 -0.49611804
Link 176 201 1340 0 -0.23525628
Link 177 201 1341 0 0.30881790
Link 178 201 1342 0 0.15951878
Link 179 201 1343 0 0.26099959
Link 180 201 1344 0 0.06837573
Link 181 201 1345 0 0.07468464
Link 182 201 1346 0 0.10471421
Link 183 201 1347 0 0.07048213
Link 184 201 1348 0 -0.69039666
Link 185 201 1349 0 0.68134901
Link 186 201 1350 0 0.40088164
Link 187 201 1351 0 -0.65820378
Link 188 201 1352 0 -0.81365422
Link 189 201 1353 0 0.20713233
Link 190 201 1354 0 -0.15322111
Link 191 201 1355 0 -0.36325699
Link 192 201 1356 0 0.02387701
Link 193 201 1357 0 -0.49462945
Link 194 201 1358 0 -0.34663892
Link 1 202 1359 0 -0.19902473
Link 2 202 1360 0 0.42406893
Link 3 202 1361 0 -0.05835307
Link 4 202 1362 0 -0.36886370
Link 5 202 1363 0 -0.60322281
Link 6 202 1364 0 -0.36075361
Link 7 202 1365 0 -0.34472935
Link 8 202 1366 0 0.03464608
Link 9 202 1367 0 0.16132599
Link 10 202 1368 0 0.13371595
Link 11 202 1369 0 -0.34658619
Link 12 202 1370 0 0.01597701
Link 13 202 1371 0 -0.88318372
Link 14 202 1372 0 0.20717447
Link 15 202 1373 0 -0.31661214
Link 16 202 1374 0 -0.32849805
Link 17 202 1375 0 0.46344071
Link 18 202 1376 0 0.01831501
Link 19 202 1377 0 -0.15041219
Link 20 202 1378 0 0.22469783
Link 21 202 1379 0 0.04370343
Link 22 202 1380 0 0.06409773
Link 23 202 1381 0 0.01154425
Link 24 202 1382 0 0.00593788
Link 25 202 1383 0 -0.70677859
Link 26 202 1384 0 -0.13365233
Link 27 202 1385 0 -0.25863911
Link 28 202 1386 0 0.41867672
Link 29 202 1387 0 0.18669650
Link 30 202 1388 0 0.21939732
Link 31 202 1389 0 0.02745078
Link 32 202 1390 0 -0.18473027
Link 33 202 1391 0 -0.37929126
Link 34 202 1392 0 -0.93928861
Link 35 202 1393 0 0.09887233
Link 36 202 1394 0 -0.54420183
Link 37 202 1395 0 0.25336125
Link 38 202 1396 0 0.00307608
Link 39 202 1397 0 0.29051047
Link 40 202 1398 0 0.75330519
Link 41 202 1399 0 0.58165799
Link 42 202 1400 0 -0.11389150
Link 43 202 1401 0 -0.09845390
Link 44 202 1402 0 -0.14263609
Link 45 202 1403 0 -0.11552283
Link 46 202 1404 0 0.05293951
Link 47 202 1405 0 -0.10708921
Link 48 202 1406 0 -0.54403713
Link 49 202 1407 0 -0.26317430
Link 50 202 1408 0 0.30907241
Link 51 202 1409 0 0.20137365
Link 52 202 1410 0 -0.05081511
Link 53 202 1411 0 -0.13196880
Link 54 202 1412 0 -0.36255286
Link 55 202 1413 0 -0.03405980
Link 56 202 1414 0 0.30492618
Link 57 202 1415 0 -0.26037134
Link 58 202 1416 0 -0.39667287
Link 59 202 1417 0 0.62289292
Link 60 202 1418 0 -0.15500452
Link 61 202 1419 0 -0.32143982
Link 62 202 1420 0 0.06804858
Link 63 202 1421 0 0.20010476
Link 64 202 1422 0 0.27999571
Link 65 202 1423 0 -0.59529506
Link 66 202 1424 0 -0.00945966
Link 67 202 1425 0 0.18841687
Link 68 202 1426 0 0.61126119
Link 69 202 1427 0 0.30951843
Link 70 202 1428 0 0.55313711
Link 71 202 1429 0 -0.47013758
Link 72 202 1430 0 -0.05350761
Link 73 202 1431 0 -0.30681353
Link 74 202 1432 0 -0.43700218
Link 75 202 1433 0 -0.56255514
Link 76 202 1434 0 -0.07558772
Link 77 202 1435 0 -0.21187637
Link 78 202 1436 0 -0.59548538
Link 79 202 1437 0 0.09397152
Link 80 202 1438 0 0.29207944
Link 81 202 1439 0 0.46472126
Link 82 202 1440 0 0.40985669
Link 83 202 1441 0 0.39760465
Link 84 202 1442 0 -0.57488837
Link 85 202 1443 0 -0.94613468
Link 86 202 1444 0 0.08417333
Link 87 202 1445 0 -0.29386379
Link 88 202 1446 0 -0.37517318
Link 89 202 1447 0 0.82602331
Link 90 202 1448 0 -0.96449191
Link 91 202 1449 0 -0.05771143
Link 92 202 1450 0 0.33877382
Link 93 202 1451 0 0.12289929
Link 94 202 1452 0 0.06941472
Link 95 202 1453 0 -0.13216150
Link 96 202 1454 0 -0.59623554
Link 97 202 1455 0 0.03148287
Link 98 202 1456 0 0.34576496
Link 99 202 1457 0 -0.03635680
Link 100 202 1458 0 0.38009397
Link 101 202 1459 0 0.03730967
Link 102 202 1460 0 0.38120350
Link 103 202 1461 0 0.04748480
Link 104 202 1462 0 -0.26425797
Link 105 202 1463 0 0.53026033
Link 106 202 1464 0 -0.03141721
Link 107 202 1465 0 0.19852488
Link 108 202 1466 0 0.24136090
Link 109 202 1467 0 -0.24859061
Link 110 202 1468 0 -0.49702111
Link 111 202 1469 0 -0.21981991
Link 112 202 1470 0 -0.38268554
Link 113 202 1471 0 0.19275607
Link 114 202 1472 0 -0.17962408
Link 115 202 1473 0 -0.13470696
Link 116 202 1474 0 0.00476757
Link 117 202 1475 0 0.40972370
Link 118 202 1476 0 0.01651912
Link 119 202 1477 0 -0.97415006
Link 120 202 1478 0 -0.04170800
Link 121 202 1479 0 0.21800651
Link 122 202 1480 0 0.27691418
Link 123 202 1481 0 -0.50016877
Link 124 202 1482 0 0.22337989
Link 125 202 1483 0 0.19964117
Link 126 202 1484 0 -0.56752492
Link 127 202 1485 0 0.20451777
Link 128 202 1486 0 0.27092572
Link 129 202 1487 0 -0.56727826
Link 130 202 1488 0 -0.53679876
Link 131 202 1489 0 0.88070107
Link 132 202 1490 0 -0.14393901
Link 133 202 1491 0 -0.19520258
Link 134 202 1492 0 0.40466109
Link 135 202 1493 0 -0.93776763
Link 136 202 1494 0 0.13810413
Link 137 202 1495 0 -0.14828243
Link 138 202 1496 0 -0.12917120
Link 139 202 1497 0 0.19090659
Link 140 202 1498 0 -0.43373925
Link 141 202 1499 0 -0.33546372
Link 142 202 1500 0 0.39980953
Link 143 202 1501 0 -0.22849317
Link 144 202 1502 0 0.04093201
Link 145 202 1503 0 -0.34822947
Link 146 202 1504 0 0.30481694
Link 147 202 1505 0 -0.06310209
Link 148 202 1506 0 -0.15455099
Link 149 202 1507 0 -0.56758546
Link 150 202 1508 0 0.52445301
Link 151 202 1509 0 0.04170188
Link 152 202 1510 0 0.31664432
Link 153 202 1511 0 -0.13490969
Link 154 202 1512 0 -0.39425528
Link 155 202 1513 0 0.03707900
Link 156 202 1514 0 -0.08428341
Link 157 202 1515 0 0.06872973
Link 158 202 1516 0 -0.42556241
Link 159 202 1517 0 -0.02084248
Link 160 202 1518 0 0.08315175
Link 161 202 1519 0 0.21017653
Link 162 202 1520 0 0.17796744
Link 163 202 1521 0 0.13956333
Link 164 202 1522 0 -0.25113730
Link 165 202 1523 0 0.13328872
Link 166 202 1524 0 -0.24342198
Link 167 202 1525 0 0.19834864
Link 168 202 1526 0 0.28789021
Link 169 202 1527 0 -0.17898076
Link 170 202 1528 0 0.23674497
Link 171 202 1529 0 0.51089622
Link 172 202 1530 0 -0.64135821
Link 173 202 1531 0 0.46204848
Link 174 202 1532 0 0.69102573
Link 175 202 1533 0 0.14645642
Link 176 202 1534 0 -0.20203228
Link 177 202 1535 0 -0.73503725
Link 178 202 1536 0 0.18290099
Link 179 202 1537 0 -0.70140512
Link 180 202 1538 0 -0.81331340
Link 181 202 1539 0 -0.65798987
Link 182 202 1540 0 -0.05767633
Link 183 202 1541 0 -0.06167017
Link 184 202 1542 0 0.73018542
Link 185 202 1543 0 0.06644772
Link 186 202 1544 0 -0.11201206
Link 187 202 1545 0 -0.06156460
Link 188 202 1546 0 0.22540971
Link 189 202 1547 0 0.08623701
Link 190 202 1548 0 -0.30833687
Link 191 202 1549 0 -0.01234514
Link 192 202 1550 0 0.15423046
Link 193 202 1551 0 -0.58640290
Link 194 202 1552 0 0.45539059
Link 1 203 1553 0 -0.28791356
Link 2 203 1554 0 -0.26729297
Link 3 203 1555 0 0.72858289
Link 4 203 1556 0 0.21668450
Link 5 203 1557 0 0.05844524
Link 6 203 1558 0 -0.29088235
Link 7 203 1559 0 0.24717120
Link 8 203 1560 0 0.30516535
Link 9 203 1561 0 -0.30538697
Link 10 203 1562 0 0.34087546
Link 11 203 1563 0 -0.05045684
Link 12 203 1564 0 0.07198780
Link 13 203 1565 0 0.27893407
Link 14 203 1566 0 -0.06850117
Link 15 203 1567 0 -0.35526737
Link 16 203 1568 0 -0.29079464
Link 17 203 1569 0 -0.17395357
Link 18 203 1570 0 0.17338729
Link 19 203 1571 0 -0.39799270
Link 20 203 1572 0 0.66846798
Link 21 203 1573 0 0.29221457
Link 22 203 1574 0 -0.21681366
Link 23 203 1575 0 -0.01738545
Link 24 203 1576 0 -0.68009675
Link 25 203 1577 0 0.51488037
Link 26 203 1578 0 0.16185197
Link 27 203 1579 0 0.11153158
Link 28 203 1580 0 0.45855649
Link 29 203 1581 0 -0.26050524
Link 30 203 1582 0 0.05950984
Link 31 203 1583 0 -0.09270430
Link 32 203 1584 0 -0.18409427
Link 33 203 1585 0 0.22181091
Link 34 203 1586 0 -0.31697543
Link 35 203 1587 0 -0.00903375
Link 36 203 1588 0 0.18131717
Link 37 203 1589 0 0.47410903
Link 38 203 1590 0 0.11913274
Link 39 203 1591 0 0.22809236
Link 40 203 1592 0 -0.72059268
Link 41 203 1593 0 -0.22811298
Link 42 203 1594 0 -0.49586351
Link 43 203 1595 0 0.40184152
Link 44 203 1596 0 -0.02266629
Link 45 203 1597 0 0.36706407
Link 46 203 1598 0 -0.24659524
Link 47 203 1599 0 0.52549697
Link 48 203 1600 0 0.00771502
Link 49 203 1601 0 0.14622754
Link 50 203 1602 0 -0.24991560
Link 51 203 1603 0 -0.23990757
Link 52 203 1604 0 -0.15576731
Link 53 203 1605 0 -0.11045864
Link 54 203 1606 0 0.04184656
Link 55 203 1607 0 -0.16998482
Link 56 203 1608 0 0.09924153
Link 57 203 1609 0 0.44667684
Link 58 203 1610 0 0.00173711
Link 59 203 1611 0 -0.13157964
Link 60 203 1612 0 0.03632890
Link 61 203 1613 0 0.24138048
Link 62 203 1614 0 0.15292168
Link 63 203 1615 0 -0.39464093
Link 64 203 1616 0 -0.01728853
Link 65 203 1617 0 0.05254712
Link 66 203 1618 0 -0.38266233
Link 67 203 1619 0 0.43334046
Link 68 203 1620 0 0.22471107
Link 69 203 1621 0 0.07733906
Link 70 203 1622 0 -0.26527296
Link 71 203 1623 0 0.09724765
Link 72 203 1624 0 0.25930665
Link 73 203 1625 0 0.31736848
Link 74 203 1626 0 0.45339307
Link 75 203 1627 0 -0.60302182
Link 76 203 1628 0 0.03587565
Link 77 203 1629 0 0.01478050
Link 78 203 1630 0 -0.21421854
Link 79 203 1631 0 0.00090853
Link 80 203 1632 0 0.17684958
Link 81 203 1633 0 0.36967237
Link 82 203 1634 0 -0.40464603
Link 83 203 1635 0 -0.01002570
Link 84 203 1636 0 0.35967811
Link 85 203 1637 0 -0.09366088
Link 86 203 1638 0 0.07893444
Link 87 203 1639 0 -0.38179521
Link 88 203 1640 0 0.05699442
Link 89 203 1641 0 -0.13026951
Link 90 203 1642 0 -0.13235407
Link 91 203 1643 0 0.36838642
Link 92 203 1644 0 -0.06882355
Link 93 203 1645 0 -0.36878463
Link 94 203 1646 0 -0.51916019
Link 95 203 1647 0 -0.00262546
Link 96 203 1648 0 0.24818841
Link 97 203 1649 0 0.57224816
Link 98 203 1650 0 -0.15496103
Link 99 203 1651 0 -0.46844976
Link 100 203 1652 0 -0.10494965
Link 101 203 1653 0 0.29146076
Link 102 203 1654 0 -0.03964528
Link 103 203 1655 0 0.30969821
Link 104 203 1656 0 -0.32078615
Link 105 203 1657 0 -0.22084934
Link 106 203 1658 0 -0.62027598
Link 107 203 1659 0 -0.50765191
Link 108 203 1660 0 0.17505700
Link 109 203 1661 0 -0.20966771
Link 110 203 1662 0 -0.09430957
Link 111 203 1663 0 0.11440424
Link 112 203 1664 0 -0.01830255
Link 113 203 1665 0 0.55089507
Link 114 203 1666 0 0.41086003
Link 115 203 1667 0 -0.47126450
Link 116 203 1668 0 0.24290677
Link 117 203 1669 0 0.08311148
Link 118 203 1670 0 -0.03382103
Link 119 203 1671 0 0.26150089
Link 120 203 1672 0 0.30066649
Link 121 203 1673 0 -0.06656462
Link 122 203 1674 0 0.18470981
Link 123 203 1675 0 0.08672556
Link 124 203 1676 0 0.42752431
Link 125 203 1677 0 -0.30721907
Link 126 203 1678 0 -0.43141120
Link 127 203 1679 0 0.27247631
Link 128 203 1680 0 -0.04597660
Link 129 203 1681 0 -0.08142198
Link 130 203 1682 0 0.13800377
Link 131 203 1683 0 -0.02954731
Link 132 203 1684 0 -0.25970246
Link 133 203 1685 0 -0.16992900
Link 134 203 1686 0 0.04788948
Link 135 203 1687 0 -0.01291203
Link 136 203 1688 0 -0.48466821
Link 137 203 1689 0 -0.45429406
Link 138 203 1690 0 -0.92479702
Link 139 203 1691 0 0.12915423
Link 140 203 1692 0 -0.28912814
Link 141 203 1693 0 -0.71432769
Link 142 203 1694 0 0.00956442
Link 143 203 1695 0 0.33443667
Link 144 203 1696 0 0.11695788
Link 145 203 1697 0 -0.17568301
Link 146 203 1698 0 -0.77160374
Link 147 203 1699 0 -0.16330446
Link 148 203 1700 0 -0.07005343
Link 149 203 1701 0 0.18032952
Link 150 203 1702 0 -0.70849457
Link 151 203 1703 0 0.42948621
Link 152 203 1704 0 -0.25286753
Link 153 203 1705 0 0.07777120
Link 154 203 1706 0 0.39835512
Link 155 203 1707 0 -0.01707832
Link 156 203 1708 0 -0.41194692
Link 157 203 1709 0 0.90919191
Link 158 203 1710 0 -0.47816708
Link 159 203 1711 0 0.27583449
Link 160 203 1712 0 0.10288820
Link 161 203 1713 0 0.13911682
Link 162 203 1714 0 0.13342244
Link 163 203 1715 0 -0.37820281
Link 164 203 1716 0 0.34156747
Link 165 203 1717 0 0.28858416
Link 166 203 1718 0 -0.25456202
Link 167 203 1719 0 -0.00378529
Link 168 203 1720 0 0.46722687
Link 169 203 1721 0 -0.24616200
Link 170 203 1722 0 -0.28367161
Link 171 203 1723 0 -0.31167025
Link 172 203 1724 0 0.54070596
Link 173 203 1725 0 0.14331348
Link 174 203 1726 0 -0.04137426
Link 175 203 1727 0 0.14523587
Link 176 203 1728 0 -0.33588937
Link 177 203 1729 0 0.13693012
Link 178 203 1730 0 0.39028359
Link 179 203 1731 0 0.36269245
Link 180 203 1732 0 0.08474608
Link 181 203 1733 0 0.34737216
Link 182 203 1734 0 0.22446325
Link 183 203 1735 0 -0.21980607
Link 184 203 1736 0 -0.19985331
Link 185 203 1737 0 0.09227202
Link 186 203 1738 0 0.45892347
Link 187 203 1739 0 0.53725449
Link 188 203 1740 0 0.11425063
Link 189 203 1741 0 0.49707058
Link 190 203 1742 0 -0.11478890
Link 191 203 1743 0 -0.11736197
Link 192 203 1744 0 0.11405642
Link 193 203 1745 0 -0.29188256
Link 194 203 1746 0 0.14005744
Link 1 204 1747 0 -0.35380447
Link 2 204 1748 0 -0.32290576
Link 3 204 1749 0 -0.28676272
Link 4 204 1750 0 -0.60902240
Link 5 204 1751 0 -0.08617252
Link 6 204 1752 0 -0.71884000
Link 7 204 1753 0 0.46250594
Link 8 204 1754 0 -0.06214876
Link 9 204 1755 0 -0.13449925
Link 10 204 1756 0 -0.16498709
Link 11 204 1757 0 -0.59623597
Link 12 204 1758 0 -0.00366703
Link 13 204 1759 0 -0.02551543
Link 14 204 1760 0 -0.14543217
Link 15 204 1761 0 0.84673418
Link 16 204 1762 0 0.09404856
Link 17 204 1763 0 -0.16066895
Link 18 204 1764 0 -0.67930484
Link 19 204 1765 0 0.06799354
Link 20 204 1766 0 -0.02750869
Link 21 204 1767 0 0.09103355
Link 22 204 1768 0 0.19952507
Link 23 204 1769 0 -0.00923415
Link 24 204 1770 0 -0.32308492
Link 25 204 1771 0 -0.10408081
Link 26 204 1772 0 0.58971649
Link 27 204 1773 0 -0.16973520
Link 28 204 1774 0 0.07401112
Link 29 204 1775 0 -0.34852116
Link 30 204 1776 0 0.63819728
Link 31 204 1777 0 0.17841178
Link 32 204 1778 0 -0.28862768
Link 33 204 1779 0 0.85244288
Link 34 204 1780 0 0.18420905
Link 35 204 1781 0 -0.39380181
Link 36 204 1782 0 0.54941158
Link 37 204 1783 0 -0.47065526
Link 38 204 1784 0 -0.33172527
Link 39 204 1785 0 0.33427139
Link 40 204 1786 0 -0.23817673
Link 41 204 1787 0 -0.34557831
Link 42 204 1788 0 -0.02679542
Link 43 204 1789 0 0.25953727
Link 44 204 1790 0 -0.40703420
Link 45 204 1791 0 -0.06433402
Link 46 204 1792 0 -0.25796433
Link 47 204 1793 0 0.15157299
Link 48 204 1794 0 0.16345342
Link 49 204 1795 0 -0.31290004
Link 50 204 1796 0 -0.08159817
Link 51 204 1797 0 0.04886682
Link 52 204 1798 0 -0.15526643
Link 53 204 1799 0 0.16735965
Link 54 204 1800 0 -0.55532611
Link 55 204 1801 0 -0.52830320
Link 56 204 1802 0 0.09761662
Link 57 204 1803 0 -0.09516278
Link 58 204 1804 0 0.77275414
Link 59 204 1805 0 0.08005420
Link 60 204 1806 0 -0.02925684
Link 61 204 1807 0 -0.13072957
Link 62 204 1808 0 0.51520468
Link 63 204 1809 0 -0.26146812
Link 64 204 1810 0 0.39969091
Link 65 204 1811 0 0.07667136
Link 66 204 1812 0 0.09790381
Link 67 204 1813 0 -0.04312656
Link 68 204 1814 0 0.58178323
Link 69 204 1815 0 0.21111779
Link 70 204 1816 0 0.24756072
Link 71 204 1817 0 0.81535312
Link 72 204 1818 0 0.13497697
Link 73 204 1819 0 -0.15784435
Link 74 204 1820 0 -0.42843495
Link 75 204 1821 0 0.13222290
Link 76 204 1822 0 -0.11707810
Link 77 204 1823 0 -0.02495533
Link 78 204 1824 0 0.16618993
Link 79 204 1825 0 -0.22449637
Link 80 204 1826 0 0.01565311
Link 81 204 1827 0 -0.32281363
Link 82 204 1828 0 -0.00449633
Link 83 204 1829 0 -0.09424992
Link 84 204 1830 0 0.78529585
Link 85 204 1831 0 -0.20614933
Link 86 204 1832 0 0.46945105
Link 87 204 1833 0 0.15384350
Link 88 204 1834 0 -0.46541639
Link 89 204 1835 0 -0.92232423
Link 90 204 1836 0 0.09453490
Link 91 204 1837 0 0.43695353
Link 92 204 1838 0 0.01711035
Link 93 204 1839 0 -0.38274883
Link 94 204 1840 0 -0.10054593
Link 95 204 1841 0 -0.10783696
Link 96 204 1842 0 -0.69461408
Link 97 204 1843 0 -0.00128830
Link 98 204 1844 0 0.01241942
Link 99 204 1845 0 0.12098685
Link 100 204 1846 0 0.20927573
Link 101 204 1847 0 -0.42378044
Link 102 204 1848 0 -0.09318712
Link 103 204 1849 0 -0.37712305
Link 104 204 1850 0 -0.15573789
Link 105 204 1851 0 0.22459390
Link 106 204 1852 0 0.15726501
Link 107 204 1853 0 0.07782406
Link 108 204 1854 0 0.32929711
Link 109 204 1855 0 0.18394469
Link 110 204 1856 0 0.14001424
Link 111 204 1857 0 0.01987423
Link 112 204 1858 0 0.87334009
Link 113 204 1859 0 0.22674690
Link 114 204 1860 0 0.29637660
Link 115 204 1861 0 -0.87103549
Link 116 204 1862 0 0.03849348
Link 117 204 1863 0 0.37679847
Link 118 204 1864 0 0.21155121
Link 119 204 1865 0 -0.05324257
Link 120 204 1866 0 -0.07756786
Link 121 204 1867 0 -0.17162268
Link 122 204 1868 0 0.11458785
Link 123 204 1869 0 -0.12104638
Link 124 204 1870 0 0.00771593
Link 125 204 1871 0 0.32831675
Link 126 204 1872 0 -0.09714881
Link 127 204 1873 0 -0.29646523
Link 128 204 1874 0 0.05201171
Link 129 204 1875 0 -0.04920075
Link 130 204 1876 0 0.32441100
Link 131 204 1877 0 -0.25398107
Link 132 204 1878 0 0.02767514
Link 133 204 1879 0 0.31193649
Link 134 204 1880 0 -0.11614833
Link 135 204 1881 0 0.53781245
Link 136 204 1882 0 -0.25003143
Link 137 204 1883 0 -0.46121705
Link 138 204 1884 0 0.05179515
Link 139 204 1885 0 -0.14475312
Link 140 204 1886 0 0.04803134
Link 141 204 1887 0 0.32026033
Link 142 204 1888 0 -0.60168440
Link 143 204 1889 0 -0.06382943
Link 144 204 1890 0 0.02007432
Link 145 204 1891 0 0.31472470
Link 146 204 1892 0 -0.54439369
Link 147 204 1893 0 0.38348854
Link 148 204 1894 0 0.03169097
Link 149 204 1895 0 -0.54262211
Link 150 204 1896 0 -0.28930976
Link 151 204 1897 0 -0.23782751
Link 152 204 1898 0 0.30069130
Link 153 204 1899 0 -0.32965682
Link 154 204 1900 0 0.23259084
Link 155 204 1901 0 0.49235266
Link 156 204 1902 0 -0.11248406
Link 157 204 1903 0 0.33481044
Link 158 204 1904 0 0.08888976
Link 159 204 1905 0 -0.35633245
Link 160 204 1906 0 -0.38026794
Link 161 204 1907 0 -0.17739726
Link 162 204 1908 0 -0.20340194
Link 163 204 1909 0 0.36484429
Link 164 204 1910 0 0.34405130
Link 165 204 1911 0 -0.04639906
Link 166 204 1912 0 0.28168279
Link 167 204 1913 0 -0.29588810
Link 168 204 1914 0 0.29905177
Link 169 204 1915 0 0.26939915
Link 170 204 1916 0 -0.50232522
Link 171 204 1917 0 0.14992128
Link 172 204 1918 0 -0.37018588
Link 173 204 1919 0 -0.05513718
Link 174 204 1920 0 0.20325875
Link 175 204 1921 0 -0.09856703
Link 176 204 1922 0 -0.00719839
Link 177 204 1923 0 -0.63116525
Link 178 204 1924 0 -0.02491229
Link 179 204 1925 0 -0.67187053
Link 180 204 1926 0 -0.07837221
Link 181 204 1927 0 -0.35249596
Link 182 204 1928 0 0.07416514
Link 183 204 1929 0 0.23705463
Link 184 204 1930 0 -0.05180332
Link 185 204 1931 0 0.03580259
Link 186 204 1932 0 0.12882358
Link 187 204 1933 0 -0.33450087
Link 188 204 1934 0 -0.52012263
Link 189 204 1935 0 0.35655413
Link 190 204 1936 0 -0.51822745
Link 191 204 1937 0 -0.86838198
Link 192 204 1938 0 0.11191938
Link 193 204 1939 0 -0.21468317
Link 194 204 1940 0 -0.12631154
Link 1 205 1941 0 0.16339837
Link 2 205 1942 0 -0.43541002
Link 3 205 1943 0 -0.15167164
Link 4 205 1944 0 -0.26318488
Link 5 205 1945 0 -0.40315592
Link 6 205 1946 0 -0.09446324
Link 7 205 1947 0 -0.01505440
Link 8 205 1948 0 -0.19383850
Link 9 205 1949 0 -0.24660288
Link 10 205 1950 0 0.24597433
Link 11 205 1951 0 -0.64483717
Link 12 205 1952 0 -0.01955024
Link 13 205 1953 0 0.13028866
Link 14 205 1954 0 -0.00167623
Link 15 205 1955 0 0.16811825
Link 16 205 1956 0 0.56661332
Link 17 205 1957 0 0.21824111
Link 18 205 1958 0 0.15851646
Link 19 205 1959 0 0.30996340
Link 20 205 1960 0 -0.55763209
Link 21 205 1961 0 -0.11670205
Link 22 205 1962 0 -0.08053712
Link 23 205 1963 0 -0.09359040
Link 24 205 1964 0 0.11730830
Link 25 205 1965 0 0.20178940
Link 26 205 1966 0 0.28158241
Link 27 205 1967 0 -0.36496285
Link 28 205 1968 0 -0.40029726
Link 29 205 1969 0 -0.03418782
Link 30 205 1970 0 0.12649484
Link 31 205 1971 0 0.22293855
Link 32 205 1972 0 -0.31903024
Link 33 205 1973 0 0.01076777
Link 34 205 1974 0 0.18004290
Link 35 205 1975 0 -0.30140503
Link 36 205 1976 0 0.40489661
Link 37 205 1977 0 0.07338219
Link 38 205 1978 0 -0.18765326
Link 39 205 1979 0 -0.71712486
Link 40 205 1980 0 0.03814152
Link 41 205 1981 0 -0.09159325
Link 42 205 1982 0 -0.35243831
Link 43 205 1983 0 0.14399814
Link 44 205 1984 0 0.47158306
Link 45 205 1985 0 -0.05969015
Link 46 205 1986 0 -0.39917329
Link 47 205 1987 0 -0.16390497
Link 48 205 1988 0 0.27649970
Link 49 205 1989 0 -0.06927447
Link 50 205 1990 0 -0.05266049
Link 51 205 1991 0 -0.86793086
Link 52 205 1992 0 -0.33768526
Link 53 205 1993 0 -0.52668735
Link 54 205 1994 0 0.72509038
Link 55 205 1995 0 0.42118181
Link 56 205 1996 0 0.27416228
Link 57 205 1997 0 0.18050039
Link 58 205 1998 0 0.17620668
Link 59 205 1999 0 -0.25393984
Link 60 205 2000 0 0.30373275
Link 61 205 2001 0 0.17630934
Link 62 205 2002 0 0.16225486
Link 63 205 2003 0 0.21152528
Link 64 205 2004 0 0.36615531
Link 65 205 2005 0 -0.26375360
Link 66 205 2006 0 -0.31040914
Link 67 205 2007 0 -0.34813754
Link 68 205 2008 0 0.26452815
Link 69 205 2009 0 -0.30129730
Link 70 205 2010 0 0.30011138
Link 71 205 2011 0 -0.12693386
Link 72 205 2012 0 0.66417066
Link 73 205 2013 0 0.08672678
Link 74 205 2014 0 0.13469556
Link 75 205 2015 0 0.08615340
Link 76 205 2016 0 -0.27899443
Link 77 205 2017 0 0.46235190
Link 78 205 2018 0 -0.25387253
Link 79 205 2019 0 0.29071951
Link 80 205 2020 0 -0.05070322
Link 81 205 2021 0 -0.18016707
Link 82 205 2022 0 0.29922462
Link 83 205 2023 0 0.28743747
Link 84 205 2024 0 -0.15782358
Link 85 205 2025 0 -0.14749758
Link 86 205 2026 0 -0.28963945
Link 87 205 2027 0 0.07714782
Link 88 205 2028 0 -0.06715305
Link 89 205 2029 0 -0.37488345
Link 90 205 2030 0 -0.56718749
Link 91 205 2031 0 0.19351992
Link 92 205 2032 0 0.24905257
Link 93 205 2033 0 -0.47607067
Link 94 205 2034 0 0.23562347
Link 95 205 2035 0 0.21620260
Link 96 205 2036 0 0.62528615
Link 97 205 2037 0 -0.13109678
Link 98 205 2038 0 -0.82166823
Link 99 205 2039 0 -0.25209769
Link 100 205 2040 0 -0.10823428
Link 101 205 2041 0 -0.23002931
Link 102 205 2042 0 -0.49414271
Link 103 205 2043 0 -0.23015376
Link 104 205 2044 0 0.03338649
Link 105 205 2045 0 -0.04066110
Link 106 205 2046 0 0.02506776
Link 107 205 2047 0 -0.37741392
Link 108 205 2048 0 0.21902983
Link 109 205 2049 0 0.39466287
Link 110 205 2050 0 -0.25712801
Link 111 205 2051 0 -0.13510971
Link 112 205 2052 0 -0.51972271
Link 113 205 2053 0 0.75811762
Link 114 205 2054 0 -0.02919532
Link 115 205 2055 0 -0.27276670
Link 116 205 2056 0 -0.21559917
Link 117 205 2057 0 -0.28378098
Link 118 205 2058 0 0.68823181
Link 119 205 2059 0 0.23944560
Link 120 205 2060 0 -0.19628500
Link 121 205 2061 0 0.17318570
Link 122 205 2062 0 0.00755971
Link 123 205 2063 0 0.33501804
Link 124 205 2064 0 0.48161552
Link 125 205 2065 0 -0.23603074
Link 126 205 2066 0 0.23466754
Link 127 205 2067 0 0.49724073
Link 128 205 2068 0 0.18498469
Link 129 205 2069 0 0.00286391
Link 130 205 2070 0 0.38495375
Link 131 205 2071 0 0.13560947
Link 132 205 2072 0 -0.17431441
Link 133 205 2073 0 0.24072573
Link 134 205 2074 0 -0.20831107
Link 135 205 2075 0 0.14536959
Link 136 205 2076 0 -0.54143473
Link 137 205 2077 0 -0.41794094
Link 138 205 2078 0 -0.30477481
Link 139 205 2079 0 0.18660693
Link 140 205 2080 0 0.16859342
Link 141 205 2081 0 -0.60326779
Link 142 205 2082 0 0.03145563
Link 143 205 2083 0 -0.54502030
Link 144 205 2084 0 -0.55715119
Link 145 205 2085 0 0.25841451
Link 146 205 2086 0 0.18487466
Link 147 205 2087 0 0.08419351
Link 148 205 2088 0 -0.00229135
Link 149 205 2089 0 -0.19356012
Link 150 205 2090 0 -0.16692338
Link 151 205 2091 0 0.14118453
Link 152 205 2092 0 0.01717506
Link 153 205 2093 0 0.48204794
Link 154 205 2094 0 0.12264394
Link 155 205 2095 0 -0.58836279
Link 156 205 2096 0 -0.48234370
Link 157 205 2097 0 0.10180728
Link 158 205 2098 0 0.22289591
Link 159 205 2099 0 -0.07280569
Link 160 205 2100 0 0.56544352
Link 161 205 2101 0 -0.38358891
Link 162 205 2102 0 0.00152374
Link 163 205 2103 0 -0.02754467
Link 164 205 2104 0 -0.02178037
Link 165 205 2105 0 0.18246504
Link 166 205 2106 0 -0.67230620
Link 167 205 2107 0 -0.09343014
Link 168 205 2108 0 -0.49059758
Link 169 205 2109 0 0.11527450
Link 170 205 2110 0 0.45260374
Link 171 205 2111 0 -0.18771362
Link 172 205 2112 0 -0.02884811
Link 173 205 2113 0 0.24748596
Link 174 205 2114 0 0.12315928
Link 175 205 2115 0 0.42978700
Link 176 205 2116 0 0.37458553
Link 177 205 2117 0 0.22970467
Link 178 205 2118 0 0.15740662
Link 179 205 2119 0 0.19541662
Link 180 205 2120 0 0.07941839
Link 181 205 2121 0 -0.51124292
Link 182 205 2122 0 0.20617862
Link 183 205 2123 0 -0.02776466
Link 184 205 2124 0 0.19355573
Link 185 205 2125 0 0.27806473
Link 186 205 2126 0 -0.29822367
Link 187 205 2127 0 -0.60514478
Link 188 205 2128 0 0.66198996
Link 189 205 2129 0 0.08343226
Link 190 205 2130 0 -0.00437363
Link 191 205 2131 0 -0.21460122
Link 192 205 2132 0 -0.01864233
Link 193 205 2133 0 0.38484409
Link 194 205 2134 0 -0.35001851
Link 1 206 2135 0 0.14025557
Link 2 206 2136 0 -0.20136531
Link 3 206 2137 0 -0.65142021
Link 4 206 2138 0 -0.03334068
Link 5 206 2139 0 -0.11244255
Link 6 206 2140 0 0.37321929
Link 7 206 2141 0 -0.42528216
Link 8 206 2142 0 -0.36824977
Link 9 206 2143 0 0.30231381
Link 10 206 2144 0 -0.32085034
Link 11 206 2145 0 -0.23060991
Link 12 206 2146 0 -0.76966607
Link 13 206 2147 0 -0.41555879
Link 14 206 2148 0 0.09927622
Link 15 206 2149 0 -0.01200223
Link 16 206 2150 0 -0.21413557
Link 17 206 2151 0 -0.17151648
Link 18 206 2152 0 0.58716401
Link 19 206 2153 0 -0.36042165
Link 20 206 2154 0 0.05281542
Link 21 206 2155 0 0.06906153
Link 22 206 2156 0 -0.03091590
Link 23 206 2157 0 0.66053872
Link 24 206 2158 0 -0.07041135
Link 25 206 2159 0 0.35042171
Link 26 206 2160 0 -0.29168409
Link 27 206 2161 0 -0.17339004
Link 28 206 2162 0 -0.00843640
Link 29 206 2163 0 0.30200895
Link 30 206 2164 0 0.52855589
Link 31 206 2165 0 -0.03522915
Link 32 206 2166 0 0.10125990
Link 33 206 2167 0 0.01874811
Link 34 206 2168 0 0.67142867
Link 35 206 2169 0 -0.28487379
Link 36 206 2170 0 -0.19625373
Link 37 206 2171 0 -0.03348529
Link 38 206 2172 0 -0.72181099
Link 39 206 2173 0 -0.15840227
Link 40 206 2174 0 0.09449291
Link 41 206 2175 0 -0.36121278
Link 42 206 2176 0 -0.41931185
Link 43 206 2177 0 -0.02138484
Link 44 206 2178 0 -0.13696432
Link 45 206 2179 0 0.45743446
Link 46 206 2180 0 0.37861739
Link 47 206 2181 0 -0.62775251
Link 48 206 2182 0 -0.20693398
Link 49 206 2183 0 0.13058498
Link 50 206 2184 0 -0.27736530
Link 51 206 2185 0 0.34224366
Link 52 206 2186 0 -0.03589956
Link 53 206 2187 0 0.22215517
Link 54 206 2188 0 -0.58648327
Link 55 206 2189 0 -0.03065868
Link 56 206 2190 0 0.35825351
Link 57 206 2191 0 0.03933247
Link 58 206 2192 0 -0.20719346
Link 59 206 2193 0 -0.41163212
Link 60 206 2194 0 0.36745524
Link 61 206 2195 0 0.05207033
Link 62 206 2196 0 0.03928499
Link 63 206 2197 0 -0.51646016
Link 64 206 2198 0 0.25490207
Link 65 206 2199 0 0.16584374
Link 66 206 2200 0 -0.41242695
Link 67 206 2201 0 -0.66515640
Link 68 206 2202 0 0.05663628
Link 69 206 2203 0 -0.89702082
Link 70 206 2204 0 -0.15396264
Link 71 206 2205 0 0.31188376
Link 72 206 2206 0 -0.16208045
Link 73 206 2207 0 0.23829874
Link 74 206 2208 0 -0.47126980
Link 75 206 2209 0 0.23059414
Link 76 206 2210 0 -0.31482731
Link 77 206 2211 0 -0.67833723
Link 78 206 2212 0 -0.63825003
Link 79 206 2213 0 -0.38854641
Link 80 206 2214 0 -0.28660713
Link 81 206 2215 0 0.11990552
Link 82 206 2216 0 0.20091749
Link 83 206 2217 0 -0.04155474
Link 84 206 2218 0 0.53857873
Link 85 206 2219 0 0.52012053
Link 86 206 2220 0 -0.17155494
Link 87 206 2221 0 -0.85996352
Link 88 206 2222 0 0.38128178
Link 89 206 2223 0 0.09430925
Link 90 206 2224 0 -0.98333774
Link 91 206 2225 0 -0.09836834
Link 92 206 2226 0 -0.62770995
Link 93 206 2227 0 -0.17754332
Link 94 206 2228 0 -0.42134730
Link 95 206 2229 0 -0.48230674
Link 96 206 2230 0 -0.23917751
Link 97 206 2231 0 0.30892503
Link 98 206 2232 0 -0.30640314
Link 99 206 2233 0 -0.43343079
Link 100 206 2234 0 -0.24521388
Link 101 206 2235 0 -0.07378961
Link 102 206 2236 0 0.20729196
Link 103 206 2237 0 0.29322089
Link 104 206 2238 0 -0.50289656
Link 105 206 2239 0 0.15279655
Link 106 206 2240 0 0.47633998
Link 107 206 2241 0 0.05896487
Link 108 206 2242 0 0.42949749
Link 109 206 2243 0 0.26132142
Link 110 206 2244 0 -0.43303594
Link 111 206 2245 0 -0.03127954
Link 112 206 2246 0 0.05725217
Link 113 206 2247 0 0.00738684
Link 114 206 2248 0 -0.45233960
Link 115 206 2249 0 -0.29901210
Link 116 206 2250 0 -0.14372637
Link 117 206 2251 0 0.36706204
Link 118 206 2252 0 0.45796974
Link 119 206 2253 0 -0.39147980
Link 120 206 2254 0 -0.36217225
Link 121 206 2255 0 0.37372688
Link 122 206 2256 0 -0.18175039
Link 123 206 2257 0 0.08782128
Link 124 206 2258 0 -0.21542791
Link 125 206 2259 0 -0.22511918
Link 126 206 2260 0 -0.16575321
Link 127 206 2261 0 -0.20235860
Link 128 206 2262 0 0.23012861
Link 129 206 2263 0 -0.41729800
Link 130 206 2264 0 -0.73917941
Link 131 206 2265 0 -0.11580798
Link 132 206 2266 0 0.28008395
Link 133 206 2267 0 0.30681651
Link 134 206 2268 0 0.01041329
Link 135 206 2269 0 -0.23725024
Link 136 206 2270 0 0.06819096
Link 137 206 2271 0 0.82242229
Link 138 206 2272 0 -0.51766520
Link 139 206 2273 0 0.26643008
Link 140 206 2274 0 -0.02108052
Link 141 206 2275 0 0.09259157
Link 142 206 2276 0 -0.05889751
Link 143 206 2277 0 -0.04486283
Link 144 206 2278 0 0.22853262
Link 145 206 2279 0 -0.38826883
Link 146 206 2280 0 -0.08285133
Link 147 206 2281 0 -0.25377839
Link 148 206 2282 0 0.31680635
Link 149 206 2283 0 -0.18496019
Link 150 206 2284 0 -0.30746435
Link 151 206 2285 0 0.14696093
Link 152 206 2286 0 0.11113989
Link 153 206 2287 0 -0.31142944
Link 154 206 2288 0 0.02351574
Link 155 206 2289 0 0.50264739
Link 156 206 2290 0 0.16451945
Link 157 206 2291 0 -0.00866088
Link 158 206 2292 0 -0.28848020
Link 159 206 2293 0 -0.81950673
Link 160 206 2294 0 -0.43942675
Link 161 206 2295 0 -0.30653379
Link 162 206 2296 0 0.07622160
Link 163 206 2297 0 0.67025907
Link 164 206 2298 0 0.08830021
Link 165 206 2299 0 0.52390163
Link 166 206 2300 0 -0.40699540
Link 167 206 2301 0 0.58744266
Link 168 206 2302 0 -0.09186455
Link 169 206 2303 0 0.07213600
Link 170 206 2304 0 -0.14204016
Link 171 206 2305 0 0.01325177
Link 172 206 2306 0 0.01913714
Link 173 206 2307 0 -0.02439946
Link 174 206 2308 0 -0.26306457
Link 175 206 2309 0 0.30361647
Link 176 206 2310 0 -0.00382342
Link 177 206 2311 0 -0.12967941
Link 178 206 2312 0 0.36312496
Link 179 206 2313 0 0.40548986
Link 180 206 2314 0 0.07948338
Link 181 206 2315 0 0.10703880
Link 182 206 2316 0 -0.01952234
Link 183 206 2317 0 0.17414445
Link 184 206 2318 0 0.29924032
Link 185 206 2319 0 -0.38048772
Link 186 206 2320 0 -0.15401443
Link 187 206 2321 0 0.12785402
Link 188 206 2322 0 0.62628890
Link 189 206 2323 0 -0.44747714
Link 190 206 2324 0 -0.23699506
Link 191 206 2325 0 -0.39101850
Link 192 206 2326 0 0.34609338
Link 193 206 2327 0 -0.19809478
Link 194 206 2328 0 0.00043449
Link 1 207 2329 0 0.27211049
Link 2 207 2330 0 -0.37056494
Link 3 207 2331 0 0.38309433
Link 4 207 2332 0 0.02085240
Link 5 207 2333 0 -0.43323062
Link 6 207 2334 0 0.35746171
Link 7 207 2335 0 0.80759994
Link 8 207 2336 0 0.00112057
Link 9 207 2337 0 -0.60192436
Link 10 207 2338 0 0.20924176
Link 11 207 2339 0 0.01626889
Link 12 207 2340 0 -0.36221154
Link 13 207 2341 0 0.03062268
Link 14 207 2342 0 0.03967714
Link 15 207 2343 0 0.66890031
Link 16 207 2344 0 0.16903142
Link 17 207 2345 0 0.27683736
Link 18 207 2346 0 -0.08681740
Link 19 207 2347 0 0.19438200
Link 20 207 2348 0 0.26497028
Link 21 207 2349 0 -0.28024614
Link 22 207 2350 0 0.07398159
Link 23 207 2351 0 -0.66933385
Link 24 207 2352 0 -0.00587024
Link 25 207 2353 0 0.55531161
Link 26 207 2354 0 0.18043282
Link 27 207 2355 0 0.37087673
Link 28 207 2356 0 0.14957628
Link 29 207 2357 0 -0.31920271
Link 30 207 2358 0 0.22222226
Link 31 207 2359 0 -0.22498186
Link 32 207 2360 0 0.08334116
Link 33 207 2361 0 0.57085749
Link 34 207 2362 0 0.31730330
Link 35 207 2363 0 0.06090538
Link 36 207 2364 0 -0.13083582
Link 37 207 2365 0 -0.03011397
Link 38 207 2366 0 -0.13814434
Link 39 207 2367 0 0.32601540
Link 40 207 2368 0 -0.18864925
Link 41 207 2369 0 0.08282217
Link 42 207 2370 0 0.16717959
Link 43 207 2371 0 -0.43213271
Link 44 207 2372 0 -0.04337813
Link 45 207 2373 0 0.80171472
Link 46 207 2374 0 -0.39835257
Link 47 207 2375 0 -0.08027963
Link 48 207 2376 0 0.29099198
Link 49 207 2377 0 -0.14940185
Link 50 207 2378 0 0.29493273
Link 51 207 2379 0 0.07455526
Link 52 207 2380 0 -0.15048787
Link 53 207 2381 0 -0.06010640
Link 54 207 2382 0 -0.39341596
Link 55 207 2383 0 -0.35628894
Link 56 207 2384 0 -0.57695895
Link 57 207 2385 0 -0.50744564
Link 58 207 2386 0 0.33356544
Link 59 207 2387 0 0.93754680
Link 60 207 2388 0 -0.43724555
Link 61 207 2389 0 0.08552297
Link 62 207 2390 0 -0.56780941
Link 63 207 2391 0 0.07256642
Link 64 207 2392 0 0.33954251
Link 65 207 2393 0 -0.24736132
Link 66 207 2394 0 0.47792424
Link 67 207 2395 0 -0.23897078
Link 68 207 2396 0 0.54685854
Link 69 207 2397 0 0.70641179
Link 70 207 2398 0 -0.17205729
Link 71 207 2399 0 -0.02321539
Link 72 207 2400 0 0.25998566
Link 73 207 2401 0 0.46857740
Link 74 207 2402 0 -0.00172196
Link 75 207 2403 0 0.40562260
Link 76 207 2404 0 0.23595631
Link 77 207 2405 0 0.09130954
Link 78 207 2406 0 -0.50949408
Link 79 207 2407 0 -0.13120809
Link 80 207 2408 0 0.21690861
Link 81 207 2409 0 -0.39419125
Link 82 207 2410 0 -0.40933731
Link 83 207 2411 0 -0.25035040
Link 84 207 2412 0 -0.02398845
Link 85 207 2413 0 0.08388063
Link 86 207 2414 0 -0.26330524
Link 87 207 2415 0 0.31945696
Link 88 207 2416 0 0.17048028
Link 89 207 2417 0 -0.22119819
Link 90 207 2418 0 -0.02476765
Link 91 207 2419 0 -0.58644000
Link 92 207 2420 0 -0.36985176
Link 93 207 2421 0 0.29959850
Link 94 207 2422 0 0.30837539
Link 95 207 2423 0 -0.69014421
Link 96 207 2424 0 0.03093461
Link 97 207 2425 0 -0.63957310
Link 98 207 2426 0 0.02691256
Link 99 207 2427 0 -0.18999619
Link 100 207 2428 0 -0.14612830
Link 101 207 2429 0 -0.04709809
Link 102 207 2430 0 0.33348414
Link 103 207 2431 0 0.29001883
Link 104 207 2432 0 0.10088315
Link 105 207 2433 0 -0.30164663
Link 106 207 2434 0 0.31383778
Link 107 207 2435 0 0.29324287
Link 108 207 2436 0 -0.06746813
Link 109 207 2437 0 0.03426500
Link 110 207 2438 0 -0.21143136
Link 111 207 2439 0 -0.03216348
Link 112 207 2440 0 -0.24492663
Link 113 207 2441 0 0.33899718
Link 114 207 2442 0 0.27822085
Link 115 207 2443 0 -0.44852089
Link 116 207 2444 0 -0.31871815
Link 117 207 2445 0 0.21858419
Link 118 207 2446 0 -0.05122566
Link 119 207 2447 0 0.14959365
Link 120 207 2448 0 0.32158487
Link 121 207 2449 0 -0.00603075
Link 122 207 2450 0 -0.09842939
Link 123 207 2451 0 -0.07108274
Link 124 207 2452 0 -0.48354691
Link 125 207 2453 0 -0.01535134
Link 126 207 2454 0 0.04434063
Link 127 207 2455 0 -0.06396318
Link 128 207 2456 0 0.19674343
Link 129 207 2457 0 0.69235092
Link 130 207 2458 0 0.12867807
Link 131 207 2459 0 0.33029632
Link 132 207 2460 0 -0.31452437
Link 133 207 2461 0 0.04964533
Link 134 207 2462 0 0.16359017
Link 135 207 2463 0 0.03701674
Link 136 207 2464 0 0.20549239
Link 137 207 2465 0 0.24756226
Link 138 207 2466 0 0.33686881
Link 139 207 2467 0 -0.14314508
Link 140 207 2468 0 -0.62381304
Link 141 207 2469 0 -0.50445848
Link 142 207 2470 0 -0.07693738
Link 143 207 2471 0 0.29124076
Link 144 207 2472 0 -0.02824975
Link 145 207 2473 0 0.66198019
Link 146 207 2474 0 0.20012276
Link 147 207 2475 0 0.21006679
Link 148 207 2476 0 -0.20642477
Link 149 207 2477 0 0.50937413
Link 150 207 2478 0 -0.09273281
Link 151 207 2479 0 -0.37679811
Link 152 207 2480 0 -0.09317675
Link 153 207 2481 0 0.22990601
Link 154 207 2482 0 0.07719426
Link 155 207 2483 0 0.35401024
Link 156 207 2484 0 -0.13923823
Link 157 207 2485 0 -0.53153005
Link 158 207 2486 0 0.30126323
Link 159 207 2487 0 -0.11148099
Link 160 207 2488 0 0.26738636
Link 161 207 2489 0 -0.52046768
Link 162 207 2490 0 0.38043104
Link 163 207 2491 0 0.27380863
Link 164 207 2492 0 -0.28792443
Link 165 207 2493 0 0.01370412
Link 166 207 2494 0 0.02761355
Link 167 207 2495 0 0.50992540
Link 168 207 2496 0 0.07205535
Link 169 207 2497 0 -0.18378932
Link 170 207 2498 0 -0.24903559
Link 171 207 2499 0 0.07262844
Link 172 207 2500 0 0.26498542
Link 173 207 2501 0 -0.74617482
Link 174 207 2502 0 0.36969869
Link 175 207 2503 0 -0.22029784
Link 176 207 2504 0 -0.19701002
Link 177 207 2505 0 0.01258077
Link 178 207 2506 0 0.04831206
Link 179 207 2507 0 -0.26879635
Link 180 207 2508 0 0.11798179
Link 181 207 2509 0 0.04315411
Link 182 207 2510 0 0.26725409
Link 183 207 2511 0 -0.01702522
Link 184 207 2512 0 -0.45029490
Link 185 207 2513 0 -0.15393220
Link 186 207 2514 0 -0.43085183
Link 187 207 2515 0 0.25263578
Link 188 207 2516 0 0.20648792
Link 189 207 2517 0 -0.16118243
Link 190 207 2518 0 -0.37895910
Link 191 207 2519 0 -0.19586249
Link 192 207 2520 0 -0.10321901
Link 193 207 2521 0 -0.20479760
Link 194 207 2522 0 0.13358860
Link 1 208 2523 0 -0.09242140
Link 2 208 2524 0 -0.33811814
Link 3 208 2525 0 -0.05215816
Link 4 208 2526 0 0.44815679
Link 5 208 2527 0 -0.21478785
Link 6 208 2528 0 0.31968540
Link 7 208 2529 0 0.10638375
Link 8 208 2530 0 0.60617201
Link 9 208 2531 0 -0.19129655
Link 10 208 2532 0 0.23969412
Link 11 208 2533 0 0.24551857
Link 12 208 2534 0 0.03145254
Link 13 208 2535 0 0.49712407
Link 14 208 2536 0 -0.22357128
Link 15 208 2537 0 -0.05905850
Link 16 208 2538 0 0.50103516
Link 17 208 2539 0 -0.04145684
Link 18 208 2540 0 0.58436249
Link 19 208 2541 0 0.24751487
Link 20 208 2542 0 0.25171212
Link 21 208 2543 0 -0.50570019
Link 22 208 2544 0 0.05673152
Link 23 208 2545 0 -0.76416827
Link 24 208 2546 0 0.74131978
Link 25 208 2547 0 -0.09583786
Link 26 208 2548 0 0.04517631
Link 27 208 2549 0 -0.07933713
Link 28 208 2550 0 0.09346940
Link 29 208 2551 0 -0.30037396
Link 30 208 2552 0 -0.36199392
Link 31 208 2553 0 -0.13260936
Link 32 208 2554 0 -0.29852475
Link 33 208 2555 0 0.05408028
Link 34 208 2556 0 -0.60938392
Link 35 208 2557 0 -0.28616376
Link 36 208 2558 0 0.01023877
Link 37 208 2559 0 -0.04434478
Link 38 208 2560 0 0.41292037
Link 39 208 2561 0 0.49797831
Link 40 208 2562 0 -0.16206333
Link 41 208 2563 0 0.38382707
Link 42 208 2564 0 0.27220099
Link 43 208 2565 0 0.03079476
Link 44 208 2566 0 0.06918340
Link 45 208 2567 0 0.35502329
Link 46 208 2568 0 0.03104493
Link 47 208 2569 0 0.20455583
Link 48 208 2570 0 0.27239046
Link 49 208 2571 0 0.03046334
Link 50 208 2572 0 0.31386456
Link 51 208 2573 0 -0.69048208
Link 52 208 2574 0 -0.04008958
Link 53 208 2575 0 0.31822382
Link 54 208 2576 0 -0.13484480
Link 55 208 2577 0 0.04637942
Link 56 208 2578 0 0.26841376
Link 57 208 2579 0 -0.13071932
Link 58 208 2580 0 0.04194302
Link 59 208 2581 0 0.23300423
Link 60 208 2582 0 0.00685169
Link 61 208 2583 0 -0.33062835
Link 62 208 2584 0 -0.56758111
Link 63 208 2585 0 -0.13114470
Link 64 208 2586 0 0.05971752
Link 65 208 2587 0 0.13619909
Link 66 208 2588 0 0.44998256
Link 67 208 2589 0 -0.03795847
Link 68 208 2590 0 0.23169941
Link 69 208 2591 0 -0.38812754
Link 70 208 2592 0 -0.48766263
Link 71 208 2593 0 -0.11792236
Link 72 208 2594 0 0.93917153
Link 73 208 2595 0 -0.17669353
Link 74 208 2596 0 0.30511926
Link 75 208 2597 0 -0.32860045
Link 76 208 2598 0 -0.14503993
Link 77 208 2599 0 0.04332455
Link 78 208 2600 0 -0.00518957
Link 79 208 2601 0 -0.03186887
Link 80 208 2602 0 -0.23400759
Link 81 208 2603 0 0.16377545
Link 82 208 2604 0 0.16311261
Link 83 208 2605 0 -0.21838212
Link 84 208 2606 0 -0.26101977
Link 85 208 2607 0 -0.09332957
Link 86 208 2608 0 -0.48003309
Link 87 208 2609 0 -0.25572269
Link 88 208 2610 0 -0.12129118
Link 89 208 2611 0 -0.13537616
Link 90 208 2612 0 -0.35294692
Link 91 208 2613 0 -0.02808765
Link 92 208 2614 0 -0.06127280
Link 93 208 2615 0 -0.18892739
Link 94 208 2616 0 0.06511900
Link 95 208 2617 0 0.33119409
Link 96 208 2618 0 0.24294246
Link 97 208 2619 0 0.03626975
Link 98 208 2620 0 -0.06161663
Link 99 208 2621 0 0.27411617
Link 100 208 2622 0 -0.07188211
Link 101 208 2623 0 0.10736390
Link 102 208 2624 0 0.47246445
Link 103 208 2625 0 0.07989019
Link 104 208 2626 0 0.01489872
Link 105 208 2627 0 -0.24830506
Link 106 208 2628 0 0.21218881
Link 107 208 2629 0 -0.25164081
Link 108 208 2630 0 -0.03919337
Link 109 208 2631 0 -0.31100683
Link 110 208 2632 0 0.37833468
Link 111 208 2633 0 0.24559166
Link 112 208 2634 0 0.10513038
Link 113 208 2635 0 0.07335086
Link 114 208 2636 0 0.12561378
Link 115 208 2637 0 -0.41553827
Link 116 208 2638 0 0.02673539
Link 117 208 2639 0 0.40394358
Link 118 208 2640 0 -0.01208689
Link 119 208 2641 0 -0.02626869
Link 120 208 2642 0 -0.03569535
Link 121 208 2643 0 0.21891785
Link 122 208 2644 0 0.26538408
Link 123 208 2645 0 0.35465549
Link 124 208 2646 0 -0.18580038
Link 125 208 2647 0 0.19389973
Link 126 208 2648 0 0.18437543
Link 127 208 2649 0 0.41014173
Link 128 208 2650 0 -0.07101457
Link 129 208 2651 0 -0.03404010
Link 130 208 2652 0 -0.28749302
Link 131 208 2653 0 0.01982611
Link 132 208 2654 0 -0.77503155
Link 133 208 2655 0 -0.13655410
Link 134 208 2656 0 0.14698839
Link 135 208 2657 0 -0.42807764
Link 136 208 2658 0 0.27045280
Link 137 208 2659 0 -0.13105070
Link 138 208 2660 0 -0.04209418
Link 139 208 2661 0 0.08829222
Link 140 208 2662 0 0.88585475
Link 141 208 2663 0 -0.06107237
Link 142 208 2664 0 -0.01065262
Link 143 208 2665 0 0.04415343
Link 144 208 2666 0 -0.07046583
Link 145 208 2667 0 0.72662438
Link 146 208 2668 0 -0.03945675
Link 147 208 2669 0 -0.00875810
Link 148 208 2670 0 0.82715766
Link 149 208 2671 0 -0.18163212
Link 150 208 2672 0 -0.36077829
Link 151 208 2673 0 0.48344049
Link 152 208 2674 0 -0.32847230
Link 153 208 2675 0 -0.41794567
Link 154 208 2676 0 0.14285811
Link 155 208 2677 0 -0.70302347
Link 156 208 2678 0 -0.07535508
Link 157 208 2679 0 0.09485090
Link 158 208 2680 0 -0.20753885
Link 159 208 2681 0 -0.24915588
Link 160 208 2682 0 -0.70673159
Link 161 208 2683 0 -0.01025861
Link 162 208 2684 0 -0.12575401
Link 163 208 2685 0 -0.11130143
Link 164 208 2686 0 -0.44773713
Link 165 208 2687 0 0.33569142
Link 166 208 2688 0 0.03979553
Link 167 208 2689 0 0.40660066
Link 168 208 2690 0 -0.10875153
Link 169 208 2691 0 0.21056311
Link 170 208 2692 0 0.35018728
Link 171 208 2693 0 0.44326412
Link 172 208 2694 0 0.33162655
Link 173 208 2695 0 -0.94034465
Link 174 208 2696 0 -0.39543759
Link 175 208 2697 0 -0.39606940
Link 176 208 2698 0 0.70202313
Link 177 208 2699 0 0.06906482
Link 178 208 2700 0 0.53874928
Link 179 208 2701 0 -0.04041273
Link 180 208 2702 0 0.34508779
Link 181 208 2703 0 -0.75154178
Link 182 208 2704 0 0.44725954
Link 183 208 2705 0 0.16798732
Link 184 208 2706 0 0.11693896
Link 185 208 2707 0 -0.60526669
Link 186 208 2708 0 -0.27548642
Link 187 208 2709 0 -0.11064188
Link 188 208 2710 0 0.12131806
Link 189 208 2711 0 0.82779515
Link 190 208 2712 0 -0.01911280
Link 191 208 2713 0 0.15981695
Link 192 208 2714 0 0.39007352
Link 193 208 2715 0 -0.16312483
Link 194 208 2716 0 -0.02749451
Link 1 209 2717 0 -0.29513264
Link 2 209 2718 0 0.89009584
Link 3 209 2719 0 -0.43500454
Link 4 209 2720 0 0.15380297
Link 5 209 2721 0 -0.51824036
Link 6 209 2722 0 0.16570584
Link 7 209 2723 0 0.04764810
Link 8 209 2724 0 0.10204556
Link 9 209 2725 0 -0.16174405
Link 10 209 2726 0 0.46437982
Link 11 209 2727 0 0.20492470
Link 12 209 2728 0 0.03847744
Link 13 209 2729 0 -0.03501041
Link 14 209 2730 0 0.49609519
Link 15 209 2731 0 0.39491624
Link 16 209 2732 0 -0.02042046
Link 17 209 2733 0 -0.14736447
Link 18 209 2734 0 0.08293070
Link 19 209 2735 0 0.58067551
Link 20 209 2736 0 0.01308913
Link 21 209 2737 0 -0.07424614
Link 22 209 2738 0 -0.09611452
Link 23 209 2739 0 -0.02526660
Link 24 209 2740 0 -0.02062705
Link 25 209 2741 0 0.39406575
Link 26 209 2742 0 -0.36734747
Link 27 209 2743 0 0.08299469
Link 28 209 2744 0 -0.42831835
Link 29 209 2745 0 -0.18978051
Link 30 209 2746 0 0.14831116
Link 31 209 2747 0 -0.59470317
Link 32 209 2748 0 -0.12984741
Link 33 209 2749 0 -0.20658092
Link 34 209 2750 0 0.22344290
Link 35 209 2751 0 -0.96348215
Link 36 209 2752 0 -0.45875092
Link 37 209 2753 0 -0.35973303
Link 38 209 2754 0 0.63177290
Link 39 209 2755 0 0.00575169
Link 40 209 2756 0 -0.09108515
Link 41 209 2757 0 -0.07839564
Link 42 209 2758 0 0.43033627
Link 43 209 2759 0 0.37540015
Link 44 209 2760 0 -0.85275004
Link 45 209 2761 0 0.42765759
Link 46 209 2762 0 -0.01347775
Link 47 209 2763 0 -0.08366467
Link 48 209 2764 0 0.42058690
Link 49 209 2765 0 0.28675993
Link 50 209 2766 0 -0.45183849
Link 51 209 2767 0 -0.11993960
Link 52 209 2768 0 0.02364928
Link 53 209 2769 0 0.40422703
Link 54 209 2770 0 0.11697804
Link 55 209 2771 0 0.57703695
Link 56 209 2772 0 0.17530311
Link 57 209 2773 0 0.06746148
Link 58 209 2774 0 -0.00830462
Link 59 209 2775 0 -0.33392955
Link 60 209 2776 0 0.20510002
Link 61 209 2777 0 -0.35341262
Link 62 209 2778 0 -0.46706726
Link 63 209 2779 0 0.25837298
Link 64 209 2780 0 -0.39469165
Link 65 209 2781 0 -0.10948787
Link 66 209 2782 0 -0.61325059
Link 67 209 2783 0 0.08726179
Link 68 209 2784 0 0.03234385
Link 69 209 2785 0 -0.18076971
Link 70 209 2786 0 -0.06269163
Link 71 209 2787 0 0.29598387
Link 72 209 2788 0 0.04316402
Link 73 209 2789 0 -0.57439601
Link 74 209 2790 0 -0.11373319
Link 75 209 2791 0 0.23118353
Link 76 209 2792 0 0.10278745
Link 77 209 2793 0 0.13156400
Link 78 209 2794 0 -0.46622636
Link 79 209 2795 0 -0.04882073
Link 80 209 2796 0 -0.45813741
Link 81 209 2797 0 -0.60079911
