GenomeStart 2100
Neuron 1 1 0.00000000 1 0.00000000 0.00000000 0.00000000 0.00000000
Neuron 2 1 0.00000000 1 0.00000000 0.00000000 0.00000000 0.00000000
Neuron 3 1 0.00000000 1 0.00000000 0.00000000 0.00000000 0.00000000
Neuron 4 1 0.00000000 1 0.00000000 0.00000000 0.00000000 0.00000000
Neuron 5 1 0.00000000 1 0.00000000 0.00000000 0.00000000 0.00000000
Neuron 6 1 0.00000000 1 0.00000000 0.00000000 0.00000000 0.00000000
Neuron 7 1 0.00000000 1 0.00000000 0.00000000 0.00000000 0.00000000
Neuron 8 1 0.00000000 1 0.00000000 0.00000000 0.00000000 0.00000000
Neuron 9 1 0.00000000 1 0.00000000 0.00000000 0.00000000 0.00000000
Neuron 10 1 0.00000000 1 0.00000000 0.00000000 0.00000000 0.00000000
Neuron 11 1 0.00000000 1 0.00000000 0.00000000 0.00000000 0.00000000
Neuron 12 1 0.00000000 1 0.00000000 0.00000000 0.00000000 0.00000000
Neuron 13 1 0.00000000 1 0.00000000 0.00000000 0.00000000 0.00000000
Neuron 14 1 0.00000000 1 0.00000000 0.00000000 0.00000000 0.00000000
Neuron 15 1 0.00000000 1 0.00000000 0.00000000 0.00000000 0.00000000
Neuron 16 1 0.00000000 1 0.00000000 0.00000000 0.00000000 0.00000000
Neuron 17 1 0.00000000 1 0.00000000 0.00000000 0.00000000 0.00000000
Neuron 18 1 0.00000000 1 0.00000000 0.00000000 0.00000000 0.00000000
Neuron 19 1 0.00000000 1 0.00000000 0.00000000 0.00000000 0.00000000
Neuron 20 1 0.00000000 1 0.00000000 0.00000000 0.00000000 0.00000000
Neuron 21 1 0.00000000 1 0.00000000 0.00000000 0.00000000 0.00000000
Neuron 22 1 0.00000000 1 0.00000000 0.00000000 0.00000000 0.00000000
Neuron 23 1 0.00000000 1 0.00000000 0.00000000 0.00000000 0.00000000
Neuron 24 1 0.00000000 1 0.00000000 0.00000000 0.00000000 0.00000000
Neuron 25 1 0.00000000 1 0.00000000 0.00000000 0.00000000 0.00000000
Neuron 26 1 0.00000000 1 0.00000000 0.00000000 0.00000000 0.00000000
Neuron 27 1 0.00000000 1 0.00000000 0.00000000 0.00000000 0.00000000
Neuron 28 1 0.00000000 1 0.00000000 0.00000000 0.00000000 0.00000000
Neuron 29 1 0.00000000 1 0.00000000 0.00000000 0.00000000 0.00000000
Neuron 30 1 0.00000000 1 0.00000000 0.00000000 0.00000000 0.00000000
Neuron 31 1 0.00000000 1 0.00000000 0.00000000 0.00000000 0.00000000
Neuron 32 1 0.00000000 1 0.00000000 0.00000000 0.00000000 0.00000000
Neuron 33 1 0.00000000 1 0.00000000 0.00000000 0.00000000 0.00000000
Neuron 34 1 0.00000000 1 0.00000000 0.00000000 0.00000000 0.00000000
Neuron 35 1 0.00000000 1 0.00000000 0.00000000 0.00000000 0.00000000
Neuron 36 1 0.00000000 1 0.00000000 0.00000000 0.00000000 0.00000000
Neuron 37 1 0.00000000 1 0.00000000 0.00000000 0.00000000 0.00000000
Neuron 38 1 0.00000000 1 0.00000000 0.00000000 0.00000000 0.00000000
Neuron 39 1 0.00000000 1 0.00000000 0.00000000 0.00000000 0.00000000
Neuron 40 1 0.00000000 1 0.00000000 0.00000000 0.00000000 0.00000000
Neuron 41 1 0.00000000 1 0.00000000 0.00000000 0.00000000 0.00000000
Neuron 42 1 0.00000000 1 0.00000000 0.00000000 0.00000000 0.00000000
Neuron 43 1 0.00000000 1 0.00000000 0.00000000 0.00000000 0.00000000
Neuron 44 1 0.00000000 1 0.00000000 0.00000000 0.00000000 0.00000000
Neuron 45 1 0.00000000 1 0.00000000 0.00000000 0.00000000 0.00000000
Neuron 46 1 0.00000000 1 0.00000000 0.00000000 0.00000000 0.00000000
Neuron 47 1 0.00000000 1 0.00000000 0.00000000 0.00000000 0.00000000
Neuron 48 1 0.00000000 1 0.00000000 0.00000000 0.00000000 0.00000000
Neuron 49 1 0.00000000 1 0.00000000 0.00000000 0.00000000 0.00000000
Neuron 50 1 0.00000000 1 0.00000000 0.00000000 0.00000000 0.00000000
Neuron 51 1 0.00000000 1 0.00000000 0.00000000 0.00000000 0.00000000
Neuron 52 1 0.00000000 1 0.00000000 0.00000000 0.00000000 0.00000000
Neuron 53 1 0.00000000 1 0.00000000 0.00000000 0.00000000 0.00000000
Neuron 54 1 0.00000000 1 0.00000000 0.00000000 0.00000000 0.00000000
Neuron 55 1 0.00000000 1 0.00000000 0.00000000 0.00000000 0.00000000
Neuron 56 1 0.00000000 1 0.00000000 0.00000000 0.00000000 0.00000000
Neuron 57 1 0.00000000 1 0.00000000 0.00000000 0.00000000 0.00000000
Neuron 58 1 0.00000000 1 0.00000000 0.00000000 0.00000000 0.00000000
Neuron 59 1 0.00000000 1 0.00000000 0.00000000 0.00000000 0.00000000
Neuron 60 1 0.00000000 1 0.00000000 0.00000000 0.00000000 0.00000000
Neuron 61 1 0.00000000 1 0.00000000 0.00000000 0.00000000 0.00000000
Neuron 62 1 0.00000000 1 0.00000000 0.00000000 0.00000000 0.00000000
Neuron 63 1 0.00000000 1 0.00000000 0.00000000 0.00000000 0.00000000
Neuron 64 1 0.00000000 1 0.00000000 0.00000000 0.00000000 0.00000000
Neuron 65 1 0.00000000 1 0.00000000 0.00000000 0.00000000 0.00000000
Neuron 66 1 0.00000000 1 0.00000000 0.00000000 0.00000000 0.00000000
Neuron 67 1 0.00000000 1 0.00000000 0.00000000 0.00000000 0.00000000
Neuron 68 1 0.00000000 1 0.00000000 0.00000000 0.00000000 0.00000000
Neuron 69 1 0.00000000 1 0.00000000 0.00000000 0.00000000 0.00000000
Neuron 70 1 0.00000000 1 0.00000000 0.00000000 0.00000000 0.00000000
Neuron 71 1 0.00000000 1 0.00000000 0.00000000 0.00000000 0.00000000
Neuron 72 1 0.00000000 1 0.00000000 0.00000000 0.00000000 0.00000000
Neuron 73 1 0.00000000 1 0.00000000 0.00000000 0.00000000 0.00000000
Neuron 74 1 0.00000000 1 0.00000000 0.00000000 0.00000000 0.00000000
Neuron 75 1 0.00000000 1 0.00000000 0.00000000 0.00000000 0.00000000
Neuron 76 1 0.00000000 1 0.00000000 0.00000000 0.00000000 0.00000000
Neuron 77 1 0.00000000 1 0.00000000 0.00000000 0.00000000 0.00000000
Neuron 78 1 0.00000000 1 0.00000000 0.00000000 0.00000000 0.00000000
Neuron 79 1 0.00000000 1 0.00000000 0.00000000 0.00000000 0.00000000
Neuron 80 1 0.00000000 1 0.00000000 0.00000000 0.00000000 0.00000000
Neuron 81 1 0.00000000 1 0.00000000 0.00000000 0.00000000 0.00000000
Neuron 82 1 0.00000000 1 0.00000000 0.00000000 0.00000000 0.00000000
Neuron 83 1 0.00000000 1 0.00000000 0.00000000 0.00000000 0.00000000
Neuron 84 1 0.00000000 1 0.00000000 0.00000000 0.00000000 0.00000000
Neuron 85 1 0.00000000 1 0.00000000 0.00000000 0.00000000 0.00000000
Neuron 86 1 0.00000000 1 0.00000000 0.00000000 0.00000000 0.00000000
Neuron 87 1 0.00000000 1 0.00000000 0.00000000 0.00000000 0.00000000
Neuron 88 1 0.00000000 1 0.00000000 0.00000000 0.00000000 0.00000000
Neuron 89 1 0.00000000 1 0.00000000 0.00000000 0.00000000 0.00000000
Neuron 90 1 0.00000000 1 0.00000000 0.00000000 0.00000000 0.00000000
Neuron 91 1 0.00000000 1 0.00000000 0.00000000 0.00000000 0.00000000
Neuron 92 1 0.00000000 1 0.00000000 0.00000000 0.00000000 0.00000000
Neuron 93 1 0.00000000 1 0.00000000 0.00000000 0.00000000 0.00000000
Neuron 94 1 0.00000000 1 0.00000000 0.00000000 0.00000000 0.00000000
Neuron 95 1 0.00000000 1 0.00000000 0.00000000 0.00000000 0.00000000
Neuron 96 1 0.00000000 1 0.00000000 0.00000000 0.00000000 0.00000000
Neuron 97 1 0.00000000 1 0.00000000 0.00000000 0.00000000 0.00000000
Neuron 98 1 0.00000000 1 0.00000000 0.00000000 0.00000000 0.00000000
Neuron 99 1 0.00000000 1 0.00000000 0.00000000 0.00000000 0.00000000
Neuron 100 1 0.00000000 1 0.00000000 0.00000000 0.00000000 0.00000000
Neuron 101 1 0.00000000 1 0.00000000 0.00000000 0.00000000 0.00000000
Neuron 102 1 0.00000000 1 0.00000000 0.00000000 0.00000000 0.00000000
Neuron 103 1 0.00000000 1 0.00000000 0.00000000 0.00000000 0.00000000
Neuron 104 1 0.00000000 1 0.00000000 0.00000000 0.00000000 0.00000000
Neuron 105 1 0.00000000 1 0.00000000 0.00000000 0.00000000 0.00000000
Neuron 106 1 0.00000000 1 0.00000000 0.00000000 0.00000000 0.00000000
Neuron 107 1 0.00000000 1 0.00000000 0.00000000 0.00000000 0.00000000
Neuron 108 1 0.00000000 1 0.00000000 0.00000000 0.00000000 0.00000000
Neuron 109 1 0.00000000 1 0.00000000 0.00000000 0.00000000 0.00000000
Neuron 110 1 0.00000000 1 0.00000000 0.00000000 0.00000000 0.00000000
Neuron 111 1 0.00000000 1 0.00000000 0.00000000 0.00000000 0.00000000
Neuron 112 1 0.00000000 1 0.00000000 0.00000000 0.00000000 0.00000000
Neuron 113 1 0.00000000 1 0.00000000 0.00000000 0.00000000 0.00000000
Neuron 114 1 0.00000000 1 0.00000000 0.00000000 0.00000000 0.00000000
Neuron 115 1 0.00000000 1 0.00000000 0.00000000 0.00000000 0.00000000
Neuron 116 1 0.00000000 1 0.00000000 0.00000000 0.00000000 0.00000000
Neuron 117 1 0.00000000 1 0.00000000 0.00000000 0.00000000 0.00000000
Neuron 118 1 0.00000000 1 0.00000000 0.00000000 0.00000000 0.00000000
Neuron 119 1 0.00000000 1 0.00000000 0.00000000 0.00000000 0.00000000
Neuron 120 1 0.00000000 1 0.00000000 0.00000000 0.00000000 0.00000000
Neuron 121 1 0.00000000 1 0.00000000 0.00000000 0.00000000 0.00000000
Neuron 122 1 0.00000000 1 0.00000000 0.00000000 0.00000000 0.00000000
Neuron 123 1 0.00000000 1 0.00000000 0.00000000 0.00000000 0.00000000
Neuron 124 1 0.00000000 1 0.00000000 0.00000000 0.00000000 0.00000000
Neuron 125 1 0.00000000 1 0.00000000 0.00000000 0.00000000 0.00000000
Neuron 126 1 0.00000000 1 0.00000000 0.00000000 0.00000000 0.00000000
Neuron 127 1 0.00000000 1 0.00000000 0.00000000 0.00000000 0.00000000
Neuron 128 1 0.00000000 1 0.00000000 0.00000000 0.00000000 0.00000000
Neuron 129 1 0.00000000 1 0.00000000 0.00000000 0.00000000 0.00000000
Neuron 130 1 0.00000000 1 0.00000000 0.00000000 0.00000000 0.00000000
Neuron 131 1 0.00000000 1 0.00000000 0.00000000 0.00000000 0.00000000
Neuron 132 1 0.00000000 1 0.00000000 0.00000000 0.00000000 0.00000000
Neuron 133 1 0.00000000 1 0.00000000 0.00000000 0.00000000 0.00000000
Neuron 134 1 0.00000000 1 0.00000000 0.00000000 0.00000000 0.00000000
Neuron 135 1 0.00000000 1 0.00000000 0.00000000 0.00000000 0.00000000
Neuron 136 1 0.00000000 1 0.00000000 0.00000000 0.00000000 0.00000000
Neuron 137 1 0.00000000 1 0.00000000 0.00000000 0.00000000 0.00000000
Neuron 138 1 0.00000000 1 0.00000000 0.00000000 0.00000000 0.00000000
Neuron 139 1 0.00000000 1 0.00000000 0.00000000 0.00000000 0.00000000
Neuron 140 1 0.00000000 1 0.00000000 0.00000000 0.00000000 0.00000000
Neuron 141 1 0.00000000 1 0.00000000 0.00000000 0.00000000 0.00000000
Neuron 142 1 0.00000000 1 0.00000000 0.00000000 0.00000000 0.00000000
Neuron 143 1 0.00000000 1 0.00000000 0.00000000 0.00000000 0.00000000
Neuron 144 1 0.00000000 1 0.00000000 0.00000000 0.00000000 0.00000000
Neuron 145 1 0.00000000 1 0.00000000 0.00000000 0.00000000 0.00000000
Neuron 146 1 0.00000000 1 0.00000000 0.00000000 0.00000000 0.00000000
Neuron 147 1 0.00000000 1 0.00000000 0.00000000 0.00000000 0.00000000
Neuron 148 1 0.00000000 1 0.00000000 0.00000000 0.00000000 0.00000000
Neuron 149 1 0.00000000 1 0.00000000 0.00000000 0.00000000 0.00000000
Neuron 150 1 0.00000000 1 0.00000000 0.00000000 0.00000000 0.00000000
Neuron 151 1 0.00000000 1 0.00000000 0.00000000 0.00000000 0.00000000
Neuron 152 1 0.00000000 1 0.00000000 0.00000000 0.00000000 0.00000000
Neuron 153 1 0.00000000 1 0.00000000 0.00000000 0.00000000 0.00000000
Neuron 154 1 0.00000000 1 0.00000000 0.00000000 0.00000000 0.00000000
Neuron 155 1 0.00000000 1 0.00000000 0.00000000 0.00000000 0.00000000
Neuron 156 1 0.00000000 1 0.00000000 0.00000000 0.00000000 0.00000000
Neuron 157 1 0.00000000 1 0.00000000 0.00000000 0.00000000 0.00000000
Neuron 158 1 0.00000000 1 0.00000000 0.00000000 0.00000000 0.00000000
Neuron 159 1 0.00000000 1 0.00000000 0.00000000 0.00000000 0.00000000
Neuron 160 1 0.00000000 1 0.00000000 0.00000000 0.00000000 0.00000000
Neuron 161 1 0.00000000 1 0.00000000 0.00000000 0.00000000 0.00000000
Neuron 162 1 0.00000000 1 0.00000000 0.00000000 0.00000000 0.00000000
Neuron 163 1 0.00000000 1 0.00000000 0.00000000 0.00000000 0.00000000
Neuron 164 1 0.00000000 1 0.00000000 0.00000000 0.00000000 0.00000000
Neuron 165 1 0.00000000 1 0.00000000 0.00000000 0.00000000 0.00000000
Neuron 166 1 0.00000000 1 0.00000000 0.00000000 0.00000000 0.00000000
Neuron 167 1 0.00000000 1 0.00000000 0.00000000 0.00000000 0.00000000
Neuron 168 1 0.00000000 1 0.00000000 0.00000000 0.00000000 0.00000000
Neuron 169 1 0.00000000 1 0.00000000 0.00000000 0.00000000 0.00000000
Neuron 170 1 0.00000000 1 0.00000000 0.00000000 0.00000000 0.00000000
Neuron 171 1 0.00000000 1 0.00000000 0.00000000 0.00000000 0.00000000
Neuron 172 1 0.00000000 1 0.00000000 0.00000000 0.00000000 0.00000000
Neuron 173 1 0.00000000 1 0.00000000 0.00000000 0.00000000 0.00000000
Neuron 174 1 0.00000000 1 0.00000000 0.00000000 0.00000000 0.00000000
Neuron 175 1 0.00000000 1 0.00000000 0.00000000 0.00000000 0.00000000
Neuron 176 1 0.00000000 1 0.00000000 0.00000000 0.00000000 0.00000000
Neuron 177 1 0.00000000 1 0.00000000 0.00000000 0.00000000 0.00000000
Neuron 178 1 0.00000000 1 0.00000000 0.00000000 0.00000000 0.00000000
Neuron 179 1 0.00000000 1 0.00000000 0.00000000 0.00000000 0.00000000
Neuron 180 1 0.00000000 1 0.00000000 0.00000000 0.00000000 0.00000000
Neuron 181 1 0.00000000 1 0.00000000 0.00000000 0.00000000 0.00000000
Neuron 182 1 0.00000000 1 0.00000000 0.00000000 0.00000000 0.00000000
Neuron 183 1 0.00000000 1 0.00000000 0.00000000 0.00000000 0.00000000
Neuron 184 1 0.00000000 1 0.00000000 0.00000000 0.00000000 0.00000000
Neuron 185 1 0.00000000 1 0.00000000 0.00000000 0.00000000 0.00000000
Neuron 186 1 0.00000000 1 0.00000000 0.00000000 0.00000000 0.00000000
Neuron 187 1 0.00000000 1 0.00000000 0.00000000 0.00000000 0.00000000
Neuron 188 1 0.00000000 1 0.00000000 0.00000000 0.00000000 0.00000000
Neuron 189 1 0.00000000 1 0.00000000 0.00000000 0.00000000 0.00000000
Neuron 190 1 0.00000000 1 0.00000000 0.00000000 0.00000000 0.00000000
Neuron 191 1 0.00000000 1 0.00000000 0.00000000 0.00000000 0.00000000
Neuron 192 1 0.00000000 1 0.00000000 0.00000000 0.00000000 0.00000000
Neuron 193 1 0.00000000 1 0.00000000 0.00000000 0.00000000 0.00000000
Neuron 194 2 0.00000000 1 0.00000000 0.00000000 0.00000000 0.00000000
Neuron 195 4 1.00000000 0 1.00000000 0.00000000 0.00000000 0.28558896
Neuron 196 4 1.00000000 1 1.00000000 0.00000000 0.00000000 0.63585167
Neuron 197 4 1.00000000 0 1.00000000 0.00000000 0.00000000 -0.49585644
Neuron 198 4 1.00000000 0 1.00000000 0.00000000 0.00000000 0.65099135
Neuron 199 4 1.00000000 0 1.00000000 0.00000000 0.00000000 -0.59429440
Neuron 200 4 1.00000000 0 1.00000000 0.00000000 0.00000000 0.35102820
Neuron 201 4 1.00000000 0 1.00000000 0.00000000 0.00000000 -0.63489722
Neuron 202 4 1.00000000 1 1.00000000 0.00000000 0.00000000 -0.50409404
Neuron 203 4 1.00000000 0 1.00000000 0.00000000 0.00000000 0.20192745
Neuron 204 4 1.00000000 1 1.00000000 0.00000000 0.00000000 0.46093203
Neuron 205 4 1.00000000 0 1.00000000 0.00000000 0.00000000 0.43147647
Neuron 206 4 1.00000000 0 1.00000000 0.00000000 0.00000000 -0.38453143
Neuron 207 4 1.00000000 0 1.00000000 0.00000000 0.00000000 0.11304514
Neuron 208 4 1.00000000 0 1.00000000 0.00000000 0.00000000 -0.20077915
Neuron 209 4 1.00000000 0 1.00000000 0.00000000 0.00000000 0.33431705
Link 1 195 1 0 0.64251486
Link 2 195 2 0 -0.34947780
Link 3 195 3 0 -0.31521832
Link 4 195 4 0 0.16235653
Link 5 195 5 0 0.01690204
Link 6 195 6 0 -0.32180348
Link 7 195 7 0 -0.15010217
Link 8 195 8 0 0.37627026
Link 9 195 9 0 0.46550301
Link 10 195 10 0 -0.08274816
Link 11 195 11 0 0.02672268
Link 12 195 12 0 -0.14412449
Link 13 195 13 0 -0.26569158
Link 14 195 14 0 0.00255109
Link 15 195 15 0 0.33338444
Link 16 195 16 0 0.12953184
Link 17 195 17 0 0.29465908
Link 18 195 18 0 0.34198998
Link 19 195 19 0 0.26086612
Link 20 195 20 0 -0.01339335
Link 21 195 21 0 -0.11022273
Link 22 195 22 0 0.28749650
Link 23 195 23 0 0.00299399
Link 24 195 24 0 -0.63439047
Link 25 195 25 0 -0.22338420
Link 26 195 26 0 0.04747173
Link 27 195 27 0 -0.07006162
Link 28 195 28 0 0.15516730
Link 29 195 29 0 0.02372646
Link 30 195 30 0 -0.09788308
Link 31 195 31 0 0.09327553
Link 32 195 32 0 0.05385180
Link 33 195 33 0 -0.05277436
Link 34 195 34 0 -0.21504954
Link 35 195 35 0 0.12344033
Link 36 195 36 0 0.15217263
Link 37 195 37 0 0.07472428
Link 38 195 38 0 0.44100469
Link 39 195 39 0 -0.45777177
Link 40 195 40 0 0.22235795
Link 41 195 41 0 0.23152201
Link 42 195 42 0 0.22901350
Link 43 195 43 0 -0.22992876
Link 44 195 44 0 0.08870588
Link 45 195 45 0 0.65239780
Link 46 195 46 0 0.51748170
Link 47 195 47 0 0.25522186
Link 48 195 48 0 0.47979863
Link 49 195 49 0 -0.37815089
Link 50 195 50 0 -0.39783195
Link 51 195 51 0 0.82537997
Link 52 195 52 0 -0.05423155
Link 53 195 53 0 -0.26606354
Link 54 195 54 0 0.19208424
Link 55 195 55 0 0.16981803
Link 56 195 56 0 -0.00669175
Link 57 195 57 0 -0.02218741
Link 58 195 58 0 -0.04750819
Link 59 195 59 0 0.31124068
Link 60 195 60 0 0.02998217
Link 61 195 61 0 -0.77936055
Link 62 195 62 0 0.12145601
Link 63 195 63 0 -0.07687162
Link 64 195 64 0 0.22745605
Link 65 195 65 0 -0.15688118
Link 66 195 66 0 -0.07128041
Link 67 195 67 0 -0.19477574
Link 68 195 68 0 -0.15839533
Link 69 195 69 0 -0.19609430
Link 70 195 70 0 -0.23094838
Link 71 195 71 0 -0.30342251
Link 72 195 72 0 0.40905489
Link 73 195 73 0 0.05635978
Link 74 195 74 0 0.10363110
Link 75 195 75 0 0.40910859
Link 76 195 76 0 -0.14954540
Link 77 195 77 0 -0.00359985
Link 78 195 78 0 0.23291907
Link 79 195 79 0 -0.38915180
Link 80 195 80 0 0.23534820
Link 81 195 81 0 0.43228052
Link 82 195 82 0 -0.08293549
Link 83 195 83 0 -0.14766679
Link 84 195 84 0 0.28758282
Link 85 195 85 0 0.18196679
Link 86 195 86 0 -0.53118503
Link 87 195 87 0 0.26166709
Link 88 195 88 0 -0.43035929
Link 89 195 89 0 0.13844634
Link 90 195 90 0 -0.28352264
Link 91 195 91 0 0.37706171
Link 92 195 92 0 0.07883746
Link 93 195 93 0 0.09320432
Link 94 195 94 0 -0.13981365
Link 95 195 95 0 -0.27802779
Link 96 195 96 0 -0.11896866
Link 97 195 97 0 0.10172702
Link 98 195 98 0 -0.01726487
Link 99 195 99 0 0.08764643
Link 100 195 100 0 -0.01199176
Link 101 195 101 0 0.01380424
Link 102 195 102 0 0.21186648
Link 103 195 103 0 0.48208879
Link 104 195 104 0 0.19406759
Link 105 195 105 0 0.75966838
Link 106 195 106 0 -0.31604775
Link 107 195 107 0 -0.19637016
Link 108 195 108 0 0.16723523
Link 109 195 109 0 -0.06981859
Link 110 195 110 0 0.46781517
Link 111 195 111 0 0.09660522
Link 112 195 112 0 0.44135307
Link 113 195 113 0 -0.01552515
Link 114 195 114 0 0.48021156
Link 115 195 115 0 0.17503067
Link 116 195 116 0 0.65565438
Link 117 195 117 0 -0.14039240
Link 118 195 118 0 0.39716657
Link 119 195 119 0 0.12479886
Link 120 195 120 0 0.48359486
Link 121 195 121 0 -0.19230661
Link 122 195 122 0 -0.12932267
Link 123 195 123 0 0.47229959
Link 124 195 124 0 -0.17513786
Link 125 195 125 0 -0.13604813
Link 126 195 126 0 -0.12860691
Link 127 195 127 0 -0.18204742
Link 128 195 128 0 -0.13747933
Link 129 195 129 0 0.18478841
Link 130 195 130 0 -0.13424539
Link 131 195 131 0 -0.05980074
Link 132 195 132 0 0.19728089
Link 133 195 133 0 -0.07499464
Link 134 195 134 0 -0.32279944
Link 135 195 135 0 0.43133117
Link 136 195 136 0 0.26246252
Link 137 195 137 0 0.03305226
Link 138 195 138 0 0.09617378
Link 139 195 139 0 -0.05286692
Link 140 195 140 0 0.14560259
Link 141 195 141 0 -0.74486722
Link 142 195 142 0 -0.56965893
Link 143 195 143 0 0.12581777
Link 144 195 144 0 0.24462544
Link 145 195 145 0 -0.19292592
Link 146 195 146 0 0.30813107
Link 147 195 147 0 0.00446996
Link 148 195 148 0 -0.03984586
Link 149 195 149 0 0.29653296
Link 150 195 150 0 0.13339192
Link 151 195 151 0 -0.18045444
Link 152 195 152 0 0.29437295
Link 153 195 153 0 -0.12936316
Link 154 195 154 0 -0.08096153
Link 155 195 155 0 0.07351267
Link 156 195 156 0 0.16028428
Link 157 195 157 0 -0.37397192
Link 158 195 158 0 0.18242074
Link 159 195 159 0 0.26601323
Link 160 195 160 0 -0.15601835
Link 161 195 161 0 0.50647011
Link 162 195 162 0 0.71660271
Link 163 195 163 0 0.33039189
Link 164 195 164 0 0.32506508
Link 165 195 165 0 0.34867451
Link 166 195 166 0 0.12113540
Link 167 195 167 0 -0.13568526
Link 168 195 168 0 0.29443672
Link 169 195 169 0 -0.17721454
Link 170 195 170 0 -0.21194109
Link 171 195 171 0 0.26650270
Link 172 195 172 0 0.21816166
Link 173 195 173 0 -0.02142848
Link 174 195 174 0 -0.20179580
Link 175 195 175 0 -0.83084503
Link 176 195 176 0 0.28879942
Link 177 195 177 0 -0.00370633
Link 178 195 178 0 -0.39455104
Link 179 195 179 0 0.12036678
Link 180 195 180 0 0.09315232
Link 181 195 181 0 0.33864821
Link 182 195 182 0 -0.47093086
Link 183 195 183 0 0.22142667
Link 184 195 184 0 0.10244515
Link 185 195 185 0 -0.20127716
Link 186 195 186 0 -0.36992151
Link 187 195 187 0 -0.41822066
Link 188 195 188 0 -0.34025195
Link 189 195 189 0 0.47517949
Link 190 195 190 0 -0.30494976
Link 191 195 191 0 0.36490481
Link 192 195 192 0 -0.28234912
Link 193 195 193 0 0.46691335
Link 194 195 194 0 -0.43327784
Link 1 196 195 0 0.23573499
Link 2 196 196 0 -0.13754849
Link 3 196 197 0 0.26534751
Link 4 196 198 0 -0.36482920
Link 5 196 199 0 0.00675375
Link 6 196 200 0 -0.32016469
Link 7 196 201 0 -0.33969127
Link 8 196 202 0 -0.10797266
Link 9 196 203 0 0.33639246
Link 10 196 204 0 -0.18204220
Link 11 196 205 0 -0.08108913
Link 12 196 206 0 0.43605132
Link 13 196 207 0 -0.09929727
Link 14 196 208 0 -0.32575346
Link 15 196 209 0 0.04127943
Link 16 196 210 0 0.16073340
Link 17 196 211 0 0.37236321
Link 18 196 212 0 -0.31717106
Link 19 196 213 0 -0.23862488
Link 20 196 214 0 0.16810727
Link 21 196 215 0 0.09170584
Link 22 196 216 0 0.06640109
Link 23 196 217 0 -0.02274228
Link 24 196 218 0 0.03619168
Link 25 196 219 0 -0.07750078
Link 26 196 220 0 -0.47220568
Link 27 196 221 0 0.38962530
Link 28 196 222 0 -0.03565959
Link 29 196 223 0 0.16935600
Link 30 196 224 0 -0.22824605
Link 31 196 225 0 -0.28481055
Link 32 196 226 0 0.16576110
Link 33 196 227 0 0.06628415
Link 34 196 228 0 0.18361661
Link 35 196 229 0 -0.05678218
Link 36 196 230 0 0.16641409
Link 37 196 231 0 0.01594300
Link 38 196 232 0 0.17296058
Link 39 196 233 0 0.47808129
Link 40 196 234 0 -0.12229321
Link 41 196 235 0 -0.00416224
Link 42 196 236 0 0.39017408
Link 43 196 237 0 0.10649302
Link 44 196 238 0 -0.18601166
Link 45 196 239 0 -0.05253883
Link 46 196 240 0 -0.17591909
Link 47 196 241 0 0.05109213
Link 48 196 242 0 0.36291972
Link 49 196 243 0 -0.46143305
Link 50 196 244 0 -0.37206806
Link 51 196 245 0 -0.12440320
Link 52 196 246 0 0.20427797
Link 53 196 247 0 -0.10812426
Link 54 196 248 0 -0.82667043
Link 55 196 249 0 0.07876822
Link 56 196 250 0 -0.06932661
Link 57 196 251 0 -0.48855750
Link 58 196 252 0 0.36980838
Link 59 196 253 0 0.25037253
Link 60 196 254 0 -0.19549946
Link 61 196 255 0 0.34986429
Link 62 196 256 0 0.19081879
Link 63 196 257 0 0.63300556
Link 64 196 258 0 -0.05531603
Link 65 196 259 0 -0.38529983
Link 66 196 260 0 -0.17808646
Link 67 196 261 0 0.32530731
Link 68 196 262 0 0.57672149
Link 69 196 263 0 0.02654245
Link 70 196 264 0 -0.59546306
Link 71 196 265 0 -0.15404719
Link 72 196 266 0 0.02361984
Link 73 196 267 0 0.12624729
Link 74 196 268 0 0.23136371
Link 75 196 269 0 0.02893021
Link 76 196 270 0 -0.08312794
Link 77 196 271 0 0.00979079
Link 78 196 272 0 -0.26044944
Link 79 196 273 0 0.20726622
Link 80 196 274 0 -0.19886827
Link 81 196 275 0 0.38041884
Link 82 196 276 0 0.13941785
Link 83 196 277 0 -0.20385898
Link 84 196 278 0 -0.24900048
Link 85 196 279 0 -0.09079872
Link 86 196 280 0 -0.05876697
Link 87 196 281 0 -0.01260953
Link 88 196 282 0 0.03215960
Link 89 196 283 0 -0.30949327
Link 90 196 284 0 -0.16623347
Link 91 196 285 0 0.48125571
Link 92 196 286 0 0.25752821
Link 93 196 287 0 -0.46018145
Link 94 196 288 0 -0.10943335
Link 95 196 289 0 0.50984908
Link 96 196 290 0 0.09418059
Link 97 196 291 0 -0.03006757
Link 98 196 292 0 0.62026049
Link 99 196 293 0 0.24792805
Link 100 196 294 0 -0.29733912
Link 101 196 295 0 -0.09594151
Link 102 196 296 0 0.13816909
Link 103 196 297 0 -0.25832921
Link 104 196 298 0 0.46397003
Link 105 196 299 0 0.01359372
Link 106 196 300 0 -0.13338508
Link 107 196 301 0 -0.06825263
Link 108 196 302 0 -0.45508120
Link 109 196 303 0 0.31040431
Link 110 196 304 0 -0.14699633
Link 111 196 305 0 -0.00809840
Link 112 196 306 0 0.02226328
Link 113 196 307 0 0.02021259
Link 114 196 308 0 0.17605473
Link 115 196 309 0 -0.00241864
Link 116 196 310 0 -0.10938608
Link 117 196 311 0 -0.33328891
Link 118 196 312 0 0.27433195
Link 119 196 313 0 -0.11526762
Link 120 196 314 0 0.02166131
Link 121 196 315 0 0.03787759
Link 122 196 316 0 0.06090809
Link 123 196 317 0 0.12663964
Link 124 196 318 0 0.12820919
Link 125 196 319 0 0.02701877
Link 126 196 320 0 -0.24706637
Link 127 196 321 0 -0.05777045
Link 128 196 322 0 0.05010236
Link 129 196 323 0 -0.13438521
Link 130 196 324 0 -0.16247783
Link 131 196 325 0 0.21581428
Link 132 196 326 0 -0.13078769
Link 133 196 327 0 -0.35933647
Link 134 196 328 0 0.26634809
Link 135 196 329 0 -0.39197988
Link 136 196 330 0 -0.29170190
Link 137 196 331 0 0.37655684
Link 138 196 332 0 -0.39137436
Link 139 196 333 0 0.38367818
Link 140 196 334 0 0.43033871
Link 141 196 335 0 -0.11429580
Link 142 196 336 0 -0.42779541
Link 143 196 337 0 0.32437816
Link 144 196 338 0 0.54551455
Link 145 196 339 0 0.22313186
Link 146 196 340 0 -0.03684027
Link 147 196 341 0 0.23909921
Link 148 196 342 0 -0.40185752
Link 149 196 343 0 0.23884745
Link 150 196 344 0 0.10515287
Link 151 196 345 0 0.64394288
Link 152 196 346 0 0.14790027
Link 153 196 347 0 0.11042874
Link 154 196 348 0 -0.20116150
Link 155 196 349 0 0.02342622
Link 156 196 350 0 -0.19967423
Link 157 196 351 0 0.71223152
Link 158 196 352 0 0.18355783
Link 159 196 353 0 -0.01171008
Link 160 196 354 0 -0.69904743
Link 161 196 355 0 0.06115093
Link 162 196 356 0 0.07928794
Link 163 196 357 0 -0.00367399
Link 164 196 358 0 -0.11728303
Link 165 196 359 0 0.21331754
Link 166 196 360 0 0.07719171
Link 167 196 361 0 0.57004202
Link 168 196 362 0 0.49396151
Link 169 196 363 0 0.03212082
Link 170 196 364 0 -0.58037451
Link 171 196 365 0 -0.10279641
Link 172 196 366 0 -0.03268725
Link 173 196 367 0 0.14435203
Link 174 196 368 0 -0.11338978
Link 175 196 369 0 -0.46043911
Link 176 196 370 0 -0.00537480
Link 177 196 371 0 0.34390363
Link 178 196 372 0 -0.45704298
Link 179 196 373 0 -0.06381240
Link 180 196 374 0 -0.00759283
Link 181 196 375 0 -0.21947428
Link 182 196 376 0 0.20721289
Link 183 196 377 0 0.05860653
Link 184 196 378 0 -0.06197506
Link 185 196 379 0 -0.13840921
Link 186 196 380 0 0.01718893
Link 187 196 381 0 -0.10610540
Link 188 196 382 0 -0.21724656
Link 189 196 383 0 -0.20151774
Link 190 196 384 0 0.27965554
Link 191 196 385 0 0.02905133
Link 192 196 386 0 -0.15660282
Link 193 196 387 0 0.23271571
Link 194 196 388 0 0.04585429
Link 1 197 389 0 0.14397727
Link 2 197 390 0 -0.47325674
Link 3 197 391 0 0.08623351
Link 4 197 392 0 -0.34739877
Link 5 197 393 0 0.01218682
Link 6 197 394 0 0.04286877
Link 7 197 395 0 -0.40906067
Link 8 197 396 0 -0.00356386
Link 9 197 397 0 -0.05158222
Link 10 197 398 0 0.04265737
Link 11 197 399 0 -0.24110579
Link 12 197 400 0 -0.08832492
Link 13 197 401 0 -0.03038735
Link 14 197 402 0 0.41047315
Link 15 197 403 0 0.06563953
Link 16 197 404 0 -0.30448335
Link 17 197 405 0 -0.41776083
Link 18 197 406 0 -0.01455671
Link 19 197 407 0 0.36507045
Link 20 197 408 0 -0.01598272
Link 21 197 409 0 0.63824995
Link 22 197 410 0 0.27382313
Link 23 197 411 0 0.17648451
Link 24 197 412 0 -0.30237251
Link 25 197 413 0 0.20609661
Link 26 197 414 0 0.02936496
Link 27 197 415 0 0.23319567
Link 28 197 416 0 -0.11155607
Link 29 197 417 0 -0.12308410
Link 30 197 418 0 0.05276732
Link 31 197 419 0 -0.15658895
Link 32 197 420 0 -0.36535759
Link 33 197 421 0 0.20306852
Link 34 197 422 0 -0.04517742
Link 35 197 423 0 -0.01700332
Link 36 197 424 0 -0.16833705
Link 37 197 425 0 -0.83340762
Link 38 197 426 0 0.00063881
Link 39 197 427 0 -0.08665298
Link 40 197 428 0 0.09098390
Link 41 197 429 0 0.16547507
Link 42 197 430 0 -0.10399398
Link 43 197 431 0 0.01147365
Link 44 197 432 0 -0.07006945
Link 45 197 433 0 0.16656230
Link 46 197 434 0 -0.10196604
Link 47 197 435 0 0.24795928
Link 48 197 436 0 0.02334390
Link 49 197 437 0 0.67428101
Link 50 197 438 0 -0.17454397
Link 51 197 439 0 0.35655105
Link 52 197 440 0 -0.10477840
Link 53 197 441 0 -0.10409792
Link 54 197 442 0 -0.35248897
Link 55 197 443 0 0.01171092
Link 56 197 444 0 -0.48440501
Link 57 197 445 0 -0.00315664
Link 58 197 446 0 -0.70790696
Link 59 197 447 0 -0.32810462
Link 60 197 448 0 0.02213219
Link 61 197 449 0 0.19196573
Link 62 197 450 0 0.15351197
Link 63 197 451 0 -0.42899069
Link 64 197 452 0 0.30822325
Link 65 197 453 0 0.13328864
Link 66 197 454 0 0.29369409
Link 67 197 455 0 -0.25757993
Link 68 197 456 0 -0.02829133
Link 69 197 457 0 -0.48367720
Link 70 197 458 0 -0.06368983
Link 71 197 459 0 0.16188765
Link 72 197 460 0 -0.44564712
Link 73 197 461 0 -0.44039550
Link 74 197 462 0 0.02010801
Link 75 197 463 0 0.17411796
Link 76 197 464 0 -0.27351061
Link 77 197 465 0 0.34824688
Link 78 197 466 0 -0.04580389
Link 79 197 467 0 -0.05694960
Link 80 197 468 0 -0.27002592
Link 81 197 469 0 -0.23105124
Link 82 197 470 0 0.01816683
Link 83 197 471 0 -0.15058839
Link 84 197 472 0 0.08473358
Link 85 197 473 0 0.05332319
Link 86 197 474 0 0.00838627
Link 87 197 475 0 -0.41735723
Link 88 197 476 0 0.21329018
Link 89 197 477 0 0.01724057
Link 90 197 478 0 0.73043589
Link 91 197 479 0 0.28128296
Link 92 197 480 0 0.45190525
Link 93 197 481 0 0.19854774
Link 94 197 482 0 -0.44437667
Link 95 197 483 0 0.16174085
Link 96 197 484 0 0.29712224
Link 97 197 485 0 0.26120532
Link 98 197 486 0 -0.51783026
Link 99 197 487 0 0.01429844
Link 100 197 488 0 0.17283659
Link 101 197 489 0 0.10297503
Link 102 197 490 0 -0.23551080
Link 103 197 491 0 -0.49000935
Link 104 197 492 0 -0.84922166
Link 105 197 493 0 -0.03253659
Link 106 197 494 0 -0.34205281
Link 107 197 495 0 -0.07406258
Link 108 197 496 0 0.09804494
Link 109 197 497 0 0.13517285
Link 110 197 498 0 -0.12785306
Link 111 197 499 0 0.13499677
Link 112 197 500 0 0.00214125
Link 113 197 501 0 0.22103297
Link 114 197 502 0 0.25250918
Link 115 197 503 0 -0.57486104
Link 116 197 504 0 -0.02866081
Link 117 197 505 0 0.19394708
Link 118 197 506 0 0.00084758
Link 119 197 507 0 -0.16616377
Link 120 197 508 0 -0.36338818
Link 121 197 509 0 -0.06365656
Link 122 197 510 0 0.38089615
Link 123 197 511 0 0.17528583
Link 124 197 512 0 0.05017013
Link 125 197 513 0 0.38547901
Link 126 197 514 0 0.44660075
Link 127 197 515 0 0.16523910
Link 128 197 516 0 0.58986423
Link 129 197 517 0 0.08080190
Link 130 197 518 0 0.22045968
Link 131 197 519 0 -0.05892142
Link 132 197 520 0 -0.17798658
Link 133 197 521 0 0.19467911
Link 134 197 522 0 0.39560794
Link 135 197 523 0 -0.01134639
Link 136 197 524 0 -0.36482528
Link 137 197 525 0 -0.22526796
Link 138 197 526 0 0.23407063
Link 139 197 527 0 0.67238736
Link 140 197 528 0 0.07689275
Link 141 197 529 0 -0.04056508
Link 142 197 530 0 0.05855181
Link 143 197 531 0 -0.41006175
Link 144 197 532 0 -0.36839759
Link 145 197 533 0 -0.45401495
Link 146 197 534 0 0.39086115
Link 147 197 535 0 0.09938591
Link 148 197 536 0 -0.30091448
Link 149 197 537 0 0.10399734
Link 150 197 538 0 -0.21707531
Link 151 197 539 0 -0.11010126
Link 152 197 540 0 -0.16398495
Link 153 197 541 0 0.02752343
Link 154 197 542 0 -0.21422543
Link 155 197 543 0 0.01478488
Link 156 197 544 0 0.16065289
Link 157 197 545 0 -0.37268175
Link 158 197 546 0 0.08533544
Link 159 197 547 0 0.07517304
Link 160 197 548 0 0.14683001
Link 161 197 549 0 0.29256352
Link 162 197 550 0 0.00343334
Link 163 197 551 0 0.02710601
Link 164 197 552 0 0.36216464
Link 165 197 553 0 0.21888697
Link 166 197 554 0 -1.40584318
Link 167 197 555 0 -0.02299860
Link 168 197 556 0 -0.06107733
Link 169 197 557 0 -0.34134784
Link 170 197 558 0 -0.30899659
Link 171 197 559 0 0.16195836
Link 172 197 560 0 0.30352581
Link 173 197 561 0 -0.09355573
Link 174 197 562 0 -0.07907369
Link 175 197 563 0 0.77895399
Link 176 197 564 0 -0.10113610
Link 177 197 565 0 -0.20238497
Link 178 197 566 0 0.14053140
Link 179 197 567 0 -0.38432629
Link 180 197 568 0 -0.28441334
Link 181 197 569 0 0.22958662
Link 182 197 570 0 -0.22988428
Link 183 197 571 0 -0.30179503
Link 184 197 572 0 0.30230334
Link 185 197 573 0 -0.36457114
Link 186 197 574 0 -0.37762182
Link 187 197 575 0 0.03887334
Link 188 197 576 0 0.19267926
Link 189 197 577 0 0.22032934
Link 190 197 578 0 -0.18684928
Link 191 197 579 0 0.10572055
Link 192 197 580 0 -0.34252726
Link 193 197 581 0 -0.02338070
Link 194 197 582 0 -0.29654384
Link 1 198 583 0 -0.66510191
Link 2 198 584 0 0.02780087
Link 3 198 585 0 -0.69734281
Link 4 198 586 0 -0.06890917
Link 5 198 587 0 0.93784677
Link 6 198 588 0 -0.34800552
Link 7 198 589 0 -0.38361411
Link 8 198 590 0 0.05941689
Link 9 198 591 0 -0.05380182
Link 10 198 592 0 0.14617792
Link 11 198 593 0 -0.20671122
Link 12 198 594 0 0.05461101
Link 13 198 595 0 0.03719570
Link 14 198 596 0 0.32427545
Link 15 198 597 0 0.83888504
Link 16 198 598 0 0.01141649
Link 17 198 599 0 -0.14515590
Link 18 198 600 0 -0.08078985
Link 19 198 601 0 -0.12083510
Link 20 198 602 0 0.12434515
Link 21 198 603 0 0.25438747
Link 22 198 604 0 -0.01211448
Link 23 198 605 0 -0.25926581
Link 24 198 606 0 -0.30220952
Link 25 198 607 0 -0.70135241
Link 26 198 608 0 -0.43429572
Link 27 198 609 0 -0.18477493
Link 28 198 610 0 -0.68823093
Link 29 198 611 0 0.12683909
Link 30 198 612 0 -0.06762669
Link 31 198 613 0 0.19198999
Link 32 198 614 0 -0.11872685
Link 33 198 615 0 0.07654571
Link 34 198 616 0 -0.08314499
Link 35 198 617 0 -0.53948735
Link 36 198 618 0 -0.25819593
Link 37 198 619 0 -0.54581950
Link 38 198 620 0 -0.12494213
Link 39 198 621 0 -0.63934706
Link 40 198 622 0 0.03912508
Link 41 198 623 0 -0.24443946
Link 42 198 624 0 -0.16878292
Link 43 198 625 0 0.41738424
Link 44 198 626 0 0.29329313
Link 45 198 627 0 -0.03872622
Link 46 198 628 0 -0.19834109
Link 47 198 629 0 -0.09418361
Link 48 198 630 0 -0.64040755
Link 49 198 631 0 -0.15176265
Link 50 198 632 0 -0.01464436
Link 51 198 633 0 0.20047904
Link 52 198 634 0 0.44292806
Link 53 198 635 0 0.56760995
Link 54 198 636 0 -0.05921963
Link 55 198 637 0 0.24328105
Link 56 198 638 0 0.27129953
Link 57 198 639 0 -0.28845464
Link 58 198 640 0 0.00583119
Link 59 198 641 0 0.06114649
Link 60 198 642 0 -0.06043202
Link 61 198 643 0 -0.54137780
Link 62 198 644 0 0.09056678
Link 63 198 645 0 -0.31347205
Link 64 198 646 0 -0.17408245
Link 65 198 647 0 0.17779977
Link 66 198 648 0 -0.16286182
Link 67 198 649 0 -0.31435917
Link 68 198 650 0 0.16207689
Link 69 198 651 0 0.28066284
Link 70 198 652 0 -0.11456542
Link 71 198 653 0 -0.36412883
Link 72 198 654 0 -0.02026062
Link 73 198 655 0 0.12748383
Link 74 198 656 0 0.26897902
Link 75 198 657 0 -0.34120850
Link 76 198 658 0 0.14154432
Link 77 198 659 0 -0.38919825
Link 78 198 660 0 -0.17418313
Link 79 198 661 0 -0.10844438
Link 80 198 662 0 0.08711887
Link 81 198 663 0 -0.48730627
Link 82 198 664 0 -0.13356635
Link 83 198 665 0 0.28518747
Link 84 198 666 0 0.14582776
Link 85 198 667 0 0.08809556
Link 86 198 668 0 -0.05091113
Link 87 198 669 0 0.13938298
Link 88 198 670 0 -0.17585221
Link 89 198 671 0 0.14413397
Link 90 198 672 0 -0.29064277
Link 91 198 673 0 -0.05495698
Link 92 198 674 0 -0.13433235
Link 93 198 675 0 -0.10887910
Link 94 198 676 0 -0.02769250
Link 95 198 677 0 -0.25618973
Link 96 198 678 0 0.04617320
Link 97 198 679 0 -0.36434275
Link 98 198 680 0 -0.06876401
Link 99 198 681 0 -0.23563719
Link 100 198 682 0 0.24041332
Link 101 198 683 0 0.29503137
Link 102 198 684 0 0.35386249
Link 103 198 685 0 0.15186999
Link 104 198 686 0 0.34229048
Link 105 198 687 0 0.50046457
Link 106 198 688 0 0.08123345
Link 107 198 689 0 0.07925526
Link 108 198 690 0 -0.15484114
Link 109 198 691 0 -0.50585666
Link 110 198 692 0 -0.45417923
Link 111 198 693 0 -0.20081841
Link 112 198 694 0 -0.37615247
Link 113 198 695 0 0.47583279
Link 114 198 696 0 -0.33545935
Link 115 198 697 0 -0.40409685
Link 116 198 698 0 0.12466753
Link 117 198 699 0 0.30381576
Link 118 198 700 0 0.15305650
Link 119 198 701 0 0.18913202
Link 120 198 702 0 0.08914833
Link 121 198 703 0 0.19319609
Link 122 198 704 0 0.40710331
Link 123 198 705 0 0.17462609
Link 124 198 706 0 -0.21718056
Link 125 198 707 0 -0.25601089
Link 126 198 708 0 0.11715443
Link 127 198 709 0 0.03007099
Link 128 198 710 0 -0.06627124
Link 129 198 711 0 -0.13426277
Link 130 198 712 0 -0.13381913
Link 131 198 713 0 -0.11734890
Link 132 198 714 0 0.03526633
Link 133 198 715 0 0.12606657
Link 134 198 716 0 -0.40151388
Link 135 198 717 0 0.03544699
Link 136 198 718 0 0.54664292
Link 137 198 719 0 0.36966420
Link 138 198 720 0 0.15057152
Link 139 198 721 0 0.05211163
Link 140 198 722 0 0.15938627
Link 141 198 723 0 -0.51665076
Link 142 198 724 0 0.07484647
Link 143 198 725 0 -0.03592673
Link 144 198 726 0 -0.11966366
Link 145 198 727 0 1.13599005
Link 146 198 728 0 0.34407063
Link 147 198 729 0 -0.08852596
Link 148 198 730 0 -0.47203740
Link 149 198 731 0 0.88046273
Link 150 198 732 0 -0.28540779
Link 151 198 733 0 0.21006955
Link 152 198 734 0 0.44519117
Link 153 198 735 0 0.09806869
Link 154 198 736 0 -0.11520695
Link 155 198 737 0 -0.51653713
Link 156 198 738 0 -0.00497373
Link 157 198 739 0 -0.15112286
Link 158 198 740 0 0.52371417
Link 159 198 741 0 0.22302831
Link 160 198 742 0 0.00850597
Link 161 198 743 0 -0.08764407
Link 162 198 744 0 -0.00457012
Link 163 198 745 0 0.26713060
Link 164 198 746 0 0.38846044
Link 165 198 747 0 -0.20644422
Link 166 198 748 0 -0.05148236
Link 167 198 749 0 0.02413458
Link 168 198 750 0 -0.36866142
Link 169 198 751 0 0.32235161
Link 170 198 752 0 -0.05430488
Link 171 198 753 0 -0.02585387
Link 172 198 754 0 -0.10638479
Link 173 198 755 0 0.38751506
Link 174 198 756 0 0.23183182
Link 175 198 757 0 -0.61611909
Link 176 198 758 0 -0.54811583
Link 177 198 759 0 0.21471991
Link 178 198 760 0 -0.41865886
Link 179 198 761 0 -0.19072339
Link 180 198 762 0 0.02891195
Link 181 198 763 0 -0.13796839
Link 182 198 764 0 -0.00768557
Link 183 198 765 0 0.01464568
Link 184 198 766 0 -0.27361144
Link 185 198 767 0 -0.31999101
Link 186 198 768 0 0.15290094
Link 187 198 769 0 -0.02933738
Link 188 198 770 0 -0.53326365
Link 189 198 771 0 -0.00543803
Link 190 198 772 0 0.45964348
Link 191 198 773 0 0.29435510
Link 192 198 774 0 -0.31519809
Link 193 198 775 0 0.00429391
Link 194 198 776 0 0.21701133
Link 1 199 777 0 -0.20961050
Link 2 199 778 0 0.12185030
Link 3 199 779 0 0.14002736
Link 4 199 780 0 -0.56998987
Link 5 199 781 0 0.14682319
Link 6 199 782 0 -0.05374662
Link 7 199 783 0 0.01427643
Link 8 199 784 0 0.25414477
Link 9 199 785 0 -0.42298080
Link 10 199 786 0 -0.07341863
Link 11 199 787 0 0.06673018
Link 12 199 788 0 0.24248343
Link 13 199 789 0 0.03495428
Link 14 199 790 0 -0.10224643
Link 15 199 791 0 -0.14167284
Link 16 199 792 0 -0.37281607
Link 17 199 793 0 0.29072747
Link 18 199 794 0 0.26566944
Link 19 199 795 0 0.30254838
Link 20 199 796 0 -0.08487426
Link 21 199 797 0 0.19649812
Link 22 199 798 0 -0.47376522
Link 23 199 799 0 -0.14168216
Link 24 199 800 0 0.10053426
Link 25 199 801 0 0.47446423
Link 26 199 802 0 0.41027267
Link 27 199 803 0 0.06477320
Link 28 199 804 0 -0.28657270
Link 29 199 805 0 -0.20264641
Link 30 199 806 0 0.08813022
Link 31 199 807 0 0.31322508
Link 32 199 808 0 -0.35461612
Link 33 199 809 0 -0.27025492
Link 34 199 810 0 0.37937330
Link 35 199 811 0 -0.36448991
Link 36 199 812 0 0.08562384
Link 37 199 813 0 0.17047734
Link 38 199 814 0 0.20700451
Link 39 199 815 0 -0.05483672
Link 40 199 816 0 -0.30829259
Link 41 199 817 0 -0.87979337
Link 42 199 818 0 -0.11103482
Link 43 199 819 0 -0.32378166
Link 44 199 820 0 -0.05280047
Link 45 199 821 0 -0.36448724
Link 46 199 822 0 -0.13194833
Link 47 199 823 0 0.06916126
Link 48 199 824 0 -0.51207039
Link 49 199 825 0 -0.10089080
Link 50 199 826 0 -0.51302921
Link 51 199 827 0 0.65039938
Link 52 199 828 0 -0.18260179
Link 53 199 829 0 0.12441055
Link 54 199 830 0 -0.47608012
Link 55 199 831 0 -0.39417687
Link 56 199 832 0 0.24998542
Link 57 199 833 0 0.05147670
Link 58 199 834 0 0.16972035
Link 59 199 835 0 0.05147815
Link 60 199 836 0 -0.06499741
Link 61 199 837 0 -0.21651631
Link 62 199 838 0 -0.00760779
Link 63 199 839 0 -0.10924544
Link 64 199 840 0 0.08772533
Link 65 199 841 0 -0.31083220
Link 66 199 842 0 -0.46021032
Link 67 199 843 0 0.03630525
Link 68 199 844 0 0.20064764
Link 69 199 845 0 0.51172219
Link 70 199 846 0 0.27673150
Link 71 199 847 0 -0.75353931
Link 72 199 848 0 0.60420269
Link 73 199 849 0 -0.11385834
Link 74 199 850 0 -0.33407745
Link 75 199 851 0 0.22814073
Link 76 199 852 0 -0.10322093
Link 77 199 853 0 0.47461204
Link 78 199 854 0 -0.30200508
Link 79 199 855 0 0.16810848
Link 80 199 856 0 0.41135251
Link 81 199 857 0 0.06841795
Link 82 199 858 0 0.04340482
Link 83 199 859 0 -0.21700171
Link 84 199 860 0 0.19266456
Link 85 199 861 0 -0.23285357
Link 86 199 862 0 -0.31921581
Link 87 199 863 0 -0.01310029
Link 88 199 864 0 0.12008951
Link 89 199 865 0 0.15274733
Link 90 199 866 0 0.24872311
Link 91 199 867 0 -0.06806522
Link 92 199 868 0 0.27936085
Link 93 199 869 0 0.03975195
Link 94 199 870 0 -0.17249204
Link 95 199 871 0 -0.00752556
Link 96 199 872 0 -0.22035115
Link 97 199 873 0 -0.02011190
Link 98 199 874 0 -0.38188341
Link 99 199 875 0 0.14866971
Link 100 199 876 0 0.03279705
Link 101 199 877 0 0.24992734
Link 102 199 878 0 0.26853362
Link 103 199 879 0 -0.01459377
Link 104 199 880 0 0.56111785
Link 105 199 881 0 0.20113278
Link 106 199 882 0 0.05208117
Link 107 199 883 0 0.05086629
Link 108 199 884 0 0.20897613
Link 109 199 885 0 0.56037927
Link 110 199 886 0 0.07955668
Link 111 199 887 0 0.08423469
Link 112 199 888 0 0.00687310
Link 113 199 889 0 -0.26108304
Link 114 199 890 0 -0.53828311
Link 115 199 891 0 0.01138260
Link 116 199 892 0 -0.22813564
Link 117 199 893 0 -0.28618542
Link 118 199 894 0 -0.09810637
Link 119 199 895 0 -0.10076852
Link 120 199 896 0 0.20025753
Link 121 199 897 0 0.19150322
Link 122 199 898 0 0.22577930
Link 123 199 899 0 -0.19004800
Link 124 199 900 0 0.83150412
Link 125 199 901 0 -0.25181168
Link 126 199 902 0 -0.22737522
Link 127 199 903 0 -0.08239649
Link 128 199 904 0 0.33654661
Link 129 199 905 0 0.10953964
Link 130 199 906 0 -0.52402388
Link 131 199 907 0 -0.27322120
Link 132 199 908 0 -0.07920262
Link 133 199 909 0 -0.68168386
Link 134 199 910 0 0.22070774
Link 135 199 911 0 0.15540584
Link 136 199 912 0 0.11977926
Link 137 199 913 0 -0.34714336
Link 138 199 914 0 -0.33847000
Link 139 199 915 0 0.27498907
Link 140 199 916 0 -0.55370317
Link 141 199 917 0 0.39126822
Link 142 199 918 0 0.20534268
Link 143 199 919 0 -0.08283341
Link 144 199 920 0 0.02858559
Link 145 199 921 0 -0.09521091
Link 146 199 922 0 0.27460234
Link 147 199 923 0 -0.14401116
Link 148 199 924 0 -0.32547082
Link 149 199 925 0 0.58465208
Link 150 199 926 0 0.03927536
Link 151 199 927 0 -0.37065610
Link 152 199 928 0 -0.21697178
Link 153 199 929 0 0.20096052
Link 154 199 930 0 0.56377644
Link 155 199 931 0 -0.19258431
Link 156 199 932 0 -0.29383020
Link 157 199 933 0 0.33072763
Link 158 199 934 0 -0.20869840
Link 159 199 935 0 0.13580730
Link 160 199 936 0 -0.10321045
Link 161 199 937 0 0.06957362
Link 162 199 938 0 0.68901481
Link 163 199 939 0 0.03306344
Link 164 199 940 0 -0.16978591
Link 165 199 941 0 -0.20557034
Link 166 199 942 0 -0.17361110
Link 167 199 943 0 -0.07335710
Link 168 199 944 0 0.72689663
Link 169 199 945 0 0.15306287
Link 170 199 946 0 -0.12056423
Link 171 199 947 0 -0.53987044
Link 172 199 948 0 -0.79594636
Link 173 199 949 0 0.23329764
Link 174 199 950 0 0.00165379
Link 175 199 951 0 0.00280142
Link 176 199 952 0 -0.27729679
Link 177 199 953 0 0.26416649
Link 178 199 954 0 0.53589439
Link 179 199 955 0 -0.06921707
Link 180 199 956 0 -0.55097800
Link 181 199 957 0 0.33143792
Link 182 199 958 0 0.11589570
Link 183 199 959 0 0.12353226
Link 184 199 960 0 -0.48302927
Link 185 199 961 0 0.05422754
Link 186 199 962 0 -0.04057306
Link 187 199 963 0 -0.27218248
Link 188 199 964 0 0.04828338
Link 189 199 965 0 0.03542469
Link 190 199 966 0 -0.59342611
Link 191 199 967 0 0.12061551
Link 192 199 968 0 -0.90607375
Link 193 199 969 0 -0.62788056
Link 194 199 970 0 0.54108477
Link 1 200 971 0 -0.23539689
Link 2 200 972 0 -0.15493980
Link 3 200 973 0 -0.44377769
Link 4 200 974 0 0.08639385
Link 5 200 975 0 0.33086060
Link 6 200 976 0 -0.30825745
Link 7 200 977 0 -0.11652374
Link 8 200 978 0 -0.15057879
Link 9 200 979 0 0.09876947
Link 10 200 980 0 0.42110062
Link 11 200 981 0 -0.20710813
Link 12 200 982 0 0.01025876
Link 13 200 983 0 -0.12620573
Link 14 200 984 0 0.42160099
Link 15 200 985 0 0.19937466
Link 16 200 986 0 0.80236631
Link 17 200 987 0 0.29899105
Link 18 200 988 0 0.22234141
Link 19 200 989 0 0.70914196
Link 20 200 990 0 -0.94655036
Link 21 200 991 0 0.51187724
Link 22 200 992 0 0.18411408
Link 23 200 993 0 0.57868402
Link 24 200 994 0 0.38749309
Link 25 200 995 0 -0.67671453
Link 26 200 996 0 0.06243395
Link 27 200 997 0 -0.42036033
Link 28 200 998 0 0.23956065
Link 29 200 999 0 0.37601316
Link 30 200 1000 0 0.10668789
Link 31 200 1001 0 0.74853768
Link 32 200 1002 0 0.37020997
Link 33 200 1003 0 -0.06775586
Link 34 200 1004 0 0.18102788
Link 35 200 1005 0 -0.11680033
Link 36 200 1006 0 -0.29908703
Link 37 200 1007 0 0.37017281
Link 38 200 1008 0 0.41649044
Link 39 200 1009 0 0.03365560
Link 40 200 1010 0 0.28500092
Link 41 200 1011 0 -0.78770943
Link 42 200 1012 0 -0.01877653
Link 43 200 1013 0 -0.02177076
Link 44 200 1014 0 -0.05356267
Link 45 200 1015 0 0.28444956
Link 46 200 1016 0 0.02831980
Link 47 200 1017 0 -0.03317634
Link 48 200 1018 0 -0.17050965
Link 49 200 1019 0 -0.38232142
Link 50 200 1020 0 -0.21112744
Link 51 200 1021 0 0.44322667
Link 52 200 1022 0 -0.04319078
Link 53 200 1023 0 -0.07146682
Link 54 200 1024 0 -0.18630590
Link 55 200 1025 0 -0.07676603
Link 56 200 1026 0 -0.68377299
Link 57 200 1027 0 0.02203970
Link 58 200 1028 0 -0.67292916
Link 59 200 1029 0 0.10470033
Link 60 200 1030 0 0.05593824
Link 61 200 1031 0 -0.05213988
Link 62 200 1032 0 0.03542386
Link 63 200 1033 0 0.16562157
Link 64 200 1034 0 0.02633631
Link 65 200 1035 0 0.00261060
Link 66 200 1036 0 -0.04189292
Link 67 200 1037 0 0.20545231
Link 68 200 1038 0 -0.19193173
Link 69 200 1039 0 -0.69419491
Link 70 200 1040 0 -0.39393847
Link 71 200 1041 0 0.25824122
Link 72 200 1042 0 -0.12857022
Link 73 200 1043 0 -0.07178613
Link 74 200 1044 0 -0.19859335
Link 75 200 1045 0 0.03222221
Link 76 200 1046 0 0.08403673
Link 77 200 1047 0 0.31198485
Link 78 200 1048 0 -0.03383035
Link 79 200 1049 0 -0.07648463
Link 80 200 1050 0 -0.47938166
Link 81 200 1051 0 0.23319781
Link 82 200 1052 0 0.37526891
Link 83 200 1053 0 -0.35802896
Link 84 200 1054 0 -0.29121021
Link 85 200 1055 0 0.09840475
Link 86 200 1056 0 0.29813823
Link 87 200 1057 0 0.02938963
Link 88 200 1058 0 0.14685775
Link 89 200 1059 0 0.06649374
Link 90 200 1060 0 0.93756654
Link 91 200 1061 0 -0.49369690
Link 92 200 1062 0 -0.11347998
Link 93 200 1063 0 0.20145007
Link 94 200 1064 0 0.30227788
Link 95 200 1065 0 -0.26525242
Link 96 200 1066 0 -0.26776646
Link 97 200 1067 0 0.19022289
Link 98 200 1068 0 -0.23893595
Link 99 200 1069 0 0.61419838
Link 100 200 1070 0 -0.14787387
Link 101 200 1071 0 -0.61619746
Link 102 200 1072 0 0.22720142
Link 103 200 1073 0 0.07232647
Link 104 200 1074 0 -0.19792586
Link 105 200 1075 0 0.09247928
Link 106 200 1076 0 0.17188996
Link 107 200 1077 0 -0.17608381
Link 108 200 1078 0 0.43625453
Link 109 200 1079 0 -0.28698945
Link 110 200 1080 0 -0.24004024
Link 111 200 1081 0 0.47744528
Link 112 200 1082 0 -0.05343787
Link 113 200 1083 0 0.09569785
Link 114 200 1084 0 -0.23435372
Link 115 200 1085 0 0.11979573
Link 116 200 1086 0 -0.22984932
Link 117 200 1087 0 0.09620831
Link 118 200 1088 0 -0.20543014
Link 119 200 1089 0 0.02856645
Link 120 200 1090 0 -0.47834216
Link 121 200 1091 0 0.23042036
Link 122 200 1092 0 0.27302830
Link 123 200 1093 0 -0.53343026
Link 124 200 1094 0 -0.26604261
Link 125 200 1095 0 -0.20596286
Link 126 200 1096 0 0.04162336
Link 127 200 1097 0 0.19906617
Link 128 200 1098 0 0.11889689
Link 129 200 1099 0 0.18925583
Link 130 200 1100 0 -0.44923605
Link 131 200 1101 0 -0.38461723
Link 132 200 1102 0 -0.00538105
Link 133 200 1103 0 -0.04173087
Link 134 200 1104 0 0.22005045
Link 135 200 1105 0 0.15450307
Link 136 200 1106 0 0.04672909
Link 137 200 1107 0 -0.13108556
Link 138 200 1108 0 -0.06128804
Link 139 200 1109 0 -0.14936412
Link 140 200 1110 0 0.09168349
Link 141 200 1111 0 -0.18171820
Link 142 200 1112 0 -0.27053489
Link 143 200 1113 0 -0.05664973
Link 144 200 1114 0 0.46035300
Link 145 200 1115 0 -0.42838661
Link 146 200 1116 0 -0.17521862
Link 147 200 1117 0 0.41862830
Link 148 200 1118 0 -0.10935337
Link 149 200 1119 0 0.02540685
Link 150 200 1120 0 0.35108864
Link 151 200 1121 0 -0.00002846
Link 152 200 1122 0 0.25591747
Link 153 200 1123 0 -0.16567575
Link 154 200 1124 0 0.25333531
Link 155 200 1125 0 0.01516561
Link 156 200 1126 0 0.48501780
Link 157 200 1127 0 0.55838327
Link 158 200 1128 0 -0.24607090
Link 159 200 1129 0 -0.03878201
Link 160 200 1130 0 -0.30799407
Link 161 200 1131 0 0.59633075
Link 162 200 1132 0 -0.03967956
Link 163 200 1133 0 0.34992292
Link 164 200 1134 0 -0.41075159
Link 165 200 1135 0 0.15093401
Link 166 200 1136 0 -0.25032855
Link 167 200 1137 0 -0.14584427
Link 168 200 1138 0 -0.21894040
Link 169 200 1139 0 -0.00775067
Link 170 200 1140 0 -0.70357020
Link 171 200 1141 0 0.18282300
Link 172 200 1142 0 -0.96711038
Link 173 200 1143 0 0.02070473
Link 174 200 1144 0 -0.17111523
Link 175 200 1145 0 -0.08745626
Link 176 200 1146 0 0.36467859
Link 177 200 1147 0 -0.44654859
Link 178 200 1148 0 0.26515575
Link 179 200 1149 0 0.04687783
Link 180 200 1150 0 -0.01344043
Link 181 200 1151 0 -0.54745942
Link 182 200 1152 0 -0.18978290
Link 183 200 1153 0 -0.21300504
Link 184 200 1154 0 -0.17605411
Link 185 200 1155 0 0.22989960
Link 186 200 1156 0 0.84639833
Link 187 200 1157 0 0.46842114
Link 188 200 1158 0 0.19300437
Link 189 200 1159 0 -0.09053855
Link 190 200 1160 0 -0.76318681
Link 191 200 1161 0 1.36395440
Link 192 200 1162 0 -0.21038474
Link 193 200 1163 0 -0.43867324
Link 194 200 1164 0 -0.20100044
Link 1 201 1165 0 -0.07524189
Link 2 201 1166 0 -0.22266635
Link 3 201 1167 0 0.02751401
Link 4 201 1168 0 0.54837186
Link 5 201 1169 0 0.34222616
Link 6 201 1170 0 -0.56192638
Link 7 201 1171 0 0.56364293
Link 8 201 1172 0 -0.21938066
Link 9 201 1173 0 -0.25758535
Link 10 201 1174 0 -0.07345958
Link 11 201 1175 0 -0.79130892
Link 12 201 1176 0 0.45922418
Link 13 201 1177 0 0.43827562
Link 14 201 1178 0 -0.17152383
Link 15 201 1179 0 0.05278598
Link 16 201 1180 0 0.32942913
Link 17 201 1181 0 0.28603224
Link 18 201 1182 0 -0.38531178
Link 19 201 1183 0 -0.26170557
Link 20 201 1184 0 0.19827794
Link 21 201 1185 0 0.52721566
Link 22 201 1186 0 -0.16155557
Link 23 201 1187 0 0.03504022
Link 24 201 1188 0 0.89326221
Link 25 201 1189 0 0.22232956
Link 26 201 1190 0 -0.43555662
Link 27 201 1191 0 0.25970024
Link 28 201 1192 0 -0.51359257
Link 29 201 1193 0 -0.07717325
Link 30 201 1194 0 -0.20103798
Link 31 201 1195 0 -0.37381667
Link 32 201 1196 0 0.13023102
Link 33 201 1197 0 0.26088472
Link 34 201 1198 0 -0.41673487
Link 35 201 1199 0 0.21689897
Link 36 201 1200 0 -0.03819967
Link 37 201 1201 0 0.15148217
Link 38 201 1202 0 0.02819349
Link 39 201 1203 0 0.04852520
Link 40 201 1204 0 0.03734091
Link 41 201 1205 0 -0.41863349
Link 42 201 1206 0 -0.59550862
Link 43 201 1207 0 -0.25289405
Link 44 201 1208 0 -0.27889578
Link 45 201 1209 0 0.16980469
Link 46 201 1210 0 -0.12876459
Link 47 201 1211 0 -0.12874345
Link 48 201 1212 0 0.18166736
Link 49 201 1213 0 -0.31950024
Link 50 201 1214 0 0.25537655
Link 51 201 1215 0 0.02347538
Link 52 201 1216 0 0.20678986
Link 53 201 1217 0 -0.08081656
Link 54 201 1218 0 0.23400664
Link 55 201 1219 0 -0.32049898
Link 56 201 1220 0 0.15437128
Link 57 201 1221 0 -0.05020854
Link 58 201 1222 0 0.23579981
Link 59 201 1223 0 -0.36341980
Link 60 201 1224 0 -0.07958316
Link 61 201 1225 0 -0.09623208
Link 62 201 1226 0 0.08865419
Link 63 201 1227 0 0.16530271
Link 64 201 1228 0 0.48967191
Link 65 201 1229 0 0.41993363
Link 66 201 1230 0 0.07440600
Link 67 201 1231 0 -0.46956845
Link 68 201 1232 0 -0.18311363
Link 69 201 1233 0 0.47570529
Link 70 201 1234 0 -0.18118117
Link 71 201 1235 0 -0.16888353
Link 72 201 1236 0 0.16907403
Link 73 201 1237 0 0.35145338
Link 74 201 1238 0 0.00755794
Link 75 201 1239 0 0.15843905
Link 76 201 1240 0 0.07786471
Link 77 201 1241 0 0.67411980
Link 78 201 1242 0 -0.29580979
Link 79 201 1243 0 0.13085390
Link 80 201 1244 0 0.29538830
Link 81 201 1245 0 0.00257073
Link 82 201 1246 0 -0.03258453
Link 83 201 1247 0 -0.27599211
Link 84 201 1248 0 0.02792399
Link 85 201 1249 0 0.09675166
Link 86 201 1250 0 0.22745488
Link 87 201 1251 0 0.01902586
Link 88 201 1252 0 -0.07995716
Link 89 201 1253 0 -0.27654176
Link 90 201 1254 0 0.05817972
Link 91 201 1255 0 -0.20768442
Link 92 201 1256 0 -0.12515465
Link 93 201 1257 0 -0.03908262
Link 94 201 1258 0 -0.19460633
Link 95 201 1259 0 -0.02381363
Link 96 201 1260 0 -0.27926310
Link 97 201 1261 0 -0.36004920
Link 98 201 1262 0 -0.05539276
Link 99 201 1263 0 0.19160227
Link 100 201 1264 0 0.62394983
Link 101 201 1265 0 0.22929366
Link 102 201 1266 0 0.17072245
Link 103 201 1267 0 0.16573601
Link 104 201 1268 0 -0.17222069
Link 105 201 1269 0 0.71984322
Link 106 201 1270 0 0.54284033
Link 107 201 1271 0 -0.27135968
Link 108 201 1272 0 0.23233075
Link 109 201 1273 0 0.21871706
Link 110 201 1274 0 0.03353019
Link 111 201 1275 0 -0.32198699
Link 112 201 1276 0 -0.55362985
Link 113 201 1277 0 -0.31744231
Link 114 201 1278 0 0.03432022
Link 115 201 1279 0 0.30346216
Link 116 201 1280 0 -0.73833829
Link 117 201 1281 0 -0.20203957
Link 118 201 1282 0 -0.46451901
Link 119 201 1283 0 -0.11540531
Link 120 201 1284 0 -0.11414584
Link 121 201 1285 0 -0.03806057
Link 122 201 1286 0 0.15616707
Link 123 201 1287 0 -0.08814453
Link 124 201 1288 0 0.04978714
Link 125 201 1289 0 0.01655941
Link 126 201 1290 0 0.16055251
Link 127 201 1291 0 -0.29774921
Link 128 201 1292 0 0.21013921
Link 129 201 1293 0 -0.02998873
Link 130 201 1294 0 -0.28991108
Link 131 201 1295 0 -0.03882777
Link 132 201 1296 0 0.11088761
Link 133 201 1297 0 0.00981081
Link 134 201 1298 0 0.33315896
Link 135 201 1299 0 -0.35003529
Link 136 201 1300 0 -0.20973639
Link 137 201 1301 0 -0.60881152
Link 138 201 1302 0 -0.12061617
Link 139 201 1303 0 -0.20363289
Link 140 201 1304 0 -0.21704738
Link 141 201 1305 0 -0.25338545
Link 142 201 1306 0 0.01849981
Link 143 201 1307 0 0.22139453
Link 144 201 1308 0 -0.26011645
Link 145 201 1309 0 0.18046942
Link 146 201 1310 0 0.20902381
Link 147 201 1311 0 -0.35846120
Link 148 201 1312 0 0.52389117
Link 149 201 1313 0 -0.16632697
Link 150 201 1314 0 -0.41814380
Link 151 201 1315 0 0.24969930
Link 152 201 1316 0 -0.64000843
Link 153 201 1317 0 -0.11129524
Link 154 201 1318 0 -0.20731995
Link 155 201 1319 0 0.35557494
Link 156 201 1320 0 -0.14823814
Link 157 201 1321 0 -0.78055486
Link 158 201 1322 0 -0.30171034
Link 159 201 1323 0 -0.23274935
Link 160 201 1324 0 -0.38837571
Link 161 201 1325 0 0.07329902
Link 162 201 1326 0 -0.36498595
Link 163 201 1327 0 -0.41704897
Link 164 201 1328 0 0.00409186
Link 165 201 1329 0 -1.04057361
Link 166 201 1330 0 0.02184813
Link 167 201 1331 0 0.31146047
Link 168 201 1332 0 0.46125869
Link 169 201 1333 0 -0.55395658
Link 170 201 1334 0 0.04680692
Link 171 201 1335 0 -0.01997550
Link 172 201 1336 0 -0.05912192
Link 173 201 1337 0 0.26914071
Link 174 201 1338 0 -0.13472323
Link 175 201 1339 0 -0.17678694
Link 176 201 1340 0 -0.21043109
Link 177 201 1341 0 0.03241829
Link 178 201 1342 0 -0.04066180
Link 179 201 1343 0 0.09912772
Link 180 201 1344 0 -0.09120578
Link 181 201 1345 0 -0.06728354
Link 182 201 1346 0 0.62066791
Link 183 201 1347 0 0.38524697
Link 184 201 1348 0 -0.34116373
Link 185 201 1349 0 0.62480637
Link 186 201 1350 0 0.34616275
Link 187 201 1351 0 -0.28836550
Link 188 201 1352 0 -0.41006285
Link 189 201 1353 0 0.06362801
Link 190 201 1354 0 -0.42531534
Link 191 201 1355 0 -0.22940101
Link 192 201 1356 0 -0.27995715
Link 193 201 1357 0 -0.08431520
Link 194 201 1358 0 -0.18974181
Link 1 202 1359 0 -0.24941605
Link 2 202 1360 0 0.18801633
Link 3 202 1361 0 -0.12579575
Link 4 202 1362 0 0.09135264
Link 5 202 1363 0 -0.65980193
Link 6 202 1364 0 0.05715561
Link 7 202 1365 0 0.26836730
Link 8 202 1366 0 -0.04929147
Link 9 202 1367 0 0.23348566
Link 10 202 1368 0 -0.22012534
Link 11 202 1369 0 -0.14107525
Link 12 202 1370 0 0.04961805
Link 13 202 1371 0 0.00856157
Link 14 202 1372 0 0.20717447
Link 15 202 1373 0 -0.50715916
Link 16 202 1374 0 -0.16838510
Link 17 202 1375 0 -0.09023292
Link 18 202 1376 0 -0.20189790
Link 19 202 1377 0 0.41433324
Link 20 202 1378 0 -0.00503877
Link 21 202 1379 0 -0.31703960
Link 22 202 1380 0 0.04473327
Link 23 202 1381 0 -0.05350318
Link 24 202 1382 0 -0.25286668
Link 25 202 1383 0 -0.60905372
Link 26 202 1384 0 0.21238020
Link 27 202 1385 0 -0.31350592
Link 28 202 1386 0 0.05067493
Link 29 202 1387 0 -0.42104935
Link 30 202 1388 0 0.23853376
Link 31 202 1389 0 0.30197954
Link 32 202 1390 0 -0.21638090
Link 33 202 1391 0 0.18509839
Link 34 202 1392 0 -0.27315492
Link 35 202 1393 0 -0.09337748
Link 36 202 1394 0 -0.25158138
Link 37 202 1395 0 0.61440000
Link 38 202 1396 0 -0.21877766
Link 39 202 1397 0 -0.13029277
Link 40 202 1398 0 0.07233818
Link 41 202 1399 0 0.52166124
Link 42 202 1400 0 0.12251366
Link 43 202 1401 0 -0.47226433
Link 44 202 1402 0 -0.38073098
Link 45 202 1403 0 -0.11673766
Link 46 202 1404 0 0.09624294
Link 47 202 1405 0 0.20124161
Link 48 202 1406 0 -0.13826916
Link 49 202 1407 0 0.12527223
Link 50 202 1408 0 -0.24636306
Link 51 202 1409 0 -0.67913373
Link 52 202 1410 0 0.31117875
Link 53 202 1411 0 0.31819547
Link 54 202 1412 0 -0.15588768
Link 55 202 1413 0 0.14037606
Link 56 202 1414 0 -0.06784874
Link 57 202 1415 0 0.04293684
Link 58 202 1416 0 -0.20124458
Link 59 202 1417 0 0.23960487
Link 60 202 1418 0 -0.64771500
Link 61 202 1419 0 -0.03079849
Link 62 202 1420 0 -0.01051914
Link 63 202 1421 0 0.32722497
Link 64 202 1422 0 -0.25129331
Link 65 202 1423 0 0.18875386
Link 66 202 1424 0 -0.14826077
Link 67 202 1425 0 0.35079723
Link 68 202 1426 0 0.54896320
Link 69 202 1427 0 0.12254165
Link 70 202 1428 0 0.42418479
Link 71 202 1429 0 0.19156883
Link 72 202 1430 0 -0.21651641
Link 73 202 1431 0 0.39607537
Link 74 202 1432 0 -0.22170300
Link 75 202 1433 0 -0.04066144
Link 76 202 1434 0 -0.14453215
Link 77 202 1435 0 0.20980875
Link 78 202 1436 0 -0.35798373
Link 79 202 1437 0 0.26162955
Link 80 202 1438 0 -0.25910954
Link 81 202 1439 0 -0.20170234
Link 82 202 1440 0 -0.30011033
Link 83 202 1441 0 0.25103731
Link 84 202 1442 0 -0.31445933
Link 85 202 1443 0 -0.60166700
Link 86 202 1444 0 -0.57630455
Link 87 202 1445 0 -0.45336569
Link 88 202 1446 0 -0.30570828
Link 89 202 1447 0 0.32223380
Link 90 202 1448 0 -0.85505293
Link 91 202 1449 0 0.19509140
Link 92 202 1450 0 0.27156122
Link 93 202 1451 0 -0.39514008
Link 94 202 1452 0 -0.46854686
Link 95 202 1453 0 0.13061712
Link 96 202 1454 0 0.05273986
Link 97 202 1455 0 -0.04472617
Link 98 202 1456 0 -0.04647358
Link 99 202 1457 0 0.32402307
Link 100 202 1458 0 -0.28143544
Link 101 202 1459 0 0.02387405
Link 102 202 1460 0 -0.24938277
Link 103 202 1461 0 -0.03144491
Link 104 202 1462 0 -0.29114902
Link 105 202 1463 0 0.29958581
Link 106 202 1464 0 -0.18429433
Link 107 202 1465 0 -0.12879142
Link 108 202 1466 0 -0.26598981
Link 109 202 1467 0 0.00714598
Link 110 202 1468 0 -0.53455911
Link 111 202 1469 0 0.07372215
Link 112 202 1470 0 0.23187516
Link 113 202 1471 0 0.00385401
Link 114 202 1472 0 0.17640948
Link 115 202 1473 0 0.25171861
Link 116 202 1474 0 0.18187228
Link 117 202 1475 0 0.11846613
Link 118 202 1476 0 0.07856494
Link 119 202 1477 0 -0.70308646
Link 120 202 1478 0 -0.17309497
Link 121 202 1479 0 -0.50132788
Link 122 202 1480 0 -0.05596479
Link 123 202 1481 0 -0.27754480
Link 124 202 1482 0 0.45448489
Link 125 202 1483 0 0.08487094
Link 126 202 1484 0 -0.50051773
Link 127 202 1485 0 0.11977585
Link 128 202 1486 0 0.22822235
Link 129 202 1487 0 -0.36632895
Link 130 202 1488 0 -0.58338043
Link 131 202 1489 0 0.09267883
Link 132 202 1490 0 -0.87170966
Link 133 202 1491 0 0.20141146
Link 134 202 1492 0 -0.16304846
Link 135 202 1493 0 -0.30695496
Link 136 202 1494 0 -0.09009091
Link 137 202 1495 0 0.19309232
Link 138 202 1496 0 -0.24954206
Link 139 202 1497 0 -0.04792060
Link 140 202 1498 0 -0.08079175
Link 141 202 1499 0 -0.51984680
Link 142 202 1500 0 0.25971096
Link 143 202 1501 0 0.13257413
Link 144 202 1502 0 -0.26981394
Link 145 202 1503 0 -1.06217084
Link 146 202 1504 0 -0.09176296
Link 147 202 1505 0 -0.31406455
Link 148 202 1506 0 -0.35641166
Link 149 202 1507 0 -0.29194800
Link 150 202 1508 0 0.33942472
Link 151 202 1509 0 0.32851253
Link 152 202 1510 0 0.02466496
Link 153 202 1511 0 -0.45573305
Link 154 202 1512 0 -0.24703060
Link 155 202 1513 0 0.16026957
Link 156 202 1514 0 0.01651959
Link 157 202 1515 0 0.07544518
Link 158 202 1516 0 0.02619150
Link 159 202 1517 0 0.45691881
Link 160 202 1518 0 0.08766999
Link 161 202 1519 0 -0.24273761
Link 162 202 1520 0 -0.31942850
Link 163 202 1521 0 0.36373336
Link 164 202 1522 0 0.04062914
Link 165 202 1523 0 0.02591131
Link 166 202 1524 0 -0.16562750
Link 167 202 1525 0 0.11710710
Link 168 202 1526 0 0.05120206
Link 169 202 1527 0 0.14264839
Link 170 202 1528 0 0.12363656
Link 171 202 1529 0 -0.27931801
Link 172 202 1530 0 -0.14052237
Link 173 202 1531 0 -0.03560060
Link 174 202 1532 0 -0.34576745
Link 175 202 1533 0 0.54504343
Link 176 202 1534 0 0.19184558
Link 177 202 1535 0 -0.54863452
Link 178 202 1536 0 -0.22806336
Link 179 202 1537 0 1.14183285
Link 180 202 1538 0 -0.49200380
Link 181 202 1539 0 -0.56068801
Link 182 202 1540 0 0.07767452
Link 183 202 1541 0 -0.10132609
Link 184 202 1542 0 0.25372754
Link 185 202 1543 0 -0.23115972
Link 186 202 1544 0 -0.11369768
Link 187 202 1545 0 0.07473474
Link 188 202 1546 0 -0.09774764
Link 189 202 1547 0 -0.18074716
Link 190 202 1548 0 -0.31531055
Link 191 202 1549 0 -0.15906007
Link 192 202 1550 0 -0.35076019
Link 193 202 1551 0 -0.18716081
Link 194 202 1552 0 -0.02133270
Link 1 203 1553 0 0.11734965
Link 2 203 1554 0 -0.10986157
Link 3 203 1555 0 0.12719614
Link 4 203 1556 0 0.40178016
Link 5 203 1557 0 -0.38411967
Link 6 203 1558 0 0.42706817
Link 7 203 1559 0 0.14615463
Link 8 203 1560 0 0.10378544
Link 9 203 1561 0 -0.35638805
Link 10 203 1562 0 -0.01914402
Link 11 203 1563 0 0.00399800
Link 12 203 1564 0 0.02801886
Link 13 203 1565 0 0.63005712
Link 14 203 1566 0 -0.32748819
Link 15 203 1567 0 -0.22371470
Link 16 203 1568 0 -0.16908853
Link 17 203 1569 0 -0.06512826
Link 18 203 1570 0 0.20183771
Link 19 203 1571 0 -0.35775668
Link 20 203 1572 0 0.26592957
Link 21 203 1573 0 0.23598686
Link 22 203 1574 0 0.31910405
Link 23 203 1575 0 -0.31090841
Link 24 203 1576 0 -0.54286243
Link 25 203 1577 0 0.15880643
Link 26 203 1578 0 -0.01838626
Link 27 203 1579 0 -0.20481502
Link 28 203 1580 0 -0.62136704
Link 29 203 1581 0 -0.19860318
Link 30 203 1582 0 0.21239339
Link 31 203 1583 0 -0.24331941
Link 32 203 1584 0 0.48419718
Link 33 203 1585 0 0.44070416
Link 34 203 1586 0 -0.19018521
Link 35 203 1587 0 0.35872395
Link 36 203 1588 0 0.38599446
Link 37 203 1589 0 0.48970635
Link 38 203 1590 0 -0.12013104
Link 39 203 1591 0 0.07859587
Link 40 203 1592 0 -0.47399734
Link 41 203 1593 0 0.03102353
Link 42 203 1594 0 0.07556472
Link 43 203 1595 0 0.22355121
Link 44 203 1596 0 -0.10222003
Link 45 203 1597 0 0.14385307
Link 46 203 1598 0 -0.21205748
Link 47 203 1599 0 -0.02033446
Link 48 203 1600 0 0.09108949
Link 49 203 1601 0 0.01519662
Link 50 203 1602 0 -0.10372044
Link 51 203 1603 0 0.00967048
Link 52 203 1604 0 0.44593174
Link 53 203 1605 0 0.38670997
Link 54 203 1606 0 -0.40559842
Link 55 203 1607 0 -0.19357890
Link 56 203 1608 0 -0.01503695
Link 57 203 1609 0 -0.05779179
Link 58 203 1610 0 -0.19429196
Link 59 203 1611 0 0.09278455
Link 60 203 1612 0 -0.20624454
Link 61 203 1613 0 0.48034662
Link 62 203 1614 0 0.12592219
Link 63 203 1615 0 -0.11123225
Link 64 203 1616 0 -0.25373275
Link 65 203 1617 0 0.32096650
Link 66 203 1618 0 0.00756512
Link 67 203 1619 0 -0.12445571
Link 68 203 1620 0 0.05349981
Link 69 203 1621 0 -0.13586514
Link 70 203 1622 0 -0.30921182
Link 71 203 1623 0 0.44522051
Link 72 203 1624 0 0.28844325
Link 73 203 1625 0 0.38876678
Link 74 203 1626 0 -0.06792376
Link 75 203 1627 0 -0.20051100
Link 76 203 1628 0 -0.16801939
Link 77 203 1629 0 -0.00840704
Link 78 203 1630 0 -0.67216366
Link 79 203 1631 0 -0.23349573
Link 80 203 1632 0 -0.48131826
Link 81 203 1633 0 0.36967237
Link 82 203 1634 0 -0.32935630
Link 83 203 1635 0 -0.08308164
Link 84 203 1636 0 0.41175637
Link 85 203 1637 0 -0.15046189
Link 86 203 1638 0 -0.22115327
Link 87 203 1639 0 0.18477000
Link 88 203 1640 0 -0.28037316
Link 89 203 1641 0 -0.07899591
Link 90 203 1642 0 0.36455565
Link 91 203 1643 0 0.35502697
Link 92 203 1644 0 -0.16367519
Link 93 203 1645 0 -0.74640676
Link 94 203 1646 0 0.00240947
Link 95 203 1647 0 0.37400702
Link 96 203 1648 0 0.10363865
Link 97 203 1649 0 -0.08584746
Link 98 203 1650 0 -0.32909659
Link 99 203 1651 0 -0.34438114
Link 100 203 1652 0 -0.20913545
Link 101 203 1653 0 0.28499563
Link 102 203 1654 0 -0.11203766
Link 103 203 1655 0 0.29756988
Link 104 203 1656 0 0.75060759
Link 105 203 1657 0 0.09002840
Link 106 203 1658 0 -0.02784048
Link 107 203 1659 0 -0.27747120
Link 108 203 1660 0 -0.32779218
Link 109 203 1661 0 0.07158439
Link 110 203 1662 0 0.12291031
Link 111 203 1663 0 -0.13529717
Link 112 203 1664 0 -0.25621201
Link 113 203 1665 0 0.81670519
Link 114 203 1666 0 0.35288909
Link 115 203 1667 0 -0.96182917
Link 116 203 1668 0 0.16580029
Link 117 203 1669 0 -0.41404403
Link 118 203 1670 0 -0.16673740
Link 119 203 1671 0 -0.16318289
Link 120 203 1672 0 0.30066649
Link 121 203 1673 0 0.46060077
Link 122 203 1674 0 0.13005957
Link 123 203 1675 0 0.25872026
Link 124 203 1676 0 0.27632775
Link 125 203 1677 0 0.38208270
Link 126 203 1678 0 -0.47299456
Link 127 203 1679 0 0.11620016
Link 128 203 1680 0 -0.28640074
Link 129 203 1681 0 0.00950610
Link 130 203 1682 0 0.41637854
Link 131 203 1683 0 0.21382319
Link 132 203 1684 0 -0.55773714
Link 133 203 1685 0 0.02875652
Link 134 203 1686 0 -0.18584431
Link 135 203 1687 0 -0.26283307
Link 136 203 1688 0 -0.04840620
Link 137 203 1689 0 -0.19381668
Link 138 203 1690 0 -0.78981159
Link 139 203 1691 0 -0.17501077
Link 140 203 1692 0 -0.21030872
Link 141 203 1693 0 0.30720034
Link 142 203 1694 0 -0.14668879
Link 143 203 1695 0 -0.13937768
Link 144 203 1696 0 0.38330678
Link 145 203 1697 0 0.04285762
Link 146 203 1698 0 -0.30110818
Link 147 203 1699 0 -0.26238105
Link 148 203 1700 0 0.08819176
Link 149 203 1701 0 -0.62759147
Link 150 203 1702 0 -0.28045207
Link 151 203 1703 0 0.40076966
Link 152 203 1704 0 0.17412431
Link 153 203 1705 0 0.05681042
Link 154 203 1706 0 0.04960668
Link 155 203 1707 0 -0.21880359
Link 156 203 1708 0 0.15485480
Link 157 203 1709 0 0.58183162
Link 158 203 1710 0 -0.56672088
Link 159 203 1711 0 -0.10029667
Link 160 203 1712 0 0.29919203
Link 161 203 1713 0 0.17080054
Link 162 203 1714 0 0.21880380
Link 163 203 1715 0 -0.46028381
Link 164 203 1716 0 0.50523883
Link 165 203 1717 0 0.24920942
Link 166 203 1718 0 0.16741293
Link 167 203 1719 0 -0.06473475
Link 168 203 1720 0 0.20724723
Link 169 203 1721 0 -0.00541876
Link 170 203 1722 0 0.19416171
Link 171 203 1723 0 -0.38410463
Link 172 203 1724 0 0.23515910
Link 173 203 1725 0 -0.07508927
Link 174 203 1726 0 -0.24435778
Link 175 203 1727 0 0.57794100
Link 176 203 1728 0 -0.27410612
Link 177 203 1729 0 -0.43054043
Link 178 203 1730 0 -0.24032526
Link 179 203 1731 0 0.24955105
Link 180 203 1732 0 -0.20063630
Link 181 203 1733 0 0.23908761
Link 182 203 1734 0 0.05781300
Link 183 203 1735 0 -0.01472107
Link 184 203 1736 0 -0.40923212
Link 185 203 1737 0 -0.05447576
Link 186 203 1738 0 0.27397745
Link 187 203 1739 0 0.15386764
Link 188 203 1740 0 -0.40998683
Link 189 203 1741 0 0.11402041
Link 190 203 1742 0 0.13968452
Link 191 203 1743 0 0.42434148
Link 192 203 1744 0 -0.33369496
Link 193 203 1745 0 -0.21806512
Link 194 203 1746 0 -0.04761826
Link 1 204 1747 0 -0.06240318
Link 2 204 1748 0 -0.55541609
Link 3 204 1749 0 0.04144280
Link 4 204 1750 0 -0.87765591
Link 5 204 1751 0 -0.15773453
Link 6 204 1752 0 0.29488263
Link 7 204 1753 0 -0.08870864
Link 8 204 1754 0 -0.10394460
Link 9 204 1755 0 -0.02911407
Link 10 204 1756 0 0.28302838
Link 11 204 1757 0 -0.17462404
Link 12 204 1758 0 -0.07431799
Link 13 204 1759 0 -0.16490225
Link 14 204 1760 0 -0.10925098
Link 15 204 1761 0 -0.71591799
Link 16 204 1762 0 -0.38631223
Link 17 204 1763 0 -0.14654810
Link 18 204 1764 0 -0.21636666
Link 19 204 1765 0 -0.66340461
Link 20 204 1766 0 -0.24481320
Link 21 204 1767 0 0.29152387
Link 22 204 1768 0 0.08202549
Link 23 204 1769 0 -0.29532707
Link 24 204 1770 0 -0.14510581
Link 25 204 1771 0 0.24182255
Link 26 204 1772 0 0.21754893
Link 27 204 1773 0 -0.29799972
Link 28 204 1774 0 0.63070028
Link 29 204 1775 0 0.33139828
Link 30 204 1776 0 -0.10179237
Link 31 204 1777 0 0.38625933
Link 32 204 1778 0 -0.12334173
Link 33 204 1779 0 0.37988181
Link 34 204 1780 0 -0.10477496
Link 35 204 1781 0 -0.41987555
Link 36 204 1782 0 0.53055859
Link 37 204 1783 0 -0.33849599
Link 38 204 1784 0 0.24081973
Link 39 204 1785 0 -0.00619444
Link 40 204 1786 0 -0.62958569
Link 41 204 1787 0 -0.36415738
Link 42 204 1788 0 0.01625688
Link 43 204 1789 0 0.24026697
Link 44 204 1790 0 -0.28787786
Link 45 204 1791 0 -0.22547682
Link 46 204 1792 0 0.22378040
Link 47 204 1793 0 0.13722438
Link 48 204 1794 0 -0.31053375
Link 49 204 1795 0 -0.04447379
Link 50 204 1796 0 -0.52839963
Link 51 204 1797 0 0.33669512
Link 52 204 1798 0 0.87094248
Link 53 204 1799 0 0.59548046
Link 54 204 1800 0 0.14609031
Link 55 204 1801 0 -0.14325596
Link 56 204 1802 0 -0.35651295
Link 57 204 1803 0 0.05834377
Link 58 204 1804 0 -0.70207712
Link 59 204 1805 0 0.13608716
Link 60 204 1806 0 -0.70107677
Link 61 204 1807 0 -0.19533467
Link 62 204 1808 0 0.20980366
Link 63 204 1809 0 -0.09484080
Link 64 204 1810 0 0.61362272
Link 65 204 1811 0 0.15305746
Link 66 204 1812 0 -0.07811378
Link 67 204 1813 0 0.03518759
Link 68 204 1814 0 -0.75170157
Link 69 204 1815 0 -0.35658273
Link 70 204 1816 0 -0.06684008
Link 71 204 1817 0 0.10045135
Link 72 204 1818 0 -0.14240799
Link 73 204 1819 0 -0.37096397
Link 74 204 1820 0 -0.01757357
Link 75 204 1821 0 0.40586090
Link 76 204 1822 0 -0.06453894
Link 77 204 1823 0 0.21018768
Link 78 204 1824 0 0.12527284
Link 79 204 1825 0 0.14870232
Link 80 204 1826 0 -0.16248815
Link 81 204 1827 0 0.35869716
Link 82 204 1828 0 0.30368814
Link 83 204 1829 0 -0.28911887
Link 84 204 1830 0 0.84411394
Link 85 204 1831 0 -0.43090924
Link 86 204 1832 0 0.22176912
Link 87 204 1833 0 0.33312225
Link 88 204 1834 0 -0.78766712
Link 89 204 1835 0 0.02369313
Link 90 204 1836 0 0.08357958
Link 91 204 1837 0 0.29036412
Link 92 204 1838 0 -0.57717905
Link 93 204 1839 0 -0.39509515
Link 94 204 1840 0 -0.14408313
Link 95 204 1841 0 -0.06291371
Link 96 204 1842 0 -0.39657984
Link 97 204 1843 0 0.01129403
Link 98 204 1844 0 0.04723163
Link 99 204 1845 0 0.33733390
Link 100 204 1846 0 -0.03790428
Link 101 204 1847 0 0.18966626
Link 102 204 1848 0 -0.00155529
Link 103 204 1849 0 -0.01600159
Link 104 204 1850 0 -0.36670003
Link 105 204 1851 0 -0.02610628
Link 106 204 1852 0 0.12605789
Link 107 204 1853 0 -0.03723277
Link 108 204 1854 0 0.45479636
Link 109 204 1855 0 -0.02067226
Link 110 204 1856 0 0.07465423
Link 111 204 1857 0 -0.04220227
Link 112 204 1858 0 0.47241187
Link 113 204 1859 0 -0.30697042
Link 114 204 1860 0 0.32266466
Link 115 204 1861 0 -0.53540471
Link 116 204 1862 0 -0.17288781
Link 117 204 1863 0 0.35100566
Link 118 204 1864 0 0.17330364
Link 119 204 1865 0 -0.52743737
Link 120 204 1866 0 -0.74237812
Link 121 204 1867 0 -0.39637566
Link 122 204 1868 0 -0.17660056
Link 123 204 1869 0 -0.14665451
Link 124 204 1870 0 0.04474332
Link 125 204 1871 0 0.19502246
Link 126 204 1872 0 0.08576669
Link 127 204 1873 0 -0.56507411
Link 128 204 1874 0 -0.17063223
Link 129 204 1875 0 0.29814947
Link 130 204 1876 0 0.30877629
Link 131 204 1877 0 0.33267668
Link 132 204 1878 0 0.03258940
Link 133 204 1879 0 0.11673527
Link 134 204 1880 0 0.54064408
Link 135 204 1881 0 0.21389244
Link 136 204 1882 0 0.64824468
Link 137 204 1883 0 -0.56378876
Link 138 204 1884 0 -0.09842658
Link 139 204 1885 0 -0.74749959
Link 140 204 1886 0 -0.33383546
Link 141 204 1887 0 -0.01170917
Link 142 204 1888 0 -0.21937706
Link 143 204 1889 0 0.35027536
Link 144 204 1890 0 -0.16626672
Link 145 204 1891 0 -0.20232448
Link 146 204 1892 0 -0.08829161
Link 147 204 1893 0 0.39463135
Link 148 204 1894 0 0.12815357
Link 149 204 1895 0 0.12153603
Link 150 204 1896 0 -0.56403417
Link 151 204 1897 0 -0.21895844
Link 152 204 1898 0 0.28699537
Link 153 204 1899 0 -0.00899721
Link 154 204 1900 0 0.40743301
Link 155 204 1901 0 0.56150005
Link 156 204 1902 0 -0.08125352
Link 157 204 1903 0 0.21789584
Link 158 204 1904 0 -0.21198722
Link 159 204 1905 0 -0.31059099
Link 160 204 1906 0 -0.21095835
Link 161 204 1907 0 -0.34590541
Link 162 204 1908 0 -0.04682134
Link 163 204 1909 0 0.01680929
Link 164 204 1910 0 -0.07839196
Link 165 204 1911 0 -0.36180254
Link 166 204 1912 0 0.45352544
Link 167 204 1913 0 0.17478832
Link 168 204 1914 0 0.08702155
Link 169 204 1915 0 -0.08526460
Link 170 204 1916 0 -0.47015268
Link 171 204 1917 0 0.15313271
Link 172 204 1918 0 -0.43071891
Link 173 204 1919 0 -0.02015356
Link 174 204 1920 0 -0.27160347
Link 175 204 1921 0 -0.20866379
Link 176 204 1922 0 -0.06465691
Link 177 204 1923 0 -0.05493221
Link 178 204 1924 0 -0.39378556
Link 179 204 1925 0 -0.66352880
Link 180 204 1926 0 -0.29327110
Link 181 204 1927 0 -0.48811882
Link 182 204 1928 0 -0.07560127
Link 183 204 1929 0 0.47206318
Link 184 204 1930 0 -0.01958357
Link 185 204 1931 0 0.14747827
Link 186 204 1932 0 0.07307794
Link 187 204 1933 0 0.10749207
Link 188 204 1934 0 -0.58953959
Link 189 204 1935 0 0.15073859
Link 190 204 1936 0 -0.32025604
Link 191 204 1937 0 -0.47427330
Link 192 204 1938 0 -0.13571844
Link 193 204 1939 0 -0.04473430
Link 194 204 1940 0 -0.16035483
Link 1 205 1941 0 -0.14824203
Link 2 205 1942 0 -0.76853846
Link 3 205 1943 0 0.18010779
Link 4 205 1944 0 0.28024414
Link 5 205 1945 0 -0.04525071
Link 6 205 1946 0 -0.43756360
Link 7 205 1947 0 -0.04222444
Link 8 205 1948 0 -0.25033512
Link 9 205 1949 0 0.00535946
Link 10 205 1950 0 0.35206719
Link 11 205 1951 0 -0.21933671
Link 12 205 1952 0 0.11831044
Link 13 205 1953 0 0.34604472
Link 14 205 1954 0 0.36024449
Link 15 205 1955 0 -0.65216531
Link 16 205 1956 0 -0.04757304
Link 17 205 1957 0 -0.10749542
Link 18 205 1958 0 -0.18477058
Link 19 205 1959 0 0.28959334
Link 20 205 1960 0 -0.08393945
Link 21 205 1961 0 0.21052356
Link 22 205 1962 0 -0.10593807
Link 23 205 1963 0 -0.33802578
Link 24 205 1964 0 0.21194980
Link 25 205 1965 0 -0.08691485
Link 26 205 1966 0 0.19409998
Link 27 205 1967 0 -0.24493347
Link 28 205 1968 0 -0.25745174
Link 29 205 1969 0 0.19260106
Link 30 205 1970 0 0.12579894
Link 31 205 1971 0 -0.26163613
Link 32 205 1972 0 -0.02402297
Link 33 205 1973 0 0.29290033
Link 34 205 1974 0 0.00786081
Link 35 205 1975 0 -0.20605516
Link 36 205 1976 0 -0.12387666
Link 37 205 1977 0 -0.08282337
Link 38 205 1978 0 0.20800727
Link 39 205 1979 0 -0.53270752
Link 40 205 1980 0 -0.09419307
Link 41 205 1981 0 0.17574815
Link 42 205 1982 0 0.02552335
Link 43 205 1983 0 -0.05993226
Link 44 205 1984 0 -0.21354235
Link 45 205 1985 0 -0.11703264
Link 46 205 1986 0 -0.20763777
Link 47 205 1987 0 0.01406725
Link 48 205 1988 0 0.15300687
Link 49 205 1989 0 0.21039411
Link 50 205 1990 0 0.12036494
Link 51 205 1991 0 -0.35034081
Link 52 205 1992 0 -0.41189465
Link 53 205 1993 0 -0.49118883
Link 54 205 1994 0 0.13642778
Link 55 205 1995 0 0.06940725
Link 56 205 1996 0 -0.15993756
Link 57 205 1997 0 0.17740056
Link 58 205 1998 0 -0.08376367
Link 59 205 1999 0 -0.14422617
Link 60 205 2000 0 0.11269663
Link 61 205 2001 0 0.04795953
Link 62 205 2002 0 0.44411897
Link 63 205 2003 0 0.16380374
Link 64 205 2004 0 -0.12489957
Link 65 205 2005 0 -0.01096530
Link 66 205 2006 0 -0.16336029
Link 67 205 2007 0 -0.20402631
Link 68 205 2008 0 0.13085817
Link 69 205 2009 0 -0.22309833
Link 70 205 2010 0 0.09606140
Link 71 205 2011 0 -0.08858176
Link 72 205 2012 0 -0.07410159
Link 73 205 2013 0 0.14418239
Link 74 205 2014 0 -0.24146201
Link 75 205 2015 0 0.14177565
Link 76 205 2016 0 -0.20280055
Link 77 205 2017 0 0.33286037
Link 78 205 2018 0 0.26326555
Link 79 205 2019 0 0.29812732
Link 80 205 2020 0 0.16381149
Link 81 205 2021 0 0.20001648
Link 82 205 2022 0 0.23577119
Link 83 205 2023 0 0.18229507
Link 84 205 2024 0 0.16959987
Link 85 205 2025 0 0.33539266
Link 86 205 2026 0 -0.58601324
Link 87 205 2027 0 0.35255229
Link 88 205 2028 0 0.06745834
Link 89 205 2029 0 -0.68744231
Link 90 205 2030 0 -0.36803285
Link 91 205 2031 0 0.01092703
Link 92 205 2032 0 0.02124461
Link 93 205 2033 0 -0.27330409
Link 94 205 2034 0 -0.25053520
Link 95 205 2035 0 -0.03109032
Link 96 205 2036 0 -0.47478304
Link 97 205 2037 0 0.15237251
Link 98 205 2038 0 -0.23011113
Link 99 205 2039 0 0.66283710
Link 100 205 2040 0 -0.39152987
Link 101 205 2041 0 -0.11077116
Link 102 205 2042 0 -0.34867814
Link 103 205 2043 0 0.14418643
Link 104 205 2044 0 0.31451800
Link 105 205 2045 0 0.11828844
Link 106 205 2046 0 -0.06461546
Link 107 205 2047 0 0.40649831
Link 108 205 2048 0 -0.54566388
Link 109 205 2049 0 0.01285885
Link 110 205 2050 0 -0.20836748
Link 111 205 2051 0 -0.67802850
Link 112 205 2052 0 -0.48222210
Link 113 205 2053 0 -0.38035789
Link 114 205 2054 0 -0.00498962
Link 115 205 2055 0 0.06124254
Link 116 205 2056 0 -0.08935415
Link 117 205 2057 0 -0.11489079
Link 118 205 2058 0 0.12278251
Link 119 205 2059 0 0.36866763
Link 120 205 2060 0 -0.48688658
Link 121 205 2061 0 -0.36394266
Link 122 205 2062 0 -0.07734741
Link 123 205 2063 0 0.09541846
Link 124 205 2064 0 0.88888303
Link 125 205 2065 0 0.28693535
Link 126 205 2066 0 -1.02223590
Link 127 205 2067 0 0.01034355
Link 128 205 2068 0 0.06762168
Link 129 205 2069 0 -0.11311858
Link 130 205 2070 0 -0.09924180
Link 131 205 2071 0 -0.16607935
Link 132 205 2072 0 -0.02911013
Link 133 205 2073 0 0.38031784
Link 134 205 2074 0 0.78379093
Link 135 205 2075 0 -0.02655304
Link 136 205 2076 0 -0.54143473
Link 137 205 2077 0 -0.07243533
Link 138 205 2078 0 0.03471581
Link 139 205 2079 0 -0.41518988
Link 140 205 2080 0 -0.41061595
Link 141 205 2081 0 0.15159704
Link 142 205 2082 0 -0.63481075
Link 143 205 2083 0 -0.29358343
Link 144 205 2084 0 0.19883413
Link 145 205 2085 0 -0.47475160
Link 146 205 2086 0 0.40483484
Link 147 205 2087 0 0.54866621
Link 148 205 2088 0 -0.11611976
Link 149 205 2089 0 -0.20415510
Link 150 205 2090 0 -0.39819552
Link 151 205 2091 0 0.01764753
Link 152 205 2092 0 -0.17316721
Link 153 205 2093 0 -0.00512848
Link 154 205 2094 0 -0.20871983
Link 155 205 2095 0 -0.88448906
Link 156 205 2096 0 -0.87772886
Link 157 205 2097 0 0.15295075
Link 158 205 2098 0 0.39243926
Link 159 205 2099 0 -0.45464571
Link 160 205 2100 0 0.38394139
Link 161 205 2101 0 -0.07224115
Link 162 205 2102 0 -0.38005557
Link 163 205 2103 0 -0.04516454
Link 164 205 2104 0 -0.01330412
Link 165 205 2105 0 -0.03295586
Link 166 205 2106 0 -0.44479208
Link 167 205 2107 0 -0.22017125
Link 168 205 2108 0 -0.60065319
Link 169 205 2109 0 0.46551040
Link 170 205 2110 0 0.17772049
Link 171 205 2111 0 -0.09558231
Link 172 205 2112 0 -0.04712433
Link 173 205 2113 0 -0.16677508
Link 174 205 2114 0 0.03277137
Link 175 205 2115 0 -0.32214397
Link 176 205 2116 0 -0.11105670
Link 177 205 2117 0 0.18762924
Link 178 205 2118 0 -0.34173027
Link 179 205 2119 0 0.04543126
Link 180 205 2120 0 -0.18877875
Link 181 205 2121 0 -0.07220662
Link 182 205 2122 0 0.23870422
Link 183 205 2123 0 0.16078647
Link 184 205 2124 0 -0.49092993
Link 185 205 2125 0 0.06275831
Link 186 205 2126 0 0.03563988
Link 187 205 2127 0 -0.35049725
Link 188 205 2128 0 0.33491609
Link 189 205 2129 0 -0.23500247
Link 190 205 2130 0 -0.46339562
Link 191 205 2131 0 -0.39481805
Link 192 205 2132 0 -0.44517593
Link 193 205 2133 0 -0.02187885
Link 194 205 2134 0 -0.56264743
Link 1 206 2135 0 0.14083657
Link 2 206 2136 0 0.26176226
Link 3 206 2137 0 -0.55731407
Link 4 206 2138 0 -0.09241923
Link 5 206 2139 0 -0.18675002
Link 6 206 2140 0 0.22412716
Link 7 206 2141 0 -0.47733052
Link 8 206 2142 0 -0.04073610
Link 9 206 2143 0 -0.06616568
Link 10 206 2144 0 -0.08484228
Link 11 206 2145 0 0.06333426
Link 12 206 2146 0 -0.05520596
Link 13 206 2147 0 -0.00978972
Link 14 206 2148 0 0.24836987
Link 15 206 2149 0 0.44177966
Link 16 206 2150 0 0.06464866
Link 17 206 2151 0 0.06545116
Link 18 206 2152 0 0.60330356
Link 19 206 2153 0 0.29422433
Link 20 206 2154 0 0.43464132
Link 21 206 2155 0 -0.11402978
Link 22 206 2156 0 0.17895048
Link 23 206 2157 0 0.35050568
Link 24 206 2158 0 -0.03186309
Link 25 206 2159 0 -0.01465920
Link 26 206 2160 0 0.41068219
Link 27 206 2161 0 -0.08457904
Link 28 206 2162 0 0.19511379
Link 29 206 2163 0 0.13373111
Link 30 206 2164 0 0.08379983
Link 31 206 2165 0 0.00838243
Link 32 206 2166 0 0.11668540
Link 33 206 2167 0 0.49940456
Link 34 206 2168 0 0.54523190
Link 35 206 2169 0 -0.16428433
Link 36 206 2170 0 0.05520196
Link 37 206 2171 0 -0.28079055
Link 38 206 2172 0 0.33985965
Link 39 206 2173 0 -0.00573996
Link 40 206 2174 0 -0.01277795
Link 41 206 2175 0 -0.19583461
Link 42 206 2176 0 0.02547088
Link 43 206 2177 0 -0.41738440
Link 44 206 2178 0 0.00799158
Link 45 206 2179 0 0.37471661
Link 46 206 2180 0 0.05219719
Link 47 206 2181 0 0.02412083
Link 48 206 2182 0 0.30119476
Link 49 206 2183 0 -0.15485794
Link 50 206 2184 0 -0.09053754
Link 51 206 2185 0 -0.37603354
Link 52 206 2186 0 -0.07490481
Link 53 206 2187 0 0.08415486
Link 54 206 2188 0 -0.14247496
Link 55 206 2189 0 0.02851110
Link 56 206 2190 0 0.22264917
Link 57 206 2191 0 0.00906370
Link 58 206 2192 0 0.07185916
Link 59 206 2193 0 0.16579805
Link 60 206 2194 0 0.24009536
Link 61 206 2195 0 -0.15832634
Link 62 206 2196 0 -0.19461137
Link 63 206 2197 0 -0.22849776
Link 64 206 2198 0 0.05522960
Link 65 206 2199 0 -0.29043535
Link 66 206 2200 0 -0.13257330
Link 67 206 2201 0 -0.58764346
Link 68 206 2202 0 -0.35074128
Link 69 206 2203 0 -0.06597485
Link 70 206 2204 0 0.06508416
Link 71 206 2205 0 -0.38576570
Link 72 206 2206 0 0.09956350
Link 73 206 2207 0 -0.01466508
Link 74 206 2208 0 0.22119520
Link 75 206 2209 0 0.00431915
Link 76 206 2210 0 -0.39421745
Link 77 206 2211 0 -0.30396200
Link 78 206 2212 0 -0.26948023
Link 79 206 2213 0 -0.55022848
Link 80 206 2214 0 -0.36265250
Link 81 206 2215 0 0.02293202
Link 82 206 2216 0 -0.47139371
Link 83 206 2217 0 0.09852898
Link 84 206 2218 0 0.41901211
Link 85 206 2219 0 0.16167995
Link 86 206 2220 0 -0.14644017
Link 87 206 2221 0 0.03811464
Link 88 206 2222 0 0.70623818
Link 89 206 2223 0 0.17360484
Link 90 206 2224 0 -0.40619309
Link 91 206 2225 0 -0.05155653
Link 92 206 2226 0 0.43574264
Link 93 206 2227 0 -0.03039883
Link 94 206 2228 0 0.11246503
Link 95 206 2229 0 -0.20985765
Link 96 206 2230 0 -0.02087633
Link 97 206 2231 0 0.27571512
Link 98 206 2232 0 0.25080398
Link 99 206 2233 0 0.07488853
Link 100 206 2234 0 -0.30142639
Link 101 206 2235 0 0.00533028
Link 102 206 2236 0 -0.43601986
Link 103 206 2237 0 0.14347844
Link 104 206 2238 0 -0.31229429
Link 105 206 2239 0 -0.14524184
Link 106 206 2240 0 0.04015857
Link 107 206 2241 0 -0.02130519
Link 108 206 2242 0 -0.18051577
Link 109 206 2243 0 0.52794331
Link 110 206 2244 0 -0.31957129
Link 111 206 2245 0 -0.35902823
Link 112 206 2246 0 -0.23862784
Link 113 206 2247 0 0.16034643
Link 114 206 2248 0 -0.56878494
Link 115 206 2249 0 0.01651926
Link 116 206 2250 0 -0.56992907
Link 117 206 2251 0 0.20077313
Link 118 206 2252 0 0.23505987
Link 119 206 2253 0 0.31443075
Link 120 206 2254 0 -0.41090325
Link 121 206 2255 0 0.02489511
Link 122 206 2256 0 -0.34107353
Link 123 206 2257 0 0.51624626
Link 124 206 2258 0 0.05407472
Link 125 206 2259 0 0.13769028
Link 126 206 2260 0 -0.43139120
Link 127 206 2261 0 0.15895915
Link 128 206 2262 0 0.09518254
Link 129 206 2263 0 -0.30232919
Link 130 206 2264 0 -0.18205645
Link 131 206 2265 0 0.51718277
Link 132 206 2266 0 -0.14649683
Link 133 206 2267 0 0.17629378
Link 134 206 2268 0 0.46273617
Link 135 206 2269 0 0.11258995
Link 136 206 2270 0 0.37601162
Link 137 206 2271 0 0.39377086
Link 138 206 2272 0 -0.36952314
Link 139 206 2273 0 0.77062369
Link 140 206 2274 0 -0.18978749
Link 141 206 2275 0 0.20247396
Link 142 206 2276 0 0.89159905
Link 143 206 2277 0 0.56984134
Link 144 206 2278 0 0.06745175
Link 145 206 2279 0 -0.13835044
Link 146 206 2280 0 -0.00455591
Link 147 206 2281 0 -0.39655368
Link 148 206 2282 0 -0.22256687
Link 149 206 2283 0 -0.01752944
Link 150 206 2284 0 -0.10637844
Link 151 206 2285 0 0.35723893
Link 152 206 2286 0 0.44175355
Link 153 206 2287 0 -0.28547297
Link 154 206 2288 0 0.11327495
Link 155 206 2289 0 0.45093088
Link 156 206 2290 0 0.58716706
Link 157 206 2291 0 0.52781770
Link 158 206 2292 0 -0.24469220
Link 159 206 2293 0 0.03085904
Link 160 206 2294 0 -0.17231531
Link 161 206 2295 0 -0.46226833
Link 162 206 2296 0 -0.16470383
Link 163 206 2297 0 0.20377465
Link 164 206 2298 0 -0.17865391
Link 165 206 2299 0 0.49709256
Link 166 206 2300 0 -0.53204241
Link 167 206 2301 0 0.47570416
Link 168 206 2302 0 -0.24776931
Link 169 206 2303 0 -0.00492485
Link 170 206 2304 0 0.11671294
Link 171 206 2305 0 -0.04934222
Link 172 206 2306 0 0.29723282
Link 173 206 2307 0 0.01315402
Link 174 206 2308 0 -0.00687309
Link 175 206 2309 0 0.05924829
Link 176 206 2310 0 0.13795735
Link 177 206 2311 0 -0.22356046
Link 178 206 2312 0 0.27353699
Link 179 206 2313 0 0.33359250
Link 180 206 2314 0 -0.49882847
Link 181 206 2315 0 0.03194370
Link 182 206 2316 0 0.85140149
Link 183 206 2317 0 0.04586790
Link 184 206 2318 0 -0.38008102
Link 185 206 2319 0 -0.07234648
Link 186 206 2320 0 0.13680003
Link 187 206 2321 0 0.03576521
Link 188 206 2322 0 0.08528363
Link 189 206 2323 0 -0.00855068
Link 190 206 2324 0 -0.33303045
Link 191 206 2325 0 -0.16733122
Link 192 206 2326 0 0.37263624
Link 193 206 2327 0 -0.03543221
Link 194 206 2328 0 -0.17884295
Link 1 207 2329 0 -0.14975970
Link 2 207 2330 0 -0.05089146
Link 3 207 2331 0 0.49303679
Link 4 207 2332 0 -0.28975381
Link 5 207 2333 0 0.20035306
Link 6 207 2334 0 0.20458544
Link 7 207 2335 0 0.27407703
Link 8 207 2336 0 -0.17643934
Link 9 207 2337 0 -0.09565276
Link 10 207 2338 0 -0.08330415
Link 11 207 2339 0 -0.15026970
Link 12 207 2340 0 -0.47370681
Link 13 207 2341 0 0.07378089
Link 14 207 2342 0 -0.06708582
Link 15 207 2343 0 0.06244904
Link 16 207 2344 0 -0.00076693
Link 17 207 2345 0 -0.03952044
Link 18 207 2346 0 0.02756756
Link 19 207 2347 0 0.13425079
Link 20 207 2348 0 -0.27353488
Link 21 207 2349 0 -0.19189061
Link 22 207 2350 0 -0.23163901
Link 23 207 2351 0 -0.31787434
Link 24 207 2352 0 -0.22644982
Link 25 207 2353 0 0.04163915
Link 26 207 2354 0 0.22451421
Link 27 207 2355 0 0.31058013
Link 28 207 2356 0 0.14452783
Link 29 207 2357 0 0.15032621
Link 30 207 2358 0 0.16785648
Link 31 207 2359 0 0.00312126
Link 32 207 2360 0 0.15336058
Link 33 207 2361 0 0.04656170
Link 34 207 2362 0 -0.11708026
Link 35 207 2363 0 0.42621085
Link 36 207 2364 0 0.57072444
Link 37 207 2365 0 -0.34385072
Link 38 207 2366 0 -0.17790701
Link 39 207 2367 0 -0.11533863
Link 40 207 2368 0 0.22883904
Link 41 207 2369 0 -0.01478751
Link 42 207 2370 0 0.23301335
Link 43 207 2371 0 -0.07414694
Link 44 207 2372 0 -0.03360183
Link 45 207 2373 0 -0.17719554
Link 46 207 2374 0 -0.02580847
Link 47 207 2375 0 -0.30224221
Link 48 207 2376 0 -0.02413322
Link 49 207 2377 0 0.06572175
Link 50 207 2378 0 -0.03157784
Link 51 207 2379 0 0.35096566
Link 52 207 2380 0 -0.12482871
Link 53 207 2381 0 0.31681251
Link 54 207 2382 0 0.03516841
Link 55 207 2383 0 -0.32579482
Link 56 207 2384 0 0.29976923
Link 57 207 2385 0 0.27861344
Link 58 207 2386 0 0.27091389
Link 59 207 2387 0 0.33031493
Link 60 207 2388 0 0.58845844
Link 61 207 2389 0 -0.10249991
Link 62 207 2390 0 -0.28092823
Link 63 207 2391 0 0.07410402
Link 64 207 2392 0 0.37383440
Link 65 207 2393 0 -0.22011517
Link 66 207 2394 0 0.11739621
Link 67 207 2395 0 0.14182273
Link 68 207 2396 0 0.04740912
Link 69 207 2397 0 -0.32135469
Link 70 207 2398 0 0.06145272
Link 71 207 2399 0 -0.29302914
Link 72 207 2400 0 0.10132469
Link 73 207 2401 0 -0.06722594
Link 74 207 2402 0 0.36444193
Link 75 207 2403 0 0.05135645
Link 76 207 2404 0 0.44246369
Link 77 207 2405 0 -0.20810997
Link 78 207 2406 0 0.01765212
Link 79 207 2407 0 -0.10025602
Link 80 207 2408 0 -0.39844272
Link 81 207 2409 0 -0.15884606
Link 82 207 2410 0 -0.25444647
Link 83 207 2411 0 0.04710464
Link 84 207 2412 0 -0.07480774
Link 85 207 2413 0 -0.29914883
Link 86 207 2414 0 0.02804801
Link 87 207 2415 0 0.39861711
Link 88 207 2416 0 -0.02071706
Link 89 207 2417 0 0.31765994
Link 90 207 2418 0 -0.26543412
Link 91 207 2419 0 -0.00757432
Link 92 207 2420 0 0.18015598
Link 93 207 2421 0 0.24015191
Link 94 207 2422 0 -0.10325508
Link 95 207 2423 0 -0.23798347
Link 96 207 2424 0 -0.56137358
Link 97 207 2425 0 0.08617075
Link 98 207 2426 0 -0.41988479
Link 99 207 2427 0 -0.15004187
Link 100 207 2428 0 0.19758817
Link 101 207 2429 0 -0.35649875
Link 102 207 2430 0 0.11508365
Link 103 207 2431 0 -0.64147674
Link 104 207 2432 0 0.20663249
Link 105 207 2433 0 -0.35082713
Link 106 207 2434 0 0.15599743
Link 107 207 2435 0 -0.13536036
Link 108 207 2436 0 -0.10071562
Link 109 207 2437 0 0.39283533
Link 110 207 2438 0 -0.01159773
Link 111 207 2439 0 -0.03216348
Link 112 207 2440 0 -0.18950207
Link 113 207 2441 0 -0.10859470
Link 114 207 2442 0 0.39715756
Link 115 207 2443 0 -0.28071117
Link 116 207 2444 0 -0.05116293
Link 117 207 2445 0 0.12228701
Link 118 207 2446 0 -0.08698559
Link 119 207 2447 0 -0.15577374
Link 120 207 2448 0 -0.02743075
Link 121 207 2449 0 0.08025176
Link 122 207 2450 0 -0.27147895
Link 123 207 2451 0 -0.42419942
Link 124 207 2452 0 -0.08989462
Link 125 207 2453 0 -0.08810938
Link 126 207 2454 0 0.30189654
Link 127 207 2455 0 0.08069276
Link 128 207 2456 0 0.03961291
Link 129 207 2457 0 -0.02645279
Link 130 207 2458 0 0.07838407
Link 131 207 2459 0 -0.14958138
Link 132 207 2460 0 -0.01656118
Link 133 207 2461 0 0.25602124
Link 134 207 2462 0 -0.13989308
Link 135 207 2463 0 -0.22396931
Link 136 207 2464 0 -0.69632936
Link 137 207 2465 0 0.29131807
Link 138 207 2466 0 0.12364665
Link 139 207 2467 0 0.20625447
Link 140 207 2468 0 -0.23121509
Link 141 207 2469 0 -0.50759225
Link 142 207 2470 0 -0.07693738
Link 143 207 2471 0 0.20086461
Link 144 207 2472 0 0.11131597
Link 145 207 2473 0 0.08347325
Link 146 207 2474 0 0.66174763
Link 147 207 2475 0 0.03730790
Link 148 207 2476 0 -0.19148069
Link 149 207 2477 0 -0.05352647
Link 150 207 2478 0 -0.05667058
Link 151 207 2479 0 -0.10154607
Link 152 207 2480 0 -0.44309925
Link 153 207 2481 0 0.20751038
Link 154 207 2482 0 -0.15469207
Link 155 207 2483 0 -0.03238505
Link 156 207 2484 0 -0.25519119
Link 157 207 2485 0 -0.29915671
Link 158 207 2486 0 0.19867818
Link 159 207 2487 0 -0.23792713
Link 160 207 2488 0 -0.16376143
Link 161 207 2489 0 0.39410729
Link 162 207 2490 0 0.20456573
Link 163 207 2491 0 -0.07819704
Link 164 207 2492 0 -0.17569375
Link 165 207 2493 0 0.18555771
Link 166 207 2494 0 -0.17807496
Link 167 207 2495 0 0.03014187
Link 168 207 2496 0 0.32959208
Link 169 207 2497 0 0.35066421
Link 170 207 2498 0 -0.18600955
Link 171 207 2499 0 -0.01002208
Link 172 207 2500 0 0.39366525
Link 173 207 2501 0 -0.05462825
Link 174 207 2502 0 -0.35774557
Link 175 207 2503 0 -0.16564399
Link 176 207 2504 0 0.42164724
Link 177 207 2505 0 -0.08923763
Link 178 207 2506 0 -0.30102733
Link 179 207 2507 0 -0.50164364
Link 180 207 2508 0 -0.01804403
Link 181 207 2509 0 0.09096644
Link 182 207 2510 0 -0.17487124
Link 183 207 2511 0 0.33771884
Link 184 207 2512 0 0.23913554
Link 185 207 2513 0 0.10321431
Link 186 207 2514 0 -0.31806846
Link 187 207 2515 0 0.10547192
Link 188 207 2516 0 -0.02158471
Link 189 207 2517 0 -0.24992373
Link 190 207 2518 0 -0.26112799
Link 191 207 2519 0 -0.10297242
Link 192 207 2520 0 0.07082548
Link 193 207 2521 0 0.12031220
Link 194 207 2522 0 0.02934764
Link 1 208 2523 0 0.01699428
Link 2 208 2524 0 0.14181174
Link 3 208 2525 0 0.27260251
Link 4 208 2526 0 0.26533042
Link 5 208 2527 0 0.04019991
Link 6 208 2528 0 0.30678714
Link 7 208 2529 0 0.51172031
Link 8 208 2530 0 0.24110387
Link 9 208 2531 0 0.24332199
Link 10 208 2532 0 -0.05233165
Link 11 208 2533 0 -0.18367756
Link 12 208 2534 0 -0.06858358
Link 13 208 2535 0 -0.06113899
Link 14 208 2536 0 -0.14986642
Link 15 208 2537 0 0.32164052
Link 16 208 2538 0 0.19370560
Link 17 208 2539 0 -0.13644284
Link 18 208 2540 0 -0.13008531
Link 19 208 2541 0 0.17487177
Link 20 208 2542 0 0.02305472
Link 21 208 2543 0 -0.17979539
Link 22 208 2544 0 0.08601189
Link 23 208 2545 0 0.08655178
Link 24 208 2546 0 -0.06811399
Link 25 208 2547 0 0.33864016
Link 26 208 2548 0 -0.36851543
Link 27 208 2549 0 -0.24228984
Link 28 208 2550 0 0.14315273
Link 29 208 2551 0 0.16496627
Link 30 208 2552 0 0.35382804
Link 31 208 2553 0 -0.09399252
Link 32 208 2554 0 0.00323074
Link 33 208 2555 0 0.26390655
Link 34 208 2556 0 -0.13971756
Link 35 208 2557 0 -0.03829987
Link 36 208 2558 0 -0.33348323
Link 37 208 2559 0 -0.14445052
Link 38 208 2560 0 0.23074410
Link 39 208 2561 0 0.26127277
Link 40 208 2562 0 -0.09212073
Link 41 208 2563 0 0.33052841
Link 42 208 2564 0 -0.02612703
Link 43 208 2565 0 0.49826928
Link 44 208 2566 0 0.36355785
Link 45 208 2567 0 0.31831754
Link 46 208 2568 0 -0.25075549
Link 47 208 2569 0 -0.02945317
Link 48 208 2570 0 -0.00577291
Link 49 208 2571 0 0.25362826
Link 50 208 2572 0 0.11824335
Link 51 208 2573 0 0.05486867
Link 52 208 2574 0 0.13740938
Link 53 208 2575 0 -0.39974448
Link 54 208 2576 0 -0.20921631
Link 55 208 2577 0 0.24674261
Link 56 208 2578 0 0.21443350
Link 57 208 2579 0 0.05300122
Link 58 208 2580 0 -0.46564240
Link 59 208 2581 0 0.02407256
Link 60 208 2582 0 0.07828029
Link 61 208 2583 0 -0.09329590
Link 62 208 2584 0 -0.11215161
Link 63 208 2585 0 -0.42041933
Link 64 208 2586 0 0.22102472
Link 65 208 2587 0 0.11945001
Link 66 208 2588 0 0.06704473
Link 67 208 2589 0 0.04778967
Link 68 208 2590 0 0.18673928
Link 69 208 2591 0 -0.12477868
Link 70 208 2592 0 0.01251024
Link 71 208 2593 0 0.21506376
Link 72 208 2594 0 -0.12094070
Link 73 208 2595 0 0.17914067
Link 74 208 2596 0 0.18252678
Link 75 208 2597 0 0.08091705
Link 76 208 2598 0 0.00446558
Link 77 208 2599 0 0.14690301
Link 78 208 2600 0 -0.16684713
Link 79 208 2601 0 0.02550512
Link 80 208 2602 0 0.26525266
Link 81 208 2603 0 0.13749981
Link 82 208 2604 0 -0.37585139
Link 83 208 2605 0 -0.54196303
Link 84 208 2606 0 -0.02835759
Link 85 208 2607 0 -0.11102934
Link 86 208 2608 0 -0.13392256
Link 87 208 2609 0 0.44623572
Link 88 208 2610 0 -0.15010440
Link 89 208 2611 0 -0.10392016
Link 90 208 2612 0 -0.11487953
Link 91 208 2613 0 0.34499517
Link 92 208 2614 0 0.07172624
Link 93 208 2615 0 -0.32730221
Link 94 208 2616 0 0.01466383
Link 95 208 2617 0 0.21701899
Link 96 208 2618 0 -0.47326821
Link 97 208 2619 0 0.12702822
Link 98 208 2620 0 -0.08785847
Link 99 208 2621 0 0.34176079
Link 100 208 2622 0 0.13445562
Link 101 208 2623 0 -0.21946031
Link 102 208 2624 0 0.40725556
Link 103 208 2625 0 0.09168151
Link 104 208 2626 0 0.32086761
Link 105 208 2627 0 0.13638660
Link 106 208 2628 0 -0.22107420
Link 107 208 2629 0 -0.22483753
Link 108 208 2630 0 0.37723433
Link 109 208 2631 0 0.02536742
Link 110 208 2632 0 -0.18060468
Link 111 208 2633 0 0.73699643
Link 112 208 2634 0 -0.15496032
Link 113 208 2635 0 0.03389489
Link 114 208 2636 0 0.21111632
Link 115 208 2637 0 0.31718828
Link 116 208 2638 0 -0.21752765
Link 117 208 2639 0 -0.07384963
Link 118 208 2640 0 0.18234802
Link 119 208 2641 0 -0.18906276
Link 120 208 2642 0 -0.02514036
Link 121 208 2643 0 0.29608798
Link 122 208 2644 0 -0.11205514
Link 123 208 2645 0 0.13233632
Link 124 208 2646 0 -0.24478993
Link 125 208 2647 0 -0.09580869
Link 126 208 2648 0 0.21269432
Link 127 208 2649 0 0.00246462
Link 128 208 2650 0 0.38306358
Link 129 208 2651 0 -0.15937312
Link 130 208 2652 0 -0.05884373
Link 131 208 2653 0 -0.31088213
Link 132 208 2654 0 -0.07478455
Link 133 208 2655 0 0.10392601
Link 134 208 2656 0 0.09243083
Link 135 208 2657 0 0.08820754
Link 136 208 2658 0 -0.17183713
Link 137 208 2659 0 0.18135581
Link 138 208 2660 0 -0.40228637
Link 139 208 2661 0 -0.47476394
Link 140 208 2662 0 -0.05816194
Link 141 208 2663 0 -0.15159273
Link 142 208 2664 0 0.21507678
Link 143 208 2665 0 0.19905843
Link 144 208 2666 0 -0.00865550
Link 145 208 2667 0 0.57379051
Link 146 208 2668 0 0.20357572
Link 147 208 2669 0 -0.25199966
Link 148 208 2670 0 -0.08887343
Link 149 208 2671 0 -0.12124020
Link 150 208 2672 0 -0.20027071
Link 151 208 2673 0 0.15625964
Link 152 208 2674 0 -0.24954280
Link 153 208 2675 0 -0.06293812
Link 154 208 2676 0 0.06836045
Link 155 208 2677 0 -0.05874402
Link 156 208 2678 0 0.02570689
Link 157 208 2679 0 -0.29241468
Link 158 208 2680 0 0.10718668
Link 159 208 2681 0 -0.17449194
Link 160 208 2682 0 0.11321225
Link 161 208 2683 0 -0.06654320
Link 162 208 2684 0 -0.01260703
Link 163 208 2685 0 0.20477654
Link 164 208 2686 0 0.19958248
Link 165 208 2687 0 -0.18997570
Link 166 208 2688 0 0.21310295
Link 167 208 2689 0 0.19857141
Link 168 208 2690 0 0.16842494
Link 169 208 2691 0 -0.16945818
Link 170 208 2692 0 -0.00643503
Link 171 208 2693 0 0.22576093
Link 172 208 2694 0 0.05008547
Link 173 208 2695 0 -0.35173313
Link 174 208 2696 0 0.39663372
Link 175 208 2697 0 -0.02544763
Link 176 208 2698 0 -0.13251509
Link 177 208 2699 0 0.04842264
Link 178 208 2700 0 0.26455053
Link 179 208 2701 0 -0.16871033
Link 180 208 2702 0 -0.04898089
Link 181 208 2703 0 0.20961160
Link 182 208 2704 0 0.24410654
Link 183 208 2705 0 0.02658036
Link 184 208 2706 0 0.12170474
Link 185 208 2707 0 -0.28178229
Link 186 208 2708 0 -0.11113038
Link 187 208 2709 0 -0.36150791
Link 188 208 2710 0 -0.20416130
Link 189 208 2711 0 0.03417357
Link 190 208 2712 0 -0.03067718
Link 191 208 2713 0 0.12193001
Link 192 208 2714 0 -0.03535034
Link 193 208 2715 0 -0.16171376
Link 194 208 2716 0 0.89885476
Link 1 209 2717 0 0.20207331
Link 2 209 2718 0 0.08143714
Link 3 209 2719 0 0.00513207
Link 4 209 2720 0 -0.31653388
Link 5 209 2721 0 -0.44001718
Link 6 209 2722 0 0.34455472
Link 7 209 2723 0 0.44490888
Link 8 209 2724 0 -0.34844153
Link 9 209 2725 0 -0.34010876
Link 10 209 2726 0 -0.17169742
Link 11 209 2727 0 -0.06623889
Link 12 209 2728 0 0.01036774
Link 13 209 2729 0 -0.10483157
Link 14 209 2730 0 0.57407201
Link 15 209 2731 0 0.19644070
Link 16 209 2732 0 0.10713667
Link 17 209 2733 0 0.31897884
Link 18 209 2734 0 0.02587331
Link 19 209 2735 0 0.17532437
Link 20 209 2736 0 0.38194358
Link 21 209 2737 0 0.11395427
Link 22 209 2738 0 -0.04333392
Link 23 209 2739 0 0.20168708
Link 24 209 2740 0 -0.02866578
Link 25 209 2741 0 -0.26559431
Link 26 209 2742 0 -0.29940031
Link 27 209 2743 0 -0.16226119
Link 28 209 2744 0 0.06922972
Link 29 209 2745 0 -0.11967539
Link 30 209 2746 0 -0.10235289
Link 31 209 2747 0 -0.10806422
Link 32 209 2748 0 -0.12590062
Link 33 209 2749 0 0.10396629
Link 34 209 2750 0 0.19970997
Link 35 209 2751 0 -0.18261317
Link 36 209 2752 0 -0.13408660
Link 37 209 2753 0 -0.09348940
Link 38 209 2754 0 0.31988188
Link 39 209 2755 0 -0.15840056
Link 40 209 2756 0 -0.10260628
Link 41 209 2757 0 0.08897395
Link 42 209 2758 0 -0.20890998
Link 43 209 2759 0 0.59439525
Link 44 209 2760 0 -0.25097948
Link 45 209 2761 0 0.12863191
Link 46 209 2762 0 -0.03953572
Link 47 209 2763 0 0.27498616
Link 48 209 2764 0 -0.04156551
Link 49 209 2765 0 0.22419534
Link 50 209 2766 0 -0.23507063
Link 51 209 2767 0 0.22965896
Link 52 209 2768 0 0.00158365
Link 53 209 2769 0 0.21294584
Link 54 209 2770 0 -0.33375772
Link 55 209 2771 0 0.24071890
Link 56 209 2772 0 0.14255729
Link 57 209 2773 0 -0.13425297
Link 58 209 2774 0 0.15927865
Link 59 209 2775 0 -0.11048501
Link 60 209 2776 0 0.40041705
Link 61 209 2777 0 -0.57343402
Link 62 209 2778 0 -0.27152203
Link 63 209 2779 0 0.20953559
Link 64 209 2780 0 -0.20754249
Link 65 209 2781 0 0.06461773
Link 66 209 2782 0 -0.16248473
Link 67 209 2783 0 0.26954722
Link 68 209 2784 0 -0.00851517
Link 69 209 2785 0 -0.10466484
Link 70 209 2786 0 -0.27013751
Link 71 209 2787 0 0.21502441
Link 72 209 2788 0 -0.02930933
Link 73 209 2789 0 0.21319327
Link 74 209 2790 0 -0.02939370
Link 75 209 2791 0 -0.14701574
Link 76 209 2792 0 0.22230484
Link 77 209 2793 0 0.66554395
Link 78 209 2794 0 -0.09127269
Link 79 209 2795 0 0.25117855
Link 80 209 2796 0 -0.20473363
Link 81 209 2797 0 0.10395398
