GenomeStart 4526
Neuron 1 1 0.00000000 1 0.00000000 0.00000000 0.00000000 0.00000000
Neuron 2 1 0.00000000 1 0.00000000 0.00000000 0.00000000 0.00000000
Neuron 3 1 0.00000000 1 0.00000000 0.00000000 0.00000000 0.00000000
Neuron 4 1 0.00000000 1 0.00000000 0.00000000 0.00000000 0.00000000
Neuron 5 1 0.00000000 1 0.00000000 0.00000000 0.00000000 0.00000000
Neuron 6 1 0.00000000 1 0.00000000 0.00000000 0.00000000 0.00000000
Neuron 7 1 0.00000000 1 0.00000000 0.00000000 0.00000000 0.00000000
Neuron 8 1 0.00000000 1 0.00000000 0.00000000 0.00000000 0.00000000
Neuron 9 1 0.00000000 1 0.00000000 0.00000000 0.00000000 0.00000000
Neuron 10 1 0.00000000 1 0.00000000 0.00000000 0.00000000 0.00000000
Neuron 11 1 0.00000000 1 0.00000000 0.00000000 0.00000000 0.00000000
Neuron 12 1 0.00000000 1 0.00000000 0.00000000 0.00000000 0.00000000
Neuron 13 1 0.00000000 1 0.00000000 0.00000000 0.00000000 0.00000000
Neuron 14 1 0.00000000 1 0.00000000 0.00000000 0.00000000 0.00000000
Neuron 15 1 0.00000000 1 0.00000000 0.00000000 0.00000000 0.00000000
Neuron 16 1 0.00000000 1 0.00000000 0.00000000 0.00000000 0.00000000
Neuron 17 1 0.00000000 1 0.00000000 0.00000000 0.00000000 0.00000000
Neuron 18 1 0.00000000 1 0.00000000 0.00000000 0.00000000 0.00000000
Neuron 19 1 0.00000000 1 0.00000000 0.00000000 0.00000000 0.00000000
Neuron 20 1 0.00000000 1 0.00000000 0.00000000 0.00000000 0.00000000
Neuron 21 1 0.00000000 1 0.00000000 0.00000000 0.00000000 0.00000000
Neuron 22 1 0.00000000 1 0.00000000 0.00000000 0.00000000 0.00000000
Neuron 23 1 0.00000000 1 0.00000000 0.00000000 0.00000000 0.00000000
Neuron 24 1 0.00000000 1 0.00000000 0.00000000 0.00000000 0.00000000
Neuron 25 1 0.00000000 1 0.00000000 0.00000000 0.00000000 0.00000000
Neuron 26 1 0.00000000 1 0.00000000 0.00000000 0.00000000 0.00000000
Neuron 27 1 0.00000000 1 0.00000000 0.00000000 0.00000000 0.00000000
Neuron 28 1 0.00000000 1 0.00000000 0.00000000 0.00000000 0.00000000
Neuron 29 1 0.00000000 1 0.00000000 0.00000000 0.00000000 0.00000000
Neuron 30 1 0.00000000 1 0.00000000 0.00000000 0.00000000 0.00000000
Neuron 31 1 0.00000000 1 0.00000000 0.00000000 0.00000000 0.00000000
Neuron 32 1 0.00000000 1 0.00000000 0.00000000 0.00000000 0.00000000
Neuron 33 1 0.00000000 1 0.00000000 0.00000000 0.00000000 0.00000000
Neuron 34 1 0.00000000 1 0.00000000 0.00000000 0.00000000 0.00000000
Neuron 35 1 0.00000000 1 0.00000000 0.00000000 0.00000000 0.00000000
Neuron 36 1 0.00000000 1 0.00000000 0.00000000 0.00000000 0.00000000
Neuron 37 1 0.00000000 1 0.00000000 0.00000000 0.00000000 0.00000000
Neuron 38 1 0.00000000 1 0.00000000 0.00000000 0.00000000 0.00000000
Neuron 39 1 0.00000000 1 0.00000000 0.00000000 0.00000000 0.00000000
Neuron 40 1 0.00000000 1 0.00000000 0.00000000 0.00000000 0.00000000
Neuron 41 1 0.00000000 1 0.00000000 0.00000000 0.00000000 0.00000000
Neuron 42 1 0.00000000 1 0.00000000 0.00000000 0.00000000 0.00000000
Neuron 43 1 0.00000000 1 0.00000000 0.00000000 0.00000000 0.00000000
Neuron 44 1 0.00000000 1 0.00000000 0.00000000 0.00000000 0.00000000
Neuron 45 1 0.00000000 1 0.00000000 0.00000000 0.00000000 0.00000000
Neuron 46 1 0.00000000 1 0.00000000 0.00000000 0.00000000 0.00000000
Neuron 47 1 0.00000000 1 0.00000000 0.00000000 0.00000000 0.00000000
Neuron 48 1 0.00000000 1 0.00000000 0.00000000 0.00000000 0.00000000
Neuron 49 1 0.00000000 1 0.00000000 0.00000000 0.00000000 0.00000000
Neuron 50 1 0.00000000 1 0.00000000 0.00000000 0.00000000 0.00000000
Neuron 51 1 0.00000000 1 0.00000000 0.00000000 0.00000000 0.00000000
Neuron 52 1 0.00000000 1 0.00000000 0.00000000 0.00000000 0.00000000
Neuron 53 1 0.00000000 1 0.00000000 0.00000000 0.00000000 0.00000000
Neuron 54 1 0.00000000 1 0.00000000 0.00000000 0.00000000 0.00000000
Neuron 55 1 0.00000000 1 0.00000000 0.00000000 0.00000000 0.00000000
Neuron 56 1 0.00000000 1 0.00000000 0.00000000 0.00000000 0.00000000
Neuron 57 1 0.00000000 1 0.00000000 0.00000000 0.00000000 0.00000000
Neuron 58 1 0.00000000 1 0.00000000 0.00000000 0.00000000 0.00000000
Neuron 59 1 0.00000000 1 0.00000000 0.00000000 0.00000000 0.00000000
Neuron 60 1 0.00000000 1 0.00000000 0.00000000 0.00000000 0.00000000
Neuron 61 1 0.00000000 1 0.00000000 0.00000000 0.00000000 0.00000000
Neuron 62 1 0.00000000 1 0.00000000 0.00000000 0.00000000 0.00000000
Neuron 63 1 0.00000000 1 0.00000000 0.00000000 0.00000000 0.00000000
Neuron 64 1 0.00000000 1 0.00000000 0.00000000 0.00000000 0.00000000
Neuron 65 1 0.00000000 1 0.00000000 0.00000000 0.00000000 0.00000000
Neuron 66 1 0.00000000 1 0.00000000 0.00000000 0.00000000 0.00000000
Neuron 67 1 0.00000000 1 0.00000000 0.00000000 0.00000000 0.00000000
Neuron 68 1 0.00000000 1 0.00000000 0.00000000 0.00000000 0.00000000
Neuron 69 1 0.00000000 1 0.00000000 0.00000000 0.00000000 0.00000000
Neuron 70 1 0.00000000 1 0.00000000 0.00000000 0.00000000 0.00000000
Neuron 71 1 0.00000000 1 0.00000000 0.00000000 0.00000000 0.00000000
Neuron 72 1 0.00000000 1 0.00000000 0.00000000 0.00000000 0.00000000
Neuron 73 1 0.00000000 1 0.00000000 0.00000000 0.00000000 0.00000000
Neuron 74 1 0.00000000 1 0.00000000 0.00000000 0.00000000 0.00000000
Neuron 75 1 0.00000000 1 0.00000000 0.00000000 0.00000000 0.00000000
Neuron 76 1 0.00000000 1 0.00000000 0.00000000 0.00000000 0.00000000
Neuron 77 1 0.00000000 1 0.00000000 0.00000000 0.00000000 0.00000000
Neuron 78 1 0.00000000 1 0.00000000 0.00000000 0.00000000 0.00000000
Neuron 79 1 0.00000000 1 0.00000000 0.00000000 0.00000000 0.00000000
Neuron 80 1 0.00000000 1 0.00000000 0.00000000 0.00000000 0.00000000
Neuron 81 1 0.00000000 1 0.00000000 0.00000000 0.00000000 0.00000000
Neuron 82 1 0.00000000 1 0.00000000 0.00000000 0.00000000 0.00000000
Neuron 83 1 0.00000000 1 0.00000000 0.00000000 0.00000000 0.00000000
Neuron 84 1 0.00000000 1 0.00000000 0.00000000 0.00000000 0.00000000
Neuron 85 1 0.00000000 1 0.00000000 0.00000000 0.00000000 0.00000000
Neuron 86 1 0.00000000 1 0.00000000 0.00000000 0.00000000 0.00000000
Neuron 87 1 0.00000000 1 0.00000000 0.00000000 0.00000000 0.00000000
Neuron 88 1 0.00000000 1 0.00000000 0.00000000 0.00000000 0.00000000
Neuron 89 1 0.00000000 1 0.00000000 0.00000000 0.00000000 0.00000000
Neuron 90 1 0.00000000 1 0.00000000 0.00000000 0.00000000 0.00000000
Neuron 91 1 0.00000000 1 0.00000000 0.00000000 0.00000000 0.00000000
Neuron 92 1 0.00000000 1 0.00000000 0.00000000 0.00000000 0.00000000
Neuron 93 1 0.00000000 1 0.00000000 0.00000000 0.00000000 0.00000000
Neuron 94 1 0.00000000 1 0.00000000 0.00000000 0.00000000 0.00000000
Neuron 95 1 0.00000000 1 0.00000000 0.00000000 0.00000000 0.00000000
Neuron 96 1 0.00000000 1 0.00000000 0.00000000 0.00000000 0.00000000
Neuron 97 1 0.00000000 1 0.00000000 0.00000000 0.00000000 0.00000000
Neuron 98 1 0.00000000 1 0.00000000 0.00000000 0.00000000 0.00000000
Neuron 99 1 0.00000000 1 0.00000000 0.00000000 0.00000000 0.00000000
Neuron 100 1 0.00000000 1 0.00000000 0.00000000 0.00000000 0.00000000
Neuron 101 1 0.00000000 1 0.00000000 0.00000000 0.00000000 0.00000000
Neuron 102 1 0.00000000 1 0.00000000 0.00000000 0.00000000 0.00000000
Neuron 103 1 0.00000000 1 0.00000000 0.00000000 0.00000000 0.00000000
Neuron 104 1 0.00000000 1 0.00000000 0.00000000 0.00000000 0.00000000
Neuron 105 1 0.00000000 1 0.00000000 0.00000000 0.00000000 0.00000000
Neuron 106 1 0.00000000 1 0.00000000 0.00000000 0.00000000 0.00000000
Neuron 107 1 0.00000000 1 0.00000000 0.00000000 0.00000000 0.00000000
Neuron 108 1 0.00000000 1 0.00000000 0.00000000 0.00000000 0.00000000
Neuron 109 1 0.00000000 1 0.00000000 0.00000000 0.00000000 0.00000000
Neuron 110 1 0.00000000 1 0.00000000 0.00000000 0.00000000 0.00000000
Neuron 111 1 0.00000000 1 0.00000000 0.00000000 0.00000000 0.00000000
Neuron 112 1 0.00000000 1 0.00000000 0.00000000 0.00000000 0.00000000
Neuron 113 1 0.00000000 1 0.00000000 0.00000000 0.00000000 0.00000000
Neuron 114 1 0.00000000 1 0.00000000 0.00000000 0.00000000 0.00000000
Neuron 115 1 0.00000000 1 0.00000000 0.00000000 0.00000000 0.00000000
Neuron 116 1 0.00000000 1 0.00000000 0.00000000 0.00000000 0.00000000
Neuron 117 1 0.00000000 1 0.00000000 0.00000000 0.00000000 0.00000000
Neuron 118 1 0.00000000 1 0.00000000 0.00000000 0.00000000 0.00000000
Neuron 119 1 0.00000000 1 0.00000000 0.00000000 0.00000000 0.00000000
Neuron 120 1 0.00000000 1 0.00000000 0.00000000 0.00000000 0.00000000
Neuron 121 1 0.00000000 1 0.00000000 0.00000000 0.00000000 0.00000000
Neuron 122 1 0.00000000 1 0.00000000 0.00000000 0.00000000 0.00000000
Neuron 123 1 0.00000000 1 0.00000000 0.00000000 0.00000000 0.00000000
Neuron 124 1 0.00000000 1 0.00000000 0.00000000 0.00000000 0.00000000
Neuron 125 1 0.00000000 1 0.00000000 0.00000000 0.00000000 0.00000000
Neuron 126 1 0.00000000 1 0.00000000 0.00000000 0.00000000 0.00000000
Neuron 127 1 0.00000000 1 0.00000000 0.00000000 0.00000000 0.00000000
Neuron 128 1 0.00000000 1 0.00000000 0.00000000 0.00000000 0.00000000
Neuron 129 1 0.00000000 1 0.00000000 0.00000000 0.00000000 0.00000000
Neuron 130 1 0.00000000 1 0.00000000 0.00000000 0.00000000 0.00000000
Neuron 131 1 0.00000000 1 0.00000000 0.00000000 0.00000000 0.00000000
Neuron 132 1 0.00000000 1 0.00000000 0.00000000 0.00000000 0.00000000
Neuron 133 1 0.00000000 1 0.00000000 0.00000000 0.00000000 0.00000000
Neuron 134 1 0.00000000 1 0.00000000 0.00000000 0.00000000 0.00000000
Neuron 135 1 0.00000000 1 0.00000000 0.00000000 0.00000000 0.00000000
Neuron 136 1 0.00000000 1 0.00000000 0.00000000 0.00000000 0.00000000
Neuron 137 1 0.00000000 1 0.00000000 0.00000000 0.00000000 0.00000000
Neuron 138 1 0.00000000 1 0.00000000 0.00000000 0.00000000 0.00000000
Neuron 139 1 0.00000000 1 0.00000000 0.00000000 0.00000000 0.00000000
Neuron 140 1 0.00000000 1 0.00000000 0.00000000 0.00000000 0.00000000
Neuron 141 1 0.00000000 1 0.00000000 0.00000000 0.00000000 0.00000000
Neuron 142 1 0.00000000 1 0.00000000 0.00000000 0.00000000 0.00000000
Neuron 143 1 0.00000000 1 0.00000000 0.00000000 0.00000000 0.00000000
Neuron 144 1 0.00000000 1 0.00000000 0.00000000 0.00000000 0.00000000
Neuron 145 1 0.00000000 1 0.00000000 0.00000000 0.00000000 0.00000000
Neuron 146 1 0.00000000 1 0.00000000 0.00000000 0.00000000 0.00000000
Neuron 147 1 0.00000000 1 0.00000000 0.00000000 0.00000000 0.00000000
Neuron 148 1 0.00000000 1 0.00000000 0.00000000 0.00000000 0.00000000
Neuron 149 1 0.00000000 1 0.00000000 0.00000000 0.00000000 0.00000000
Neuron 150 1 0.00000000 1 0.00000000 0.00000000 0.00000000 0.00000000
Neuron 151 1 0.00000000 1 0.00000000 0.00000000 0.00000000 0.00000000
Neuron 152 1 0.00000000 1 0.00000000 0.00000000 0.00000000 0.00000000
Neuron 153 1 0.00000000 1 0.00000000 0.00000000 0.00000000 0.00000000
Neuron 154 1 0.00000000 1 0.00000000 0.00000000 0.00000000 0.00000000
Neuron 155 1 0.00000000 1 0.00000000 0.00000000 0.00000000 0.00000000
Neuron 156 1 0.00000000 1 0.00000000 0.00000000 0.00000000 0.00000000
Neuron 157 1 0.00000000 1 0.00000000 0.00000000 0.00000000 0.00000000
Neuron 158 1 0.00000000 1 0.00000000 0.00000000 0.00000000 0.00000000
Neuron 159 1 0.00000000 1 0.00000000 0.00000000 0.00000000 0.00000000
Neuron 160 1 0.00000000 1 0.00000000 0.00000000 0.00000000 0.00000000
Neuron 161 1 0.00000000 1 0.00000000 0.00000000 0.00000000 0.00000000
Neuron 162 1 0.00000000 1 0.00000000 0.00000000 0.00000000 0.00000000
Neuron 163 1 0.00000000 1 0.00000000 0.00000000 0.00000000 0.00000000
Neuron 164 1 0.00000000 1 0.00000000 0.00000000 0.00000000 0.00000000
Neuron 165 1 0.00000000 1 0.00000000 0.00000000 0.00000000 0.00000000
Neuron 166 1 0.00000000 1 0.00000000 0.00000000 0.00000000 0.00000000
Neuron 167 1 0.00000000 1 0.00000000 0.00000000 0.00000000 0.00000000
Neuron 168 1 0.00000000 1 0.00000000 0.00000000 0.00000000 0.00000000
Neuron 169 1 0.00000000 1 0.00000000 0.00000000 0.00000000 0.00000000
Neuron 170 1 0.00000000 1 0.00000000 0.00000000 0.00000000 0.00000000
Neuron 171 1 0.00000000 1 0.00000000 0.00000000 0.00000000 0.00000000
Neuron 172 1 0.00000000 1 0.00000000 0.00000000 0.00000000 0.00000000
Neuron 173 1 0.00000000 1 0.00000000 0.00000000 0.00000000 0.00000000
Neuron 174 1 0.00000000 1 0.00000000 0.00000000 0.00000000 0.00000000
Neuron 175 1 0.00000000 1 0.00000000 0.00000000 0.00000000 0.00000000
Neuron 176 1 0.00000000 1 0.00000000 0.00000000 0.00000000 0.00000000
Neuron 177 1 0.00000000 1 0.00000000 0.00000000 0.00000000 0.00000000
Neuron 178 1 0.00000000 1 0.00000000 0.00000000 0.00000000 0.00000000
Neuron 179 1 0.00000000 1 0.00000000 0.00000000 0.00000000 0.00000000
Neuron 180 1 0.00000000 1 0.00000000 0.00000000 0.00000000 0.00000000
Neuron 181 1 0.00000000 1 0.00000000 0.00000000 0.00000000 0.00000000
Neuron 182 1 0.00000000 1 0.00000000 0.00000000 0.00000000 0.00000000
Neuron 183 1 0.00000000 1 0.00000000 0.00000000 0.00000000 0.00000000
Neuron 184 1 0.00000000 1 0.00000000 0.00000000 0.00000000 0.00000000
Neuron 185 1 0.00000000 1 0.00000000 0.00000000 0.00000000 0.00000000
Neuron 186 1 0.00000000 1 0.00000000 0.00000000 0.00000000 0.00000000
Neuron 187 1 0.00000000 1 0.00000000 0.00000000 0.00000000 0.00000000
Neuron 188 1 0.00000000 1 0.00000000 0.00000000 0.00000000 0.00000000
Neuron 189 1 0.00000000 1 0.00000000 0.00000000 0.00000000 0.00000000
Neuron 190 1 0.00000000 1 0.00000000 0.00000000 0.00000000 0.00000000
Neuron 191 1 0.00000000 1 0.00000000 0.00000000 0.00000000 0.00000000
Neuron 192 1 0.00000000 1 0.00000000 0.00000000 0.00000000 0.00000000
Neuron 193 1 0.00000000 1 0.00000000 0.00000000 0.00000000 0.00000000
Neuron 194 2 0.00000000 1 0.00000000 0.00000000 0.00000000 0.00000000
Neuron 195 4 1.00000000 0 1.00000000 0.00000000 0.00000000 0.28558896
Neuron 196 4 1.00000000 1 1.00000000 0.00000000 0.00000000 0.63585167
Neuron 197 4 1.00000000 0 1.00000000 0.00000000 0.00000000 -0.49585644
Neuron 198 4 1.00000000 0 1.00000000 0.00000000 0.00000000 0.65099135
Neuron 199 4 1.00000000 0 1.00000000 0.00000000 0.00000000 0.03920268
Neuron 200 4 1.00000000 0 1.00000000 0.00000000 0.00000000 0.35102820
Neuron 201 4 1.00000000 0 1.00000000 0.00000000 0.00000000 0.01113841
Neuron 202 4 1.00000000 1 1.00000000 0.00000000 0.00000000 -0.50409404
Neuron 203 4 1.00000000 0 1.00000000 0.00000000 0.00000000 0.20192745
Neuron 204 4 1.00000000 1 1.00000000 0.00000000 0.00000000 0.46093203
Neuron 205 4 1.00000000 0 1.00000000 0.00000000 0.00000000 0.43147647
Neuron 206 4 1.00000000 0 1.00000000 0.00000000 0.00000000 -0.38453143
Neuron 207 4 1.00000000 0 1.00000000 0.00000000 0.00000000 -0.23033757
Neuron 208 4 1.00000000 0 1.00000000 0.00000000 0.00000000 -0.20077915
Neuron 209 4 1.00000000 0 1.00000000 0.00000000 0.00000000 -0.20979312
Link 1 195 1 0 -0.33083673
Link 2 195 2 0 1.23243245
Link 3 195 3 0 1.01402750
Link 4 195 4 0 -0.37541573
Link 5 195 5 0 -0.35644754
Link 6 195 6 0 -0.08916116
Link 7 195 7 0 -0.13007139
Link 8 195 8 0 -0.49180942
Link 9 195 9 0 0.45794858
Link 10 195 10 0 0.25388299
Link 11 195 11 0 0.56046017
Link 12 195 12 0 0.55738463
Link 13 195 13 0 -0.55740409
Link 14 195 14 0 0.85065064
Link 15 195 15 0 0.65143014
Link 16 195 16 0 0.33147782
Link 17 195 17 0 -0.72189160
Link 18 195 18 0 -0.01341268
Link 19 195 19 0 0.07563671
Link 20 195 20 0 -0.03274801
Link 21 195 21 0 0.08859365
Link 22 195 22 0 0.07036615
Link 23 195 23 0 -1.17957691
Link 24 195 24 0 0.76207449
Link 25 195 25 0 0.29304731
Link 26 195 26 0 0.62099041
Link 27 195 27 0 0.61319130
Link 28 195 28 0 -0.56691882
Link 29 195 29 0 -0.46128711
Link 30 195 30 0 -0.37899037
Link 31 195 31 0 -0.70353341
Link 32 195 32 0 -0.23312081
Link 33 195 33 0 -0.04837175
Link 34 195 34 0 -0.20630754
Link 35 195 35 0 -0.19725471
Link 36 195 36 0 0.34568747
Link 37 195 37 0 0.12424248
Link 38 195 38 0 0.73279210
Link 39 195 39 0 -0.16108364
Link 40 195 40 0 0.16506494
Link 41 195 41 0 0.06411389
Link 42 195 42 0 -0.33148674
Link 43 195 43 0 -0.14335182
Link 44 195 44 0 -0.08788790
Link 45 195 45 0 0.78661340
Link 46 195 46 0 0.86947349
Link 47 195 47 0 -0.79748972
Link 48 195 48 0 0.45539617
Link 49 195 49 0 0.09022024
Link 50 195 50 0 -0.25006314
Link 51 195 51 0 1.06767010
Link 52 195 52 0 -0.47725525
Link 53 195 53 0 0.08824555
Link 54 195 54 0 -1.37717610
Link 55 195 55 0 -0.64283299
Link 56 195 56 0 0.25875135
Link 57 195 57 0 0.31571507
Link 58 195 58 0 -0.14973495
Link 59 195 59 0 0.12449989
Link 60 195 60 0 -0.10420389
Link 61 195 61 0 -0.59428428
Link 62 195 62 0 -0.07227305
Link 63 195 63 0 0.24262178
Link 64 195 64 0 0.26288611
Link 65 195 65 0 -0.87541239
Link 66 195 66 0 -0.20221959
Link 67 195 67 0 0.54487206
Link 68 195 68 0 -0.07149784
Link 69 195 69 0 -0.05023587
Link 70 195 70 0 0.64304548
Link 71 195 71 0 0.42125953
Link 72 195 72 0 0.08195415
Link 73 195 73 0 0.04996701
Link 74 195 74 0 0.02838220
Link 75 195 75 0 0.37375441
Link 76 195 76 0 -1.19002991
Link 77 195 77 0 -1.02803011
Link 78 195 78 0 0.38194391
Link 79 195 79 0 0.11744379
Link 80 195 80 0 0.09405794
Link 81 195 81 0 -0.70241055
Link 82 195 82 0 0.64485557
Link 83 195 83 0 -0.29625040
Link 84 195 84 0 0.70165454
Link 85 195 85 0 0.20816812
Link 86 195 86 0 0.47759160
Link 87 195 87 0 0.65203947
Link 88 195 88 0 0.32732375
Link 89 195 89 0 0.09360974
Link 90 195 90 0 0.16714842
Link 91 195 91 0 0.00991643
Link 92 195 92 0 0.51600288
Link 93 195 93 0 0.07535056
Link 94 195 94 0 -0.32331862
Link 95 195 95 0 -0.11980705
Link 96 195 96 0 0.04878424
Link 97 195 97 0 -0.28318320
Link 98 195 98 0 -0.71997264
Link 99 195 99 0 -0.47360843
Link 100 195 100 0 -0.80389366
Link 101 195 101 0 0.35637835
Link 102 195 102 0 -1.08407217
Link 103 195 103 0 0.40575233
Link 104 195 104 0 -0.21178816
Link 105 195 105 0 0.43699126
Link 106 195 106 0 0.02757621
Link 107 195 107 0 -0.07462346
Link 108 195 108 0 0.25463003
Link 109 195 109 0 1.45246976
Link 110 195 110 0 0.63874930
Link 111 195 111 0 -0.18470385
Link 112 195 112 0 -0.11199811
Link 113 195 113 0 -0.69538942
Link 114 195 114 0 1.54390118
Link 115 195 115 0 0.62109602
Link 116 195 116 0 0.95363579
Link 117 195 117 0 0.58635214
Link 118 195 118 0 0.90896639
Link 119 195 119 0 -0.25122373
Link 120 195 120 0 0.05503176
Link 121 195 121 0 -0.11849991
Link 122 195 122 0 0.38312870
Link 123 195 123 0 0.27371745
Link 124 195 124 0 -0.56083953
Link 125 195 125 0 0.44663458
Link 126 195 126 0 1.30450004
Link 127 195 127 0 0.31125337
Link 128 195 128 0 0.09718981
Link 129 195 129 0 0.20572416
Link 130 195 130 0 0.08088781
Link 131 195 131 0 0.33013988
Link 132 195 132 0 0.22825236
Link 133 195 133 0 0.66065569
Link 134 195 134 0 0.07377428
Link 135 195 135 0 1.41446224
Link 136 195 136 0 -0.40396086
Link 137 195 137 0 0.05913988
Link 138 195 138 0 -0.29131064
Link 139 195 139 0 -0.17987734
Link 140 195 140 0 0.21819536
Link 141 195 141 0 -0.10144473
Link 142 195 142 0 0.18785498
Link 143 195 143 0 0.18861994
Link 144 195 144 0 0.22991104
Link 145 195 145 0 0.11221995
Link 146 195 146 0 0.35130688
Link 147 195 147 0 0.33012907
Link 148 195 148 0 -0.15200773
Link 149 195 149 0 -0.75439514
Link 150 195 150 0 0.37149538
Link 151 195 151 0 -0.30605116
Link 152 195 152 0 -0.56301422
Link 153 195 153 0 0.69418748
Link 154 195 154 0 -0.25134980
Link 155 195 155 0 -0.01485909
Link 156 195 156 0 -0.06437606
Link 157 195 157 0 -0.39001679
Link 158 195 158 0 -0.06590532
Link 159 195 159 0 -0.42615500
Link 160 195 160 0 -0.43945677
Link 161 195 161 0 0.45424689
Link 162 195 162 0 0.14713869
Link 163 195 163 0 0.47021207
Link 164 195 164 0 -0.12883684
Link 165 195 165 0 -0.32248098
Link 166 195 166 0 1.09835213
Link 167 195 167 0 0.14255021
Link 168 195 168 0 -0.72211913
Link 169 195 169 0 -0.50517476
Link 170 195 170 0 -0.49466178
Link 171 195 171 0 0.74239151
Link 172 195 172 0 -0.09292377
Link 173 195 173 0 0.09520563
Link 174 195 174 0 0.36643441
Link 175 195 175 0 -0.41367007
Link 176 195 176 0 0.03287768
Link 177 195 177 0 0.00323995
Link 178 195 178 0 0.12286074
Link 179 195 179 0 -0.14562208
Link 180 195 180 0 -0.17105652
Link 181 195 181 0 0.15735471
Link 182 195 182 0 0.45069953
Link 183 195 183 0 0.12119754
Link 184 195 184 0 -0.57607419
Link 185 195 185 0 -0.34528668
Link 186 195 186 0 -0.15685488
Link 187 195 187 0 -0.54712269
Link 188 195 188 0 0.30480599
Link 189 195 189 0 0.80311845
Link 190 195 190 0 -0.12852946
Link 191 195 191 0 0.06285364
Link 192 195 192 0 0.22600647
Link 193 195 193 0 0.14428584
Link 194 195 194 0 -0.52123648
Link 1 196 195 0 -0.12452215
Link 2 196 196 0 0.53516279
Link 3 196 197 0 0.64997380
Link 4 196 198 0 0.04721695
Link 5 196 199 0 0.50051514
Link 6 196 200 0 -0.05648002
Link 7 196 201 0 -0.12997531
Link 8 196 202 0 -0.04552995
Link 9 196 203 0 -0.14031622
Link 10 196 204 0 1.02642801
Link 11 196 205 0 -0.12627318
Link 12 196 206 0 0.23852335
Link 13 196 207 0 -0.26813901
Link 14 196 208 0 0.30304229
Link 15 196 209 0 0.54001419
Link 16 196 210 0 -0.54527088
Link 17 196 211 0 0.12024747
Link 18 196 212 0 0.63760194
Link 19 196 213 0 0.85140286
Link 20 196 214 0 0.68297650
Link 21 196 215 0 -0.00879891
Link 22 196 216 0 -0.72591960
Link 23 196 217 0 -0.53286808
Link 24 196 218 0 0.76922305
Link 25 196 219 0 0.39999689
Link 26 196 220 0 -0.32086503
Link 27 196 221 0 -0.07110516
Link 28 196 222 0 -0.43271081
Link 29 196 223 0 -0.27466946
Link 30 196 224 0 -0.95665796
Link 31 196 225 0 -0.16915121
Link 32 196 226 0 0.44377305
Link 33 196 227 0 -0.40504032
Link 34 196 228 0 -0.17912119
Link 35 196 229 0 0.10532054
Link 36 196 230 0 0.17676113
Link 37 196 231 0 0.21859605
Link 38 196 232 0 0.32724461
Link 39 196 233 0 0.69652111
Link 40 196 234 0 0.24569965
Link 41 196 235 0 0.12101173
Link 42 196 236 0 -0.07282808
Link 43 196 237 0 0.13914946
Link 44 196 238 0 -0.00619673
Link 45 196 239 0 -0.12027079
Link 46 196 240 0 -0.11291465
Link 47 196 241 0 0.69655662
Link 48 196 242 0 0.68574142
Link 49 196 243 0 0.44342246
Link 50 196 244 0 0.56163326
Link 51 196 245 0 -0.91240646
Link 52 196 246 0 -0.15465665
Link 53 196 247 0 -0.34322957
Link 54 196 248 0 -0.41295731
Link 55 196 249 0 -0.09504538
Link 56 196 250 0 0.41807263
Link 57 196 251 0 0.53238805
Link 58 196 252 0 -0.52657196
Link 59 196 253 0 0.01235375
Link 60 196 254 0 -0.22117146
Link 61 196 255 0 -0.74676140
Link 62 196 256 0 0.04860817
Link 63 196 257 0 -0.08395435
Link 64 196 258 0 0.02764517
Link 65 196 259 0 -0.22926235
Link 66 196 260 0 -0.05790874
Link 67 196 261 0 -0.16621539
Link 68 196 262 0 0.35601941
Link 69 196 263 0 -0.45359373
Link 70 196 264 0 -0.57906302
Link 71 196 265 0 0.19595301
Link 72 196 266 0 -0.09463228
Link 73 196 267 0 0.21557829
Link 74 196 268 0 0.48064120
Link 75 196 269 0 -0.17869907
Link 76 196 270 0 0.26061250
Link 77 196 271 0 -0.10790507
Link 78 196 272 0 1.33021541
Link 79 196 273 0 1.03624945
Link 80 196 274 0 0.39310010
Link 81 196 275 0 0.58724180
Link 82 196 276 0 0.02925388
Link 83 196 277 0 -0.48481193
Link 84 196 278 0 1.01401798
Link 85 196 279 0 -0.35450074
Link 86 196 280 0 -0.53408402
Link 87 196 281 0 0.16881472
Link 88 196 282 0 -0.79701078
Link 89 196 283 0 0.34518758
Link 90 196 284 0 -0.14623365
Link 91 196 285 0 0.07678589
Link 92 196 286 0 0.52898567
Link 93 196 287 0 0.28326102
Link 94 196 288 0 -0.10542576
Link 95 196 289 0 0.53885403
Link 96 196 290 0 -0.38984117
Link 97 196 291 0 0.12170955
Link 98 196 292 0 -0.32380032
Link 99 196 293 0 0.64890450
Link 100 196 294 0 -0.55860338
Link 101 196 295 0 0.46334660
Link 102 196 296 0 -0.85840283
Link 103 196 297 0 0.00707462
Link 104 196 298 0 0.22826244
Link 105 196 299 0 0.12128852
Link 106 196 300 0 -0.01575454
Link 107 196 301 0 -0.63464544
Link 108 196 302 0 0.17185374
Link 109 196 303 0 0.31213648
Link 110 196 304 0 -0.21391804
Link 111 196 305 0 0.05850356
Link 112 196 306 0 1.15630108
Link 113 196 307 0 -0.35592645
Link 114 196 308 0 -0.78332256
Link 115 196 309 0 0.20721592
Link 116 196 310 0 -0.58688586
Link 117 196 311 0 0.28881743
Link 118 196 312 0 0.78503009
Link 119 196 313 0 0.24533159
Link 120 196 314 0 0.98753874
Link 121 196 315 0 0.01331810
Link 122 196 316 0 -0.08384214
Link 123 196 317 0 0.62348889
Link 124 196 318 0 0.38444834
Link 125 196 319 0 0.71196067
Link 126 196 320 0 0.31975332
Link 127 196 321 0 0.30492759
Link 128 196 322 0 -0.11199039
Link 129 196 323 0 -0.16079071
Link 130 196 324 0 0.41148913
Link 131 196 325 0 0.05919729
Link 132 196 326 0 -0.18778026
Link 133 196 327 0 0.04970789
Link 134 196 328 0 -0.39842207
Link 135 196 329 0 -0.05078746
Link 136 196 330 0 0.00006904
Link 137 196 331 0 0.05867869
Link 138 196 332 0 0.11272795
Link 139 196 333 0 0.99547783
Link 140 196 334 0 -1.15621106
Link 141 196 335 0 -0.39094334
Link 142 196 336 0 -0.03087869
Link 143 196 337 0 -0.10068977
Link 144 196 338 0 -0.76133689
Link 145 196 339 0 0.59577906
Link 146 196 340 0 0.56344839
Link 147 196 341 0 0.15648064
Link 148 196 342 0 -0.95326896
Link 149 196 343 0 0.04520114
Link 150 196 344 0 0.28460958
Link 151 196 345 0 0.47018884
Link 152 196 346 0 -0.20545063
Link 153 196 347 0 0.05636336
Link 154 196 348 0 0.12676907
Link 155 196 349 0 0.61723887
Link 156 196 350 0 0.53014849
Link 157 196 351 0 -0.02209885
Link 158 196 352 0 -0.24090876
Link 159 196 353 0 -0.19608907
Link 160 196 354 0 -0.16535118
Link 161 196 355 0 -0.01946274
Link 162 196 356 0 1.15210476
Link 163 196 357 0 0.32122205
Link 164 196 358 0 -0.00142578
Link 165 196 359 0 0.59222620
Link 166 196 360 0 -0.06949208
Link 167 196 361 0 0.28099210
Link 168 196 362 0 0.03382875
Link 169 196 363 0 -0.10462773
Link 170 196 364 0 -0.68356206
Link 171 196 365 0 -0.55681102
Link 172 196 366 0 0.41866121
Link 173 196 367 0 0.73467746
Link 174 196 368 0 -0.87173209
Link 175 196 369 0 -0.74575699
Link 176 196 370 0 -0.91711449
Link 177 196 371 0 0.90420011
Link 178 196 372 0 0.32713327
Link 179 196 373 0 0.25867538
Link 180 196 374 0 0.96456415
Link 181 196 375 0 -0.70666984
Link 182 196 376 0 0.44316482
Link 183 196 377 0 -0.66915090
Link 184 196 378 0 0.66024340
Link 185 196 379 0 0.15543485
Link 186 196 380 0 -1.03948398
Link 187 196 381 0 -0.42157595
Link 188 196 382 0 -0.33428717
Link 189 196 383 0 -0.33995778
Link 190 196 384 0 -0.30048257
Link 191 196 385 0 0.31647443
Link 192 196 386 0 -0.07098098
Link 193 196 387 0 -0.08556676
Link 194 196 388 0 -0.06770706
Link 1 197 389 0 -0.02324803
Link 2 197 390 0 -0.38812720
Link 3 197 391 0 -1.29994211
Link 4 197 392 0 0.60033446
Link 5 197 393 0 0.09239983
Link 6 197 394 0 0.69718599
Link 7 197 395 0 -0.33115753
Link 8 197 396 0 0.40593830
Link 9 197 397 0 0.44307450
Link 10 197 398 0 0.30336779
Link 11 197 399 0 0.19691057
Link 12 197 400 0 0.34297423
Link 13 197 401 0 -0.33573721
Link 14 197 402 0 -0.10793946
Link 15 197 403 0 -0.10087587
Link 16 197 404 0 0.08457547
Link 17 197 405 0 0.23901378
Link 18 197 406 0 -0.24531242
Link 19 197 407 0 -0.23775146
Link 20 197 408 0 -0.18702280
Link 21 197 409 0 1.23725503
Link 22 197 410 0 -0.71149007
Link 23 197 411 0 -0.62497000
Link 24 197 412 0 -0.14089608
Link 25 197 413 0 -0.45380448
Link 26 197 414 0 -0.13965335
Link 27 197 415 0 -0.29504889
Link 28 197 416 0 0.17303263
Link 29 197 417 0 -0.20999180
Link 30 197 418 0 -0.18969503
Link 31 197 419 0 0.01700777
Link 32 197 420 0 0.44533657
Link 33 197 421 0 -0.65855546
Link 34 197 422 0 0.74569882
Link 35 197 423 0 -0.30118891
Link 36 197 424 0 -0.07456302
Link 37 197 425 0 -0.56751497
Link 38 197 426 0 0.12971950
Link 39 197 427 0 -0.38942726
Link 40 197 428 0 0.48262795
Link 41 197 429 0 0.46115000
Link 42 197 430 0 -0.23661762
Link 43 197 431 0 0.30055817
Link 44 197 432 0 -0.12024460
Link 45 197 433 0 -0.18744890
Link 46 197 434 0 -0.35616709
Link 47 197 435 0 0.11814097
Link 48 197 436 0 -0.10461625
Link 49 197 437 0 -0.29946717
Link 50 197 438 0 -0.17310882
Link 51 197 439 0 -0.00094232
Link 52 197 440 0 0.36326131
Link 53 197 441 0 -0.27713324
Link 54 197 442 0 -0.52668183
Link 55 197 443 0 -0.15334797
Link 56 197 444 0 0.32474812
Link 57 197 445 0 0.34258474
Link 58 197 446 0 0.19299956
Link 59 197 447 0 -0.23116863
Link 60 197 448 0 -0.05605859
Link 61 197 449 0 0.32659546
Link 62 197 450 0 -0.39245679
Link 63 197 451 0 -0.46200921
Link 64 197 452 0 -0.41609153
Link 65 197 453 0 -0.17628058
Link 66 197 454 0 0.57512923
Link 67 197 455 0 -0.57845077
Link 68 197 456 0 -1.02501611
Link 69 197 457 0 -0.60737588
Link 70 197 458 0 0.45379979
Link 71 197 459 0 -0.38600285
Link 72 197 460 0 -0.23386619
Link 73 197 461 0 1.32255193
Link 74 197 462 0 0.46598242
Link 75 197 463 0 -0.17379378
Link 76 197 464 0 0.02988074
Link 77 197 465 0 -0.09630306
Link 78 197 466 0 0.47330333
Link 79 197 467 0 -0.21534717
Link 80 197 468 0 -0.55582233
Link 81 197 469 0 0.14828427
Link 82 197 470 0 -1.75020969
Link 83 197 471 0 -0.21237457
Link 84 197 472 0 -0.43819578
Link 85 197 473 0 -0.17330553
Link 86 197 474 0 -0.25507132
Link 87 197 475 0 0.19500741
Link 88 197 476 0 -0.52475369
Link 89 197 477 0 0.07404345
Link 90 197 478 0 0.63698295
Link 91 197 479 0 0.29001625
Link 92 197 480 0 -0.27427317
Link 93 197 481 0 -0.77419802
Link 94 197 482 0 -0.29313256
Link 95 197 483 0 0.38606432
Link 96 197 484 0 0.24125819
Link 97 197 485 0 -0.22892859
Link 98 197 486 0 -0.25403973
Link 99 197 487 0 -0.19654950
Link 100 197 488 0 -0.08052260
Link 101 197 489 0 -0.03442551
Link 102 197 490 0 0.13668132
Link 103 197 491 0 0.33648659
Link 104 197 492 0 -0.25880436
Link 105 197 493 0 -0.51188575
Link 106 197 494 0 0.81658731
Link 107 197 495 0 0.85153468
Link 108 197 496 0 -0.07812176
Link 109 197 497 0 -0.14374163
Link 110 197 498 0 0.25009626
Link 111 197 499 0 0.53609549
Link 112 197 500 0 0.32863354
Link 113 197 501 0 0.01310187
Link 114 197 502 0 -0.99268008
Link 115 197 503 0 -0.33957044
Link 116 197 504 0 0.59272726
Link 117 197 505 0 0.38553545
Link 118 197 506 0 0.80104112
Link 119 197 507 0 -0.86703790
Link 120 197 508 0 0.28772169
Link 121 197 509 0 -0.57138974
Link 122 197 510 0 0.66181286
Link 123 197 511 0 0.22023889
Link 124 197 512 0 0.28196552
Link 125 197 513 0 1.44598013
Link 126 197 514 0 -0.05139442
Link 127 197 515 0 0.86792157
Link 128 197 516 0 0.41236173
Link 129 197 517 0 -0.20468845
Link 130 197 518 0 0.25948865
Link 131 197 519 0 -0.17154486
Link 132 197 520 0 -1.53904300
Link 133 197 521 0 -0.63610764
Link 134 197 522 0 -0.97515758
Link 135 197 523 0 -0.46793857
Link 136 197 524 0 -0.57409680
Link 137 197 525 0 0.38217749
Link 138 197 526 0 0.03538252
Link 139 197 527 0 0.16524620
Link 140 197 528 0 0.70838294
Link 141 197 529 0 -1.26780480
Link 142 197 530 0 0.13374355
Link 143 197 531 0 0.07089322
Link 144 197 532 0 -0.04092779
Link 145 197 533 0 0.55676482
Link 146 197 534 0 -1.29928281
Link 147 197 535 0 0.24920678
Link 148 197 536 0 0.42926361
Link 149 197 537 0 0.15595770
Link 150 197 538 0 0.65669639
Link 151 197 539 0 -0.16745907
Link 152 197 540 0 0.03651047
Link 153 197 541 0 0.10721978
Link 154 197 542 0 0.03093068
Link 155 197 543 0 0.69802588
Link 156 197 544 0 -0.03211717
Link 157 197 545 0 -1.11381355
Link 158 197 546 0 0.72641500
Link 159 197 547 0 -0.02120577
Link 160 197 548 0 0.62154089
Link 161 197 549 0 0.02848329
Link 162 197 550 0 0.64718905
Link 163 197 551 0 0.50437920
Link 164 197 552 0 1.52565210
Link 165 197 553 0 -0.04731610
Link 166 197 554 0 0.29789398
Link 167 197 555 0 0.81872291
Link 168 197 556 0 -0.74449389
Link 169 197 557 0 -0.17142534
Link 170 197 558 0 -0.98469327
Link 171 197 559 0 -0.60001610
Link 172 197 560 0 0.25406616
Link 173 197 561 0 -0.61565545
Link 174 197 562 0 0.23058902
Link 175 197 563 0 0.52732582
Link 176 197 564 0 0.46959653
Link 177 197 565 0 0.34695793
Link 178 197 566 0 0.21435611
Link 179 197 567 0 -0.19492235
Link 180 197 568 0 0.02236855
Link 181 197 569 0 0.63348212
Link 182 197 570 0 -0.00261457
Link 183 197 571 0 -0.58663511
Link 184 197 572 0 -0.49997249
Link 185 197 573 0 -0.47970585
Link 186 197 574 0 -0.64952777
Link 187 197 575 0 -0.79886432
Link 188 197 576 0 -0.55672713
Link 189 197 577 0 0.03771909
Link 190 197 578 0 -1.17953794
Link 191 197 579 0 0.12842052
Link 192 197 580 0 0.77367479
Link 193 197 581 0 -0.07446193
Link 194 197 582 0 -0.31906930
Link 1 198 583 0 -0.08082755
Link 2 198 584 0 -1.69088026
Link 3 198 585 0 0.21945057
Link 4 198 586 0 -0.30221845
Link 5 198 587 0 -0.94580184
Link 6 198 588 0 0.42005278
Link 7 198 589 0 -0.83254831
Link 8 198 590 0 -0.23203165
Link 9 198 591 0 0.17888960
Link 10 198 592 0 0.38575183
Link 11 198 593 0 0.48116579
Link 12 198 594 0 -1.16738152
Link 13 198 595 0 -0.66246211
Link 14 198 596 0 0.34347083
Link 15 198 597 0 0.54163354
Link 16 198 598 0 0.41743685
Link 17 198 599 0 -0.53810978
Link 18 198 600 0 0.11539189
Link 19 198 601 0 0.57153223
Link 20 198 602 0 0.19678487
Link 21 198 603 0 0.86080942
Link 22 198 604 0 -0.88789851
Link 23 198 605 0 -0.35780909
Link 24 198 606 0 -0.23866264
Link 25 198 607 0 0.43195193
Link 26 198 608 0 -0.09148349
Link 27 198 609 0 -0.57118653
Link 28 198 610 0 -1.14383007
Link 29 198 611 0 -1.49339618
Link 30 198 612 0 -0.67298218
Link 31 198 613 0 0.16523290
Link 32 198 614 0 -0.68531633
Link 33 198 615 0 0.37131633
Link 34 198 616 0 -0.40762534
Link 35 198 617 0 -1.37416455
Link 36 198 618 0 0.66735681
Link 37 198 619 0 -0.01856821
Link 38 198 620 0 -0.02249339
Link 39 198 621 0 0.90345659
Link 40 198 622 0 0.09655554
Link 41 198 623 0 -0.42979221
Link 42 198 624 0 -0.02618665
Link 43 198 625 0 -0.37850299
Link 44 198 626 0 -0.22394058
Link 45 198 627 0 0.26143872
Link 46 198 628 0 -0.59033409
Link 47 198 629 0 0.22182086
Link 48 198 630 0 0.02570812
Link 49 198 631 0 -0.50796288
Link 50 198 632 0 0.52803436
Link 51 198 633 0 -0.43670961
Link 52 198 634 0 -0.06511293
Link 53 198 635 0 0.99504832
Link 54 198 636 0 -0.24198655
Link 55 198 637 0 0.22143518
Link 56 198 638 0 0.19312400
Link 57 198 639 0 1.07206583
Link 58 198 640 0 -0.10909718
Link 59 198 641 0 0.54581060
Link 60 198 642 0 -0.19046216
Link 61 198 643 0 0.41584139
Link 62 198 644 0 0.20916108
Link 63 198 645 0 -0.34870415
Link 64 198 646 0 0.22450095
Link 65 198 647 0 0.07253238
Link 66 198 648 0 0.31843994
Link 67 198 649 0 -0.01263867
Link 68 198 650 0 -0.32914241
Link 69 198 651 0 0.09561434
Link 70 198 652 0 0.41088785
Link 71 198 653 0 0.18251135
Link 72 198 654 0 -0.32533635
Link 73 198 655 0 0.38138075
Link 74 198 656 0 0.20382038
Link 75 198 657 0 0.03698825
Link 76 198 658 0 0.37029024
Link 77 198 659 0 -0.38889310
Link 78 198 660 0 -0.06731534
Link 79 198 661 0 0.23499558
Link 80 198 662 0 0.28280028
Link 81 198 663 0 -0.39939099
Link 82 198 664 0 -1.25713564
Link 83 198 665 0 0.13556306
Link 84 198 666 0 -0.01131473
Link 85 198 667 0 0.56594481
Link 86 198 668 0 -0.60066319
Link 87 198 669 0 -0.10056773
Link 88 198 670 0 0.39462629
Link 89 198 671 0 -0.25473811
Link 90 198 672 0 -0.24536461
Link 91 198 673 0 0.26351298
Link 92 198 674 0 0.09501328
Link 93 198 675 0 -1.24476701
Link 94 198 676 0 -0.46413075
Link 95 198 677 0 0.32838451
Link 96 198 678 0 0.33882879
Link 97 198 679 0 0.13800354
Link 98 198 680 0 -0.05615201
Link 99 198 681 0 0.27088349
Link 100 198 682 0 0.36194673
Link 101 198 683 0 0.26634487
Link 102 198 684 0 -0.42023491
Link 103 198 685 0 0.22530885
Link 104 198 686 0 0.07885192
Link 105 198 687 0 0.61253603
Link 106 198 688 0 0.05399203
Link 107 198 689 0 0.21503830
Link 108 198 690 0 -1.09623624
Link 109 198 691 0 0.31930257
Link 110 198 692 0 0.41858621
Link 111 198 693 0 -0.76033809
Link 112 198 694 0 -0.17396461
Link 113 198 695 0 -0.52532665
Link 114 198 696 0 0.09549850
Link 115 198 697 0 0.69233556
Link 116 198 698 0 0.24443369
Link 117 198 699 0 0.44695902
Link 118 198 700 0 -0.23280736
Link 119 198 701 0 -0.18477515
Link 120 198 702 0 -0.87197319
Link 121 198 703 0 1.16885475
Link 122 198 704 0 -0.56226127
Link 123 198 705 0 -0.12543186
Link 124 198 706 0 -0.62279855
Link 125 198 707 0 -0.38575571
Link 126 198 708 0 -0.02592908
Link 127 198 709 0 -0.45183034
Link 128 198 710 0 0.20927255
Link 129 198 711 0 0.24529508
Link 130 198 712 0 -0.37318079
Link 131 198 713 0 -0.16518723
Link 132 198 714 0 0.73658524
Link 133 198 715 0 0.44729013
Link 134 198 716 0 0.58168022
Link 135 198 717 0 -0.40168067
Link 136 198 718 0 0.01412210
Link 137 198 719 0 -0.08634832
Link 138 198 720 0 0.04250185
Link 139 198 721 0 -0.13572373
Link 140 198 722 0 -0.53764878
Link 141 198 723 0 -0.30473012
Link 142 198 724 0 0.07449486
Link 143 198 725 0 -0.11881866
Link 144 198 726 0 0.15071624
Link 145 198 727 0 0.17023520
Link 146 198 728 0 -0.16388047
Link 147 198 729 0 -0.90817041
Link 148 198 730 0 -0.71176026
Link 149 198 731 0 0.70173251
Link 150 198 732 0 0.19017209
Link 151 198 733 0 -0.34336488
Link 152 198 734 0 0.45975935
Link 153 198 735 0 0.12330316
Link 154 198 736 0 -0.06063319
Link 155 198 737 0 0.27775854
Link 156 198 738 0 0.30098187
Link 157 198 739 0 1.10444316
Link 158 198 740 0 0.64461878
Link 159 198 741 0 0.14849809
Link 160 198 742 0 0.59960724
Link 161 198 743 0 -0.17901326
Link 162 198 744 0 -0.73565567
Link 163 198 745 0 -0.59802139
Link 164 198 746 0 -0.25385143
Link 165 198 747 0 0.56355994
Link 166 198 748 0 -0.63968539
Link 167 198 749 0 0.59856145
Link 168 198 750 0 -0.16291811
Link 169 198 751 0 -0.77902267
Link 170 198 752 0 0.95471521
Link 171 198 753 0 0.10760106
Link 172 198 754 0 0.39548458
Link 173 198 755 0 0.17608254
Link 174 198 756 0 0.33444740
Link 175 198 757 0 -0.11361042
Link 176 198 758 0 0.12385571
Link 177 198 759 0 -0.00265287
Link 178 198 760 0 -0.49362310
Link 179 198 761 0 0.35384026
Link 180 198 762 0 -0.79439683
Link 181 198 763 0 0.71686073
Link 182 198 764 0 0.01924271
Link 183 198 765 0 -0.50338570
Link 184 198 766 0 0.08950174
Link 185 198 767 0 -0.03789672
Link 186 198 768 0 0.11399279
Link 187 198 769 0 0.71469167
Link 188 198 770 0 0.01503427
Link 189 198 771 0 0.10931289
Link 190 198 772 0 -0.07620853
Link 191 198 773 0 0.07933013
Link 192 198 774 0 -0.18662761
Link 193 198 775 0 0.72657427
Link 194 198 776 0 -0.09145905
Link 1 199 777 0 0.06515106
Link 2 199 778 0 -1.22237029
Link 3 199 779 0 -0.99807470
Link 4 199 780 0 0.17594742
Link 5 199 781 0 -0.06819670
Link 6 199 782 0 -0.03264310
Link 7 199 783 0 0.90670717
Link 8 199 784 0 -0.83695598
Link 9 199 785 0 0.70684645
Link 10 199 786 0 -0.20339287
Link 11 199 787 0 -0.70927193
Link 12 199 788 0 -0.56989711
Link 13 199 789 0 -0.54887393
Link 14 199 790 0 0.27221313
Link 15 199 791 0 -0.44566627
Link 16 199 792 0 -0.07196509
Link 17 199 793 0 0.92885653
Link 18 199 794 0 -0.90567869
Link 19 199 795 0 0.00316934
Link 20 199 796 0 -0.33427391
Link 21 199 797 0 -0.08615066
Link 22 199 798 0 -0.62105902
Link 23 199 799 0 0.87632232
Link 24 199 800 0 -0.19042082
Link 25 199 801 0 -0.23311619
Link 26 199 802 0 -0.13756865
Link 27 199 803 0 -0.38194034
Link 28 199 804 0 -0.13135054
Link 29 199 805 0 -1.68067285
Link 30 199 806 0 0.50583510
Link 31 199 807 0 0.37996390
Link 32 199 808 0 0.17488535
Link 33 199 809 0 -0.21681930
Link 34 199 810 0 0.32367447
Link 35 199 811 0 -0.42739968
Link 36 199 812 0 0.44168679
Link 37 199 813 0 0.35773681
Link 38 199 814 0 -1.19818915
Link 39 199 815 0 -0.82784072
Link 40 199 816 0 -0.36371483
Link 41 199 817 0 -0.03814683
Link 42 199 818 0 -0.43034650
Link 43 199 819 0 0.10237693
Link 44 199 820 0 0.50073200
Link 45 199 821 0 0.12976455
Link 46 199 822 0 -0.43487775
Link 47 199 823 0 -0.61075305
Link 48 199 824 0 -1.01075130
Link 49 199 825 0 0.33494192
Link 50 199 826 0 -0.41308869
Link 51 199 827 0 -0.25122302
Link 52 199 828 0 -0.42500818
Link 53 199 829 0 0.02837324
Link 54 199 830 0 -1.72284100
Link 55 199 831 0 -0.16428687
Link 56 199 832 0 0.20689296
Link 57 199 833 0 0.35477565
Link 58 199 834 0 -0.19957159
Link 59 199 835 0 0.02316754
Link 60 199 836 0 0.42440455
Link 61 199 837 0 0.09157624
Link 62 199 838 0 0.11893985
Link 63 199 839 0 0.25772330
Link 64 199 840 0 0.04592103
Link 65 199 841 0 -0.13972369
Link 66 199 842 0 0.22360868
Link 67 199 843 0 1.00366892
Link 68 199 844 0 0.38410403
Link 69 199 845 0 0.39861934
Link 70 199 846 0 -0.14103608
Link 71 199 847 0 0.34902467
Link 72 199 848 0 -0.05258275
Link 73 199 849 0 0.33508922
Link 74 199 850 0 0.29977910
Link 75 199 851 0 -0.85706264
Link 76 199 852 0 0.32614049
Link 77 199 853 0 -0.31543353
Link 78 199 854 0 -0.70229728
Link 79 199 855 0 -0.34842381
Link 80 199 856 0 0.28567386
Link 81 199 857 0 0.22361285
Link 82 199 858 0 -1.09636813
Link 83 199 859 0 -0.61032936
Link 84 199 860 0 0.43753019
Link 85 199 861 0 -0.04004175
Link 86 199 862 0 0.02337548
Link 87 199 863 0 0.65680585
Link 88 199 864 0 0.22164107
Link 89 199 865 0 0.79081555
Link 90 199 866 0 -0.19355350
Link 91 199 867 0 -0.01209104
Link 92 199 868 0 -0.36555250
Link 93 199 869 0 0.51975369
Link 94 199 870 0 1.06253002
Link 95 199 871 0 0.61945837
Link 96 199 872 0 -0.12015462
Link 97 199 873 0 0.59910037
Link 98 199 874 0 0.14901402
Link 99 199 875 0 -0.38800859
Link 100 199 876 0 0.46762528
Link 101 199 877 0 -0.53446876
Link 102 199 878 0 0.52013275
Link 103 199 879 0 -0.68656623
Link 104 199 880 0 -0.33282489
Link 105 199 881 0 -0.52846889
Link 106 199 882 0 0.85836671
Link 107 199 883 0 -0.37483084
Link 108 199 884 0 0.22962225
Link 109 199 885 0 -0.37653631
Link 110 199 886 0 -0.11684111
Link 111 199 887 0 0.10970887
Link 112 199 888 0 -0.81768555
Link 113 199 889 0 -0.28980873
Link 114 199 890 0 0.20958483
Link 115 199 891 0 0.42458050
Link 116 199 892 0 0.37895473
Link 117 199 893 0 -0.00365712
Link 118 199 894 0 0.35264924
Link 119 199 895 0 -0.05142241
Link 120 199 896 0 -0.00735129
Link 121 199 897 0 0.93835997
Link 122 199 898 0 0.01876376
Link 123 199 899 0 -0.00054900
Link 124 199 900 0 0.68545112
Link 125 199 901 0 -0.10138296
Link 126 199 902 0 1.04959569
Link 127 199 903 0 -0.06087152
Link 128 199 904 0 0.51702762
Link 129 199 905 0 0.29784667
Link 130 199 906 0 -1.25282109
Link 131 199 907 0 -0.42804857
Link 132 199 908 0 -0.74963454
Link 133 199 909 0 0.19487530
Link 134 199 910 0 -0.66594457
Link 135 199 911 0 -0.03894467
Link 136 199 912 0 -0.54378982
Link 137 199 913 0 -0.78807488
Link 138 199 914 0 -0.12742566
Link 139 199 915 0 0.43935291
Link 140 199 916 0 0.84333834
Link 141 199 917 0 0.21409243
Link 142 199 918 0 -0.82958298
Link 143 199 919 0 0.05556607
Link 144 199 920 0 -0.45042856
Link 145 199 921 0 0.01362639
Link 146 199 922 0 0.56881714
Link 147 199 923 0 -1.08328228
Link 148 199 924 0 0.49272438
Link 149 199 925 0 0.33632522
Link 150 199 926 0 -0.22672659
Link 151 199 927 0 0.72798410
Link 152 199 928 0 0.22991339
Link 153 199 929 0 -0.03224317
Link 154 199 930 0 -0.33380119
Link 155 199 931 0 -0.34220401
Link 156 199 932 0 -0.53833463
Link 157 199 933 0 -0.01379816
Link 158 199 934 0 0.49163303
Link 159 199 935 0 0.97515343
Link 160 199 936 0 0.88285961
Link 161 199 937 0 0.55597731
Link 162 199 938 0 0.65594385
Link 163 199 939 0 0.03064855
Link 164 199 940 0 0.00416322
Link 165 199 941 0 -0.39874833
Link 166 199 942 0 0.22344357
Link 167 199 943 0 0.10184792
Link 168 199 944 0 -0.01606634
Link 169 199 945 0 -0.42089923
Link 170 199 946 0 0.18829587
Link 171 199 947 0 -0.06329765
Link 172 199 948 0 -0.43107789
Link 173 199 949 0 -0.46889557
Link 174 199 950 0 0.04270850
Link 175 199 951 0 -2.01984838
Link 176 199 952 0 -1.57948988
Link 177 199 953 0 0.23429775
Link 178 199 954 0 0.65138729
Link 179 199 955 0 0.70895728
Link 180 199 956 0 -0.06629594
Link 181 199 957 0 0.58950078
Link 182 199 958 0 -0.23509061
Link 183 199 959 0 -0.05336315
Link 184 199 960 0 -0.10213603
Link 185 199 961 0 0.05939944
Link 186 199 962 0 -0.04714282
Link 187 199 963 0 -0.29466272
Link 188 199 964 0 -0.55437444
Link 189 199 965 0 0.20025028
Link 190 199 966 0 -0.32048913
Link 191 199 967 0 -0.11543356
Link 192 199 968 0 0.22625535
Link 193 199 969 0 0.34117160
Link 194 199 970 0 -0.00140157
Link 1 200 971 0 0.30299293
Link 2 200 972 0 -0.15436513
Link 3 200 973 0 -0.42561210
Link 4 200 974 0 -0.37154788
Link 5 200 975 0 0.34223049
Link 6 200 976 0 -0.87288874
Link 7 200 977 0 -0.33158472
Link 8 200 978 0 -1.07638662
Link 9 200 979 0 0.18685311
Link 10 200 980 0 0.43901499
Link 11 200 981 0 -0.41866290
Link 12 200 982 0 0.28273406
Link 13 200 983 0 -0.13204599
Link 14 200 984 0 0.57481614
Link 15 200 985 0 -0.21223952
Link 16 200 986 0 0.61340298
Link 17 200 987 0 0.54604507
Link 18 200 988 0 -0.98785830
Link 19 200 989 0 0.35511646
Link 20 200 990 0 -0.25863461
Link 21 200 991 0 0.01700305
Link 22 200 992 0 -0.50114195
Link 23 200 993 0 0.10958461
Link 24 200 994 0 -1.24388214
Link 25 200 995 0 -0.16889897
Link 26 200 996 0 -0.37699640
Link 27 200 997 0 -0.23529098
Link 28 200 998 0 -0.27689253
Link 29 200 999 0 -0.25732455
Link 30 200 1000 0 -0.09643215
Link 31 200 1001 0 0.96771330
Link 32 200 1002 0 -1.25583605
Link 33 200 1003 0 -0.51589055
Link 34 200 1004 0 0.32421494
Link 35 200 1005 0 -0.33102748
Link 36 200 1006 0 -0.63597058
Link 37 200 1007 0 -1.48776063
Link 38 200 1008 0 0.40618558
Link 39 200 1009 0 -0.30315659
Link 40 200 1010 0 0.11965554
Link 41 200 1011 0 -1.06146427
Link 42 200 1012 0 -0.28783434
Link 43 200 1013 0 0.14074646
Link 44 200 1014 0 -0.49694941
Link 45 200 1015 0 -0.88210185
Link 46 200 1016 0 1.55466196
Link 47 200 1017 0 0.37903588
Link 48 200 1018 0 -0.62847593
Link 49 200 1019 0 -0.39153232
Link 50 200 1020 0 -0.26030401
Link 51 200 1021 0 0.11411223
Link 52 200 1022 0 -0.00895837
Link 53 200 1023 0 0.01275546
Link 54 200 1024 0 -0.35283442
Link 55 200 1025 0 0.47937376
Link 56 200 1026 0 0.04208259
Link 57 200 1027 0 -0.30535564
Link 58 200 1028 0 -0.19765598
Link 59 200 1029 0 -0.15936479
Link 60 200 1030 0 0.34658769
Link 61 200 1031 0 0.46494807
Link 62 200 1032 0 0.83885913
Link 63 200 1033 0 -0.39259405
Link 64 200 1034 0 0.09074679
Link 65 200 1035 0 -0.48872926
Link 66 200 1036 0 0.65249137
Link 67 200 1037 0 0.06461153
Link 68 200 1038 0 -0.16349759
Link 69 200 1039 0 -0.26045593
Link 70 200 1040 0 0.67269590
Link 71 200 1041 0 0.43978452
Link 72 200 1042 0 0.41057935
Link 73 200 1043 0 -0.03351839
Link 74 200 1044 0 -0.00860139
Link 75 200 1045 0 0.55327192
Link 76 200 1046 0 -1.42264030
Link 77 200 1047 0 -0.33506935
Link 78 200 1048 0 -0.21286817
Link 79 200 1049 0 -0.24737323
Link 80 200 1050 0 -0.06876193
Link 81 200 1051 0 0.04790940
Link 82 200 1052 0 -0.33132109
Link 83 200 1053 0 -0.23503026
Link 84 200 1054 0 -0.09527549
Link 85 200 1055 0 -0.20232106
Link 86 200 1056 0 -0.05861816
Link 87 200 1057 0 -0.00161343
Link 88 200 1058 0 -0.45099811
Link 89 200 1059 0 0.46406081
Link 90 200 1060 0 -0.02830322
Link 91 200 1061 0 0.31617183
Link 92 200 1062 0 -0.17273221
Link 93 200 1063 0 0.62865920
Link 94 200 1064 0 -0.22871062
Link 95 200 1065 0 -0.23903716
Link 96 200 1066 0 1.02013158
Link 97 200 1067 0 1.06103181
Link 98 200 1068 0 1.08006984
Link 99 200 1069 0 -0.64910469
Link 100 200 1070 0 -0.27733259
Link 101 200 1071 0 -0.19552817
Link 102 200 1072 0 0.09194668
Link 103 200 1073 0 -0.27650536
Link 104 200 1074 0 0.07502722
Link 105 200 1075 0 0.23791830
Link 106 200 1076 0 0.02515590
Link 107 200 1077 0 -0.06300879
Link 108 200 1078 0 -0.60313409
Link 109 200 1079 0 0.35531713
Link 110 200 1080 0 -0.32451434
Link 111 200 1081 0 0.53342806
Link 112 200 1082 0 -0.20389066
Link 113 200 1083 0 0.25881591
Link 114 200 1084 0 -0.35106724
Link 115 200 1085 0 -0.02938195
Link 116 200 1086 0 -1.00790331
Link 117 200 1087 0 -0.62959851
Link 118 200 1088 0 1.21004698
Link 119 200 1089 0 0.58980547
Link 120 200 1090 0 -0.12561612
Link 121 200 1091 0 0.01269652
Link 122 200 1092 0 0.13154460
Link 123 200 1093 0 0.08898950
Link 124 200 1094 0 -0.57800136
Link 125 200 1095 0 -0.37806815
Link 126 200 1096 0 -0.72282399
Link 127 200 1097 0 -0.03737807
Link 128 200 1098 0 -0.09735894
Link 129 200 1099 0 0.17313921
Link 130 200 1100 0 0.27448811
Link 131 200 1101 0 0.31563572
Link 132 200 1102 0 -0.24683632
Link 133 200 1103 0 -0.38099452
Link 134 200 1104 0 0.86801134
Link 135 200 1105 0 0.45731878
Link 136 200 1106 0 0.28765777
Link 137 200 1107 0 -1.81043047
Link 138 200 1108 0 -0.05669874
Link 139 200 1109 0 1.26516142
Link 140 200 1110 0 0.13715692
Link 141 200 1111 0 -0.19058816
Link 142 200 1112 0 0.07526873
Link 143 200 1113 0 0.44688843
Link 144 200 1114 0 0.88566890
Link 145 200 1115 0 -0.51861081
Link 146 200 1116 0 0.00206843
Link 147 200 1117 0 -0.42762741
Link 148 200 1118 0 0.44694260
Link 149 200 1119 0 0.33450305
Link 150 200 1120 0 -0.76721092
Link 151 200 1121 0 0.21825767
Link 152 200 1122 0 0.38738781
Link 153 200 1123 0 0.03232890
Link 154 200 1124 0 0.65650290
Link 155 200 1125 0 1.18403121
Link 156 200 1126 0 0.46113399
Link 157 200 1127 0 0.25956710
Link 158 200 1128 0 0.02162630
Link 159 200 1129 0 0.07755461
Link 160 200 1130 0 0.23307581
Link 161 200 1131 0 -0.61560061
Link 162 200 1132 0 -0.57485809
Link 163 200 1133 0 0.45493580
Link 164 200 1134 0 -0.01477384
Link 165 200 1135 0 -0.21520282
Link 166 200 1136 0 0.74555974
Link 167 200 1137 0 -0.39536855
Link 168 200 1138 0 0.04734292
Link 169 200 1139 0 -0.84473119
Link 170 200 1140 0 -0.11812955
Link 171 200 1141 0 -0.04274930
Link 172 200 1142 0 -0.28433931
Link 173 200 1143 0 0.01981837
Link 174 200 1144 0 -1.09270346
Link 175 200 1145 0 0.18941524
Link 176 200 1146 0 0.09819332
Link 177 200 1147 0 -0.91933909
Link 178 200 1148 0 0.69509240
Link 179 200 1149 0 -0.06751736
Link 180 200 1150 0 0.56787504
Link 181 200 1151 0 -0.39841812
Link 182 200 1152 0 -0.87892194
Link 183 200 1153 0 -0.62808890
Link 184 200 1154 0 -0.22196633
Link 185 200 1155 0 -0.12682400
Link 186 200 1156 0 1.64236021
Link 187 200 1157 0 -0.66842879
Link 188 200 1158 0 -0.25672291
Link 189 200 1159 0 -0.02520696
Link 190 200 1160 0 -0.99091623
Link 191 200 1161 0 1.37895435
Link 192 200 1162 0 -0.36574318
Link 193 200 1163 0 0.32310508
Link 194 200 1164 0 0.11536674
Link 1 201 1165 0 -0.17370930
Link 2 201 1166 0 0.08167589
Link 3 201 1167 0 -0.81821653
Link 4 201 1168 0 -0.98876705
Link 5 201 1169 0 0.46268470
Link 6 201 1170 0 -0.00270599
Link 7 201 1171 0 -0.10565583
Link 8 201 1172 0 -0.05488961
Link 9 201 1173 0 -0.06851716
Link 10 201 1174 0 -0.12593772
Link 11 201 1175 0 0.05041567
Link 12 201 1176 0 0.13303775
Link 13 201 1177 0 -0.52967446
Link 14 201 1178 0 -0.28169864
Link 15 201 1179 0 1.41187765
Link 16 201 1180 0 -0.23845429
Link 17 201 1181 0 -0.22719056
Link 18 201 1182 0 -0.59297727
Link 19 201 1183 0 0.22075121
Link 20 201 1184 0 -0.74799050
Link 21 201 1185 0 -0.32942661
Link 22 201 1186 0 0.35945265
Link 23 201 1187 0 0.51417189
Link 24 201 1188 0 0.08466080
Link 25 201 1189 0 0.52930587
Link 26 201 1190 0 -1.18128723
Link 27 201 1191 0 0.20449832
Link 28 201 1192 0 0.13149466
Link 29 201 1193 0 0.07229887
Link 30 201 1194 0 -0.29637441
Link 31 201 1195 0 0.40730650
Link 32 201 1196 0 0.38256097
Link 33 201 1197 0 0.56369188
Link 34 201 1198 0 0.00544496
Link 35 201 1199 0 0.56083961
Link 36 201 1200 0 0.29684174
Link 37 201 1201 0 0.10122394
Link 38 201 1202 0 -0.08475254
Link 39 201 1203 0 -0.38445944
Link 40 201 1204 0 -2.00320090
Link 41 201 1205 0 -0.90967277
Link 42 201 1206 0 0.60222266
Link 43 201 1207 0 -0.27620293
Link 44 201 1208 0 -0.15389490
Link 45 201 1209 0 0.04485422
Link 46 201 1210 0 0.93191567
Link 47 201 1211 0 0.29013523
Link 48 201 1212 0 0.57474856
Link 49 201 1213 0 -0.60196481
Link 50 201 1214 0 0.43198007
Link 51 201 1215 0 0.16329896
Link 52 201 1216 0 0.53585163
Link 53 201 1217 0 -0.15632643
Link 54 201 1218 0 1.64269192
Link 55 201 1219 0 0.11075447
Link 56 201 1220 0 0.27337798
Link 57 201 1221 0 -0.29969406
Link 58 201 1222 0 -0.38044171
Link 59 201 1223 0 1.09436442
Link 60 201 1224 0 0.11587111
Link 61 201 1225 0 0.50593593
Link 62 201 1226 0 0.40878243
Link 63 201 1227 0 0.51322372
Link 64 201 1228 0 0.26283410
Link 65 201 1229 0 0.47897619
Link 66 201 1230 0 0.38745559
Link 67 201 1231 0 -0.44594969
Link 68 201 1232 0 0.05306573
Link 69 201 1233 0 -0.18895398
Link 70 201 1234 0 -0.01769437
Link 71 201 1235 0 0.42949835
Link 72 201 1236 0 -0.87305492
Link 73 201 1237 0 0.40144630
Link 74 201 1238 0 -0.46149390
Link 75 201 1239 0 0.22815824
Link 76 201 1240 0 -0.01592794
Link 77 201 1241 0 -0.34030113
Link 78 201 1242 0 0.34058525
Link 79 201 1243 0 -0.66791801
Link 80 201 1244 0 -0.37267886
Link 81 201 1245 0 0.36611118
Link 82 201 1246 0 0.79864252
Link 83 201 1247 0 0.86933509
Link 84 201 1248 0 -0.28128002
Link 85 201 1249 0 0.08963243
Link 86 201 1250 0 0.71087968
Link 87 201 1251 0 -0.07599913
Link 88 201 1252 0 -0.48807235
Link 89 201 1253 0 -0.02842341
Link 90 201 1254 0 -0.66996413
Link 91 201 1255 0 -0.07843862
Link 92 201 1256 0 -0.20229536
Link 93 201 1257 0 0.16790662
Link 94 201 1258 0 -0.08317477
Link 95 201 1259 0 -0.01776094
Link 96 201 1260 0 0.27456801
Link 97 201 1261 0 -0.56253962
Link 98 201 1262 0 1.01614841
Link 99 201 1263 0 0.19361256
Link 100 201 1264 0 1.09652537
Link 101 201 1265 0 -0.81049539
Link 102 201 1266 0 0.12865277
Link 103 201 1267 0 -0.43496937
Link 104 201 1268 0 0.36006053
Link 105 201 1269 0 -0.60234776
Link 106 201 1270 0 0.27612129
Link 107 201 1271 0 0.69265598
Link 108 201 1272 0 0.10467022
Link 109 201 1273 0 -0.22788896
Link 110 201 1274 0 -0.19169003
Link 111 201 1275 0 -0.79596555
Link 112 201 1276 0 -0.05878410
Link 113 201 1277 0 -0.31719844
Link 114 201 1278 0 0.35467366
Link 115 201 1279 0 -0.19423704
Link 116 201 1280 0 0.42611761
Link 117 201 1281 0 -0.63320505
Link 118 201 1282 0 0.23020483
Link 119 201 1283 0 1.24723312
Link 120 201 1284 0 -0.04970377
Link 121 201 1285 0 0.08224067
Link 122 201 1286 0 -1.02577988
Link 123 201 1287 0 -0.24636088
Link 124 201 1288 0 -1.49312504
Link 125 201 1289 0 -0.30268517
Link 126 201 1290 0 0.23049288
Link 127 201 1291 0 0.04179922
Link 128 201 1292 0 0.19495000
Link 129 201 1293 0 0.30109782
Link 130 201 1294 0 0.02346624
Link 131 201 1295 0 -0.51891570
Link 132 201 1296 0 -0.14775035
Link 133 201 1297 0 -0.01034397
Link 134 201 1298 0 -0.20169374
Link 135 201 1299 0 0.42679619
Link 136 201 1300 0 0.09847789
Link 137 201 1301 0 -0.50248858
Link 138 201 1302 0 0.33655875
Link 139 201 1303 0 -0.03572789
Link 140 201 1304 0 0.24426108
Link 141 201 1305 0 0.19942852
Link 142 201 1306 0 0.30137151
Link 143 201 1307 0 -0.82588124
Link 144 201 1308 0 -0.68433999
Link 145 201 1309 0 -0.15024927
Link 146 201 1310 0 0.17058949
Link 147 201 1311 0 -0.17617158
Link 148 201 1312 0 -1.53882739
Link 149 201 1313 0 -0.39658203
Link 150 201 1314 0 -0.62692788
Link 151 201 1315 0 0.02760977
Link 152 201 1316 0 -0.21048944
Link 153 201 1317 0 0.46925063
Link 154 201 1318 0 -1.00665472
Link 155 201 1319 0 0.39637193
Link 156 201 1320 0 0.10157046
Link 157 201 1321 0 -0.63694116
Link 158 201 1322 0 0.40551059
Link 159 201 1323 0 -0.39739590
Link 160 201 1324 0 0.49387845
Link 161 201 1325 0 0.01763806
Link 162 201 1326 0 0.20888743
Link 163 201 1327 0 0.03730850
Link 164 201 1328 0 1.02945115
Link 165 201 1329 0 -0.01115011
Link 166 201 1330 0 -0.19283631
Link 167 201 1331 0 0.38702301
Link 168 201 1332 0 -0.13369212
Link 169 201 1333 0 -0.69062276
Link 170 201 1334 0 -0.20902470
Link 171 201 1335 0 -0.17077187
Link 172 201 1336 0 -0.69680339
Link 173 201 1337 0 0.54434355
Link 174 201 1338 0 0.31856494
Link 175 201 1339 0 -0.34766789
Link 176 201 1340 0 0.27946134
Link 177 201 1341 0 0.16928731
Link 178 201 1342 0 0.08018997
Link 179 201 1343 0 -0.05557813
Link 180 201 1344 0 -0.04782652
Link 181 201 1345 0 0.49622022
Link 182 201 1346 0 0.55188312
Link 183 201 1347 0 -0.07669845
Link 184 201 1348 0 0.35937623
Link 185 201 1349 0 0.21560576
Link 186 201 1350 0 0.79436965
Link 187 201 1351 0 -0.12986365
Link 188 201 1352 0 -0.78026005
Link 189 201 1353 0 -0.38047192
Link 190 201 1354 0 1.14063772
Link 191 201 1355 0 -1.56877485
Link 192 201 1356 0 0.40332194
Link 193 201 1357 0 -0.52144288
Link 194 201 1358 0 -0.66227923
Link 1 202 1359 0 -0.23015608
Link 2 202 1360 0 -0.92262340
Link 3 202 1361 0 -0.80968584
Link 4 202 1362 0 0.55538827
Link 5 202 1363 0 0.15308068
Link 6 202 1364 0 -0.06659760
Link 7 202 1365 0 -0.84025462
Link 8 202 1366 0 -0.82902419
Link 9 202 1367 0 0.01836196
Link 10 202 1368 0 -0.33895518
Link 11 202 1369 0 -1.09664537
Link 12 202 1370 0 0.13886076
Link 13 202 1371 0 -0.10030404
Link 14 202 1372 0 0.31673098
Link 15 202 1373 0 -0.16578288
Link 16 202 1374 0 0.06424259
Link 17 202 1375 0 -0.05077243
Link 18 202 1376 0 0.17025678
Link 19 202 1377 0 0.51529933
Link 20 202 1378 0 0.47042004
Link 21 202 1379 0 -0.12886440
Link 22 202 1380 0 0.25880079
Link 23 202 1381 0 -0.82949523
Link 24 202 1382 0 -0.95153169
Link 25 202 1383 0 -0.30535740
Link 26 202 1384 0 0.16055646
Link 27 202 1385 0 -0.02614823
Link 28 202 1386 0 -0.16070571
Link 29 202 1387 0 -0.34511925
Link 30 202 1388 0 0.22774018
Link 31 202 1389 0 -0.03692450
Link 32 202 1390 0 -0.16971857
Link 33 202 1391 0 0.63796754
Link 34 202 1392 0 -1.19678739
Link 35 202 1393 0 -0.36712864
Link 36 202 1394 0 -0.82189956
Link 37 202 1395 0 0.31557983
Link 38 202 1396 0 0.13391443
Link 39 202 1397 0 -0.21740830
Link 40 202 1398 0 -0.24060688
Link 41 202 1399 0 0.03683860
Link 42 202 1400 0 0.53719601
Link 43 202 1401 0 -0.66931364
Link 44 202 1402 0 -0.48714168
Link 45 202 1403 0 0.26693854
Link 46 202 1404 0 0.46278429
Link 47 202 1405 0 0.51802918
Link 48 202 1406 0 -0.09437748
Link 49 202 1407 0 -0.20355403
Link 50 202 1408 0 -0.01819317
Link 51 202 1409 0 0.31342187
Link 52 202 1410 0 -0.05793778
Link 53 202 1411 0 0.17417492
Link 54 202 1412 0 0.30434142
Link 55 202 1413 0 0.41369038
Link 56 202 1414 0 -0.11710798
Link 57 202 1415 0 0.14088690
Link 58 202 1416 0 -0.94025702
Link 59 202 1417 0 -0.83339454
Link 60 202 1418 0 -0.15249133
Link 61 202 1419 0 -0.05194774
Link 62 202 1420 0 -0.03400180
Link 63 202 1421 0 -0.66427529
Link 64 202 1422 0 0.40392172
Link 65 202 1423 0 -1.04098911
Link 66 202 1424 0 -0.99798390
Link 67 202 1425 0 0.00916606
Link 68 202 1426 0 -0.16578462
Link 69 202 1427 0 0.60350823
Link 70 202 1428 0 0.49321700
Link 71 202 1429 0 -0.37178716
Link 72 202 1430 0 -0.22128196
Link 73 202 1431 0 0.39468378
Link 74 202 1432 0 0.28857036
Link 75 202 1433 0 -0.23585524
Link 76 202 1434 0 0.31155639
Link 77 202 1435 0 0.40399466
Link 78 202 1436 0 -0.25866338
Link 79 202 1437 0 -0.19893431
Link 80 202 1438 0 -0.27435639
Link 81 202 1439 0 0.37956909
Link 82 202 1440 0 -0.23963900
Link 83 202 1441 0 0.07248044
Link 84 202 1442 0 -0.04858382
Link 85 202 1443 0 0.00959451
Link 86 202 1444 0 -0.43056231
Link 87 202 1445 0 0.23979144
Link 88 202 1446 0 0.29145152
Link 89 202 1447 0 0.42353711
Link 90 202 1448 0 -0.29827161
Link 91 202 1449 0 -0.01879842
Link 92 202 1450 0 0.01070307
Link 93 202 1451 0 0.43733537
Link 94 202 1452 0 -0.61261632
Link 95 202 1453 0 -0.01101667
Link 96 202 1454 0 0.05812456
Link 97 202 1455 0 -0.22984200
Link 98 202 1456 0 0.70582479
Link 99 202 1457 0 -0.30218741
Link 100 202 1458 0 -0.10491041
Link 101 202 1459 0 -0.13314499
Link 102 202 1460 0 0.40284719
Link 103 202 1461 0 0.23993554
Link 104 202 1462 0 -0.92383038
Link 105 202 1463 0 -0.66055169
Link 106 202 1464 0 -0.47698707
Link 107 202 1465 0 0.05188102
Link 108 202 1466 0 0.15301837
Link 109 202 1467 0 0.73979753
Link 110 202 1468 0 0.73522693
Link 111 202 1469 0 -0.34892113
Link 112 202 1470 0 -0.02963718
Link 113 202 1471 0 -1.11001866
Link 114 202 1472 0 0.32490877
Link 115 202 1473 0 0.57687449
Link 116 202 1474 0 0.13241024
Link 117 202 1475 0 -0.42155250
Link 118 202 1476 0 0.26599854
Link 119 202 1477 0 -0.52789500
Link 120 202 1478 0 0.64579954
Link 121 202 1479 0 0.28063840
Link 122 202 1480 0 -0.21022817
Link 123 202 1481 0 -0.70520228
Link 124 202 1482 0 -0.25783178
Link 125 202 1483 0 -0.22044479
Link 126 202 1484 0 -0.09367005
Link 127 202 1485 0 -0.15394046
Link 128 202 1486 0 0.05692336
Link 129 202 1487 0 0.05639235
Link 130 202 1488 0 -0.17694358
Link 131 202 1489 0 -0.18612559
Link 132 202 1490 0 -0.07277995
Link 133 202 1491 0 0.42067904
Link 134 202 1492 0 0.32616833
Link 135 202 1493 0 0.41570118
Link 136 202 1494 0 -0.89518678
Link 137 202 1495 0 -0.40950491
Link 138 202 1496 0 -1.07843013
Link 139 202 1497 0 -0.20635609
Link 140 202 1498 0 -0.52739764
Link 141 202 1499 0 -0.78485299
Link 142 202 1500 0 0.05468899
Link 143 202 1501 0 0.10711484
Link 144 202 1502 0 -0.16804262
Link 145 202 1503 0 -0.29367709
Link 146 202 1504 0 0.73916289
Link 147 202 1505 0 0.00321692
Link 148 202 1506 0 0.52109721
Link 149 202 1507 0 0.27698202
Link 150 202 1508 0 -0.01409015
Link 151 202 1509 0 -0.57857551
Link 152 202 1510 0 -0.81202776
Link 153 202 1511 0 0.12588292
Link 154 202 1512 0 0.25363824
Link 155 202 1513 0 0.21032413
Link 156 202 1514 0 -0.89994526
Link 157 202 1515 0 -0.31953151
Link 158 202 1516 0 0.00569525
Link 159 202 1517 0 -1.79989855
Link 160 202 1518 0 0.06190330
Link 161 202 1519 0 -0.95784016
Link 162 202 1520 0 -0.45428861
Link 163 202 1521 0 0.18006394
Link 164 202 1522 0 0.07795433
Link 165 202 1523 0 -0.21047870
Link 166 202 1524 0 -0.00751691
Link 167 202 1525 0 -0.74514393
Link 168 202 1526 0 0.53711472
Link 169 202 1527 0 -0.99021611
Link 170 202 1528 0 -0.03316184
Link 171 202 1529 0 -0.24673714
Link 172 202 1530 0 -0.44885110
Link 173 202 1531 0 0.40655994
Link 174 202 1532 0 -0.43925754
Link 175 202 1533 0 0.52590900
Link 176 202 1534 0 0.21523796
Link 177 202 1535 0 -0.80565186
Link 178 202 1536 0 0.40590855
Link 179 202 1537 0 0.21858845
Link 180 202 1538 0 -0.26718062
Link 181 202 1539 0 0.03718681
Link 182 202 1540 0 0.29528421
Link 183 202 1541 0 0.17867287
Link 184 202 1542 0 0.34515386
Link 185 202 1543 0 -0.80967194
Link 186 202 1544 0 0.10547939
Link 187 202 1545 0 -0.82606601
Link 188 202 1546 0 0.07268754
Link 189 202 1547 0 -1.01801193
Link 190 202 1548 0 -0.65625595
Link 191 202 1549 0 0.41970439
Link 192 202 1550 0 -0.41067587
Link 193 202 1551 0 0.27414124
Link 194 202 1552 0 -0.06994986
Link 1 203 1553 0 -1.66497986
Link 2 203 1554 0 0.34321608
Link 3 203 1555 0 -0.13302114
Link 4 203 1556 0 0.96075331
Link 5 203 1557 0 -0.59752133
Link 6 203 1558 0 -0.37155421
Link 7 203 1559 0 -0.55661870
Link 8 203 1560 0 0.42784965
Link 9 203 1561 0 -0.08261280
Link 10 203 1562 0 -0.65261934
Link 11 203 1563 0 0.47622728
Link 12 203 1564 0 -1.15507386
Link 13 203 1565 0 0.14423711
Link 14 203 1566 0 0.35592369
Link 15 203 1567 0 -0.49422897
Link 16 203 1568 0 0.12888997
Link 17 203 1569 0 0.48213899
Link 18 203 1570 0 -0.27945617
Link 19 203 1571 0 0.10063582
Link 20 203 1572 0 -0.17687286
Link 21 203 1573 0 -0.53865834
Link 22 203 1574 0 0.22495312
Link 23 203 1575 0 0.67957514
Link 24 203 1576 0 0.21625876
Link 25 203 1577 0 -0.39997933
Link 26 203 1578 0 0.96059979
Link 27 203 1579 0 -0.16753660
Link 28 203 1580 0 0.02253688
Link 29 203 1581 0 0.19447921
Link 30 203 1582 0 -0.15656675
Link 31 203 1583 0 0.48764004
Link 32 203 1584 0 -0.50986364
Link 33 203 1585 0 0.00448435
Link 34 203 1586 0 -0.08690792
Link 35 203 1587 0 -0.36333586
Link 36 203 1588 0 0.10473518
Link 37 203 1589 0 0.65095444
Link 38 203 1590 0 0.78046824
Link 39 203 1591 0 -0.24330422
Link 40 203 1592 0 -0.15726079
Link 41 203 1593 0 0.01027339
Link 42 203 1594 0 -0.65477953
Link 43 203 1595 0 -0.40624098
Link 44 203 1596 0 0.20978477
Link 45 203 1597 0 0.59794780
Link 46 203 1598 0 0.50546894
Link 47 203 1599 0 0.09202899
Link 48 203 1600 0 -0.05008509
Link 49 203 1601 0 1.58347869
Link 50 203 1602 0 -0.10352102
Link 51 203 1603 0 -0.13179705
Link 52 203 1604 0 -0.71286261
Link 53 203 1605 0 -0.14371508
Link 54 203 1606 0 -0.13785455
Link 55 203 1607 0 0.68560301
Link 56 203 1608 0 0.19560688
Link 57 203 1609 0 0.28389270
Link 58 203 1610 0 0.59551887
Link 59 203 1611 0 0.42682605
Link 60 203 1612 0 1.17043120
Link 61 203 1613 0 -0.39442358
Link 62 203 1614 0 -0.13124087
Link 63 203 1615 0 0.37708651
Link 64 203 1616 0 0.45795652
Link 65 203 1617 0 0.52507903
Link 66 203 1618 0 -0.49782219
Link 67 203 1619 0 0.34205899
Link 68 203 1620 0 0.45562044
Link 69 203 1621 0 -0.26103935
Link 70 203 1622 0 0.02605055
Link 71 203 1623 0 -0.33893143
Link 72 203 1624 0 -0.30586748
Link 73 203 1625 0 0.17084440
Link 74 203 1626 0 -0.47437971
Link 75 203 1627 0 -0.12539676
Link 76 203 1628 0 0.46580950
Link 77 203 1629 0 0.80781720
Link 78 203 1630 0 0.44737533
Link 79 203 1631 0 0.60158878
Link 80 203 1632 0 -0.14169043
Link 81 203 1633 0 0.12967259
Link 82 203 1634 0 0.11758084
Link 83 203 1635 0 -0.07782008
Link 84 203 1636 0 0.74639572
Link 85 203 1637 0 -0.42620479
Link 86 203 1638 0 0.02446920
Link 87 203 1639 0 -0.59214838
Link 88 203 1640 0 -0.03314586
Link 89 203 1641 0 -0.46314476
Link 90 203 1642 0 -0.58056439
Link 91 203 1643 0 -0.92459636
Link 92 203 1644 0 0.22004033
Link 93 203 1645 0 -0.63052026
Link 94 203 1646 0 -0.36513561
Link 95 203 1647 0 0.22022415
Link 96 203 1648 0 0.14399537
Link 97 203 1649 0 -0.16284621
Link 98 203 1650 0 0.25909773
Link 99 203 1651 0 0.98133925
Link 100 203 1652 0 -0.22567592
Link 101 203 1653 0 0.03286505
Link 102 203 1654 0 1.31921187
Link 103 203 1655 0 0.25435190
Link 104 203 1656 0 -1.38803500
Link 105 203 1657 0 -0.03456069
Link 106 203 1658 0 0.50771385
Link 107 203 1659 0 -0.36750518
Link 108 203 1660 0 0.10714479
Link 109 203 1661 0 -0.08972447
Link 110 203 1662 0 -0.29981199
Link 111 203 1663 0 -0.24465374
Link 112 203 1664 0 0.12861900
Link 113 203 1665 0 -0.26521942
Link 114 203 1666 0 -0.49784660
Link 115 203 1667 0 0.18123354
Link 116 203 1668 0 -0.36848983
Link 117 203 1669 0 -0.11124007
Link 118 203 1670 0 -0.04551692
Link 119 203 1671 0 0.32547623
Link 120 203 1672 0 0.32068133
Link 121 203 1673 0 0.55333605
Link 122 203 1674 0 0.17308371
Link 123 203 1675 0 0.78664035
Link 124 203 1676 0 -0.39180489
Link 125 203 1677 0 0.52719671
Link 126 203 1678 0 1.21688907
Link 127 203 1679 0 0.56013711
Link 128 203 1680 0 -0.00928400
Link 129 203 1681 0 0.55875223
Link 130 203 1682 0 -0.12452996
Link 131 203 1683 0 -0.56473894
Link 132 203 1684 0 0.16575145
Link 133 203 1685 0 0.27715570
Link 134 203 1686 0 0.38507636
Link 135 203 1687 0 -0.22556569
Link 136 203 1688 0 0.78505785
Link 137 203 1689 0 -0.25806015
Link 138 203 1690 0 -1.56492239
Link 139 203 1691 0 -0.00332831
Link 140 203 1692 0 1.59683630
Link 141 203 1693 0 -0.29070203
Link 142 203 1694 0 0.41374158
Link 143 203 1695 0 -0.30872087
Link 144 203 1696 0 0.16300635
Link 145 203 1697 0 -0.12800470
Link 146 203 1698 0 -0.03791233
Link 147 203 1699 0 -0.04498679
Link 148 203 1700 0 -0.47115217
Link 149 203 1701 0 0.23364549
Link 150 203 1702 0 0.10195721
Link 151 203 1703 0 -0.07828572
Link 152 203 1704 0 -0.39298189
Link 153 203 1705 0 -1.24945212
Link 154 203 1706 0 0.21301333
Link 155 203 1707 0 0.04385337
Link 156 203 1708 0 0.90566139
Link 157 203 1709 0 -0.09317079
Link 158 203 1710 0 0.91299306
Link 159 203 1711 0 -0.73406125
Link 160 203 1712 0 -0.63665749
Link 161 203 1713 0 -1.14068695
Link 162 203 1714 0 0.45927190
Link 163 203 1715 0 -0.37245839
Link 164 203 1716 0 -0.45519460
Link 165 203 1717 0 0.06705406
Link 166 203 1718 0 -0.28993225
Link 167 203 1719 0 -0.60991477
Link 168 203 1720 0 -0.23978942
Link 169 203 1721 0 -0.25573216
Link 170 203 1722 0 0.26059170
Link 171 203 1723 0 -0.06330719
Link 172 203 1724 0 0.08082490
Link 173 203 1725 0 0.52126375
Link 174 203 1726 0 -0.21124675
Link 175 203 1727 0 0.94855804
Link 176 203 1728 0 -0.66978588
Link 177 203 1729 0 -0.07271290
Link 178 203 1730 0 -0.30230573
Link 179 203 1731 0 1.15942558
Link 180 203 1732 0 0.22582299
Link 181 203 1733 0 0.31930908
Link 182 203 1734 0 -0.07567266
Link 183 203 1735 0 0.34150057
Link 184 203 1736 0 0.32683022
Link 185 203 1737 0 -0.62786199
Link 186 203 1738 0 -0.20828047
Link 187 203 1739 0 -0.16886307
Link 188 203 1740 0 0.07490373
Link 189 203 1741 0 0.25151509
Link 190 203 1742 0 0.27990817
Link 191 203 1743 0 -0.05464652
Link 192 203 1744 0 -0.64426398
Link 193 203 1745 0 -0.31345628
Link 194 203 1746 0 0.28545888
Link 1 204 1747 0 -0.07214061
Link 2 204 1748 0 -1.68284329
Link 3 204 1749 0 0.22365808
Link 4 204 1750 0 -0.69229627
Link 5 204 1751 0 0.53370822
Link 6 204 1752 0 0.26593751
Link 7 204 1753 0 0.36249150
Link 8 204 1754 0 -1.56896154
Link 9 204 1755 0 0.04065065
Link 10 204 1756 0 -0.59842995
Link 11 204 1757 0 0.03246759
Link 12 204 1758 0 -0.43266474
Link 13 204 1759 0 0.13855071
Link 14 204 1760 0 0.17532358
Link 15 204 1761 0 -1.14872927
Link 16 204 1762 0 -1.06625380
Link 17 204 1763 0 -0.70204634
Link 18 204 1764 0 -0.64763347
Link 19 204 1765 0 -0.69699405
Link 20 204 1766 0 0.65421822
Link 21 204 1767 0 0.17936599
Link 22 204 1768 0 -0.98358632
Link 23 204 1769 0 -0.34103960
Link 24 204 1770 0 -0.30544979
Link 25 204 1771 0 -0.47484548
Link 26 204 1772 0 1.33351396
Link 27 204 1773 0 0.00310816
Link 28 204 1774 0 0.25864111
Link 29 204 1775 0 -0.02997336
Link 30 204 1776 0 -0.35604518
Link 31 204 1777 0 -1.44274119
Link 32 204 1778 0 0.08009507
Link 33 204 1779 0 -0.09669076
Link 34 204 1780 0 0.09412102
Link 35 204 1781 0 0.07345278
Link 36 204 1782 0 0.22775029
Link 37 204 1783 0 -0.08791678
Link 38 204 1784 0 -0.17630953
Link 39 204 1785 0 0.27602525
Link 40 204 1786 0 -0.55759826
Link 41 204 1787 0 -0.54004663
Link 42 204 1788 0 -0.64101843
Link 43 204 1789 0 0.33474667
Link 44 204 1790 0 -0.85832257
Link 45 204 1791 0 0.45136709
Link 46 204 1792 0 -0.60220366
Link 47 204 1793 0 0.59171854
Link 48 204 1794 0 -0.39647085
Link 49 204 1795 0 0.05962966
Link 50 204 1796 0 0.15083240
Link 51 204 1797 0 0.52503744
Link 52 204 1798 0 0.11663435
Link 53 204 1799 0 0.10032251
Link 54 204 1800 0 0.06273423
Link 55 204 1801 0 0.17189108
Link 56 204 1802 0 1.47858115
Link 57 204 1803 0 1.63769763
Link 58 204 1804 0 0.14058863
Link 59 204 1805 0 -0.11452593
Link 60 204 1806 0 -0.11374831
Link 61 204 1807 0 0.13591614
Link 62 204 1808 0 -0.29463687
Link 63 204 1809 0 0.10442564
Link 64 204 1810 0 0.37443371
Link 65 204 1811 0 0.52057886
Link 66 204 1812 0 -0.05140428
Link 67 204 1813 0 -0.12126366
Link 68 204 1814 0 0.19425314
Link 69 204 1815 0 0.73825381
Link 70 204 1816 0 -1.14146515
Link 71 204 1817 0 -0.46269701
Link 72 204 1818 0 -0.79206995
Link 73 204 1819 0 -0.64246256
Link 74 204 1820 0 -0.21544460
Link 75 204 1821 0 -0.69000621
Link 76 204 1822 0 0.38489992
Link 77 204 1823 0 -0.37828046
Link 78 204 1824 0 -0.85657363
Link 79 204 1825 0 0.32964855
Link 80 204 1826 0 -0.13383732
Link 81 204 1827 0 -0.12824235
Link 82 204 1828 0 -0.18193965
Link 83 204 1829 0 -0.03116964
Link 84 204 1830 0 0.95612730
Link 85 204 1831 0 0.19570669
Link 86 204 1832 0 -0.31565259
Link 87 204 1833 0 -0.55208526
Link 88 204 1834 0 0.37497070
Link 89 204 1835 0 -0.99204273
Link 90 204 1836 0 1.21115580
Link 91 204 1837 0 0.05143686
Link 92 204 1838 0 -0.37827965
Link 93 204 1839 0 0.25833680
Link 94 204 1840 0 0.31576281
Link 95 204 1841 0 -0.49259860
Link 96 204 1842 0 0.47071121
Link 97 204 1843 0 -0.16032944
Link 98 204 1844 0 -0.06746435
Link 99 204 1845 0 -0.02466947
Link 100 204 1846 0 -0.77727471
Link 101 204 1847 0 -0.36806725
Link 102 204 1848 0 -0.50074350
Link 103 204 1849 0 0.50564314
Link 104 204 1850 0 -0.20493542
Link 105 204 1851 0 -0.01048420
Link 106 204 1852 0 -0.44906823
Link 107 204 1853 0 -0.67911832
Link 108 204 1854 0 -0.44205043
Link 109 204 1855 0 -0.27338390
Link 110 204 1856 0 -0.30745502
Link 111 204 1857 0 -0.16847626
Link 112 204 1858 0 1.03432869
Link 113 204 1859 0 0.34353485
Link 114 204 1860 0 -0.81519454
Link 115 204 1861 0 0.51072205
Link 116 204 1862 0 -0.25822363
Link 117 204 1863 0 -0.18463178
Link 118 204 1864 0 -0.35298895
Link 119 204 1865 0 0.42229503
Link 120 204 1866 0 -1.09049403
Link 121 204 1867 0 0.25754961
Link 122 204 1868 0 -0.47527111
Link 123 204 1869 0 -0.03332302
Link 124 204 1870 0 -0.56857174
Link 125 204 1871 0 -0.09881890
Link 126 204 1872 0 1.03176645
Link 127 204 1873 0 -0.54641399
Link 128 204 1874 0 0.31218688
Link 129 204 1875 0 -0.27286878
Link 130 204 1876 0 0.34240842
Link 131 204 1877 0 -0.28578736
Link 132 204 1878 0 0.08232800
Link 133 204 1879 0 0.10753991
Link 134 204 1880 0 -0.27530261
Link 135 204 1881 0 -0.90622084
Link 136 204 1882 0 0.25041672
Link 137 204 1883 0 -0.44852990
Link 138 204 1884 0 -0.01271215
Link 139 204 1885 0 -0.04781011
Link 140 204 1886 0 0.22364792
Link 141 204 1887 0 -0.55169994
Link 142 204 1888 0 0.48920112
Link 143 204 1889 0 -0.38371405
Link 144 204 1890 0 -0.15674356
Link 145 204 1891 0 1.47111163
Link 146 204 1892 0 0.20630132
Link 147 204 1893 0 -0.13133808
Link 148 204 1894 0 -0.58751599
Link 149 204 1895 0 -0.51849138
Link 150 204 1896 0 -1.01540352
Link 151 204 1897 0 -0.51071076
Link 152 204 1898 0 0.48793722
Link 153 204 1899 0 -0.50666959
Link 154 204 1900 0 -0.40788897
Link 155 204 1901 0 0.09136768
Link 156 204 1902 0 -0.07035074
Link 157 204 1903 0 0.87002319
Link 158 204 1904 0 0.05626328
Link 159 204 1905 0 0.24668895
Link 160 204 1906 0 0.49141059
Link 161 204 1907 0 -0.28826040
Link 162 204 1908 0 0.10864377
Link 163 204 1909 0 0.04633634
Link 164 204 1910 0 -0.48416038
Link 165 204 1911 0 -0.10795304
Link 166 204 1912 0 -0.26231725
Link 167 204 1913 0 0.44597217
Link 168 204 1914 0 0.72611633
Link 169 204 1915 0 -0.37505332
Link 170 204 1916 0 -0.64030680
Link 171 204 1917 0 -0.02945936
Link 172 204 1918 0 -0.06955999
Link 173 204 1919 0 -0.53330025
Link 174 204 1920 0 0.47121860
Link 175 204 1921 0 0.08833913
Link 176 204 1922 0 0.31441671
Link 177 204 1923 0 0.21108870
Link 178 204 1924 0 -0.88147538
Link 179 204 1925 0 -0.60018868
Link 180 204 1926 0 0.04040561
Link 181 204 1927 0 -0.37737505
Link 182 204 1928 0 0.81431621
Link 183 204 1929 0 -0.20412999
Link 184 204 1930 0 0.35543870
Link 185 204 1931 0 -0.70608059
Link 186 204 1932 0 0.15390210
Link 187 204 1933 0 0.34275781
Link 188 204 1934 0 -0.74741923
Link 189 204 1935 0 0.40940250
Link 190 204 1936 0 -0.17415178
Link 191 204 1937 0 -0.36904656
Link 192 204 1938 0 -0.52552232
Link 193 204 1939 0 -0.41249655
Link 194 204 1940 0 0.20149035
Link 1 205 1941 0 -0.36668741
Link 2 205 1942 0 -1.86377242
Link 3 205 1943 0 0.39936113
Link 4 205 1944 0 0.56563943
Link 5 205 1945 0 -0.47640570
Link 6 205 1946 0 -0.25279642
Link 7 205 1947 0 -0.02254181
Link 8 205 1948 0 -0.57402890
Link 9 205 1949 0 -0.18690525
Link 10 205 1950 0 -0.16805302
Link 11 205 1951 0 -0.13853431
Link 12 205 1952 0 -0.53753138
Link 13 205 1953 0 -0.22651722
Link 14 205 1954 0 0.93994120
Link 15 205 1955 0 0.36376082
Link 16 205 1956 0 0.05325750
Link 17 205 1957 0 0.13781060
Link 18 205 1958 0 -0.05197024
Link 19 205 1959 0 -0.11858855
Link 20 205 1960 0 0.36467920
Link 21 205 1961 0 -0.63115927
Link 22 205 1962 0 0.11092631
Link 23 205 1963 0 0.11523769
Link 24 205 1964 0 -0.36860118
Link 25 205 1965 0 -0.04756141
Link 26 205 1966 0 -0.00397588
Link 27 205 1967 0 -0.65744522
Link 28 205 1968 0 -0.13865372
Link 29 205 1969 0 0.24136418
Link 30 205 1970 0 0.18612028
Link 31 205 1971 0 -0.04655187
Link 32 205 1972 0 0.53789548
Link 33 205 1973 0 0.22065464
Link 34 205 1974 0 -0.58382650
Link 35 205 1975 0 0.22843468
Link 36 205 1976 0 0.94338506
Link 37 205 1977 0 0.00625199
Link 38 205 1978 0 0.26889966
Link 39 205 1979 0 0.20047824
Link 40 205 1980 0 -0.42585782
Link 41 205 1981 0 -0.12852668
Link 42 205 1982 0 -0.82881311
Link 43 205 1983 0 -0.20834842
Link 44 205 1984 0 -0.10827714
Link 45 205 1985 0 0.63914836
Link 46 205 1986 0 -0.65127058
Link 47 205 1987 0 0.04033518
Link 48 205 1988 0 -0.15049889
Link 49 205 1989 0 -0.03426594
Link 50 205 1990 0 0.39107859
Link 51 205 1991 0 0.06056776
Link 52 205 1992 0 0.25600854
Link 53 205 1993 0 -0.27354810
Link 54 205 1994 0 0.20736801
Link 55 205 1995 0 0.26578955
Link 56 205 1996 0 0.27262183
Link 57 205 1997 0 0.35459412
Link 58 205 1998 0 -0.95736140
Link 59 205 1999 0 0.10303026
Link 60 205 2000 0 -0.80710667
Link 61 205 2001 0 -0.93549575
Link 62 205 2002 0 -0.22799178
Link 63 205 2003 0 0.00770872
Link 64 205 2004 0 -0.55298576
Link 65 205 2005 0 -0.40708766
Link 66 205 2006 0 -0.25495007
Link 67 205 2007 0 0.32109468
Link 68 205 2008 0 0.38365853
Link 69 205 2009 0 -0.23412325
Link 70 205 2010 0 -0.28078794
Link 71 205 2011 0 0.14635595
Link 72 205 2012 0 -0.76221408
Link 73 205 2013 0 -0.20049048
Link 74 205 2014 0 0.30948051
Link 75 205 2015 0 -0.19993907
Link 76 205 2016 0 -0.87128703
Link 77 205 2017 0 -0.30662553
Link 78 205 2018 0 -0.93839576
Link 79 205 2019 0 -0.50810858
Link 80 205 2020 0 -0.23166231
Link 81 205 2021 0 0.25857845
Link 82 205 2022 0 -0.10431233
Link 83 205 2023 0 -0.45129074
Link 84 205 2024 0 -0.04570281
Link 85 205 2025 0 -0.40444854
Link 86 205 2026 0 -0.82066121
Link 87 205 2027 0 -0.56752019
Link 88 205 2028 0 0.24258016
Link 89 205 2029 0 1.23888357
Link 90 205 2030 0 -0.46639622
Link 91 205 2031 0 -0.03655910
Link 92 205 2032 0 -1.39804392
Link 93 205 2033 0 -0.86924698
Link 94 205 2034 0 1.91692719
Link 95 205 2035 0 -0.43409447
Link 96 205 2036 0 0.07934045
Link 97 205 2037 0 -0.18597323
Link 98 205 2038 0 0.23657148
Link 99 205 2039 0 -0.27222097
Link 100 205 2040 0 -0.29454419
Link 101 205 2041 0 -0.05388521
Link 102 205 2042 0 -2.04389496
Link 103 205 2043 0 -0.36086578
Link 104 205 2044 0 -0.66554609
Link 105 205 2045 0 0.38193178
Link 106 205 2046 0 0.24366377
Link 107 205 2047 0 0.63897204
Link 108 205 2048 0 -0.11953636
Link 109 205 2049 0 -0.06391930
Link 110 205 2050 0 -1.23761371
Link 111 205 2051 0 -0.56781895
Link 112 205 2052 0 0.47202273
Link 113 205 2053 0 -0.41415259
Link 114 205 2054 0 -0.21779326
Link 115 205 2055 0 -0.72211627
Link 116 205 2056 0 -0.14150862
Link 117 205 2057 0 0.50516563
Link 118 205 2058 0 -0.53860272
Link 119 205 2059 0 0.64709017
Link 120 205 2060 0 0.06866375
Link 121 205 2061 0 -0.56094846
Link 122 205 2062 0 -0.95943660
Link 123 205 2063 0 -0.03890156
Link 124 205 2064 0 -0.30311954
Link 125 205 2065 0 0.54699014
Link 126 205 2066 0 1.48793231
Link 127 205 2067 0 -0.18421744
Link 128 205 2068 0 -0.00477422
Link 129 205 2069 0 0.84222131
Link 130 205 2070 0 -0.19173467
Link 131 205 2071 0 0.41878213
Link 132 205 2072 0 -0.50739178
Link 133 205 2073 0 0.33498212
Link 134 205 2074 0 -0.76863975
Link 135 205 2075 0 0.29563282
Link 136 205 2076 0 -0.06572233
Link 137 205 2077 0 0.58811081
Link 138 205 2078 0 0.26745376
Link 139 205 2079 0 -0.03512602
Link 140 205 2080 0 -0.21556091
Link 141 205 2081 0 -0.05976122
Link 142 205 2082 0 -0.39753541
Link 143 205 2083 0 -0.52501272
Link 144 205 2084 0 0.19205067
Link 145 205 2085 0 0.42835517
Link 146 205 2086 0 -0.24792002
Link 147 205 2087 0 0.26663954
Link 148 205 2088 0 0.20675161
Link 149 205 2089 0 0.55700227
Link 150 205 2090 0 -1.06563412
Link 151 205 2091 0 0.37138937
Link 152 205 2092 0 0.14777699
Link 153 205 2093 0 -0.24692755
Link 154 205 2094 0 0.20385920
Link 155 205 2095 0 0.06972569
Link 156 205 2096 0 0.57820643
Link 157 205 2097 0 0.15898627
Link 158 205 2098 0 -0.43485217
Link 159 205 2099 0 0.32046083
Link 160 205 2100 0 0.74873268
Link 161 205 2101 0 0.53780317
Link 162 205 2102 0 0.21261110
Link 163 205 2103 0 1.38665619
Link 164 205 2104 0 -0.40935264
Link 165 205 2105 0 -0.53582607
Link 166 205 2106 0 -0.09729337
Link 167 205 2107 0 1.62788608
Link 168 205 2108 0 1.18257362
Link 169 205 2109 0 0.02089092
Link 170 205 2110 0 0.23487546
Link 171 205 2111 0 -0.46693514
Link 172 205 2112 0 0.37096609
Link 173 205 2113 0 -0.81532383
Link 174 205 2114 0 0.27363468
Link 175 205 2115 0 0.42516672
Link 176 205 2116 0 0.24062819
Link 177 205 2117 0 0.14197467
Link 178 205 2118 0 0.48431664
Link 179 205 2119 0 0.18321248
Link 180 205 2120 0 -0.17498568
Link 181 205 2121 0 0.35221078
Link 182 205 2122 0 0.65110540
Link 183 205 2123 0 -0.76368384
Link 184 205 2124 0 0.01208620
Link 185 205 2125 0 0.21475291
Link 186 205 2126 0 0.39454854
Link 187 205 2127 0 0.36240616
Link 188 205 2128 0 0.16492500
Link 189 205 2129 0 -0.69538950
Link 190 205 2130 0 0.60462300
Link 191 205 2131 0 -0.08319431
Link 192 205 2132 0 -0.73105913
Link 193 205 2133 0 -0.28727217
Link 194 205 2134 0 0.12718527
Link 1 206 2135 0 0.53228923
Link 2 206 2136 0 0.87755521
Link 3 206 2137 0 -0.01996430
Link 4 206 2138 0 -0.74047991
Link 5 206 2139 0 0.02482895
Link 6 206 2140 0 0.16758938
Link 7 206 2141 0 0.29228262
Link 8 206 2142 0 0.08801412
Link 9 206 2143 0 0.00245670
Link 10 206 2144 0 0.19885240
Link 11 206 2145 0 0.59258078
Link 12 206 2146 0 -0.20541043
Link 13 206 2147 0 0.31990016
Link 14 206 2148 0 0.22419844
Link 15 206 2149 0 -0.15047726
Link 16 206 2150 0 -0.44526541
Link 17 206 2151 0 -0.04361922
Link 18 206 2152 0 -0.01740402
Link 19 206 2153 0 0.09264696
Link 20 206 2154 0 -0.13653542
Link 21 206 2155 0 -0.18723917
Link 22 206 2156 0 1.85240102
Link 23 206 2157 0 0.43407691
Link 24 206 2158 0 -0.10999198
Link 25 206 2159 0 -0.90238383
Link 26 206 2160 0 -0.04668227
Link 27 206 2161 0 -0.06709207
Link 28 206 2162 0 0.77923206
Link 29 206 2163 0 0.24652024
Link 30 206 2164 0 0.14440118
Link 31 206 2165 0 1.06058868
Link 32 206 2166 0 -0.66102399
Link 33 206 2167 0 -0.22150137
Link 34 206 2168 0 0.44083809
Link 35 206 2169 0 0.59367304
Link 36 206 2170 0 -0.12205144
Link 37 206 2171 0 0.20414023
Link 38 206 2172 0 -0.17707538
Link 39 206 2173 0 0.48003167
Link 40 206 2174 0 -0.06941257
Link 41 206 2175 0 -0.44227640
Link 42 206 2176 0 -0.47671934
Link 43 206 2177 0 1.54355993
Link 44 206 2178 0 -0.23403856
Link 45 206 2179 0 -0.34087366
Link 46 206 2180 0 0.75164942
Link 47 206 2181 0 1.50391890
Link 48 206 2182 0 0.30174646
Link 49 206 2183 0 -0.36297129
Link 50 206 2184 0 0.22562656
Link 51 206 2185 0 -0.54292793
Link 52 206 2186 0 -0.78968084
Link 53 206 2187 0 2.40455590
Link 54 206 2188 0 0.69844571
Link 55 206 2189 0 0.09512318
Link 56 206 2190 0 -0.36998612
Link 57 206 2191 0 -0.30275420
Link 58 206 2192 0 0.58036608
Link 59 206 2193 0 0.03586247
Link 60 206 2194 0 -0.18240445
Link 61 206 2195 0 -0.39588802
Link 62 206 2196 0 0.37477875
Link 63 206 2197 0 0.61372492
Link 64 206 2198 0 0.21827471
Link 65 206 2199 0 0.12163645
Link 66 206 2200 0 0.26237154
Link 67 206 2201 0 0.06454876
Link 68 206 2202 0 0.50412679
Link 69 206 2203 0 -0.40203197
Link 70 206 2204 0 -0.16734839
Link 71 206 2205 0 0.71654540
Link 72 206 2206 0 -0.48127609
Link 73 206 2207 0 0.19117067
Link 74 206 2208 0 1.13360177
Link 75 206 2209 0 0.48046986
Link 76 206 2210 0 0.19986782
Link 77 206 2211 0 -0.41991263
Link 78 206 2212 0 -0.10577495
Link 79 206 2213 0 0.52461344
Link 80 206 2214 0 -0.23032946
Link 81 206 2215 0 -0.00590800
Link 82 206 2216 0 -0.38742059
Link 83 206 2217 0 2.25645160
Link 84 206 2218 0 0.57873555
Link 85 206 2219 0 0.07914608
Link 86 206 2220 0 -0.20306250
Link 87 206 2221 0 1.09431545
Link 88 206 2222 0 -0.34826829
Link 89 206 2223 0 -0.30595131
Link 90 206 2224 0 -0.04085308
Link 91 206 2225 0 0.52219509
Link 92 206 2226 0 0.20477829
Link 93 206 2227 0 0.27539777
Link 94 206 2228 0 -0.08652635
Link 95 206 2229 0 -0.62113298
Link 96 206 2230 0 0.57859564
Link 97 206 2231 0 -0.09176036
Link 98 206 2232 0 0.22661322
Link 99 206 2233 0 -0.12916399
Link 100 206 2234 0 -0.42445483
Link 101 206 2235 0 0.48678301
Link 102 206 2236 0 0.03533016
Link 103 206 2237 0 0.69363041
Link 104 206 2238 0 0.22563905
Link 105 206 2239 0 -0.17005654
Link 106 206 2240 0 0.05189801
Link 107 206 2241 0 0.27437174
Link 108 206 2242 0 -0.51868416
Link 109 206 2243 0 0.21819428
Link 110 206 2244 0 -0.58798252
Link 111 206 2245 0 -0.19558106
Link 112 206 2246 0 0.19738693
Link 113 206 2247 0 0.72857151
Link 114 206 2248 0 -0.23286553
Link 115 206 2249 0 -0.48159114
Link 116 206 2250 0 -0.41343664
Link 117 206 2251 0 1.17444913
Link 118 206 2252 0 0.10287020
Link 119 206 2253 0 -0.04130048
Link 120 206 2254 0 0.88742044
Link 121 206 2255 0 -0.39884361
Link 122 206 2256 0 -0.31964867
Link 123 206 2257 0 0.99073356
Link 124 206 2258 0 0.16217378
Link 125 206 2259 0 -0.04769648
Link 126 206 2260 0 -0.13492889
Link 127 206 2261 0 -0.05006808
Link 128 206 2262 0 0.63943023
Link 129 206 2263 0 -0.84748499
Link 130 206 2264 0 0.33452432
Link 131 206 2265 0 0.39729253
Link 132 206 2266 0 0.27698585
Link 133 206 2267 0 0.21222735
Link 134 206 2268 0 0.39981386
Link 135 206 2269 0 1.39492573
Link 136 206 2270 0 -0.15260915
Link 137 206 2271 0 0.18170901
Link 138 206 2272 0 -0.74897351
Link 139 206 2273 0 0.18817245
Link 140 206 2274 0 0.32139596
Link 141 206 2275 0 0.29728691
Link 142 206 2276 0 1.17813721
Link 143 206 2277 0 -0.71774400
Link 144 206 2278 0 0.15531508
Link 145 206 2279 0 0.18614888
Link 146 206 2280 0 -0.41949593
Link 147 206 2281 0 0.21765683
Link 148 206 2282 0 1.12861608
Link 149 206 2283 0 -1.19954552
Link 150 206 2284 0 0.25061586
Link 151 206 2285 0 -0.78306610
Link 152 206 2286 0 -0.52334998
Link 153 206 2287 0 -0.08260798
Link 154 206 2288 0 -0.07083512
Link 155 206 2289 0 -0.40455575
Link 156 206 2290 0 -0.11316249
Link 157 206 2291 0 -0.70772256
Link 158 206 2292 0 -0.75514888
Link 159 206 2293 0 0.46635559
Link 160 206 2294 0 0.60233867
Link 161 206 2295 0 -0.51728687
Link 162 206 2296 0 -0.42041411
Link 163 206 2297 0 0.36301479
Link 164 206 2298 0 -0.26664889
Link 165 206 2299 0 -0.18848651
Link 166 206 2300 0 -0.16829967
Link 167 206 2301 0 -0.15518985
Link 168 206 2302 0 -0.06174749
Link 169 206 2303 0 1.13215147
Link 170 206 2304 0 0.34354973
Link 171 206 2305 0 0.18110110
Link 172 206 2306 0 0.38740020
Link 173 206 2307 0 -0.47735389
Link 174 206 2308 0 1.17935225
Link 175 206 2309 0 0.35701012
Link 176 206 2310 0 0.27121034
Link 177 206 2311 0 0.30428952
Link 178 206 2312 0 -0.13115908
Link 179 206 2313 0 -0.40743672
Link 180 206 2314 0 -0.41313791
Link 181 206 2315 0 0.05059405
Link 182 206 2316 0 0.41596683
Link 183 206 2317 0 -0.80134530
Link 184 206 2318 0 -0.18938532
Link 185 206 2319 0 -0.05252881
Link 186 206 2320 0 -0.23451945
Link 187 206 2321 0 -0.37533372
Link 188 206 2322 0 -0.28594748
Link 189 206 2323 0 0.77405798
Link 190 206 2324 0 -0.43490693
Link 191 206 2325 0 -0.16196936
Link 192 206 2326 0 0.62102241
Link 193 206 2327 0 1.57077779
Link 194 206 2328 0 -0.83063153
Link 1 207 2329 0 0.12398998
Link 2 207 2330 0 -0.21106961
Link 3 207 2331 0 0.34340957
Link 4 207 2332 0 0.20951607
Link 5 207 2333 0 0.06403990
Link 6 207 2334 0 0.04984125
Link 7 207 2335 0 -0.05048206
Link 8 207 2336 0 -0.14728032
Link 9 207 2337 0 -0.41568571
Link 10 207 2338 0 -0.15816156
Link 11 207 2339 0 -0.09492427
Link 12 207 2340 0 0.18114686
Link 13 207 2341 0 0.34336314
Link 14 207 2342 0 0.17080972
Link 15 207 2343 0 0.02675439
Link 16 207 2344 0 -0.13667568
Link 17 207 2345 0 -0.18944979
Link 18 207 2346 0 -0.02912266
Link 19 207 2347 0 0.02748250
Link 20 207 2348 0 -0.22541925
Link 21 207 2349 0 -0.10168735
Link 22 207 2350 0 -0.18851898
Link 23 207 2351 0 -0.46137040
Link 24 207 2352 0 -0.10751247
Link 25 207 2353 0 0.23783362
Link 26 207 2354 0 0.30510268
Link 27 207 2355 0 -0.07747066
Link 28 207 2356 0 -0.22079678
Link 29 207 2357 0 -0.09432314
Link 30 207 2358 0 0.07493164
Link 31 207 2359 0 -0.52646819
Link 32 207 2360 0 -0.08878016
Link 33 207 2361 0 -0.45965332
Link 34 207 2362 0 -0.49944609
Link 35 207 2363 0 -0.09797402
Link 36 207 2364 0 -0.09019730
Link 37 207 2365 0 0.09214712
Link 38 207 2366 0 -0.32394848
Link 39 207 2367 0 0.42938864
Link 40 207 2368 0 0.01338026
Link 41 207 2369 0 0.05700529
Link 42 207 2370 0 -0.43841108
Link 43 207 2371 0 0.16028398
Link 44 207 2372 0 0.24549415
Link 45 207 2373 0 0.11530431
Link 46 207 2374 0 -0.19522324
Link 47 207 2375 0 0.05653445
Link 48 207 2376 0 -0.05851942
Link 49 207 2377 0 0.19292008
Link 50 207 2378 0 0.16510236
Link 51 207 2379 0 -0.12113138
Link 52 207 2380 0 -0.20640679
Link 53 207 2381 0 0.29615709
Link 54 207 2382 0 0.04993503
Link 55 207 2383 0 -0.31223952
Link 56 207 2384 0 0.50376211
Link 57 207 2385 0 -0.17383695
Link 58 207 2386 0 0.09854692
Link 59 207 2387 0 0.22992918
Link 60 207 2388 0 0.14068029
Link 61 207 2389 0 -0.34326878
Link 62 207 2390 0 -0.12722413
Link 63 207 2391 0 0.35626053
Link 64 207 2392 0 -0.14599576
Link 65 207 2393 0 0.00169876
Link 66 207 2394 0 -0.16466099
Link 67 207 2395 0 0.41451185
Link 68 207 2396 0 0.27823573
Link 69 207 2397 0 0.04386667
Link 70 207 2398 0 0.02294801
Link 71 207 2399 0 0.29387202
Link 72 207 2400 0 -0.22385550
Link 73 207 2401 0 -0.03698883
Link 74 207 2402 0 -0.47027377
Link 75 207 2403 0 -0.42703920
Link 76 207 2404 0 0.04632026
Link 77 207 2405 0 -0.20334417
Link 78 207 2406 0 0.07448352
Link 79 207 2407 0 -0.10818286
Link 80 207 2408 0 -0.24640391
Link 81 207 2409 0 -0.05775333
Link 82 207 2410 0 -0.21849880
Link 83 207 2411 0 -0.01359051
Link 84 207 2412 0 -0.47051699
Link 85 207 2413 0 0.27613486
Link 86 207 2414 0 0.38260564
Link 87 207 2415 0 0.41073825
Link 88 207 2416 0 -0.36012052
Link 89 207 2417 0 -0.12833210
Link 90 207 2418 0 0.12452407
Link 91 207 2419 0 -0.09652063
Link 92 207 2420 0 0.06078896
Link 93 207 2421 0 0.30796982
Link 94 207 2422 0 0.47679132
Link 95 207 2423 0 -0.43250362
Link 96 207 2424 0 0.32291935
Link 97 207 2425 0 0.36724684
Link 98 207 2426 0 -0.16026409
Link 99 207 2427 0 0.05361488
Link 100 207 2428 0 -0.13792062
Link 101 207 2429 0 0.48980523
Link 102 207 2430 0 0.21650035
Link 103 207 2431 0 0.42146555
Link 104 207 2432 0 0.08716558
Link 105 207 2433 0 -0.16446687
Link 106 207 2434 0 -0.14696710
Link 107 207 2435 0 0.05925074
Link 108 207 2436 0 0.14926030
Link 109 207 2437 0 -0.19207785
Link 110 207 2438 0 -0.09464623
Link 111 207 2439 0 0.11249947
Link 112 207 2440 0 -0.03347337
Link 113 207 2441 0 0.10006783
Link 114 207 2442 0 0.01678120
Link 115 207 2443 0 -0.26750044
Link 116 207 2444 0 0.41057981
Link 117 207 2445 0 0.08589791
Link 118 207 2446 0 -0.38535838
Link 119 207 2447 0 0.25128738
Link 120 207 2448 0 0.02048058
Link 121 207 2449 0 0.11497716
Link 122 207 2450 0 0.36181965
Link 123 207 2451 0 -0.00128429
Link 124 207 2452 0 -0.17125442
Link 125 207 2453 0 -0.27955167
Link 126 207 2454 0 0.06513248
Link 127 207 2455 0 0.10291996
Link 128 207 2456 0 0.39537622
Link 129 207 2457 0 -0.06227400
Link 130 207 2458 0 -0.07394948
Link 131 207 2459 0 -0.33507563
Link 132 207 2460 0 0.10790413
Link 133 207 2461 0 0.32474863
Link 134 207 2462 0 -0.11266157
Link 135 207 2463 0 -0.06921332
Link 136 207 2464 0 -0.12695101
Link 137 207 2465 0 0.12834805
Link 138 207 2466 0 -0.45881002
Link 139 207 2467 0 0.00395079
Link 140 207 2468 0 -0.02438374
Link 141 207 2469 0 -0.04340283
Link 142 207 2470 0 -0.27934100
Link 143 207 2471 0 0.48504202
Link 144 207 2472 0 0.10839870
Link 145 207 2473 0 -0.03720789
Link 146 207 2474 0 -0.35798766
Link 147 207 2475 0 0.17192916
Link 148 207 2476 0 -0.07767414
Link 149 207 2477 0 -0.01557240
Link 150 207 2478 0 -0.33705153
Link 151 207 2479 0 -0.36579251
Link 152 207 2480 0 0.27025063
Link 153 207 2481 0 -0.17091924
Link 154 207 2482 0 -0.06778004
Link 155 207 2483 0 -0.32646730
Link 156 207 2484 0 0.16422815
Link 157 207 2485 0 -0.41677512
Link 158 207 2486 0 0.05795173
Link 159 207 2487 0 -0.06876644
Link 160 207 2488 0 -0.02037026
Link 161 207 2489 0 0.34637724
Link 162 207 2490 0 0.00806838
Link 163 207 2491 0 0.05659411
Link 164 207 2492 0 -0.04742467
Link 165 207 2493 0 -0.17017177
Link 166 207 2494 0 0.44811623
Link 167 207 2495 0 0.06649470
Link 168 207 2496 0 -0.18580544
Link 169 207 2497 0 -0.03093550
Link 170 207 2498 0 -0.25204749
Link 171 207 2499 0 -0.33149825
Link 172 207 2500 0 0.02111067
Link 173 207 2501 0 0.07710053
Link 174 207 2502 0 -0.59900778
Link 175 207 2503 0 0.03682141
Link 176 207 2504 0 0.22013193
Link 177 207 2505 0 0.18684285
Link 178 207 2506 0 0.18133222
Link 179 207 2507 0 0.23024343
Link 180 207 2508 0 -0.16732654
Link 181 207 2509 0 0.10356780
Link 182 207 2510 0 0.29326320
Link 183 207 2511 0 0.50744585
Link 184 207 2512 0 0.18698176
Link 185 207 2513 0 0.44604111
Link 186 207 2514 0 0.25166274
Link 187 207 2515 0 0.36352299
Link 188 207 2516 0 -0.14965535
Link 189 207 2517 0 0.09672177
Link 190 207 2518 0 -0.17643722
Link 191 207 2519 0 -0.21013666
Link 192 207 2520 0 -0.27168309
Link 193 207 2521 0 -0.10172089
Link 194 207 2522 0 -0.25179806
Link 1 208 2523 0 0.37679825
Link 2 208 2524 0 0.11043524
Link 3 208 2525 0 0.33181261
Link 4 208 2526 0 0.09424277
Link 5 208 2527 0 0.49683724
Link 6 208 2528 0 -0.12800896
Link 7 208 2529 0 -0.03940473
Link 8 208 2530 0 0.14142301
Link 9 208 2531 0 -0.24849275
Link 10 208 2532 0 0.42575021
Link 11 208 2533 0 -0.27859399
Link 12 208 2534 0 0.17883503
Link 13 208 2535 0 0.56894510
Link 14 208 2536 0 0.35287310
Link 15 208 2537 0 0.09613694
Link 16 208 2538 0 -0.19865949
Link 17 208 2539 0 -0.18868947
Link 18 208 2540 0 0.18069347
Link 19 208 2541 0 -0.05442485
Link 20 208 2542 0 -0.13208297
Link 21 208 2543 0 0.44928482
Link 22 208 2544 0 -0.30660618
Link 23 208 2545 0 -0.34570094
Link 24 208 2546 0 -0.33355361
Link 25 208 2547 0 0.05181715
Link 26 208 2548 0 0.02714812
Link 27 208 2549 0 -0.02846410
Link 28 208 2550 0 -0.01016522
Link 29 208 2551 0 0.07959231
Link 30 208 2552 0 -0.34142735
Link 31 208 2553 0 0.17448363
Link 32 208 2554 0 0.15854363
Link 33 208 2555 0 0.41475047
Link 34 208 2556 0 0.12397187
Link 35 208 2557 0 0.29330017
Link 36 208 2558 0 -0.06932776
Link 37 208 2559 0 0.09224947
Link 38 208 2560 0 -0.14985482
Link 39 208 2561 0 -0.41787386
Link 40 208 2562 0 -0.29810909
Link 41 208 2563 0 0.05940263
Link 42 208 2564 0 -0.00862556
Link 43 208 2565 0 -0.05076696
Link 44 208 2566 0 0.00007062
Link 45 208 2567 0 0.26967318
Link 46 208 2568 0 0.09872612
Link 47 208 2569 0 -0.08071999
Link 48 208 2570 0 0.26989403
Link 49 208 2571 0 0.30247364
Link 50 208 2572 0 0.24861797
Link 51 208 2573 0 0.12606333
Link 52 208 2574 0 -0.20165304
Link 53 208 2575 0 0.06462301
Link 54 208 2576 0 0.00213760
Link 55 208 2577 0 -0.54199574
Link 56 208 2578 0 -0.29096428
Link 57 208 2579 0 0.11251235
Link 58 208 2580 0 -0.15605742
Link 59 208 2581 0 -0.09287765
Link 60 208 2582 0 -0.22386718
Link 61 208 2583 0 -0.18763664
Link 62 208 2584 0 -0.37546911
Link 63 208 2585 0 -0.10018696
Link 64 208 2586 0 -0.14541887
Link 65 208 2587 0 -0.12963393
Link 66 208 2588 0 0.06342960
Link 67 208 2589 0 -0.07194727
Link 68 208 2590 0 0.09574518
Link 69 208 2591 0 0.38902022
Link 70 208 2592 0 -0.08071908
Link 71 208 2593 0 -0.10952008
Link 72 208 2594 0 -0.34640955
Link 73 208 2595 0 0.01916545
Link 74 208 2596 0 0.06527593
Link 75 208 2597 0 0.22594019
Link 76 208 2598 0 0.30998210
Link 77 208 2599 0 -0.41521861
Link 78 208 2600 0 -0.13597056
Link 79 208 2601 0 0.43256128
Link 80 208 2602 0 0.16164328
Link 81 208 2603 0 -0.25647758
Link 82 208 2604 0 0.03070061
Link 83 208 2605 0 0.55509939
Link 84 208 2606 0 -0.13069565
Link 85 208 2607 0 0.29108995
Link 86 208 2608 0 0.18653717
Link 87 208 2609 0 0.03186076
Link 88 208 2610 0 0.07947847
Link 89 208 2611 0 0.22575936
Link 90 208 2612 0 0.11451690
Link 91 208 2613 0 0.38008435
Link 92 208 2614 0 0.26503503
Link 93 208 2615 0 -0.15717539
Link 94 208 2616 0 0.07421441
Link 95 208 2617 0 0.01082025
Link 96 208 2618 0 -0.00945464
Link 97 208 2619 0 0.34591835
Link 98 208 2620 0 -0.41525830
Link 99 208 2621 0 0.02745191
Link 100 208 2622 0 -0.12739536
Link 101 208 2623 0 0.78299930
Link 102 208 2624 0 0.04622390
Link 103 208 2625 0 -0.01956935
Link 104 208 2626 0 0.33363188
Link 105 208 2627 0 0.21460137
Link 106 208 2628 0 -0.39709255
Link 107 208 2629 0 -0.12430198
Link 108 208 2630 0 -0.15664008
Link 109 208 2631 0 0.16360729
Link 110 208 2632 0 0.02677346
Link 111 208 2633 0 0.55835887
Link 112 208 2634 0 -0.20820412
Link 113 208 2635 0 -0.25622832
Link 114 208 2636 0 0.43464620
Link 115 208 2637 0 0.10909886
Link 116 208 2638 0 0.39846594
Link 117 208 2639 0 -0.08023928
Link 118 208 2640 0 -0.10176517
Link 119 208 2641 0 -0.26182116
Link 120 208 2642 0 0.11626244
Link 121 208 2643 0 0.05670296
Link 122 208 2644 0 -0.06301541
Link 123 208 2645 0 -0.35727889
Link 124 208 2646 0 -0.28036893
Link 125 208 2647 0 0.68281262
Link 126 208 2648 0 -0.04784751
Link 127 208 2649 0 0.22327066
Link 128 208 2650 0 -0.08985122
Link 129 208 2651 0 -0.34861342
Link 130 208 2652 0 -0.01382347
Link 131 208 2653 0 -0.03191988
Link 132 208 2654 0 0.14424647
Link 133 208 2655 0 0.08772035
Link 134 208 2656 0 -0.24620697
Link 135 208 2657 0 0.17530333
Link 136 208 2658 0 0.04813631
Link 137 208 2659 0 0.32862611
Link 138 208 2660 0 0.01279406
Link 139 208 2661 0 -0.46954787
Link 140 208 2662 0 0.65443414
Link 141 208 2663 0 -0.11434992
Link 142 208 2664 0 0.03017398
Link 143 208 2665 0 0.03251268
Link 144 208 2666 0 0.12200985
Link 145 208 2667 0 0.64236383
Link 146 208 2668 0 -0.06294552
Link 147 208 2669 0 0.28311632
Link 148 208 2670 0 -0.06844464
Link 149 208 2671 0 -0.12702598
Link 150 208 2672 0 0.59008642
Link 151 208 2673 0 -0.30168963
Link 152 208 2674 0 -0.06143089
Link 153 208 2675 0 -0.04864625
Link 154 208 2676 0 -0.06876593
Link 155 208 2677 0 -0.26189123
Link 156 208 2678 0 -0.29079598
Link 157 208 2679 0 0.43155781
Link 158 208 2680 0 -0.24187611
Link 159 208 2681 0 -0.02542011
Link 160 208 2682 0 0.11102219
Link 161 208 2683 0 0.00958637
Link 162 208 2684 0 -0.12106184
Link 163 208 2685 0 0.49575270
Link 164 208 2686 0 -0.14825799
Link 165 208 2687 0 0.15809181
Link 166 208 2688 0 -0.16182556
Link 167 208 2689 0 -0.03878606
Link 168 208 2690 0 0.02832747
Link 169 208 2691 0 0.15413526
Link 170 208 2692 0 0.00646746
Link 171 208 2693 0 0.19471783
Link 172 208 2694 0 0.41032233
Link 173 208 2695 0 -0.29305069
Link 174 208 2696 0 0.00480272
Link 175 208 2697 0 -0.17636466
Link 176 208 2698 0 -0.04811091
Link 177 208 2699 0 -0.31634318
Link 178 208 2700 0 0.13951462
Link 179 208 2701 0 -0.12826587
Link 180 208 2702 0 -0.18237416
Link 181 208 2703 0 0.15421449
Link 182 208 2704 0 0.49449605
Link 183 208 2705 0 -0.22882265
Link 184 208 2706 0 0.79865781
Link 185 208 2707 0 -0.03352715
Link 186 208 2708 0 -0.05813839
Link 187 208 2709 0 -0.42659288
Link 188 208 2710 0 -0.38548389
Link 189 208 2711 0 0.32227225
Link 190 208 2712 0 0.64436425
Link 191 208 2713 0 -0.21733289
Link 192 208 2714 0 0.35944216
Link 193 208 2715 0 0.08381294
Link 194 208 2716 0 -0.05022646
Link 1 209 2717 0 -0.20720495
Link 2 209 2718 0 0.14459180
Link 3 209 2719 0 0.16925510
Link 4 209 2720 0 0.34204452
Link 5 209 2721 0 -0.03613080
Link 6 209 2722 0 -0.44465198
Link 7 209 2723 0 -0.20824862
Link 8 209 2724 0 -0.09358617
Link 9 209 2725 0 -0.20005742
Link 10 209 2726 0 -0.79849038
Link 11 209 2727 0 0.27381427
Link 12 209 2728 0 -0.60639706
Link 13 209 2729 0 -0.02579912
Link 14 209 2730 0 -0.04850302
Link 15 209 2731 0 -0.34724666
Link 16 209 2732 0 -0.30556248
Link 17 209 2733 0 -0.09638099
Link 18 209 2734 0 0.36369227
Link 19 209 2735 0 -0.28211888
Link 20 209 2736 0 -0.12529159
Link 21 209 2737 0 -0.34245867
Link 22 209 2738 0 0.54595985
Link 23 209 2739 0 0.25060857
Link 24 209 2740 0 -0.07849815
Link 25 209 2741 0 -0.40996127
Link 26 209 2742 0 -0.00857330
Link 27 209 2743 0 0.17033132
Link 28 209 2744 0 0.29272675
Link 29 209 2745 0 -0.12611288
Link 30 209 2746 0 -0.11977721
Link 31 209 2747 0 -0.24318838
Link 32 209 2748 0 0.31770850
Link 33 209 2749 0 0.24861770
Link 34 209 2750 0 0.48793383
Link 35 209 2751 0 -0.12542745
Link 36 209 2752 0 -0.38148519
Link 37 209 2753 0 -0.07621665
Link 38 209 2754 0 -0.38188370
Link 39 209 2755 0 -0.19502775
Link 40 209 2756 0 -0.12942784
Link 41 209 2757 0 -0.29441962
Link 42 209 2758 0 -0.28144751
Link 43 209 2759 0 0.36030884
Link 44 209 2760 0 0.06653506
Link 45 209 2761 0 -0.31250889
Link 46 209 2762 0 -0.15870993
Link 47 209 2763 0 0.29372030
Link 48 209 2764 0 0.19023450
Link 49 209 2765 0 -0.17129406
Link 50 209 2766 0 0.22922257
Link 51 209 2767 0 0.04175275
Link 52 209 2768 0 0.16081484
Link 53 209 2769 0 0.15360430
Link 54 209 2770 0 -0.18684075
Link 55 209 2771 0 0.16788575
Link 56 209 2772 0 -0.18060456
Link 57 209 2773 0 0.08468890
Link 58 209 2774 0 -0.12843458
Link 59 209 2775 0 0.41323052
Link 60 209 2776 0 0.10199891
Link 61 209 2777 0 0.07029350
Link 62 209 2778 0 0.17535052
Link 63 209 2779 0 -0.63242697
Link 64 209 2780 0 -0.15112257
Link 65 209 2781 0 -0.10443359
Link 66 209 2782 0 0.33774362
Link 67 209 2783 0 -0.07328957
Link 68 209 2784 0 0.46099894
Link 69 209 2785 0 0.06399477
Link 70 209 2786 0 -0.02556534
Link 71 209 2787 0 0.08404608
Link 72 209 2788 0 -0.65943098
Link 73 209 2789 0 0.40360673
Link 74 209 2790 0 -0.37653924
Link 75 209 2791 0 0.27666920
Link 76 209 2792 0 -0.24816275
Link 77 209 2793 0 -0.24197580
Link 78 209 2794 0 0.35536431
Link 79 209 2795 0 0.48911789
Link 80 209 2796 0 0.32825070
Link 81 209 2797 0 -0.12697117
Link 82 209 2798 0 -0.05004871
