GenomeStart 3017
Neuron 1 1 0.00000000 1 0.00000000 0.00000000 0.00000000 0.00000000
Neuron 2 1 0.00000000 1 0.00000000 0.00000000 0.00000000 0.00000000
Neuron 3 1 0.00000000 1 0.00000000 0.00000000 0.00000000 0.00000000
Neuron 4 1 0.00000000 1 0.00000000 0.00000000 0.00000000 0.00000000
Neuron 5 1 0.00000000 1 0.00000000 0.00000000 0.00000000 0.00000000
Neuron 6 1 0.00000000 1 0.00000000 0.00000000 0.00000000 0.00000000
Neuron 7 1 0.00000000 1 0.00000000 0.00000000 0.00000000 0.00000000
Neuron 8 1 0.00000000 1 0.00000000 0.00000000 0.00000000 0.00000000
Neuron 9 1 0.00000000 1 0.00000000 0.00000000 0.00000000 0.00000000
Neuron 10 1 0.00000000 1 0.00000000 0.00000000 0.00000000 0.00000000
Neuron 11 1 0.00000000 1 0.00000000 0.00000000 0.00000000 0.00000000
Neuron 12 1 0.00000000 1 0.00000000 0.00000000 0.00000000 0.00000000
Neuron 13 1 0.00000000 1 0.00000000 0.00000000 0.00000000 0.00000000
Neuron 14 1 0.00000000 1 0.00000000 0.00000000 0.00000000 0.00000000
Neuron 15 1 0.00000000 1 0.00000000 0.00000000 0.00000000 0.00000000
Neuron 16 1 0.00000000 1 0.00000000 0.00000000 0.00000000 0.00000000
Neuron 17 1 0.00000000 1 0.00000000 0.00000000 0.00000000 0.00000000
Neuron 18 1 0.00000000 1 0.00000000 0.00000000 0.00000000 0.00000000
Neuron 19 1 0.00000000 1 0.00000000 0.00000000 0.00000000 0.00000000
Neuron 20 1 0.00000000 1 0.00000000 0.00000000 0.00000000 0.00000000
Neuron 21 1 0.00000000 1 0.00000000 0.00000000 0.00000000 0.00000000
Neuron 22 1 0.00000000 1 0.00000000 0.00000000 0.00000000 0.00000000
Neuron 23 1 0.00000000 1 0.00000000 0.00000000 0.00000000 0.00000000
Neuron 24 1 0.00000000 1 0.00000000 0.00000000 0.00000000 0.00000000
Neuron 25 1 0.00000000 1 0.00000000 0.00000000 0.00000000 0.00000000
Neuron 26 1 0.00000000 1 0.00000000 0.00000000 0.00000000 0.00000000
Neuron 27 1 0.00000000 1 0.00000000 0.00000000 0.00000000 0.00000000
Neuron 28 1 0.00000000 1 0.00000000 0.00000000 0.00000000 0.00000000
Neuron 29 1 0.00000000 1 0.00000000 0.00000000 0.00000000 0.00000000
Neuron 30 1 0.00000000 1 0.00000000 0.00000000 0.00000000 0.00000000
Neuron 31 1 0.00000000 1 0.00000000 0.00000000 0.00000000 0.00000000
Neuron 32 1 0.00000000 1 0.00000000 0.00000000 0.00000000 0.00000000
Neuron 33 1 0.00000000 1 0.00000000 0.00000000 0.00000000 0.00000000
Neuron 34 1 0.00000000 1 0.00000000 0.00000000 0.00000000 0.00000000
Neuron 35 1 0.00000000 1 0.00000000 0.00000000 0.00000000 0.00000000
Neuron 36 1 0.00000000 1 0.00000000 0.00000000 0.00000000 0.00000000
Neuron 37 1 0.00000000 1 0.00000000 0.00000000 0.00000000 0.00000000
Neuron 38 1 0.00000000 1 0.00000000 0.00000000 0.00000000 0.00000000
Neuron 39 1 0.00000000 1 0.00000000 0.00000000 0.00000000 0.00000000
Neuron 40 1 0.00000000 1 0.00000000 0.00000000 0.00000000 0.00000000
Neuron 41 1 0.00000000 1 0.00000000 0.00000000 0.00000000 0.00000000
Neuron 42 1 0.00000000 1 0.00000000 0.00000000 0.00000000 0.00000000
Neuron 43 1 0.00000000 1 0.00000000 0.00000000 0.00000000 0.00000000
Neuron 44 1 0.00000000 1 0.00000000 0.00000000 0.00000000 0.00000000
Neuron 45 1 0.00000000 1 0.00000000 0.00000000 0.00000000 0.00000000
Neuron 46 1 0.00000000 1 0.00000000 0.00000000 0.00000000 0.00000000
Neuron 47 1 0.00000000 1 0.00000000 0.00000000 0.00000000 0.00000000
Neuron 48 1 0.00000000 1 0.00000000 0.00000000 0.00000000 0.00000000
Neuron 49 1 0.00000000 1 0.00000000 0.00000000 0.00000000 0.00000000
Neuron 50 1 0.00000000 1 0.00000000 0.00000000 0.00000000 0.00000000
Neuron 51 1 0.00000000 1 0.00000000 0.00000000 0.00000000 0.00000000
Neuron 52 1 0.00000000 1 0.00000000 0.00000000 0.00000000 0.00000000
Neuron 53 1 0.00000000 1 0.00000000 0.00000000 0.00000000 0.00000000
Neuron 54 1 0.00000000 1 0.00000000 0.00000000 0.00000000 0.00000000
Neuron 55 1 0.00000000 1 0.00000000 0.00000000 0.00000000 0.00000000
Neuron 56 1 0.00000000 1 0.00000000 0.00000000 0.00000000 0.00000000
Neuron 57 1 0.00000000 1 0.00000000 0.00000000 0.00000000 0.00000000
Neuron 58 1 0.00000000 1 0.00000000 0.00000000 0.00000000 0.00000000
Neuron 59 1 0.00000000 1 0.00000000 0.00000000 0.00000000 0.00000000
Neuron 60 1 0.00000000 1 0.00000000 0.00000000 0.00000000 0.00000000
Neuron 61 1 0.00000000 1 0.00000000 0.00000000 0.00000000 0.00000000
Neuron 62 1 0.00000000 1 0.00000000 0.00000000 0.00000000 0.00000000
Neuron 63 1 0.00000000 1 0.00000000 0.00000000 0.00000000 0.00000000
Neuron 64 1 0.00000000 1 0.00000000 0.00000000 0.00000000 0.00000000
Neuron 65 1 0.00000000 1 0.00000000 0.00000000 0.00000000 0.00000000
Neuron 66 1 0.00000000 1 0.00000000 0.00000000 0.00000000 0.00000000
Neuron 67 1 0.00000000 1 0.00000000 0.00000000 0.00000000 0.00000000
Neuron 68 1 0.00000000 1 0.00000000 0.00000000 0.00000000 0.00000000
Neuron 69 1 0.00000000 1 0.00000000 0.00000000 0.00000000 0.00000000
Neuron 70 1 0.00000000 1 0.00000000 0.00000000 0.00000000 0.00000000
Neuron 71 1 0.00000000 1 0.00000000 0.00000000 0.00000000 0.00000000
Neuron 72 1 0.00000000 1 0.00000000 0.00000000 0.00000000 0.00000000
Neuron 73 1 0.00000000 1 0.00000000 0.00000000 0.00000000 0.00000000
Neuron 74 1 0.00000000 1 0.00000000 0.00000000 0.00000000 0.00000000
Neuron 75 1 0.00000000 1 0.00000000 0.00000000 0.00000000 0.00000000
Neuron 76 1 0.00000000 1 0.00000000 0.00000000 0.00000000 0.00000000
Neuron 77 1 0.00000000 1 0.00000000 0.00000000 0.00000000 0.00000000
Neuron 78 1 0.00000000 1 0.00000000 0.00000000 0.00000000 0.00000000
Neuron 79 1 0.00000000 1 0.00000000 0.00000000 0.00000000 0.00000000
Neuron 80 1 0.00000000 1 0.00000000 0.00000000 0.00000000 0.00000000
Neuron 81 1 0.00000000 1 0.00000000 0.00000000 0.00000000 0.00000000
Neuron 82 1 0.00000000 1 0.00000000 0.00000000 0.00000000 0.00000000
Neuron 83 1 0.00000000 1 0.00000000 0.00000000 0.00000000 0.00000000
Neuron 84 1 0.00000000 1 0.00000000 0.00000000 0.00000000 0.00000000
Neuron 85 1 0.00000000 1 0.00000000 0.00000000 0.00000000 0.00000000
Neuron 86 1 0.00000000 1 0.00000000 0.00000000 0.00000000 0.00000000
Neuron 87 1 0.00000000 1 0.00000000 0.00000000 0.00000000 0.00000000
Neuron 88 1 0.00000000 1 0.00000000 0.00000000 0.00000000 0.00000000
Neuron 89 1 0.00000000 1 0.00000000 0.00000000 0.00000000 0.00000000
Neuron 90 1 0.00000000 1 0.00000000 0.00000000 0.00000000 0.00000000
Neuron 91 1 0.00000000 1 0.00000000 0.00000000 0.00000000 0.00000000
Neuron 92 1 0.00000000 1 0.00000000 0.00000000 0.00000000 0.00000000
Neuron 93 1 0.00000000 1 0.00000000 0.00000000 0.00000000 0.00000000
Neuron 94 1 0.00000000 1 0.00000000 0.00000000 0.00000000 0.00000000
Neuron 95 1 0.00000000 1 0.00000000 0.00000000 0.00000000 0.00000000
Neuron 96 1 0.00000000 1 0.00000000 0.00000000 0.00000000 0.00000000
Neuron 97 1 0.00000000 1 0.00000000 0.00000000 0.00000000 0.00000000
Neuron 98 1 0.00000000 1 0.00000000 0.00000000 0.00000000 0.00000000
Neuron 99 1 0.00000000 1 0.00000000 0.00000000 0.00000000 0.00000000
Neuron 100 1 0.00000000 1 0.00000000 0.00000000 0.00000000 0.00000000
Neuron 101 1 0.00000000 1 0.00000000 0.00000000 0.00000000 0.00000000
Neuron 102 1 0.00000000 1 0.00000000 0.00000000 0.00000000 0.00000000
Neuron 103 1 0.00000000 1 0.00000000 0.00000000 0.00000000 0.00000000
Neuron 104 1 0.00000000 1 0.00000000 0.00000000 0.00000000 0.00000000
Neuron 105 1 0.00000000 1 0.00000000 0.00000000 0.00000000 0.00000000
Neuron 106 1 0.00000000 1 0.00000000 0.00000000 0.00000000 0.00000000
Neuron 107 1 0.00000000 1 0.00000000 0.00000000 0.00000000 0.00000000
Neuron 108 1 0.00000000 1 0.00000000 0.00000000 0.00000000 0.00000000
Neuron 109 1 0.00000000 1 0.00000000 0.00000000 0.00000000 0.00000000
Neuron 110 1 0.00000000 1 0.00000000 0.00000000 0.00000000 0.00000000
Neuron 111 1 0.00000000 1 0.00000000 0.00000000 0.00000000 0.00000000
Neuron 112 1 0.00000000 1 0.00000000 0.00000000 0.00000000 0.00000000
Neuron 113 1 0.00000000 1 0.00000000 0.00000000 0.00000000 0.00000000
Neuron 114 1 0.00000000 1 0.00000000 0.00000000 0.00000000 0.00000000
Neuron 115 1 0.00000000 1 0.00000000 0.00000000 0.00000000 0.00000000
Neuron 116 1 0.00000000 1 0.00000000 0.00000000 0.00000000 0.00000000
Neuron 117 1 0.00000000 1 0.00000000 0.00000000 0.00000000 0.00000000
Neuron 118 1 0.00000000 1 0.00000000 0.00000000 0.00000000 0.00000000
Neuron 119 1 0.00000000 1 0.00000000 0.00000000 0.00000000 0.00000000
Neuron 120 1 0.00000000 1 0.00000000 0.00000000 0.00000000 0.00000000
Neuron 121 1 0.00000000 1 0.00000000 0.00000000 0.00000000 0.00000000
Neuron 122 1 0.00000000 1 0.00000000 0.00000000 0.00000000 0.00000000
Neuron 123 1 0.00000000 1 0.00000000 0.00000000 0.00000000 0.00000000
Neuron 124 1 0.00000000 1 0.00000000 0.00000000 0.00000000 0.00000000
Neuron 125 1 0.00000000 1 0.00000000 0.00000000 0.00000000 0.00000000
Neuron 126 1 0.00000000 1 0.00000000 0.00000000 0.00000000 0.00000000
Neuron 127 1 0.00000000 1 0.00000000 0.00000000 0.00000000 0.00000000
Neuron 128 1 0.00000000 1 0.00000000 0.00000000 0.00000000 0.00000000
Neuron 129 1 0.00000000 1 0.00000000 0.00000000 0.00000000 0.00000000
Neuron 130 1 0.00000000 1 0.00000000 0.00000000 0.00000000 0.00000000
Neuron 131 1 0.00000000 1 0.00000000 0.00000000 0.00000000 0.00000000
Neuron 132 1 0.00000000 1 0.00000000 0.00000000 0.00000000 0.00000000
Neuron 133 1 0.00000000 1 0.00000000 0.00000000 0.00000000 0.00000000
Neuron 134 1 0.00000000 1 0.00000000 0.00000000 0.00000000 0.00000000
Neuron 135 1 0.00000000 1 0.00000000 0.00000000 0.00000000 0.00000000
Neuron 136 1 0.00000000 1 0.00000000 0.00000000 0.00000000 0.00000000
Neuron 137 1 0.00000000 1 0.00000000 0.00000000 0.00000000 0.00000000
Neuron 138 1 0.00000000 1 0.00000000 0.00000000 0.00000000 0.00000000
Neuron 139 1 0.00000000 1 0.00000000 0.00000000 0.00000000 0.00000000
Neuron 140 1 0.00000000 1 0.00000000 0.00000000 0.00000000 0.00000000
Neuron 141 1 0.00000000 1 0.00000000 0.00000000 0.00000000 0.00000000
Neuron 142 1 0.00000000 1 0.00000000 0.00000000 0.00000000 0.00000000
Neuron 143 1 0.00000000 1 0.00000000 0.00000000 0.00000000 0.00000000
Neuron 144 1 0.00000000 1 0.00000000 0.00000000 0.00000000 0.00000000
Neuron 145 1 0.00000000 1 0.00000000 0.00000000 0.00000000 0.00000000
Neuron 146 1 0.00000000 1 0.00000000 0.00000000 0.00000000 0.00000000
Neuron 147 1 0.00000000 1 0.00000000 0.00000000 0.00000000 0.00000000
Neuron 148 1 0.00000000 1 0.00000000 0.00000000 0.00000000 0.00000000
Neuron 149 1 0.00000000 1 0.00000000 0.00000000 0.00000000 0.00000000
Neuron 150 1 0.00000000 1 0.00000000 0.00000000 0.00000000 0.00000000
Neuron 151 1 0.00000000 1 0.00000000 0.00000000 0.00000000 0.00000000
Neuron 152 1 0.00000000 1 0.00000000 0.00000000 0.00000000 0.00000000
Neuron 153 1 0.00000000 1 0.00000000 0.00000000 0.00000000 0.00000000
Neuron 154 1 0.00000000 1 0.00000000 0.00000000 0.00000000 0.00000000
Neuron 155 1 0.00000000 1 0.00000000 0.00000000 0.00000000 0.00000000
Neuron 156 1 0.00000000 1 0.00000000 0.00000000 0.00000000 0.00000000
Neuron 157 1 0.00000000 1 0.00000000 0.00000000 0.00000000 0.00000000
Neuron 158 1 0.00000000 1 0.00000000 0.00000000 0.00000000 0.00000000
Neuron 159 1 0.00000000 1 0.00000000 0.00000000 0.00000000 0.00000000
Neuron 160 1 0.00000000 1 0.00000000 0.00000000 0.00000000 0.00000000
Neuron 161 1 0.00000000 1 0.00000000 0.00000000 0.00000000 0.00000000
Neuron 162 1 0.00000000 1 0.00000000 0.00000000 0.00000000 0.00000000
Neuron 163 1 0.00000000 1 0.00000000 0.00000000 0.00000000 0.00000000
Neuron 164 1 0.00000000 1 0.00000000 0.00000000 0.00000000 0.00000000
Neuron 165 1 0.00000000 1 0.00000000 0.00000000 0.00000000 0.00000000
Neuron 166 1 0.00000000 1 0.00000000 0.00000000 0.00000000 0.00000000
Neuron 167 1 0.00000000 1 0.00000000 0.00000000 0.00000000 0.00000000
Neuron 168 1 0.00000000 1 0.00000000 0.00000000 0.00000000 0.00000000
Neuron 169 1 0.00000000 1 0.00000000 0.00000000 0.00000000 0.00000000
Neuron 170 1 0.00000000 1 0.00000000 0.00000000 0.00000000 0.00000000
Neuron 171 1 0.00000000 1 0.00000000 0.00000000 0.00000000 0.00000000
Neuron 172 1 0.00000000 1 0.00000000 0.00000000 0.00000000 0.00000000
Neuron 173 1 0.00000000 1 0.00000000 0.00000000 0.00000000 0.00000000
Neuron 174 1 0.00000000 1 0.00000000 0.00000000 0.00000000 0.00000000
Neuron 175 1 0.00000000 1 0.00000000 0.00000000 0.00000000 0.00000000
Neuron 176 1 0.00000000 1 0.00000000 0.00000000 0.00000000 0.00000000
Neuron 177 1 0.00000000 1 0.00000000 0.00000000 0.00000000 0.00000000
Neuron 178 1 0.00000000 1 0.00000000 0.00000000 0.00000000 0.00000000
Neuron 179 1 0.00000000 1 0.00000000 0.00000000 0.00000000 0.00000000
Neuron 180 1 0.00000000 1 0.00000000 0.00000000 0.00000000 0.00000000
Neuron 181 1 0.00000000 1 0.00000000 0.00000000 0.00000000 0.00000000
Neuron 182 1 0.00000000 1 0.00000000 0.00000000 0.00000000 0.00000000
Neuron 183 1 0.00000000 1 0.00000000 0.00000000 0.00000000 0.00000000
Neuron 184 1 0.00000000 1 0.00000000 0.00000000 0.00000000 0.00000000
Neuron 185 1 0.00000000 1 0.00000000 0.00000000 0.00000000 0.00000000
Neuron 186 1 0.00000000 1 0.00000000 0.00000000 0.00000000 0.00000000
Neuron 187 1 0.00000000 1 0.00000000 0.00000000 0.00000000 0.00000000
Neuron 188 1 0.00000000 1 0.00000000 0.00000000 0.00000000 0.00000000
Neuron 189 1 0.00000000 1 0.00000000 0.00000000 0.00000000 0.00000000
Neuron 190 1 0.00000000 1 0.00000000 0.00000000 0.00000000 0.00000000
Neuron 191 1 0.00000000 1 0.00000000 0.00000000 0.00000000 0.00000000
Neuron 192 1 0.00000000 1 0.00000000 0.00000000 0.00000000 0.00000000
Neuron 193 1 0.00000000 1 0.00000000 0.00000000 0.00000000 0.00000000
Neuron 194 2 0.00000000 1 0.00000000 0.00000000 0.00000000 0.00000000
Neuron 195 4 1.00000000 0 1.00000000 0.00000000 0.00000000 0.28558896
Neuron 196 4 1.00000000 1 1.00000000 0.00000000 0.00000000 0.63585167
Neuron 197 4 1.00000000 0 1.00000000 0.00000000 0.00000000 -0.49585644
Neuron 198 4 1.00000000 0 1.00000000 0.00000000 0.00000000 0.65099135
Neuron 199 4 1.00000000 0 1.00000000 0.00000000 0.00000000 0.03920268
Neuron 200 4 1.00000000 0 1.00000000 0.00000000 0.00000000 0.35102820
Neuron 201 4 1.00000000 0 1.00000000 0.00000000 0.00000000 0.01113841
Neuron 202 4 1.00000000 1 1.00000000 0.00000000 0.00000000 -0.50409404
Neuron 203 4 1.00000000 0 1.00000000 0.00000000 0.00000000 0.20192745
Neuron 204 4 1.00000000 1 1.00000000 0.00000000 0.00000000 0.46093203
Neuron 205 4 1.00000000 0 1.00000000 0.00000000 0.00000000 0.43147647
Neuron 206 4 1.00000000 0 1.00000000 0.00000000 0.00000000 -0.38453143
Neuron 207 4 1.00000000 0 1.00000000 0.00000000 0.00000000 -0.23033757
Neuron 208 4 1.00000000 0 1.00000000 0.00000000 0.00000000 -0.20077915
Neuron 209 4 1.00000000 0 1.00000000 0.00000000 0.00000000 -0.20979312
Link 1 195 1 0 0.47971826
Link 2 195 2 0 0.87779116
Link 3 195 3 0 0.12049677
Link 4 195 4 0 0.20353229
Link 5 195 5 0 0.36278112
Link 6 195 6 0 -0.22794884
Link 7 195 7 0 0.46582640
Link 8 195 8 0 0.29282958
Link 9 195 9 0 1.95889841
Link 10 195 10 0 0.07935297
Link 11 195 11 0 -0.59996097
Link 12 195 12 0 0.61187442
Link 13 195 13 0 -0.21759749
Link 14 195 14 0 0.61129538
Link 15 195 15 0 -0.39767251
Link 16 195 16 0 -0.95106794
Link 17 195 17 0 0.17707090
Link 18 195 18 0 -0.62224468
Link 19 195 19 0 0.45723836
Link 20 195 20 0 0.10705189
Link 21 195 21 0 -1.13132142
Link 22 195 22 0 0.57045917
Link 23 195 23 0 -0.15282683
Link 24 195 24 0 0.50818038
Link 25 195 25 0 1.57766888
Link 26 195 26 0 -0.44236457
Link 27 195 27 0 -0.45021163
Link 28 195 28 0 0.12757180
Link 29 195 29 0 0.03688364
Link 30 195 30 0 -0.30909207
Link 31 195 31 0 -1.07109344
Link 32 195 32 0 -0.55495104
Link 33 195 33 0 0.10592586
Link 34 195 34 0 0.69368192
Link 35 195 35 0 0.35575332
Link 36 195 36 0 -0.19059399
Link 37 195 37 0 0.17952390
Link 38 195 38 0 0.36883536
Link 39 195 39 0 0.11584786
Link 40 195 40 0 0.45080291
Link 41 195 41 0 0.59788337
Link 42 195 42 0 0.73764125
Link 43 195 43 0 0.68700400
Link 44 195 44 0 -0.07582363
Link 45 195 45 0 0.15493379
Link 46 195 46 0 -0.29376893
Link 47 195 47 0 -0.35065127
Link 48 195 48 0 0.15424454
Link 49 195 49 0 -1.11786175
Link 50 195 50 0 -0.04449094
Link 51 195 51 0 -0.14024590
Link 52 195 52 0 -0.07235413
Link 53 195 53 0 -0.36369217
Link 54 195 54 0 0.23188473
Link 55 195 55 0 -0.22725612
Link 56 195 56 0 0.06325535
Link 57 195 57 0 0.79217713
Link 58 195 58 0 -0.58289629
Link 59 195 59 0 -0.11050287
Link 60 195 60 0 0.74835909
Link 61 195 61 0 -0.78964880
Link 62 195 62 0 0.21682646
Link 63 195 63 0 0.50283328
Link 64 195 64 0 -0.18215502
Link 65 195 65 0 -0.13311756
Link 66 195 66 0 -0.20104930
Link 67 195 67 0 0.59724314
Link 68 195 68 0 0.35526659
Link 69 195 69 0 -0.27646675
Link 70 195 70 0 -0.83363915
Link 71 195 71 0 0.16268759
Link 72 195 72 0 0.41815941
Link 73 195 73 0 -0.64229354
Link 74 195 74 0 0.66090890
Link 75 195 75 0 0.37814029
Link 76 195 76 0 0.37843562
Link 77 195 77 0 -1.97387759
Link 78 195 78 0 0.33644802
Link 79 195 79 0 -0.51204352
Link 80 195 80 0 0.11087432
Link 81 195 81 0 -0.08369464
Link 82 195 82 0 -0.42801964
Link 83 195 83 0 1.11127615
Link 84 195 84 0 0.17539753
Link 85 195 85 0 0.52383708
Link 86 195 86 0 -0.12848794
Link 87 195 87 0 -1.19518000
Link 88 195 88 0 -0.87371462
Link 89 195 89 0 0.81328619
Link 90 195 90 0 0.95070754
Link 91 195 91 0 -0.85976216
Link 92 195 92 0 0.96368398
Link 93 195 93 0 -0.85882552
Link 94 195 94 0 0.28500570
Link 95 195 95 0 0.53846564
Link 96 195 96 0 -0.50808498
Link 97 195 97 0 -0.25989073
Link 98 195 98 0 1.15785642
Link 99 195 99 0 -0.26701550
Link 100 195 100 0 -0.67701375
Link 101 195 101 0 0.81033088
Link 102 195 102 0 -0.24519658
Link 103 195 103 0 -0.17957768
Link 104 195 104 0 0.40573287
Link 105 195 105 0 0.55139198
Link 106 195 106 0 0.30916780
Link 107 195 107 0 -0.54060464
Link 108 195 108 0 -0.97578648
Link 109 195 109 0 0.73838900
Link 110 195 110 0 -0.02180059
Link 111 195 111 0 0.39091308
Link 112 195 112 0 0.35797444
Link 113 195 113 0 -0.85539180
Link 114 195 114 0 1.64720732
Link 115 195 115 0 0.09573669
Link 116 195 116 0 -0.14533168
Link 117 195 117 0 -0.11667078
Link 118 195 118 0 0.58284700
Link 119 195 119 0 -0.86967684
Link 120 195 120 0 -0.40899133
Link 121 195 121 0 -0.32992440
Link 122 195 122 0 0.52337267
Link 123 195 123 0 -0.04529295
Link 124 195 124 0 0.25558231
Link 125 195 125 0 0.13144640
Link 126 195 126 0 0.60792973
Link 127 195 127 0 -0.15152407
Link 128 195 128 0 -0.46243136
Link 129 195 129 0 -0.08487988
Link 130 195 130 0 0.70626276
Link 131 195 131 0 -0.22226302
Link 132 195 132 0 0.11682588
Link 133 195 133 0 0.69078423
Link 134 195 134 0 -0.39168619
Link 135 195 135 0 0.96877554
Link 136 195 136 0 -0.34877695
Link 137 195 137 0 0.46810490
Link 138 195 138 0 1.35433481
Link 139 195 139 0 -0.40465594
Link 140 195 140 0 0.18622871
Link 141 195 141 0 -0.14071252
Link 142 195 142 0 -0.06456778
Link 143 195 143 0 -0.21927025
Link 144 195 144 0 -0.27159638
Link 145 195 145 0 -0.17403968
Link 146 195 146 0 -0.33615746
Link 147 195 147 0 0.72616186
Link 148 195 148 0 -0.19455972
Link 149 195 149 0 -0.31206860
Link 150 195 150 0 0.41512325
Link 151 195 151 0 0.41193764
Link 152 195 152 0 -0.29590805
Link 153 195 153 0 0.67010913
Link 154 195 154 0 -0.01507802
Link 155 195 155 0 -0.08118503
Link 156 195 156 0 -1.14283652
Link 157 195 157 0 0.11482540
Link 158 195 158 0 -0.43594127
Link 159 195 159 0 0.39970322
Link 160 195 160 0 -1.28897603
Link 161 195 161 0 0.37005438
Link 162 195 162 0 1.79272261
Link 163 195 163 0 0.18454949
Link 164 195 164 0 -0.26901629
Link 165 195 165 0 -0.39474702
Link 166 195 166 0 1.17213312
Link 167 195 167 0 0.46823614
Link 168 195 168 0 0.42459398
Link 169 195 169 0 -0.05702116
Link 170 195 170 0 0.05395327
Link 171 195 171 0 0.66491108
Link 172 195 172 0 0.10379434
Link 173 195 173 0 0.41201406
Link 174 195 174 0 0.63163630
Link 175 195 175 0 -0.96581838
Link 176 195 176 0 -0.34280498
Link 177 195 177 0 -0.07601757
Link 178 195 178 0 0.23266506
Link 179 195 179 0 0.10375238
Link 180 195 180 0 0.17143236
Link 181 195 181 0 -0.42284115
Link 182 195 182 0 -1.31966279
Link 183 195 183 0 0.54868683
Link 184 195 184 0 0.06845207
Link 185 195 185 0 0.33309758
Link 186 195 186 0 0.34702455
Link 187 195 187 0 0.17836740
Link 188 195 188 0 -0.13155074
Link 189 195 189 0 -0.07261536
Link 190 195 190 0 -0.92836746
Link 191 195 191 0 1.54667377
Link 192 195 192 0 0.40366701
Link 193 195 193 0 0.18817778
Link 194 195 194 0 -0.64900221
Link 1 196 195 0 -0.06161220
Link 2 196 196 0 0.15364163
Link 3 196 197 0 -0.05061416
Link 4 196 198 0 0.07921130
Link 5 196 199 0 1.61478708
Link 6 196 200 0 -1.53088332
Link 7 196 201 0 0.44876340
Link 8 196 202 0 -0.71435965
Link 9 196 203 0 -0.11315874
Link 10 196 204 0 1.13194410
Link 11 196 205 0 -0.55853312
Link 12 196 206 0 -0.37605831
Link 13 196 207 0 -0.33562051
Link 14 196 208 0 0.14588185
Link 15 196 209 0 0.58827521
Link 16 196 210 0 -0.09703955
Link 17 196 211 0 1.42119777
Link 18 196 212 0 0.88961887
Link 19 196 213 0 -0.63641324
Link 20 196 214 0 0.64427550
Link 21 196 215 0 0.32713284
Link 22 196 216 0 -0.26661561
Link 23 196 217 0 -0.18208629
Link 24 196 218 0 0.29374800
Link 25 196 219 0 0.41579814
Link 26 196 220 0 -0.23690740
Link 27 196 221 0 -0.22560234
Link 28 196 222 0 -0.00509731
Link 29 196 223 0 1.06386905
Link 30 196 224 0 -0.06036794
Link 31 196 225 0 -0.72667464
Link 32 196 226 0 -0.06891473
Link 33 196 227 0 0.15554751
Link 34 196 228 0 0.00262219
Link 35 196 229 0 -0.04849854
Link 36 196 230 0 -0.94029920
Link 37 196 231 0 -0.00612146
Link 38 196 232 0 -0.14451967
Link 39 196 233 0 -0.22348711
Link 40 196 234 0 0.30105343
Link 41 196 235 0 0.99001434
Link 42 196 236 0 0.53899761
Link 43 196 237 0 0.47263136
Link 44 196 238 0 0.35761909
Link 45 196 239 0 -0.51033653
Link 46 196 240 0 -0.95125846
Link 47 196 241 0 -0.26717150
Link 48 196 242 0 0.63710540
Link 49 196 243 0 0.58850434
Link 50 196 244 0 0.24810682
Link 51 196 245 0 -0.12980843
Link 52 196 246 0 -0.29398538
Link 53 196 247 0 -0.19025672
Link 54 196 248 0 -1.01939025
Link 55 196 249 0 0.75559650
Link 56 196 250 0 0.34376130
Link 57 196 251 0 0.21597139
Link 58 196 252 0 0.55046261
Link 59 196 253 0 -0.24417796
Link 60 196 254 0 -0.07367176
Link 61 196 255 0 -0.12685687
Link 62 196 256 0 0.32441421
Link 63 196 257 0 0.11345526
Link 64 196 258 0 0.13913833
Link 65 196 259 0 0.05059853
Link 66 196 260 0 -1.66009860
Link 67 196 261 0 0.57167319
Link 68 196 262 0 0.70734320
Link 69 196 263 0 -0.13795972
Link 70 196 264 0 -0.75503641
Link 71 196 265 0 0.42666534
Link 72 196 266 0 0.00989208
Link 73 196 267 0 0.35884440
Link 74 196 268 0 2.36103222
Link 75 196 269 0 -0.45276442
Link 76 196 270 0 -0.10064751
Link 77 196 271 0 -0.59267107
Link 78 196 272 0 0.65310758
Link 79 196 273 0 0.31532756
Link 80 196 274 0 0.00586799
Link 81 196 275 0 0.57094733
Link 82 196 276 0 0.14038161
Link 83 196 277 0 0.21535907
Link 84 196 278 0 0.28803106
Link 85 196 279 0 -0.19080364
Link 86 196 280 0 -0.67555658
Link 87 196 281 0 1.10648773
Link 88 196 282 0 -0.17867422
Link 89 196 283 0 -0.37402378
Link 90 196 284 0 -0.53262955
Link 91 196 285 0 1.39176230
Link 92 196 286 0 0.51049332
Link 93 196 287 0 0.62940597
Link 94 196 288 0 0.20940347
Link 95 196 289 0 0.29781763
Link 96 196 290 0 -0.33004160
Link 97 196 291 0 -0.09421591
Link 98 196 292 0 0.32688899
Link 99 196 293 0 1.27068301
Link 100 196 294 0 -0.57607204
Link 101 196 295 0 0.11572806
Link 102 196 296 0 0.16031763
Link 103 196 297 0 -0.11640681
Link 104 196 298 0 0.71397194
Link 105 196 299 0 0.85376086
Link 106 196 300 0 1.07154222
Link 107 196 301 0 0.26477331
Link 108 196 302 0 -0.78784704
Link 109 196 303 0 0.04007069
Link 110 196 304 0 -0.30362781
Link 111 196 305 0 0.98426676
Link 112 196 306 0 0.69562980
Link 113 196 307 0 -0.76740636
Link 114 196 308 0 -0.85662895
Link 115 196 309 0 0.62027874
Link 116 196 310 0 0.27892554
Link 117 196 311 0 0.17451897
Link 118 196 312 0 0.23950539
Link 119 196 313 0 0.05413483
Link 120 196 314 0 0.47426124
Link 121 196 315 0 0.67165100
Link 122 196 316 0 0.22233337
Link 123 196 317 0 0.88685889
Link 124 196 318 0 -0.83489389
Link 125 196 319 0 0.01380830
Link 126 196 320 0 0.13719499
Link 127 196 321 0 0.03452736
Link 128 196 322 0 0.17743695
Link 129 196 323 0 -0.91875005
Link 130 196 324 0 -0.53307874
Link 131 196 325 0 -0.92639614
Link 132 196 326 0 1.45379435
Link 133 196 327 0 -0.12193180
Link 134 196 328 0 0.74907012
Link 135 196 329 0 0.26326830
Link 136 196 330 0 0.05068803
Link 137 196 331 0 -0.14949995
Link 138 196 332 0 -0.26925069
Link 139 196 333 0 -0.15073323
Link 140 196 334 0 -0.40382781
Link 141 196 335 0 -0.30998910
Link 142 196 336 0 -0.18976966
Link 143 196 337 0 0.37052306
Link 144 196 338 0 -0.31775203
Link 145 196 339 0 -0.27280977
Link 146 196 340 0 0.08641800
Link 147 196 341 0 -0.79619358
Link 148 196 342 0 -1.13142204
Link 149 196 343 0 0.80357865
Link 150 196 344 0 0.42357782
Link 151 196 345 0 -0.05432240
Link 152 196 346 0 -0.31309939
Link 153 196 347 0 0.01675568
Link 154 196 348 0 -0.45123084
Link 155 196 349 0 -0.27610369
Link 156 196 350 0 0.57063923
Link 157 196 351 0 0.30811599
Link 158 196 352 0 0.21821137
Link 159 196 353 0 0.02742640
Link 160 196 354 0 0.53043764
Link 161 196 355 0 0.60807010
Link 162 196 356 0 0.79912284
Link 163 196 357 0 -0.14423029
Link 164 196 358 0 -0.45477046
Link 165 196 359 0 0.40555336
Link 166 196 360 0 0.70997639
Link 167 196 361 0 -0.00105524
Link 168 196 362 0 0.00817267
Link 169 196 363 0 0.77900348
Link 170 196 364 0 0.66482030
Link 171 196 365 0 -0.07596002
Link 172 196 366 0 -0.23295021
Link 173 196 367 0 0.32497961
Link 174 196 368 0 -0.29206252
Link 175 196 369 0 0.22767407
Link 176 196 370 0 -0.49304432
Link 177 196 371 0 0.02929000
Link 178 196 372 0 -0.24558975
Link 179 196 373 0 -0.26569908
Link 180 196 374 0 1.01484550
Link 181 196 375 0 -0.53263654
Link 182 196 376 0 0.38358437
Link 183 196 377 0 0.81787248
Link 184 196 378 0 0.03693950
Link 185 196 379 0 -0.01005804
Link 186 196 380 0 -0.79908898
Link 187 196 381 0 -0.59997460
Link 188 196 382 0 -0.27664122
Link 189 196 383 0 -0.35687605
Link 190 196 384 0 -0.03266479
Link 191 196 385 0 -0.13981971
Link 192 196 386 0 -0.38186169
Link 193 196 387 0 -0.51445799
Link 194 196 388 0 0.16092859
Link 1 197 389 0 -0.08995680
Link 2 197 390 0 -0.17703258
Link 3 197 391 0 -0.24515064
Link 4 197 392 0 0.12313274
Link 5 197 393 0 0.58796632
Link 6 197 394 0 0.06168428
Link 7 197 395 0 -0.20144871
Link 8 197 396 0 -0.05312780
Link 9 197 397 0 0.79716279
Link 10 197 398 0 -0.04291350
Link 11 197 399 0 -0.01187261
Link 12 197 400 0 1.06734013
Link 13 197 401 0 0.03317171
Link 14 197 402 0 0.16395217
Link 15 197 403 0 0.62002022
Link 16 197 404 0 -1.04892352
Link 17 197 405 0 -0.43669535
Link 18 197 406 0 0.79673712
Link 19 197 407 0 1.23160109
Link 20 197 408 0 0.22698577
Link 21 197 409 0 -0.24477501
Link 22 197 410 0 0.27740228
Link 23 197 411 0 0.14919413
Link 24 197 412 0 -0.18735918
Link 25 197 413 0 -0.21147177
Link 26 197 414 0 -0.11086816
Link 27 197 415 0 0.59752327
Link 28 197 416 0 -0.24995837
Link 29 197 417 0 -0.01312856
Link 30 197 418 0 -0.12802657
Link 31 197 419 0 -0.41831828
Link 32 197 420 0 0.28085974
Link 33 197 421 0 -0.11238223
Link 34 197 422 0 0.64143086
Link 35 197 423 0 -0.08740327
Link 36 197 424 0 0.34472367
Link 37 197 425 0 -0.12804640
Link 38 197 426 0 -0.07815491
Link 39 197 427 0 0.02710675
Link 40 197 428 0 0.01706525
Link 41 197 429 0 0.55210110
Link 42 197 430 0 -0.21120017
Link 43 197 431 0 0.47741233
Link 44 197 432 0 0.59483194
Link 45 197 433 0 0.12287053
Link 46 197 434 0 -0.40804761
Link 47 197 435 0 0.10984162
Link 48 197 436 0 0.02822764
Link 49 197 437 0 -0.17814119
Link 50 197 438 0 -0.43320570
Link 51 197 439 0 0.60585440
Link 52 197 440 0 -0.33025882
Link 53 197 441 0 -0.19388831
Link 54 197 442 0 -0.01779549
Link 55 197 443 0 -0.59689261
Link 56 197 444 0 0.22606371
Link 57 197 445 0 -0.16815382
Link 58 197 446 0 -0.16967007
Link 59 197 447 0 -0.08719233
Link 60 197 448 0 0.47056355
Link 61 197 449 0 -1.22517641
Link 62 197 450 0 -0.65630901
Link 63 197 451 0 -0.44443096
Link 64 197 452 0 -0.23122379
Link 65 197 453 0 -1.15296286
Link 66 197 454 0 0.91144326
Link 67 197 455 0 -1.09216802
Link 68 197 456 0 0.04544791
Link 69 197 457 0 0.11011228
Link 70 197 458 0 -0.48820618
Link 71 197 459 0 1.68870632
Link 72 197 460 0 -0.20833453
Link 73 197 461 0 0.81530125
Link 74 197 462 0 -0.36628715
Link 75 197 463 0 0.54979818
Link 76 197 464 0 -0.51757237
Link 77 197 465 0 0.64755132
Link 78 197 466 0 1.01184406
Link 79 197 467 0 0.05726829
Link 80 197 468 0 0.85966825
Link 81 197 469 0 0.67648055
Link 82 197 470 0 0.62023409
Link 83 197 471 0 -0.56386341
Link 84 197 472 0 0.48519755
Link 85 197 473 0 0.25462637
Link 86 197 474 0 1.51030544
Link 87 197 475 0 -0.42863389
Link 88 197 476 0 0.06073928
Link 89 197 477 0 0.11104792
Link 90 197 478 0 -0.53977186
Link 91 197 479 0 0.14574466
Link 92 197 480 0 0.96498514
Link 93 197 481 0 -0.01815976
Link 94 197 482 0 -0.20337892
Link 95 197 483 0 0.07025582
Link 96 197 484 0 -0.81041172
Link 97 197 485 0 0.15232630
Link 98 197 486 0 -0.66848361
Link 99 197 487 0 -0.25349700
Link 100 197 488 0 -0.00909713
Link 101 197 489 0 -0.63614953
Link 102 197 490 0 0.90771308
Link 103 197 491 0 -0.02592298
Link 104 197 492 0 0.31335629
Link 105 197 493 0 0.21024061
Link 106 197 494 0 1.11062711
Link 107 197 495 0 -0.18514395
Link 108 197 496 0 0.47536001
Link 109 197 497 0 -0.39620997
Link 110 197 498 0 0.26029368
Link 111 197 499 0 0.14378568
Link 112 197 500 0 1.24671226
Link 113 197 501 0 0.11434482
Link 114 197 502 0 0.42049852
Link 115 197 503 0 0.24835490
Link 116 197 504 0 0.79790987
Link 117 197 505 0 1.14734784
Link 118 197 506 0 -0.08920525
Link 119 197 507 0 0.06344265
Link 120 197 508 0 -0.12592682
Link 121 197 509 0 0.00403823
Link 122 197 510 0 1.27299157
Link 123 197 511 0 0.61875161
Link 124 197 512 0 -0.98174237
Link 125 197 513 0 -0.34121694
Link 126 197 514 0 0.12362856
Link 127 197 515 0 0.51244596
Link 128 197 516 0 0.01313747
Link 129 197 517 0 -0.50334531
Link 130 197 518 0 -0.44167292
Link 131 197 519 0 -0.52811006
Link 132 197 520 0 -0.32009530
Link 133 197 521 0 -0.23483288
Link 134 197 522 0 -0.57917913
Link 135 197 523 0 0.39682074
Link 136 197 524 0 0.15926924
Link 137 197 525 0 -0.00386238
Link 138 197 526 0 0.30707377
Link 139 197 527 0 -0.10026873
Link 140 197 528 0 0.24953033
Link 141 197 529 0 0.02475831
Link 142 197 530 0 0.65254982
Link 143 197 531 0 0.41502035
Link 144 197 532 0 -0.02074689
Link 145 197 533 0 0.73222559
Link 146 197 534 0 -1.15500021
Link 147 197 535 0 0.23843583
Link 148 197 536 0 -0.55681633
Link 149 197 537 0 0.00157197
Link 150 197 538 0 0.20735712
Link 151 197 539 0 0.00857863
Link 152 197 540 0 -0.00312301
Link 153 197 541 0 -0.22223240
Link 154 197 542 0 0.31220085
Link 155 197 543 0 -0.32154437
Link 156 197 544 0 -0.16699204
Link 157 197 545 0 -0.47896738
Link 158 197 546 0 0.96476585
Link 159 197 547 0 -0.80487749
Link 160 197 548 0 0.12780098
Link 161 197 549 0 -0.39298090
Link 162 197 550 0 -0.06861770
Link 163 197 551 0 -1.33425660
Link 164 197 552 0 0.15534599
Link 165 197 553 0 0.00398480
Link 166 197 554 0 -0.22311933
Link 167 197 555 0 0.49573258
Link 168 197 556 0 -0.17344728
Link 169 197 557 0 0.02495593
Link 170 197 558 0 -0.28676304
Link 171 197 559 0 0.14113926
Link 172 197 560 0 -0.36517489
Link 173 197 561 0 0.14792609
Link 174 197 562 0 -0.31463619
Link 175 197 563 0 1.61402652
Link 176 197 564 0 0.77566448
Link 177 197 565 0 -0.00329754
Link 178 197 566 0 -0.69710580
Link 179 197 567 0 0.14698450
Link 180 197 568 0 -0.33548779
Link 181 197 569 0 0.57325277
Link 182 197 570 0 -0.51838704
Link 183 197 571 0 -0.80360352
Link 184 197 572 0 -0.58880876
Link 185 197 573 0 0.03061066
Link 186 197 574 0 -0.43190562
Link 187 197 575 0 0.07255405
Link 188 197 576 0 0.08754761
Link 189 197 577 0 0.31116929
Link 190 197 578 0 0.09361277
Link 191 197 579 0 0.43200775
Link 192 197 580 0 0.20474613
Link 193 197 581 0 0.01167059
Link 194 197 582 0 0.65083146
Link 1 198 583 0 -0.26460020
Link 2 198 584 0 -1.23562106
Link 3 198 585 0 -0.33322719
Link 4 198 586 0 -0.51980258
Link 5 198 587 0 0.73400676
Link 6 198 588 0 -0.04944006
Link 7 198 589 0 0.06352520
Link 8 198 590 0 -0.13491847
Link 9 198 591 0 -0.05465944
Link 10 198 592 0 0.46874804
Link 11 198 593 0 0.32203730
Link 12 198 594 0 -0.20436554
Link 13 198 595 0 0.18714320
Link 14 198 596 0 -0.29805790
Link 15 198 597 0 0.61373087
Link 16 198 598 0 0.39365629
Link 17 198 599 0 -0.12073548
Link 18 198 600 0 -0.67377210
Link 19 198 601 0 -0.09579028
Link 20 198 602 0 0.00302056
Link 21 198 603 0 0.16414854
Link 22 198 604 0 -0.22611226
Link 23 198 605 0 -0.05568890
Link 24 198 606 0 0.29182412
Link 25 198 607 0 -0.42005256
Link 26 198 608 0 -0.66566119
Link 27 198 609 0 0.14567817
Link 28 198 610 0 -0.15543816
Link 29 198 611 0 -0.19256109
Link 30 198 612 0 -0.56696985
Link 31 198 613 0 -0.25368549
Link 32 198 614 0 -1.23279259
Link 33 198 615 0 0.93531106
Link 34 198 616 0 -0.67779219
Link 35 198 617 0 0.02594298
Link 36 198 618 0 -0.02945858
Link 37 198 619 0 -0.51884140
Link 38 198 620 0 0.27746659
Link 39 198 621 0 0.41075268
Link 40 198 622 0 0.18289294
Link 41 198 623 0 0.89703606
Link 42 198 624 0 -0.03599830
Link 43 198 625 0 -0.15702176
Link 44 198 626 0 0.77891918
Link 45 198 627 0 0.05778919
Link 46 198 628 0 0.41077106
Link 47 198 629 0 -0.67460929
Link 48 198 630 0 -0.50991553
Link 49 198 631 0 -0.41575538
Link 50 198 632 0 -0.09731145
Link 51 198 633 0 -0.21828852
Link 52 198 634 0 0.22066555
Link 53 198 635 0 0.79404952
Link 54 198 636 0 -0.68129944
Link 55 198 637 0 0.11418133
Link 56 198 638 0 0.35535326
Link 57 198 639 0 -0.01455966
Link 58 198 640 0 -0.34450358
Link 59 198 641 0 0.09500910
Link 60 198 642 0 0.21533976
Link 61 198 643 0 0.12920365
Link 62 198 644 0 -0.07972664
Link 63 198 645 0 -0.79911446
Link 64 198 646 0 -0.44221991
Link 65 198 647 0 2.33308602
Link 66 198 648 0 -0.75451969
Link 67 198 649 0 0.25061552
Link 68 198 650 0 -0.38720196
Link 69 198 651 0 0.83651315
Link 70 198 652 0 -0.22767546
Link 71 198 653 0 0.23614874
Link 72 198 654 0 -0.03128327
Link 73 198 655 0 0.65975942
Link 74 198 656 0 0.33571691
Link 75 198 657 0 -0.63190436
Link 76 198 658 0 0.99323794
Link 77 198 659 0 0.42481597
Link 78 198 660 0 -0.00222030
Link 79 198 661 0 0.36132214
Link 80 198 662 0 0.27596229
Link 81 198 663 0 0.88748158
Link 82 198 664 0 -2.03562162
Link 83 198 665 0 -0.24451190
Link 84 198 666 0 0.98982520
Link 85 198 667 0 -0.09064481
Link 86 198 668 0 -0.03958010
Link 87 198 669 0 0.27757704
Link 88 198 670 0 0.00558518
Link 89 198 671 0 0.22979206
Link 90 198 672 0 0.95778829
Link 91 198 673 0 -0.04132012
Link 92 198 674 0 0.15782779
Link 93 198 675 0 -1.20635799
Link 94 198 676 0 -0.67067295
Link 95 198 677 0 1.60229332
Link 96 198 678 0 -0.29221903
Link 97 198 679 0 1.27051727
Link 98 198 680 0 -0.75574625
Link 99 198 681 0 -0.87515682
Link 100 198 682 0 1.30696909
Link 101 198 683 0 0.21885164
Link 102 198 684 0 0.04648081
Link 103 198 685 0 0.15659594
Link 104 198 686 0 0.58012130
Link 105 198 687 0 0.43328288
Link 106 198 688 0 0.39593950
Link 107 198 689 0 0.00656358
Link 108 198 690 0 -0.34730209
Link 109 198 691 0 -0.52395100
Link 110 198 692 0 0.85036611
Link 111 198 693 0 -1.05670009
Link 112 198 694 0 -0.15814929
Link 113 198 695 0 -0.20169484
Link 114 198 696 0 0.63856676
Link 115 198 697 0 0.36742186
Link 116 198 698 0 0.89303444
Link 117 198 699 0 -0.96671859
Link 118 198 700 0 0.17237141
Link 119 198 701 0 0.28700540
Link 120 198 702 0 -0.38484301
Link 121 198 703 0 0.97337337
Link 122 198 704 0 -1.06598662
Link 123 198 705 0 0.08021480
Link 124 198 706 0 0.54660451
Link 125 198 707 0 -0.36620283
Link 126 198 708 0 -0.36053114
Link 127 198 709 0 0.31303172
Link 128 198 710 0 0.16998142
Link 129 198 711 0 0.33228068
Link 130 198 712 0 -0.14896296
Link 131 198 713 0 0.38200848
Link 132 198 714 0 0.05460505
Link 133 198 715 0 -1.03360911
Link 134 198 716 0 0.22787954
Link 135 198 717 0 0.13388470
Link 136 198 718 0 0.09552024
Link 137 198 719 0 0.21604588
Link 138 198 720 0 -0.56946510
Link 139 198 721 0 -1.24453924
Link 140 198 722 0 -0.79299256
Link 141 198 723 0 -0.07980665
Link 142 198 724 0 0.01584472
Link 143 198 725 0 0.32973228
Link 144 198 726 0 0.43988397
Link 145 198 727 0 0.96144118
Link 146 198 728 0 -0.12344141
Link 147 198 729 0 -0.43237986
Link 148 198 730 0 -0.45505648
Link 149 198 731 0 0.12431544
Link 150 198 732 0 0.16088640
Link 151 198 733 0 -0.39376493
Link 152 198 734 0 0.36456755
Link 153 198 735 0 0.32321667
Link 154 198 736 0 0.71224966
Link 155 198 737 0 -0.43457569
Link 156 198 738 0 -0.07682545
Link 157 198 739 0 -0.17770080
Link 158 198 740 0 0.39281577
Link 159 198 741 0 0.32545844
Link 160 198 742 0 0.33048857
Link 161 198 743 0 -0.20082782
Link 162 198 744 0 0.42075343
Link 163 198 745 0 -0.34668817
Link 164 198 746 0 0.18752680
Link 165 198 747 0 0.54361273
Link 166 198 748 0 -1.00503869
Link 167 198 749 0 0.15545797
Link 168 198 750 0 1.15872045
Link 169 198 751 0 -0.25023724
Link 170 198 752 0 -0.35040865
Link 171 198 753 0 -0.35235414
Link 172 198 754 0 -0.10159227
Link 173 198 755 0 -0.03966098
Link 174 198 756 0 0.20502388
Link 175 198 757 0 -0.05053941
Link 176 198 758 0 -0.05899224
Link 177 198 759 0 0.01723588
Link 178 198 760 0 0.32082789
Link 179 198 761 0 0.32018576
Link 180 198 762 0 -0.70987780
Link 181 198 763 0 -0.36553691
Link 182 198 764 0 -0.92455611
Link 183 198 765 0 -0.53063474
Link 184 198 766 0 0.49465158
Link 185 198 767 0 0.46267504
Link 186 198 768 0 0.26260388
Link 187 198 769 0 -0.01888924
Link 188 198 770 0 -0.52554165
Link 189 198 771 0 1.10881923
Link 190 198 772 0 -1.14694006
Link 191 198 773 0 0.29764067
Link 192 198 774 0 -1.81186499
Link 193 198 775 0 0.90582736
Link 194 198 776 0 -0.12461025
Link 1 199 777 0 0.19366420
Link 2 199 778 0 -0.92503418
Link 3 199 779 0 -1.11120420
Link 4 199 780 0 -0.42080220
Link 5 199 781 0 0.11516150
Link 6 199 782 0 -1.18834775
Link 7 199 783 0 -0.46595905
Link 8 199 784 0 -0.75650447
Link 9 199 785 0 0.21402040
Link 10 199 786 0 -0.53227428
Link 11 199 787 0 -0.88420516
Link 12 199 788 0 -0.12777246
Link 13 199 789 0 -0.47639174
Link 14 199 790 0 0.04637616
Link 15 199 791 0 0.58897731
Link 16 199 792 0 -0.27997167
Link 17 199 793 0 0.42957191
Link 18 199 794 0 -0.88738985
Link 19 199 795 0 0.91759594
Link 20 199 796 0 -0.00324711
Link 21 199 797 0 0.46438677
Link 22 199 798 0 -0.20136322
Link 23 199 799 0 -0.22224554
Link 24 199 800 0 -0.29409398
Link 25 199 801 0 -0.00410038
Link 26 199 802 0 -0.05259646
Link 27 199 803 0 -0.29009544
Link 28 199 804 0 -0.43401698
Link 29 199 805 0 -2.03763777
Link 30 199 806 0 0.10951182
Link 31 199 807 0 0.21096854
Link 32 199 808 0 0.34910708
Link 33 199 809 0 0.25391927
Link 34 199 810 0 0.86796146
Link 35 199 811 0 -0.23722228
Link 36 199 812 0 0.62075752
Link 37 199 813 0 -0.23800049
Link 38 199 814 0 0.68242681
Link 39 199 815 0 -0.19282764
Link 40 199 816 0 -0.02108729
Link 41 199 817 0 -0.58748308
Link 42 199 818 0 -0.01439866
Link 43 199 819 0 0.52201629
Link 44 199 820 0 -0.21678529
Link 45 199 821 0 0.55104427
Link 46 199 822 0 0.13369956
Link 47 199 823 0 -0.35563116
Link 48 199 824 0 0.05698192
Link 49 199 825 0 0.16541150
Link 50 199 826 0 -0.62409401
Link 51 199 827 0 -0.45327722
Link 52 199 828 0 -0.41834123
Link 53 199 829 0 0.13579925
Link 54 199 830 0 -0.07646265
Link 55 199 831 0 0.57836904
Link 56 199 832 0 -0.36456456
Link 57 199 833 0 -0.32741110
Link 58 199 834 0 -0.19762047
Link 59 199 835 0 -0.11843645
Link 60 199 836 0 0.69378858
Link 61 199 837 0 -0.24084033
Link 62 199 838 0 0.49780693
Link 63 199 839 0 0.20177584
Link 64 199 840 0 -0.21025631
Link 65 199 841 0 -0.52707317
Link 66 199 842 0 0.01448763
Link 67 199 843 0 0.93888229
Link 68 199 844 0 0.19801160
Link 69 199 845 0 0.30920932
Link 70 199 846 0 0.57043236
Link 71 199 847 0 0.72643308
Link 72 199 848 0 -0.05184554
Link 73 199 849 0 0.86342322
Link 74 199 850 0 0.07055604
Link 75 199 851 0 -1.11949461
Link 76 199 852 0 0.24366344
Link 77 199 853 0 -0.13436431
Link 78 199 854 0 -0.33958021
Link 79 199 855 0 -1.53276846
Link 80 199 856 0 -0.12684200
Link 81 199 857 0 -0.41509971
Link 82 199 858 0 0.01049874
Link 83 199 859 0 -2.33153251
Link 84 199 860 0 0.21206100
Link 85 199 861 0 -2.16151542
Link 86 199 862 0 0.33652154
Link 87 199 863 0 0.18009266
Link 88 199 864 0 -0.03522835
Link 89 199 865 0 1.91783253
Link 90 199 866 0 0.08559059
Link 91 199 867 0 0.02847061
Link 92 199 868 0 -0.36161596
Link 93 199 869 0 0.16570728
Link 94 199 870 0 0.42720770
Link 95 199 871 0 0.54363283
Link 96 199 872 0 -0.86138527
Link 97 199 873 0 0.24076793
Link 98 199 874 0 -0.41985392
Link 99 199 875 0 -0.29356692
Link 100 199 876 0 -0.12414755
Link 101 199 877 0 -0.96000077
Link 102 199 878 0 0.34814606
Link 103 199 879 0 0.25036750
Link 104 199 880 0 0.02147657
Link 105 199 881 0 -0.43066478
Link 106 199 882 0 -0.15311388
Link 107 199 883 0 0.14460656
Link 108 199 884 0 0.37498818
Link 109 199 885 0 0.22414960
Link 110 199 886 0 -0.42841480
Link 111 199 887 0 -0.39900679
Link 112 199 888 0 0.00240212
Link 113 199 889 0 1.29979275
Link 114 199 890 0 0.11127886
Link 115 199 891 0 0.12805035
Link 116 199 892 0 1.10438594
Link 117 199 893 0 -0.29430371
Link 118 199 894 0 0.75130374
Link 119 199 895 0 -0.11186104
Link 120 199 896 0 0.17251777
Link 121 199 897 0 0.55586066
Link 122 199 898 0 -0.13008858
Link 123 199 899 0 -0.13757124
Link 124 199 900 0 0.64159561
Link 125 199 901 0 -0.68658217
Link 126 199 902 0 0.83921942
Link 127 199 903 0 0.73977361
Link 128 199 904 0 -0.52366692
Link 129 199 905 0 -0.61078658
Link 130 199 906 0 -1.37940713
Link 131 199 907 0 -0.06506461
Link 132 199 908 0 -0.01831108
Link 133 199 909 0 1.02375998
Link 134 199 910 0 -1.20113682
Link 135 199 911 0 -0.09874776
Link 136 199 912 0 -0.12847474
Link 137 199 913 0 -0.06441089
Link 138 199 914 0 0.07775304
Link 139 199 915 0 -0.51322844
Link 140 199 916 0 0.15993612
Link 141 199 917 0 0.17655182
Link 142 199 918 0 -0.50832230
Link 143 199 919 0 0.14326598
Link 144 199 920 0 0.41947733
Link 145 199 921 0 0.43352002
Link 146 199 922 0 0.04875690
Link 147 199 923 0 0.65611550
Link 148 199 924 0 0.21661940
Link 149 199 925 0 0.15168565
Link 150 199 926 0 -0.38360643
Link 151 199 927 0 0.03229888
Link 152 199 928 0 0.21811948
Link 153 199 929 0 -0.41485154
Link 154 199 930 0 -0.16864874
Link 155 199 931 0 0.13236392
Link 156 199 932 0 0.57219951
Link 157 199 933 0 0.66898294
Link 158 199 934 0 0.42030477
Link 159 199 935 0 0.11530951
Link 160 199 936 0 -0.39066544
Link 161 199 937 0 0.05866061
Link 162 199 938 0 1.09457071
Link 163 199 939 0 0.46384392
Link 164 199 940 0 0.44033874
Link 165 199 941 0 -0.31130857
Link 166 199 942 0 -0.36438319
Link 167 199 943 0 -0.03647657
Link 168 199 944 0 -0.46285132
Link 169 199 945 0 0.89463975
Link 170 199 946 0 0.19011913
Link 171 199 947 0 0.61577356
Link 172 199 948 0 -0.94559774
Link 173 199 949 0 -0.85695452
Link 174 199 950 0 0.22565467
Link 175 199 951 0 -0.40726005
Link 176 199 952 0 -0.00764474
Link 177 199 953 0 -0.15948166
Link 178 199 954 0 1.15013020
Link 179 199 955 0 -0.68834603
Link 180 199 956 0 0.18935103
Link 181 199 957 0 -0.17367251
Link 182 199 958 0 -0.38313952
Link 183 199 959 0 -0.27018767
Link 184 199 960 0 -0.10696262
Link 185 199 961 0 -1.49271798
Link 186 199 962 0 -0.24491416
Link 187 199 963 0 -0.41614604
Link 188 199 964 0 0.06439746
Link 189 199 965 0 0.27490648
Link 190 199 966 0 -0.21383203
Link 191 199 967 0 0.65767024
Link 192 199 968 0 -0.48429731
Link 193 199 969 0 -0.19921078
Link 194 199 970 0 0.01691372
Link 1 200 971 0 -0.24238518
Link 2 200 972 0 0.38966397
Link 3 200 973 0 0.34629591
Link 4 200 974 0 -0.18960871
Link 5 200 975 0 -0.16464373
Link 6 200 976 0 0.06525988
Link 7 200 977 0 -1.35841337
Link 8 200 978 0 0.00526430
Link 9 200 979 0 -0.17086251
Link 10 200 980 0 0.55523887
Link 11 200 981 0 -0.33742802
Link 12 200 982 0 0.84352388
Link 13 200 983 0 -0.73737859
Link 14 200 984 0 -0.52864409
Link 15 200 985 0 -0.38829647
Link 16 200 986 0 0.60518571
Link 17 200 987 0 1.25606220
Link 18 200 988 0 -0.04757957
Link 19 200 989 0 0.24231537
Link 20 200 990 0 -0.94426935
Link 21 200 991 0 0.52294772
Link 22 200 992 0 0.28513432
Link 23 200 993 0 -0.34544266
Link 24 200 994 0 0.16073124
Link 25 200 995 0 -0.87412403
Link 26 200 996 0 0.57847342
Link 27 200 997 0 0.73202278
Link 28 200 998 0 -0.05423441
Link 29 200 999 0 0.44498770
Link 30 200 1000 0 -0.44980641
Link 31 200 1001 0 -0.51664962
Link 32 200 1002 0 -0.23053018
Link 33 200 1003 0 0.73279929
Link 34 200 1004 0 -0.51802135
Link 35 200 1005 0 0.65427781
Link 36 200 1006 0 -0.48925678
Link 37 200 1007 0 -2.08677825
Link 38 200 1008 0 0.75308919
Link 39 200 1009 0 -0.09244596
Link 40 200 1010 0 0.43280013
Link 41 200 1011 0 -1.04057323
Link 42 200 1012 0 0.11387006
Link 43 200 1013 0 0.58880679
Link 44 200 1014 0 -0.24497038
Link 45 200 1015 0 -0.88335053
Link 46 200 1016 0 -0.35147224
Link 47 200 1017 0 0.22061224
Link 48 200 1018 0 0.67855455
Link 49 200 1019 0 -0.18669977
Link 50 200 1020 0 -0.00322169
Link 51 200 1021 0 -0.07166101
Link 52 200 1022 0 -0.82316119
Link 53 200 1023 0 -0.56354493
Link 54 200 1024 0 -0.35229549
Link 55 200 1025 0 -0.44549459
Link 56 200 1026 0 0.16612638
Link 57 200 1027 0 -0.07857200
Link 58 200 1028 0 0.58145176
Link 59 200 1029 0 -0.37908615
Link 60 200 1030 0 -0.10637834
Link 61 200 1031 0 -0.64481095
Link 62 200 1032 0 0.51196184
Link 63 200 1033 0 0.05131592
Link 64 200 1034 0 -0.28375770
Link 65 200 1035 0 0.37071895
Link 66 200 1036 0 -0.20573905
Link 67 200 1037 0 0.84598675
Link 68 200 1038 0 -0.96585124
Link 69 200 1039 0 -0.74554272
Link 70 200 1040 0 0.20564267
Link 71 200 1041 0 0.29173515
Link 72 200 1042 0 0.27495442
Link 73 200 1043 0 -0.32028274
Link 74 200 1044 0 0.27020087
Link 75 200 1045 0 1.15499722
Link 76 200 1046 0 -0.54059646
Link 77 200 1047 0 -0.04033100
Link 78 200 1048 0 -0.28514410
Link 79 200 1049 0 0.34209504
Link 80 200 1050 0 -0.67414198
Link 81 200 1051 0 0.56381922
Link 82 200 1052 0 -0.00665635
Link 83 200 1053 0 0.47662103
Link 84 200 1054 0 1.07084351
Link 85 200 1055 0 -0.41826824
Link 86 200 1056 0 -0.14819659
Link 87 200 1057 0 0.06120017
Link 88 200 1058 0 -0.04217460
Link 89 200 1059 0 -0.08604897
Link 90 200 1060 0 1.72095942
Link 91 200 1061 0 -0.38853125
Link 92 200 1062 0 -0.38379435
Link 93 200 1063 0 0.08437165
Link 94 200 1064 0 -0.74017521
Link 95 200 1065 0 0.16894212
Link 96 200 1066 0 1.26103846
Link 97 200 1067 0 0.60195985
Link 98 200 1068 0 -0.08534205
Link 99 200 1069 0 -0.60831880
Link 100 200 1070 0 -0.00658630
Link 101 200 1071 0 -0.27885443
Link 102 200 1072 0 1.34771491
Link 103 200 1073 0 0.95963957
Link 104 200 1074 0 -0.51558655
Link 105 200 1075 0 1.44478392
Link 106 200 1076 0 0.82715562
Link 107 200 1077 0 -0.12278356
Link 108 200 1078 0 -1.35650823
Link 109 200 1079 0 0.00805011
Link 110 200 1080 0 0.02586977
Link 111 200 1081 0 -0.24603971
Link 112 200 1082 0 -0.16384020
Link 113 200 1083 0 0.82122334
Link 114 200 1084 0 -0.62009608
Link 115 200 1085 0 -0.18580463
Link 116 200 1086 0 0.32217317
Link 117 200 1087 0 0.17529657
Link 118 200 1088 0 0.99878028
Link 119 200 1089 0 1.09877429
Link 120 200 1090 0 0.33636210
Link 121 200 1091 0 -0.63911716
Link 122 200 1092 0 0.10968065
Link 123 200 1093 0 0.06890908
Link 124 200 1094 0 -0.53773759
Link 125 200 1095 0 -0.04572472
Link 126 200 1096 0 -0.84014794
Link 127 200 1097 0 0.86255967
Link 128 200 1098 0 0.10541365
Link 129 200 1099 0 0.14281536
Link 130 200 1100 0 0.16583364
Link 131 200 1101 0 0.22587647
Link 132 200 1102 0 0.33485107
Link 133 200 1103 0 -0.61389437
Link 134 200 1104 0 0.13989330
Link 135 200 1105 0 0.14037769
Link 136 200 1106 0 -0.03388095
Link 137 200 1107 0 -0.40485619
Link 138 200 1108 0 0.41140910
Link 139 200 1109 0 0.76001482
Link 140 200 1110 0 0.75129076
Link 141 200 1111 0 -0.48899199
Link 142 200 1112 0 0.77796473
Link 143 200 1113 0 1.47466019
Link 144 200 1114 0 0.77234563
Link 145 200 1115 0 -0.83597608
Link 146 200 1116 0 0.01170178
Link 147 200 1117 0 -0.44240289
Link 148 200 1118 0 -0.63862207
Link 149 200 1119 0 -0.64638944
Link 150 200 1120 0 0.24526878
Link 151 200 1121 0 0.23616860
Link 152 200 1122 0 0.09542927
Link 153 200 1123 0 -0.57787443
Link 154 200 1124 0 0.64036808
Link 155 200 1125 0 0.93093292
Link 156 200 1126 0 -0.25113996
Link 157 200 1127 0 0.53430222
Link 158 200 1128 0 -1.55889618
Link 159 200 1129 0 0.36730249
Link 160 200 1130 0 1.16719617
Link 161 200 1131 0 -0.92655231
Link 162 200 1132 0 -0.22814764
Link 163 200 1133 0 1.45362125
Link 164 200 1134 0 0.15023232
Link 165 200 1135 0 -0.33775916
Link 166 200 1136 0 0.00974335
Link 167 200 1137 0 -0.22784899
Link 168 200 1138 0 0.35943224
Link 169 200 1139 0 -0.69226298
Link 170 200 1140 0 -0.22353929
Link 171 200 1141 0 -0.60878671
Link 172 200 1142 0 -0.55577446
Link 173 200 1143 0 -0.52276154
Link 174 200 1144 0 0.09446527
Link 175 200 1145 0 -0.24062881
Link 176 200 1146 0 -0.04164023
Link 177 200 1147 0 -0.41101482
Link 178 200 1148 0 -0.38853891
Link 179 200 1149 0 0.49537178
Link 180 200 1150 0 0.92542051
Link 181 200 1151 0 -0.36154472
Link 182 200 1152 0 0.03511480
Link 183 200 1153 0 0.70778737
Link 184 200 1154 0 0.41459230
Link 185 200 1155 0 -0.27603018
Link 186 200 1156 0 0.04302805
Link 187 200 1157 0 -0.05751902
Link 188 200 1158 0 -0.71336835
Link 189 200 1159 0 -0.30739374
Link 190 200 1160 0 -0.77701829
Link 191 200 1161 0 0.96455008
Link 192 200 1162 0 0.23254905
Link 193 200 1163 0 0.48647685
Link 194 200 1164 0 -0.63036870
Link 1 201 1165 0 0.33973406
Link 2 201 1166 0 -0.16580758
Link 3 201 1167 0 -0.51386958
Link 4 201 1168 0 0.29231653
Link 5 201 1169 0 0.27696462
Link 6 201 1170 0 0.01717551
Link 7 201 1171 0 -0.56880632
Link 8 201 1172 0 -0.19583058
Link 9 201 1173 0 0.07240986
Link 10 201 1174 0 -1.32855743
Link 11 201 1175 0 -0.36998511
Link 12 201 1176 0 -0.63417908
Link 13 201 1177 0 0.35088443
Link 14 201 1178 0 0.07776289
Link 15 201 1179 0 0.52744628
Link 16 201 1180 0 0.18510030
Link 17 201 1181 0 -0.80167179
Link 18 201 1182 0 0.04005128
Link 19 201 1183 0 -0.09022108
Link 20 201 1184 0 -0.34959678
Link 21 201 1185 0 -0.22301241
Link 22 201 1186 0 -0.66729541
Link 23 201 1187 0 -0.03364431
Link 24 201 1188 0 0.10181367
Link 25 201 1189 0 0.05512557
Link 26 201 1190 0 -0.37092779
Link 27 201 1191 0 0.35061157
Link 28 201 1192 0 0.96164813
Link 29 201 1193 0 -0.05698807
Link 30 201 1194 0 -0.77780003
Link 31 201 1195 0 -0.23024805
Link 32 201 1196 0 -0.01484570
Link 33 201 1197 0 0.38384054
Link 34 201 1198 0 0.28458158
Link 35 201 1199 0 0.93928292
Link 36 201 1200 0 0.33851397
Link 37 201 1201 0 0.28462152
Link 38 201 1202 0 -0.17221685
Link 39 201 1203 0 0.60950550
Link 40 201 1204 0 -1.47371343
Link 41 201 1205 0 0.01033407
Link 42 201 1206 0 -0.01298473
Link 43 201 1207 0 0.59751757
Link 44 201 1208 0 -1.42485559
Link 45 201 1209 0 0.08653725
Link 46 201 1210 0 -0.00949672
Link 47 201 1211 0 -0.83168817
Link 48 201 1212 0 0.58473707
Link 49 201 1213 0 -0.18076870
Link 50 201 1214 0 -0.21651811
Link 51 201 1215 0 -0.40682961
Link 52 201 1216 0 1.06965779
Link 53 201 1217 0 0.62433208
Link 54 201 1218 0 0.93645950
Link 55 201 1219 0 -0.27381621
Link 56 201 1220 0 0.47715766
Link 57 201 1221 0 0.19540856
Link 58 201 1222 0 0.56601413
Link 59 201 1223 0 0.56133693
Link 60 201 1224 0 -0.05665357
Link 61 201 1225 0 0.51349346
Link 62 201 1226 0 -1.27958219
Link 63 201 1227 0 -0.02598005
Link 64 201 1228 0 0.05436792
Link 65 201 1229 0 0.47234449
Link 66 201 1230 0 0.31535441
Link 67 201 1231 0 -0.26872044
Link 68 201 1232 0 -0.61522295
Link 69 201 1233 0 -0.03283647
Link 70 201 1234 0 -0.18023186
Link 71 201 1235 0 -0.32920473
Link 72 201 1236 0 -0.24426803
Link 73 201 1237 0 -0.13862395
Link 74 201 1238 0 -0.37741043
Link 75 201 1239 0 -0.02943961
Link 76 201 1240 0 0.69675751
Link 77 201 1241 0 0.34347729
Link 78 201 1242 0 -0.18099011
Link 79 201 1243 0 -0.57498285
Link 80 201 1244 0 0.70601700
Link 81 201 1245 0 0.26527593
Link 82 201 1246 0 0.97286303
Link 83 201 1247 0 0.11055695
Link 84 201 1248 0 0.17454543
Link 85 201 1249 0 -0.18194099
Link 86 201 1250 0 -0.03952153
Link 87 201 1251 0 0.04010002
Link 88 201 1252 0 -0.41361243
Link 89 201 1253 0 -0.34863872
Link 90 201 1254 0 -0.21240284
Link 91 201 1255 0 -0.31335095
Link 92 201 1256 0 0.30702901
Link 93 201 1257 0 -0.36186256
Link 94 201 1258 0 -0.37417755
Link 95 201 1259 0 -0.21288455
Link 96 201 1260 0 -0.43426642
Link 97 201 1261 0 -0.55603678
Link 98 201 1262 0 0.74585775
Link 99 201 1263 0 -0.63683149
Link 100 201 1264 0 1.14225828
Link 101 201 1265 0 0.21465093
Link 102 201 1266 0 0.50645021
Link 103 201 1267 0 0.53093173
Link 104 201 1268 0 -0.65725143
Link 105 201 1269 0 -0.54775648
Link 106 201 1270 0 0.34630484
Link 107 201 1271 0 0.77408519
Link 108 201 1272 0 0.91076859
Link 109 201 1273 0 0.39559356
Link 110 201 1274 0 -0.39640987
Link 111 201 1275 0 -0.28074971
Link 112 201 1276 0 -0.36332177
Link 113 201 1277 0 -0.67124407
Link 114 201 1278 0 0.23250129
Link 115 201 1279 0 0.07791556
Link 116 201 1280 0 0.05140261
Link 117 201 1281 0 -0.38098480
Link 118 201 1282 0 -0.22514368
Link 119 201 1283 0 0.53931199
Link 120 201 1284 0 0.03989190
Link 121 201 1285 0 -0.05589512
Link 122 201 1286 0 -0.26599707
Link 123 201 1287 0 0.75273270
Link 124 201 1288 0 -1.76080108
Link 125 201 1289 0 -0.96318727
Link 126 201 1290 0 -0.03941187
Link 127 201 1291 0 -0.05839263
Link 128 201 1292 0 0.44785635
Link 129 201 1293 0 -0.44184682
Link 130 201 1294 0 -0.44009697
Link 131 201 1295 0 -1.31859269
Link 132 201 1296 0 0.29570735
Link 133 201 1297 0 -0.41819069
Link 134 201 1298 0 -0.70274330
Link 135 201 1299 0 0.29842548
Link 136 201 1300 0 -0.24798953
Link 137 201 1301 0 -0.82562195
Link 138 201 1302 0 -0.90970131
Link 139 201 1303 0 -0.29564570
Link 140 201 1304 0 -0.16694042
Link 141 201 1305 0 0.33837163
Link 142 201 1306 0 -0.38591875
Link 143 201 1307 0 -1.18090395
Link 144 201 1308 0 0.19915532
Link 145 201 1309 0 0.17385222
Link 146 201 1310 0 0.57336916
Link 147 201 1311 0 -1.65501252
Link 148 201 1312 0 -0.65511037
Link 149 201 1313 0 0.41712539
Link 150 201 1314 0 -0.76630429
Link 151 201 1315 0 -0.19097785
Link 152 201 1316 0 -0.41018930
Link 153 201 1317 0 -0.18392660
Link 154 201 1318 0 0.02706231
Link 155 201 1319 0 0.28165221
Link 156 201 1320 0 -0.13989265
Link 157 201 1321 0 -0.18460951
Link 158 201 1322 0 0.17147936
Link 159 201 1323 0 0.24103189
Link 160 201 1324 0 0.23162615
Link 161 201 1325 0 0.71695900
Link 162 201 1326 0 -0.27341156
Link 163 201 1327 0 0.35465386
Link 164 201 1328 0 0.58718797
Link 165 201 1329 0 -0.53668947
Link 166 201 1330 0 0.77725501
Link 167 201 1331 0 1.31520607
Link 168 201 1332 0 0.85957027
Link 169 201 1333 0 -0.48078669
Link 170 201 1334 0 0.71886245
Link 171 201 1335 0 -0.34736874
Link 172 201 1336 0 0.03123646
Link 173 201 1337 0 -0.33068630
Link 174 201 1338 0 1.16918542
Link 175 201 1339 0 0.18466609
Link 176 201 1340 0 0.21753203
Link 177 201 1341 0 -0.04865987
Link 178 201 1342 0 -0.48691103
Link 179 201 1343 0 0.88029775
Link 180 201 1344 0 0.06675437
Link 181 201 1345 0 0.54864546
Link 182 201 1346 0 1.16525407
Link 183 201 1347 0 -0.16782427
Link 184 201 1348 0 -0.20329695
Link 185 201 1349 0 0.23380488
Link 186 201 1350 0 0.36270716
Link 187 201 1351 0 0.14863897
Link 188 201 1352 0 0.31871876
Link 189 201 1353 0 0.03305095
Link 190 201 1354 0 0.29068987
Link 191 201 1355 0 0.01080409
Link 192 201 1356 0 0.27104785
Link 193 201 1357 0 0.11036217
Link 194 201 1358 0 -1.09284695
Link 1 202 1359 0 -0.49642811
Link 2 202 1360 0 -0.31284090
Link 3 202 1361 0 -1.55718664
Link 4 202 1362 0 0.63560667
Link 5 202 1363 0 0.39290176
Link 6 202 1364 0 0.27384121
Link 7 202 1365 0 -0.78960893
Link 8 202 1366 0 0.23157360
Link 9 202 1367 0 0.30907825
Link 10 202 1368 0 0.24561249
Link 11 202 1369 0 0.02677505
Link 12 202 1370 0 0.17907855
Link 13 202 1371 0 -0.00750034
Link 14 202 1372 0 -0.86866585
Link 15 202 1373 0 -0.84972896
Link 16 202 1374 0 -0.19319520
Link 17 202 1375 0 0.37988715
Link 18 202 1376 0 0.17498390
Link 19 202 1377 0 0.11765464
Link 20 202 1378 0 1.11899138
Link 21 202 1379 0 0.39181683
Link 22 202 1380 0 -0.44798122
Link 23 202 1381 0 -0.58231086
Link 24 202 1382 0 -0.59269573
Link 25 202 1383 0 0.28107560
Link 26 202 1384 0 0.10206983
Link 27 202 1385 0 0.10140903
Link 28 202 1386 0 0.42384999
Link 29 202 1387 0 0.10768767
Link 30 202 1388 0 0.49674895
Link 31 202 1389 0 1.09640429
Link 32 202 1390 0 0.23215471
Link 33 202 1391 0 0.03908537
Link 34 202 1392 0 -1.00412858
Link 35 202 1393 0 0.24348401
Link 36 202 1394 0 -0.16973500
Link 37 202 1395 0 -0.39747890
Link 38 202 1396 0 -0.04162585
Link 39 202 1397 0 -1.00656014
Link 40 202 1398 0 0.18391128
Link 41 202 1399 0 -0.56363408
Link 42 202 1400 0 -0.06933349
Link 43 202 1401 0 0.14031685
Link 44 202 1402 0 -0.79063813
Link 45 202 1403 0 -0.48110882
Link 46 202 1404 0 -1.14110677
Link 47 202 1405 0 0.28623376
Link 48 202 1406 0 0.56212219
Link 49 202 1407 0 -0.59666437
Link 50 202 1408 0 0.02626964
Link 51 202 1409 0 0.24036013
Link 52 202 1410 0 -0.55436098
Link 53 202 1411 0 0.97389044
Link 54 202 1412 0 0.26670323
Link 55 202 1413 0 0.26225586
Link 56 202 1414 0 0.28953288
Link 57 202 1415 0 0.12883352
Link 58 202 1416 0 -0.48998633
Link 59 202 1417 0 -0.34943779
Link 60 202 1418 0 0.24501698
Link 61 202 1419 0 0.04875767
Link 62 202 1420 0 -0.18943255
Link 63 202 1421 0 -0.57278048
Link 64 202 1422 0 0.55292372
Link 65 202 1423 0 -1.26324778
Link 66 202 1424 0 0.14844057
Link 67 202 1425 0 -0.36098859
Link 68 202 1426 0 0.00313535
Link 69 202 1427 0 0.53058706
Link 70 202 1428 0 0.92239108
Link 71 202 1429 0 -0.50865025
Link 72 202 1430 0 -0.58651224
Link 73 202 1431 0 0.17660237
Link 74 202 1432 0 -0.07240712
Link 75 202 1433 0 -0.07582999
Link 76 202 1434 0 -0.44760113
Link 77 202 1435 0 0.12843296
Link 78 202 1436 0 0.87968017
Link 79 202 1437 0 0.23245612
Link 80 202 1438 0 -0.21317175
Link 81 202 1439 0 0.27536282
Link 82 202 1440 0 0.59877339
Link 83 202 1441 0 0.37097197
Link 84 202 1442 0 -0.30248827
Link 85 202 1443 0 -0.34772931
Link 86 202 1444 0 0.18137315
Link 87 202 1445 0 -0.09096357
Link 88 202 1446 0 0.14357365
Link 89 202 1447 0 -0.07309113
Link 90 202 1448 0 -1.23393300
Link 91 202 1449 0 -0.29579291
Link 92 202 1450 0 0.01194262
Link 93 202 1451 0 0.61877383
Link 94 202 1452 0 -0.81595374
Link 95 202 1453 0 0.67720295
Link 96 202 1454 0 0.23350777
Link 97 202 1455 0 -0.38025440
Link 98 202 1456 0 -0.55574157
Link 99 202 1457 0 -0.19925241
Link 100 202 1458 0 0.24782236
Link 101 202 1459 0 0.29331142
Link 102 202 1460 0 -0.49029306
Link 103 202 1461 0 0.54536236
Link 104 202 1462 0 0.14545673
Link 105 202 1463 0 -0.54886281
Link 106 202 1464 0 -0.32582378
Link 107 202 1465 0 -0.81615184
Link 108 202 1466 0 -0.27831882
Link 109 202 1467 0 0.24356788
Link 110 202 1468 0 0.25560086
Link 111 202 1469 0 -0.27102108
Link 112 202 1470 0 0.07721703
Link 113 202 1471 0 -0.60303098
Link 114 202 1472 0 0.12514110
Link 115 202 1473 0 -0.40726751
Link 116 202 1474 0 -0.07039337
Link 117 202 1475 0 0.51063733
Link 118 202 1476 0 -0.44624800
Link 119 202 1477 0 -0.72607335
Link 120 202 1478 0 -0.16488478
Link 121 202 1479 0 0.02176840
Link 122 202 1480 0 -0.19865781
Link 123 202 1481 0 -0.75582562
Link 124 202 1482 0 0.47462170
Link 125 202 1483 0 0.10557870
Link 126 202 1484 0 0.34806258
Link 127 202 1485 0 -0.24950505
Link 128 202 1486 0 -0.41017367
Link 129 202 1487 0 -1.11987391
Link 130 202 1488 0 -0.11024889
Link 131 202 1489 0 -1.19050085
Link 132 202 1490 0 -0.41306085
Link 133 202 1491 0 0.30472579
Link 134 202 1492 0 0.67709609
Link 135 202 1493 0 0.04656117
Link 136 202 1494 0 0.47799176
Link 137 202 1495 0 0.24636469
Link 138 202 1496 0 -0.59924569
Link 139 202 1497 0 -0.16278101
Link 140 202 1498 0 0.41174415
Link 141 202 1499 0 -0.08428584
Link 142 202 1500 0 0.56905838
Link 143 202 1501 0 -0.17749055
Link 144 202 1502 0 0.50075498
Link 145 202 1503 0 -0.02302342
Link 146 202 1504 0 0.51969438
Link 147 202 1505 0 0.08557195
Link 148 202 1506 0 0.17139199
Link 149 202 1507 0 -0.06969692
Link 150 202 1508 0 -0.60391452
Link 151 202 1509 0 -0.44844815
Link 152 202 1510 0 -0.62251006
Link 153 202 1511 0 0.04943688
Link 154 202 1512 0 -0.64888850
Link 155 202 1513 0 0.30115417
Link 156 202 1514 0 -0.44728085
Link 157 202 1515 0 0.55954043
Link 158 202 1516 0 0.04399144
Link 159 202 1517 0 -0.87635118
Link 160 202 1518 0 0.57093830
Link 161 202 1519 0 -1.66433322
Link 162 202 1520 0 -0.46477028
Link 163 202 1521 0 -0.07146956
Link 164 202 1522 0 -0.36662917
Link 165 202 1523 0 -0.48110483
Link 166 202 1524 0 -0.25585361
Link 167 202 1525 0 0.24355200
Link 168 202 1526 0 1.30594115
Link 169 202 1527 0 -0.27814255
Link 170 202 1528 0 0.04193806
Link 171 202 1529 0 -0.51941453
Link 172 202 1530 0 0.65847620
Link 173 202 1531 0 0.01167238
Link 174 202 1532 0 -0.01551285
Link 175 202 1533 0 -0.17317180
Link 176 202 1534 0 0.71400123
Link 177 202 1535 0 -0.01077270
Link 178 202 1536 0 1.09760494
Link 179 202 1537 0 -0.69520977
Link 180 202 1538 0 0.12475242
Link 181 202 1539 0 0.61582791
Link 182 202 1540 0 -1.02505973
Link 183 202 1541 0 -0.10186799
Link 184 202 1542 0 0.02441177
Link 185 202 1543 0 0.18874856
Link 186 202 1544 0 -0.38613879
Link 187 202 1545 0 -0.50602352
Link 188 202 1546 0 0.16291613
Link 189 202 1547 0 -1.55687422
Link 190 202 1548 0 0.03954200
Link 191 202 1549 0 0.85639101
Link 192 202 1550 0 -0.41063939
Link 193 202 1551 0 -0.47873090
Link 194 202 1552 0 -0.81198156
Link 1 203 1553 0 -1.31824512
Link 2 203 1554 0 -0.07894725
Link 3 203 1555 0 0.16484844
Link 4 203 1556 0 1.22585961
Link 5 203 1557 0 -0.16095200
Link 6 203 1558 0 0.01927924
Link 7 203 1559 0 -0.77388250
Link 8 203 1560 0 -0.26706288
Link 9 203 1561 0 0.07285293
Link 10 203 1562 0 0.20258884
Link 11 203 1563 0 0.83974362
Link 12 203 1564 0 -1.18870677
Link 13 203 1565 0 0.23458633
Link 14 203 1566 0 -0.61732644
Link 15 203 1567 0 -0.29207169
Link 16 203 1568 0 -0.01933853
Link 17 203 1569 0 0.23165860
Link 18 203 1570 0 -0.14227095
Link 19 203 1571 0 0.28997656
Link 20 203 1572 0 -0.00012721
Link 21 203 1573 0 -1.46165272
Link 22 203 1574 0 0.16586535
Link 23 203 1575 0 0.54154030
Link 24 203 1576 0 -0.00764852
Link 25 203 1577 0 1.03676822
Link 26 203 1578 0 -1.07053613
Link 27 203 1579 0 -0.00152904
Link 28 203 1580 0 0.69221751
Link 29 203 1581 0 -0.51972080
Link 30 203 1582 0 -0.53547901
Link 31 203 1583 0 0.78627453
Link 32 203 1584 0 -0.18822210
Link 33 203 1585 0 0.48040002
Link 34 203 1586 0 0.22758015
Link 35 203 1587 0 0.47948252
Link 36 203 1588 0 -0.76482365
Link 37 203 1589 0 0.58570702
Link 38 203 1590 0 0.66038413
Link 39 203 1591 0 0.05085496
Link 40 203 1592 0 -0.83010662
Link 41 203 1593 0 0.65619508
Link 42 203 1594 0 -0.71253462
Link 43 203 1595 0 0.81431733
Link 44 203 1596 0 0.94368367
Link 45 203 1597 0 0.41788106
Link 46 203 1598 0 0.67743648
Link 47 203 1599 0 0.75621830
Link 48 203 1600 0 0.73471634
Link 49 203 1601 0 1.14792503
Link 50 203 1602 0 0.08730068
Link 51 203 1603 0 -0.28154525
Link 52 203 1604 0 -0.38996049
Link 53 203 1605 0 0.54601901
Link 54 203 1606 0 -0.12446391
Link 55 203 1607 0 0.26755357
Link 56 203 1608 0 -0.46195254
Link 57 203 1609 0 1.63246272
Link 58 203 1610 0 -0.20203400
Link 59 203 1611 0 0.30283747
Link 60 203 1612 0 0.10251180
Link 61 203 1613 0 -0.24503387
Link 62 203 1614 0 0.44196210
Link 63 203 1615 0 -0.37288158
Link 64 203 1616 0 0.31565457
Link 65 203 1617 0 0.54316344
Link 66 203 1618 0 -0.04151766
Link 67 203 1619 0 -0.59879209
Link 68 203 1620 0 0.60124283
Link 69 203 1621 0 -0.22679838
Link 70 203 1622 0 0.33428940
Link 71 203 1623 0 0.05675681
Link 72 203 1624 0 -0.29346435
Link 73 203 1625 0 -0.06162278
Link 74 203 1626 0 -0.43884172
Link 75 203 1627 0 0.35406535
Link 76 203 1628 0 -0.12584798
Link 77 203 1629 0 -0.91502820
Link 78 203 1630 0 -0.38470901
Link 79 203 1631 0 0.05083296
Link 80 203 1632 0 -0.06735626
Link 81 203 1633 0 0.36883354
Link 82 203 1634 0 0.76132304
Link 83 203 1635 0 0.53099501
Link 84 203 1636 0 0.20597309
Link 85 203 1637 0 0.27938917
Link 86 203 1638 0 -0.16153068
Link 87 203 1639 0 0.50563065
Link 88 203 1640 0 -0.34808331
Link 89 203 1641 0 -0.28977527
Link 90 203 1642 0 -0.16747035
Link 91 203 1643 0 -0.60526646
Link 92 203 1644 0 0.22716240
Link 93 203 1645 0 0.56138722
Link 94 203 1646 0 0.37991246
Link 95 203 1647 0 0.30043655
Link 96 203 1648 0 0.81620907
Link 97 203 1649 0 0.33504749
Link 98 203 1650 0 0.59766465
Link 99 203 1651 0 0.46915938
Link 100 203 1652 0 1.53420715
Link 101 203 1653 0 -0.55182157
Link 102 203 1654 0 1.35604967
Link 103 203 1655 0 0.01596849
Link 104 203 1656 0 -1.30430611
Link 105 203 1657 0 -0.15923529
Link 106 203 1658 0 0.09942963
Link 107 203 1659 0 -0.09670616
Link 108 203 1660 0 -0.40639226
Link 109 203 1661 0 -1.20362868
Link 110 203 1662 0 0.25019608
Link 111 203 1663 0 -0.28839160
Link 112 203 1664 0 -0.15097977
Link 113 203 1665 0 -0.13234600
Link 114 203 1666 0 -0.11421575
Link 115 203 1667 0 0.87482800
Link 116 203 1668 0 0.00332081
Link 117 203 1669 0 0.01556392
Link 118 203 1670 0 0.66564994
Link 119 203 1671 0 -0.32057983
Link 120 203 1672 0 0.25201830
Link 121 203 1673 0 -0.11978972
Link 122 203 1674 0 -0.02512795
Link 123 203 1675 0 -0.16634232
Link 124 203 1676 0 -0.12298089
Link 125 203 1677 0 -0.17338463
Link 126 203 1678 0 0.60300336
Link 127 203 1679 0 0.19168306
Link 128 203 1680 0 0.15840908
Link 129 203 1681 0 -0.29770639
Link 130 203 1682 0 0.55929455
Link 131 203 1683 0 0.38506982
Link 132 203 1684 0 -0.64156425
Link 133 203 1685 0 0.14589392
Link 134 203 1686 0 -0.18706881
Link 135 203 1687 0 0.41012632
Link 136 203 1688 0 0.46149327
Link 137 203 1689 0 -0.13834856
Link 138 203 1690 0 -1.24963932
Link 139 203 1691 0 0.13275670
Link 140 203 1692 0 1.05711733
Link 141 203 1693 0 0.19417570
Link 142 203 1694 0 0.58280447
Link 143 203 1695 0 -0.15034448
Link 144 203 1696 0 0.11514309
Link 145 203 1697 0 -0.41279650
Link 146 203 1698 0 -0.06307389
Link 147 203 1699 0 -0.41953746
Link 148 203 1700 0 0.26960046
Link 149 203 1701 0 -0.51729546
Link 150 203 1702 0 -0.81155767
Link 151 203 1703 0 0.37515108
Link 152 203 1704 0 0.24757689
Link 153 203 1705 0 -0.74005295
Link 154 203 1706 0 0.31627558
Link 155 203 1707 0 -0.21469532
Link 156 203 1708 0 -0.61714541
Link 157 203 1709 0 -0.80034790
Link 158 203 1710 0 0.41352894
Link 159 203 1711 0 -0.28453139
Link 160 203 1712 0 -0.50833338
Link 161 203 1713 0 -0.98347060
Link 162 203 1714 0 -0.07577791
Link 163 203 1715 0 -0.19116240
Link 164 203 1716 0 -0.41231376
Link 165 203 1717 0 0.48967175
Link 166 203 1718 0 -0.11958761
Link 167 203 1719 0 -0.96205371
Link 168 203 1720 0 0.08394550
Link 169 203 1721 0 -0.03528288
Link 170 203 1722 0 -0.11784860
Link 171 203 1723 0 1.37342036
Link 172 203 1724 0 -0.14303426
Link 173 203 1725 0 0.52557773
Link 174 203 1726 0 -0.21888362
Link 175 203 1727 0 0.08674668
Link 176 203 1728 0 -0.05939973
Link 177 203 1729 0 0.20368637
Link 178 203 1730 0 0.38074523
Link 179 203 1731 0 -0.32244993
Link 180 203 1732 0 0.08745141
Link 181 203 1733 0 -0.08443570
Link 182 203 1734 0 -0.06499800
Link 183 203 1735 0 0.09864084
Link 184 203 1736 0 -0.26870135
Link 185 203 1737 0 -0.42707817
Link 186 203 1738 0 0.08071610
Link 187 203 1739 0 0.56177005
Link 188 203 1740 0 -0.19549830
Link 189 203 1741 0 0.37923972
Link 190 203 1742 0 -0.34061603
Link 191 203 1743 0 0.22415913
Link 192 203 1744 0 -1.09599755
Link 193 203 1745 0 -0.05125053
Link 194 203 1746 0 0.47605615
Link 1 204 1747 0 -0.48889573
Link 2 204 1748 0 -2.76842983
Link 3 204 1749 0 -0.32201956
Link 4 204 1750 0 -0.99726006
Link 5 204 1751 0 -0.10342936
Link 6 204 1752 0 -0.30222963
Link 7 204 1753 0 0.45304180
Link 8 204 1754 0 0.67430816
Link 9 204 1755 0 -0.10129204
Link 10 204 1756 0 -0.42797969
Link 11 204 1757 0 0.16204799
Link 12 204 1758 0 0.01954594
Link 13 204 1759 0 0.46830116
Link 14 204 1760 0 0.01476726
Link 15 204 1761 0 -2.20541903
Link 16 204 1762 0 -0.42093970
Link 17 204 1763 0 -0.13799145
Link 18 204 1764 0 -0.15210809
Link 19 204 1765 0 -0.44729232
Link 20 204 1766 0 0.30399868
Link 21 204 1767 0 -0.33177523
Link 22 204 1768 0 -0.06549335
Link 23 204 1769 0 -0.46402220
Link 24 204 1770 0 -0.14068291
Link 25 204 1771 0 0.10123184
Link 26 204 1772 0 0.41159309
Link 27 204 1773 0 -0.44753581
Link 28 204 1774 0 0.46657767
Link 29 204 1775 0 -0.26755005
Link 30 204 1776 0 0.21972359
Link 31 204 1777 0 -0.12593629
Link 32 204 1778 0 0.01812072
Link 33 204 1779 0 -0.31861504
Link 34 204 1780 0 0.17942936
Link 35 204 1781 0 -0.25057526
Link 36 204 1782 0 0.22762280
Link 37 204 1783 0 0.52052224
Link 38 204 1784 0 -0.17863747
Link 39 204 1785 0 0.96330404
Link 40 204 1786 0 -0.00366267
Link 41 204 1787 0 -0.04788247
Link 42 204 1788 0 -0.52871190
Link 43 204 1789 0 0.21799485
Link 44 204 1790 0 0.16473693
Link 45 204 1791 0 -0.05086753
Link 46 204 1792 0 -0.06969944
Link 47 204 1793 0 0.60066159
Link 48 204 1794 0 -0.04998305
Link 49 204 1795 0 -0.73280170
Link 50 204 1796 0 0.18079588
Link 51 204 1797 0 0.49196687
Link 52 204 1798 0 -0.10282267
Link 53 204 1799 0 0.30582755
Link 54 204 1800 0 0.42342449
Link 55 204 1801 0 0.09878781
Link 56 204 1802 0 0.06897793
Link 57 204 1803 0 0.29628098
Link 58 204 1804 0 -0.11668101
Link 59 204 1805 0 0.36641628
Link 60 204 1806 0 0.48854072
Link 61 204 1807 0 -0.51384868
Link 62 204 1808 0 0.93017996
Link 63 204 1809 0 0.64912100
Link 64 204 1810 0 0.45991531
Link 65 204 1811 0 -0.04015540
Link 66 204 1812 0 -0.26513948
Link 67 204 1813 0 0.01436591
Link 68 204 1814 0 -0.15326813
Link 69 204 1815 0 0.87557314
Link 70 204 1816 0 -0.29719921
Link 71 204 1817 0 -0.17203716
Link 72 204 1818 0 0.32165203
Link 73 204 1819 0 -1.52284486
Link 74 204 1820 0 -0.17623356
Link 75 204 1821 0 0.57911838
Link 76 204 1822 0 -0.35318383
Link 77 204 1823 0 -0.65751939
Link 78 204 1824 0 0.43810937
Link 79 204 1825 0 -0.26456512
Link 80 204 1826 0 -0.09110879
Link 81 204 1827 0 -0.82532875
Link 82 204 1828 0 -0.16159466
Link 83 204 1829 0 0.11425106
Link 84 204 1830 0 0.81419054
Link 85 204 1831 0 -0.03466957
Link 86 204 1832 0 0.05191413
Link 87 204 1833 0 0.80366014
Link 88 204 1834 0 0.12001182
Link 89 204 1835 0 -0.46467874
Link 90 204 1836 0 0.42185866
Link 91 204 1837 0 -0.37356375
Link 92 204 1838 0 -0.06082443
Link 93 204 1839 0 -0.81740678
Link 94 204 1840 0 0.99511380
Link 95 204 1841 0 -0.52408043
Link 96 204 1842 0 0.35198811
Link 97 204 1843 0 -0.25425276
Link 98 204 1844 0 -0.13292100
Link 99 204 1845 0 1.09260073
Link 100 204 1846 0 -1.03779717
Link 101 204 1847 0 -0.10702713
Link 102 204 1848 0 0.06114534
Link 103 204 1849 0 -0.52338096
Link 104 204 1850 0 0.21471581
Link 105 204 1851 0 0.46067666
Link 106 204 1852 0 -0.71540434
Link 107 204 1853 0 -0.74482361
Link 108 204 1854 0 0.13702834
Link 109 204 1855 0 -0.77332118
Link 110 204 1856 0 -0.08082700
Link 111 204 1857 0 -0.05150404
Link 112 204 1858 0 0.31685458
Link 113 204 1859 0 0.17917809
Link 114 204 1860 0 -0.16558114
Link 115 204 1861 0 -0.07037996
Link 116 204 1862 0 0.07576752
Link 117 204 1863 0 0.08602096
Link 118 204 1864 0 -1.22126491
Link 119 204 1865 0 -0.54275163
Link 120 204 1866 0 -0.53373150
Link 121 204 1867 0 -0.28712557
Link 122 204 1868 0 0.56631355
Link 123 204 1869 0 -0.25710233
Link 124 204 1870 0 -0.64580876
Link 125 204 1871 0 0.46927864
Link 126 204 1872 0 -0.80502365
Link 127 204 1873 0 -0.88379706
Link 128 204 1874 0 -0.17992784
Link 129 204 1875 0 -0.89574140
Link 130 204 1876 0 -0.52283607
Link 131 204 1877 0 -0.30821898
Link 132 204 1878 0 0.18167564
Link 133 204 1879 0 0.68920006
Link 134 204 1880 0 -0.22384552
Link 135 204 1881 0 -0.05496347
Link 136 204 1882 0 0.49644400
Link 137 204 1883 0 -0.58019024
Link 138 204 1884 0 1.65379494
Link 139 204 1885 0 0.14671539
Link 140 204 1886 0 -0.10014844
Link 141 204 1887 0 -0.28840928
Link 142 204 1888 0 -0.77082970
Link 143 204 1889 0 0.14428948
Link 144 204 1890 0 0.28822755
Link 145 204 1891 0 0.42758962
Link 146 204 1892 0 0.78234275
Link 147 204 1893 0 0.03779449
Link 148 204 1894 0 -0.83820699
Link 149 204 1895 0 0.23217104
Link 150 204 1896 0 -0.57551870
Link 151 204 1897 0 -0.59838883
Link 152 204 1898 0 0.12166804
Link 153 204 1899 0 -0.16796645
Link 154 204 1900 0 -0.18461637
Link 155 204 1901 0 -0.12436061
Link 156 204 1902 0 -0.31659368
Link 157 204 1903 0 0.69468725
Link 158 204 1904 0 0.20269637
Link 159 204 1905 0 0.31704147
Link 160 204 1906 0 -0.32534921
Link 161 204 1907 0 -0.47745615
Link 162 204 1908 0 0.00615273
Link 163 204 1909 0 0.59447827
Link 164 204 1910 0 -0.41536895
Link 165 204 1911 0 -0.90541430
Link 166 204 1912 0 0.08120088
Link 167 204 1913 0 -0.08148716
Link 168 204 1914 0 0.12160602
Link 169 204 1915 0 0.27845625
Link 170 204 1916 0 -0.64543146
Link 171 204 1917 0 0.74806281
Link 172 204 1918 0 -0.54523448
Link 173 204 1919 0 0.21405847
Link 174 204 1920 0 0.95562833
Link 175 204 1921 0 0.55212081
Link 176 204 1922 0 0.04605757
Link 177 204 1923 0 0.44596998
Link 178 204 1924 0 -0.43314278
Link 179 204 1925 0 -0.76856002
Link 180 204 1926 0 -0.21408846
Link 181 204 1927 0 -0.64917824
Link 182 204 1928 0 0.06093299
Link 183 204 1929 0 -0.47557225
Link 184 204 1930 0 0.05285809
Link 185 204 1931 0 -0.08111658
Link 186 204 1932 0 0.00253093
Link 187 204 1933 0 0.63060390
Link 188 204 1934 0 0.25277476
Link 189 204 1935 0 0.25623351
Link 190 204 1936 0 0.60585460
Link 191 204 1937 0 -0.26270465
Link 192 204 1938 0 0.06575749
Link 193 204 1939 0 -1.05504527
Link 194 204 1940 0 -0.10496819
Link 1 205 1941 0 -0.09127506
Link 2 205 1942 0 -1.69370242
Link 3 205 1943 0 0.40875101
Link 4 205 1944 0 0.30221557
Link 5 205 1945 0 0.60040815
Link 6 205 1946 0 0.94578221
Link 7 205 1947 0 -0.76368862
Link 8 205 1948 0 -0.40009855
Link 9 205 1949 0 -0.87293151
Link 10 205 1950 0 -0.56589383
Link 11 205 1951 0 -0.47957872
Link 12 205 1952 0 0.83282745
Link 13 205 1953 0 0.19068105
Link 14 205 1954 0 -0.21985153
Link 15 205 1955 0 -0.02277513
Link 16 205 1956 0 -0.10894743
Link 17 205 1957 0 -0.04702743
Link 18 205 1958 0 0.05498754
Link 19 205 1959 0 -0.57376293
Link 20 205 1960 0 -0.00722149
Link 21 205 1961 0 -1.64168086
Link 22 205 1962 0 -0.18603174
Link 23 205 1963 0 -0.09971791
Link 24 205 1964 0 -0.62143039
Link 25 205 1965 0 -0.11414278
Link 26 205 1966 0 0.40708581
Link 27 205 1967 0 -0.16372036
Link 28 205 1968 0 -0.86783910
Link 29 205 1969 0 -0.20631240
Link 30 205 1970 0 -0.15584512
Link 31 205 1971 0 0.67039901
Link 32 205 1972 0 -0.20198997
Link 33 205 1973 0 0.04524743
Link 34 205 1974 0 -0.55341089
Link 35 205 1975 0 0.34255468
Link 36 205 1976 0 0.53447028
Link 37 205 1977 0 -0.57244220
Link 38 205 1978 0 0.88470430
Link 39 205 1979 0 0.24117510
Link 40 205 1980 0 -0.29461843
Link 41 205 1981 0 0.21464565
Link 42 205 1982 0 0.39999076
Link 43 205 1983 0 0.65202721
Link 44 205 1984 0 -1.78794006
Link 45 205 1985 0 0.20772321
Link 46 205 1986 0 -0.01712372
Link 47 205 1987 0 -0.24255640
Link 48 205 1988 0 -0.41385846
Link 49 205 1989 0 -0.29297668
Link 50 205 1990 0 -1.38022505
Link 51 205 1991 0 -0.49879471
Link 52 205 1992 0 -0.66154429
Link 53 205 1993 0 -0.29501220
Link 54 205 1994 0 1.36314455
Link 55 205 1995 0 0.15727788
Link 56 205 1996 0 1.01844095
Link 57 205 1997 0 0.43745652
Link 58 205 1998 0 -0.84386362
Link 59 205 1999 0 -0.25859690
Link 60 205 2000 0 -0.07981819
Link 61 205 2001 0 -0.05329211
Link 62 205 2002 0 -0.70117783
Link 63 205 2003 0 0.95823876
Link 64 205 2004 0 0.49895512
Link 65 205 2005 0 -0.71055879
Link 66 205 2006 0 -0.23009449
Link 67 205 2007 0 0.07513715
Link 68 205 2008 0 0.11876109
Link 69 205 2009 0 -0.17778238
Link 70 205 2010 0 -0.24021985
Link 71 205 2011 0 -0.10439979
Link 72 205 2012 0 -0.45061095
Link 73 205 2013 0 -0.31672318
Link 74 205 2014 0 0.67278803
Link 75 205 2015 0 -0.37114759
Link 76 205 2016 0 0.07517737
Link 77 205 2017 0 0.77348770
Link 78 205 2018 0 -0.19816186
Link 79 205 2019 0 0.01679564
Link 80 205 2020 0 -0.42044669
Link 81 205 2021 0 -0.36416853
Link 82 205 2022 0 1.37544594
Link 83 205 2023 0 -0.75109974
Link 84 205 2024 0 0.08322789
Link 85 205 2025 0 -1.13217684
Link 86 205 2026 0 0.28664445
Link 87 205 2027 0 -0.24518797
Link 88 205 2028 0 0.08587972
Link 89 205 2029 0 0.12851706
Link 90 205 2030 0 -0.58903263
Link 91 205 2031 0 -0.49666917
Link 92 205 2032 0 -1.34199817
Link 93 205 2033 0 -1.06524558
Link 94 205 2034 0 0.84166247
Link 95 205 2035 0 -0.40125198
Link 96 205 2036 0 0.22328652
Link 97 205 2037 0 -0.68823459
Link 98 205 2038 0 0.30165668
Link 99 205 2039 0 0.22851607
Link 100 205 2040 0 -0.48237866
Link 101 205 2041 0 -0.21082290
Link 102 205 2042 0 -0.65945930
Link 103 205 2043 0 -0.01164772
Link 104 205 2044 0 0.06537921
Link 105 205 2045 0 0.06574306
Link 106 205 2046 0 0.08765872
Link 107 205 2047 0 0.39202913
Link 108 205 2048 0 -0.37647347
Link 109 205 2049 0 0.00792259
Link 110 205 2050 0 -0.25994541
Link 111 205 2051 0 -1.02874991
Link 112 205 2052 0 -0.17174175
Link 113 205 2053 0 -0.15222518
Link 114 205 2054 0 0.13215147
Link 115 205 2055 0 -0.57475588
Link 116 205 2056 0 -0.23634868
Link 117 205 2057 0 -0.02515263
Link 118 205 2058 0 0.16371033
Link 119 205 2059 0 0.54806890
Link 120 205 2060 0 0.23139394
Link 121 205 2061 0 0.07964106
Link 122 205 2062 0 -0.15783443
Link 123 205 2063 0 0.73261083
Link 124 205 2064 0 -0.53830768
Link 125 205 2065 0 1.29844129
Link 126 205 2066 0 -0.03115537
Link 127 205 2067 0 0.03182117
Link 128 205 2068 0 1.49783871
Link 129 205 2069 0 0.80527092
Link 130 205 2070 0 -0.32270210
Link 131 205 2071 0 0.00336090
Link 132 205 2072 0 0.03041185
Link 133 205 2073 0 -0.27975831
Link 134 205 2074 0 0.00545839
Link 135 205 2075 0 -0.23175379
Link 136 205 2076 0 -1.13980574
Link 137 205 2077 0 0.42825968
Link 138 205 2078 0 -0.47491398
Link 139 205 2079 0 0.57434073
Link 140 205 2080 0 0.00560365
Link 141 205 2081 0 -0.74320459
Link 142 205 2082 0 -0.49689421
Link 143 205 2083 0 -0.46845547
Link 144 205 2084 0 -0.86003535
Link 145 205 2085 0 0.33078519
Link 146 205 2086 0 -0.17099343
Link 147 205 2087 0 -0.14740853
Link 148 205 2088 0 0.38910737
Link 149 205 2089 0 0.72777720
Link 150 205 2090 0 0.12394007
Link 151 205 2091 0 -0.49291552
Link 152 205 2092 0 -0.42989560
Link 153 205 2093 0 -0.45353132
Link 154 205 2094 0 -0.08657362
Link 155 205 2095 0 0.37475089
Link 156 205 2096 0 -0.47564921
Link 157 205 2097 0 0.26069927
Link 158 205 2098 0 0.11883526
Link 159 205 2099 0 -0.06695400
Link 160 205 2100 0 -0.12483649
Link 161 205 2101 0 0.38374218
Link 162 205 2102 0 -0.66617115
Link 163 205 2103 0 0.24563836
Link 164 205 2104 0 0.36184292
Link 165 205 2105 0 0.08711349
Link 166 205 2106 0 -0.19919152
Link 167 205 2107 0 0.25439720
Link 168 205 2108 0 0.97096126
Link 169 205 2109 0 -0.79774746
Link 170 205 2110 0 0.68030017
Link 171 205 2111 0 -0.34194905
Link 172 205 2112 0 0.08724563
Link 173 205 2113 0 -0.17548821
Link 174 205 2114 0 0.33568965
Link 175 205 2115 0 0.41657492
Link 176 205 2116 0 -0.36807993
Link 177 205 2117 0 -0.39286858
Link 178 205 2118 0 0.55473940
Link 179 205 2119 0 0.67696571
Link 180 205 2120 0 0.04849223
Link 181 205 2121 0 -0.23191871
Link 182 205 2122 0 -0.27885609
Link 183 205 2123 0 0.12626027
Link 184 205 2124 0 0.41734501
Link 185 205 2125 0 -0.21448290
Link 186 205 2126 0 -0.66246093
Link 187 205 2127 0 0.12261572
Link 188 205 2128 0 -0.16585136
Link 189 205 2129 0 -0.92567933
Link 190 205 2130 0 0.26191758
Link 191 205 2131 0 -0.37711872
Link 192 205 2132 0 0.13650390
Link 193 205 2133 0 -0.10357253
Link 194 205 2134 0 0.38987272
Link 1 206 2135 0 -0.09402978
Link 2 206 2136 0 0.01225521
Link 3 206 2137 0 -0.48225892
Link 4 206 2138 0 -0.52890403
Link 5 206 2139 0 -0.41220264
Link 6 206 2140 0 -0.54860770
Link 7 206 2141 0 0.99114074
Link 8 206 2142 0 -0.63619106
Link 9 206 2143 0 -1.06188703
Link 10 206 2144 0 -0.96942168
Link 11 206 2145 0 0.78991232
Link 12 206 2146 0 -0.09996234
Link 13 206 2147 0 -0.35380003
Link 14 206 2148 0 -0.62221612
Link 15 206 2149 0 0.46209766
Link 16 206 2150 0 -0.49131521
Link 17 206 2151 0 0.32062632
Link 18 206 2152 0 1.17264021
Link 19 206 2153 0 0.50714321
Link 20 206 2154 0 -0.04456986
Link 21 206 2155 0 0.55714427
Link 22 206 2156 0 -0.38299855
Link 23 206 2157 0 0.33581836
Link 24 206 2158 0 0.41141553
Link 25 206 2159 0 -0.71889193
Link 26 206 2160 0 0.34384794
Link 27 206 2161 0 0.67753276
Link 28 206 2162 0 1.14353561
Link 29 206 2163 0 0.53493097
Link 30 206 2164 0 0.92939184
Link 31 206 2165 0 0.46004829
Link 32 206 2166 0 0.47821290
Link 33 206 2167 0 -0.25499911
Link 34 206 2168 0 1.17508243
Link 35 206 2169 0 -0.13423422
Link 36 206 2170 0 -0.57192523
Link 37 206 2171 0 -0.69825538
Link 38 206 2172 0 -0.84580160
Link 39 206 2173 0 0.22486222
Link 40 206 2174 0 0.59289382
Link 41 206 2175 0 -0.77177641
Link 42 206 2176 0 -0.15562406
Link 43 206 2177 0 -0.29600867
Link 44 206 2178 0 0.39374873
Link 45 206 2179 0 0.05869049
Link 46 206 2180 0 -0.08076151
Link 47 206 2181 0 1.70027411
Link 48 206 2182 0 -1.11373018
Link 49 206 2183 0 -0.40358369
Link 50 206 2184 0 0.33783292
Link 51 206 2185 0 0.82838235
Link 52 206 2186 0 -0.16999547
Link 53 206 2187 0 0.78945620
Link 54 206 2188 0 0.04291050
Link 55 206 2189 0 -0.22692185
Link 56 206 2190 0 0.03786463
Link 57 206 2191 0 -0.04590494
Link 58 206 2192 0 0.32029806
Link 59 206 2193 0 0.93306725
Link 60 206 2194 0 0.42137979
Link 61 206 2195 0 -0.05565006
Link 62 206 2196 0 -0.61603156
Link 63 206 2197 0 0.60302115
Link 64 206 2198 0 0.62360043
Link 65 206 2199 0 0.05372974
Link 66 206 2200 0 0.80799360
Link 67 206 2201 0 -0.36164140
Link 68 206 2202 0 -0.07003552
Link 69 206 2203 0 -0.80755104
Link 70 206 2204 0 -0.82442722
Link 71 206 2205 0 -0.63653315
Link 72 206 2206 0 -0.06346896
Link 73 206 2207 0 0.17503176
Link 74 206 2208 0 0.96063055
Link 75 206 2209 0 -1.97516192
Link 76 206 2210 0 0.05149968
Link 77 206 2211 0 -0.06163076
Link 78 206 2212 0 -0.69282028
Link 79 206 2213 0 0.08375237
Link 80 206 2214 0 -0.30762321
Link 81 206 2215 0 -0.93003812
Link 82 206 2216 0 -0.31359053
Link 83 206 2217 0 0.96062793
Link 84 206 2218 0 0.70095004
Link 85 206 2219 0 0.55545643
Link 86 206 2220 0 -0.50424606
Link 87 206 2221 0 0.69934584
Link 88 206 2222 0 0.01709256
Link 89 206 2223 0 -1.90297161
Link 90 206 2224 0 0.39327706
Link 91 206 2225 0 -0.65289532
Link 92 206 2226 0 -0.14599545
Link 93 206 2227 0 -0.57378651
Link 94 206 2228 0 0.31370073
Link 95 206 2229 0 0.35856815
Link 96 206 2230 0 0.09510620
Link 97 206 2231 0 -0.42623304
Link 98 206 2232 0 -0.03749067
Link 99 206 2233 0 0.76894352
Link 100 206 2234 0 -0.66323751
Link 101 206 2235 0 0.18475546
Link 102 206 2236 0 1.27566243
Link 103 206 2237 0 0.13180493
Link 104 206 2238 0 -1.05975060
Link 105 206 2239 0 0.72517862
Link 106 206 2240 0 0.41240268
Link 107 206 2241 0 0.68168286
Link 108 206 2242 0 -0.55392588
Link 109 206 2243 0 0.13111921
Link 110 206 2244 0 -0.18829872
Link 111 206 2245 0 -1.15498252
Link 112 206 2246 0 -0.08251548
Link 113 206 2247 0 -0.12745137
Link 114 206 2248 0 -0.21088374
Link 115 206 2249 0 -0.39129605
Link 116 206 2250 0 0.70529592
Link 117 206 2251 0 0.66236287
Link 118 206 2252 0 -0.07779235
Link 119 206 2253 0 -1.23927350
Link 120 206 2254 0 0.77638059
Link 121 206 2255 0 -1.06725239
Link 122 206 2256 0 1.41237827
Link 123 206 2257 0 0.74410930
Link 124 206 2258 0 0.22074985
Link 125 206 2259 0 -0.26214399
Link 126 206 2260 0 -0.12443069
Link 127 206 2261 0 0.00723383
Link 128 206 2262 0 1.09298967
Link 129 206 2263 0 0.21888724
Link 130 206 2264 0 0.04475301
Link 131 206 2265 0 -0.00728089
Link 132 206 2266 0 0.45434233
Link 133 206 2267 0 0.50658764
Link 134 206 2268 0 0.32604788
Link 135 206 2269 0 0.78783179
Link 136 206 2270 0 0.15076479
Link 137 206 2271 0 -0.07842995
Link 138 206 2272 0 0.11908632
Link 139 206 2273 0 -0.24309946
Link 140 206 2274 0 -0.13551597
Link 141 206 2275 0 -0.81137397
Link 142 206 2276 0 2.84894145
Link 143 206 2277 0 -0.23628687
Link 144 206 2278 0 -0.25218333
Link 145 206 2279 0 -0.24838849
Link 146 206 2280 0 -0.60092043
Link 147 206 2281 0 -0.64434272
Link 148 206 2282 0 0.73089762
Link 149 206 2283 0 -1.43520478
Link 150 206 2284 0 -1.29288784
Link 151 206 2285 0 0.59984333
Link 152 206 2286 0 -0.05966439
Link 153 206 2287 0 0.33765069
Link 154 206 2288 0 -0.22140508
Link 155 206 2289 0 -0.09907540
Link 156 206 2290 0 0.21269960
Link 157 206 2291 0 -0.10497747
Link 158 206 2292 0 -0.62275335
Link 159 206 2293 0 1.04693399
Link 160 206 2294 0 -0.15536286
Link 161 206 2295 0 0.26973839
Link 162 206 2296 0 -0.39810197
Link 163 206 2297 0 0.55056510
Link 164 206 2298 0 -0.46906067
Link 165 206 2299 0 -2.00924163
Link 166 206 2300 0 -1.08336019
Link 167 206 2301 0 -0.29161819
Link 168 206 2302 0 0.52321811
Link 169 206 2303 0 0.70039125
Link 170 206 2304 0 1.15314795
Link 171 206 2305 0 0.52187747
Link 172 206 2306 0 0.40409938
Link 173 206 2307 0 -0.26788302
Link 174 206 2308 0 0.42871980
Link 175 206 2309 0 0.44500435
Link 176 206 2310 0 0.56310645
Link 177 206 2311 0 0.43299936
Link 178 206 2312 0 0.21669866
Link 179 206 2313 0 0.75928880
Link 180 206 2314 0 -0.86541005
Link 181 206 2315 0 -0.74235667
Link 182 206 2316 0 0.95602299
Link 183 206 2317 0 -0.04885307
Link 184 206 2318 0 -0.43681011
Link 185 206 2319 0 -0.08365979
Link 186 206 2320 0 0.08662116
Link 187 206 2321 0 0.31781491
Link 188 206 2322 0 -0.12928495
Link 189 206 2323 0 0.58947095
Link 190 206 2324 0 -0.29279891
Link 191 206 2325 0 -0.12653690
Link 192 206 2326 0 1.44385515
Link 193 206 2327 0 0.51906992
Link 194 206 2328 0 -0.55498246
Link 1 207 2329 0 0.34123769
Link 2 207 2330 0 -0.33365354
Link 3 207 2331 0 -0.13608245
Link 4 207 2332 0 0.60911643
Link 5 207 2333 0 -0.13464627
Link 6 207 2334 0 0.24448291
Link 7 207 2335 0 0.04251666
Link 8 207 2336 0 0.15868684
Link 9 207 2337 0 0.01135891
Link 10 207 2338 0 -0.45844150
Link 11 207 2339 0 -0.06850869
Link 12 207 2340 0 -0.24426318
Link 13 207 2341 0 0.04817944
Link 14 207 2342 0 0.02540570
Link 15 207 2343 0 0.14861327
Link 16 207 2344 0 -0.31646036
Link 17 207 2345 0 -0.58790314
Link 18 207 2346 0 -0.20844036
Link 19 207 2347 0 0.08893691
Link 20 207 2348 0 0.36342489
Link 21 207 2349 0 -0.00491345
Link 22 207 2350 0 -0.19456954
Link 23 207 2351 0 -0.01892530
Link 24 207 2352 0 0.54418634
Link 25 207 2353 0 -0.78712136
Link 26 207 2354 0 0.14112638
Link 27 207 2355 0 -0.19051186
Link 28 207 2356 0 -0.23899417
Link 29 207 2357 0 0.25558961
Link 30 207 2358 0 -0.32835851
Link 31 207 2359 0 0.07787632
Link 32 207 2360 0 -0.28898986
Link 33 207 2361 0 0.11708573
Link 34 207 2362 0 -0.17259753
Link 35 207 2363 0 -0.45657263
Link 36 207 2364 0 -0.14653763
Link 37 207 2365 0 0.57434995
Link 38 207 2366 0 0.16852412
Link 39 207 2367 0 -0.21759623
Link 40 207 2368 0 0.09810379
Link 41 207 2369 0 -0.34228986
Link 42 207 2370 0 0.57852508
Link 43 207 2371 0 0.05814870
Link 44 207 2372 0 0.14423299
Link 45 207 2373 0 -0.13781636
Link 46 207 2374 0 -0.13938607
Link 47 207 2375 0 0.05998549
Link 48 207 2376 0 -0.16060449
Link 49 207 2377 0 0.33649303
Link 50 207 2378 0 0.46254841
Link 51 207 2379 0 -0.32627137
Link 52 207 2380 0 0.27740246
Link 53 207 2381 0 -0.22312940
Link 54 207 2382 0 0.06046566
Link 55 207 2383 0 0.09139607
Link 56 207 2384 0 -0.21698973
Link 57 207 2385 0 0.05399882
Link 58 207 2386 0 0.19275846
Link 59 207 2387 0 -0.48120558
Link 60 207 2388 0 -0.27961787
Link 61 207 2389 0 -0.01534385
Link 62 207 2390 0 -0.21387842
Link 63 207 2391 0 -0.22448902
Link 64 207 2392 0 0.23734624
Link 65 207 2393 0 -0.20143734
Link 66 207 2394 0 0.40892679
Link 67 207 2395 0 -0.23519857
Link 68 207 2396 0 0.44069157
Link 69 207 2397 0 0.49532164
Link 70 207 2398 0 0.42419988
Link 71 207 2399 0 0.18611669
Link 72 207 2400 0 -0.06685182
Link 73 207 2401 0 -0.34621058
Link 74 207 2402 0 0.40348556
Link 75 207 2403 0 0.04033320
Link 76 207 2404 0 -0.26329857
Link 77 207 2405 0 -0.38261447
Link 78 207 2406 0 0.11464969
Link 79 207 2407 0 0.63721717
Link 80 207 2408 0 -0.03039784
Link 81 207 2409 0 -0.14784969
Link 82 207 2410 0 -0.09258284
Link 83 207 2411 0 -0.06347392
Link 84 207 2412 0 0.03260265
Link 85 207 2413 0 -0.00760205
Link 86 207 2414 0 0.32639660
Link 87 207 2415 0 0.01096247
Link 88 207 2416 0 0.36417948
Link 89 207 2417 0 -0.38008109
Link 90 207 2418 0 0.24631686
Link 91 207 2419 0 0.02659592
Link 92 207 2420 0 0.20411528
Link 93 207 2421 0 -0.34400251
Link 94 207 2422 0 -0.02745889
Link 95 207 2423 0 0.14698024
Link 96 207 2424 0 -0.11518940
Link 97 207 2425 0 -0.05516827
Link 98 207 2426 0 0.57201543
Link 99 207 2427 0 -0.59282248
Link 100 207 2428 0 -0.35482488
Link 101 207 2429 0 -0.01595169
Link 102 207 2430 0 -0.21634817
Link 103 207 2431 0 -0.31900573
Link 104 207 2432 0 0.08466907
Link 105 207 2433 0 0.00486563
Link 106 207 2434 0 0.37521330
Link 107 207 2435 0 0.30131479
Link 108 207 2436 0 0.13637428
Link 109 207 2437 0 0.15255216
Link 110 207 2438 0 0.21129280
Link 111 207 2439 0 -0.40072743
Link 112 207 2440 0 0.25407814
Link 113 207 2441 0 0.16491684
Link 114 207 2442 0 0.17785694
Link 115 207 2443 0 0.05573869
Link 116 207 2444 0 -0.12665865
Link 117 207 2445 0 0.16269515
Link 118 207 2446 0 -0.42996315
Link 119 207 2447 0 -0.21126319
Link 120 207 2448 0 0.03475065
Link 121 207 2449 0 0.04071442
Link 122 207 2450 0 0.29622470
Link 123 207 2451 0 -0.11860312
Link 124 207 2452 0 0.20837431
Link 125 207 2453 0 -0.01873951
Link 126 207 2454 0 0.39555189
Link 127 207 2455 0 0.51321595
Link 128 207 2456 0 0.38362204
Link 129 207 2457 0 -0.23482727
Link 130 207 2458 0 0.11183690
Link 131 207 2459 0 -0.17170043
Link 132 207 2460 0 0.11998630
Link 133 207 2461 0 -0.13730847
Link 134 207 2462 0 0.27514181
Link 135 207 2463 0 0.10556800
Link 136 207 2464 0 -0.05330320
Link 137 207 2465 0 -0.37560304
Link 138 207 2466 0 0.08754797
Link 139 207 2467 0 -0.25823081
Link 140 207 2468 0 -0.21568717
Link 141 207 2469 0 -0.14670714
Link 142 207 2470 0 -0.25627799
Link 143 207 2471 0 -0.25178028
Link 144 207 2472 0 -0.27275083
Link 145 207 2473 0 -0.17505025
Link 146 207 2474 0 0.18523670
Link 147 207 2475 0 0.20856589
Link 148 207 2476 0 0.29056418
Link 149 207 2477 0 -0.13057306
Link 150 207 2478 0 -0.23100199
Link 151 207 2479 0 0.50125413
Link 152 207 2480 0 -0.03560781
Link 153 207 2481 0 -0.08270349
Link 154 207 2482 0 -0.28096246
Link 155 207 2483 0 -0.21085969
Link 156 207 2484 0 -0.10733927
Link 157 207 2485 0 0.14493415
Link 158 207 2486 0 -0.19188159
Link 159 207 2487 0 -0.18533045
Link 160 207 2488 0 0.11728782
Link 161 207 2489 0 0.48098031
Link 162 207 2490 0 -0.13000095
Link 163 207 2491 0 -0.09566964
Link 164 207 2492 0 -0.05333426
Link 165 207 2493 0 0.37036718
Link 166 207 2494 0 0.28100269
Link 167 207 2495 0 -0.03744954
Link 168 207 2496 0 0.00062852
Link 169 207 2497 0 -0.16817271
Link 170 207 2498 0 0.20788643
Link 171 207 2499 0 0.40576671
Link 172 207 2500 0 0.23192117
Link 173 207 2501 0 -0.45804114
Link 174 207 2502 0 0.16069530
Link 175 207 2503 0 -0.05986939
Link 176 207 2504 0 0.24540442
Link 177 207 2505 0 -0.01268905
Link 178 207 2506 0 0.31507505
Link 179 207 2507 0 -0.12762544
Link 180 207 2508 0 -0.19005633
Link 181 207 2509 0 0.08796570
Link 182 207 2510 0 0.01650948
Link 183 207 2511 0 -0.18769061
Link 184 207 2512 0 0.11271170
Link 185 207 2513 0 -0.32345766
Link 186 207 2514 0 -0.27907022
Link 187 207 2515 0 0.22104723
Link 188 207 2516 0 -0.07036526
Link 189 207 2517 0 0.00057887
Link 190 207 2518 0 0.51768317
Link 191 207 2519 0 -0.38253877
Link 192 207 2520 0 0.22321605
Link 193 207 2521 0 -0.11874543
Link 194 207 2522 0 0.12163600
Link 1 208 2523 0 0.24437876
Link 2 208 2524 0 0.22363736
Link 3 208 2525 0 -0.32006844
Link 4 208 2526 0 0.01564546
Link 5 208 2527 0 -0.10910124
Link 6 208 2528 0 0.34040364
Link 7 208 2529 0 0.13460104
Link 8 208 2530 0 -0.03888652
Link 9 208 2531 0 0.53884542
Link 10 208 2532 0 0.18946006
Link 11 208 2533 0 0.15628390
Link 12 208 2534 0 -0.17043089
Link 13 208 2535 0 -0.61308122
Link 14 208 2536 0 0.11302523
Link 15 208 2537 0 0.36056845
Link 16 208 2538 0 0.31251858
Link 17 208 2539 0 0.07234921
Link 18 208 2540 0 -0.33169269
Link 19 208 2541 0 -0.45154643
Link 20 208 2542 0 0.22102887
Link 21 208 2543 0 0.29241727
Link 22 208 2544 0 -0.15986811
Link 23 208 2545 0 0.08510248
Link 24 208 2546 0 0.01751030
Link 25 208 2547 0 0.05780594
Link 26 208 2548 0 -0.01029057
Link 27 208 2549 0 0.03658538
Link 28 208 2550 0 0.07261950
Link 29 208 2551 0 0.03068771
Link 30 208 2552 0 0.24527216
Link 31 208 2553 0 -0.66990330
Link 32 208 2554 0 -0.03289699
Link 33 208 2555 0 0.11350200
Link 34 208 2556 0 0.18605651
Link 35 208 2557 0 -0.15535079
Link 36 208 2558 0 -0.08408284
Link 37 208 2559 0 0.12906113
Link 38 208 2560 0 -0.10760987
Link 39 208 2561 0 -0.29731175
Link 40 208 2562 0 0.01810695
Link 41 208 2563 0 0.27607957
Link 42 208 2564 0 -0.15571832
Link 43 208 2565 0 0.37976132
Link 44 208 2566 0 0.14163903
Link 45 208 2567 0 -0.43233450
Link 46 208 2568 0 -0.12902544
Link 47 208 2569 0 0.20241187
Link 48 208 2570 0 0.14723231
Link 49 208 2571 0 0.03490819
Link 50 208 2572 0 0.16149806
Link 51 208 2573 0 0.24803077
Link 52 208 2574 0 0.27213076
Link 53 208 2575 0 0.01830846
Link 54 208 2576 0 0.31581060
Link 55 208 2577 0 -0.06862807
Link 56 208 2578 0 -0.22233954
Link 57 208 2579 0 -0.44005444
Link 58 208 2580 0 -0.16004969
Link 59 208 2581 0 0.30498010
Link 60 208 2582 0 -0.27276702
Link 61 208 2583 0 -0.10893602
Link 62 208 2584 0 0.64586507
Link 63 208 2585 0 -0.00977886
Link 64 208 2586 0 -0.22724936
Link 65 208 2587 0 -0.11957930
Link 66 208 2588 0 -0.14091318
Link 67 208 2589 0 -0.27962628
Link 68 208 2590 0 -0.05898625
Link 69 208 2591 0 -0.15678124
Link 70 208 2592 0 0.37953505
Link 71 208 2593 0 -0.11105993
Link 72 208 2594 0 0.19046894
Link 73 208 2595 0 0.02677714
Link 74 208 2596 0 0.27094472
Link 75 208 2597 0 0.05033242
Link 76 208 2598 0 -0.25014977
Link 77 208 2599 0 0.34191897
Link 78 208 2600 0 0.06123555
Link 79 208 2601 0 -0.04182278
Link 80 208 2602 0 0.10053481
Link 81 208 2603 0 0.32679634
Link 82 208 2604 0 0.20351605
Link 83 208 2605 0 -0.25387856
Link 84 208 2606 0 0.22957326
Link 85 208 2607 0 -0.26960788
Link 86 208 2608 0 0.44817744
Link 87 208 2609 0 0.27388419
Link 88 208 2610 0 0.38295823
Link 89 208 2611 0 0.04930574
Link 90 208 2612 0 -0.21655098
Link 91 208 2613 0 -0.24666209
Link 92 208 2614 0 -0.11345511
Link 93 208 2615 0 -0.12809077
Link 94 208 2616 0 0.24623757
Link 95 208 2617 0 0.01073751
Link 96 208 2618 0 0.05863218
Link 97 208 2619 0 -0.18848704
Link 98 208 2620 0 0.36794081
Link 99 208 2621 0 0.00532129
Link 100 208 2622 0 0.32487586
Link 101 208 2623 0 0.00663083
Link 102 208 2624 0 -0.02287324
Link 103 208 2625 0 0.05323446
Link 104 208 2626 0 -0.23096615
Link 105 208 2627 0 0.26587925
Link 106 208 2628 0 0.11496550
Link 107 208 2629 0 -0.19073678
Link 108 208 2630 0 0.47404778
Link 109 208 2631 0 -0.03640539
Link 110 208 2632 0 0.10952576
Link 111 208 2633 0 -0.22678312
Link 112 208 2634 0 0.27723631
Link 113 208 2635 0 0.04198645
Link 114 208 2636 0 -0.07207465
Link 115 208 2637 0 0.05734924
Link 116 208 2638 0 -0.22103813
Link 117 208 2639 0 0.01630081
Link 118 208 2640 0 -0.14895443
Link 119 208 2641 0 0.00525512
Link 120 208 2642 0 -0.30015277
Link 121 208 2643 0 -0.20293495
Link 122 208 2644 0 -0.11013069
Link 123 208 2645 0 0.07133077
Link 124 208 2646 0 0.07930895
Link 125 208 2647 0 -0.08000411
Link 126 208 2648 0 -0.08372278
Link 127 208 2649 0 -0.20280603
Link 128 208 2650 0 0.04496870
Link 129 208 2651 0 -0.58276202
Link 130 208 2652 0 0.41496292
Link 131 208 2653 0 -0.41584933
Link 132 208 2654 0 0.09125924
Link 133 208 2655 0 -0.10376660
Link 134 208 2656 0 0.43057015
Link 135 208 2657 0 -0.15090402
Link 136 208 2658 0 0.11359265
Link 137 208 2659 0 0.55261614
Link 138 208 2660 0 -0.02502214
Link 139 208 2661 0 -0.27137777
Link 140 208 2662 0 0.03910388
Link 141 208 2663 0 -0.14382812
Link 142 208 2664 0 -0.08404864
Link 143 208 2665 0 0.27836779
Link 144 208 2666 0 0.16635841
Link 145 208 2667 0 -0.17310224
Link 146 208 2668 0 0.46139242
Link 147 208 2669 0 -0.28943785
Link 148 208 2670 0 -0.37287717
Link 149 208 2671 0 -0.14075894
Link 150 208 2672 0 -0.38520991
Link 151 208 2673 0 -0.24056685
Link 152 208 2674 0 -0.06476525
Link 153 208 2675 0 -0.10119613
Link 154 208 2676 0 -0.07322595
Link 155 208 2677 0 0.21981677
Link 156 208 2678 0 -0.04899073
Link 157 208 2679 0 -0.00037346
Link 158 208 2680 0 0.24352479
Link 159 208 2681 0 -0.10671998
Link 160 208 2682 0 -0.36866249
Link 161 208 2683 0 -0.02360703
Link 162 208 2684 0 -0.02058509
Link 163 208 2685 0 0.20133801
Link 164 208 2686 0 0.16419493
Link 165 208 2687 0 -0.31404591
Link 166 208 2688 0 0.35279430
Link 167 208 2689 0 0.10246351
Link 168 208 2690 0 -0.31939455
Link 169 208 2691 0 -0.06682197
Link 170 208 2692 0 -0.14939969
Link 171 208 2693 0 -0.27833602
Link 172 208 2694 0 -0.28493537
Link 173 208 2695 0 0.32910688
Link 174 208 2696 0 0.21284261
Link 175 208 2697 0 0.09044286
Link 176 208 2698 0 0.05781691
Link 177 208 2699 0 0.18147426
Link 178 208 2700 0 0.31831296
Link 179 208 2701 0 0.26967669
Link 180 208 2702 0 0.26683868
Link 181 208 2703 0 -0.02156540
Link 182 208 2704 0 0.07687331
Link 183 208 2705 0 0.32286332
Link 184 208 2706 0 -0.02079797
Link 185 208 2707 0 -0.32410622
Link 186 208 2708 0 -0.48244142
Link 187 208 2709 0 0.00133890
Link 188 208 2710 0 0.31669170
Link 189 208 2711 0 0.22448120
Link 190 208 2712 0 0.30797476
Link 191 208 2713 0 -0.05860021
Link 192 208 2714 0 -0.42055953
Link 193 208 2715 0 0.23699535
Link 194 208 2716 0 -0.13586877
Link 1 209 2717 0 -0.33404526
Link 2 209 2718 0 -0.23544924
Link 3 209 2719 0 0.23762926
Link 4 209 2720 0 0.13817738
Link 5 209 2721 0 0.34300966
Link 6 209 2722 0 -0.51590591
Link 7 209 2723 0 -0.01866542
Link 8 209 2724 0 0.23475052
Link 9 209 2725 0 0.19483148
Link 10 209 2726 0 -0.09146882
Link 11 209 2727 0 0.26553749
Link 12 209 2728 0 -0.20798650
Link 13 209 2729 0 -0.14818859
Link 14 209 2730 0 -0.07943933
Link 15 209 2731 0 0.09916401
Link 16 209 2732 0 -0.31325531
Link 17 209 2733 0 -0.06738994
Link 18 209 2734 0 0.14440514
Link 19 209 2735 0 0.18697057
Link 20 209 2736 0 0.48750563
Link 21 209 2737 0 -0.34490148
Link 22 209 2738 0 0.21575696
Link 23 209 2739 0 -0.24209999
Link 24 209 2740 0 -0.39136070
Link 25 209 2741 0 -0.15353895
Link 26 209 2742 0 0.17413768
Link 27 209 2743 0 -0.15575403
Link 28 209 2744 0 -0.03562040
Link 29 209 2745 0 -0.05221484
Link 30 209 2746 0 0.05137231
Link 31 209 2747 0 -0.21590749
Link 32 209 2748 0 -0.18809951
Link 33 209 2749 0 0.15865415
Link 34 209 2750 0 0.02660614
Link 35 209 2751 0 0.01450206
Link 36 209 2752 0 0.24122587
Link 37 209 2753 0 0.31138050
Link 38 209 2754 0 -0.10394967
Link 39 209 2755 0 0.22619454
Link 40 209 2756 0 -0.03541201
Link 41 209 2757 0 0.09100437
Link 42 209 2758 0 -0.06326042
Link 43 209 2759 0 0.44107884
Link 44 209 2760 0 -0.02536957
Link 45 209 2761 0 0.09983568
Link 46 209 2762 0 0.16826944
Link 47 209 2763 0 0.28253946
Link 48 209 2764 0 -0.44072251
Link 49 209 2765 0 0.26161313
Link 50 209 2766 0 0.04182628
Link 51 209 2767 0 -0.15228233
Link 52 209 2768 0 0.07185612
Link 53 209 2769 0 0.31943236
Link 54 209 2770 0 -0.05365457
Link 55 209 2771 0 -0.53751852
Link 56 209 2772 0 -0.07178221
Link 57 209 2773 0 -0.02530353
Link 58 209 2774 0 -0.01105647
Link 59 209 2775 0 -0.41215282
Link 60 209 2776 0 0.05235211
Link 61 209 2777 0 -0.51055589
Link 62 209 2778 0 0.16196072
Link 63 209 2779 0 0.06805601
Link 64 209 2780 0 -0.03522931
Link 65 209 2781 0 0.25706622
Link 66 209 2782 0 -0.21583538
Link 67 209 2783 0 -0.39740064
Link 68 209 2784 0 0.49268421
Link 69 209 2785 0 0.36173561
Link 70 209 2786 0 -0.07302505
Link 71 209 2787 0 -0.10657424
Link 72 209 2788 0 0.19813163
Link 73 209 2789 0 -0.29223451
Link 74 209 2790 0 0.04063540
Link 75 209 2791 0 0.41000562
Link 76 209 2792 0 0.30812157
Link 77 209 2793 0 0.08668622
Link 78 209 2794 0 0.22529909
Link 79 209 2795 0 0.40743454
Link 80 209 2796 0 0.06316824
Link 81 209 2797 0 0.24427944
Link 82 209 2798 0 -0.18898742
Link 83 209 2799 0 0.17389339
