GenomeStart 5841
Neuron 1 1 0.00000000 1 0.00000000 0.00000000 0.00000000 0.00000000
Neuron 2 1 0.00000000 1 0.00000000 0.00000000 0.00000000 0.00000000
Neuron 3 1 0.00000000 1 0.00000000 0.00000000 0.00000000 0.00000000
Neuron 4 1 0.00000000 1 0.00000000 0.00000000 0.00000000 0.00000000
Neuron 5 1 0.00000000 1 0.00000000 0.00000000 0.00000000 0.00000000
Neuron 6 1 0.00000000 1 0.00000000 0.00000000 0.00000000 0.00000000
Neuron 7 1 0.00000000 1 0.00000000 0.00000000 0.00000000 0.00000000
Neuron 8 1 0.00000000 1 0.00000000 0.00000000 0.00000000 0.00000000
Neuron 9 1 0.00000000 1 0.00000000 0.00000000 0.00000000 0.00000000
Neuron 10 1 0.00000000 1 0.00000000 0.00000000 0.00000000 0.00000000
Neuron 11 1 0.00000000 1 0.00000000 0.00000000 0.00000000 0.00000000
Neuron 12 1 0.00000000 1 0.00000000 0.00000000 0.00000000 0.00000000
Neuron 13 1 0.00000000 1 0.00000000 0.00000000 0.00000000 0.00000000
Neuron 14 1 0.00000000 1 0.00000000 0.00000000 0.00000000 0.00000000
Neuron 15 1 0.00000000 1 0.00000000 0.00000000 0.00000000 0.00000000
Neuron 16 1 0.00000000 1 0.00000000 0.00000000 0.00000000 0.00000000
Neuron 17 1 0.00000000 1 0.00000000 0.00000000 0.00000000 0.00000000
Neuron 18 1 0.00000000 1 0.00000000 0.00000000 0.00000000 0.00000000
Neuron 19 1 0.00000000 1 0.00000000 0.00000000 0.00000000 0.00000000
Neuron 20 1 0.00000000 1 0.00000000 0.00000000 0.00000000 0.00000000
Neuron 21 1 0.00000000 1 0.00000000 0.00000000 0.00000000 0.00000000
Neuron 22 1 0.00000000 1 0.00000000 0.00000000 0.00000000 0.00000000
Neuron 23 1 0.00000000 1 0.00000000 0.00000000 0.00000000 0.00000000
Neuron 24 1 0.00000000 1 0.00000000 0.00000000 0.00000000 0.00000000
Neuron 25 1 0.00000000 1 0.00000000 0.00000000 0.00000000 0.00000000
Neuron 26 1 0.00000000 1 0.00000000 0.00000000 0.00000000 0.00000000
Neuron 27 1 0.00000000 1 0.00000000 0.00000000 0.00000000 0.00000000
Neuron 28 1 0.00000000 1 0.00000000 0.00000000 0.00000000 0.00000000
Neuron 29 1 0.00000000 1 0.00000000 0.00000000 0.00000000 0.00000000
Neuron 30 1 0.00000000 1 0.00000000 0.00000000 0.00000000 0.00000000
Neuron 31 1 0.00000000 1 0.00000000 0.00000000 0.00000000 0.00000000
Neuron 32 1 0.00000000 1 0.00000000 0.00000000 0.00000000 0.00000000
Neuron 33 1 0.00000000 1 0.00000000 0.00000000 0.00000000 0.00000000
Neuron 34 1 0.00000000 1 0.00000000 0.00000000 0.00000000 0.00000000
Neuron 35 1 0.00000000 1 0.00000000 0.00000000 0.00000000 0.00000000
Neuron 36 1 0.00000000 1 0.00000000 0.00000000 0.00000000 0.00000000
Neuron 37 1 0.00000000 1 0.00000000 0.00000000 0.00000000 0.00000000
Neuron 38 1 0.00000000 1 0.00000000 0.00000000 0.00000000 0.00000000
Neuron 39 1 0.00000000 1 0.00000000 0.00000000 0.00000000 0.00000000
Neuron 40 1 0.00000000 1 0.00000000 0.00000000 0.00000000 0.00000000
Neuron 41 1 0.00000000 1 0.00000000 0.00000000 0.00000000 0.00000000
Neuron 42 1 0.00000000 1 0.00000000 0.00000000 0.00000000 0.00000000
Neuron 43 1 0.00000000 1 0.00000000 0.00000000 0.00000000 0.00000000
Neuron 44 1 0.00000000 1 0.00000000 0.00000000 0.00000000 0.00000000
Neuron 45 1 0.00000000 1 0.00000000 0.00000000 0.00000000 0.00000000
Neuron 46 1 0.00000000 1 0.00000000 0.00000000 0.00000000 0.00000000
Neuron 47 1 0.00000000 1 0.00000000 0.00000000 0.00000000 0.00000000
Neuron 48 1 0.00000000 1 0.00000000 0.00000000 0.00000000 0.00000000
Neuron 49 1 0.00000000 1 0.00000000 0.00000000 0.00000000 0.00000000
Neuron 50 1 0.00000000 1 0.00000000 0.00000000 0.00000000 0.00000000
Neuron 51 1 0.00000000 1 0.00000000 0.00000000 0.00000000 0.00000000
Neuron 52 1 0.00000000 1 0.00000000 0.00000000 0.00000000 0.00000000
Neuron 53 1 0.00000000 1 0.00000000 0.00000000 0.00000000 0.00000000
Neuron 54 1 0.00000000 1 0.00000000 0.00000000 0.00000000 0.00000000
Neuron 55 1 0.00000000 1 0.00000000 0.00000000 0.00000000 0.00000000
Neuron 56 1 0.00000000 1 0.00000000 0.00000000 0.00000000 0.00000000
Neuron 57 1 0.00000000 1 0.00000000 0.00000000 0.00000000 0.00000000
Neuron 58 1 0.00000000 1 0.00000000 0.00000000 0.00000000 0.00000000
Neuron 59 1 0.00000000 1 0.00000000 0.00000000 0.00000000 0.00000000
Neuron 60 1 0.00000000 1 0.00000000 0.00000000 0.00000000 0.00000000
Neuron 61 1 0.00000000 1 0.00000000 0.00000000 0.00000000 0.00000000
Neuron 62 1 0.00000000 1 0.00000000 0.00000000 0.00000000 0.00000000
Neuron 63 1 0.00000000 1 0.00000000 0.00000000 0.00000000 0.00000000
Neuron 64 1 0.00000000 1 0.00000000 0.00000000 0.00000000 0.00000000
Neuron 65 1 0.00000000 1 0.00000000 0.00000000 0.00000000 0.00000000
Neuron 66 1 0.00000000 1 0.00000000 0.00000000 0.00000000 0.00000000
Neuron 67 1 0.00000000 1 0.00000000 0.00000000 0.00000000 0.00000000
Neuron 68 1 0.00000000 1 0.00000000 0.00000000 0.00000000 0.00000000
Neuron 69 1 0.00000000 1 0.00000000 0.00000000 0.00000000 0.00000000
Neuron 70 1 0.00000000 1 0.00000000 0.00000000 0.00000000 0.00000000
Neuron 71 1 0.00000000 1 0.00000000 0.00000000 0.00000000 0.00000000
Neuron 72 1 0.00000000 1 0.00000000 0.00000000 0.00000000 0.00000000
Neuron 73 1 0.00000000 1 0.00000000 0.00000000 0.00000000 0.00000000
Neuron 74 1 0.00000000 1 0.00000000 0.00000000 0.00000000 0.00000000
Neuron 75 1 0.00000000 1 0.00000000 0.00000000 0.00000000 0.00000000
Neuron 76 1 0.00000000 1 0.00000000 0.00000000 0.00000000 0.00000000
Neuron 77 1 0.00000000 1 0.00000000 0.00000000 0.00000000 0.00000000
Neuron 78 1 0.00000000 1 0.00000000 0.00000000 0.00000000 0.00000000
Neuron 79 1 0.00000000 1 0.00000000 0.00000000 0.00000000 0.00000000
Neuron 80 1 0.00000000 1 0.00000000 0.00000000 0.00000000 0.00000000
Neuron 81 1 0.00000000 1 0.00000000 0.00000000 0.00000000 0.00000000
Neuron 82 1 0.00000000 1 0.00000000 0.00000000 0.00000000 0.00000000
Neuron 83 1 0.00000000 1 0.00000000 0.00000000 0.00000000 0.00000000
Neuron 84 1 0.00000000 1 0.00000000 0.00000000 0.00000000 0.00000000
Neuron 85 1 0.00000000 1 0.00000000 0.00000000 0.00000000 0.00000000
Neuron 86 1 0.00000000 1 0.00000000 0.00000000 0.00000000 0.00000000
Neuron 87 1 0.00000000 1 0.00000000 0.00000000 0.00000000 0.00000000
Neuron 88 1 0.00000000 1 0.00000000 0.00000000 0.00000000 0.00000000
Neuron 89 1 0.00000000 1 0.00000000 0.00000000 0.00000000 0.00000000
Neuron 90 1 0.00000000 1 0.00000000 0.00000000 0.00000000 0.00000000
Neuron 91 1 0.00000000 1 0.00000000 0.00000000 0.00000000 0.00000000
Neuron 92 1 0.00000000 1 0.00000000 0.00000000 0.00000000 0.00000000
Neuron 93 1 0.00000000 1 0.00000000 0.00000000 0.00000000 0.00000000
Neuron 94 1 0.00000000 1 0.00000000 0.00000000 0.00000000 0.00000000
Neuron 95 1 0.00000000 1 0.00000000 0.00000000 0.00000000 0.00000000
Neuron 96 1 0.00000000 1 0.00000000 0.00000000 0.00000000 0.00000000
Neuron 97 1 0.00000000 1 0.00000000 0.00000000 0.00000000 0.00000000
Neuron 98 1 0.00000000 1 0.00000000 0.00000000 0.00000000 0.00000000
Neuron 99 1 0.00000000 1 0.00000000 0.00000000 0.00000000 0.00000000
Neuron 100 1 0.00000000 1 0.00000000 0.00000000 0.00000000 0.00000000
Neuron 101 1 0.00000000 1 0.00000000 0.00000000 0.00000000 0.00000000
Neuron 102 1 0.00000000 1 0.00000000 0.00000000 0.00000000 0.00000000
Neuron 103 1 0.00000000 1 0.00000000 0.00000000 0.00000000 0.00000000
Neuron 104 1 0.00000000 1 0.00000000 0.00000000 0.00000000 0.00000000
Neuron 105 1 0.00000000 1 0.00000000 0.00000000 0.00000000 0.00000000
Neuron 106 1 0.00000000 1 0.00000000 0.00000000 0.00000000 0.00000000
Neuron 107 1 0.00000000 1 0.00000000 0.00000000 0.00000000 0.00000000
Neuron 108 1 0.00000000 1 0.00000000 0.00000000 0.00000000 0.00000000
Neuron 109 1 0.00000000 1 0.00000000 0.00000000 0.00000000 0.00000000
Neuron 110 1 0.00000000 1 0.00000000 0.00000000 0.00000000 0.00000000
Neuron 111 1 0.00000000 1 0.00000000 0.00000000 0.00000000 0.00000000
Neuron 112 1 0.00000000 1 0.00000000 0.00000000 0.00000000 0.00000000
Neuron 113 1 0.00000000 1 0.00000000 0.00000000 0.00000000 0.00000000
Neuron 114 1 0.00000000 1 0.00000000 0.00000000 0.00000000 0.00000000
Neuron 115 1 0.00000000 1 0.00000000 0.00000000 0.00000000 0.00000000
Neuron 116 1 0.00000000 1 0.00000000 0.00000000 0.00000000 0.00000000
Neuron 117 1 0.00000000 1 0.00000000 0.00000000 0.00000000 0.00000000
Neuron 118 1 0.00000000 1 0.00000000 0.00000000 0.00000000 0.00000000
Neuron 119 1 0.00000000 1 0.00000000 0.00000000 0.00000000 0.00000000
Neuron 120 1 0.00000000 1 0.00000000 0.00000000 0.00000000 0.00000000
Neuron 121 1 0.00000000 1 0.00000000 0.00000000 0.00000000 0.00000000
Neuron 122 1 0.00000000 1 0.00000000 0.00000000 0.00000000 0.00000000
Neuron 123 1 0.00000000 1 0.00000000 0.00000000 0.00000000 0.00000000
Neuron 124 1 0.00000000 1 0.00000000 0.00000000 0.00000000 0.00000000
Neuron 125 1 0.00000000 1 0.00000000 0.00000000 0.00000000 0.00000000
Neuron 126 1 0.00000000 1 0.00000000 0.00000000 0.00000000 0.00000000
Neuron 127 1 0.00000000 1 0.00000000 0.00000000 0.00000000 0.00000000
Neuron 128 1 0.00000000 1 0.00000000 0.00000000 0.00000000 0.00000000
Neuron 129 1 0.00000000 1 0.00000000 0.00000000 0.00000000 0.00000000
Neuron 130 1 0.00000000 1 0.00000000 0.00000000 0.00000000 0.00000000
Neuron 131 1 0.00000000 1 0.00000000 0.00000000 0.00000000 0.00000000
Neuron 132 1 0.00000000 1 0.00000000 0.00000000 0.00000000 0.00000000
Neuron 133 1 0.00000000 1 0.00000000 0.00000000 0.00000000 0.00000000
Neuron 134 1 0.00000000 1 0.00000000 0.00000000 0.00000000 0.00000000
Neuron 135 1 0.00000000 1 0.00000000 0.00000000 0.00000000 0.00000000
Neuron 136 1 0.00000000 1 0.00000000 0.00000000 0.00000000 0.00000000
Neuron 137 1 0.00000000 1 0.00000000 0.00000000 0.00000000 0.00000000
Neuron 138 1 0.00000000 1 0.00000000 0.00000000 0.00000000 0.00000000
Neuron 139 1 0.00000000 1 0.00000000 0.00000000 0.00000000 0.00000000
Neuron 140 1 0.00000000 1 0.00000000 0.00000000 0.00000000 0.00000000
Neuron 141 1 0.00000000 1 0.00000000 0.00000000 0.00000000 0.00000000
Neuron 142 1 0.00000000 1 0.00000000 0.00000000 0.00000000 0.00000000
Neuron 143 1 0.00000000 1 0.00000000 0.00000000 0.00000000 0.00000000
Neuron 144 1 0.00000000 1 0.00000000 0.00000000 0.00000000 0.00000000
Neuron 145 1 0.00000000 1 0.00000000 0.00000000 0.00000000 0.00000000
Neuron 146 1 0.00000000 1 0.00000000 0.00000000 0.00000000 0.00000000
Neuron 147 1 0.00000000 1 0.00000000 0.00000000 0.00000000 0.00000000
Neuron 148 1 0.00000000 1 0.00000000 0.00000000 0.00000000 0.00000000
Neuron 149 1 0.00000000 1 0.00000000 0.00000000 0.00000000 0.00000000
Neuron 150 1 0.00000000 1 0.00000000 0.00000000 0.00000000 0.00000000
Neuron 151 1 0.00000000 1 0.00000000 0.00000000 0.00000000 0.00000000
Neuron 152 1 0.00000000 1 0.00000000 0.00000000 0.00000000 0.00000000
Neuron 153 1 0.00000000 1 0.00000000 0.00000000 0.00000000 0.00000000
Neuron 154 1 0.00000000 1 0.00000000 0.00000000 0.00000000 0.00000000
Neuron 155 1 0.00000000 1 0.00000000 0.00000000 0.00000000 0.00000000
Neuron 156 1 0.00000000 1 0.00000000 0.00000000 0.00000000 0.00000000
Neuron 157 1 0.00000000 1 0.00000000 0.00000000 0.00000000 0.00000000
Neuron 158 1 0.00000000 1 0.00000000 0.00000000 0.00000000 0.00000000
Neuron 159 1 0.00000000 1 0.00000000 0.00000000 0.00000000 0.00000000
Neuron 160 1 0.00000000 1 0.00000000 0.00000000 0.00000000 0.00000000
Neuron 161 1 0.00000000 1 0.00000000 0.00000000 0.00000000 0.00000000
Neuron 162 1 0.00000000 1 0.00000000 0.00000000 0.00000000 0.00000000
Neuron 163 1 0.00000000 1 0.00000000 0.00000000 0.00000000 0.00000000
Neuron 164 1 0.00000000 1 0.00000000 0.00000000 0.00000000 0.00000000
Neuron 165 1 0.00000000 1 0.00000000 0.00000000 0.00000000 0.00000000
Neuron 166 1 0.00000000 1 0.00000000 0.00000000 0.00000000 0.00000000
Neuron 167 1 0.00000000 1 0.00000000 0.00000000 0.00000000 0.00000000
Neuron 168 1 0.00000000 1 0.00000000 0.00000000 0.00000000 0.00000000
Neuron 169 1 0.00000000 1 0.00000000 0.00000000 0.00000000 0.00000000
Neuron 170 1 0.00000000 1 0.00000000 0.00000000 0.00000000 0.00000000
Neuron 171 1 0.00000000 1 0.00000000 0.00000000 0.00000000 0.00000000
Neuron 172 1 0.00000000 1 0.00000000 0.00000000 0.00000000 0.00000000
Neuron 173 1 0.00000000 1 0.00000000 0.00000000 0.00000000 0.00000000
Neuron 174 1 0.00000000 1 0.00000000 0.00000000 0.00000000 0.00000000
Neuron 175 1 0.00000000 1 0.00000000 0.00000000 0.00000000 0.00000000
Neuron 176 1 0.00000000 1 0.00000000 0.00000000 0.00000000 0.00000000
Neuron 177 1 0.00000000 1 0.00000000 0.00000000 0.00000000 0.00000000
Neuron 178 1 0.00000000 1 0.00000000 0.00000000 0.00000000 0.00000000
Neuron 179 1 0.00000000 1 0.00000000 0.00000000 0.00000000 0.00000000
Neuron 180 1 0.00000000 1 0.00000000 0.00000000 0.00000000 0.00000000
Neuron 181 1 0.00000000 1 0.00000000 0.00000000 0.00000000 0.00000000
Neuron 182 1 0.00000000 1 0.00000000 0.00000000 0.00000000 0.00000000
Neuron 183 1 0.00000000 1 0.00000000 0.00000000 0.00000000 0.00000000
Neuron 184 1 0.00000000 1 0.00000000 0.00000000 0.00000000 0.00000000
Neuron 185 1 0.00000000 1 0.00000000 0.00000000 0.00000000 0.00000000
Neuron 186 1 0.00000000 1 0.00000000 0.00000000 0.00000000 0.00000000
Neuron 187 1 0.00000000 1 0.00000000 0.00000000 0.00000000 0.00000000
Neuron 188 1 0.00000000 1 0.00000000 0.00000000 0.00000000 0.00000000
Neuron 189 1 0.00000000 1 0.00000000 0.00000000 0.00000000 0.00000000
Neuron 190 1 0.00000000 1 0.00000000 0.00000000 0.00000000 0.00000000
Neuron 191 1 0.00000000 1 0.00000000 0.00000000 0.00000000 0.00000000
Neuron 192 1 0.00000000 1 0.00000000 0.00000000 0.00000000 0.00000000
Neuron 193 1 0.00000000 1 0.00000000 0.00000000 0.00000000 0.00000000
Neuron 194 2 0.00000000 1 0.00000000 0.00000000 0.00000000 0.00000000
Neuron 195 4 1.00000000 0 1.00000000 0.00000000 0.00000000 0.28558896
Neuron 196 4 1.00000000 1 1.00000000 0.00000000 0.00000000 0.63585167
Neuron 197 4 1.00000000 0 1.00000000 0.00000000 0.00000000 -0.49585644
Neuron 198 4 1.00000000 0 1.00000000 0.00000000 0.00000000 0.65099135
Neuron 199 4 1.00000000 0 1.00000000 0.00000000 0.00000000 0.03920268
Neuron 200 4 1.00000000 0 1.00000000 0.00000000 0.00000000 0.35102820
Neuron 201 4 1.00000000 0 1.00000000 0.00000000 0.00000000 0.01113841
Neuron 202 4 1.00000000 1 1.00000000 0.00000000 0.00000000 -0.50409404
Neuron 203 4 1.00000000 0 1.00000000 0.00000000 0.00000000 0.20192745
Neuron 204 4 1.00000000 1 1.00000000 0.00000000 0.00000000 0.46093203
Neuron 205 4 1.00000000 0 1.00000000 0.00000000 0.00000000 0.43147647
Neuron 206 4 1.00000000 0 1.00000000 0.00000000 0.00000000 -0.38453143
Neuron 207 4 1.00000000 0 1.00000000 0.00000000 0.00000000 -0.23033757
Neuron 208 4 1.00000000 0 1.00000000 0.00000000 0.00000000 -0.20077915
Neuron 209 4 1.00000000 0 1.00000000 0.00000000 0.00000000 -0.20979312
Neuron 225 3 0.50000000 1 1.00000000 0.00000000 0.00000000 0.00000000
Link 1 195 1 0 -0.18342547
Link 2 195 2 0 1.67743290
Link 3 195 3 0 2.03093747
Link 4 195 4 0 -0.24161682
Link 5 195 5 0 0.60516975
Link 6 195 6 0 -0.63700910
Link 7 195 7 0 0.64032411
Link 8 195 8 0 0.77736347
Link 9 195 9 0 0.15439461
Link 10 195 10 0 0.02366847
Link 11 195 11 0 -0.04404776
Link 12 195 12 0 -0.99075462
Link 13 195 13 0 -0.43423138
Link 14 195 14 0 -0.51606016
Link 15 195 15 0 0.70284037
Link 16 195 16 0 -0.29768116
Link 17 195 17 0 -1.12629289
Link 18 195 18 0 -0.00994056
Link 19 195 19 0 -0.41563937
Link 20 195 20 0 0.07031516
Link 21 195 21 0 0.54525129
Link 22 195 22 0 -0.38134980
Link 23 195 23 0 -1.05447534
Link 24 195 24 0 0.28009797
Link 25 195 25 0 -0.64911138
Link 26 195 26 0 -0.37908156
Link 27 195 27 0 0.94033262
Link 28 195 28 0 0.15081960
Link 29 195 29 0 0.28068387
Link 30 195 30 0 0.29452795
Link 31 195 31 0 -1.17468702
Link 32 195 32 0 -2.05973071
Link 33 195 33 0 -0.01236954
Link 34 195 34 0 -0.26355833
Link 35 195 35 0 0.01329118
Link 36 195 36 0 -0.88735806
Link 37 195 37 0 0.12984921
Link 38 195 38 0 0.60127024
Link 39 195 39 0 0.06520557
Link 40 195 40 0 0.50007147
Link 41 195 41 0 1.48468831
Link 42 195 42 0 0.26907413
Link 43 195 43 0 -0.48062376
Link 44 195 44 0 -0.11541601
Link 45 195 45 0 0.73448420
Link 46 195 46 0 1.02712730
Link 47 195 47 0 0.20562872
Link 48 195 48 0 0.91108030
Link 49 195 49 0 -0.13831851
Link 50 195 50 0 -0.29792265
Link 51 195 51 0 0.42747686
Link 52 195 52 0 -0.30305119
Link 53 195 53 0 -0.36252754
Link 54 195 54 0 -1.75113604
Link 55 195 55 0 -0.22610927
Link 56 195 56 0 0.37539157
Link 57 195 57 0 -0.92316081
Link 58 195 58 0 -0.33154370
Link 59 195 59 0 0.27472014
Link 60 195 60 0 0.46257471
Link 61 195 61 0 0.44707976
Link 62 195 62 0 1.25084613
Link 63 195 63 0 0.40092239
Link 64 195 64 0 -0.87172148
Link 65 195 65 0 -0.46727906
Link 66 195 66 0 0.01863698
Link 67 195 67 0 -0.54606413
Link 68 195 68 0 -0.05594255
Link 69 195 69 0 0.20584361
Link 70 195 70 0 0.08970489
Link 71 195 71 0 0.16292015
Link 72 195 72 0 -0.30203431
Link 73 195 73 0 0.39106378
Link 74 195 74 0 -0.07627111
Link 75 195 75 0 0.38755165
Link 76 195 76 0 -0.76383242
Link 77 195 77 0 -0.21911439
Link 78 195 78 0 0.22464990
Link 79 195 79 0 -0.61086237
Link 80 195 80 0 0.28481811
Link 81 195 81 0 -0.26140970
Link 82 195 82 0 0.49315713
Link 83 195 83 0 -0.41954021
Link 84 195 84 0 0.86812983
Link 85 195 85 0 1.37945664
Link 86 195 86 0 -0.46090833
Link 87 195 87 0 0.45345177
Link 88 195 88 0 0.22083209
Link 89 195 89 0 -0.03442238
Link 90 195 90 0 0.32766161
Link 91 195 91 0 -0.40155997
Link 92 195 92 0 1.48416081
Link 93 195 93 0 -0.37293621
Link 94 195 94 0 -0.68736085
Link 95 195 95 0 -0.25873540
Link 96 195 96 0 -0.10065442
Link 97 195 97 0 -0.73020981
Link 98 195 98 0 -0.02238226
Link 99 195 99 0 -0.22335886
Link 100 195 100 0 -0.18428370
Link 101 195 101 0 0.20891457
Link 102 195 102 0 -0.62480444
Link 103 195 103 0 -0.29462946
Link 104 195 104 0 -0.88041327
Link 105 195 105 0 0.75314552
Link 106 195 106 0 0.79292461
Link 107 195 107 0 -0.03141051
Link 108 195 108 0 0.41646954
Link 109 195 109 0 0.14176129
Link 110 195 110 0 0.26208960
Link 111 195 111 0 0.12954160
Link 112 195 112 0 -0.10583006
Link 113 195 113 0 -0.11679950
Link 114 195 114 0 0.69022107
Link 115 195 115 0 1.02205105
Link 116 195 116 0 0.74941208
Link 117 195 117 0 0.38211393
Link 118 195 118 0 0.81372385
Link 119 195 119 0 0.58407333
Link 120 195 120 0 0.73618141
Link 121 195 121 0 -0.01232572
Link 122 195 122 0 0.68681963
Link 123 195 123 0 -0.10340231
Link 124 195 124 0 -0.54045200
Link 125 195 125 0 -0.08407908
Link 126 195 126 0 -0.69528484
Link 127 195 127 0 -0.17377225
Link 128 195 128 0 0.08805432
Link 129 195 129 0 -0.09565567
Link 130 195 130 0 0.33593610
Link 131 195 131 0 0.38097606
Link 132 195 132 0 -0.17014672
Link 133 195 133 0 0.39345635
Link 134 195 134 0 -0.46798636
Link 135 195 135 0 -0.23794425
Link 136 195 136 0 0.32671613
Link 137 195 137 0 0.05612836
Link 138 195 138 0 0.32058186
Link 139 195 139 0 0.59018677
Link 140 195 140 0 0.33360239
Link 141 195 141 0 -0.81349727
Link 142 195 142 0 0.56532195
Link 143 195 143 0 -0.80996813
Link 144 195 144 0 -0.51441359
Link 145 195 145 0 0.05825688
Link 146 195 146 0 0.88281571
Link 147 195 147 0 -0.41401786
Link 148 195 148 0 0.62051361
Link 149 195 149 0 0.08866241
Link 150 195 150 0 -0.01733513
Link 151 195 151 0 -0.07381765
Link 152 195 152 0 0.59560114
Link 153 195 153 0 0.53871643
Link 154 195 154 0 0.40657869
Link 155 195 155 0 0.29218033
Link 156 195 156 0 0.25527265
Link 157 195 157 0 0.56678308
Link 158 195 158 0 -0.89697219
Link 159 195 159 0 0.32706127
Link 160 195 160 0 -0.01421341
Link 161 195 161 0 -0.11791725
Link 162 195 162 0 0.21023440
Link 163 195 163 0 1.16088643
Link 164 195 164 0 0.39321109
Link 165 195 165 0 0.48475432
Link 166 195 166 0 0.97377284
Link 167 195 167 0 0.21206614
Link 168 195 168 0 -0.22069527
Link 169 195 169 0 0.14612367
Link 170 195 170 0 0.06603592
Link 171 195 171 0 0.17773907
Link 172 195 172 0 0.52638236
Link 173 195 173 0 0.30736079
Link 174 195 174 0 -0.10990584
Link 175 195 175 0 -0.00608151
Link 176 195 176 0 -0.55161498
Link 177 195 177 0 0.35613309
Link 178 195 178 0 0.33995480
Link 179 195 179 0 0.06710832
Link 180 195 180 0 0.59799583
Link 181 195 181 0 0.40448344
Link 182 195 182 0 -0.35472375
Link 183 195 183 0 0.29237355
Link 184 195 184 0 0.32886690
Link 185 195 185 0 0.22049883
Link 186 195 186 0 0.04607589
Link 187 195 187 0 -0.36049431
Link 188 195 188 0 -0.12522541
Link 189 195 189 0 0.72577499
Link 190 195 190 0 0.10400536
Link 191 195 191 0 0.17865376
Link 192 195 192 0 0.18709402
Link 193 195 193 0 0.23536652
Link 194 195 194 0 -0.09587460
Link 1 196 195 0 0.44360778
Link 2 196 196 0 0.44431655
Link 3 196 197 0 0.59146243
Link 4 196 198 0 0.23117946
Link 5 196 199 0 0.57898597
Link 6 196 200 0 0.38360277
Link 7 196 201 0 -1.23095739
Link 8 196 202 0 0.80650380
Link 9 196 203 0 0.39554693
Link 10 196 204 0 1.61406174
Link 11 196 205 0 0.31533938
Link 12 196 206 0 0.22296212
Link 13 196 207 0 -0.10303359
Link 14 196 208 0 -0.28464105
Link 15 196 209 0 0.19968296
Link 16 196 210 0 -0.59315739
Link 17 196 211 0 -1.34156535
Link 18 196 212 0 0.28108445
Link 19 196 213 0 -0.18384222
Link 20 196 214 0 -0.73615148
Link 21 196 215 0 0.27513285
Link 22 196 216 0 0.43407331
Link 23 196 217 0 -0.89850911
Link 24 196 218 0 0.36725700
Link 25 196 219 0 0.53525365
Link 26 196 220 0 0.10478978
Link 27 196 221 0 0.16039310
Link 28 196 222 0 -0.28735661
Link 29 196 223 0 -0.32995393
Link 30 196 224 0 -1.41480458
Link 31 196 225 0 -0.63540592
Link 32 196 226 0 0.49929073
Link 33 196 227 0 2.05732264
Link 34 196 228 0 -1.83274264
Link 35 196 229 0 -0.27157975
Link 36 196 230 0 0.35623638
Link 37 196 231 0 0.07203048
Link 38 196 232 0 -0.01809992
Link 39 196 233 0 0.55130396
Link 40 196 234 0 -0.13368770
Link 41 196 235 0 -0.20810893
Link 42 196 236 0 0.78996851
Link 43 196 237 0 0.82559935
Link 44 196 238 0 -0.29215074
Link 45 196 239 0 0.70607942
Link 46 196 240 0 -0.26685051
Link 47 196 241 0 -0.80652150
Link 48 196 242 0 0.69908318
Link 49 196 243 0 0.84631872
Link 50 196 244 0 -0.48136677
Link 51 196 245 0 -0.73228139
Link 52 196 246 0 -0.20360255
Link 53 196 247 0 0.14623183
Link 54 196 248 0 -0.76300734
Link 55 196 249 0 -1.10683666
Link 56 196 250 0 0.72734626
Link 57 196 251 0 0.15700882
Link 58 196 252 0 -0.08895492
Link 59 196 253 0 -0.29556343
Link 60 196 254 0 0.25035651
Link 61 196 255 0 -0.18073785
Link 62 196 256 0 1.11174248
Link 63 196 257 0 0.49092702
Link 64 196 258 0 0.29224699
Link 65 196 259 0 -0.58593007
Link 66 196 260 0 -0.33703692
Link 67 196 261 0 0.65514755
Link 68 196 262 0 0.02441019
Link 69 196 263 0 1.21387480
Link 70 196 264 0 -0.71307763
Link 71 196 265 0 -0.28314258
Link 72 196 266 0 -0.27460388
Link 73 196 267 0 -0.46947109
Link 74 196 268 0 1.65338882
Link 75 196 269 0 0.01160108
Link 76 196 270 0 0.71106216
Link 77 196 271 0 -0.17414200
Link 78 196 272 0 0.67448581
Link 79 196 273 0 1.18220608
Link 80 196 274 0 0.03298031
Link 81 196 275 0 0.09419111
Link 82 196 276 0 0.26567246
Link 83 196 277 0 -0.66817067
Link 84 196 278 0 -0.49354614
Link 85 196 279 0 0.26152930
Link 86 196 280 0 0.20786458
Link 87 196 281 0 0.43314379
Link 88 196 282 0 -1.01551978
Link 89 196 283 0 -0.66881021
Link 90 196 284 0 0.59699975
Link 91 196 285 0 -0.20642065
Link 92 196 286 0 0.65968362
Link 93 196 287 0 -0.22121150
Link 94 196 288 0 0.85099784
Link 95 196 289 0 0.96700739
Link 96 196 290 0 -0.91070534
Link 97 196 291 0 0.34577228
Link 98 196 292 0 0.46286580
Link 99 196 293 0 0.28664240
Link 100 196 294 0 -1.11887154
Link 101 196 295 0 0.54870271
Link 102 196 296 0 0.75618820
Link 103 196 297 0 -0.09948594
Link 104 196 298 0 -0.09261793
Link 105 196 299 0 0.29684952
Link 106 196 300 0 -0.36918725
Link 107 196 301 0 0.27738674
Link 108 196 302 0 -0.52819715
Link 109 196 303 0 -0.21129972
Link 110 196 304 0 -0.06132368
Link 111 196 305 0 0.53759292
Link 112 196 306 0 0.62166886
Link 113 196 307 0 0.26584341
Link 114 196 308 0 -0.33672511
Link 115 196 309 0 -0.86549173
Link 116 196 310 0 0.26022744
Link 117 196 311 0 0.58716780
Link 118 196 312 0 1.00133814
Link 119 196 313 0 0.65235848
Link 120 196 314 0 0.28433582
Link 121 196 315 0 -0.01818593
Link 122 196 316 0 0.20325970
Link 123 196 317 0 0.54632302
Link 124 196 318 0 -0.65523371
Link 125 196 319 0 0.38329293
Link 126 196 320 0 -0.39696359
Link 127 196 321 0 1.28497414
Link 128 196 322 0 -0.39972081
Link 129 196 323 0 0.82205216
Link 130 196 324 0 1.08557976
Link 131 196 325 0 0.72372408
Link 132 196 326 0 0.63733981
Link 133 196 327 0 0.08506616
Link 134 196 328 0 0.07805007
Link 135 196 329 0 0.19650831
Link 136 196 330 0 -0.11850441
Link 137 196 331 0 -0.01693887
Link 138 196 332 0 -0.12990895
Link 139 196 333 0 0.80824855
Link 140 196 334 0 -0.68369094
Link 141 196 335 0 -0.96093730
Link 142 196 336 0 0.05806837
Link 143 196 337 0 0.52533775
Link 144 196 338 0 -0.07028990
Link 145 196 339 0 0.11585489
Link 146 196 340 0 0.46972408
Link 147 196 341 0 -0.09239815
Link 148 196 342 0 -0.42589549
Link 149 196 343 0 -0.03793320
Link 150 196 344 0 0.37434565
Link 151 196 345 0 0.47446175
Link 152 196 346 0 -0.05251926
Link 153 196 347 0 -0.01206743
Link 154 196 348 0 0.49153426
Link 155 196 349 0 0.82537108
Link 156 196 350 0 0.90137980
Link 157 196 351 0 0.45426475
Link 158 196 352 0 -0.34910066
Link 159 196 353 0 -0.58276299
Link 160 196 354 0 -0.58061038
Link 161 196 355 0 -0.38975892
Link 162 196 356 0 0.22318981
Link 163 196 357 0 -0.03869323
Link 164 196 358 0 -0.52434594
Link 165 196 359 0 0.18525712
Link 166 196 360 0 -0.18253715
Link 167 196 361 0 -0.08085364
Link 168 196 362 0 1.41449975
Link 169 196 363 0 -0.28232785
Link 170 196 364 0 -0.26356188
Link 171 196 365 0 -0.49319884
Link 172 196 366 0 0.58602244
Link 173 196 367 0 1.04577223
Link 174 196 368 0 -1.02220962
Link 175 196 369 0 -0.91280471
Link 176 196 370 0 -0.91459034
Link 177 196 371 0 0.23753091
Link 178 196 372 0 0.05014327
Link 179 196 373 0 -1.37841519
Link 180 196 374 0 0.32450889
Link 181 196 375 0 0.07922598
Link 182 196 376 0 0.33278263
Link 183 196 377 0 -0.09678088
Link 184 196 378 0 1.26212094
Link 185 196 379 0 -0.00114784
Link 186 196 380 0 0.52134968
Link 187 196 381 0 0.02780970
Link 188 196 382 0 -0.22074710
Link 189 196 383 0 0.36900721
Link 190 196 384 0 -0.20136522
Link 191 196 385 0 -0.03378509
Link 192 196 386 0 0.49208762
Link 193 196 387 0 -0.71879093
Link 194 196 388 0 0.49861565
Link 1 197 389 0 -0.54543091
Link 2 197 390 0 -0.06224304
Link 3 197 391 0 -0.72127759
Link 4 197 392 0 0.05558149
Link 5 197 393 0 -0.79404361
Link 6 197 394 0 0.94493114
Link 7 197 395 0 0.03433399
Link 8 197 396 0 -0.11484332
Link 9 197 397 0 -0.14211941
Link 10 197 398 0 0.44647541
Link 11 197 399 0 0.66866973
Link 12 197 400 0 1.15528907
Link 13 197 401 0 -1.05881672
Link 14 197 402 0 0.25090632
Link 15 197 403 0 -0.53487864
Link 16 197 404 0 0.50938397
Link 17 197 405 0 -0.77185365
Link 18 197 406 0 -0.99520679
Link 19 197 407 0 -0.15281255
Link 20 197 408 0 0.06094920
Link 21 197 409 0 1.65080975
Link 22 197 410 0 -1.23709118
Link 23 197 411 0 -0.40058071
Link 24 197 412 0 0.53333551
Link 25 197 413 0 -0.13223585
Link 26 197 414 0 0.12171452
Link 27 197 415 0 0.35806398
Link 28 197 416 0 -0.21150614
Link 29 197 417 0 -0.25765120
Link 30 197 418 0 0.10747794
Link 31 197 419 0 -0.73163351
Link 32 197 420 0 0.27624701
Link 33 197 421 0 -0.38796450
Link 34 197 422 0 0.30089614
Link 35 197 423 0 -0.60961096
Link 36 197 424 0 -0.26019865
Link 37 197 425 0 -0.42184736
Link 38 197 426 0 0.09964028
Link 39 197 427 0 0.70512195
Link 40 197 428 0 0.58508153
Link 41 197 429 0 0.11027654
Link 42 197 430 0 0.20064895
Link 43 197 431 0 0.53439151
Link 44 197 432 0 0.61744120
Link 45 197 433 0 0.42849002
Link 46 197 434 0 0.73484907
Link 47 197 435 0 0.16739021
Link 48 197 436 0 -0.67783212
Link 49 197 437 0 -0.71257321
Link 50 197 438 0 0.15353612
Link 51 197 439 0 -0.81867402
Link 52 197 440 0 -0.03110046
Link 53 197 441 0 0.04214199
Link 54 197 442 0 0.34508580
Link 55 197 443 0 -0.57938497
Link 56 197 444 0 0.66450685
Link 57 197 445 0 0.23145380
Link 58 197 446 0 0.84078733
Link 59 197 447 0 -0.02406404
Link 60 197 448 0 -0.92534141
Link 61 197 449 0 1.59216277
Link 62 197 450 0 -0.10288888
Link 63 197 451 0 -0.35928414
Link 64 197 452 0 -0.14056634
Link 65 197 453 0 -0.22934687
Link 66 197 454 0 -0.15968621
Link 67 197 455 0 -0.15144733
Link 68 197 456 0 -0.55390396
Link 69 197 457 0 0.62963036
Link 70 197 458 0 0.17258251
Link 71 197 459 0 -0.63219904
Link 72 197 460 0 -0.45650510
Link 73 197 461 0 1.04727210
Link 74 197 462 0 -0.44278946
Link 75 197 463 0 0.26853035
Link 76 197 464 0 -0.10886204
Link 77 197 465 0 1.57347703
Link 78 197 466 0 -0.28661574
Link 79 197 467 0 -0.47433670
Link 80 197 468 0 -0.16983635
Link 81 197 469 0 0.79691313
Link 82 197 470 0 -0.31996170
Link 83 197 471 0 -0.30805521
Link 84 197 472 0 0.05618049
Link 85 197 473 0 0.21646284
Link 86 197 474 0 -0.42496537
Link 87 197 475 0 -0.01705417
Link 88 197 476 0 -0.38267901
Link 89 197 477 0 -0.06151049
Link 90 197 478 0 0.61528684
Link 91 197 479 0 -0.08738877
Link 92 197 480 0 0.31672012
Link 93 197 481 0 -0.39588615
Link 94 197 482 0 0.35735583
Link 95 197 483 0 -0.00209240
Link 96 197 484 0 1.23398371
Link 97 197 485 0 0.22873258
Link 98 197 486 0 -0.20030824
Link 99 197 487 0 -0.90488036
Link 100 197 488 0 0.11274813
Link 101 197 489 0 1.82792033
Link 102 197 490 0 0.26427756
Link 103 197 491 0 0.43476210
Link 104 197 492 0 -0.16889377
Link 105 197 493 0 -0.52260038
Link 106 197 494 0 0.33322036
Link 107 197 495 0 0.92545777
Link 108 197 496 0 -1.15057147
Link 109 197 497 0 -0.27198045
Link 110 197 498 0 -0.00726998
Link 111 197 499 0 0.06061321
Link 112 197 500 0 0.24018388
Link 113 197 501 0 -0.90216307
Link 114 197 502 0 -0.57642575
Link 115 197 503 0 -0.12374789
Link 116 197 504 0 0.18831125
Link 117 197 505 0 1.39804761
Link 118 197 506 0 0.60012049
Link 119 197 507 0 -0.65461601
Link 120 197 508 0 -0.33067079
Link 121 197 509 0 -1.23994595
Link 122 197 510 0 1.71483759
Link 123 197 511 0 0.28286929
Link 124 197 512 0 -0.18878874
Link 125 197 513 0 1.49668339
Link 126 197 514 0 -0.29102320
Link 127 197 515 0 1.07569000
Link 128 197 516 0 0.26774749
Link 129 197 517 0 0.23360698
Link 130 197 518 0 -0.21903440
Link 131 197 519 0 0.17817137
Link 132 197 520 0 -1.06699964
Link 133 197 521 0 0.07660415
Link 134 197 522 0 -0.53596668
Link 135 197 523 0 -0.12616309
Link 136 197 524 0 -0.61788905
Link 137 197 525 0 0.13239641
Link 138 197 526 0 0.63189800
Link 139 197 527 0 0.22026007
Link 140 197 528 0 0.46859415
Link 141 197 529 0 -0.33963862
Link 142 197 530 0 0.32179021
Link 143 197 531 0 -0.23426306
Link 144 197 532 0 1.01829954
Link 145 197 533 0 0.59871874
Link 146 197 534 0 0.14050334
Link 147 197 535 0 0.23649267
Link 148 197 536 0 -0.32905335
Link 149 197 537 0 -0.67308308
Link 150 197 538 0 0.56401226
Link 151 197 539 0 -0.67551121
Link 152 197 540 0 0.25800142
Link 153 197 541 0 0.37789364
Link 154 197 542 0 -0.45559638
Link 155 197 543 0 0.17111492
Link 156 197 544 0 0.17208639
Link 157 197 545 0 -0.18970045
Link 158 197 546 0 0.40016260
Link 159 197 547 0 -0.51518856
Link 160 197 548 0 0.16629761
Link 161 197 549 0 0.83820213
Link 162 197 550 0 0.46539836
Link 163 197 551 0 -0.31195947
Link 164 197 552 0 0.65238233
Link 165 197 553 0 -0.28806937
Link 166 197 554 0 0.15922535
Link 167 197 555 0 0.63661885
Link 168 197 556 0 -0.97889227
Link 169 197 557 0 0.22621099
Link 170 197 558 0 -1.22224740
Link 171 197 559 0 -0.29683686
Link 172 197 560 0 -0.30598328
Link 173 197 561 0 -0.48970784
Link 174 197 562 0 0.01324531
Link 175 197 563 0 0.58146439
Link 176 197 564 0 1.26908402
Link 177 197 565 0 -0.98026166
Link 178 197 566 0 0.17054096
Link 179 197 567 0 -0.46164360
Link 180 197 568 0 -0.20893658
Link 181 197 569 0 0.63180972
Link 182 197 570 0 0.09854506
Link 183 197 571 0 -0.80781380
Link 184 197 572 0 -0.90415484
Link 185 197 573 0 -2.07666867
Link 186 197 574 0 -0.04166484
Link 187 197 575 0 -1.64928309
Link 188 197 576 0 -0.09661218
Link 189 197 577 0 0.20272869
Link 190 197 578 0 0.12919266
Link 191 197 579 0 -0.16029095
Link 192 197 580 0 0.34148327
Link 193 197 581 0 -0.05711491
Link 194 197 582 0 0.06280321
Link 1 198 583 0 0.56341235
Link 2 198 584 0 -0.53714233
Link 3 198 585 0 -0.68995381
Link 4 198 586 0 -0.65519907
Link 5 198 587 0 -1.45190105
Link 6 198 588 0 0.89337393
Link 7 198 589 0 -0.18011457
Link 8 198 590 0 -0.10359325
Link 9 198 591 0 -0.35587986
Link 10 198 592 0 0.07211910
Link 11 198 593 0 0.46984860
Link 12 198 594 0 0.41596910
Link 13 198 595 0 0.16425054
Link 14 198 596 0 0.29667087
Link 15 198 597 0 0.52657419
Link 16 198 598 0 0.39806201
Link 17 198 599 0 0.68944339
Link 18 198 600 0 0.06715169
Link 19 198 601 0 0.76492095
Link 20 198 602 0 -0.05121768
Link 21 198 603 0 0.23448441
Link 22 198 604 0 -0.81788108
Link 23 198 605 0 0.42065477
Link 24 198 606 0 0.55256444
Link 25 198 607 0 0.83523701
Link 26 198 608 0 -0.73800311
Link 27 198 609 0 -0.04847032
Link 28 198 610 0 -0.29950936
Link 29 198 611 0 0.13638621
Link 30 198 612 0 -0.43440244
Link 31 198 613 0 1.36944745
Link 32 198 614 0 -1.24192532
Link 33 198 615 0 -0.42942372
Link 34 198 616 0 -0.47944128
Link 35 198 617 0 -0.16720495
Link 36 198 618 0 -0.46077349
Link 37 198 619 0 0.61623239
Link 38 198 620 0 0.14991137
Link 39 198 621 0 0.90465867
Link 40 198 622 0 0.11975697
Link 41 198 623 0 -0.21963337
Link 42 198 624 0 0.06302073
Link 43 198 625 0 0.44035918
Link 44 198 626 0 -0.10224214
Link 45 198 627 0 -0.19943415
Link 46 198 628 0 0.20885456
Link 47 198 629 0 1.06848629
Link 48 198 630 0 0.03557913
Link 49 198 631 0 -0.40512703
Link 50 198 632 0 0.16706445
Link 51 198 633 0 -0.39186820
Link 52 198 634 0 -0.22952567
Link 53 198 635 0 0.76830116
Link 54 198 636 0 -0.46469216
Link 55 198 637 0 0.41758375
Link 56 198 638 0 0.11206004
Link 57 198 639 0 0.10147638
Link 58 198 640 0 -0.26475871
Link 59 198 641 0 -1.51834369
Link 60 198 642 0 -0.55902543
Link 61 198 643 0 0.34544410
Link 62 198 644 0 -0.78457331
Link 63 198 645 0 -0.12305949
Link 64 198 646 0 0.16287549
Link 65 198 647 0 0.76421681
Link 66 198 648 0 0.59243084
Link 67 198 649 0 0.25136400
Link 68 198 650 0 0.36726228
Link 69 198 651 0 -0.10315737
Link 70 198 652 0 0.43668390
Link 71 198 653 0 -0.79683519
Link 72 198 654 0 -0.26022712
Link 73 198 655 0 0.18039141
Link 74 198 656 0 0.19942694
Link 75 198 657 0 0.12539164
Link 76 198 658 0 0.37377102
Link 77 198 659 0 -0.07266100
Link 78 198 660 0 0.11489666
Link 79 198 661 0 0.27025125
Link 80 198 662 0 0.10000800
Link 81 198 663 0 0.15327107
Link 82 198 664 0 -0.31737315
Link 83 198 665 0 -0.26903912
Link 84 198 666 0 0.13218022
Link 85 198 667 0 0.40300371
Link 86 198 668 0 -0.01350790
Link 87 198 669 0 -0.10065899
Link 88 198 670 0 0.35683910
Link 89 198 671 0 0.46988152
Link 90 198 672 0 -0.26995967
Link 91 198 673 0 0.14467788
Link 92 198 674 0 -0.38547677
Link 93 198 675 0 -2.11784066
Link 94 198 676 0 -0.95462974
Link 95 198 677 0 0.46010973
Link 96 198 678 0 0.23898450
Link 97 198 679 0 -0.41566897
Link 98 198 680 0 -0.08516239
Link 99 198 681 0 0.15248220
Link 100 198 682 0 0.22749491
Link 101 198 683 0 -0.17585851
Link 102 198 684 0 -0.49986054
Link 103 198 685 0 0.78485118
Link 104 198 686 0 0.04113858
Link 105 198 687 0 -0.36437543
Link 106 198 688 0 -0.07482989
Link 107 198 689 0 -0.29581342
Link 108 198 690 0 -0.97424563
Link 109 198 691 0 -0.36295675
Link 110 198 692 0 0.79940581
Link 111 198 693 0 0.05062107
Link 112 198 694 0 -0.79654161
Link 113 198 695 0 0.83949775
Link 114 198 696 0 2.71908545
Link 115 198 697 0 -0.00512958
Link 116 198 698 0 0.44199848
Link 117 198 699 0 -0.24571821
Link 118 198 700 0 -0.37000075
Link 119 198 701 0 -1.01401269
Link 120 198 702 0 -0.61398723
Link 121 198 703 0 0.41011316
Link 122 198 704 0 -0.39035882
Link 123 198 705 0 -0.50645766
Link 124 198 706 0 -0.70844966
Link 125 198 707 0 0.47454883
Link 126 198 708 0 1.38376374
Link 127 198 709 0 -0.22942817
Link 128 198 710 0 0.04273640
Link 129 198 711 0 0.05727775
Link 130 198 712 0 -0.06408646
Link 131 198 713 0 0.62582131
Link 132 198 714 0 -0.46443360
Link 133 198 715 0 0.54090727
Link 134 198 716 0 0.47074976
Link 135 198 717 0 -0.59818712
Link 136 198 718 0 0.22237714
Link 137 198 719 0 0.79639691
Link 138 198 720 0 -0.28125954
Link 139 198 721 0 -0.19558820
Link 140 198 722 0 0.03310159
Link 141 198 723 0 -0.28576209
Link 142 198 724 0 0.13625615
Link 143 198 725 0 0.62118113
Link 144 198 726 0 -0.51108852
Link 145 198 727 0 0.81604149
Link 146 198 728 0 0.11213822
Link 147 198 729 0 -0.67283153
Link 148 198 730 0 -0.80443280
Link 149 198 731 0 0.21267871
Link 150 198 732 0 -0.30672933
Link 151 198 733 0 -0.36135490
Link 152 198 734 0 0.16499192
Link 153 198 735 0 0.23555037
Link 154 198 736 0 0.50867945
Link 155 198 737 0 -0.43253777
Link 156 198 738 0 0.58078721
Link 157 198 739 0 0.37224840
Link 158 198 740 0 0.06405601
Link 159 198 741 0 -1.09158581
Link 160 198 742 0 -0.49201541
Link 161 198 743 0 -0.39180846
Link 162 198 744 0 -1.66415901
Link 163 198 745 0 -0.07038743
Link 164 198 746 0 -0.51602224
Link 165 198 747 0 -0.43319526
Link 166 198 748 0 0.51211176
Link 167 198 749 0 1.17098622
Link 168 198 750 0 -0.40090160
Link 169 198 751 0 0.05224479
Link 170 198 752 0 0.33568672
Link 171 198 753 0 -0.30795373
Link 172 198 754 0 -0.85526158
Link 173 198 755 0 -0.31762503
Link 174 198 756 0 0.65646106
Link 175 198 757 0 0.18779174
Link 176 198 758 0 -0.39174449
Link 177 198 759 0 0.30346884
Link 178 198 760 0 -0.39726248
Link 179 198 761 0 0.31237999
Link 180 198 762 0 -0.49776011
Link 181 198 763 0 0.19789790
Link 182 198 764 0 -0.46567024
Link 183 198 765 0 -0.45591870
Link 184 198 766 0 -0.13692136
Link 185 198 767 0 -0.58526211
Link 186 198 768 0 -1.03147268
Link 187 198 769 0 0.33779413
Link 188 198 770 0 -0.91216720
Link 189 198 771 0 -0.19573354
Link 190 198 772 0 -0.57245431
Link 191 198 773 0 -0.03148812
Link 192 198 774 0 0.01686765
Link 193 198 775 0 0.23310797
Link 194 198 776 0 -0.79559291
Link 1 199 777 0 0.05869562
Link 2 199 778 0 -0.19766432
Link 3 199 779 0 -1.06165536
Link 4 199 780 0 -0.17051563
Link 5 199 781 0 -0.10499897
Link 6 199 782 0 0.14681623
Link 7 199 783 0 -0.27990987
Link 8 199 784 0 -1.02296693
Link 9 199 785 0 0.74794011
Link 10 199 786 0 -0.38602104
Link 11 199 787 0 0.84842819
Link 12 199 788 0 -0.21260756
Link 13 199 789 0 -0.20914478
Link 14 199 790 0 -0.55628433
Link 15 199 791 0 -0.45755772
Link 16 199 792 0 -0.51726729
Link 17 199 793 0 0.38789640
Link 18 199 794 0 -2.58543302
Link 19 199 795 0 -0.06201085
Link 20 199 796 0 -0.49032732
Link 21 199 797 0 -0.15656268
Link 22 199 798 0 -1.34610567
Link 23 199 799 0 0.77927864
Link 24 199 800 0 -0.10345197
Link 25 199 801 0 -0.26870762
Link 26 199 802 0 0.29022656
Link 27 199 803 0 -0.08420550
Link 28 199 804 0 -0.29955123
Link 29 199 805 0 -1.54778202
Link 30 199 806 0 0.55585221
Link 31 199 807 0 0.15930698
Link 32 199 808 0 -0.44688759
Link 33 199 809 0 -0.12768215
Link 34 199 810 0 1.07095146
Link 35 199 811 0 -0.07662078
Link 36 199 812 0 -0.30975626
Link 37 199 813 0 -0.24327278
Link 38 199 814 0 -0.55551959
Link 39 199 815 0 -0.22881118
Link 40 199 816 0 -0.17507191
Link 41 199 817 0 -0.06478677
Link 42 199 818 0 0.32852594
Link 43 199 819 0 0.52195771
Link 45 199 821 0 0.85988239
Link 46 199 822 0 -0.21677480
Link 47 199 823 0 0.01728274
Link 48 199 824 0 -0.80090202
Link 49 199 825 0 0.09462409
Link 50 199 826 0 -0.43074396
Link 51 199 827 0 1.62879245
Link 52 199 828 0 -0.24587405
Link 53 199 829 0 0.34385324
Link 54 199 830 0 -0.82361553
Link 55 199 831 0 -0.65005111
Link 56 199 832 0 -0.14978154
Link 57 199 833 0 0.66932326
Link 58 199 834 0 0.20320163
Link 59 199 835 0 -0.43919123
Link 60 199 836 0 0.03264867
Link 61 199 837 0 1.45081449
Link 62 199 838 0 -0.05718018
Link 63 199 839 0 0.50038940
Link 64 199 840 0 1.08106772
Link 65 199 841 0 0.13854847
Link 66 199 842 0 -0.03592698
Link 67 199 843 0 0.52513145
Link 68 199 844 0 -0.57610259
Link 69 199 845 0 0.27194879
Link 70 199 846 0 0.94831730
Link 71 199 847 0 0.56640085
Link 72 199 848 0 -0.39938737
Link 73 199 849 0 0.26774091
Link 74 199 850 0 0.05455420
Link 75 199 851 0 0.56145494
Link 76 199 852 0 0.64468690
Link 77 199 853 0 -0.07942265
Link 78 199 854 0 -0.50762931
Link 79 199 855 0 -0.47485185
Link 80 199 856 0 0.38575689
Link 81 199 857 0 0.37122883
Link 82 199 858 0 -0.50865049
Link 83 199 859 0 -1.53651242
Link 84 199 860 0 0.13569423
Link 85 199 861 0 -0.46301001
Link 86 199 862 0 -0.26021630
Link 87 199 863 0 0.22366379
Link 88 199 864 0 -0.28954864
Link 89 199 865 0 0.30773529
Link 90 199 866 0 0.27800463
Link 91 199 867 0 -0.30877343
Link 92 199 868 0 -0.05190374
Link 93 199 869 0 -0.19234736
Link 94 199 870 0 0.68148974
Link 95 199 871 0 1.10875567
Link 96 199 872 0 -0.72360753
Link 97 199 873 0 0.34689771
Link 98 199 874 0 -0.56883855
Link 99 199 875 0 0.06836430
Link 100 199 876 0 -0.04447648
Link 101 199 877 0 -0.69028027
Link 102 199 878 0 0.33956649
Link 103 199 879 0 -0.54833487
Link 104 199 880 0 -0.88665045
Link 105 199 881 0 0.79920159
Link 106 199 882 0 0.53584387
Link 107 199 883 0 -0.23366288
Link 108 199 884 0 -0.33701441
Link 109 199 885 0 0.80251911
Link 110 199 886 0 -0.56573341
Link 111 199 887 0 -0.39680207
Link 112 199 888 0 -0.63766894
Link 113 199 889 0 0.13556995
Link 114 199 890 0 -0.08315219
Link 115 199 891 0 0.63464599
Link 116 199 892 0 0.55793486
Link 117 199 893 0 0.49325917
Link 118 199 894 0 0.28950580
Link 119 199 895 0 0.37932020
Link 120 199 896 0 -0.23995672
Link 121 199 897 0 0.13351824
Link 122 199 898 0 -0.13215340
Link 123 199 899 0 -0.65066962
Link 124 199 900 0 -0.40357732
Link 125 199 901 0 -0.54157578
Link 126 199 902 0 0.52064655
Link 127 199 903 0 -0.38952863
Link 128 199 904 0 -0.22132685
Link 129 199 905 0 0.18245003
Link 130 199 906 0 -0.70933398
Link 131 199 907 0 -1.08146279
Link 132 199 908 0 -1.13452021
Link 133 199 909 0 -0.17869325
Link 134 199 910 0 -0.69668529
Link 135 199 911 0 -0.64677459
Link 136 199 912 0 0.22543910
Link 137 199 913 0 0.26262086
Link 138 199 914 0 0.09639959
Link 139 199 915 0 0.01876802
Link 140 199 916 0 0.27920845
Link 141 199 917 0 0.59698280
Link 142 199 918 0 -1.25770474
Link 143 199 919 0 0.73103929
Link 144 199 920 0 -0.95538103
Link 145 199 921 0 1.12387855
Link 146 199 922 0 0.47367427
Link 147 199 923 0 -0.74804994
Link 148 199 924 0 -0.14929694
Link 149 199 925 0 0.08146702
Link 150 199 926 0 0.01368412
Link 151 199 927 0 0.54768053
Link 152 199 928 0 0.00089240
Link 153 199 929 0 -0.19741478
Link 154 199 930 0 0.44764077
Link 155 199 931 0 -0.73283649
Link 156 199 932 0 -0.49198430
Link 157 199 933 0 -0.76741617
Link 158 199 934 0 -0.18902992
Link 159 199 935 0 -0.48495165
Link 160 199 936 0 -0.77736504
Link 161 199 937 0 1.06976173
Link 162 199 938 0 0.79647601
Link 163 199 939 0 -0.06067426
Link 164 199 940 0 0.28373350
Link 165 199 941 0 -0.58522281
Link 166 199 942 0 0.02632732
Link 167 199 943 0 -0.34116660
Link 168 199 944 0 0.57536305
Link 169 199 945 0 0.47753368
Link 170 199 946 0 -0.34588806
Link 171 199 947 0 -0.03583270
Link 172 199 948 0 -0.84931700
Link 173 199 949 0 -0.41367141
Link 174 199 950 0 -0.53806563
Link 175 199 951 0 -0.73284819
Link 176 199 952 0 -0.25577326
Link 177 199 953 0 0.16831608
Link 178 199 954 0 -0.12463161
Link 179 199 955 0 0.60861067
Link 180 199 956 0 -0.41923168
Link 181 199 957 0 0.10862079
Link 182 199 958 0 0.18311036
Link 183 199 959 0 -0.26025724
Link 184 199 960 0 -0.85217979
Link 185 199 961 0 0.37399461
Link 186 199 962 0 -0.22717473
Link 187 199 963 0 -2.64112788
Link 188 199 964 0 -0.19260914
Link 189 199 965 0 1.62712225
Link 190 199 966 0 -0.12011429
Link 191 199 967 0 -0.63927188
Link 192 199 968 0 -0.78111855
Link 193 199 969 0 0.11511992
Link 194 199 970 0 0.38569659
Link 1 200 971 0 0.62007490
Link 2 200 972 0 0.08926341
Link 3 200 973 0 -0.24945903
Link 4 200 974 0 -0.64371184
Link 5 200 975 0 -0.60450742
Link 6 200 976 0 0.21655381
Link 7 200 977 0 1.10417043
Link 8 200 978 0 -0.21092810
Link 9 200 979 0 0.03786973
Link 10 200 980 0 -0.48794072
Link 11 200 981 0 -0.58862052
Link 12 200 982 0 -0.35079724
Link 13 200 983 0 -0.13364128
Link 14 200 984 0 0.24887197
Link 15 200 985 0 -0.11282397
Link 16 200 986 0 0.59052458
Link 17 200 987 0 0.08830313
Link 18 200 988 0 0.50805953
Link 19 200 989 0 -0.31855310
Link 20 200 990 0 -0.70602365
Link 21 200 991 0 0.13546007
Link 22 200 992 0 0.55903798
Link 23 200 993 0 0.51856638
Link 24 200 994 0 -0.25557444
Link 25 200 995 0 -0.50739960
Link 26 200 996 0 -0.54407405
Link 27 200 997 0 -0.49753738
Link 28 200 998 0 0.15408825
Link 29 200 999 0 0.01780883
Link 30 200 1000 0 0.20948503
Link 31 200 1001 0 -0.02515993
Link 32 200 1002 0 -1.11876702
Link 33 200 1003 0 0.09202253
Link 34 200 1004 0 0.06078383
Link 35 200 1005 0 0.28212673
Link 36 200 1006 0 0.13866479
Link 37 200 1007 0 -0.08820880
Link 38 200 1008 0 0.46212647
Link 39 200 1009 0 0.24102250
Link 40 200 1010 0 0.70825873
Link 41 200 1011 0 -0.64193855
Link 42 200 1012 0 0.03745955
Link 43 200 1013 0 0.30057367
Link 44 200 1014 0 -1.01822584
Link 45 200 1015 0 -1.17118636
Link 46 200 1016 0 -0.14756254
Link 47 200 1017 0 0.24162012
Link 48 200 1018 0 -0.18805402
Link 49 200 1019 0 -0.41069973
Link 50 200 1020 0 0.03139415
Link 51 200 1021 0 0.15088079
Link 52 200 1022 0 0.05316556
Link 53 200 1023 0 -0.32468151
Link 54 200 1024 0 -0.73358013
Link 55 200 1025 0 -0.10415754
Link 56 200 1026 0 0.53697350
Link 57 200 1027 0 0.48481396
Link 58 200 1028 0 -0.85911250
Link 59 200 1029 0 -0.97314414
Link 60 200 1030 0 -0.81757172
Link 61 200 1031 0 0.60136452
Link 62 200 1032 0 0.01396908
Link 63 200 1033 0 0.25734676
Link 64 200 1034 0 0.46338839
Link 65 200 1035 0 0.28309027
Link 66 200 1036 0 -0.56786172
Link 67 200 1037 0 0.76588338
Link 68 200 1038 0 0.11997750
Link 69 200 1039 0 -0.32161547
Link 70 200 1040 0 0.32248398
Link 71 200 1041 0 -0.23304598
Link 72 200 1042 0 0.77344013
Link 73 200 1043 0 0.17096410
Link 74 200 1044 0 0.15184326
Link 75 200 1045 0 0.92231724
Link 76 200 1046 0 -0.71490166
Link 77 200 1047 0 -0.32063955
Link 78 200 1048 0 0.06811812
Link 79 200 1049 0 -0.62635977
Link 80 200 1050 0 -0.68236403
Link 81 200 1051 0 0.16621399
Link 82 200 1052 0 -0.89301915
Link 83 200 1053 0 -1.35170320
Link 84 200 1054 0 -1.29136402
Link 85 200 1055 0 -0.46042570
Link 86 200 1056 0 0.15332558
Link 87 200 1057 0 0.04542331
Link 88 200 1058 0 -0.21254676
Link 89 200 1059 0 -0.98547401
Link 90 200 1060 0 0.37519281
Link 91 200 1061 0 0.31428519
Link 92 200 1062 0 0.24334214
Link 93 200 1063 0 0.30090939
Link 94 200 1064 0 -0.07797008
Link 95 200 1065 0 0.09332061
Link 96 200 1066 0 1.11852944
Link 97 200 1067 0 0.26123998
Link 98 200 1068 0 1.08449256
Link 99 200 1069 0 -0.71876952
Link 100 200 1070 0 -0.49071856
Link 101 200 1071 0 0.52882412
Link 102 200 1072 0 -0.30688651
Link 103 200 1073 0 0.31974331
Link 104 200 1074 0 0.10245806
Link 105 200 1075 0 0.48919857
Link 106 200 1076 0 0.64404375
Link 107 200 1077 0 0.42612668
Link 108 200 1078 0 -1.32012590
Link 109 200 1079 0 0.11460219
Link 110 200 1080 0 -0.28563605
Link 111 200 1081 0 -0.36179316
Link 112 200 1082 0 0.65338177
Link 113 200 1083 0 1.15322917
Link 114 200 1084 0 0.00182426
Link 115 200 1085 0 0.03922364
Link 116 200 1086 0 0.27402443
Link 117 200 1087 0 0.71437413
Link 118 200 1088 0 0.73095590
Link 119 200 1089 0 0.30735691
Link 120 200 1090 0 -1.90272721
Link 121 200 1091 0 -0.10864340
Link 122 200 1092 0 -0.68615889
Link 123 200 1093 0 0.10244341
Link 124 200 1094 0 0.06537512
Link 125 200 1095 0 -2.13927465
Link 126 200 1096 0 -0.51992785
Link 127 200 1097 0 0.61164011
Link 128 200 1098 0 0.06806228
Link 129 200 1099 0 0.00444927
Link 130 200 1100 0 -0.15427820
Link 131 200 1101 0 -0.22534385
Link 132 200 1102 0 0.66965476
Link 133 200 1103 0 -0.29479220
Link 134 200 1104 0 1.09716153
Link 135 200 1105 0 1.14231877
Link 136 200 1106 0 -0.02579583
Link 137 200 1107 0 -0.53426800
Link 138 200 1108 0 0.30327066
Link 139 200 1109 0 1.00984996
Link 140 200 1110 0 0.11931745
Link 141 200 1111 0 -0.18719575
Link 142 200 1112 0 -0.27103419
Link 143 200 1113 0 0.82626702
Link 144 200 1114 0 -0.12250268
Link 145 200 1115 0 0.08151184
Link 146 200 1116 0 0.07178211
Link 147 200 1117 0 -0.62783829
Link 148 200 1118 0 -0.15378468
Link 149 200 1119 0 0.18272048
Link 150 200 1120 0 -0.78037053
Link 151 200 1121 0 -0.35918643
Link 152 200 1122 0 1.08420226
Link 153 200 1123 0 -0.10414558
Link 154 200 1124 0 0.36156619
Link 155 200 1125 0 1.02363812
Link 156 200 1126 0 0.31721530
Link 157 200 1127 0 0.35223479
Link 158 200 1128 0 0.26723638
Link 159 200 1129 0 -0.37871775
Link 160 200 1130 0 0.24636399
Link 161 200 1131 0 1.19195166
Link 162 200 1132 0 0.40360721
Link 163 200 1133 0 1.51803303
Link 164 200 1134 0 -0.78775038
Link 165 200 1135 0 -0.39414795
Link 166 200 1136 0 -0.16558155
Link 167 200 1137 0 -0.17867664
Link 168 200 1138 0 -0.70860504
Link 169 200 1139 0 0.28601476
Link 170 200 1140 0 0.27085307
Link 171 200 1141 0 0.21466227
Link 172 200 1142 0 0.33468878
Link 173 200 1143 0 -0.02362296
Link 174 200 1144 0 0.76046158
Link 175 200 1145 0 0.25993297
Link 176 200 1146 0 0.64920698
Link 177 200 1147 0 -0.74543827
Link 178 200 1148 0 -0.33492360
Link 179 200 1149 0 -0.30998242
Link 180 200 1150 0 1.50844535
Link 181 200 1151 0 -0.77808771
Link 182 200 1152 0 0.76485725
Link 183 200 1153 0 0.25896408
Link 184 200 1154 0 0.19982361
Link 185 200 1155 0 -0.80023018
Link 186 200 1156 0 0.35839184
Link 187 200 1157 0 -0.45215353
Link 188 200 1158 0 0.11925108
Link 189 200 1159 0 0.07795506
Link 190 200 1160 0 -1.56149424
Link 191 200 1161 0 1.41962854
Link 192 200 1162 0 -0.61801750
Link 193 200 1163 0 0.30218062
Link 194 200 1164 0 0.05474863
Link 1 201 1165 0 -0.51184082
Link 2 201 1166 0 -0.68728650
Link 3 201 1167 0 -0.34465947
Link 4 201 1168 0 -0.39279194
Link 5 201 1169 0 0.08651957
Link 6 201 1170 0 0.17312545
Link 7 201 1171 0 -0.12748238
Link 8 201 1172 0 -0.20258954
Link 9 201 1173 0 0.02587776
Link 10 201 1174 0 -0.45047887
Link 11 201 1175 0 -0.84223376
Link 12 201 1176 0 -0.51236118
Link 13 201 1177 0 0.09500093
Link 14 201 1178 0 -0.67730851
Link 15 201 1179 0 0.62742192
Link 16 201 1180 0 0.61919853
Link 17 201 1181 0 -0.27705980
Link 18 201 1182 0 -0.03507195
Link 19 201 1183 0 -0.01521805
Link 20 201 1184 0 -0.29890361
Link 21 201 1185 0 -0.63846876
Link 22 201 1186 0 -1.64004317
Link 23 201 1187 0 0.41835207
Link 24 201 1188 0 0.06577120
Link 25 201 1189 0 0.00268411
Link 26 201 1190 0 -0.82021945
Link 27 201 1191 0 -0.41005878
Link 28 201 1192 0 -0.27738841
Link 29 201 1193 0 0.67138788
Link 30 201 1194 0 0.22381304
Link 31 201 1195 0 0.66449084
Link 32 201 1196 0 0.09820964
Link 33 201 1197 0 0.32249707
Link 34 201 1198 0 -0.16764556
Link 35 201 1199 0 0.82804587
Link 36 201 1200 0 -0.13154471
Link 37 201 1201 0 0.07133006
Link 38 201 1202 0 0.49274546
Link 39 201 1203 0 -0.50997474
Link 40 201 1204 0 -4.36422969
Link 41 201 1205 0 -0.63520379
Link 42 201 1206 0 0.26708151
Link 43 201 1207 0 -0.20667326
Link 44 201 1208 0 -0.76816735
Link 45 201 1209 0 0.13089293
Link 46 201 1210 0 0.58059999
Link 47 201 1211 0 -0.96017881
Link 48 201 1212 0 0.24640541
Link 49 201 1213 0 1.08687495
Link 50 201 1214 0 0.04847436
Link 51 201 1215 0 -0.63300008
Link 52 201 1216 0 -0.30665008
Link 53 201 1217 0 0.28898061
Link 54 201 1218 0 0.99551470
Link 55 201 1219 0 -1.17998680
Link 56 201 1220 0 0.12906531
Link 57 201 1221 0 0.37617487
Link 58 201 1222 0 -0.23616785
Link 59 201 1223 0 0.21107056
Link 60 201 1224 0 0.06046025
Link 61 201 1225 0 0.31556412
Link 62 201 1226 0 0.07940324
Link 63 201 1227 0 0.88940366
Link 64 201 1228 0 0.03219016
Link 65 201 1229 0 0.84016777
Link 66 201 1230 0 0.47053384
Link 67 201 1231 0 -0.66507473
Link 68 201 1232 0 -0.20171926
Link 69 201 1233 0 -0.17667232
Link 70 201 1234 0 0.88920554
Link 71 201 1235 0 -0.76604194
Link 72 201 1236 0 -0.63896950
Link 73 201 1237 0 0.01329975
Link 74 201 1238 0 0.22068105
Link 75 201 1239 0 0.93789553
Link 76 201 1240 0 0.41199414
Link 77 201 1241 0 0.51996060
Link 78 201 1242 0 -0.01571821
Link 79 201 1243 0 0.09007039
Link 80 201 1244 0 -0.18041039
Link 81 201 1245 0 1.69553959
Link 82 201 1246 0 -0.66777226
Link 83 201 1247 0 -0.76071749
Link 84 201 1248 0 -0.37995507
Link 85 201 1249 0 0.32654021
Link 86 201 1250 0 0.12189492
Link 87 201 1251 0 -0.63358203
Link 88 201 1252 0 -0.73737999
Link 89 201 1253 0 -0.07051348
Link 90 201 1254 0 0.00417976
Link 91 201 1255 0 0.25167859
Link 92 201 1256 0 -0.11655020
Link 93 201 1257 0 0.03891495
Link 94 201 1258 0 -1.17041346
Link 95 201 1259 0 0.10894576
Link 96 201 1260 0 0.03234490
Link 97 201 1261 0 0.02117166
Link 98 201 1262 0 2.46119025
Link 99 201 1263 0 0.63351340
Link 100 201 1264 0 0.24835784
Link 101 201 1265 0 0.03069157
Link 102 201 1266 0 -0.65963432
Link 103 201 1267 0 -0.68759392
Link 104 201 1268 0 -0.45374855
Link 105 201 1269 0 -0.09636253
Link 106 201 1270 0 0.88104906
Link 107 201 1271 0 0.69048822
Link 108 201 1272 0 0.63352285
Link 109 201 1273 0 0.02664538
Link 110 201 1274 0 -0.43115977
Link 111 201 1275 0 -0.79160209
Link 112 201 1276 0 -0.66565237
Link 113 201 1277 0 0.73475199
Link 114 201 1278 0 1.01776194
Link 115 201 1279 0 0.39462963
Link 116 201 1280 0 -0.06544065
Link 117 201 1281 0 -1.37821566
Link 118 201 1282 0 0.67445680
Link 119 201 1283 0 1.12736745
Link 120 201 1284 0 0.40566080
Link 121 201 1285 0 0.22114206
Link 122 201 1286 0 0.01057333
Link 123 201 1287 0 0.16715886
Link 124 201 1288 0 -0.42991170
Link 125 201 1289 0 0.24931723
Link 126 201 1290 0 0.12502169
Link 127 201 1291 0 0.44665297
Link 128 201 1292 0 0.12149304
Link 129 201 1293 0 0.96365989
Link 130 201 1294 0 0.45301565
Link 131 201 1295 0 0.61952047
Link 132 201 1296 0 -0.33646623
Link 133 201 1297 0 0.94224776
Link 134 201 1298 0 -0.50461553
Link 135 201 1299 0 0.15262676
Link 136 201 1300 0 0.70173815
Link 137 201 1301 0 -0.88061717
Link 138 201 1302 0 0.27261181
Link 139 201 1303 0 0.29164819
Link 140 201 1304 0 -0.58241398
Link 141 201 1305 0 -0.15676384
Link 142 201 1306 0 0.33970462
Link 143 201 1307 0 -0.55713061
Link 144 201 1308 0 0.16507990
Link 145 201 1309 0 0.48309016
Link 146 201 1310 0 -0.57949871
Link 147 201 1311 0 -2.30344662
Link 148 201 1312 0 0.23066073
Link 149 201 1313 0 -0.13584248
Link 150 201 1314 0 -0.88606558
Link 151 201 1315 0 0.52814034
Link 152 201 1316 0 -0.35730060
Link 153 201 1317 0 -0.95781113
Link 154 201 1318 0 -0.16572150
Link 155 201 1319 0 -0.40421451
Link 156 201 1320 0 -0.18521062
Link 157 201 1321 0 -0.36312907
Link 158 201 1322 0 -0.68399258
Link 159 201 1323 0 -0.65640742
Link 160 201 1324 0 0.40998811
Link 161 201 1325 0 0.47523068
Link 162 201 1326 0 -0.74573729
Link 163 201 1327 0 0.34153758
Link 164 201 1328 0 0.21690238
Link 165 201 1329 0 0.99395167
Link 166 201 1330 0 -0.70229587
Link 167 201 1331 0 0.68655434
Link 168 201 1332 0 -0.26187271
Link 169 201 1333 0 -0.18703820
Link 170 201 1334 0 -0.07103054
Link 171 201 1335 0 -0.15695106
Link 172 201 1336 0 -0.88704308
Link 173 201 1337 0 -0.08365759
Link 174 201 1338 0 -0.00456657
Link 175 201 1339 0 0.44368055
Link 176 201 1340 0 0.35239437
Link 177 201 1341 0 -1.06269360
Link 178 201 1342 0 -0.43671489
Link 179 201 1343 0 -0.60011169
Link 180 201 1344 0 0.12160595
Link 181 201 1345 0 0.25294800
Link 182 201 1346 0 2.03555306
Link 183 201 1347 0 0.41072904
Link 184 201 1348 0 0.82545338
Link 185 201 1349 0 -0.16269525
Link 186 201 1350 0 -1.12661518
Link 187 201 1351 0 -0.12141259
Link 188 201 1352 0 -0.14989595
Link 189 201 1353 0 -0.37861233
Link 190 201 1354 0 1.01325199
Link 191 201 1355 0 -1.05151215
Link 192 201 1356 0 0.87581250
Link 193 201 1357 0 -0.46510921
Link 194 201 1358 0 -0.45690533
Link 1 202 1359 0 0.11791735
Link 2 202 1360 0 -0.96415675
Link 3 202 1361 0 -1.71579118
Link 4 202 1362 0 1.57116797
Link 5 202 1363 0 -0.62338303
Link 6 202 1364 0 0.76360688
Link 7 202 1365 0 -0.82490671
Link 8 202 1366 0 -0.86577527
Link 9 202 1367 0 0.28341232
Link 10 202 1368 0 -0.61468051
Link 11 202 1369 0 -1.15991423
Link 12 202 1370 0 -0.32048420
Link 13 202 1371 0 -1.10777634
Link 14 202 1372 0 0.25434049
Link 15 202 1373 0 -0.92180540
Link 16 202 1374 0 -0.30913480
Link 17 202 1375 0 -0.22027952
Link 18 202 1376 0 0.57045208
Link 19 202 1377 0 0.15173655
Link 20 202 1378 0 0.49661191
Link 21 202 1379 0 -0.32760697
Link 22 202 1380 0 0.52459885
Link 23 202 1381 0 -1.45391358
Link 24 202 1382 0 -0.54351603
Link 25 202 1383 0 -0.54046435
Link 26 202 1384 0 0.03201513
Link 27 202 1385 0 -0.43865698
Link 28 202 1386 0 -0.48815042
Link 29 202 1387 0 -0.33983274
Link 30 202 1388 0 0.07775118
Link 31 202 1389 0 0.48368402
Link 32 202 1390 0 0.31385857
Link 33 202 1391 0 0.55875630
Link 34 202 1392 0 -0.59980582
Link 35 202 1393 0 -0.48065017
Link 36 202 1394 0 -1.21977917
Link 37 202 1395 0 0.83017407
Link 38 202 1396 0 0.36402258
Link 39 202 1397 0 0.28392439
Link 40 202 1398 0 -0.58664627
Link 41 202 1399 0 -0.79145571
Link 42 202 1400 0 0.75166572
Link 43 202 1401 0 -0.44802214
Link 44 202 1402 0 -0.60707214
Link 45 202 1403 0 0.99808330
Link 46 202 1404 0 0.22111133
Link 47 202 1405 0 0.09539263
Link 48 202 1406 0 -0.42865160
Link 49 202 1407 0 0.01525352
Link 50 202 1408 0 0.34914498
Link 51 202 1409 0 0.00644457
Link 52 202 1410 0 -0.01527081
Link 53 202 1411 0 -0.01979459
Link 54 202 1412 0 -0.38473572
Link 55 202 1413 0 -0.33616283
Link 56 202 1414 0 0.08611952
Link 57 202 1415 0 0.13743418
Link 58 202 1416 0 -0.92087860
Link 59 202 1417 0 -0.28972104
Link 60 202 1418 0 0.89939035
Link 61 202 1419 0 -0.60186719
Link 62 202 1420 0 0.27782655
Link 63 202 1421 0 -0.36088472
Link 64 202 1422 0 0.58485383
Link 65 202 1423 0 0.11377370
Link 66 202 1424 0 -0.18655247
Link 67 202 1425 0 0.13632640
Link 68 202 1426 0 -0.05177197
Link 69 202 1427 0 -0.61280769
Link 70 202 1428 0 0.51594987
Link 71 202 1429 0 -0.53370215
Link 72 202 1430 0 0.37484873
Link 73 202 1431 0 -0.94796345
Link 74 202 1432 0 -0.80345402
Link 75 202 1433 0 -0.75507356
Link 76 202 1434 0 0.24780640
Link 77 202 1435 0 -0.36393855
Link 78 202 1436 0 0.13570664
Link 79 202 1437 0 0.24038734
Link 80 202 1438 0 -0.56788774
Link 81 202 1439 0 0.56033521
Link 82 202 1440 0 -0.60989941
Link 83 202 1441 0 0.64559596
Link 84 202 1442 0 0.13577779
Link 85 202 1443 0 -0.68427918
Link 86 202 1444 0 0.08277575
Link 87 202 1445 0 -1.65874659
Link 88 202 1446 0 0.35525244
Link 89 202 1447 0 -0.33123657
Link 90 202 1448 0 -0.74945963
Link 91 202 1449 0 -0.47979183
Link 92 202 1450 0 0.73818978
Link 93 202 1451 0 0.05904614
Link 94 202 1452 0 0.48108627
Link 95 202 1453 0 0.97684100
Link 96 202 1454 0 0.64597942
Link 97 202 1455 0 -1.38739403
Link 98 202 1456 0 -0.16824583
Link 99 202 1457 0 -0.16618670
Link 100 202 1458 0 -0.44846783
Link 101 202 1459 0 0.06374899
Link 102 202 1460 0 -0.15739785
Link 103 202 1461 0 0.90922762
Link 104 202 1462 0 -0.58294406
Link 105 202 1463 0 -0.34847600
Link 106 202 1464 0 -1.00408927
Link 107 202 1465 0 -1.83643729
Link 108 202 1466 0 0.07148906
Link 109 202 1467 0 0.38189705
Link 110 202 1468 0 0.85125941
Link 111 202 1469 0 -0.54138124
Link 112 202 1470 0 -0.09150879
Link 113 202 1471 0 -0.44601264
Link 114 202 1472 0 -0.66142175
Link 115 202 1473 0 0.51461621
Link 116 202 1474 0 -0.50799104
Link 117 202 1475 0 -0.22255086
Link 118 202 1476 0 1.20398413
Link 119 202 1477 0 -0.13691693
Link 120 202 1478 0 0.77100668
Link 121 202 1479 0 -0.06985990
Link 122 202 1480 0 0.27580696
Link 123 202 1481 0 0.37405798
Link 124 202 1482 0 -0.72643614
Link 125 202 1483 0 -0.79195689
Link 126 202 1484 0 0.23813641
Link 127 202 1485 0 -0.09496584
Link 128 202 1486 0 -1.10236203
Link 129 202 1487 0 -0.35090479
Link 130 202 1488 0 -0.53540546
Link 131 202 1489 0 0.51484759
Link 132 202 1490 0 -0.30021594
Link 133 202 1491 0 -0.51980743
Link 134 202 1492 0 -0.16949236
Link 135 202 1493 0 -0.08443069
Link 136 202 1494 0 0.02997208
Link 137 202 1495 0 -0.66117768
Link 138 202 1496 0 -0.30391424
Link 139 202 1497 0 -0.05740876
Link 140 202 1498 0 -0.62046629
Link 141 202 1499 0 -0.49450188
Link 142 202 1500 0 0.02288073
Link 143 202 1501 0 -0.59100579
Link 144 202 1502 0 0.05965486
Link 145 202 1503 0 0.05614129
Link 146 202 1504 0 0.56709742
Link 147 202 1505 0 1.52613895
Link 148 202 1506 0 1.11759494
Link 149 202 1507 0 0.03794584
Link 150 202 1508 0 -0.35305455
Link 151 202 1509 0 -0.16334333
Link 152 202 1510 0 0.10884611
Link 153 202 1511 0 0.17807578
Link 154 202 1512 0 0.26285579
Link 155 202 1513 0 -0.18312953
Link 156 202 1514 0 -0.01218993
Link 157 202 1515 0 -0.17711225
Link 158 202 1516 0 -0.09646295
Link 159 202 1517 0 -0.65022955
Link 160 202 1518 0 -0.41660985
Link 161 202 1519 0 -0.57943224
Link 162 202 1520 0 -0.32221066
Link 163 202 1521 0 -0.39891321
Link 164 202 1522 0 0.85987518
Link 165 202 1523 0 -0.60900647
Link 166 202 1524 0 -0.33938885
Link 167 202 1525 0 -0.20960076
Link 168 202 1526 0 0.92134878
Link 169 202 1527 0 0.77956564
Link 170 202 1528 0 0.11848392
Link 171 202 1529 0 0.66966951
Link 172 202 1530 0 0.33114098
Link 173 202 1531 0 0.00715081
Link 174 202 1532 0 -1.04213860
Link 175 202 1533 0 -0.27423806
Link 176 202 1534 0 -0.62326134
Link 177 202 1535 0 -0.78219834
Link 178 202 1536 0 -0.02146730
Link 179 202 1537 0 0.17901644
Link 180 202 1538 0 -0.53200845
Link 181 202 1539 0 -0.32779058
Link 182 202 1540 0 -0.40067940
Link 183 202 1541 0 0.93686762
Link 184 202 1542 0 0.43170052
Link 185 202 1543 0 0.05692566
Link 186 202 1544 0 -0.60725757
Link 187 202 1545 0 -0.50924003
Link 188 202 1546 0 -0.65395373
Link 189 202 1547 0 -2.50277584
Link 190 202 1548 0 -0.79965921
Link 191 202 1549 0 0.77035979
Link 192 202 1550 0 -0.27091485
Link 193 202 1551 0 0.80713301
Link 194 202 1552 0 0.00770316
Link 1 203 1553 0 -2.11914897
Link 2 203 1554 0 -0.03683194
Link 3 203 1555 0 -0.91081228
Link 4 203 1556 0 0.28054056
Link 5 203 1557 0 -0.81421368
Link 6 203 1558 0 -1.07428623
Link 7 203 1559 0 0.31012578
Link 8 203 1560 0 -1.24752632
Link 9 203 1561 0 0.04641870
Link 10 203 1562 0 -0.43885424
Link 11 203 1563 0 0.61333342
Link 12 203 1564 0 -0.65239497
Link 13 203 1565 0 0.30685966
Link 14 203 1566 0 -0.35054790
Link 15 203 1567 0 0.59956353
Link 16 203 1568 0 0.32411696
Link 17 203 1569 0 1.01053129
Link 18 203 1570 0 -0.11176580
Link 19 203 1571 0 0.44303611
Link 20 203 1572 0 -0.09855250
Link 21 203 1573 0 -0.39929065
Link 22 203 1574 0 0.10024027
Link 23 203 1575 0 -0.59879790
Link 24 203 1576 0 -0.52024689
Link 25 203 1577 0 -0.02865187
Link 26 203 1578 0 -0.17725817
Link 27 203 1579 0 0.55483979
Link 28 203 1580 0 0.01594354
Link 29 203 1581 0 -0.50660714
Link 30 203 1582 0 -1.86027955
Link 31 203 1583 0 0.10101511
Link 32 203 1584 0 -0.61173020
Link 33 203 1585 0 -0.10238820
Link 34 203 1586 0 0.12233680
Link 35 203 1587 0 -0.14715055
Link 36 203 1588 0 -0.00983664
Link 37 203 1589 0 0.52456249
Link 38 203 1590 0 0.44833972
Link 39 203 1591 0 0.10519789
Link 40 203 1592 0 0.08732145
Link 41 203 1593 0 0.37709127
Link 42 203 1594 0 -0.06194228
Link 43 203 1595 0 -0.53538663
Link 44 203 1596 0 1.52867926
Link 45 203 1597 0 0.78925818
Link 46 203 1598 0 0.11408695
Link 47 203 1599 0 0.07956929
Link 48 203 1600 0 -0.34225087
Link 49 203 1601 0 1.12030179
Link 50 203 1602 0 -0.06116107
Link 51 203 1603 0 0.90590570
Link 52 203 1604 0 -0.35669511
Link 53 203 1605 0 0.70966479
Link 54 203 1606 0 -0.36156189
Link 55 203 1607 0 0.59383572
Link 56 203 1608 0 0.18335175
Link 57 203 1609 0 0.64657309
Link 58 203 1610 0 0.13880173
Link 59 203 1611 0 -0.01691512
Link 60 203 1612 0 0.55659518
Link 61 203 1613 0 -0.70673278
Link 62 203 1614 0 0.39869658
Link 63 203 1615 0 0.02869638
Link 64 203 1616 0 -0.14346182
Link 65 203 1617 0 0.90604602
Link 66 203 1618 0 -0.77015466
Link 67 203 1619 0 0.21307992
Link 68 203 1620 0 -0.65693629
Link 69 203 1621 0 -0.94253340
Link 70 203 1622 0 0.25444500
Link 71 203 1623 0 0.14412739
Link 72 203 1624 0 -0.23209400
Link 73 203 1625 0 -0.57125541
Link 74 203 1626 0 -0.37957225
Link 75 203 1627 0 -1.30386224
Link 76 203 1628 0 -0.55490385
Link 77 203 1629 0 -0.30118767
Link 78 203 1630 0 0.25951163
Link 79 203 1631 0 -0.13376464
Link 80 203 1632 0 -0.11502151
Link 81 203 1633 0 -0.50048689
Link 82 203 1634 0 0.08419443
Link 83 203 1635 0 -0.84944852
Link 84 203 1636 0 0.16070433
Link 85 203 1637 0 0.35122569
Link 86 203 1638 0 -0.10910698
Link 87 203 1639 0 0.20795241
Link 88 203 1640 0 -0.78711262
Link 89 203 1641 0 -0.27807101
Link 90 203 1642 0 -0.17348785
Link 91 203 1643 0 0.24040689
Link 92 203 1644 0 0.69057282
Link 93 203 1645 0 -1.01694013
Link 94 203 1646 0 0.10314343
Link 95 203 1647 0 -0.06917921
Link 96 203 1648 0 0.10493825
Link 97 203 1649 0 0.29595483
Link 98 203 1650 0 0.04374805
Link 99 203 1651 0 0.43930276
Link 100 203 1652 0 -0.26879820
Link 101 203 1653 0 0.12625798
Link 102 203 1654 0 -0.49555824
Link 103 203 1655 0 1.00223546
Link 104 203 1656 0 -1.12539684
Link 105 203 1657 0 -0.11111954
Link 106 203 1658 0 0.04448111
Link 107 203 1659 0 0.07799055
Link 108 203 1660 0 0.71195409
Link 109 203 1661 0 0.05906644
Link 110 203 1662 0 -0.16863190
Link 111 203 1663 0 -0.56852662
Link 112 203 1664 0 0.00432029
Link 113 203 1665 0 0.51574064
Link 114 203 1666 0 -0.13911295
Link 115 203 1667 0 0.55036795
Link 116 203 1668 0 -0.18783045
Link 117 203 1669 0 -0.09975080
Link 118 203 1670 0 -0.15457424
Link 119 203 1671 0 0.26169820
Link 120 203 1672 0 -0.23648872
Link 121 203 1673 0 0.48904391
Link 122 203 1674 0 0.05759320
Link 123 203 1675 0 0.14772574
Link 124 203 1676 0 -0.31589778
Link 125 203 1677 0 0.19657786
Link 126 203 1678 0 -0.00888687
Link 127 203 1679 0 0.18659892
Link 128 203 1680 0 -0.45385377
Link 129 203 1681 0 0.81535878
Link 130 203 1682 0 -0.49858853
Link 131 203 1683 0 -0.46465720
Link 132 203 1684 0 -0.77004095
Link 133 203 1685 0 0.30899543
Link 134 203 1686 0 -0.42025829
Link 135 203 1687 0 -0.75135307
Link 136 203 1688 0 0.19377741
Link 137 203 1689 0 0.39069044
Link 138 203 1690 0 -1.72967719
Link 139 203 1691 0 0.86108505
Link 140 203 1692 0 0.54375172
Link 141 203 1693 0 0.14778251
Link 142 203 1694 0 0.79640214
Link 143 203 1695 0 0.16258557
Link 144 203 1696 0 -0.72633326
Link 145 203 1697 0 -0.30477096
Link 146 203 1698 0 0.52932599
Link 147 203 1699 0 0.55798663
Link 148 203 1700 0 -0.32284635
Link 149 203 1701 0 0.95102444
Link 150 203 1702 0 0.02949854
Link 151 203 1703 0 0.07941054
Link 152 203 1704 0 -0.20589228
Link 153 203 1705 0 -0.55632083
Link 154 203 1706 0 0.03019232
Link 155 203 1707 0 -0.69462978
Link 156 203 1708 0 0.40380244
Link 157 203 1709 0 0.22882534
Link 158 203 1710 0 -2.46386479
Link 159 203 1711 0 -0.39674500
Link 160 203 1712 0 -0.07215717
Link 161 203 1713 0 -0.16579998
Link 162 203 1714 0 0.04293627
Link 163 203 1715 0 0.17737157
Link 164 203 1716 0 -0.47437397
Link 165 203 1717 0 -1.15148550
Link 166 203 1718 0 0.10692519
Link 167 203 1719 0 -0.19227881
Link 168 203 1720 0 -0.02428618
Link 169 203 1721 0 -0.55621509
Link 170 203 1722 0 -0.07853529
Link 171 203 1723 0 -0.11553862
Link 172 203 1724 0 -0.06435575
Link 173 203 1725 0 0.46496373
Link 174 203 1726 0 0.43750390
Link 175 203 1727 0 0.41347584
Link 176 203 1728 0 0.86021171
Link 177 203 1729 0 -0.11884846
Link 178 203 1730 0 0.39126911
Link 179 203 1731 0 0.97393129
Link 180 203 1732 0 0.65707909
Link 181 203 1733 0 0.39378662
Link 182 203 1734 0 -0.36195850
Link 183 203 1735 0 0.05891331
Link 184 203 1736 0 0.22177827
Link 185 203 1737 0 -0.13280654
Link 186 203 1738 0 0.49960556
Link 187 203 1739 0 0.17018174
Link 188 203 1740 0 0.52044253
Link 189 203 1741 0 0.58717939
Link 190 203 1742 0 -0.30082143
Link 191 203 1743 0 0.77842581
Link 192 203 1744 0 -0.16494210
Link 193 203 1745 0 0.79976530
Link 194 203 1746 0 0.37016023
Link 1 204 1747 0 0.30440297
Link 2 204 1748 0 -2.25680460
Link 3 204 1749 0 -0.85275828
Link 4 204 1750 0 0.68778640
Link 5 204 1751 0 -0.86648020
Link 6 204 1752 0 0.94205901
Link 7 204 1753 0 0.49376961
Link 8 204 1754 0 -1.41310949
Link 9 204 1755 0 0.00759016
Link 10 204 1756 0 -0.69411980
Link 11 204 1757 0 0.14901440
Link 12 204 1758 0 -1.21379065
Link 13 204 1759 0 -0.30047978
Link 14 204 1760 0 -0.23578787
Link 15 204 1761 0 -0.33651787
Link 16 204 1762 0 -1.11171814
Link 17 204 1763 0 -0.13638442
Link 18 204 1764 0 -0.49856350
Link 19 204 1765 0 -0.51803693
Link 20 204 1766 0 1.24652485
Link 21 204 1767 0 0.11428412
Link 22 204 1768 0 0.28979911
Link 23 204 1769 0 -1.13187297
Link 24 204 1770 0 0.46525412
Link 25 204 1771 0 -0.43899808
Link 26 204 1772 0 0.61194850
Link 27 204 1773 0 -0.04919312
Link 28 204 1774 0 -0.12495016
Link 29 204 1775 0 0.01557564
Link 30 204 1776 0 0.27790356
Link 31 204 1777 0 -0.93500795
Link 32 204 1778 0 -0.01812694
Link 33 204 1779 0 0.35278974
Link 34 204 1780 0 -0.03363746
Link 35 204 1781 0 -0.13028336
Link 36 204 1782 0 -0.81970718
Link 37 204 1783 0 -0.71168674
Link 38 204 1784 0 0.19537925
Link 39 204 1785 0 0.20487346
Link 40 204 1786 0 0.02396580
Link 41 204 1787 0 -0.87329081
Link 42 204 1788 0 -0.02157859
Link 43 204 1789 0 0.25797709
Link 44 204 1790 0 -1.59184257
Link 45 204 1791 0 0.37802630
Link 46 204 1792 0 -0.71939908
Link 47 204 1793 0 0.60924132
Link 48 204 1794 0 0.56621142
Link 49 204 1795 0 -0.51423333
Link 50 204 1796 0 -0.20802018
Link 51 204 1797 0 0.34608070
Link 52 204 1798 0 -0.19412270
Link 53 204 1799 0 -0.54967958
Link 54 204 1800 0 -0.28046535
Link 55 204 1801 0 0.12238757
Link 56 204 1802 0 0.86694873
Link 57 204 1803 0 1.65716842
Link 58 204 1804 0 -0.01153372
Link 59 204 1805 0 -0.58169032
Link 60 204 1806 0 -0.31260215
Link 61 204 1807 0 0.33455357
Link 62 204 1808 0 -0.32733186
Link 63 204 1809 0 0.27297892
Link 64 204 1810 0 0.39867959
Link 65 204 1811 0 1.19307458
Link 66 204 1812 0 0.46733396
Link 67 204 1813 0 0.09354076
Link 68 204 1814 0 -0.56519821
Link 69 204 1815 0 0.57142668
Link 70 204 1816 0 -0.40250582
Link 71 204 1817 0 -0.18116474
Link 72 204 1818 0 -0.51407774
Link 73 204 1819 0 -0.09317224
Link 74 204 1820 0 0.56870042
Link 75 204 1821 0 -0.49408970
Link 76 204 1822 0 0.26381336
Link 77 204 1823 0 -0.12420265
Link 78 204 1824 0 -0.27608136
Link 79 204 1825 0 -0.90084893
Link 80 204 1826 0 -0.07762984
Link 81 204 1827 0 0.25432896
Link 82 204 1828 0 0.88379503
Link 83 204 1829 0 0.94366038
Link 84 204 1830 0 1.08878767
Link 85 204 1831 0 0.32987561
Link 86 204 1832 0 -0.05792872
Link 87 204 1833 0 -0.37695104
Link 88 204 1834 0 -0.38696414
Link 89 204 1835 0 -0.77764069
Link 90 204 1836 0 0.03788845
Link 91 204 1837 0 -0.28654207
Link 92 204 1838 0 -0.27984569
Link 93 204 1839 0 0.70916297
Link 94 204 1840 0 1.02902444
Link 95 204 1841 0 -0.71111984
Link 96 204 1842 0 -0.57645403
Link 97 204 1843 0 0.26391596
Link 98 204 1844 0 -0.97663628
Link 99 204 1845 0 0.58857863
Link 100 204 1846 0 -0.90286701
Link 101 204 1847 0 -1.18563688
Link 102 204 1848 0 -0.52679116
Link 103 204 1849 0 0.25715559
Link 104 204 1850 0 -0.34824334
Link 105 204 1851 0 -0.26007448
Link 106 204 1852 0 0.34109451
Link 107 204 1853 0 0.05736966
Link 108 204 1854 0 0.81341136
Link 109 204 1855 0 0.04558493
Link 110 204 1856 0 1.01158670
Link 111 204 1857 0 -0.34849057
Link 112 204 1858 0 0.72579273
Link 113 204 1859 0 -0.57221996
Link 114 204 1860 0 -0.12093737
Link 115 204 1861 0 0.00557101
Link 116 204 1862 0 -1.11349337
Link 117 204 1863 0 -0.00489549
Link 118 204 1864 0 -0.87165871
Link 119 204 1865 0 1.02046799
Link 120 204 1866 0 -0.11543949
Link 121 204 1867 0 -0.36598718
Link 122 204 1868 0 0.14824012
Link 123 204 1869 0 -0.05466441
Link 124 204 1870 0 -0.07687658
Link 125 204 1871 0 -0.15193996
Link 126 204 1872 0 0.67075882
Link 127 204 1873 0 -0.61110142
Link 128 204 1874 0 0.62497654
Link 129 204 1875 0 -0.13254942
Link 130 204 1876 0 -0.06052740
Link 131 204 1877 0 -0.22814258
Link 132 204 1878 0 0.56700609
Link 133 204 1879 0 0.55664060
Link 134 204 1880 0 -0.08682235
Link 135 204 1881 0 -0.17776524
Link 136 204 1882 0 -0.28555663
Link 137 204 1883 0 -0.22248515
Link 138 204 1884 0 0.07377717
Link 139 204 1885 0 -0.23657316
Link 140 204 1886 0 -0.52660022
Link 141 204 1887 0 -0.42959911
Link 142 204 1888 0 0.05324026
Link 143 204 1889 0 0.42927385
Link 144 204 1890 0 0.55939547
Link 145 204 1891 0 1.09228691
Link 146 204 1892 0 -0.12031402
Link 147 204 1893 0 -0.27750482
Link 148 204 1894 0 -0.16869519
Link 149 204 1895 0 -0.97384609
Link 150 204 1896 0 -1.10140542
Link 151 204 1897 0 0.50239190
Link 152 204 1898 0 -0.10440529
Link 153 204 1899 0 -0.84246213
Link 154 204 1900 0 0.13585592
Link 155 204 1901 0 -0.17433282
Link 156 204 1902 0 0.41428153
Link 157 204 1903 0 0.64768844
Link 158 204 1904 0 -0.12612249
Link 159 204 1905 0 0.20688414
Link 160 204 1906 0 0.62626960
Link 161 204 1907 0 0.69597815
Link 162 204 1908 0 0.04008122
Link 163 204 1909 0 0.25285027
Link 164 204 1910 0 -0.38395496
Link 165 204 1911 0 0.48372581
Link 166 204 1912 0 0.18197723
Link 167 204 1913 0 0.21680167
Link 168 204 1914 0 -0.01300744
Link 169 204 1915 0 0.28948328
Link 170 204 1916 0 0.54276863
Link 171 204 1917 0 -0.55295230
Link 172 204 1918 0 0.57199994
Link 173 204 1919 0 -0.44478827
Link 174 204 1920 0 -0.53656307
Link 175 204 1921 0 0.63118448
Link 176 204 1922 0 -0.27323434
Link 177 204 1923 0 0.24797176
Link 178 204 1924 0 -0.63026458
Link 179 204 1925 0 -0.66671940
Link 180 204 1926 0 -0.10244084
Link 181 204 1927 0 -0.94620700
Link 182 204 1928 0 0.57381299
Link 183 204 1929 0 -0.07795241
Link 184 204 1930 0 0.90128754
Link 185 204 1931 0 0.30375405
Link 186 204 1932 0 -0.17496062
Link 187 204 1933 0 0.84223468
Link 188 204 1934 0 -0.16890465
Link 189 204 1935 0 -0.36311949
Link 190 204 1936 0 0.06297884
Link 191 204 1937 0 -0.70029870
Link 192 204 1938 0 -0.51623143
Link 193 204 1939 0 -0.09775580
Link 194 204 1940 0 0.93649781
Link 1 205 1941 0 0.53325860
Link 2 205 1942 0 -1.98222740
Link 3 205 1943 0 -0.26641436
Link 4 205 1944 0 0.13670385
Link 5 205 1945 0 -0.14846571
Link 6 205 1946 0 -0.56965339
Link 7 205 1947 0 0.51793388
Link 8 205 1948 0 -0.43041618
Link 9 205 1949 0 -0.88568269
Link 10 205 1950 0 0.11940730
Link 11 205 1951 0 -0.08820146
Link 12 205 1952 0 -0.01148010
Link 13 205 1953 0 0.25433811
Link 14 205 1954 0 0.04734353
Link 15 205 1955 0 1.13406432
Link 16 205 1956 0 0.37566351
Link 17 205 1957 0 -0.57527415
Link 18 205 1958 0 -0.19343209
Link 19 205 1959 0 -0.21177390
Link 20 205 1960 0 0.62373705
Link 21 205 1961 0 0.19337950
Link 22 205 1962 0 0.57724730
Link 23 205 1963 0 -0.24870817
Link 24 205 1964 0 0.31532921
Link 25 205 1965 0 -0.34930961
Link 26 205 1966 0 1.04953257
Link 27 205 1967 0 0.38620959
Link 28 205 1968 0 -0.68807889
Link 29 205 1969 0 0.15220490
Link 30 205 1970 0 -0.66877023
Link 31 205 1971 0 1.15392272
Link 32 205 1972 0 -0.19418615
Link 33 205 1973 0 -0.07843839
Link 34 205 1974 0 -0.02409056
Link 35 205 1975 0 -0.31645871
Link 36 205 1976 0 0.09705746
Link 37 205 1977 0 0.81910909
Link 38 205 1978 0 -0.18198356
Link 39 205 1979 0 0.10411152
Link 40 205 1980 0 -0.08769780
Link 41 205 1981 0 0.33653713
Link 42 205 1982 0 0.04177277
Link 43 205 1983 0 -0.54719242
Link 44 205 1984 0 -0.25299270
Link 45 205 1985 0 -0.14404115
Link 46 205 1986 0 0.02431933
Link 47 205 1987 0 -0.48682108
Link 48 205 1988 0 -0.47077979
Link 49 205 1989 0 -0.12783258
Link 50 205 1990 0 -0.15586898
Link 51 205 1991 0 -0.06412113
Link 52 205 1992 0 -1.72599703
Link 53 205 1993 0 -0.08215038
Link 54 205 1994 0 -0.61638818
Link 55 205 1995 0 -0.34016828
Link 56 205 1996 0 -0.07463795
Link 57 205 1997 0 0.44090475
Link 58 205 1998 0 -0.31416311
Link 59 205 1999 0 -0.54011463
Link 60 205 2000 0 -0.66058941
Link 61 205 2001 0 -0.04978691
Link 62 205 2002 0 -0.29087306
Link 63 205 2003 0 -0.14225957
Link 64 205 2004 0 0.88095303
Link 65 205 2005 0 -0.02771030
Link 66 205 2006 0 0.11069053
Link 67 205 2007 0 0.02493650
Link 68 205 2008 0 0.78859947
Link 69 205 2009 0 0.62882293
Link 70 205 2010 0 -1.17359678
Link 71 205 2011 0 0.25259177
Link 72 205 2012 0 0.19972638
Link 73 205 2013 0 0.79724594
Link 74 205 2014 0 0.59787540
Link 75 205 2015 0 -0.97420003
Link 76 205 2016 0 -0.55219962
Link 77 205 2017 0 0.22237582
Link 78 205 2018 0 -0.52691118
Link 79 205 2019 0 -1.49519383
Link 80 205 2020 0 -0.06077766
Link 81 205 2021 0 -0.44316680
Link 82 205 2022 0 1.04655925
Link 83 205 2023 0 -0.00309695
Link 84 205 2024 0 0.22198102
Link 85 205 2025 0 0.17272567
Link 86 205 2026 0 -0.15457648
Link 87 205 2027 0 -0.32808705
Link 88 205 2028 0 0.03560539
Link 89 205 2029 0 0.21509085
Link 90 205 2030 0 -1.65240823
Link 91 205 2031 0 -0.03059616
Link 92 205 2032 0 -0.56141668
Link 93 205 2033 0 0.21262793
Link 94 205 2034 0 0.57753202
Link 95 205 2035 0 -0.04862637
Link 96 205 2036 0 -0.13839785
Link 97 205 2037 0 -0.78882982
Link 98 205 2038 0 -0.46813794
Link 99 205 2039 0 -0.37040337
Link 100 205 2040 0 -0.46448062
Link 101 205 2041 0 -0.71664097
Link 102 205 2042 0 -0.10507130
Link 103 205 2043 0 -0.23221463
Link 104 205 2044 0 -0.99534521
Link 105 205 2045 0 -0.11896582
Link 106 205 2046 0 -0.87040411
Link 107 205 2047 0 -0.41800944
Link 108 205 2048 0 -0.13861759
Link 109 205 2049 0 0.58482226
Link 110 205 2050 0 -1.35946935
Link 111 205 2051 0 -0.43766336
Link 112 205 2052 0 -0.05668482
Link 113 205 2053 0 -0.34521308
Link 114 205 2054 0 1.55993220
Link 115 205 2055 0 -0.67774544
Link 116 205 2056 0 0.65593631
Link 117 205 2057 0 0.09933702
Link 118 205 2058 0 -0.01677850
Link 119 205 2059 0 1.23490490
Link 120 205 2060 0 -0.06548111
Link 121 205 2061 0 -0.70135815
Link 122 205 2062 0 0.05019089
Link 123 205 2063 0 0.19435401
Link 124 205 2064 0 -0.72756697
Link 125 205 2065 0 -0.84749576
Link 126 205 2066 0 0.76712764
Link 127 205 2067 0 1.02802014
Link 128 205 2068 0 0.48298651
Link 129 205 2069 0 0.81538449
Link 130 205 2070 0 -0.13620162
Link 131 205 2071 0 -0.59270659
Link 132 205 2072 0 -0.39338324
Link 133 205 2073 0 0.16569260
Link 134 205 2074 0 -0.41589041
Link 135 205 2075 0 0.24713750
Link 136 205 2076 0 0.42943828
Link 137 205 2077 0 0.42273600
Link 138 205 2078 0 -0.14280333
Link 139 205 2079 0 -0.35145494
Link 140 205 2080 0 -0.01626450
Link 141 205 2081 0 0.11759542
Link 142 205 2082 0 -0.29408957
Link 143 205 2083 0 0.66202861
Link 144 205 2084 0 0.02619873
Link 145 205 2085 0 -0.19143738
Link 146 205 2086 0 0.03226176
Link 147 205 2087 0 0.69560546
Link 148 205 2088 0 -0.65369934
Link 149 205 2089 0 0.08258794
Link 150 205 2090 0 -1.00754771
Link 151 205 2091 0 0.17771746
Link 152 205 2092 0 0.15387117
Link 153 205 2093 0 -0.15931911
Link 154 205 2094 0 0.36425707
Link 155 205 2095 0 -0.17410452
Link 156 205 2096 0 0.46139897
Link 157 205 2097 0 -0.06738443
Link 158 205 2098 0 0.01760880
Link 159 205 2099 0 -0.00794165
Link 160 205 2100 0 0.35647658
Link 161 205 2101 0 0.22375837
Link 162 205 2102 0 0.05468432
Link 163 205 2103 0 0.87520564
Link 164 205 2104 0 0.36114331
Link 165 205 2105 0 0.27989941
Link 166 205 2106 0 -0.18244051
Link 167 205 2107 0 -0.45243984
Link 168 205 2108 0 -0.24085061
Link 169 205 2109 0 0.69833733
Link 170 205 2110 0 -0.00456900
Link 171 205 2111 0 -0.76896275
Link 172 205 2112 0 -0.34012852
Link 173 205 2113 0 0.11855854
Link 174 205 2114 0 0.11603805
Link 175 205 2115 0 -0.68136008
Link 176 205 2116 0 -0.73217219
Link 177 205 2117 0 -0.10160894
Link 178 205 2118 0 0.67969579
Link 179 205 2119 0 -0.06751385
Link 180 205 2120 0 0.02570885
Link 181 205 2121 0 -0.61539056
Link 182 205 2122 0 0.16892363
Link 183 205 2123 0 -0.08503447
Link 184 205 2124 0 0.50004321
Link 185 205 2125 0 -0.04351161
Link 186 205 2126 0 -0.00906185
Link 187 205 2127 0 -0.83718143
Link 188 205 2128 0 0.53606257
Link 189 205 2129 0 -0.61848599
Link 190 205 2130 0 1.09245912
Link 191 205 2131 0 -0.45442757
Link 192 205 2132 0 -1.19170298
Link 193 205 2133 0 -0.10705640
Link 194 205 2134 0 -0.18360850
Link 1 206 2135 0 1.42117434
Link 2 206 2136 0 1.35951190
Link 3 206 2137 0 -0.53769035
Link 4 206 2138 0 -0.76158791
Link 5 206 2139 0 -0.87604328
Link 6 206 2140 0 0.52628911
Link 7 206 2141 0 0.35783448
Link 8 206 2142 0 0.70395598
Link 9 206 2143 0 0.56622557
Link 10 206 2144 0 -0.21738676
Link 11 206 2145 0 -0.37587494
Link 12 206 2146 0 0.21421328
Link 13 206 2147 0 -0.45197545
Link 14 206 2148 0 -0.23773960
Link 15 206 2149 0 0.09936921
Link 16 206 2150 0 -0.92435765
Link 17 206 2151 0 -0.72019293
Link 18 206 2152 0 -0.01622522
Link 19 206 2153 0 0.66681960
Link 20 206 2154 0 0.02160657
Link 21 206 2155 0 1.13649233
Link 22 206 2156 0 0.79942756
Link 23 206 2157 0 0.13869170
Link 24 206 2158 0 0.19658173
Link 25 206 2159 0 0.29770214
Link 26 206 2160 0 0.08558326
Link 27 206 2161 0 -0.29704368
Link 28 206 2162 0 0.08432786
Link 29 206 2163 0 0.10077392
Link 30 206 2164 0 -0.08229418
Link 31 206 2165 0 -0.22233032
Link 32 206 2166 0 -0.66302844
Link 33 206 2167 0 0.04773005
Link 34 206 2168 0 0.60635500
Link 35 206 2169 0 0.31510169
Link 36 206 2170 0 0.08948232
Link 37 206 2171 0 -0.27056112
Link 38 206 2172 0 0.26221306
Link 39 206 2173 0 0.14659811
Link 40 206 2174 0 -0.35826332
Link 41 206 2175 0 -0.40411230
Link 42 206 2176 0 0.30784354
Link 43 206 2177 0 2.19293978
Link 44 206 2178 0 0.16256888
Link 45 206 2179 0 -0.72520822
Link 46 206 2180 0 0.33574198
Link 47 206 2181 0 -0.44408521
Link 48 206 2182 0 -0.48032181
Link 49 206 2183 0 -0.88240241
Link 50 206 2184 0 0.16827124
Link 51 206 2185 0 -0.28353338
Link 52 206 2186 0 0.11773698
Link 53 206 2187 0 -0.04100863
Link 54 206 2188 0 0.72814561
Link 55 206 2189 0 -0.81481823
Link 56 206 2190 0 0.09182930
Link 57 206 2191 0 -1.28868443
Link 58 206 2192 0 -0.19857704
Link 59 206 2193 0 -0.62068948
Link 60 206 2194 0 -0.18954215
Link 61 206 2195 0 -0.60322300
Link 62 206 2196 0 -0.50720761
Link 63 206 2197 0 -0.10070953
Link 64 206 2198 0 -0.15089826
Link 65 206 2199 0 -0.09452986
Link 66 206 2200 0 0.37444307
Link 67 206 2201 0 0.72804983
Link 68 206 2202 0 0.37753210
Link 69 206 2203 0 0.27066188
Link 70 206 2204 0 0.02395250
Link 71 206 2205 0 2.04491687
Link 72 206 2206 0 0.30473507
Link 73 206 2207 0 0.11110657
Link 74 206 2208 0 -0.70536063
Link 75 206 2209 0 0.05404840
Link 76 206 2210 0 0.34059129
Link 77 206 2211 0 0.61558707
Link 78 206 2212 0 -0.92313689
Link 79 206 2213 0 0.98919197
Link 80 206 2214 0 1.32408668
Link 81 206 2215 0 0.09212276
Link 82 206 2216 0 -0.67592428
Link 83 206 2217 0 3.54669488
Link 84 206 2218 0 -0.21385484
Link 85 206 2219 0 0.19608269
Link 86 206 2220 0 0.39871675
Link 87 206 2221 0 0.53334274
Link 88 206 2222 0 -0.20909441
Link 89 206 2223 0 -0.03719521
Link 90 206 2224 0 0.33023776
Link 91 206 2225 0 0.15837096
Link 92 206 2226 0 -0.69906818
Link 93 206 2227 0 1.30152470
Link 94 206 2228 0 -0.94944585
Link 95 206 2229 0 0.37733972
Link 96 206 2230 0 0.22151720
Link 97 206 2231 0 0.28589382
Link 98 206 2232 0 0.85021611
Link 99 206 2233 0 0.18628587
Link 100 206 2234 0 0.21812548
Link 101 206 2235 0 0.29294734
Link 102 206 2236 0 -0.07738210
Link 103 206 2237 0 0.06692144
Link 104 206 2238 0 -0.33621786
Link 105 206 2239 0 0.38303561
Link 106 206 2240 0 -1.01323536
Link 107 206 2241 0 0.28287238
Link 108 206 2242 0 -0.39122261
Link 109 206 2243 0 0.45164320
Link 110 206 2244 0 0.02415778
Link 111 206 2245 0 -0.39433359
Link 112 206 2246 0 0.26529478
Link 113 206 2247 0 -0.32958735
Link 114 206 2248 0 -0.04743348
Link 115 206 2249 0 -1.16376953
Link 116 206 2250 0 -0.42149403
Link 117 206 2251 0 0.79401246
Link 118 206 2252 0 0.28639842
Link 119 206 2253 0 -0.19021458
Link 120 206 2254 0 -0.09528030
Link 121 206 2255 0 -0.04749927
Link 122 206 2256 0 -0.18615662
Link 123 206 2257 0 -0.66157394
Link 124 206 2258 0 -0.80694411
Link 125 206 2259 0 0.54387783
Link 126 206 2260 0 -0.16143701
Link 127 206 2261 0 0.07646651
Link 128 206 2262 0 1.31474501
Link 129 206 2263 0 0.46329088
Link 130 206 2264 0 0.39583447
Link 131 206 2265 0 0.38238661
Link 132 206 2266 0 -0.04073673
Link 133 206 2267 0 -0.58696149
Link 134 206 2268 0 -0.25965053
Link 135 206 2269 0 0.51683719
Link 136 206 2270 0 -0.13579155
Link 137 206 2271 0 0.23392707
Link 138 206 2272 0 -1.41230884
Link 139 206 2273 0 0.58943366
Link 140 206 2274 0 -0.34664878
Link 141 206 2275 0 0.55119846
Link 142 206 2276 0 0.42865092
Link 143 206 2277 0 0.39330614
Link 144 206 2278 0 -0.15387486
Link 145 206 2279 0 -0.43189544
Link 146 206 2280 0 0.11706346
Link 147 206 2281 0 0.15956203
Link 148 206 2282 0 0.18026211
Link 149 206 2283 0 0.02277108
Link 150 206 2284 0 -0.16378909
Link 151 206 2285 0 -0.17157563
Link 152 206 2286 0 -0.48490063
Link 153 206 2287 0 -0.21730925
Link 154 206 2288 0 -0.51679755
Link 155 206 2289 0 -0.24419653
Link 156 206 2290 0 -0.24495915
Link 157 206 2291 0 -0.24957707
Link 158 206 2292 0 -1.11374778
Link 159 206 2293 0 -0.27848778
Link 160 206 2294 0 -0.29219192
Link 161 206 2295 0 0.08584476
Link 162 206 2296 0 -1.56768735
Link 163 206 2297 0 0.65512608
Link 164 206 2298 0 0.79909085
Link 165 206 2299 0 -0.27849990
Link 166 206 2300 0 0.48680914
Link 167 206 2301 0 0.46364060
Link 168 206 2302 0 0.04782030
Link 169 206 2303 0 2.12265894
Link 170 206 2304 0 -0.57862127
Link 171 206 2305 0 0.12996880
Link 172 206 2306 0 -0.14820484
Link 173 206 2307 0 0.66983652
Link 174 206 2308 0 1.12514429
Link 175 206 2309 0 0.67013583
Link 176 206 2310 0 -0.13951304
Link 177 206 2311 0 0.72887809
Link 178 206 2312 0 0.34290471
Link 179 206 2313 0 0.30398366
Link 180 206 2314 0 0.47249130
Link 181 206 2315 0 -0.02379505
Link 182 206 2316 0 0.20821998
Link 183 206 2317 0 -0.26447739
Link 184 206 2318 0 0.26398272
Link 185 206 2319 0 -0.18180532
Link 186 206 2320 0 -0.60423585
Link 187 206 2321 0 -0.08025802
Link 188 206 2322 0 -0.10046928
Link 189 206 2323 0 0.26346858
Link 190 206 2324 0 0.17596979
Link 191 206 2325 0 -0.07765349
Link 192 206 2326 0 0.67150721
Link 193 206 2327 0 0.31380923
Link 194 206 2328 0 -0.45933809
Link 1 207 2329 0 0.11419142
Link 2 207 2330 0 0.40042349
Link 3 207 2331 0 0.18764000
Link 4 207 2332 0 0.10450951
Link 5 207 2333 0 -0.11537578
Link 6 207 2334 0 0.15430330
Link 7 207 2335 0 -0.01667586
Link 8 207 2336 0 0.10555585
Link 9 207 2337 0 0.14004362
Link 10 207 2338 0 0.28123329
Link 11 207 2339 0 0.36812186
Link 12 207 2340 0 0.18092762
Link 13 207 2341 0 -0.00625075
Link 14 207 2342 0 0.54994909
Link 15 207 2343 0 -0.06726619
Link 16 207 2344 0 -0.18207786
Link 17 207 2345 0 0.47530070
Link 18 207 2346 0 -0.86365001
Link 19 207 2347 0 0.15102742
Link 20 207 2348 0 0.25212133
Link 21 207 2349 0 -0.67995629
Link 22 207 2350 0 -0.37843364
Link 23 207 2351 0 0.20466355
Link 24 207 2352 0 -0.46101903
Link 25 207 2353 0 -0.07710440
Link 26 207 2354 0 -0.08761693
Link 27 207 2355 0 -0.19805866
Link 28 207 2356 0 0.20544960
Link 29 207 2357 0 0.02632311
Link 30 207 2358 0 0.11774858
Link 31 207 2359 0 -0.34240777
Link 32 207 2360 0 0.53279729
Link 33 207 2361 0 -0.09861307
Link 34 207 2362 0 0.02377964
Link 35 207 2363 0 -0.43038908
Link 36 207 2364 0 0.20817051
Link 37 207 2365 0 0.14994335
Link 38 207 2366 0 0.14260446
Link 39 207 2367 0 0.11045712
Link 40 207 2368 0 0.11085909
Link 41 207 2369 0 -0.16399110
Link 42 207 2370 0 -0.01470250
Link 43 207 2371 0 0.10053209
Link 44 207 2372 0 -0.47895869
Link 45 207 2373 0 0.22349881
Link 46 207 2374 0 -0.19319690
Link 47 207 2375 0 0.14725470
Link 48 207 2376 0 0.36647818
Link 49 207 2377 0 -0.36366175
Link 50 207 2378 0 -0.54678449
Link 51 207 2379 0 -0.15740295
Link 52 207 2380 0 -0.14550193
Link 53 207 2381 0 -0.21123307
Link 54 207 2382 0 0.34090263
Link 55 207 2383 0 0.75323011
Link 56 207 2384 0 0.08229057
Link 57 207 2385 0 0.22119589
Link 58 207 2386 0 -0.01915412
Link 59 207 2387 0 0.26983188
Link 60 207 2388 0 0.42859425
Link 61 207 2389 0 0.52532938
Link 62 207 2390 0 -0.13482710
Link 63 207 2391 0 0.64231727
Link 64 207 2392 0 -0.05059811
Link 65 207 2393 0 -0.03022114
Link 66 207 2394 0 0.19938291
Link 67 207 2395 0 -0.00679168
Link 68 207 2396 0 0.12524683
Link 69 207 2397 0 -0.03022213
Link 70 207 2398 0 -0.70054744
Link 71 207 2399 0 0.00861697
Link 72 207 2400 0 -0.37844640
Link 73 207 2401 0 0.16057896
Link 74 207 2402 0 0.30307750
Link 75 207 2403 0 -0.15985998
Link 76 207 2404 0 0.10449736
Link 77 207 2405 0 -0.44942932
Link 78 207 2406 0 0.16113056
Link 79 207 2407 0 0.20247211
Link 80 207 2408 0 -0.49312186
Link 81 207 2409 0 0.28956818
Link 82 207 2410 0 0.07829211
Link 83 207 2411 0 0.67640988
Link 84 207 2412 0 0.01563117
Link 85 207 2413 0 0.23920885
Link 86 207 2414 0 -0.41419547
Link 87 207 2415 0 0.32850922
Link 88 207 2416 0 0.12556163
Link 89 207 2417 0 0.30396481
Link 90 207 2418 0 0.58951539
Link 91 207 2419 0 0.16387371
Link 92 207 2420 0 -0.11539589
Link 93 207 2421 0 0.06444769
Link 94 207 2422 0 -0.23186621
Link 95 207 2423 0 -0.09040809
Link 96 207 2424 0 0.00085186
Link 97 207 2425 0 -0.02560600
Link 98 207 2426 0 0.01303725
Link 99 207 2427 0 0.33544548
Link 100 207 2428 0 0.65582187
Link 101 207 2429 0 0.23649481
Link 102 207 2430 0 0.31410415
Link 103 207 2431 0 0.46005221
Link 104 207 2432 0 0.28877742
Link 105 207 2433 0 -0.09648435
Link 106 207 2434 0 0.47015522
Link 107 207 2435 0 0.29045839
Link 108 207 2436 0 0.10288129
Link 109 207 2437 0 -0.43953172
Link 110 207 2438 0 -0.11299578
Link 111 207 2439 0 -0.39626955
Link 112 207 2440 0 -0.21553620
Link 113 207 2441 0 0.12431558
Link 114 207 2442 0 0.22414372
Link 115 207 2443 0 -0.64488210
Link 116 207 2444 0 -0.32436550
Link 117 207 2445 0 0.27635505
Link 118 207 2446 0 0.11084329
Link 119 207 2447 0 -0.21138532
Link 120 207 2448 0 0.12531451
Link 121 207 2449 0 0.23727036
Link 122 207 2450 0 -0.37826710
Link 123 207 2451 0 -0.23510738
Link 124 207 2452 0 0.27517013
Link 125 207 2453 0 0.21614055
Link 126 207 2454 0 0.27321060
Link 127 207 2455 0 0.58284939
Link 128 207 2456 0 -0.16681974
Link 129 207 2457 0 0.06073228
Link 130 207 2458 0 -0.09620066
Link 131 207 2459 0 -0.32528617
Link 132 207 2460 0 -0.05157351
Link 133 207 2461 0 -0.59586249
Link 134 207 2462 0 -0.35731591
Link 135 207 2463 0 0.31506510
Link 136 207 2464 0 -0.56682931
Link 137 207 2465 0 -0.06383658
Link 138 207 2466 0 -0.00449610
Link 139 207 2467 0 0.17374369
Link 140 207 2468 0 0.11820101
Link 141 207 2469 0 0.41647277
Link 142 207 2470 0 -0.21702909
Link 143 207 2471 0 -0.32728521
Link 144 207 2472 0 0.15344282
Link 145 207 2473 0 -0.40606870
Link 146 207 2474 0 0.06734863
Link 147 207 2475 0 -0.38366714
Link 148 207 2476 0 -0.07668490
Link 149 207 2477 0 0.32940460
Link 150 207 2478 0 -0.43032989
Link 151 207 2479 0 0.24246960
Link 152 207 2480 0 -0.28352342
Link 153 207 2481 0 0.08167718
Link 154 207 2482 0 -0.01205488
Link 155 207 2483 0 -0.24514883
Link 156 207 2484 0 -0.24652082
Link 157 207 2485 0 -0.20086151
Link 158 207 2486 0 0.05790761
Link 159 207 2487 0 0.25663004
Link 160 207 2488 0 0.13104431
Link 161 207 2489 0 0.07286565
Link 162 207 2490 0 -0.11922896
Link 163 207 2491 0 0.10909524
Link 164 207 2492 0 -0.22606100
Link 165 207 2493 0 -0.36665132
Link 166 207 2494 0 0.21230586
Link 167 207 2495 0 -0.24456579
Link 168 207 2496 0 0.27480993
Link 169 207 2497 0 -0.24300071
Link 170 207 2498 0 -0.33615952
Link 171 207 2499 0 -0.34672037
Link 172 207 2500 0 -0.39814392
Link 173 207 2501 0 -0.15896715
Link 174 207 2502 0 0.08990057
Link 175 207 2503 0 0.21167369
Link 176 207 2504 0 0.12348355
Link 177 207 2505 0 -0.28651714
Link 178 207 2506 0 0.22594748
Link 179 207 2507 0 0.04660302
Link 180 207 2508 0 0.50468579
Link 181 207 2509 0 -0.05343187
Link 182 207 2510 0 -0.15897768
Link 183 207 2511 0 -0.12333907
Link 184 207 2512 0 -0.16248862
Link 185 207 2513 0 0.57677633
Link 186 207 2514 0 0.36690714
Link 187 207 2515 0 0.39839998
Link 188 207 2516 0 -0.23613596
Link 189 207 2517 0 0.11624908
Link 190 207 2518 0 0.17263902
Link 191 207 2519 0 -0.06417281
Link 192 207 2520 0 0.57907792
Link 193 207 2521 0 -0.22628590
Link 194 207 2522 0 -0.49100191
Link 1 208 2523 0 0.60590193
Link 2 208 2524 0 -0.36690016
Link 3 208 2525 0 0.15303017
Link 4 208 2526 0 0.10371225
Link 5 208 2527 0 -0.04394136
Link 6 208 2528 0 0.37162376
Link 7 208 2529 0 -0.10047307
Link 8 208 2530 0 0.15168747
Link 9 208 2531 0 0.21442564
Link 10 208 2532 0 -0.18523078
Link 11 208 2533 0 0.62888808
Link 12 208 2534 0 -0.08135764
Link 13 208 2535 0 0.31081274
Link 14 208 2536 0 -0.03796112
Link 15 208 2537 0 0.00538314
Link 16 208 2538 0 0.15300788
Link 17 208 2539 0 -0.11200295
Link 18 208 2540 0 0.07818369
Link 19 208 2541 0 0.12161938
Link 20 208 2542 0 0.41563330
Link 21 208 2543 0 0.38012613
Link 22 208 2544 0 0.09852129
Link 23 208 2545 0 -0.15001804
Link 24 208 2546 0 -0.58252866
Link 25 208 2547 0 -0.24523270
Link 26 208 2548 0 0.22459836
Link 27 208 2549 0 -0.52432670
Link 28 208 2550 0 -0.49049816
Link 29 208 2551 0 0.28331245
Link 30 208 2552 0 0.21261159
Link 31 208 2553 0 0.04962786
Link 32 208 2554 0 -0.39043525
Link 33 208 2555 0 0.15639539
Link 34 208 2556 0 -0.09423704
Link 35 208 2557 0 0.02884243
Link 36 208 2558 0 0.06841080
Link 37 208 2559 0 0.35620082
Link 38 208 2560 0 0.59056629
Link 39 208 2561 0 -0.26602893
Link 40 208 2562 0 0.35476908
Link 41 208 2563 0 0.20135046
Link 42 208 2564 0 0.50952276
Link 43 208 2565 0 0.09045460
Link 44 208 2566 0 0.25665592
Link 45 208 2567 0 0.27907682
Link 46 208 2568 0 0.09857725
Link 47 208 2569 0 -0.48681624
Link 48 208 2570 0 0.00475938
Link 49 208 2571 0 -0.37843415
Link 50 208 2572 0 -0.48552754
Link 51 208 2573 0 0.12957199
Link 52 208 2574 0 -0.25764432
Link 53 208 2575 0 0.15810069
Link 54 208 2576 0 0.02834483
Link 55 208 2577 0 -0.55329745
Link 56 208 2578 0 -0.23060161
Link 57 208 2579 0 0.08548047
Link 58 208 2580 0 0.02855097
Link 59 208 2581 0 0.01328309
Link 60 208 2582 0 -0.15051279
Link 61 208 2583 0 0.04802470
Link 62 208 2584 0 0.11369367
Link 63 208 2585 0 0.01083072
Link 64 208 2586 0 -0.40602182
Link 65 208 2587 0 -0.21543045
Link 66 208 2588 0 0.30951134
Link 67 208 2589 0 -0.17065988
Link 68 208 2590 0 -0.07513422
Link 69 208 2591 0 -0.06981989
Link 70 208 2592 0 -0.03750362
Link 71 208 2593 0 0.00810053
Link 72 208 2594 0 0.21121375
Link 73 208 2595 0 -0.09725556
Link 74 208 2596 0 -0.24755725
Link 75 208 2597 0 0.33928512
Link 76 208 2598 0 0.04994002
Link 77 208 2599 0 0.03574147
Link 78 208 2600 0 0.18817272
Link 79 208 2601 0 0.06279664
Link 80 208 2602 0 -0.47647883
Link 81 208 2603 0 -0.16448404
Link 82 208 2604 0 0.14873648
Link 83 208 2605 0 0.35441562
Link 84 208 2606 0 -0.24181668
Link 85 208 2607 0 0.25868585
Link 86 208 2608 0 0.27638685
Link 87 208 2609 0 -0.48228298
Link 88 208 2610 0 0.22088405
Link 89 208 2611 0 0.44474064
Link 90 208 2612 0 -0.12277650
Link 91 208 2613 0 0.38098651
Link 92 208 2614 0 -0.30384604
Link 93 208 2615 0 0.14075959
Link 94 208 2616 0 -0.02663645
Link 95 208 2617 0 0.68903379
Link 96 208 2618 0 0.23475024
Link 97 208 2619 0 0.28610163
Link 98 208 2620 0 0.34992192
Link 99 208 2621 0 0.05681797
Link 100 208 2622 0 0.06593937
Link 101 208 2623 0 -0.26823035
Link 102 208 2624 0 0.17814366
Link 103 208 2625 0 0.28416298
Link 104 208 2626 0 0.57786632
Link 105 208 2627 0 -0.20325580
Link 106 208 2628 0 0.10246229
Link 107 208 2629 0 -0.33776529
Link 108 208 2630 0 -0.11452203
Link 109 208 2631 0 -0.15766788
Link 110 208 2632 0 -0.10805182
Link 111 208 2633 0 -0.58171538
Link 112 208 2634 0 -0.07581456
Link 113 208 2635 0 0.09609404
Link 114 208 2636 0 0.44673410
Link 115 208 2637 0 -0.20680339
Link 116 208 2638 0 0.26766255
Link 117 208 2639 0 -0.01561087
Link 118 208 2640 0 -0.23837619
Link 119 208 2641 0 -0.21329890
Link 120 208 2642 0 -0.20466361
Link 121 208 2643 0 0.39296071
Link 122 208 2644 0 0.36595732
Link 123 208 2645 0 0.11524329
Link 124 208 2646 0 0.86021707
Link 125 208 2647 0 0.66689727
Link 126 208 2648 0 -0.34076695
Link 127 208 2649 0 -0.16408187
Link 128 208 2650 0 0.22582118
Link 129 208 2651 0 0.03931761
Link 130 208 2652 0 -0.24052315
Link 131 208 2653 0 -0.37340599
Link 132 208 2654 0 -0.14298516
Link 133 208 2655 0 -0.51918026
Link 134 208 2656 0 -0.44725102
Link 135 208 2657 0 -0.40358321
Link 136 208 2658 0 0.15880151
Link 137 208 2659 0 0.08729692
Link 138 208 2660 0 0.09671610
Link 139 208 2661 0 0.18666531
Link 140 208 2662 0 -0.07312730
Link 141 208 2663 0 -0.02394654
Link 142 208 2664 0 0.22578762
Link 143 208 2665 0 0.18485724
Link 144 208 2666 0 -0.11082244
Link 145 208 2667 0 -0.11581196
Link 146 208 2668 0 0.73618834
Link 147 208 2669 0 0.18094307
Link 148 208 2670 0 -0.31721791
Link 149 208 2671 0 -0.29762488
Link 150 208 2672 0 0.13058760
Link 151 208 2673 0 -0.05279414
Link 152 208 2674 0 0.01912287
Link 153 208 2675 0 0.27846436
Link 154 208 2676 0 -0.13445418
Link 155 208 2677 0 -0.40970603
Link 156 208 2678 0 -0.02133403
Link 157 208 2679 0 -0.29632461
Link 158 208 2680 0 -0.93624390
Link 159 208 2681 0 -0.29537049
Link 160 208 2682 0 0.35656355
Link 161 208 2683 0 -0.44879893
Link 162 208 2684 0 0.39499707
Link 163 208 2685 0 -0.12652319
Link 164 208 2686 0 0.09243973
Link 165 208 2687 0 -0.01092307
Link 166 208 2688 0 -0.31090522
Link 167 208 2689 0 0.15969396
Link 168 208 2690 0 0.30582172
Link 169 208 2691 0 0.32436044
Link 170 208 2692 0 0.06503359
Link 171 208 2693 0 0.31141108
Link 172 208 2694 0 -0.73589359
Link 173 208 2695 0 0.25134606
Link 174 208 2696 0 -0.02206459
Link 175 208 2697 0 -0.36961361
Link 176 208 2698 0 0.33303971
Link 177 208 2699 0 -0.62637645
Link 178 208 2700 0 0.26406808
Link 179 208 2701 0 0.31923719
Link 180 208 2702 0 -0.32372260
Link 181 208 2703 0 0.25061544
Link 182 208 2704 0 0.12464996
Link 183 208 2705 0 -0.28954698
Link 184 208 2706 0 0.40389639
Link 185 208 2707 0 -0.12681187
Link 186 208 2708 0 0.37621537
Link 187 208 2709 0 0.15111568
Link 188 208 2710 0 0.07741700
Link 189 208 2711 0 -0.16242715
Link 190 208 2712 0 0.04122708
Link 191 208 2713 0 0.01295016
Link 192 208 2714 0 0.07012326
Link 193 208 2715 0 -0.79839987
Link 194 208 2716 0 -0.67187736
Link 1 209 2717 0 -0.21578051
Link 2 209 2718 0 0.37214454
Link 3 209 2719 0 0.09999958
Link 4 209 2720 0 -0.31596811
Link 5 209 2721 0 0.19968004
Link 6 209 2722 0 -0.23289631
Link 7 209 2723 0 0.33371901
Link 8 209 2724 0 0.00517087
Link 9 209 2725 0 0.20430281
Link 10 209 2726 0 0.35332836
Link 11 209 2727 0 0.12748553
Link 12 209 2728 0 0.08312398
Link 13 209 2729 0 0.06122200
Link 14 209 2730 0 0.16229264
Link 15 209 2731 0 -0.60504537
Link 16 209 2732 0 -0.17645118
Link 17 209 2733 0 -0.45788385
Link 18 209 2734 0 -0.06876837
Link 19 209 2735 0 0.78439540
Link 20 209 2736 0 -0.50350922
Link 21 209 2737 0 -0.02089082
Link 22 209 2738 0 -0.34679187
Link 23 209 2739 0 0.07444287
Link 24 209 2740 0 -0.32288266
Link 25 209 2741 0 0.05797120
Link 26 209 2742 0 -0.00268624
Link 27 209 2743 0 -0.06694803
Link 28 209 2744 0 -0.19903982
Link 29 209 2745 0 -0.06965908
Link 30 209 2746 0 -0.18732977
Link 31 209 2747 0 0.42394126
Link 32 209 2748 0 0.31666417
Link 33 209 2749 0 0.06992801
Link 34 209 2750 0 -0.11020634
Link 35 209 2751 0 -0.25948482
Link 36 209 2752 0 -0.21617686
Link 37 209 2753 0 0.23393973
Link 38 209 2754 0 -0.89720350
Link 39 209 2755 0 0.26662180
Link 40 209 2756 0 -0.08270052
Link 41 209 2757 0 0.20998445
Link 42 209 2758 0 -0.16019949
Link 43 209 2759 0 -0.24319980
Link 44 209 2760 0 0.48924531
Link 45 209 2761 0 0.21787003
Link 46 209 2762 0 0.11187677
Link 47 209 2763 0 -0.10879570
Link 48 209 2764 0 0.54512313
Link 49 209 2765 0 -0.02376127
Link 50 209 2766 0 0.17102106
Link 51 209 2767 0 -0.34065907
Link 52 209 2768 0 0.18732840
Link 53 209 2769 0 -0.42926248
Link 54 209 2770 0 -0.07420252
Link 55 209 2771 0 0.01666589
Link 56 209 2772 0 0.45779273
Link 57 209 2773 0 0.31376644
Link 58 209 2774 0 -0.11585328
Link 59 209 2775 0 -0.46261245
Link 60 209 2776 0 0.23236280
Link 61 209 2777 0 0.09691702
Link 62 209 2778 0 -0.27680820
Link 63 209 2779 0 -0.49016072
Link 64 209 2780 0 0.36014727
Link 65 209 2781 0 -0.48926331
Link 66 209 2782 0 0.06387153
Link 67 209 2783 0 0.08367332
Link 68 209 2784 0 0.11641874
Link 69 209 2785 0 0.12155572
Link 70 209 2786 0 -0.45977677
Link 71 209 2787 0 0.11254727
Link 72 209 2788 0 0.21508985
Link 73 209 2789 0 -0.08187298
Link 74 209 2790 0 0.13911534
Link 75 209 2791 0 -0.09812335
Link 76 209 2792 0 0.23615997
Link 77 209 2793 0 -0.13570667
Link 78 209 2794 0 0.48494187
Link 79 209 2795 0 0.21297759
Link 80 209 2796 0 0.70414120
Link 81 209 2797 0 0.17291559
Link 82 209 2798 0 -0.02878707
