GenomeStart 5072
Neuron 1 1 0.00000000 1 0.00000000 0.00000000 0.00000000 0.00000000
Neuron 2 1 0.00000000 1 0.00000000 0.00000000 0.00000000 0.00000000
Neuron 3 1 0.00000000 1 0.00000000 0.00000000 0.00000000 0.00000000
Neuron 4 1 0.00000000 1 0.00000000 0.00000000 0.00000000 0.00000000
Neuron 5 1 0.00000000 1 0.00000000 0.00000000 0.00000000 0.00000000
Neuron 6 1 0.00000000 1 0.00000000 0.00000000 0.00000000 0.00000000
Neuron 7 1 0.00000000 1 0.00000000 0.00000000 0.00000000 0.00000000
Neuron 8 1 0.00000000 1 0.00000000 0.00000000 0.00000000 0.00000000
Neuron 9 1 0.00000000 1 0.00000000 0.00000000 0.00000000 0.00000000
Neuron 10 1 0.00000000 1 0.00000000 0.00000000 0.00000000 0.00000000
Neuron 11 1 0.00000000 1 0.00000000 0.00000000 0.00000000 0.00000000
Neuron 12 1 0.00000000 1 0.00000000 0.00000000 0.00000000 0.00000000
Neuron 13 1 0.00000000 1 0.00000000 0.00000000 0.00000000 0.00000000
Neuron 14 1 0.00000000 1 0.00000000 0.00000000 0.00000000 0.00000000
Neuron 15 1 0.00000000 1 0.00000000 0.00000000 0.00000000 0.00000000
Neuron 16 1 0.00000000 1 0.00000000 0.00000000 0.00000000 0.00000000
Neuron 17 1 0.00000000 1 0.00000000 0.00000000 0.00000000 0.00000000
Neuron 18 1 0.00000000 1 0.00000000 0.00000000 0.00000000 0.00000000
Neuron 19 1 0.00000000 1 0.00000000 0.00000000 0.00000000 0.00000000
Neuron 20 1 0.00000000 1 0.00000000 0.00000000 0.00000000 0.00000000
Neuron 21 1 0.00000000 1 0.00000000 0.00000000 0.00000000 0.00000000
Neuron 22 1 0.00000000 1 0.00000000 0.00000000 0.00000000 0.00000000
Neuron 23 1 0.00000000 1 0.00000000 0.00000000 0.00000000 0.00000000
Neuron 24 1 0.00000000 1 0.00000000 0.00000000 0.00000000 0.00000000
Neuron 25 1 0.00000000 1 0.00000000 0.00000000 0.00000000 0.00000000
Neuron 26 1 0.00000000 1 0.00000000 0.00000000 0.00000000 0.00000000
Neuron 27 1 0.00000000 1 0.00000000 0.00000000 0.00000000 0.00000000
Neuron 28 1 0.00000000 1 0.00000000 0.00000000 0.00000000 0.00000000
Neuron 29 1 0.00000000 1 0.00000000 0.00000000 0.00000000 0.00000000
Neuron 30 1 0.00000000 1 0.00000000 0.00000000 0.00000000 0.00000000
Neuron 31 1 0.00000000 1 0.00000000 0.00000000 0.00000000 0.00000000
Neuron 32 1 0.00000000 1 0.00000000 0.00000000 0.00000000 0.00000000
Neuron 33 1 0.00000000 1 0.00000000 0.00000000 0.00000000 0.00000000
Neuron 34 1 0.00000000 1 0.00000000 0.00000000 0.00000000 0.00000000
Neuron 35 1 0.00000000 1 0.00000000 0.00000000 0.00000000 0.00000000
Neuron 36 1 0.00000000 1 0.00000000 0.00000000 0.00000000 0.00000000
Neuron 37 1 0.00000000 1 0.00000000 0.00000000 0.00000000 0.00000000
Neuron 38 1 0.00000000 1 0.00000000 0.00000000 0.00000000 0.00000000
Neuron 39 1 0.00000000 1 0.00000000 0.00000000 0.00000000 0.00000000
Neuron 40 1 0.00000000 1 0.00000000 0.00000000 0.00000000 0.00000000
Neuron 41 1 0.00000000 1 0.00000000 0.00000000 0.00000000 0.00000000
Neuron 42 1 0.00000000 1 0.00000000 0.00000000 0.00000000 0.00000000
Neuron 43 1 0.00000000 1 0.00000000 0.00000000 0.00000000 0.00000000
Neuron 44 1 0.00000000 1 0.00000000 0.00000000 0.00000000 0.00000000
Neuron 45 1 0.00000000 1 0.00000000 0.00000000 0.00000000 0.00000000
Neuron 46 1 0.00000000 1 0.00000000 0.00000000 0.00000000 0.00000000
Neuron 47 1 0.00000000 1 0.00000000 0.00000000 0.00000000 0.00000000
Neuron 48 1 0.00000000 1 0.00000000 0.00000000 0.00000000 0.00000000
Neuron 49 1 0.00000000 1 0.00000000 0.00000000 0.00000000 0.00000000
Neuron 50 1 0.00000000 1 0.00000000 0.00000000 0.00000000 0.00000000
Neuron 51 1 0.00000000 1 0.00000000 0.00000000 0.00000000 0.00000000
Neuron 52 1 0.00000000 1 0.00000000 0.00000000 0.00000000 0.00000000
Neuron 53 1 0.00000000 1 0.00000000 0.00000000 0.00000000 0.00000000
Neuron 54 1 0.00000000 1 0.00000000 0.00000000 0.00000000 0.00000000
Neuron 55 1 0.00000000 1 0.00000000 0.00000000 0.00000000 0.00000000
Neuron 56 1 0.00000000 1 0.00000000 0.00000000 0.00000000 0.00000000
Neuron 57 1 0.00000000 1 0.00000000 0.00000000 0.00000000 0.00000000
Neuron 58 1 0.00000000 1 0.00000000 0.00000000 0.00000000 0.00000000
Neuron 59 1 0.00000000 1 0.00000000 0.00000000 0.00000000 0.00000000
Neuron 60 1 0.00000000 1 0.00000000 0.00000000 0.00000000 0.00000000
Neuron 61 1 0.00000000 1 0.00000000 0.00000000 0.00000000 0.00000000
Neuron 62 1 0.00000000 1 0.00000000 0.00000000 0.00000000 0.00000000
Neuron 63 1 0.00000000 1 0.00000000 0.00000000 0.00000000 0.00000000
Neuron 64 1 0.00000000 1 0.00000000 0.00000000 0.00000000 0.00000000
Neuron 65 1 0.00000000 1 0.00000000 0.00000000 0.00000000 0.00000000
Neuron 66 1 0.00000000 1 0.00000000 0.00000000 0.00000000 0.00000000
Neuron 67 1 0.00000000 1 0.00000000 0.00000000 0.00000000 0.00000000
Neuron 68 1 0.00000000 1 0.00000000 0.00000000 0.00000000 0.00000000
Neuron 69 1 0.00000000 1 0.00000000 0.00000000 0.00000000 0.00000000
Neuron 70 1 0.00000000 1 0.00000000 0.00000000 0.00000000 0.00000000
Neuron 71 1 0.00000000 1 0.00000000 0.00000000 0.00000000 0.00000000
Neuron 72 1 0.00000000 1 0.00000000 0.00000000 0.00000000 0.00000000
Neuron 73 1 0.00000000 1 0.00000000 0.00000000 0.00000000 0.00000000
Neuron 74 1 0.00000000 1 0.00000000 0.00000000 0.00000000 0.00000000
Neuron 75 1 0.00000000 1 0.00000000 0.00000000 0.00000000 0.00000000
Neuron 76 1 0.00000000 1 0.00000000 0.00000000 0.00000000 0.00000000
Neuron 77 1 0.00000000 1 0.00000000 0.00000000 0.00000000 0.00000000
Neuron 78 1 0.00000000 1 0.00000000 0.00000000 0.00000000 0.00000000
Neuron 79 1 0.00000000 1 0.00000000 0.00000000 0.00000000 0.00000000
Neuron 80 1 0.00000000 1 0.00000000 0.00000000 0.00000000 0.00000000
Neuron 81 1 0.00000000 1 0.00000000 0.00000000 0.00000000 0.00000000
Neuron 82 1 0.00000000 1 0.00000000 0.00000000 0.00000000 0.00000000
Neuron 83 1 0.00000000 1 0.00000000 0.00000000 0.00000000 0.00000000
Neuron 84 1 0.00000000 1 0.00000000 0.00000000 0.00000000 0.00000000
Neuron 85 1 0.00000000 1 0.00000000 0.00000000 0.00000000 0.00000000
Neuron 86 1 0.00000000 1 0.00000000 0.00000000 0.00000000 0.00000000
Neuron 87 1 0.00000000 1 0.00000000 0.00000000 0.00000000 0.00000000
Neuron 88 1 0.00000000 1 0.00000000 0.00000000 0.00000000 0.00000000
Neuron 89 1 0.00000000 1 0.00000000 0.00000000 0.00000000 0.00000000
Neuron 90 1 0.00000000 1 0.00000000 0.00000000 0.00000000 0.00000000
Neuron 91 1 0.00000000 1 0.00000000 0.00000000 0.00000000 0.00000000
Neuron 92 1 0.00000000 1 0.00000000 0.00000000 0.00000000 0.00000000
Neuron 93 1 0.00000000 1 0.00000000 0.00000000 0.00000000 0.00000000
Neuron 94 1 0.00000000 1 0.00000000 0.00000000 0.00000000 0.00000000
Neuron 95 1 0.00000000 1 0.00000000 0.00000000 0.00000000 0.00000000
Neuron 96 1 0.00000000 1 0.00000000 0.00000000 0.00000000 0.00000000
Neuron 97 1 0.00000000 1 0.00000000 0.00000000 0.00000000 0.00000000
Neuron 98 1 0.00000000 1 0.00000000 0.00000000 0.00000000 0.00000000
Neuron 99 1 0.00000000 1 0.00000000 0.00000000 0.00000000 0.00000000
Neuron 100 1 0.00000000 1 0.00000000 0.00000000 0.00000000 0.00000000
Neuron 101 1 0.00000000 1 0.00000000 0.00000000 0.00000000 0.00000000
Neuron 102 1 0.00000000 1 0.00000000 0.00000000 0.00000000 0.00000000
Neuron 103 1 0.00000000 1 0.00000000 0.00000000 0.00000000 0.00000000
Neuron 104 1 0.00000000 1 0.00000000 0.00000000 0.00000000 0.00000000
Neuron 105 1 0.00000000 1 0.00000000 0.00000000 0.00000000 0.00000000
Neuron 106 1 0.00000000 1 0.00000000 0.00000000 0.00000000 0.00000000
Neuron 107 1 0.00000000 1 0.00000000 0.00000000 0.00000000 0.00000000
Neuron 108 1 0.00000000 1 0.00000000 0.00000000 0.00000000 0.00000000
Neuron 109 1 0.00000000 1 0.00000000 0.00000000 0.00000000 0.00000000
Neuron 110 1 0.00000000 1 0.00000000 0.00000000 0.00000000 0.00000000
Neuron 111 1 0.00000000 1 0.00000000 0.00000000 0.00000000 0.00000000
Neuron 112 1 0.00000000 1 0.00000000 0.00000000 0.00000000 0.00000000
Neuron 113 1 0.00000000 1 0.00000000 0.00000000 0.00000000 0.00000000
Neuron 114 1 0.00000000 1 0.00000000 0.00000000 0.00000000 0.00000000
Neuron 115 1 0.00000000 1 0.00000000 0.00000000 0.00000000 0.00000000
Neuron 116 1 0.00000000 1 0.00000000 0.00000000 0.00000000 0.00000000
Neuron 117 1 0.00000000 1 0.00000000 0.00000000 0.00000000 0.00000000
Neuron 118 1 0.00000000 1 0.00000000 0.00000000 0.00000000 0.00000000
Neuron 119 1 0.00000000 1 0.00000000 0.00000000 0.00000000 0.00000000
Neuron 120 1 0.00000000 1 0.00000000 0.00000000 0.00000000 0.00000000
Neuron 121 1 0.00000000 1 0.00000000 0.00000000 0.00000000 0.00000000
Neuron 122 1 0.00000000 1 0.00000000 0.00000000 0.00000000 0.00000000
Neuron 123 1 0.00000000 1 0.00000000 0.00000000 0.00000000 0.00000000
Neuron 124 1 0.00000000 1 0.00000000 0.00000000 0.00000000 0.00000000
Neuron 125 1 0.00000000 1 0.00000000 0.00000000 0.00000000 0.00000000
Neuron 126 1 0.00000000 1 0.00000000 0.00000000 0.00000000 0.00000000
Neuron 127 1 0.00000000 1 0.00000000 0.00000000 0.00000000 0.00000000
Neuron 128 1 0.00000000 1 0.00000000 0.00000000 0.00000000 0.00000000
Neuron 129 1 0.00000000 1 0.00000000 0.00000000 0.00000000 0.00000000
Neuron 130 1 0.00000000 1 0.00000000 0.00000000 0.00000000 0.00000000
Neuron 131 1 0.00000000 1 0.00000000 0.00000000 0.00000000 0.00000000
Neuron 132 1 0.00000000 1 0.00000000 0.00000000 0.00000000 0.00000000
Neuron 133 1 0.00000000 1 0.00000000 0.00000000 0.00000000 0.00000000
Neuron 134 1 0.00000000 1 0.00000000 0.00000000 0.00000000 0.00000000
Neuron 135 1 0.00000000 1 0.00000000 0.00000000 0.00000000 0.00000000
Neuron 136 1 0.00000000 1 0.00000000 0.00000000 0.00000000 0.00000000
Neuron 137 1 0.00000000 1 0.00000000 0.00000000 0.00000000 0.00000000
Neuron 138 1 0.00000000 1 0.00000000 0.00000000 0.00000000 0.00000000
Neuron 139 1 0.00000000 1 0.00000000 0.00000000 0.00000000 0.00000000
Neuron 140 1 0.00000000 1 0.00000000 0.00000000 0.00000000 0.00000000
Neuron 141 1 0.00000000 1 0.00000000 0.00000000 0.00000000 0.00000000
Neuron 142 1 0.00000000 1 0.00000000 0.00000000 0.00000000 0.00000000
Neuron 143 1 0.00000000 1 0.00000000 0.00000000 0.00000000 0.00000000
Neuron 144 1 0.00000000 1 0.00000000 0.00000000 0.00000000 0.00000000
Neuron 145 1 0.00000000 1 0.00000000 0.00000000 0.00000000 0.00000000
Neuron 146 1 0.00000000 1 0.00000000 0.00000000 0.00000000 0.00000000
Neuron 147 1 0.00000000 1 0.00000000 0.00000000 0.00000000 0.00000000
Neuron 148 1 0.00000000 1 0.00000000 0.00000000 0.00000000 0.00000000
Neuron 149 1 0.00000000 1 0.00000000 0.00000000 0.00000000 0.00000000
Neuron 150 1 0.00000000 1 0.00000000 0.00000000 0.00000000 0.00000000
Neuron 151 1 0.00000000 1 0.00000000 0.00000000 0.00000000 0.00000000
Neuron 152 1 0.00000000 1 0.00000000 0.00000000 0.00000000 0.00000000
Neuron 153 1 0.00000000 1 0.00000000 0.00000000 0.00000000 0.00000000
Neuron 154 1 0.00000000 1 0.00000000 0.00000000 0.00000000 0.00000000
Neuron 155 1 0.00000000 1 0.00000000 0.00000000 0.00000000 0.00000000
Neuron 156 1 0.00000000 1 0.00000000 0.00000000 0.00000000 0.00000000
Neuron 157 1 0.00000000 1 0.00000000 0.00000000 0.00000000 0.00000000
Neuron 158 1 0.00000000 1 0.00000000 0.00000000 0.00000000 0.00000000
Neuron 159 1 0.00000000 1 0.00000000 0.00000000 0.00000000 0.00000000
Neuron 160 1 0.00000000 1 0.00000000 0.00000000 0.00000000 0.00000000
Neuron 161 1 0.00000000 1 0.00000000 0.00000000 0.00000000 0.00000000
Neuron 162 1 0.00000000 1 0.00000000 0.00000000 0.00000000 0.00000000
Neuron 163 1 0.00000000 1 0.00000000 0.00000000 0.00000000 0.00000000
Neuron 164 1 0.00000000 1 0.00000000 0.00000000 0.00000000 0.00000000
Neuron 165 1 0.00000000 1 0.00000000 0.00000000 0.00000000 0.00000000
Neuron 166 1 0.00000000 1 0.00000000 0.00000000 0.00000000 0.00000000
Neuron 167 1 0.00000000 1 0.00000000 0.00000000 0.00000000 0.00000000
Neuron 168 1 0.00000000 1 0.00000000 0.00000000 0.00000000 0.00000000
Neuron 169 1 0.00000000 1 0.00000000 0.00000000 0.00000000 0.00000000
Neuron 170 1 0.00000000 1 0.00000000 0.00000000 0.00000000 0.00000000
Neuron 171 1 0.00000000 1 0.00000000 0.00000000 0.00000000 0.00000000
Neuron 172 1 0.00000000 1 0.00000000 0.00000000 0.00000000 0.00000000
Neuron 173 1 0.00000000 1 0.00000000 0.00000000 0.00000000 0.00000000
Neuron 174 1 0.00000000 1 0.00000000 0.00000000 0.00000000 0.00000000
Neuron 175 1 0.00000000 1 0.00000000 0.00000000 0.00000000 0.00000000
Neuron 176 1 0.00000000 1 0.00000000 0.00000000 0.00000000 0.00000000
Neuron 177 1 0.00000000 1 0.00000000 0.00000000 0.00000000 0.00000000
Neuron 178 1 0.00000000 1 0.00000000 0.00000000 0.00000000 0.00000000
Neuron 179 1 0.00000000 1 0.00000000 0.00000000 0.00000000 0.00000000
Neuron 180 1 0.00000000 1 0.00000000 0.00000000 0.00000000 0.00000000
Neuron 181 1 0.00000000 1 0.00000000 0.00000000 0.00000000 0.00000000
Neuron 182 1 0.00000000 1 0.00000000 0.00000000 0.00000000 0.00000000
Neuron 183 1 0.00000000 1 0.00000000 0.00000000 0.00000000 0.00000000
Neuron 184 1 0.00000000 1 0.00000000 0.00000000 0.00000000 0.00000000
Neuron 185 1 0.00000000 1 0.00000000 0.00000000 0.00000000 0.00000000
Neuron 186 1 0.00000000 1 0.00000000 0.00000000 0.00000000 0.00000000
Neuron 187 1 0.00000000 1 0.00000000 0.00000000 0.00000000 0.00000000
Neuron 188 1 0.00000000 1 0.00000000 0.00000000 0.00000000 0.00000000
Neuron 189 1 0.00000000 1 0.00000000 0.00000000 0.00000000 0.00000000
Neuron 190 1 0.00000000 1 0.00000000 0.00000000 0.00000000 0.00000000
Neuron 191 1 0.00000000 1 0.00000000 0.00000000 0.00000000 0.00000000
Neuron 192 1 0.00000000 1 0.00000000 0.00000000 0.00000000 0.00000000
Neuron 193 1 0.00000000 1 0.00000000 0.00000000 0.00000000 0.00000000
Neuron 194 2 0.00000000 1 0.00000000 0.00000000 0.00000000 0.00000000
Neuron 195 4 1.00000000 0 1.00000000 0.00000000 0.00000000 0.28558896
Neuron 196 4 1.00000000 1 1.00000000 0.00000000 0.00000000 0.63585167
Neuron 197 4 1.00000000 0 1.00000000 0.00000000 0.00000000 -0.49585644
Neuron 198 4 1.00000000 0 1.00000000 0.00000000 0.00000000 0.65099135
Neuron 199 4 1.00000000 0 1.00000000 0.00000000 0.00000000 0.03920268
Neuron 200 4 1.00000000 0 1.00000000 0.00000000 0.00000000 0.35102820
Neuron 201 4 1.00000000 0 1.00000000 0.00000000 0.00000000 0.01113841
Neuron 202 4 1.00000000 1 1.00000000 0.00000000 0.00000000 -0.50409404
Neuron 203 4 1.00000000 0 1.00000000 0.00000000 0.00000000 0.20192745
Neuron 204 4 1.00000000 1 1.00000000 0.00000000 0.00000000 0.46093203
Neuron 205 4 1.00000000 0 1.00000000 0.00000000 0.00000000 0.43147647
Neuron 206 4 1.00000000 0 1.00000000 0.00000000 0.00000000 -0.38453143
Neuron 207 4 1.00000000 0 1.00000000 0.00000000 0.00000000 -0.23033757
Neuron 208 4 1.00000000 0 1.00000000 0.00000000 0.00000000 -0.20077915
Neuron 209 4 1.00000000 0 1.00000000 0.00000000 0.00000000 -0.20979312
Neuron 225 3 0.50000000 1 1.00000000 0.00000000 0.00000000 0.00000000
Link 1 195 1 0 0.63658985
Link 2 195 2 0 0.17669338
Link 3 195 3 0 2.51606837
Link 4 195 4 0 1.07665245
Link 5 195 5 0 0.51417489
Link 6 195 6 0 -0.37926003
Link 7 195 7 0 0.26310402
Link 8 195 8 0 -0.07943654
Link 9 195 9 0 1.22156591
Link 10 195 10 0 -0.51188207
Link 11 195 11 0 0.08658670
Link 12 195 12 0 0.15746391
Link 13 195 13 0 -0.40245688
Link 14 195 14 0 0.26941264
Link 15 195 15 0 -0.15604793
Link 16 195 16 0 -0.19300776
Link 17 195 17 0 0.45211835
Link 18 195 18 0 -0.03826367
Link 19 195 19 0 0.23698535
Link 20 195 20 0 0.03972995
Link 21 195 21 0 -0.10314128
Link 22 195 22 0 -0.10313273
Link 23 195 23 0 -0.75323588
Link 24 195 24 0 0.03694849
Link 25 195 25 0 0.57333750
Link 26 195 26 0 -0.13160413
Link 27 195 27 0 0.87825789
Link 28 195 28 0 0.06587327
Link 29 195 29 0 -0.25864088
Link 30 195 30 0 0.69558479
Link 31 195 31 0 -0.11735380
Link 32 195 32 0 -1.27226398
Link 33 195 33 0 -0.31323331
Link 34 195 34 0 0.06147107
Link 35 195 35 0 -0.14378479
Link 36 195 36 0 -1.29094540
Link 37 195 37 0 -0.42581538
Link 38 195 38 0 0.45236556
Link 39 195 39 0 0.06105045
Link 40 195 40 0 1.24408457
Link 41 195 41 0 2.09554651
Link 42 195 42 0 -0.00861420
Link 43 195 43 0 -1.97329908
Link 44 195 44 0 0.20667840
Link 45 195 45 0 0.26672502
Link 46 195 46 0 0.66141070
Link 47 195 47 0 -0.63094162
Link 48 195 48 0 -0.59664775
Link 49 195 49 0 -0.83897990
Link 50 195 50 0 -0.39611217
Link 51 195 51 0 0.37398708
Link 52 195 52 0 -0.69900013
Link 53 195 53 0 -0.06772976
Link 54 195 54 0 -2.46202263
Link 55 195 55 0 0.11562736
Link 56 195 56 0 0.46985636
Link 57 195 57 0 -0.40637717
Link 58 195 58 0 -0.10961565
Link 59 195 59 0 -0.04769080
Link 60 195 60 0 0.28719352
Link 61 195 61 0 -0.16073313
Link 62 195 62 0 0.26750554
Link 63 195 63 0 0.10735107
Link 64 195 64 0 0.29824307
Link 65 195 65 0 -0.52071902
Link 66 195 66 0 0.15140850
Link 67 195 67 0 -0.95978520
Link 68 195 68 0 0.43670237
Link 69 195 69 0 0.35151013
Link 70 195 70 0 1.34786401
Link 71 195 71 0 0.01125136
Link 72 195 72 0 -0.64837489
Link 73 195 73 0 0.16588856
Link 74 195 74 0 0.39702927
Link 75 195 75 0 0.72212783
Link 76 195 76 0 -0.41715839
Link 77 195 77 0 0.37060512
Link 78 195 78 0 0.32927244
Link 79 195 79 0 -0.53694163
Link 80 195 80 0 -0.01663597
Link 81 195 81 0 -0.50335499
Link 82 195 82 0 -0.14784368
Link 83 195 83 0 0.49330883
Link 84 195 84 0 0.21835023
Link 85 195 85 0 0.69697758
Link 86 195 86 0 0.18287369
Link 87 195 87 0 0.10525395
Link 88 195 88 0 -0.18157307
Link 89 195 89 0 0.08049637
Link 90 195 90 0 0.18910223
Link 91 195 91 0 0.79834967
Link 92 195 92 0 0.78093797
Link 93 195 93 0 0.03590491
Link 94 195 94 0 -0.20526652
Link 95 195 95 0 -0.07751648
Link 96 195 96 0 -0.25526758
Link 97 195 97 0 -0.23564119
Link 98 195 98 0 0.39904428
Link 99 195 99 0 0.07889414
Link 100 195 100 0 -0.38378412
Link 101 195 101 0 0.48039300
Link 102 195 102 0 -0.25517171
Link 103 195 103 0 0.34120633
Link 104 195 104 0 0.38457830
Link 105 195 105 0 0.33194744
Link 106 195 106 0 0.20326083
Link 107 195 107 0 -0.78791536
Link 108 195 108 0 0.38281332
Link 109 195 109 0 1.15140041
Link 110 195 110 0 -1.01683287
Link 111 195 111 0 -0.19778293
Link 112 195 112 0 0.29921399
Link 113 195 113 0 -1.08275421
Link 114 195 114 0 1.40488627
Link 115 195 115 0 0.88656030
Link 116 195 116 0 0.18037602
Link 117 195 117 0 0.13178006
Link 118 195 118 0 0.97980630
Link 119 195 119 0 -0.39988251
Link 120 195 120 0 0.07953105
Link 121 195 121 0 -0.05884225
Link 122 195 122 0 0.74540105
Link 123 195 123 0 0.21901446
Link 124 195 124 0 -0.87153355
Link 125 195 125 0 0.20456764
Link 126 195 126 0 0.03942203
Link 127 195 127 0 -0.16996376
Link 128 195 128 0 -0.32392853
Link 129 195 129 0 0.21108097
Link 130 195 130 0 0.24582776
Link 131 195 131 0 -0.60984849
Link 132 195 132 0 0.11983132
Link 133 195 133 0 0.50491853
Link 134 195 134 0 0.34203312
Link 135 195 135 0 0.22446469
Link 136 195 136 0 -0.05794122
Link 137 195 137 0 -0.48824050
Link 138 195 138 0 0.39772832
Link 139 195 139 0 0.51737758
Link 140 195 140 0 0.42834334
Link 141 195 141 0 -0.40096018
Link 142 195 142 0 0.05480227
Link 143 195 143 0 -0.23014069
Link 144 195 144 0 -0.56615569
Link 145 195 145 0 0.20700357
Link 146 195 146 0 0.29165694
Link 147 195 147 0 0.39742998
Link 148 195 148 0 0.06006852
Link 149 195 149 0 -0.78513588
Link 150 195 150 0 0.23752827
Link 151 195 151 0 0.41683238
Link 152 195 152 0 -0.05913796
Link 153 195 153 0 0.87292631
Link 154 195 154 0 -0.18763093
Link 155 195 155 0 0.68033957
Link 156 195 156 0 0.75450013
Link 157 195 157 0 -0.05501416
Link 158 195 158 0 0.49658675
Link 159 195 159 0 0.33262158
Link 160 195 160 0 0.23548564
Link 161 195 161 0 0.77510300
Link 162 195 162 0 1.46680166
Link 163 195 163 0 0.47567245
Link 164 195 164 0 0.17559026
Link 165 195 165 0 -0.27911210
Link 166 195 166 0 0.56374799
Link 167 195 167 0 0.41345179
Link 168 195 168 0 0.16402842
Link 169 195 169 0 0.37060229
Link 170 195 170 0 0.98584112
Link 171 195 171 0 0.46427029
Link 172 195 172 0 0.27539830
Link 173 195 173 0 0.59235032
Link 174 195 174 0 -0.12715362
Link 175 195 175 0 -0.03964408
Link 176 195 176 0 0.24854516
Link 177 195 177 0 0.59788795
Link 178 195 178 0 0.07975288
Link 179 195 179 0 0.55222539
Link 180 195 180 0 0.14976365
Link 181 195 181 0 -1.80624511
Link 182 195 182 0 0.62176478
Link 183 195 183 0 0.05992268
Link 184 195 184 0 -0.12140589
Link 185 195 185 0 -0.00195718
Link 186 195 186 0 0.41723785
Link 187 195 187 0 -0.57320996
Link 188 195 188 0 -0.04980160
Link 189 195 189 0 0.52124190
Link 190 195 190 0 -0.07452104
Link 191 195 191 0 1.52894033
Link 192 195 192 0 0.12415189
Link 193 195 193 0 -0.76299517
Link 194 195 194 0 -0.53113029
Link 1 196 195 0 0.02454703
Link 2 196 196 0 0.40046591
Link 3 196 197 0 0.60046310
Link 4 196 198 0 -0.07444608
Link 5 196 199 0 1.07875923
Link 6 196 200 0 0.21449532
Link 7 196 201 0 -0.94453861
Link 8 196 202 0 -0.43817743
Link 9 196 203 0 0.45238735
Link 10 196 204 0 1.35570142
Link 11 196 205 0 0.02729101
Link 12 196 206 0 0.33589516
Link 13 196 207 0 0.01136139
Link 14 196 208 0 0.89077498
Link 15 196 209 0 0.31022022
Link 16 196 210 0 -2.13180687
Link 17 196 211 0 -0.18486235
Link 18 196 212 0 0.27089009
Link 19 196 213 0 1.45746329
Link 20 196 214 0 0.99178694
Link 21 196 215 0 0.87410841
Link 22 196 216 0 -0.53225437
Link 23 196 217 0 -0.37436948
Link 24 196 218 0 0.59474068
Link 25 196 219 0 -0.01016397
Link 26 196 220 0 0.53379489
Link 27 196 221 0 -0.23962493
Link 28 196 222 0 0.06703837
Link 29 196 223 0 -0.30392152
Link 30 196 224 0 -1.16898436
Link 31 196 225 0 -0.03591638
Link 32 196 226 0 0.60912738
Link 33 196 227 0 1.39987690
Link 34 196 228 0 -0.14112583
Link 35 196 229 0 -0.01985811
Link 36 196 230 0 -0.98131181
Link 37 196 231 0 0.31386093
Link 38 196 232 0 0.20411366
Link 39 196 233 0 0.26440675
Link 40 196 234 0 0.16785054
Link 41 196 235 0 0.77106060
Link 42 196 236 0 0.03545377
Link 43 196 237 0 -0.03783758
Link 44 196 238 0 -0.59857304
Link 45 196 239 0 -0.17763418
Link 46 196 240 0 -1.21222285
Link 47 196 241 0 -0.49024065
Link 48 196 242 0 1.01136596
Link 49 196 243 0 0.57862553
Link 50 196 244 0 -0.81970662
Link 51 196 245 0 -0.58310902
Link 52 196 246 0 -0.40156312
Link 53 196 247 0 0.01925496
Link 54 196 248 0 -1.49918663
Link 55 196 249 0 -0.20261623
Link 56 196 250 0 1.26471418
Link 57 196 251 0 0.23828969
Link 58 196 252 0 -0.01062644
Link 59 196 253 0 -0.97101556
Link 60 196 254 0 0.06934979
Link 61 196 255 0 -0.26686723
Link 62 196 256 0 0.41932897
Link 63 196 257 0 0.04171588
Link 64 196 258 0 1.75081847
Link 65 196 259 0 -0.72407111
Link 66 196 260 0 -0.17256549
Link 67 196 261 0 -0.31476506
Link 68 196 262 0 0.22859228
Link 69 196 263 0 -0.46104413
Link 70 196 264 0 0.25501636
Link 71 196 265 0 0.67413430
Link 72 196 266 0 0.50435742
Link 73 196 267 0 0.51687699
Link 74 196 268 0 1.24496249
Link 75 196 269 0 0.10303907
Link 76 196 270 0 0.72210088
Link 77 196 271 0 -0.09674699
Link 78 196 272 0 1.56811055
Link 79 196 273 0 0.69542797
Link 80 196 274 0 0.16966406
Link 81 196 275 0 0.73018602
Link 82 196 276 0 0.37460574
Link 83 196 277 0 -0.57522293
Link 84 196 278 0 -0.78885750
Link 85 196 279 0 -0.28573244
Link 86 196 280 0 0.17135762
Link 87 196 281 0 0.22208437
Link 88 196 282 0 -1.11739488
Link 89 196 283 0 -0.13975974
Link 90 196 284 0 0.52115218
Link 91 196 285 0 0.90662798
Link 92 196 286 0 0.50255136
Link 93 196 287 0 0.27790620
Link 94 196 288 0 -0.42137760
Link 95 196 289 0 0.36932418
Link 96 196 290 0 0.35615983
Link 97 196 291 0 -0.24102806
Link 98 196 292 0 0.40184469
Link 99 196 293 0 0.50269333
Link 100 196 294 0 -0.72656233
Link 101 196 295 0 0.54209423
Link 102 196 296 0 -0.97263946
Link 103 196 297 0 0.30778361
Link 104 196 298 0 0.44639839
Link 105 196 299 0 -0.19680689
Link 106 196 300 0 0.72766278
Link 107 196 301 0 -0.06677744
Link 108 196 302 0 -0.74614315
Link 109 196 303 0 0.15536907
Link 110 196 304 0 0.04048147
Link 111 196 305 0 0.11146842
Link 112 196 306 0 1.17872416
Link 113 196 307 0 -0.41340040
Link 114 196 308 0 -0.36475461
Link 115 196 309 0 -1.64499856
Link 116 196 310 0 -1.24909373
Link 117 196 311 0 -0.17212572
Link 118 196 312 0 1.60053046
Link 119 196 313 0 0.39690035
Link 120 196 314 0 0.06235702
Link 121 196 315 0 0.19565023
Link 122 196 316 0 -0.18296140
Link 123 196 317 0 0.78205836
Link 124 196 318 0 -0.38807150
Link 125 196 319 0 0.97846662
Link 126 196 320 0 0.13601867
Link 127 196 321 0 -0.03559123
Link 128 196 322 0 -0.31278846
Link 129 196 323 0 -0.38182296
Link 130 196 324 0 0.49075829
Link 131 196 325 0 -0.12785520
Link 132 196 326 0 0.80727359
Link 133 196 327 0 0.30656858
Link 134 196 328 0 0.40836375
Link 135 196 329 0 0.06243557
Link 136 196 330 0 0.03954964
Link 137 196 331 0 -0.09230055
Link 138 196 332 0 -0.03447586
Link 139 196 333 0 0.78569561
Link 140 196 334 0 -1.02725744
Link 141 196 335 0 -1.06776673
Link 142 196 336 0 -0.09366634
Link 143 196 337 0 -0.00357731
Link 144 196 338 0 -0.84811813
Link 145 196 339 0 0.37301154
Link 146 196 340 0 0.46452722
Link 147 196 341 0 0.31821652
Link 148 196 342 0 -0.50073137
Link 149 196 343 0 0.67116626
Link 150 196 344 0 -0.17703702
Link 151 196 345 0 0.66859982
Link 152 196 346 0 -0.72909315
Link 153 196 347 0 0.20422625
Link 154 196 348 0 -0.52139888
Link 155 196 349 0 0.96245621
Link 156 196 350 0 0.57351954
Link 157 196 351 0 0.46162857
Link 158 196 352 0 -0.29482437
Link 159 196 353 0 -0.62448390
Link 160 196 354 0 -0.64237237
Link 161 196 355 0 -0.17089493
Link 162 196 356 0 0.27587892
Link 163 196 357 0 -0.17450084
Link 164 196 358 0 0.87900851
Link 165 196 359 0 1.57776764
Link 166 196 360 0 -0.34986586
Link 167 196 361 0 0.25918231
Link 168 196 362 0 0.64111819
Link 169 196 363 0 0.23219982
Link 170 196 364 0 -0.35751937
Link 171 196 365 0 -0.84587922
Link 172 196 366 0 0.54671782
Link 173 196 367 0 -0.17004950
Link 174 196 368 0 -0.40951368
Link 175 196 369 0 -0.66526394
Link 176 196 370 0 -0.20343191
Link 177 196 371 0 0.33882208
Link 178 196 372 0 -0.54227086
Link 179 196 373 0 -0.16889291
Link 180 196 374 0 0.31774852
Link 181 196 375 0 -0.77786277
Link 182 196 376 0 2.79761627
Link 183 196 377 0 0.05922398
Link 184 196 378 0 1.37178796
Link 185 196 379 0 0.00877039
Link 186 196 380 0 -0.37573940
Link 187 196 381 0 0.56399720
Link 188 196 382 0 0.21179475
Link 189 196 383 0 -0.59172250
Link 190 196 384 0 -0.10786536
Link 191 196 385 0 0.40346841
Link 192 196 386 0 -0.26060872
Link 193 196 387 0 0.00754911
Link 194 196 388 0 0.28943256
Link 1 197 389 0 0.58607002
Link 2 197 390 0 0.26957149
Link 3 197 391 0 -1.67065297
Link 4 197 392 0 0.45239865
Link 5 197 393 0 -0.21080495
Link 6 197 394 0 0.26911063
Link 7 197 395 0 -0.80686214
Link 8 197 396 0 -0.40608717
Link 9 197 397 0 -0.54580064
Link 10 197 398 0 -0.15419689
Link 11 197 399 0 0.97112148
Link 12 197 400 0 1.36538822
Link 13 197 401 0 -0.18640483
Link 14 197 402 0 -0.55974006
Link 15 197 403 0 0.44859787
Link 16 197 404 0 0.43018957
Link 17 197 405 0 -0.07161804
Link 18 197 406 0 -0.39123675
Link 19 197 407 0 0.39453115
Link 20 197 408 0 0.27811207
Link 21 197 409 0 1.72316308
Link 22 197 410 0 -0.59398841
Link 23 197 411 0 0.25701412
Link 24 197 412 0 0.27926418
Link 25 197 413 0 0.09555535
Link 26 197 414 0 -0.12831505
Link 27 197 415 0 -0.34326237
Link 28 197 416 0 -0.15781058
Link 29 197 417 0 -0.32747483
Link 30 197 418 0 0.00165409
Link 31 197 419 0 0.26669013
Link 32 197 420 0 0.36677428
Link 33 197 421 0 0.16543166
Link 34 197 422 0 0.74314950
Link 35 197 423 0 -0.05306407
Link 36 197 424 0 0.01148575
Link 37 197 425 0 -0.66220529
Link 38 197 426 0 0.02730522
Link 39 197 427 0 0.33841546
Link 40 197 428 0 0.49079401
Link 41 197 429 0 -0.08793889
Link 42 197 430 0 -0.40510401
Link 43 197 431 0 0.40020316
Link 44 197 432 0 0.19232387
Link 45 197 433 0 -0.06438655
Link 46 197 434 0 0.04849987
Link 47 197 435 0 0.00407646
Link 48 197 436 0 -1.40958067
Link 49 197 437 0 -0.46779817
Link 50 197 438 0 0.84102804
Link 51 197 439 0 -0.02540565
Link 52 197 440 0 0.22609605
Link 53 197 441 0 -0.34334904
Link 54 197 442 0 -0.43773294
Link 55 197 443 0 -0.62157110
Link 56 197 444 0 -0.16217752
Link 57 197 445 0 0.49397097
Link 58 197 446 0 -0.08040963
Link 59 197 447 0 -1.45474849
Link 60 197 448 0 -0.24152952
Link 61 197 449 0 0.31571408
Link 62 197 450 0 -0.98925310
Link 63 197 451 0 -0.19229736
Link 64 197 452 0 -0.33867310
Link 65 197 453 0 -0.13596099
Link 66 197 454 0 0.43183281
Link 67 197 455 0 0.81478273
Link 68 197 456 0 0.07067512
Link 69 197 457 0 0.34559991
Link 70 197 458 0 0.50433956
Link 71 197 459 0 -0.60714316
Link 72 197 460 0 0.04859831
Link 73 197 461 0 1.60028493
Link 74 197 462 0 -0.27757905
Link 75 197 463 0 0.21932504
Link 76 197 464 0 -0.23633377
Link 77 197 465 0 0.75432808
Link 78 197 466 0 2.09326377
Link 79 197 467 0 0.21104922
Link 80 197 468 0 0.01536184
Link 81 197 469 0 0.80371644
Link 82 197 470 0 -1.57589473
Link 83 197 471 0 -0.95211239
Link 84 197 472 0 -0.40324496
Link 85 197 473 0 0.96026871
Link 86 197 474 0 0.02447955
Link 87 197 475 0 -0.39675002
Link 88 197 476 0 -0.18354589
Link 89 197 477 0 0.19951948
Link 90 197 478 0 0.30607291
Link 91 197 479 0 0.53943568
Link 92 197 480 0 -0.19654395
Link 93 197 481 0 -0.15800649
Link 94 197 482 0 -0.11678743
Link 95 197 483 0 -0.51324806
Link 96 197 484 0 1.13502008
Link 97 197 485 0 0.23416575
Link 98 197 486 0 -0.72329696
Link 99 197 487 0 0.10694639
Link 100 197 488 0 0.99672303
Link 101 197 489 0 0.89087448
Link 102 197 490 0 0.45121802
Link 103 197 491 0 0.18936429
Link 104 197 492 0 -0.60346051
Link 105 197 493 0 -0.21527935
Link 106 197 494 0 0.96782781
Link 107 197 495 0 0.53620105
Link 108 197 496 0 -0.03594567
Link 109 197 497 0 -0.08905629
Link 110 197 498 0 -0.82280182
Link 111 197 499 0 0.64959802
Link 112 197 500 0 -0.04876246
Link 113 197 501 0 0.41415252
Link 114 197 502 0 -0.25916664
Link 115 197 503 0 0.50567543
Link 116 197 504 0 0.03503152
Link 117 197 505 0 0.26836724
Link 118 197 506 0 0.70717663
Link 119 197 507 0 -0.99060607
Link 120 197 508 0 -0.06273434
Link 121 197 509 0 -0.60082983
Link 122 197 510 0 1.24281926
Link 123 197 511 0 -0.17146156
Link 124 197 512 0 0.07001837
Link 125 197 513 0 1.49812190
Link 126 197 514 0 -0.50921107
Link 127 197 515 0 0.79973283
Link 128 197 516 0 0.69114534
Link 129 197 517 0 -0.55390095
Link 130 197 518 0 -0.44101944
Link 131 197 519 0 0.53235166
Link 132 197 520 0 -1.20657578
Link 133 197 521 0 -0.40586952
Link 134 197 522 0 -0.83529925
Link 135 197 523 0 0.41248958
Link 136 197 524 0 -0.30609613
Link 137 197 525 0 0.16504757
Link 138 197 526 0 0.13918028
Link 139 197 527 0 0.08223015
Link 140 197 528 0 0.18930301
Link 141 197 529 0 -0.01544236
Link 142 197 530 0 0.61956720
Link 143 197 531 0 0.66465038
Link 144 197 532 0 0.97311803
Link 145 197 533 0 -0.45864330
Link 146 197 534 0 -0.10949719
Link 147 197 535 0 0.31823856
Link 148 197 536 0 -0.06363803
Link 149 197 537 0 -0.28745771
Link 150 197 538 0 0.98460120
Link 151 197 539 0 -0.43674716
Link 152 197 540 0 -0.69950810
Link 153 197 541 0 -0.06827690
Link 154 197 542 0 -0.39479837
Link 155 197 543 0 0.22260446
Link 156 197 544 0 -0.20202389
Link 157 197 545 0 -0.20920735
Link 158 197 546 0 0.37374126
Link 159 197 547 0 0.06771756
Link 160 197 548 0 -0.00733559
Link 161 197 549 0 -0.98129225
Link 162 197 550 0 -0.49087982
Link 163 197 551 0 -0.24928032
Link 164 197 552 0 0.10778143
Link 165 197 553 0 0.10060071
Link 166 197 554 0 0.79745218
Link 167 197 555 0 -1.05981929
Link 168 197 556 0 -0.22811791
Link 169 197 557 0 -0.21913586
Link 170 197 558 0 -1.15294604
Link 171 197 559 0 1.25565849
Link 172 197 560 0 -0.50457098
Link 173 197 561 0 -0.14163750
Link 174 197 562 0 -0.34507928
Link 175 197 563 0 1.11465697
Link 176 197 564 0 0.37030040
Link 177 197 565 0 0.53823021
Link 178 197 566 0 -1.20574078
Link 179 197 567 0 0.51072558
Link 180 197 568 0 0.33457313
Link 181 197 569 0 0.52226708
Link 182 197 570 0 -0.31063738
Link 183 197 571 0 -0.69771127
Link 184 197 572 0 -1.92552138
Link 185 197 573 0 -0.15530006
Link 186 197 574 0 0.22159488
Link 187 197 575 0 -0.75711692
Link 188 197 576 0 0.12662687
Link 189 197 577 0 -0.06974303
Link 190 197 578 0 -0.51117185
Link 191 197 579 0 -0.23404028
Link 192 197 580 0 0.91945959
Link 193 197 581 0 -0.14679622
Link 194 197 582 0 -0.35559684
Link 1 198 583 0 0.52128955
Link 2 198 584 0 -1.84896541
Link 3 198 585 0 -0.18240915
Link 4 198 586 0 -0.13984680
Link 5 198 587 0 0.35296365
Link 6 198 588 0 0.19411558
Link 7 198 589 0 -1.08393017
Link 8 198 590 0 -0.58052602
Link 9 198 591 0 -0.19683187
Link 10 198 592 0 -0.13497810
Link 11 198 593 0 -0.12610342
Link 12 198 594 0 0.32013971
Link 13 198 595 0 0.20867125
Link 14 198 596 0 0.01280450
Link 15 198 597 0 0.58248717
Link 16 198 598 0 0.31579177
Link 17 198 599 0 -1.64944574
Link 18 198 600 0 0.25881760
Link 19 198 601 0 0.07108659
Link 20 198 602 0 -0.16663988
Link 21 198 603 0 1.04879739
Link 22 198 604 0 -0.78963808
Link 23 198 605 0 -0.09607953
Link 24 198 606 0 -0.27170992
Link 25 198 607 0 0.62329876
Link 26 198 608 0 -0.05696764
Link 27 198 609 0 0.78157151
Link 28 198 610 0 -0.51349353
Link 29 198 611 0 -0.65682591
Link 30 198 612 0 -0.47061215
Link 31 198 613 0 0.63979158
Link 32 198 614 0 -1.23545654
Link 33 198 615 0 0.49296481
Link 34 198 616 0 -0.65184721
Link 35 198 617 0 -0.94896998
Link 36 198 618 0 0.44042268
Link 37 198 619 0 -0.04723559
Link 38 198 620 0 -0.24667661
Link 39 198 621 0 0.60077850
Link 40 198 622 0 -0.58347638
Link 41 198 623 0 -0.41649481
Link 42 198 624 0 -0.17369324
Link 43 198 625 0 -0.30638133
Link 44 198 626 0 0.42776174
Link 45 198 627 0 0.49704666
Link 46 198 628 0 -1.47216727
Link 47 198 629 0 0.62318550
Link 48 198 630 0 0.10701481
Link 49 198 631 0 0.26239502
Link 50 198 632 0 0.08727865
Link 51 198 633 0 0.15134336
Link 52 198 634 0 -0.24078084
Link 53 198 635 0 1.26956786
Link 54 198 636 0 -0.30380481
Link 55 198 637 0 0.21495907
Link 56 198 638 0 -0.60524262
Link 57 198 639 0 1.98057024
Link 58 198 640 0 -0.81983213
Link 59 198 641 0 -0.38265825
Link 60 198 642 0 -0.10833774
Link 61 198 643 0 0.34763365
Link 62 198 644 0 0.37682826
Link 63 198 645 0 -0.35514697
Link 64 198 646 0 -0.05944560
Link 65 198 647 0 0.36882894
Link 66 198 648 0 -0.20598144
Link 67 198 649 0 -0.17920625
Link 68 198 650 0 0.02964804
Link 69 198 651 0 0.30525685
Link 70 198 652 0 0.37445608
Link 71 198 653 0 -0.74907904
Link 72 198 654 0 0.17842775
Link 73 198 655 0 0.30205550
Link 74 198 656 0 -0.58010827
Link 75 198 657 0 0.22154335
Link 76 198 658 0 0.13631514
Link 77 198 659 0 0.28937389
Link 78 198 660 0 0.21056872
Link 79 198 661 0 -0.32882285
Link 80 198 662 0 -0.15379007
Link 81 198 663 0 0.30038369
Link 82 198 664 0 -0.31808745
Link 83 198 665 0 -0.70082181
Link 84 198 666 0 0.17299674
Link 85 198 667 0 -0.28171722
Link 86 198 668 0 -0.53537631
Link 87 198 669 0 0.81083794
Link 88 198 670 0 0.06940140
Link 89 198 671 0 0.74452796
Link 90 198 672 0 -0.04647319
Link 91 198 673 0 -0.26915008
Link 92 198 674 0 -0.08455651
Link 93 198 675 0 -1.45025408
Link 94 198 676 0 -0.34829825
Link 95 198 677 0 1.35093557
Link 96 198 678 0 0.01337196
Link 97 198 679 0 -0.18956148
Link 98 198 680 0 -0.12109575
Link 99 198 681 0 -0.08733250
Link 100 198 682 0 0.40481945
Link 101 198 683 0 0.22437539
Link 102 198 684 0 -0.55151719
Link 103 198 685 0 -0.00530854
Link 104 198 686 0 0.03023785
Link 105 198 687 0 -0.22381052
Link 106 198 688 0 0.14335094
Link 107 198 689 0 -0.06169808
Link 108 198 690 0 -0.79323808
Link 109 198 691 0 -0.22763595
Link 110 198 692 0 0.95493887
Link 111 198 693 0 -0.06325683
Link 112 198 694 0 -0.45072587
Link 113 198 695 0 -0.39372712
Link 114 198 696 0 -0.35308435
Link 115 198 697 0 0.11606897
Link 116 198 698 0 -0.01534311
Link 117 198 699 0 -0.38212899
Link 118 198 700 0 -0.89220663
Link 119 198 701 0 -0.89947033
Link 120 198 702 0 -1.54110749
Link 121 198 703 0 0.62178546
Link 122 198 704 0 -0.36103592
Link 123 198 705 0 -1.59065798
Link 124 198 706 0 0.52468778
Link 125 198 707 0 -0.49122719
Link 126 198 708 0 0.01446927
Link 127 198 709 0 0.00517555
Link 128 198 710 0 0.59090283
Link 129 198 711 0 0.55523276
Link 130 198 712 0 -0.07923292
Link 131 198 713 0 0.04613497
Link 132 198 714 0 0.31737901
Link 133 198 715 0 -0.28482213
Link 134 198 716 0 -0.16538477
Link 135 198 717 0 -0.35330151
Link 136 198 718 0 0.25210150
Link 137 198 719 0 0.55960209
Link 138 198 720 0 -0.43419972
Link 139 198 721 0 -0.22732395
Link 140 198 722 0 0.35469379
Link 141 198 723 0 0.40484006
Link 142 198 724 0 0.14984459
Link 143 198 725 0 -0.05837278
Link 144 198 726 0 -0.69972911
Link 145 198 727 0 -0.34821901
Link 146 198 728 0 0.32524577
Link 147 198 729 0 -0.44660173
Link 148 198 730 0 0.22935695
Link 149 198 731 0 1.09588485
Link 150 198 732 0 -0.64904924
Link 151 198 733 0 0.49206219
Link 152 198 734 0 0.19114533
Link 153 198 735 0 -0.11088020
Link 154 198 736 0 0.21852937
Link 155 198 737 0 -0.63094751
Link 156 198 738 0 0.53619005
Link 157 198 739 0 0.28111348
Link 158 198 740 0 0.27576964
Link 159 198 741 0 -0.19548062
Link 160 198 742 0 0.06210521
Link 161 198 743 0 -0.56903678
Link 162 198 744 0 -1.89641046
Link 163 198 745 0 -0.20176347
Link 164 198 746 0 -0.85284130
Link 165 198 747 0 0.69744597
Link 166 198 748 0 -2.31123579
Link 167 198 749 0 0.55932934
Link 168 198 750 0 -0.22138000
Link 169 198 751 0 0.01899236
Link 170 198 752 0 0.12658791
Link 171 198 753 0 0.06587756
Link 172 198 754 0 0.09231741
Link 173 198 755 0 -0.75511206
Link 174 198 756 0 0.68421840
Link 175 198 757 0 -0.33538304
Link 176 198 758 0 -0.12227532
Link 177 198 759 0 -0.44355678
Link 178 198 760 0 -0.04148623
Link 179 198 761 0 0.34479349
Link 180 198 762 0 -0.97582722
Link 181 198 763 0 -0.43274712
Link 182 198 764 0 -0.56967285
Link 183 198 765 0 0.08363632
Link 184 198 766 0 0.11883045
Link 185 198 767 0 0.05889407
Link 186 198 768 0 0.21064937
Link 187 198 769 0 0.23311747
Link 188 198 770 0 -0.70928448
Link 189 198 771 0 0.26798696
Link 190 198 772 0 -0.24082474
Link 191 198 773 0 0.74287499
Link 192 198 774 0 -0.57286321
Link 193 198 775 0 0.25705981
Link 194 198 776 0 -0.16702338
Link 1 199 777 0 0.25188747
Link 2 199 778 0 -0.44555763
Link 3 199 779 0 -0.59723190
Link 4 199 780 0 -0.12513845
Link 5 199 781 0 -0.42495304
Link 6 199 782 0 0.04044796
Link 7 199 783 0 0.76623512
Link 8 199 784 0 0.19638298
Link 9 199 785 0 0.93524825
Link 10 199 786 0 -0.26615733
Link 11 199 787 0 -0.77674366
Link 12 199 788 0 -0.26525354
Link 13 199 789 0 -0.48025804
Link 14 199 790 0 -0.17196352
Link 15 199 791 0 -0.49707588
Link 16 199 792 0 -0.63793130
Link 17 199 793 0 1.09689562
Link 18 199 794 0 -0.64853233
Link 19 199 795 0 0.15062701
Link 20 199 796 0 -0.68715132
Link 21 199 797 0 -0.32345884
Link 22 199 798 0 -0.01879613
Link 23 199 799 0 0.41172484
Link 24 199 800 0 -0.13957677
Link 25 199 801 0 -1.12159902
Link 26 199 802 0 -0.04043270
Link 27 199 803 0 0.19694368
Link 28 199 804 0 -0.81036937
Link 29 199 805 0 -3.10344546
Link 30 199 806 0 0.86910624
Link 31 199 807 0 1.21550113
Link 32 199 808 0 0.01982348
Link 33 199 809 0 -0.87209413
Link 34 199 810 0 0.87978608
Link 35 199 811 0 0.10133226
Link 36 199 812 0 0.04271547
Link 37 199 813 0 0.16223452
Link 38 199 814 0 -0.68627209
Link 39 199 815 0 -0.89376162
Link 40 199 816 0 0.36428389
Link 41 199 817 0 0.58909700
Link 42 199 818 0 -0.52670325
Link 43 199 819 0 0.66650765
Link 45 199 821 0 0.90781468
Link 46 199 822 0 -0.07466122
Link 47 199 823 0 -0.56382398
Link 48 199 824 0 -0.66929231
Link 49 199 825 0 0.02030195
Link 50 199 826 0 0.12469270
Link 51 199 827 0 1.23827183
Link 52 199 828 0 -0.63619608
Link 53 199 829 0 0.03798500
Link 54 199 830 0 -0.81030155
Link 55 199 831 0 0.50515588
Link 56 199 832 0 0.34666617
Link 57 199 833 0 0.14990077
Link 58 199 834 0 -0.00008316
Link 59 199 835 0 -0.50423671
Link 60 199 836 0 0.42618229
Link 61 199 837 0 0.73392720
Link 62 199 838 0 0.05906269
Link 63 199 839 0 0.21384976
Link 64 199 840 0 0.48136965
Link 65 199 841 0 0.52682889
Link 66 199 842 0 0.10053583
Link 67 199 843 0 1.21534432
Link 68 199 844 0 -0.43527660
Link 69 199 845 0 0.23094961
Link 70 199 846 0 1.06890230
Link 71 199 847 0 0.18264847
Link 72 199 848 0 -1.30623810
Link 73 199 849 0 0.36023749
Link 74 199 850 0 0.20786095
Link 75 199 851 0 -0.11016246
Link 76 199 852 0 1.36882975
Link 77 199 853 0 -0.23963230
Link 78 199 854 0 -0.74458865
Link 79 199 855 0 -0.69323837
Link 80 199 856 0 0.09799841
Link 81 199 857 0 -0.05335384
Link 82 199 858 0 -0.60652126
Link 83 199 859 0 -0.74853337
Link 84 199 860 0 -0.38151037
Link 85 199 861 0 -0.19776909
Link 86 199 862 0 -0.16797834
Link 87 199 863 0 0.16436747
Link 88 199 864 0 0.08862771
Link 89 199 865 0 0.58817363
Link 90 199 866 0 -0.10353666
Link 91 199 867 0 0.66556385
Link 92 199 868 0 0.40719385
Link 93 199 869 0 0.83660192
Link 94 199 870 0 -0.17772670
Link 95 199 871 0 0.38133413
Link 96 199 872 0 -0.18506779
Link 97 199 873 0 0.29579341
Link 98 199 874 0 -0.83073737
Link 99 199 875 0 -0.48262187
Link 100 199 876 0 1.17156306
Link 101 199 877 0 -0.88994188
Link 102 199 878 0 -0.12334894
Link 103 199 879 0 -0.54872319
Link 104 199 880 0 -0.20920787
Link 105 199 881 0 0.06414022
Link 106 199 882 0 0.87795235
Link 107 199 883 0 -0.74141987
Link 108 199 884 0 -0.07325479
Link 109 199 885 0 -0.02034048
Link 110 199 886 0 0.26971829
Link 111 199 887 0 0.00905152
Link 112 199 888 0 0.21368126
Link 113 199 889 0 -0.18795335
Link 114 199 890 0 0.92935306
Link 115 199 891 0 0.05872208
Link 116 199 892 0 0.87917137
Link 117 199 893 0 -0.38040693
Link 118 199 894 0 0.36103898
Link 119 199 895 0 0.25543993
Link 120 199 896 0 0.78205845
Link 121 199 897 0 -0.32563130
Link 122 199 898 0 1.36815219
Link 123 199 899 0 0.12545622
Link 124 199 900 0 -1.03048429
Link 125 199 901 0 0.45084992
Link 126 199 902 0 2.28471521
Link 127 199 903 0 -0.22346564
Link 128 199 904 0 1.12835716
Link 129 199 905 0 -0.02056397
Link 130 199 906 0 -0.95572671
Link 131 199 907 0 -1.19817244
Link 132 199 908 0 -0.07953608
Link 133 199 909 0 0.38959506
Link 134 199 910 0 -0.24832121
Link 135 199 911 0 0.03680599
Link 136 199 912 0 -0.46204126
Link 137 199 913 0 -0.63265676
Link 138 199 914 0 0.01373842
Link 139 199 915 0 0.13860754
Link 140 199 916 0 -0.14455652
Link 141 199 917 0 0.02450218
Link 142 199 918 0 -1.70421233
Link 143 199 919 0 0.17323310
Link 144 199 920 0 -0.50783285
Link 145 199 921 0 0.68574231
Link 146 199 922 0 -0.66203689
Link 147 199 923 0 0.36476610
Link 148 199 924 0 -0.32781478
Link 149 199 925 0 -0.25761677
Link 150 199 926 0 -0.03406989
Link 151 199 927 0 0.24921576
Link 152 199 928 0 0.37205952
Link 153 199 929 0 0.84732883
Link 154 199 930 0 1.04738630
Link 155 199 931 0 -0.73714825
Link 156 199 932 0 -0.49895121
Link 157 199 933 0 1.35482973
Link 158 199 934 0 -0.29312848
Link 159 199 935 0 -0.70591044
Link 160 199 936 0 -0.45375178
Link 161 199 937 0 0.94672380
Link 162 199 938 0 0.28817637
Link 163 199 939 0 -0.10733287
Link 164 199 940 0 -0.47812193
Link 165 199 941 0 -0.08639906
Link 166 199 942 0 0.38790848
Link 167 199 943 0 -1.06006080
Link 168 199 944 0 -0.26305578
Link 169 199 945 0 -0.32538563
Link 170 199 946 0 -0.10889687
Link 171 199 947 0 0.45104624
Link 172 199 948 0 -0.26918208
Link 173 199 949 0 -0.45831664
Link 174 199 950 0 -0.52921188
Link 175 199 951 0 -1.06860818
Link 176 199 952 0 -0.91910538
Link 177 199 953 0 0.07918883
Link 178 199 954 0 0.55693982
Link 179 199 955 0 0.67182219
Link 180 199 956 0 -0.27864239
Link 181 199 957 0 -0.42714206
Link 182 199 958 0 0.41561795
Link 183 199 959 0 0.35452037
Link 184 199 960 0 -0.33644784
Link 185 199 961 0 0.59488613
Link 186 199 962 0 0.08196234
Link 187 199 963 0 0.42752191
Link 188 199 964 0 0.03357253
Link 189 199 965 0 0.06850280
Link 190 199 966 0 0.15566928
Link 191 199 967 0 0.67045957
Link 192 199 968 0 0.00320338
Link 193 199 969 0 0.08657165
Link 194 199 970 0 -0.32629968
Link 1 200 971 0 -0.14464301
Link 2 200 972 0 -0.78553481
Link 3 200 973 0 -1.46637570
Link 4 200 974 0 -0.35716813
Link 5 200 975 0 -0.19275993
Link 6 200 976 0 0.17201497
Link 7 200 977 0 0.06836868
Link 8 200 978 0 -0.24850166
Link 9 200 979 0 0.00681481
Link 10 200 980 0 -0.90535030
Link 11 200 981 0 -0.58082766
Link 12 200 982 0 -0.42675328
Link 13 200 983 0 -0.47806592
Link 14 200 984 0 0.84415031
Link 15 200 985 0 0.11478469
Link 16 200 986 0 0.50567250
Link 17 200 987 0 -0.24742050
Link 18 200 988 0 -0.40353155
Link 19 200 989 0 0.19052869
Link 20 200 990 0 -0.46392583
Link 21 200 991 0 0.02734014
Link 22 200 992 0 0.43604641
Link 23 200 993 0 0.42470235
Link 24 200 994 0 -1.17819876
Link 25 200 995 0 -0.22222999
Link 26 200 996 0 -0.49891231
Link 27 200 997 0 0.28208469
Link 28 200 998 0 -0.13016300
Link 29 200 999 0 0.91090040
Link 30 200 1000 0 0.77935323
Link 31 200 1001 0 0.38558540
Link 32 200 1002 0 -0.82278284
Link 33 200 1003 0 0.05852237
Link 34 200 1004 0 0.21244955
Link 35 200 1005 0 -0.05732273
Link 36 200 1006 0 -0.24883242
Link 37 200 1007 0 0.33524118
Link 38 200 1008 0 1.33120165
Link 39 200 1009 0 0.67360418
Link 40 200 1010 0 1.09764708
Link 41 200 1011 0 0.50480631
Link 42 200 1012 0 -0.09365661
Link 43 200 1013 0 0.26648299
Link 44 200 1014 0 -0.39911807
Link 45 200 1015 0 -0.95625236
Link 46 200 1016 0 0.55182161
Link 47 200 1017 0 0.51383848
Link 48 200 1018 0 -0.54890681
Link 49 200 1019 0 -0.36596464
Link 50 200 1020 0 0.57063967
Link 51 200 1021 0 -0.00407285
Link 52 200 1022 0 -0.15518046
Link 53 200 1023 0 -0.06030017
Link 54 200 1024 0 -1.20685384
Link 55 200 1025 0 0.16193606
Link 56 200 1026 0 1.11922402
Link 57 200 1027 0 -0.39884599
Link 58 200 1028 0 -0.14632218
Link 59 200 1029 0 -1.46367147
Link 60 200 1030 0 0.07523659
Link 61 200 1031 0 -0.53504595
Link 62 200 1032 0 1.76076566
Link 63 200 1033 0 -0.01027737
Link 64 200 1034 0 0.94370059
Link 65 200 1035 0 -0.11394960
Link 66 200 1036 0 -0.04436157
Link 67 200 1037 0 0.40701405
Link 68 200 1038 0 0.10959176
Link 69 200 1039 0 -0.62534010
Link 70 200 1040 0 1.40167122
Link 71 200 1041 0 0.16205925
Link 72 200 1042 0 0.14792641
Link 73 200 1043 0 -0.09815254
Link 74 200 1044 0 0.57860054
Link 75 200 1045 0 0.56281038
Link 76 200 1046 0 -0.39389147
Link 77 200 1047 0 0.07326181
Link 78 200 1048 0 -0.09883409
Link 79 200 1049 0 0.41527109
Link 80 200 1050 0 0.29353281
Link 81 200 1051 0 0.17002089
Link 82 200 1052 0 0.01852661
Link 83 200 1053 0 -0.44796462
Link 84 200 1054 0 0.28837342
Link 85 200 1055 0 -0.73979078
Link 86 200 1056 0 0.01286855
Link 87 200 1057 0 -0.20356663
Link 88 200 1058 0 -0.33008983
Link 89 200 1059 0 0.09089998
Link 90 200 1060 0 -0.01890338
Link 91 200 1061 0 -0.85212459
Link 92 200 1062 0 0.16142909
Link 93 200 1063 0 1.02577680
Link 94 200 1064 0 -0.08004688
Link 95 200 1065 0 0.55690605
Link 96 200 1066 0 0.97522435
Link 97 200 1067 0 0.87634448
Link 98 200 1068 0 0.61332397
Link 99 200 1069 0 -0.43140414
Link 100 200 1070 0 -0.50646247
Link 101 200 1071 0 -0.39889008
Link 102 200 1072 0 0.66523361
Link 103 200 1073 0 -0.18738766
Link 104 200 1074 0 0.36494755
Link 105 200 1075 0 0.32189007
Link 106 200 1076 0 0.04468739
Link 107 200 1077 0 0.16802274
Link 108 200 1078 0 -1.43855808
Link 109 200 1079 0 0.00958018
Link 110 200 1080 0 -0.42505930
Link 111 200 1081 0 0.51942683
Link 112 200 1082 0 -0.44766052
Link 113 200 1083 0 1.06241699
Link 114 200 1084 0 -0.49388488
Link 115 200 1085 0 -0.13881816
Link 116 200 1086 0 -0.69014990
Link 117 200 1087 0 0.41999966
Link 118 200 1088 0 1.75276461
Link 119 200 1089 0 0.62709218
Link 120 200 1090 0 0.24067384
Link 121 200 1091 0 -0.43475733
Link 122 200 1092 0 -0.67554886
Link 123 200 1093 0 -0.47577423
Link 124 200 1094 0 -0.38087644
Link 125 200 1095 0 -1.57665076
Link 126 200 1096 0 -1.24477547
Link 127 200 1097 0 -0.05644858
Link 128 200 1098 0 0.74207923
Link 129 200 1099 0 -0.93578855
Link 130 200 1100 0 0.35691439
Link 131 200 1101 0 0.36574043
Link 132 200 1102 0 0.84765190
Link 133 200 1103 0 -0.37764100
Link 134 200 1104 0 -0.13012998
Link 135 200 1105 0 0.32846695
Link 136 200 1106 0 0.40298894
Link 137 200 1107 0 0.63917092
Link 138 200 1108 0 0.69860180
Link 139 200 1109 0 0.57848133
Link 140 200 1110 0 -0.13070477
Link 141 200 1111 0 -0.27965360
Link 142 200 1112 0 0.09247711
Link 143 200 1113 0 0.65716137
Link 144 200 1114 0 1.19515050
Link 145 200 1115 0 -0.87222491
Link 146 200 1116 0 0.27534558
Link 147 200 1117 0 -1.02885467
Link 148 200 1118 0 -0.06196842
Link 149 200 1119 0 -0.39357302
Link 150 200 1120 0 -0.42573254
Link 151 200 1121 0 -0.29979195
Link 152 200 1122 0 0.39676147
Link 153 200 1123 0 0.28816339
Link 154 200 1124 0 0.11637236
Link 155 200 1125 0 1.28484084
Link 156 200 1126 0 0.58837811
Link 157 200 1127 0 0.34247070
Link 158 200 1128 0 0.93842913
Link 159 200 1129 0 0.15168052
Link 160 200 1130 0 -0.29461465
Link 161 200 1131 0 1.71641157
Link 162 200 1132 0 0.34126309
Link 163 200 1133 0 3.27063625
Link 164 200 1134 0 0.00505923
Link 165 200 1135 0 -0.09601440
Link 166 200 1136 0 0.32358179
Link 167 200 1137 0 -0.22156393
Link 168 200 1138 0 -0.04992468
Link 169 200 1139 0 -0.19795591
Link 170 200 1140 0 0.30258933
Link 171 200 1141 0 0.05263665
Link 172 200 1142 0 -0.30058857
Link 173 200 1143 0 0.11374722
Link 174 200 1144 0 -0.07075228
Link 175 200 1145 0 -0.49029763
Link 176 200 1146 0 0.44400985
Link 177 200 1147 0 0.05106563
Link 178 200 1148 0 -0.83655958
Link 179 200 1149 0 0.21740622
Link 180 200 1150 0 0.04075191
Link 181 200 1151 0 -0.49662438
Link 182 200 1152 0 0.19419547
Link 183 200 1153 0 -0.24470027
Link 184 200 1154 0 0.30856954
Link 185 200 1155 0 -0.62267048
Link 186 200 1156 0 1.14931926
Link 187 200 1157 0 0.16963856
Link 188 200 1158 0 -0.34316779
Link 189 200 1159 0 -0.70560847
Link 190 200 1160 0 -1.30711991
Link 191 200 1161 0 2.16844707
Link 192 200 1162 0 -0.38415288
Link 193 200 1163 0 0.11223498
Link 194 200 1164 0 0.17489864
Link 1 201 1165 0 -0.45897914
Link 2 201 1166 0 -0.52773098
Link 3 201 1167 0 -1.03485684
Link 4 201 1168 0 0.15575428
Link 5 201 1169 0 0.77285300
Link 6 201 1170 0 -0.27716492
Link 7 201 1171 0 -0.32775687
Link 8 201 1172 0 0.00808378
Link 9 201 1173 0 -0.24656701
Link 10 201 1174 0 -0.31498431
Link 11 201 1175 0 0.15546704
Link 12 201 1176 0 0.05118772
Link 13 201 1177 0 0.33498149
Link 14 201 1178 0 -0.60570760
Link 15 201 1179 0 0.10828892
Link 16 201 1180 0 0.40866723
Link 17 201 1181 0 -0.99169835
Link 18 201 1182 0 -0.27016872
Link 19 201 1183 0 0.49892957
Link 20 201 1184 0 -0.39053437
Link 21 201 1185 0 -0.47911998
Link 22 201 1186 0 -0.72029612
Link 23 201 1187 0 0.00078238
Link 24 201 1188 0 -0.05613967
Link 25 201 1189 0 -0.51164234
Link 26 201 1190 0 -1.28676273
Link 27 201 1191 0 -0.03274518
Link 28 201 1192 0 0.34409279
Link 29 201 1193 0 -0.19148707
Link 30 201 1194 0 0.48658368
Link 31 201 1195 0 0.04676951
Link 32 201 1196 0 1.36367025
Link 33 201 1197 0 0.13174593
Link 34 201 1198 0 0.03462130
Link 35 201 1199 0 1.03086066
Link 36 201 1200 0 0.29365838
Link 37 201 1201 0 -0.12313871
Link 38 201 1202 0 0.07542966
Link 39 201 1203 0 0.46245952
Link 40 201 1204 0 -0.75372460
Link 41 201 1205 0 -0.45742775
Link 42 201 1206 0 0.17744348
Link 43 201 1207 0 0.02353078
Link 44 201 1208 0 -0.65571525
Link 45 201 1209 0 -0.12690063
Link 46 201 1210 0 0.19433950
Link 47 201 1211 0 0.47368082
Link 48 201 1212 0 1.11378476
Link 49 201 1213 0 -0.27471171
Link 50 201 1214 0 0.79154915
Link 51 201 1215 0 0.16577657
Link 52 201 1216 0 0.12606745
Link 53 201 1217 0 -0.48553031
Link 54 201 1218 0 1.59005069
Link 55 201 1219 0 0.88452566
Link 56 201 1220 0 -0.07015182
Link 57 201 1221 0 1.10999725
Link 58 201 1222 0 -0.63284002
Link 59 201 1223 0 1.77768355
Link 60 201 1224 0 -0.17884173
Link 61 201 1225 0 0.86374210
Link 62 201 1226 0 0.75690866
Link 63 201 1227 0 1.74523952
Link 64 201 1228 0 0.22333482
Link 65 201 1229 0 0.72375242
Link 66 201 1230 0 0.15151444
Link 67 201 1231 0 -0.39848070
Link 68 201 1232 0 0.02793033
Link 69 201 1233 0 -0.52128528
Link 70 201 1234 0 0.11566860
Link 71 201 1235 0 -0.06331894
Link 72 201 1236 0 -0.25576911
Link 73 201 1237 0 0.15476048
Link 74 201 1238 0 0.31222999
Link 75 201 1239 0 1.28655035
Link 76 201 1240 0 0.63275698
Link 77 201 1241 0 -0.49946692
Link 78 201 1242 0 -0.44475649
Link 79 201 1243 0 -0.23893297
Link 80 201 1244 0 -0.22486737
Link 81 201 1245 0 1.29164115
Link 82 201 1246 0 0.78901517
Link 83 201 1247 0 0.47339517
Link 84 201 1248 0 0.14512839
Link 85 201 1249 0 1.05550342
Link 86 201 1250 0 1.23907493
Link 87 201 1251 0 -0.78488805
Link 88 201 1252 0 -1.00577224
Link 89 201 1253 0 -0.84857610
Link 90 201 1254 0 -0.57256085
Link 91 201 1255 0 0.33703435
Link 92 201 1256 0 -0.55569863
Link 93 201 1257 0 -0.61045295
Link 94 201 1258 0 -0.32384950
Link 95 201 1259 0 -0.01302676
Link 96 201 1260 0 0.05393759
Link 97 201 1261 0 -0.41949926
Link 98 201 1262 0 2.82239225
Link 99 201 1263 0 -0.30517046
Link 100 201 1264 0 1.68175169
Link 101 201 1265 0 -0.02853556
Link 102 201 1266 0 -1.59355870
Link 103 201 1267 0 -0.05764116
Link 104 201 1268 0 0.15787724
Link 105 201 1269 0 -0.58535313
Link 106 201 1270 0 0.22728540
Link 107 201 1271 0 0.47931348
Link 108 201 1272 0 0.94410892
Link 109 201 1273 0 0.07035844
Link 110 201 1274 0 0.04619066
Link 111 201 1275 0 -0.02749185
Link 112 201 1276 0 -0.64582770
Link 113 201 1277 0 0.08711508
Link 114 201 1278 0 -0.17514012
Link 115 201 1279 0 -0.36182887
Link 116 201 1280 0 -0.12894776
Link 117 201 1281 0 -1.80436977
Link 118 201 1282 0 0.31130876
Link 119 201 1283 0 0.78346716
Link 120 201 1284 0 0.17398716
Link 121 201 1285 0 0.48720328
Link 122 201 1286 0 -0.06271768
Link 123 201 1287 0 0.01968813
Link 124 201 1288 0 -0.49837695
Link 125 201 1289 0 0.26670776
Link 126 201 1290 0 0.06387246
Link 127 201 1291 0 -0.03756115
Link 128 201 1292 0 0.33551149
Link 129 201 1293 0 -0.15741542
Link 130 201 1294 0 -0.20483512
Link 131 201 1295 0 -0.00458896
Link 132 201 1296 0 -0.36575378
Link 133 201 1297 0 -0.32822822
Link 134 201 1298 0 0.08338958
Link 135 201 1299 0 -0.36806716
Link 136 201 1300 0 0.01852064
Link 137 201 1301 0 -0.67151688
Link 138 201 1302 0 0.89624618
Link 139 201 1303 0 -0.45155344
Link 140 201 1304 0 0.63430117
Link 141 201 1305 0 -0.27139885
Link 142 201 1306 0 0.21191866
Link 143 201 1307 0 -0.33873931
Link 144 201 1308 0 -0.33131731
Link 145 201 1309 0 -0.03073358
Link 146 201 1310 0 -1.34694018
Link 147 201 1311 0 0.16209365
Link 148 201 1312 0 0.04277372
Link 149 201 1313 0 -0.12810884
Link 150 201 1314 0 -1.09647664
Link 151 201 1315 0 0.16297477
Link 152 201 1316 0 -0.37639746
Link 153 201 1317 0 0.74182324
Link 154 201 1318 0 -0.72933258
Link 155 201 1319 0 -0.28325237
Link 156 201 1320 0 0.16763185
Link 157 201 1321 0 0.16261020
Link 158 201 1322 0 0.18956860
Link 159 201 1323 0 -0.73309346
Link 160 201 1324 0 0.35880592
Link 161 201 1325 0 0.41300695
Link 162 201 1326 0 -0.39387281
Link 163 201 1327 0 0.42992094
Link 164 201 1328 0 -0.63038521
Link 165 201 1329 0 -0.28777452
Link 166 201 1330 0 -0.78891217
Link 167 201 1331 0 1.03785164
Link 168 201 1332 0 -0.03230343
Link 169 201 1333 0 0.17176370
Link 170 201 1334 0 0.22852679
Link 171 201 1335 0 -0.21763550
Link 172 201 1336 0 -0.92062879
Link 173 201 1337 0 0.05361369
Link 174 201 1338 0 0.37663256
Link 175 201 1339 0 0.31639451
Link 176 201 1340 0 -0.19447407
Link 177 201 1341 0 -0.74347822
Link 178 201 1342 0 0.04252259
Link 179 201 1343 0 0.24889064
Link 180 201 1344 0 0.15414683
Link 181 201 1345 0 0.17808646
Link 182 201 1346 0 -0.02614244
Link 183 201 1347 0 0.46073162
Link 184 201 1348 0 0.56279198
Link 185 201 1349 0 0.12613312
Link 186 201 1350 0 -0.36699344
Link 187 201 1351 0 -0.42926165
Link 188 201 1352 0 -0.99893358
Link 189 201 1353 0 -0.24890173
Link 190 201 1354 0 0.73726299
Link 191 201 1355 0 -0.52708432
Link 192 201 1356 0 0.11461642
Link 193 201 1357 0 -1.34301510
Link 194 201 1358 0 -0.60212301
Link 1 202 1359 0 -0.69442189
Link 2 202 1360 0 -0.68796938
Link 3 202 1361 0 -1.54524279
Link 4 202 1362 0 -0.27109090
Link 5 202 1363 0 -0.10916697
Link 6 202 1364 0 0.69467440
Link 7 202 1365 0 -1.00463011
Link 8 202 1366 0 -0.68373924
Link 9 202 1367 0 0.72452469
Link 10 202 1368 0 -0.29693305
Link 11 202 1369 0 -0.15421569
Link 12 202 1370 0 0.06395947
Link 13 202 1371 0 0.03930056
Link 14 202 1372 0 0.22299194
Link 15 202 1373 0 -0.48935983
Link 16 202 1374 0 0.26645650
Link 17 202 1375 0 -0.31456231
Link 18 202 1376 0 -0.11532056
Link 19 202 1377 0 -0.51615815
Link 20 202 1378 0 1.01573389
Link 21 202 1379 0 0.02450180
Link 22 202 1380 0 0.28655193
Link 23 202 1381 0 -0.61995541
Link 24 202 1382 0 -0.31405984
Link 25 202 1383 0 0.59209307
Link 26 202 1384 0 0.98023526
Link 27 202 1385 0 0.26990293
Link 28 202 1386 0 -0.31927723
Link 29 202 1387 0 -0.29151144
Link 30 202 1388 0 -0.41070535
Link 31 202 1389 0 0.24169272
Link 32 202 1390 0 0.36258072
Link 33 202 1391 0 0.41943302
Link 34 202 1392 0 0.21590211
Link 35 202 1393 0 -0.22486712
Link 36 202 1394 0 -0.84234186
Link 37 202 1395 0 0.47832000
Link 38 202 1396 0 -0.14022221
Link 39 202 1397 0 -0.00610509
Link 40 202 1398 0 -0.73054191
Link 41 202 1399 0 -0.05415650
Link 42 202 1400 0 0.55158852
Link 43 202 1401 0 -0.41001604
Link 44 202 1402 0 0.03138328
Link 45 202 1403 0 0.06141800
Link 46 202 1404 0 0.06812158
Link 47 202 1405 0 0.42909975
Link 48 202 1406 0 -1.09291985
Link 49 202 1407 0 0.06617959
Link 50 202 1408 0 0.06023087
Link 51 202 1409 0 0.49578391
Link 52 202 1410 0 0.04122786
Link 53 202 1411 0 -0.32082701
Link 54 202 1412 0 -0.06763568
Link 55 202 1413 0 -0.10542080
Link 56 202 1414 0 -0.00023393
Link 57 202 1415 0 0.19736990
Link 58 202 1416 0 -0.61570181
Link 59 202 1417 0 -0.98298492
Link 60 202 1418 0 -0.40093299
Link 61 202 1419 0 -0.48335257
Link 62 202 1420 0 -0.33788018
Link 63 202 1421 0 -0.09838926
Link 64 202 1422 0 0.58353066
Link 65 202 1423 0 -0.87593131
Link 66 202 1424 0 -0.58209464
Link 67 202 1425 0 0.15022741
Link 68 202 1426 0 0.27058441
Link 69 202 1427 0 -0.20828148
Link 70 202 1428 0 0.37221722
Link 71 202 1429 0 -0.53471476
Link 72 202 1430 0 -0.49500476
Link 73 202 1431 0 -0.20379297
Link 74 202 1432 0 -1.03112683
Link 75 202 1433 0 -0.21235977
Link 76 202 1434 0 0.06574745
Link 77 202 1435 0 -0.09205523
Link 78 202 1436 0 0.43855388
Link 79 202 1437 0 -0.08063715
Link 80 202 1438 0 -0.07276771
Link 81 202 1439 0 0.32407166
Link 82 202 1440 0 -0.12412392
Link 83 202 1441 0 0.19235917
Link 84 202 1442 0 -0.16679363
Link 85 202 1443 0 -0.02949667
Link 86 202 1444 0 -0.46571744
Link 87 202 1445 0 -0.12275801
Link 88 202 1446 0 0.82711131
Link 89 202 1447 0 0.29943970
Link 90 202 1448 0 -0.55054218
Link 91 202 1449 0 -0.62937864
Link 92 202 1450 0 0.44615735
Link 93 202 1451 0 0.09799431
Link 94 202 1452 0 -0.16658727
Link 95 202 1453 0 0.81542801
Link 96 202 1454 0 -0.08419903
Link 97 202 1455 0 -0.52006418
Link 98 202 1456 0 0.20653843
Link 99 202 1457 0 -0.36126967
Link 100 202 1458 0 -0.03258064
Link 101 202 1459 0 -0.29338379
Link 102 202 1460 0 -0.18795501
Link 103 202 1461 0 0.43276842
Link 104 202 1462 0 -0.25974205
Link 105 202 1463 0 -0.51110655
Link 106 202 1464 0 -0.57650886
Link 107 202 1465 0 -0.72297511
Link 108 202 1466 0 -0.33818327
Link 109 202 1467 0 1.11611900
Link 110 202 1468 0 0.02073199
Link 111 202 1469 0 -0.41247911
Link 112 202 1470 0 -0.08677059
Link 113 202 1471 0 -0.88723921
Link 114 202 1472 0 -0.26124851
Link 115 202 1473 0 0.58744597
Link 116 202 1474 0 -0.28036463
Link 117 202 1475 0 -0.91438408
Link 118 202 1476 0 0.49391367
Link 119 202 1477 0 0.20612454
Link 120 202 1478 0 0.19392901
Link 121 202 1479 0 0.33507925
Link 122 202 1480 0 -0.00513847
Link 123 202 1481 0 -0.99693921
Link 124 202 1482 0 -0.56899186
Link 125 202 1483 0 -0.09493662
Link 126 202 1484 0 0.00253880
Link 127 202 1485 0 -0.29126571
Link 128 202 1486 0 0.34039702
Link 129 202 1487 0 -0.02647676
Link 130 202 1488 0 0.27293491
Link 131 202 1489 0 0.67618012
Link 132 202 1490 0 -0.07698682
Link 133 202 1491 0 0.14046529
Link 134 202 1492 0 -0.95903604
Link 135 202 1493 0 0.36823593
Link 136 202 1494 0 0.21565751
Link 137 202 1495 0 -0.50160395
Link 138 202 1496 0 -1.45262362
Link 139 202 1497 0 0.59577606
Link 140 202 1498 0 -0.25460538
Link 141 202 1499 0 -0.72878975
Link 142 202 1500 0 0.22030750
Link 143 202 1501 0 -0.36697257
Link 144 202 1502 0 0.24762268
Link 145 202 1503 0 -0.03370321
Link 146 202 1504 0 0.35771590
Link 147 202 1505 0 0.60164237
Link 148 202 1506 0 0.68346066
Link 149 202 1507 0 0.39753559
Link 150 202 1508 0 0.66940806
Link 151 202 1509 0 -1.25008310
Link 152 202 1510 0 -0.87305588
Link 153 202 1511 0 -0.31591145
Link 154 202 1512 0 -0.10046256
Link 155 202 1513 0 0.44187557
Link 156 202 1514 0 -2.16765512
Link 157 202 1515 0 0.08135562
Link 158 202 1516 0 -0.84406299
Link 159 202 1517 0 -1.85370083
Link 160 202 1518 0 0.51149901
Link 161 202 1519 0 -2.87686042
Link 162 202 1520 0 -0.15608975
Link 163 202 1521 0 0.36820560
Link 164 202 1522 0 -0.70421385
Link 165 202 1523 0 -1.03966008
Link 166 202 1524 0 -0.20315794
Link 167 202 1525 0 -0.56255857
Link 168 202 1526 0 0.80485637
Link 169 202 1527 0 -1.06250941
Link 170 202 1528 0 0.33776136
Link 171 202 1529 0 -0.12037290
Link 172 202 1530 0 -0.10037177
Link 173 202 1531 0 0.30942138
Link 174 202 1532 0 -0.60332929
Link 175 202 1533 0 -0.53357353
Link 176 202 1534 0 0.79422056
Link 177 202 1535 0 0.59383954
Link 178 202 1536 0 -0.05216255
Link 179 202 1537 0 0.40749440
Link 180 202 1538 0 -0.00139302
Link 181 202 1539 0 0.22948308
Link 182 202 1540 0 -0.33664865
Link 183 202 1541 0 -0.26490111
Link 184 202 1542 0 -0.60253490
Link 185 202 1543 0 0.17167863
Link 186 202 1544 0 -0.24513839
Link 187 202 1545 0 -0.64549842
Link 188 202 1546 0 0.63121883
Link 189 202 1547 0 -1.35514164
Link 190 202 1548 0 -0.07426278
Link 191 202 1549 0 0.57356837
Link 192 202 1550 0 -1.16746913
Link 193 202 1551 0 1.38492192
Link 194 202 1552 0 0.28998366
Link 1 203 1553 0 -1.45013893
Link 2 203 1554 0 0.31457636
Link 3 203 1555 0 0.02641876
Link 4 203 1556 0 -0.10649774
Link 5 203 1557 0 -0.89068009
Link 6 203 1558 0 -0.28032125
Link 7 203 1559 0 -0.19131285
Link 8 203 1560 0 0.16380309
Link 9 203 1561 0 -0.05124087
Link 10 203 1562 0 -0.58653474
Link 11 203 1563 0 1.44472191
Link 12 203 1564 0 -1.45337573
Link 13 203 1565 0 0.07486154
Link 14 203 1566 0 0.50005802
Link 15 203 1567 0 -0.58749520
Link 16 203 1568 0 -0.06959797
Link 17 203 1569 0 1.63815006
Link 18 203 1570 0 -0.08051205
Link 19 203 1571 0 0.02785196
Link 20 203 1572 0 0.48462409
Link 21 203 1573 0 0.02177368
Link 22 203 1574 0 0.26649308
Link 23 203 1575 0 -0.52146129
Link 24 203 1576 0 0.24067060
Link 25 203 1577 0 -0.46574919
Link 26 203 1578 0 -0.42592390
Link 27 203 1579 0 -0.58308529
Link 28 203 1580 0 0.46027622
Link 29 203 1581 0 -0.12647325
Link 30 203 1582 0 -0.37602990
Link 31 203 1583 0 0.46204161
Link 32 203 1584 0 -0.94787894
Link 33 203 1585 0 0.65608376
Link 34 203 1586 0 0.28803707
Link 35 203 1587 0 -0.07594817
Link 36 203 1588 0 -0.17206872
Link 37 203 1589 0 0.03919132
Link 38 203 1590 0 0.68658812
Link 39 203 1591 0 -0.81327595
Link 40 203 1592 0 0.04644932
Link 41 203 1593 0 0.29634578
Link 42 203 1594 0 -0.21063672
Link 43 203 1595 0 0.06294286
Link 44 203 1596 0 0.81701561
Link 45 203 1597 0 0.65165583
Link 46 203 1598 0 0.16172676
Link 47 203 1599 0 0.19483450
Link 48 203 1600 0 -0.42819373
Link 49 203 1601 0 2.29673231
Link 50 203 1602 0 -0.44586572
Link 51 203 1603 0 0.88197945
Link 52 203 1604 0 -0.36220895
Link 53 203 1605 0 0.07691755
Link 54 203 1606 0 0.45221577
Link 55 203 1607 0 1.04358011
Link 56 203 1608 0 0.29488745
Link 57 203 1609 0 0.11006404
Link 58 203 1610 0 -0.60440527
Link 59 203 1611 0 0.12215093
Link 60 203 1612 0 0.64835073
Link 61 203 1613 0 -0.70180506
Link 62 203 1614 0 0.58582770
Link 63 203 1615 0 -0.02251179
Link 64 203 1616 0 -0.58607302
Link 65 203 1617 0 1.32272747
Link 66 203 1618 0 0.45503036
Link 67 203 1619 0 -0.61358852
Link 68 203 1620 0 0.07836354
Link 69 203 1621 0 -0.13673547
Link 70 203 1622 0 0.21049963
Link 71 203 1623 0 0.18355605
Link 72 203 1624 0 -0.69845422
Link 73 203 1625 0 -0.19051368
Link 74 203 1626 0 -0.14530574
Link 75 203 1627 0 -0.09011685
Link 76 203 1628 0 0.00556410
Link 77 203 1629 0 0.06377950
Link 78 203 1630 0 0.34585145
Link 79 203 1631 0 0.33914071
Link 80 203 1632 0 -0.05300448
Link 81 203 1633 0 0.00140325
Link 82 203 1634 0 -0.13810720
Link 83 203 1635 0 0.11812289
Link 84 203 1636 0 0.26078277
Link 85 203 1637 0 -0.09690869
Link 86 203 1638 0 -0.39291833
Link 87 203 1639 0 -0.66150744
Link 88 203 1640 0 -0.84997763
Link 89 203 1641 0 -0.33824869
Link 90 203 1642 0 0.41245719
Link 91 203 1643 0 -0.90443162
Link 92 203 1644 0 0.51337118
Link 93 203 1645 0 -0.46468124
Link 94 203 1646 0 0.20500142
Link 95 203 1647 0 0.14269539
Link 96 203 1648 0 0.38456432
Link 97 203 1649 0 -0.02102949
Link 98 203 1650 0 0.09504195
Link 99 203 1651 0 0.48548062
Link 100 203 1652 0 -0.18077860
Link 101 203 1653 0 0.11704085
Link 102 203 1654 0 -0.45487764
Link 103 203 1655 0 0.32950190
Link 104 203 1656 0 -1.48430967
Link 105 203 1657 0 0.39473356
Link 106 203 1658 0 0.49965506
Link 107 203 1659 0 -0.61985507
Link 108 203 1660 0 0.09730236
Link 109 203 1661 0 0.02074950
Link 110 203 1662 0 0.69858482
Link 111 203 1663 0 -0.57072248
Link 112 203 1664 0 0.27757853
Link 113 203 1665 0 -0.78803447
Link 114 203 1666 0 -0.71323874
Link 115 203 1667 0 0.00863249
Link 116 203 1668 0 -0.13251403
Link 117 203 1669 0 -0.67037171
Link 118 203 1670 0 -0.09686165
Link 119 203 1671 0 -0.83088510
Link 120 203 1672 0 0.00678428
Link 121 203 1673 0 -0.37493193
Link 122 203 1674 0 0.36672201
Link 123 203 1675 0 0.09378301
Link 124 203 1676 0 -0.09855155
Link 125 203 1677 0 0.06831999
Link 126 203 1678 0 1.16331246
Link 127 203 1679 0 0.10410539
Link 128 203 1680 0 -0.64575692
Link 129 203 1681 0 0.22291286
Link 130 203 1682 0 0.15979714
Link 131 203 1683 0 0.01947639
Link 132 203 1684 0 -0.71386664
Link 133 203 1685 0 0.01939318
Link 134 203 1686 0 -0.68483333
Link 135 203 1687 0 -0.50597983
Link 136 203 1688 0 0.37893431
Link 137 203 1689 0 0.60518333
Link 138 203 1690 0 -1.70017989
Link 139 203 1691 0 0.19729334
Link 140 203 1692 0 0.55945711
Link 141 203 1693 0 0.76173376
Link 142 203 1694 0 0.55173943
Link 143 203 1695 0 -0.03163654
Link 144 203 1696 0 -0.01410803
Link 145 203 1697 0 0.40434167
Link 146 203 1698 0 0.49147213
Link 147 203 1699 0 -0.12688791
Link 148 203 1700 0 -0.15509476
Link 149 203 1701 0 0.72516943
Link 150 203 1702 0 0.08505820
Link 151 203 1703 0 0.32601614
Link 152 203 1704 0 -0.39305196
Link 153 203 1705 0 -1.54892730
Link 154 203 1706 0 0.52232212
Link 155 203 1707 0 0.13777384
Link 156 203 1708 0 0.30140228
Link 157 203 1709 0 0.24841120
Link 158 203 1710 0 -2.38706662
Link 159 203 1711 0 -0.75950999
Link 160 203 1712 0 -0.60981151
Link 161 203 1713 0 -0.81878532
Link 162 203 1714 0 0.89172918
Link 163 203 1715 0 0.11562866
Link 164 203 1716 0 -0.38559354
Link 165 203 1717 0 -0.84841694
Link 166 203 1718 0 0.72998964
Link 167 203 1719 0 -0.35233218
Link 168 203 1720 0 -0.06929338
Link 169 203 1721 0 0.16384550
Link 170 203 1722 0 0.06998326
Link 171 203 1723 0 -1.02216081
Link 172 203 1724 0 0.07379552
Link 173 203 1725 0 0.43428679
Link 174 203 1726 0 -1.00048915
Link 175 203 1727 0 0.74738384
Link 176 203 1728 0 -0.57548301
Link 177 203 1729 0 0.08512234
Link 178 203 1730 0 0.24578387
Link 179 203 1731 0 1.72158837
Link 180 203 1732 0 -0.26324345
Link 181 203 1733 0 0.88375201
Link 182 203 1734 0 -0.11454875
Link 183 203 1735 0 0.63814249
Link 184 203 1736 0 0.38091979
Link 185 203 1737 0 0.26790943
Link 186 203 1738 0 -0.55555886
Link 187 203 1739 0 -0.56073617
Link 188 203 1740 0 1.00397559
Link 189 203 1741 0 0.34437872
Link 190 203 1742 0 0.25090911
Link 191 203 1743 0 0.54622201
Link 192 203 1744 0 0.14990529
Link 193 203 1745 0 0.43076300
Link 194 203 1746 0 0.57198948
Link 1 204 1747 0 0.28267577
Link 2 204 1748 0 -2.53607922
Link 3 204 1749 0 -0.50686377
Link 4 204 1750 0 -1.04885326
Link 5 204 1751 0 0.17468758
Link 6 204 1752 0 -0.11909260
Link 7 204 1753 0 -0.21222211
Link 8 204 1754 0 -1.77838241
Link 9 204 1755 0 -0.35739354
Link 10 204 1756 0 -0.71869971
Link 11 204 1757 0 -0.08489196
Link 12 204 1758 0 -0.23692458
Link 13 204 1759 0 0.02527731
Link 14 204 1760 0 0.11380160
Link 15 204 1761 0 -0.37818862
Link 16 204 1762 0 -0.32999294
Link 17 204 1763 0 -0.27806229
Link 18 204 1764 0 -2.42775139
Link 19 204 1765 0 -0.01492929
Link 20 204 1766 0 1.23272913
Link 21 204 1767 0 -0.29184488
Link 22 204 1768 0 -0.12284291
Link 23 204 1769 0 -0.10622414
Link 24 204 1770 0 0.32083034
Link 25 204 1771 0 -0.48713830
Link 26 204 1772 0 0.91110169
Link 27 204 1773 0 -0.14768086
Link 28 204 1774 0 0.17163214
Link 29 204 1775 0 -0.26993842
Link 30 204 1776 0 -0.16567915
Link 31 204 1777 0 -0.91135282
Link 32 204 1778 0 -0.32783930
Link 33 204 1779 0 0.30767763
Link 34 204 1780 0 0.12433908
Link 35 204 1781 0 -0.17013793
Link 36 204 1782 0 0.13941118
Link 37 204 1783 0 -0.07052058
Link 38 204 1784 0 0.10972706
Link 39 204 1785 0 0.29082815
Link 40 204 1786 0 -0.24694846
Link 41 204 1787 0 -2.01882673
Link 42 204 1788 0 -0.96777258
Link 43 204 1789 0 -0.19804583
Link 44 204 1790 0 -0.25191426
Link 45 204 1791 0 0.56775812
Link 46 204 1792 0 -0.53501312
Link 47 204 1793 0 0.19427634
Link 48 204 1794 0 -1.61282372
Link 49 204 1795 0 0.62630363
Link 50 204 1796 0 -0.10156574
Link 51 204 1797 0 -1.20911388
Link 52 204 1798 0 -0.14554414
Link 53 204 1799 0 0.09175568
Link 54 204 1800 0 0.16064147
Link 55 204 1801 0 0.46269327
Link 56 204 1802 0 0.37515968
Link 57 204 1803 0 1.63326251
Link 58 204 1804 0 0.35589658
Link 59 204 1805 0 -0.59129683
Link 60 204 1806 0 -0.31649239
Link 61 204 1807 0 0.38424808
Link 62 204 1808 0 0.23283275
Link 63 204 1809 0 -0.02814989
Link 64 204 1810 0 1.33332372
Link 65 204 1811 0 0.20517727
Link 66 204 1812 0 0.16735698
Link 67 204 1813 0 -0.67990027
Link 68 204 1814 0 -0.56882341
Link 69 204 1815 0 1.77337243
Link 70 204 1816 0 -0.21817168
Link 71 204 1817 0 -0.50973431
Link 72 204 1818 0 0.01185904
Link 73 204 1819 0 -0.35574897
Link 74 204 1820 0 -0.03853065
Link 75 204 1821 0 -0.40974299
Link 76 204 1822 0 0.25446479
Link 77 204 1823 0 -0.12164238
Link 78 204 1824 0 0.21972230
Link 79 204 1825 0 0.06264692
Link 80 204 1826 0 -0.05969728
Link 81 204 1827 0 -0.01276497
Link 82 204 1828 0 0.44872167
Link 83 204 1829 0 0.40659688
Link 84 204 1830 0 1.04897123
Link 85 204 1831 0 0.36892149
Link 86 204 1832 0 -0.78092037
Link 87 204 1833 0 -1.12231168
Link 88 204 1834 0 0.06230305
Link 89 204 1835 0 -1.30165873
Link 90 204 1836 0 0.38808011
Link 91 204 1837 0 0.16932570
Link 92 204 1838 0 -0.38521618
Link 93 204 1839 0 0.31269544
Link 94 204 1840 0 0.25736503
Link 95 204 1841 0 -0.40907025
Link 96 204 1842 0 0.98258665
Link 97 204 1843 0 0.21869287
Link 98 204 1844 0 0.17451082
Link 99 204 1845 0 -1.43972974
Link 100 204 1846 0 -1.50057428
Link 101 204 1847 0 -0.49194407
Link 102 204 1848 0 -0.53663855
Link 103 204 1849 0 1.49684953
Link 104 204 1850 0 -0.06040898
Link 105 204 1851 0 -0.38395666
Link 106 204 1852 0 -0.26636567
Link 107 204 1853 0 0.44038292
Link 108 204 1854 0 -1.02087876
Link 109 204 1855 0 -0.22504056
Link 110 204 1856 0 0.68018416
Link 111 204 1857 0 0.14098599
Link 112 204 1858 0 0.58357645
Link 113 204 1859 0 0.59772839
Link 114 204 1860 0 0.01503101
Link 115 204 1861 0 0.27971879
Link 116 204 1862 0 -1.01715902
Link 117 204 1863 0 0.78828045
Link 118 204 1864 0 -0.88512654
Link 119 204 1865 0 0.17688737
Link 120 204 1866 0 -1.27969794
Link 121 204 1867 0 -0.19487263
Link 122 204 1868 0 -0.00328083
Link 123 204 1869 0 -0.02143810
Link 124 204 1870 0 -0.76573092
Link 125 204 1871 0 0.32639431
Link 126 204 1872 0 0.52605799
Link 127 204 1873 0 -0.33629110
Link 128 204 1874 0 -0.15156914
Link 129 204 1875 0 0.55724519
Link 130 204 1876 0 -0.22347496
Link 131 204 1877 0 0.00574652
Link 132 204 1878 0 0.21056464
Link 133 204 1879 0 -0.06405082
Link 134 204 1880 0 -0.05504480
Link 135 204 1881 0 -0.54195330
Link 136 204 1882 0 -0.33574960
Link 137 204 1883 0 -0.26456121
Link 138 204 1884 0 0.77838843
Link 139 204 1885 0 -0.34572136
Link 140 204 1886 0 0.28068811
Link 141 204 1887 0 -0.62450969
Link 142 204 1888 0 -0.13603694
Link 143 204 1889 0 -0.45926159
Link 144 204 1890 0 2.00243106
Link 145 204 1891 0 0.79055869
Link 146 204 1892 0 -0.03181560
Link 147 204 1893 0 -0.17908534
Link 148 204 1894 0 -0.68597423
Link 149 204 1895 0 -0.47249672
Link 150 204 1896 0 0.03811646
Link 151 204 1897 0 0.19251852
Link 152 204 1898 0 0.26988654
Link 153 204 1899 0 -1.00090098
Link 154 204 1900 0 -0.15278521
Link 155 204 1901 0 0.19023697
Link 156 204 1902 0 0.56595825
Link 157 204 1903 0 1.24047962
Link 158 204 1904 0 -0.23452782
Link 159 204 1905 0 0.57129796
Link 160 204 1906 0 0.91814951
Link 161 204 1907 0 1.28260262
Link 162 204 1908 0 -0.18923555
Link 163 204 1909 0 0.48030299
Link 164 204 1910 0 0.14233525
Link 165 204 1911 0 0.49763464
Link 166 204 1912 0 0.09561195
Link 167 204 1913 0 -1.13073505
Link 168 204 1914 0 -0.08130345
Link 169 204 1915 0 -0.28530100
Link 170 204 1916 0 0.09091285
Link 171 204 1917 0 0.68767353
Link 172 204 1918 0 0.11624409
Link 173 204 1919 0 -0.03973203
Link 174 204 1920 0 0.36996849
Link 175 204 1921 0 0.61435733
Link 176 204 1922 0 -0.33461632
Link 177 204 1923 0 -0.12989373
Link 178 204 1924 0 -1.69357440
Link 179 204 1925 0 -0.42491659
Link 180 204 1926 0 -0.21720137
Link 181 204 1927 0 0.28285190
Link 182 204 1928 0 0.52135755
Link 183 204 1929 0 -0.15570015
Link 184 204 1930 0 -0.55688165
Link 185 204 1931 0 -0.09648437
Link 186 204 1932 0 -0.03200748
Link 187 204 1933 0 0.60474905
Link 188 204 1934 0 -0.67027506
Link 189 204 1935 0 0.10403168
Link 190 204 1936 0 -0.75072412
Link 191 204 1937 0 -0.40376749
Link 192 204 1938 0 -0.83982498
Link 193 204 1939 0 0.26737202
Link 194 204 1940 0 0.76468789
Link 1 205 1941 0 -0.17771861
Link 2 205 1942 0 -1.44418614
Link 3 205 1943 0 0.95982021
Link 4 205 1944 0 0.16374319
Link 5 205 1945 0 -0.17221845
Link 6 205 1946 0 -0.79919331
Link 7 205 1947 0 -0.26667826
Link 8 205 1948 0 -0.09571945
Link 9 205 1949 0 -2.09420536
Link 10 205 1950 0 -0.15946200
Link 11 205 1951 0 -0.85532807
Link 12 205 1952 0 0.58937819
Link 13 205 1953 0 0.41719342
Link 14 205 1954 0 -0.24555604
Link 15 205 1955 0 1.11681418
Link 16 205 1956 0 -1.24980062
Link 17 205 1957 0 0.00227756
Link 18 205 1958 0 -0.29673786
Link 19 205 1959 0 0.09536998
Link 20 205 1960 0 0.08130418
Link 21 205 1961 0 -1.36100865
Link 22 205 1962 0 0.13857498
Link 23 205 1963 0 0.12378198
Link 24 205 1964 0 0.41776254
Link 25 205 1965 0 -0.30376565
Link 26 205 1966 0 -0.09466818
Link 27 205 1967 0 -0.97763383
Link 28 205 1968 0 -0.58321049
Link 29 205 1969 0 0.42072596
Link 30 205 1970 0 0.04976063
Link 31 205 1971 0 -0.21183270
Link 32 205 1972 0 -0.31220590
Link 33 205 1973 0 0.68175170
Link 34 205 1974 0 -0.06393744
Link 35 205 1975 0 0.07941159
Link 36 205 1976 0 -0.11445220
Link 37 205 1977 0 -0.38755735
Link 38 205 1978 0 0.22455520
Link 39 205 1979 0 -0.20291187
Link 40 205 1980 0 -0.50727686
Link 41 205 1981 0 0.14361282
Link 42 205 1982 0 -0.33799843
Link 43 205 1983 0 0.74267746
Link 44 205 1984 0 -0.57054361
Link 45 205 1985 0 0.29040373
Link 46 205 1986 0 -0.53115488
Link 47 205 1987 0 0.16422286
Link 48 205 1988 0 0.04711221
Link 49 205 1989 0 0.33293863
Link 50 205 1990 0 -0.77218370
Link 51 205 1991 0 -0.11869987
Link 52 205 1992 0 -0.40961659
Link 53 205 1993 0 -0.08528333
Link 54 205 1994 0 -0.09457406
Link 55 205 1995 0 -0.21196221
Link 56 205 1996 0 -0.41185906
Link 57 205 1997 0 -0.00806285
Link 58 205 1998 0 -0.93598572
Link 59 205 1999 0 -0.19530447
Link 60 205 2000 0 -1.23183576
Link 61 205 2001 0 0.09682113
Link 62 205 2002 0 -0.18504983
Link 63 205 2003 0 0.37271067
Link 64 205 2004 0 -0.81299645
Link 65 205 2005 0 -0.98088808
Link 66 205 2006 0 -0.66777059
Link 67 205 2007 0 0.88281341
Link 68 205 2008 0 0.09034803
Link 69 205 2009 0 0.07801735
Link 70 205 2010 0 -1.52796311
Link 71 205 2011 0 -0.10681634
Link 72 205 2012 0 0.12397354
Link 73 205 2013 0 -0.85288465
Link 74 205 2014 0 0.18014860
Link 75 205 2015 0 -0.27236812
Link 76 205 2016 0 -0.02879418
Link 77 205 2017 0 -0.06774645
Link 78 205 2018 0 -0.28139661
Link 79 205 2019 0 -0.73840211
Link 80 205 2020 0 -0.05953098
Link 81 205 2021 0 -0.06764026
Link 82 205 2022 0 0.95348364
Link 83 205 2023 0 -0.60044903
Link 84 205 2024 0 -0.44525347
Link 85 205 2025 0 -0.30670712
Link 86 205 2026 0 -0.70932840
Link 87 205 2027 0 -0.21822718
Link 88 205 2028 0 0.08686636
Link 89 205 2029 0 0.56834883
Link 90 205 2030 0 -1.31681922
Link 91 205 2031 0 -0.54223234
Link 92 205 2032 0 -0.81323562
Link 93 205 2033 0 -0.51417623
Link 94 205 2034 0 0.77581773
Link 95 205 2035 0 -0.45855265
Link 96 205 2036 0 0.24456195
Link 97 205 2037 0 -0.00731597
Link 98 205 2038 0 -0.22287873
Link 99 205 2039 0 -0.55090388
Link 100 205 2040 0 -0.86222436
Link 101 205 2041 0 -0.35437754
Link 102 205 2042 0 0.15311572
Link 103 205 2043 0 -0.19597751
Link 104 205 2044 0 -0.82069781
Link 105 205 2045 0 0.49154785
Link 106 205 2046 0 -0.59777401
Link 107 205 2047 0 -0.25207102
Link 108 205 2048 0 -1.08497378
Link 109 205 2049 0 0.36636657
Link 110 205 2050 0 -1.26404482
Link 111 205 2051 0 0.12930683
Link 112 205 2052 0 0.06407497
Link 113 205 2053 0 -0.70991524
Link 114 205 2054 0 0.32988199
Link 115 205 2055 0 -0.81474313
Link 116 205 2056 0 -0.31755561
Link 117 205 2057 0 -0.92157982
Link 118 205 2058 0 0.64849152
Link 119 205 2059 0 1.43793365
Link 120 205 2060 0 0.23320659
Link 121 205 2061 0 -1.91122407
Link 122 205 2062 0 -0.12871332
Link 123 205 2063 0 -0.32300493
Link 124 205 2064 0 0.02012371
Link 125 205 2065 0 0.17958020
Link 126 205 2066 0 1.39549341
Link 127 205 2067 0 0.17594735
Link 128 205 2068 0 0.82135484
Link 129 205 2069 0 -0.29195792
Link 130 205 2070 0 0.35790876
Link 131 205 2071 0 0.32205391
Link 132 205 2072 0 0.09185814
Link 133 205 2073 0 -0.13258014
Link 134 205 2074 0 -0.66679692
Link 135 205 2075 0 0.76007914
Link 136 205 2076 0 -0.05328746
Link 137 205 2077 0 0.62489297
Link 138 205 2078 0 0.49430379
Link 139 205 2079 0 0.00263950
Link 140 205 2080 0 -0.68620207
Link 141 205 2081 0 0.05979095
Link 142 205 2082 0 -0.27051727
Link 143 205 2083 0 0.27959915
Link 144 205 2084 0 0.62718695
Link 145 205 2085 0 0.68036768
Link 146 205 2086 0 -0.19440638
Link 147 205 2087 0 0.28381942
Link 148 205 2088 0 0.25563770
Link 149 205 2089 0 0.55950508
Link 150 205 2090 0 -1.04041172
Link 151 205 2091 0 0.06049530
Link 152 205 2092 0 -0.04840205
Link 153 205 2093 0 -0.04155406
Link 154 205 2094 0 0.44006623
Link 155 205 2095 0 0.33211740
Link 156 205 2096 0 -0.39566762
Link 157 205 2097 0 -0.85458311
Link 158 205 2098 0 -0.43146438
Link 159 205 2099 0 -0.51709330
Link 160 205 2100 0 0.79108925
Link 161 205 2101 0 0.79716093
Link 162 205 2102 0 -0.29079539
Link 163 205 2103 0 0.83936233
Link 164 205 2104 0 -0.30315487
Link 165 205 2105 0 0.86735417
Link 166 205 2106 0 -0.26999742
Link 167 205 2107 0 -0.95988657
Link 168 205 2108 0 0.49709539
Link 169 205 2109 0 0.36135398
Link 170 205 2110 0 0.66376201
Link 171 205 2111 0 -0.59261976
Link 172 205 2112 0 -0.74303538
Link 173 205 2113 0 -0.25717598
Link 174 205 2114 0 0.48389767
Link 175 205 2115 0 0.41344860
Link 176 205 2116 0 0.94853487
Link 177 205 2117 0 0.22859117
Link 178 205 2118 0 1.06980304
Link 179 205 2119 0 0.29521789
Link 180 205 2120 0 0.37013669
Link 181 205 2121 0 -0.12890200
Link 182 205 2122 0 0.68024566
Link 183 205 2123 0 -0.19355704
Link 184 205 2124 0 0.15347809
Link 185 205 2125 0 0.60687208
Link 186 205 2126 0 0.71041439
Link 187 205 2127 0 0.01418722
Link 188 205 2128 0 0.14753602
Link 189 205 2129 0 -1.52201823
Link 190 205 2130 0 0.24687207
Link 191 205 2131 0 -0.67872246
Link 192 205 2132 0 -0.13750584
Link 193 205 2133 0 -0.09962438
Link 194 205 2134 0 -1.12522006
Link 1 206 2135 0 1.30226000
Link 2 206 2136 0 1.38932111
Link 3 206 2137 0 -0.56570749
Link 4 206 2138 0 -0.85753137
Link 5 206 2139 0 0.36254767
Link 6 206 2140 0 0.66100036
Link 7 206 2141 0 0.17948036
Link 8 206 2142 0 0.48908239
Link 9 206 2143 0 0.13772491
Link 10 206 2144 0 -0.33102028
Link 11 206 2145 0 0.22419310
Link 12 206 2146 0 -0.12779294
Link 13 206 2147 0 -0.32317830
Link 14 206 2148 0 -0.41134781
Link 15 206 2149 0 -0.37428242
Link 16 206 2150 0 -0.40510102
Link 17 206 2151 0 0.18718425
Link 18 206 2152 0 0.12040638
Link 19 206 2153 0 0.83487467
Link 20 206 2154 0 0.40935758
Link 21 206 2155 0 0.27908312
Link 22 206 2156 0 1.40233283
Link 23 206 2157 0 0.49262528
Link 24 206 2158 0 -0.26566935
Link 25 206 2159 0 -0.90164867
Link 26 206 2160 0 0.29934415
Link 27 206 2161 0 -0.07615297
Link 28 206 2162 0 0.31297498
Link 29 206 2163 0 0.61434245
Link 30 206 2164 0 0.58546253
Link 31 206 2165 0 0.54557614
Link 32 206 2166 0 -0.96761037
Link 33 206 2167 0 0.28986864
Link 34 206 2168 0 0.44223491
Link 35 206 2169 0 0.34680198
Link 36 206 2170 0 0.08720457
Link 37 206 2171 0 -0.10883687
Link 38 206 2172 0 -0.19787473
Link 39 206 2173 0 0.62171047
Link 40 206 2174 0 0.08824989
Link 41 206 2175 0 1.30214002
Link 42 206 2176 0 -0.11311743
Link 43 206 2177 0 1.87790291
Link 44 206 2178 0 -0.25531635
Link 45 206 2179 0 -0.28079009
Link 46 206 2180 0 0.61304985
Link 47 206 2181 0 0.12448261
Link 48 206 2182 0 -0.44867598
Link 49 206 2183 0 -0.44101512
Link 50 206 2184 0 -0.23245328
Link 51 206 2185 0 0.30689645
Link 52 206 2186 0 0.13453758
Link 53 206 2187 0 -0.32675426
Link 54 206 2188 0 0.76308596
Link 55 206 2189 0 0.39103507
Link 56 206 2190 0 -0.08812442
Link 57 206 2191 0 0.11739450
Link 58 206 2192 0 0.30574597
Link 59 206 2193 0 -0.88010096
Link 60 206 2194 0 0.62484274
Link 61 206 2195 0 -0.10283632
Link 62 206 2196 0 -0.83626132
Link 63 206 2197 0 0.40590167
Link 64 206 2198 0 0.05876727
Link 65 206 2199 0 0.20690500
Link 66 206 2200 0 0.41063895
Link 67 206 2201 0 0.33789334
Link 68 206 2202 0 0.17387379
Link 69 206 2203 0 0.61483372
Link 70 206 2204 0 0.61969051
Link 71 206 2205 0 0.36811262
Link 72 206 2206 0 -0.28128955
Link 73 206 2207 0 0.24742982
Link 74 206 2208 0 -1.20054277
Link 75 206 2209 0 0.14556294
Link 76 206 2210 0 -0.13556380
Link 77 206 2211 0 0.36415707
Link 78 206 2212 0 -0.00706822
Link 79 206 2213 0 0.54672091
Link 80 206 2214 0 0.72657161
Link 81 206 2215 0 -0.05690558
Link 82 206 2216 0 0.97432346
Link 83 206 2217 0 1.09985841
Link 84 206 2218 0 -0.27303912
Link 85 206 2219 0 0.62518235
Link 86 206 2220 0 0.28413712
Link 87 206 2221 0 1.46409315
Link 88 206 2222 0 -0.09832407
Link 89 206 2223 0 -0.05398217
Link 90 206 2224 0 0.69123639
Link 91 206 2225 0 -0.32944419
Link 92 206 2226 0 -0.30378114
Link 93 206 2227 0 1.01026995
Link 94 206 2228 0 -0.17228857
Link 95 206 2229 0 0.61342456
Link 96 206 2230 0 -0.62706872
Link 97 206 2231 0 0.03923431
Link 98 206 2232 0 1.06558357
Link 99 206 2233 0 0.45603318
Link 100 206 2234 0 -0.66268194
Link 101 206 2235 0 0.00776051
Link 102 206 2236 0 -0.22300710
Link 103 206 2237 0 1.05755124
Link 104 206 2238 0 0.38922065
Link 105 206 2239 0 -0.07709677
Link 106 206 2240 0 -0.83503012
Link 107 206 2241 0 0.18972899
Link 108 206 2242 0 0.58035125
Link 109 206 2243 0 0.07710943
Link 110 206 2244 0 0.20043706
Link 111 206 2245 0 -0.61152427
Link 112 206 2246 0 -0.14611893
Link 113 206 2247 0 1.89836660
Link 114 206 2248 0 -0.57340653
Link 115 206 2249 0 -0.31389900
Link 116 206 2250 0 -0.97907261
Link 117 206 2251 0 0.77495848
Link 118 206 2252 0 0.17808285
Link 119 206 2253 0 -0.04837574
Link 120 206 2254 0 0.20747063
Link 121 206 2255 0 -0.45471865
Link 122 206 2256 0 0.09138369
Link 123 206 2257 0 -0.27872426
Link 124 206 2258 0 0.01147234
Link 125 206 2259 0 0.49217722
Link 126 206 2260 0 -0.81485460
Link 127 206 2261 0 0.11067800
Link 128 206 2262 0 1.59184087
Link 129 206 2263 0 -0.07689281
Link 130 206 2264 0 0.04848374
Link 131 206 2265 0 -0.36678128
Link 132 206 2266 0 -0.03383311
Link 133 206 2267 0 0.37455847
Link 134 206 2268 0 -0.02929784
Link 135 206 2269 0 0.75251331
Link 136 206 2270 0 -0.21563232
Link 137 206 2271 0 -0.26484386
Link 138 206 2272 0 -0.71832922
Link 139 206 2273 0 -0.15346615
Link 140 206 2274 0 -0.57886169
Link 141 206 2275 0 -0.06277573
Link 142 206 2276 0 1.09546530
Link 143 206 2277 0 -0.75974229
Link 144 206 2278 0 -0.43911738
Link 145 206 2279 0 0.14167253
Link 146 206 2280 0 -0.57637858
Link 147 206 2281 0 0.05309945
Link 148 206 2282 0 1.16630127
Link 149 206 2283 0 -1.04214642
Link 150 206 2284 0 -0.16095393
Link 151 206 2285 0 -0.45428509
Link 152 206 2286 0 -0.68439403
Link 153 206 2287 0 0.40680186
Link 154 206 2288 0 0.27147326
Link 155 206 2289 0 1.01773334
Link 156 206 2290 0 1.15903280
Link 157 206 2291 0 -1.03107996
Link 158 206 2292 0 -0.74720773
Link 159 206 2293 0 -0.56396142
Link 160 206 2294 0 -0.64710845
Link 161 206 2295 0 -1.06986589
Link 162 206 2296 0 -1.44102198
Link 163 206 2297 0 0.46594534
Link 164 206 2298 0 -0.21703589
Link 165 206 2299 0 0.28392805
Link 166 206 2300 0 -0.37341992
Link 167 206 2301 0 -0.78077879
Link 168 206 2302 0 -0.25204508
Link 169 206 2303 0 -0.16063670
Link 170 206 2304 0 0.46311638
Link 171 206 2305 0 -0.11882961
Link 172 206 2306 0 0.56965465
Link 173 206 2307 0 -1.27280187
Link 174 206 2308 0 1.01900684
Link 175 206 2309 0 0.22526753
Link 176 206 2310 0 0.22374748
Link 177 206 2311 0 0.63156560
Link 178 206 2312 0 -0.21503955
Link 179 206 2313 0 -0.17524157
Link 180 206 2314 0 -0.05412668
Link 181 206 2315 0 -0.25008533
Link 182 206 2316 0 0.14774200
Link 183 206 2317 0 -0.05707988
Link 184 206 2318 0 -0.29519185
Link 185 206 2319 0 -0.02490313
Link 186 206 2320 0 -0.38127042
Link 187 206 2321 0 -0.28249445
Link 188 206 2322 0 -0.24177459
Link 189 206 2323 0 0.46210908
Link 190 206 2324 0 -0.39739675
Link 191 206 2325 0 -0.02655837
Link 192 206 2326 0 0.24771681
Link 193 206 2327 0 0.82405863
Link 194 206 2328 0 -1.50732324
Link 1 207 2329 0 -0.08215748
Link 2 207 2330 0 -0.17802039
Link 3 207 2331 0 -0.11007036
Link 4 207 2332 0 0.11406012
Link 5 207 2333 0 -0.27287039
Link 6 207 2334 0 0.09848849
Link 7 207 2335 0 -0.28355579
Link 8 207 2336 0 -0.22740922
Link 9 207 2337 0 0.09810750
Link 10 207 2338 0 -0.23810250
Link 11 207 2339 0 -0.77449135
Link 12 207 2340 0 -0.06358615
Link 13 207 2341 0 0.16948148
Link 14 207 2342 0 -0.35310971
Link 15 207 2343 0 -0.04746432
Link 16 207 2344 0 0.00697426
Link 17 207 2345 0 0.03985750
Link 18 207 2346 0 0.13660531
Link 19 207 2347 0 -0.45142539
Link 20 207 2348 0 -0.32712431
Link 21 207 2349 0 -0.55052268
Link 22 207 2350 0 0.21621703
Link 23 207 2351 0 0.26402375
Link 24 207 2352 0 0.13987689
Link 25 207 2353 0 0.77509016
Link 26 207 2354 0 -0.01403579
Link 27 207 2355 0 -0.01242661
Link 28 207 2356 0 0.22885609
Link 29 207 2357 0 0.20687496
Link 30 207 2358 0 0.33753915
Link 31 207 2359 0 0.13951000
Link 32 207 2360 0 0.29106477
Link 33 207 2361 0 -0.20879659
Link 34 207 2362 0 -0.64758054
Link 35 207 2363 0 -0.16420444
Link 36 207 2364 0 0.02486334
Link 37 207 2365 0 -0.22280960
Link 38 207 2366 0 0.49822111
Link 39 207 2367 0 -0.54043487
Link 40 207 2368 0 -0.43701781
Link 41 207 2369 0 0.68164412
Link 42 207 2370 0 0.27657590
Link 43 207 2371 0 0.45946484
Link 44 207 2372 0 0.15068279
Link 45 207 2373 0 0.96165007
Link 46 207 2374 0 -0.21631304
Link 47 207 2375 0 -0.19520313
Link 48 207 2376 0 -0.48427682
Link 49 207 2377 0 -0.12640716
Link 50 207 2378 0 0.25132879
Link 51 207 2379 0 0.01340215
Link 52 207 2380 0 0.14558266
Link 53 207 2381 0 0.25015906
Link 54 207 2382 0 -0.24612450
Link 55 207 2383 0 0.12292413
Link 56 207 2384 0 -0.15140672
Link 57 207 2385 0 -0.08562248
Link 58 207 2386 0 -0.08237498
Link 59 207 2387 0 -0.19561903
Link 60 207 2388 0 -0.36960772
Link 61 207 2389 0 0.23597181
Link 62 207 2390 0 -0.44884872
Link 63 207 2391 0 0.71599345
Link 64 207 2392 0 0.25348550
Link 65 207 2393 0 -0.30393353
Link 66 207 2394 0 -0.41498388
Link 67 207 2395 0 0.40398508
Link 68 207 2396 0 0.01311614
Link 69 207 2397 0 -0.08846879
Link 70 207 2398 0 0.07709959
Link 71 207 2399 0 0.40356594
Link 72 207 2400 0 0.38643946
Link 73 207 2401 0 -0.25239457
Link 74 207 2402 0 -0.17764893
Link 75 207 2403 0 0.10693813
Link 76 207 2404 0 0.01189877
Link 77 207 2405 0 -0.18650744
Link 78 207 2406 0 -0.20032398
Link 79 207 2407 0 -0.43043632
Link 80 207 2408 0 0.97179035
Link 81 207 2409 0 0.40822958
Link 82 207 2410 0 -0.17035259
Link 83 207 2411 0 -0.28664109
Link 84 207 2412 0 0.54648655
Link 85 207 2413 0 0.33168578
Link 86 207 2414 0 0.00497425
Link 87 207 2415 0 0.57669139
Link 88 207 2416 0 0.28862393
Link 89 207 2417 0 -0.03817159
Link 90 207 2418 0 0.18585868
Link 91 207 2419 0 -0.31015648
Link 92 207 2420 0 0.24570387
Link 93 207 2421 0 -0.08410326
Link 94 207 2422 0 0.26134248
Link 95 207 2423 0 -0.15628425
Link 96 207 2424 0 0.21326600
Link 97 207 2425 0 0.69158563
Link 98 207 2426 0 -0.07226349
Link 99 207 2427 0 -0.60691811
Link 100 207 2428 0 -0.28432093
Link 101 207 2429 0 0.25072561
Link 102 207 2430 0 -0.06010288
Link 103 207 2431 0 0.31926721
Link 104 207 2432 0 -0.17443743
Link 105 207 2433 0 -0.19500200
Link 106 207 2434 0 0.34932429
Link 107 207 2435 0 0.03607583
Link 108 207 2436 0 -0.10481718
Link 109 207 2437 0 0.19587077
Link 110 207 2438 0 -0.07625795
Link 111 207 2439 0 -0.29262455
Link 112 207 2440 0 -0.94857018
Link 113 207 2441 0 0.11640770
Link 114 207 2442 0 0.15488266
Link 115 207 2443 0 -0.25293893
Link 116 207 2444 0 -0.53732369
Link 117 207 2445 0 -0.10843717
Link 118 207 2446 0 0.14895255
Link 119 207 2447 0 0.06546765
Link 120 207 2448 0 -0.26062482
Link 121 207 2449 0 -0.03115947
Link 122 207 2450 0 0.27997770
Link 123 207 2451 0 -0.06491095
Link 124 207 2452 0 0.03061170
Link 125 207 2453 0 0.71827574
Link 126 207 2454 0 0.48446194
Link 127 207 2455 0 0.04539836
Link 128 207 2456 0 0.46705377
Link 129 207 2457 0 -0.14060848
Link 130 207 2458 0 0.55165040
Link 131 207 2459 0 -0.22579768
Link 132 207 2460 0 0.20662922
Link 133 207 2461 0 0.54849722
Link 134 207 2462 0 0.22957698
Link 135 207 2463 0 0.00193385
Link 136 207 2464 0 -0.34931697
Link 137 207 2465 0 0.00743693
Link 138 207 2466 0 0.12205731
Link 139 207 2467 0 0.08975993
Link 140 207 2468 0 -0.06545949
Link 141 207 2469 0 0.07049949
Link 142 207 2470 0 -0.45685225
Link 143 207 2471 0 0.32141031
Link 144 207 2472 0 0.25411552
Link 145 207 2473 0 0.01037657
Link 146 207 2474 0 0.05015872
Link 147 207 2475 0 -0.77916741
Link 148 207 2476 0 -0.03493731
Link 149 207 2477 0 0.07930516
Link 150 207 2478 0 0.67617259
Link 151 207 2479 0 0.24551733
Link 152 207 2480 0 0.03735618
Link 153 207 2481 0 0.00771316
Link 154 207 2482 0 0.52545594
Link 155 207 2483 0 0.30775100
Link 156 207 2484 0 -0.05730067
Link 157 207 2485 0 -0.21059713
Link 158 207 2486 0 0.15398283
Link 159 207 2487 0 0.01391664
Link 160 207 2488 0 -0.31314707
Link 161 207 2489 0 0.14432216
Link 162 207 2490 0 0.24182276
Link 163 207 2491 0 -0.15706211
Link 164 207 2492 0 -0.25906747
Link 165 207 2493 0 -0.17182308
Link 166 207 2494 0 -0.00565040
Link 167 207 2495 0 -0.42705824
Link 168 207 2496 0 0.03534052
Link 169 207 2497 0 0.27738041
Link 170 207 2498 0 -0.08831034
Link 171 207 2499 0 -0.02429527
Link 172 207 2500 0 -0.38238755
Link 173 207 2501 0 -0.26674681
Link 174 207 2502 0 0.03558897
Link 175 207 2503 0 0.16744391
Link 176 207 2504 0 0.11343265
Link 177 207 2505 0 0.45496405
Link 178 207 2506 0 0.07084515
Link 179 207 2507 0 -0.03015378
Link 180 207 2508 0 -0.26303812
Link 181 207 2509 0 -0.19137310
Link 182 207 2510 0 -0.20871675
Link 183 207 2511 0 0.05300692
Link 184 207 2512 0 -0.38391944
Link 185 207 2513 0 -0.29857386
Link 186 207 2514 0 0.67497902
Link 187 207 2515 0 0.26439082
Link 188 207 2516 0 -0.29361756
Link 189 207 2517 0 0.00370758
Link 190 207 2518 0 -0.65996863
Link 191 207 2519 0 -0.33226835
Link 192 207 2520 0 0.17252838
Link 193 207 2521 0 -0.29644018
Link 194 207 2522 0 0.10480666
Link 1 208 2523 0 0.34524543
Link 2 208 2524 0 0.16289539
Link 3 208 2525 0 -0.23407255
Link 4 208 2526 0 -0.34726881
Link 5 208 2527 0 0.04525629
Link 6 208 2528 0 0.07416826
Link 7 208 2529 0 0.63017396
Link 8 208 2530 0 0.31476984
Link 9 208 2531 0 -0.44236310
Link 10 208 2532 0 0.15265216
Link 11 208 2533 0 -0.04777782
Link 12 208 2534 0 -0.11681952
Link 13 208 2535 0 -0.05846017
Link 14 208 2536 0 0.45047210
Link 15 208 2537 0 -0.06971787
Link 16 208 2538 0 -0.40521160
Link 17 208 2539 0 -0.12786871
Link 18 208 2540 0 0.12125971
Link 19 208 2541 0 -0.13598471
Link 20 208 2542 0 0.20425754
Link 21 208 2543 0 -0.12666996
Link 22 208 2544 0 -0.06603437
Link 23 208 2545 0 0.17897341
Link 24 208 2546 0 -0.61309767
Link 25 208 2547 0 -0.08860211
Link 26 208 2548 0 0.33885575
Link 27 208 2549 0 -0.14332681
Link 28 208 2550 0 0.18214358
Link 29 208 2551 0 0.23438672
Link 30 208 2552 0 -0.31216158
Link 31 208 2553 0 -0.31454558
Link 32 208 2554 0 -0.21681276
Link 33 208 2555 0 0.37887467
Link 34 208 2556 0 0.21342158
Link 35 208 2557 0 0.34240967
Link 36 208 2558 0 0.20606355
Link 37 208 2559 0 -0.20408508
Link 38 208 2560 0 -0.07355941
Link 39 208 2561 0 0.01177306
Link 40 208 2562 0 0.06445772
Link 41 208 2563 0 -0.51492863
Link 42 208 2564 0 -0.02414450
Link 43 208 2565 0 0.10511598
Link 44 208 2566 0 0.17246329
Link 45 208 2567 0 0.22792889
Link 46 208 2568 0 0.07146383
Link 47 208 2569 0 0.16637970
Link 48 208 2570 0 0.29367647
Link 49 208 2571 0 0.11079429
Link 50 208 2572 0 -0.15081687
Link 51 208 2573 0 -0.12091735
Link 52 208 2574 0 -0.02995991
Link 53 208 2575 0 0.06807774
Link 54 208 2576 0 0.09718388
Link 55 208 2577 0 -0.50963087
Link 56 208 2578 0 -0.03554132
Link 57 208 2579 0 0.21825547
Link 58 208 2580 0 0.08110407
Link 59 208 2581 0 0.11562908
Link 60 208 2582 0 -0.12131154
Link 61 208 2583 0 0.35045717
Link 62 208 2584 0 0.18903983
Link 63 208 2585 0 -0.48237268
Link 64 208 2586 0 -0.33939568
Link 65 208 2587 0 0.44545077
Link 66 208 2588 0 -0.25296563
Link 67 208 2589 0 -0.34624862
Link 68 208 2590 0 -0.04629464
Link 69 208 2591 0 0.33373062
Link 70 208 2592 0 -0.10972978
Link 71 208 2593 0 0.01884137
Link 72 208 2594 0 -0.16459332
Link 73 208 2595 0 -0.21355549
Link 74 208 2596 0 0.17595173
Link 75 208 2597 0 0.07687431
Link 76 208 2598 0 -0.09528321
Link 77 208 2599 0 -0.20935411
Link 78 208 2600 0 -0.84352602
Link 79 208 2601 0 -0.31898608
Link 80 208 2602 0 0.00040400
Link 81 208 2603 0 -0.19198935
Link 82 208 2604 0 0.67754978
Link 83 208 2605 0 0.16573971
Link 84 208 2606 0 0.05994030
Link 85 208 2607 0 0.11992203
Link 86 208 2608 0 0.05450317
Link 87 208 2609 0 0.39788270
Link 88 208 2610 0 0.16470952
Link 89 208 2611 0 0.24923294
Link 90 208 2612 0 0.02011541
Link 91 208 2613 0 0.66553403
Link 92 208 2614 0 0.75754184
Link 93 208 2615 0 -0.26724869
Link 94 208 2616 0 0.34139935
Link 95 208 2617 0 0.11314446
Link 96 208 2618 0 0.79722793
Link 97 208 2619 0 0.09070789
Link 98 208 2620 0 0.22899127
Link 99 208 2621 0 -0.86819626
Link 100 208 2622 0 -0.28789847
Link 101 208 2623 0 -0.02396519
Link 102 208 2624 0 0.22903759
Link 103 208 2625 0 -0.19867287
Link 104 208 2626 0 -0.66247358
Link 105 208 2627 0 0.03586403
Link 106 208 2628 0 0.27533817
Link 107 208 2629 0 -0.39618969
Link 108 208 2630 0 0.08433892
Link 109 208 2631 0 0.35201798
Link 110 208 2632 0 -0.13149701
Link 111 208 2633 0 0.38596072
Link 112 208 2634 0 -0.02981845
Link 113 208 2635 0 -0.07456587
Link 114 208 2636 0 -0.01405287
Link 115 208 2637 0 0.39665260
Link 116 208 2638 0 0.20042421
Link 117 208 2639 0 -0.28202753
Link 118 208 2640 0 0.28075203
Link 119 208 2641 0 -0.20965534
Link 120 208 2642 0 0.20736933
Link 121 208 2643 0 0.00175503
Link 122 208 2644 0 -0.44651495
Link 123 208 2645 0 0.14389010
Link 124 208 2646 0 0.83060071
Link 125 208 2647 0 0.16165550
Link 126 208 2648 0 0.02666075
Link 127 208 2649 0 -0.65451136
Link 128 208 2650 0 0.24344165
Link 129 208 2651 0 0.01502176
Link 130 208 2652 0 0.22653230
Link 131 208 2653 0 -0.27208019
Link 132 208 2654 0 -0.39508246
Link 133 208 2655 0 0.82177547
Link 134 208 2656 0 -0.11182944
Link 135 208 2657 0 -0.03983696
Link 136 208 2658 0 0.18078694
Link 137 208 2659 0 0.71501600
Link 138 208 2660 0 -0.61973265
Link 139 208 2661 0 -0.07366949
Link 140 208 2662 0 0.04512371
Link 141 208 2663 0 -0.35094544
Link 142 208 2664 0 -0.17311292
Link 143 208 2665 0 -0.14091699
Link 144 208 2666 0 -0.17581019
Link 145 208 2667 0 0.27575644
Link 146 208 2668 0 -0.11771642
Link 147 208 2669 0 0.50259941
Link 148 208 2670 0 0.14305870
Link 149 208 2671 0 -0.40963069
Link 150 208 2672 0 -0.28117067
Link 151 208 2673 0 0.23930686
Link 152 208 2674 0 -0.19245803
Link 153 208 2675 0 0.06808197
Link 154 208 2676 0 -0.09152024
Link 155 208 2677 0 -0.05263320
Link 156 208 2678 0 -0.01370413
Link 157 208 2679 0 -0.18846351
Link 158 208 2680 0 -0.03616328
Link 159 208 2681 0 0.18438848
Link 160 208 2682 0 -0.16980154
Link 161 208 2683 0 0.00018255
Link 162 208 2684 0 0.49046391
Link 163 208 2685 0 -0.01661036
Link 164 208 2686 0 -0.09596546
Link 165 208 2687 0 -0.12900896
Link 166 208 2688 0 0.44577986
Link 167 208 2689 0 0.15266705
Link 168 208 2690 0 0.17477845
Link 169 208 2691 0 -0.17304738
Link 170 208 2692 0 -0.36757992
Link 171 208 2693 0 0.05812032
Link 172 208 2694 0 0.35195945
Link 173 208 2695 0 -0.14300382
Link 174 208 2696 0 -0.07142560
Link 175 208 2697 0 -0.50120063
Link 176 208 2698 0 -0.27807108
Link 177 208 2699 0 0.08327082
Link 178 208 2700 0 0.62445423
Link 179 208 2701 0 0.39405187
Link 180 208 2702 0 -0.13614261
Link 181 208 2703 0 0.26715883
Link 182 208 2704 0 0.59311293
Link 183 208 2705 0 -0.24427398
Link 184 208 2706 0 0.11521962
Link 185 208 2707 0 0.66020751
Link 186 208 2708 0 -0.25661516
Link 187 208 2709 0 -0.02314913
Link 188 208 2710 0 0.06214427
Link 189 208 2711 0 0.19763338
Link 190 208 2712 0 0.55057075
Link 191 208 2713 0 0.13557207
Link 192 208 2714 0 0.13836789
Link 193 208 2715 0 0.09774251
Link 194 208 2716 0 0.08141182
Link 1 209 2717 0 -0.38983744
Link 2 209 2718 0 0.09072938
Link 3 209 2719 0 0.03918475
Link 4 209 2720 0 0.57950011
Link 5 209 2721 0 -0.06406085
Link 6 209 2722 0 -0.20065528
Link 7 209 2723 0 0.18114206
Link 8 209 2724 0 -0.04408552
Link 9 209 2725 0 -0.03899719
Link 10 209 2726 0 -0.26676191
Link 11 209 2727 0 0.23046373
Link 12 209 2728 0 -0.18939993
Link 13 209 2729 0 0.17744200
Link 14 209 2730 0 -0.85817470
Link 15 209 2731 0 -0.01117777
Link 16 209 2732 0 -0.01779445
Link 17 209 2733 0 -0.01800877
Link 18 209 2734 0 0.62327137
Link 19 209 2735 0 0.29645805
Link 20 209 2736 0 -0.20521966
Link 21 209 2737 0 -0.56539505
Link 22 209 2738 0 0.00712267
Link 23 209 2739 0 -0.08633527
Link 24 209 2740 0 -0.43080376
Link 25 209 2741 0 -0.49767268
Link 26 209 2742 0 0.20858284
Link 27 209 2743 0 0.27083297
Link 28 209 2744 0 -0.00728995
Link 29 209 2745 0 -0.41666770
Link 30 209 2746 0 0.09074524
Link 31 209 2747 0 -0.01405478
Link 32 209 2748 0 -0.17384402
Link 33 209 2749 0 -0.74021241
Link 34 209 2750 0 0.18988600
Link 35 209 2751 0 -0.03642310
Link 36 209 2752 0 -0.33928270
Link 37 209 2753 0 0.05250709
Link 38 209 2754 0 -0.54872136
Link 39 209 2755 0 -0.11316852
Link 40 209 2756 0 -0.50927445
Link 41 209 2757 0 -0.46527034
Link 42 209 2758 0 0.12540376
Link 43 209 2759 0 -0.38748651
Link 44 209 2760 0 0.08784085
Link 45 209 2761 0 -0.33699434
Link 46 209 2762 0 -0.39736297
Link 47 209 2763 0 0.40796267
Link 48 209 2764 0 -0.32522881
Link 49 209 2765 0 -0.09399489
Link 50 209 2766 0 0.05857915
Link 51 209 2767 0 -0.27688563
Link 52 209 2768 0 0.05656077
Link 53 209 2769 0 0.82022973
Link 54 209 2770 0 -0.12141621
Link 55 209 2771 0 0.04809211
Link 56 209 2772 0 -0.40886103
Link 57 209 2773 0 -0.00783661
Link 58 209 2774 0 -0.02074484
Link 59 209 2775 0 -0.06782905
Link 60 209 2776 0 -0.08450440
Link 61 209 2777 0 0.10809292
Link 62 209 2778 0 0.08889172
Link 63 209 2779 0 -0.21936483
Link 64 209 2780 0 -0.17555360
Link 65 209 2781 0 0.23973476
Link 66 209 2782 0 0.36861174
Link 67 209 2783 0 -0.16081968
Link 68 209 2784 0 0.25378902
Link 69 209 2785 0 -0.03088157
Link 70 209 2786 0 -0.05648094
Link 71 209 2787 0 -0.09206406
Link 72 209 2788 0 0.56818668
Link 73 209 2789 0 -0.37949730
Link 74 209 2790 0 -0.71279635
Link 75 209 2791 0 0.19413590
Link 76 209 2792 0 -0.01299601
Link 77 209 2793 0 0.53518413
Link 78 209 2794 0 -0.58814105
Link 79 209 2795 0 0.07786917
Link 80 209 2796 0 0.57327290
Link 81 209 2797 0 0.10033253
Link 82 209 2798 0 -0.18875695
