GenomeStart 0
Neuron 1 2 0.00000000 1 0.00000000 0.00000000 0.00000000 0.00000000
Neuron 2 4 1.00000000 0 1.00000000 0.00000000 0.00000000 -0.26503116
Neuron 3 4 1.00000000 0 1.00000000 0.00000000 0.00000000 0.04974768
Neuron 4 4 1.00000000 0 1.00000000 0.00000000 0.00000000 0.30125669
Neuron 5 4 1.00000000 0 1.00000000 0.00000000 0.00000000 0.38110734
Neuron 6 4 1.00000000 0 1.00000000 0.00000000 0.00000000 0.06189882
Neuron 7 4 1.00000000 0 1.00000000 0.00000000 0.00000000 0.34007576
Neuron 8 4 1.00000000 0 1.00000000 0.00000000 0.00000000 -0.57975872
Neuron 9 4 1.00000000 0 1.00000000 0.00000000 0.00000000 -0.66799548
Neuron 10 4 1.00000000 0 1.00000000 0.00000000 0.00000000 -0.58096946
Neuron 11 4 1.00000000 0 1.00000000 0.00000000 0.00000000 -0.87557423
Neuron 12 4 1.00000000 0 1.00000000 0.00000000 0.00000000 -0.46903412
Neuron 13 4 1.00000000 0 1.00000000 0.00000000 0.00000000 -0.06385172
Neuron 14 4 1.00000000 1 1.00000000 0.00000000 0.00000000 0.06514364
Neuron 15 4 1.00000000 0 1.00000000 0.00000000 0.00000000 -0.31084149
Neuron 16 4 1.00000000 0 1.00000000 0.00000000 0.00000000 -0.12027650
Link 1 2 1 0 0.44580479
Link 1 3 2 0 -0.01534081
Link 1 4 3 0 0.71409599
Link 1 5 4 0 -0.43300684
Link 1 6 5 0 -0.27619524
Link 1 7 6 0 -0.15147387
Link 1 8 7 0 -0.14861644
Link 1 9 8 0 0.03603466
Link 1 10 9 0 -0.08158520
Link 1 11 10 0 -0.46536632
Link 1 12 11 0 -0.22658620
Link 1 13 12 0 -0.66694518
Link 1 14 13 0 -0.24426530
Link 1 15 14 0 0.02098164
Link 1 16 15 0 0.78066761
GenomeEnd

